NIPT-PRL-001-25-BL-Px_S1	NIPT-PRL-001-25-D14-Px_S2	NIPT-PRL-001-25-PD-Px_S3	NIPT-PRL-002-25-BL-Px_S4	NIPT-PRL-002-25-D14-Px_S5	NIPT-PRL-002-25-PD-Px_S6	NIPT-PRL-003-25-BL-Px_S7	NIPT-PRL-003-25-D14-Px_S8	NIPT-PRL-003-25-PD-Px_S9	NIPT-PRL-005-25-BL-Px_S10	NIPT-PRL-005-25-D14-Px_S11	NIPT-PRL-005-25-PD-Px_S12	NIPT-PRL-007-25-BL-Px_S13	NIPT-PRL-007-25-D14-Px_S14	NIPT-PRL-007-25-PD-Px_S15	NIPT-PRL-009-25-BL-Px_S16	NIPT-PRL-009-25-D14-Px_S17	NIPT-PRL-011-17-BL-Px_S91	NIPT-PRL-011-17-D14-Px_S92	NIPT-PRL-011-17-PD-Px_S93	NIPT-PRL-012-25-BL-Px_S18	NIPT-PRL-012-25-D14-Px_S19	NIPT-PRL-012-25-PD-Px_S20	NIPT-PRL-014-47-BL-Px_S94	NIPT-PRL-014-47-PD-Px_S95	NIPT-PRL-017-20-BL-Px_S96	NIPT-PRL-017-20-D14-Px_S97	NIPT-PRL-017-20-PD-Px_S98	NIPT-PRL-019-47-BL-Px_S99	NIPT-PRL-019-47-PD-Px_S100	NIPT-PRL-021-25-BL-Px_S21	NIPT-PRL-021-25-D14-Px_S22	NIPT-PRL-022-52-BL-Px_S101	NIPT-PRL-022-52-D14-Px_S102	NIPT-PRL-022-52-PD-Px_S103	NIPT-PRL-024-52-BL-Px_S104	NIPT-PRL-024-52-D14-Px_S105	NIPT-PRL-024-52-PD-Px_S106	NIPT-PRL-026-47-BL-Px_S107	NIPT-PRL-026-47-D14-Px_S108	NIPT-PRL-026-47-PD-Px_S109	NIPT-PRL-027-25-BL-Px_S23	NIPT-PRL-027-25-D14-Px_S24	NIPT-PRL-027-25-PD-Px_S25	NIPT-PRL-028-25-BL-Px_S26	NIPT-PRL-028-25-D14-Px_S27	NIPT-PRL-028-25-PD-Px_S28	NIPT-PRL-029-25-BL-Px_S29	NIPT-PRL-029-25-D14-Px_S30	NIPT-PRL-029-25-PD-Px_S31	NIPT-PRL-030-25-BL-Px_S32	NIPT-PRL-030-25-D14-Px_S33	NIPT-PRL-030-25-PD-Px_S34	NIPT-PRL-032-47-BL-Px_S110	NIPT-PRL-032-47-D14-Px_S111	NIPT-PRL-032-47-PD-Px_S112	NIPT-PRL-033-25-BL-Px_S35	NIPT-PRL-033-25-D14-Px_S36	NIPT-PRL-033-25-PD-Px_S37	NIPT-PRL-034-25-BL-Px_S38	NIPT-PRL-034-25-D14-Px_S39	NIPT-PRL-034-25-PD-Px_S40	NIPT-PRL-035-25-BL-Px_S41	NIPT-PRL-035-25-D14-Px_S42	NIPT-PRL-035-25-PD-Px_S43	NIPT-PRL-039-25-BL-Px_S44	NIPT-PRL-039-25-D14-Px_S45	NIPT-PRL-039-25-PD-Px_S46	NIPT-PRL-040-47-BL-Px_S113	NIPT-PRL-040-47-D14-Px_S114	NIPT-PRL-040-47-PD-Px_S115	NIPT-PRL-041-52-BL-Px_S116	NIPT-PRL-041-52-D14-Px_S117	NIPT-PRL-042-25-BL-Px_S47	NIPT-PRL-042-25-D14-Px_S48	NIPT-PRL-042-25-PD-Px_S49	NIPT-PRL-044-25-BL-Px_S50	NIPT-PRL-044-25-D14-Px_S51	NIPT-PRL-045-25-BL-Px_S52	NIPT-PRL-045-25-D14-Px_S53	NIPT-PRL-045-25-PD-Px_S54	NIPT-PRL-046-25-BL-Px_S55	NIPT-PRL-046-25-D14-Px_S56	NIPT-PRL-046-25-PD-Px_S57	NIPT-PRL-047-25-BL-Px_S58	NIPT-PRL-047-25-D14-Px_S59	NIPT-PRL-047-25-PD-Px_S60	NIPT-PRL-048-17-BL-Px_S118	NIPT-PRL-048-17-D14-Px_S119	NIPT-PRL-049-25-BL-Px_S61	NIPT-PRL-049-25-D14-Px_S62	NIPT-PRL-050-25-BL-Px_S63	NIPT-PRL-050-25-D14-Px_S64	NIPT-PRL-050-25-PD-Px_S65	NIPT-PRL-051-25-BL-Px_S69	NIPT-PRL-051-25-D14-Px_S70	NIPT-PRL-051-25-PD-Px_S71	NIPT-PRL-052-25-BL-Px_S66	NIPT-PRL-052-25-D14-Px_S67	NIPT-PRL-052-25-PD-Px_S68	NIPT-PRL-053-25-BL-Px_S72	NIPT-PRL-053-25-D14-Px_S73	NIPT-PRL-053-25-PD-Px_S74	NIPT-PRL-054-17-BL-Px_S120	NIPT-PRL-054-17-D14-Px_S121	NIPT-PRL-055-25-BL-Px_S75	NIPT-PRL-055-25-D14-Px_S132	NIPT-PRL-055-25-PD-Px_S76	NIPT-PRL-056-25-BL-Px_S77	NIPT-PRL-056-25-D14-Px_S78	NIPT-PRL-056-25-PD-Px_S79	NIPT-PRL-057-52-BL-Px_S122	NIPT-PRL-057-52-D14-Px_S123	NIPT-PRL-057-52-PD-Px_S124	NIPT-PRL-058-17-BL-Px_S125	NIPT-PRL-058-17-D14-Px_S126	NIPT-PRL-059-25-BL-Px_S80	NIPT-PRL-059-25-D14-Px_S81	NIPT-PRL-060-17-BL-Px_S127	NIPT-PRL-060-17-D14-Px_S128	NIPT-PRL-060-17-PD-Px_S129	NIPT-PRL-061-25-BL-Px_S85	NIPT-PRL-061-25-D14-Px_S86	NIPT-PRL-061-25-PD-Px_S87	NIPT-PRL-062-25-BL-Px_S82	NIPT-PRL-062-25-D14-Px_S83	NIPT-PRL-062-25-PD-Px_S84	NIPT-PRL-063-52-BL-Px_S130	NIPT-PRL-063-52-D14-Px_S131	NIPT-PRL-064-25-BL-Px_S88	NIPT-PRL-064-25-D14-Px_S89	NIPT-PRL-064-25-PD-Px_S90	Genome-IJB-HP-14-xx_S3	Genome-IJB-HP-18-xx_S6	Genome-IJB-HP-19-xx_S7	Genome-IJB-HP-2-xx_S74	Genome-IJB-HP-26-xx_S14	Genome-IJB-HP-30-xx_S18	Genome-IJB-HP-31-xx_S19	Genome-IJB-HP-33-xx_S21	Genome-IJB-HP-36-xx_S24	Genome-IJB-HP-37-xx_S25	Genome-IJB-HP-4-xx_S76	Genome-IJB-HP-42-xx_S29	Genome-IJB-HP-44-xx_S31	Genome-IJB-HP-49-xx_S36	Genome-IJB-HP-50-xx_S37	Genome-IJB-HP-64_S169	Genome-IJB-HP-67_S172	Genome-IJB-HP-7-xx_S79	Genome-IJB-HP-70_S175	Genome-IJB-HP-72_S177	Genome-IJB-HP-74_S179	Genome-IJB-HP-75_S180	Genome-IJB-HP-76_S181	Genome-IJB-HP-77_S182	Genome-IJB-HP-78_S183	Genome-IJB-HP-79_S184	Genome-IJB-HP-8-xx_S80	Genome-IJB-HP-80_S185	Genome-IJB-HP-81_S186	Genome-IJB-HP-82_S187	Genome-IJB-HP-83_S188	Genome-IJB-HP-84_S189	Genome-IJB-HP-85_S190	Genome-IJB-HP-86_S191	Genome-IJB-HP-87_S192	Genome-IJB-HP-88_S193	Genome-IJB-HP-89_S194	Genome-IJB-HP-9-xx_S39	Genome-IJB-HP-90_S195	Genome-IJB-HP-91_S196	Genome-IJB-HP-92_S197	Genome-IJB-HP-93_S198	Genome-IJB-HP-94_S199	Genome-IJB-HP-95_S200	Genome-IJB-HP-96_S201	Genome-IJB-HP-97_S202	Genome-IJB-HP-98_S203
-0.12575981440072864	-0.1501820917028117	-0.10833666436716227	-0.16809953685143642	-0.20366832950137984	-0.1524556794808308	-0.169373871102267	-0.23439271200938505	-0.19478100403340723	-0.226668085303187	-0.23857550800187072	-0.19522130755378816	-0.19726948223697324	-0.21136193959445046	-0.1791787315206896	-0.2075409777208323	-0.19445904951655008	-0.15870611393026474	-0.2303891466037682	-0.23090888065147552	-0.18528671226070142	-0.1539735915712679	-0.13617975973163965	-0.11722004215880075	-0.12361926153732453	-0.1947571606777829	-0.15408111851382683	-0.2090199102756377	-0.21536190251781012	-0.19421041396104896	-0.1320704157968141	-0.1128156956646067	-0.1791093188605687	-0.1732275414873698	-0.1803838280502128	-0.1996058417416838	-0.1866999144515831	-0.20009228146335056	-0.18206705934064685	-0.23551528101651978	-0.23024973481697505	-0.21271428414478172	-0.2195408814472719	-0.19405805560941797	-0.2257147257500454	-0.1916442139600771	-0.228570979059324	-0.1508655502887042	-0.21036236684738935	-0.2084729651397855	-0.13342079098940213	-0.18213315803486657	-0.22268851569717987	-0.19228781381241783	-0.18847505210697557	-0.17320849904093188	-0.17808984938999112	-0.1553906654087943	-0.18432805875289288	-0.19098591813844776	-0.20130324837040267	-0.1412863487834468	-0.24365724646144912	-0.228844329262593	-0.23575788539910048	-0.20007896296712532	-0.21087529312630102	-0.19847022699292993	-0.20340892196803875	-0.20217629456030087	-0.20996779281492506	-0.15568072416519296	-0.19554707584037948	-0.2269386256573526	-0.22301965670334561	-0.24783731301221254	-0.15222283924337754	-0.06441214301249812	-0.26587165707753724	-0.1816196255843548	-0.1820576369199623	-0.18491612728902407	-0.2089055006476836	-0.16336870653001778	-0.20171327276877285	-0.15219034508681437	-0.2491822895565644	-0.1929471479557315	-0.17237158850992337	-0.18834926246045583	-0.2375292539403072	-0.20256787886630098	-0.20676394324945743	-0.1858895522556429	-0.1769448175806952	-0.14204043248382886	-0.14276692488452603	-0.14664295503510258	-0.21967591055643157	-0.1560133180230064	-0.13643938541216605	-0.1724109562434149	-0.19494478267910376	-0.19125520298220086	-0.18860850022267822	-0.20641101171005521	-0.1982857465272232	-0.20786393037981668	-0.17025777670597186	-0.15982711612543737	-0.18914748445860438	-0.18749794625375898	-0.15204113494911248	-0.19555182361750703	-0.2174107138795825	-0.17943437411654656	-0.22158269727452048	-0.1500092705853836	-0.2350795491389193	-0.23621112620780577	-0.1802245986208046	-0.14286717433160295	-0.20771600999550113	-0.13514041629905724	-0.21779970162653145	-0.18521715473969935	-0.18568910335185615	-0.19087862281602314	-0.16682551612840196	0.014342119743970386	-0.11542847465801717	-0.19735008146473296	-0.16608293676314262	-0.23377801703784898	-0.15771913594793674	-0.18638190915321057	-0.2367908175166206	-0.1459521607567363	-0.13320331309212408	-0.1132034455128945	-0.12399487818732752	-0.17740564765045755	-0.20181997559136194	-0.14299074006471016	-0.07197304806689407	-0.15019644784765693	-0.0919168735180203	-0.17331384819925394	-0.15192927594733038	-0.1904463556307743	-0.19061578926727107	-0.16215887671633544	-0.14833506384432157	-0.17394018058315602	-0.1755273869772342	-0.22945570865233775	-0.18653416584568655	-0.18990325174495082	-0.2195943103623361	-0.17519913988430683	-0.1253771396534668	-0.253360277800039	-0.21480615546237355	-0.2161682728257688	-0.20099958739440352	-0.1760715106086188	-0.1704817276043522	-0.21132449760236335	-0.1797757351221103	-0.19450685998946873	-0.15933612649927234	-0.20612256629263107	-0.08223990546985654	-0.2104937115325843	-0.2050877435606316	-0.26942072559642555	-0.2564176855588963	-0.20204734998675006	-0.12686122269918187
0.18635308405659196	0.2395065796087741	0.19857110452860627	0.36606648982034984	0.37681795452392275	0.36724672980639705	0.2954881837909963	0.39232500159817685	0.272996751377968	0.23449169260559524	0.2627622255947987	0.3100438822956694	0.37787432092059203	0.3748761873490999	0.3730297571277782	0.4160048993616262	0.3365771148524068	0.2608275317892571	0.26468225029725045	0.3801440069274509	0.23544239753337354	0.3971631608781261	0.3785988050387349	0.18610652441165	0.2006373954171693	0.31838250966693626	0.2570027052421701	0.2639110829438127	0.25291263610915216	0.38010253576164577	0.22297190805584166	0.25079691212388966	0.25675134136486766	0.29045576631108805	0.4018101935456574	0.31426837374161454	0.41671274081981124	0.3447470437143314	0.386806757187807	0.382238144037641	0.39267703929839515	0.2784513300463244	0.34568786274169316	0.3819256656416774	0.3706031510370935	0.4033470906316361	0.3502541117743364	0.24016569620040906	0.3702798699990154	0.3767791321112507	0.19254772666073258	0.2781959664025462	0.3355642271651538	0.4043110392102742	0.27026110579621676	0.29932210790292635	0.3550596030961851	0.4057297737589717	0.3555636678320593	0.37790663730760055	0.30832344775671616	0.2301294850663628	0.40664878188558196	0.4062862257793264	0.39630122734865314	0.3210154312718205	0.273602734136677	0.3544145678267061	0.2832713487088673	0.3170879224109423	0.34100461473370425	0.21903455039984457	0.32987853114762467	0.37623276297368013	0.3822726140791457	0.26751426568141046	0.3745690568008858	0.35876128100808047	0.43709202897507293	0.29903431015606663	0.27239492425524436	0.3776524420610079	0.3849667025541246	0.2694322661902113	0.2813502697734867	0.21108403047999633	0.46842519019789886	0.3457010786429874	0.4012873056343622	0.43401138675256323	0.380697615444905	0.422436790014888	0.37989695846702254	0.37659805516121325	0.2652879398641307	0.20308871505770107	0.2021685785205001	0.40292913219103754	0.39708297988618835	0.20074706388565255	0.1965321072814693	0.25816172553828765	0.2965386853574694	0.34333128433131666	0.3875689525714683	0.28257558791007664	0.2963427594914029	0.28805129833378096	0.28869656583212133	0.2645390191226554	0.3188208010692175	0.319424022649357	0.3713207966673302	0.3876679326957213	0.32299859210061965	0.40216439773047974	0.2903246183912036	0.21139456915319138	0.39722963811899126	0.39632442603758133	0.41589602783787927	0.23928976838887736	0.4236451213113611	0.19843222302134828	0.40859905002585306	0.358575167500251	0.30222189755663353	0.28206138576761974	0.435595092971378	0.35844746832830776	0.39596613234917233	0.38577413424655127	0.220610486059253	0.36247208894421734	0.19212556778456694	0.2685955204293288	0.2924586971726454	0.18185173237525265	0.2329887056011699	0.19331505448662295	0.18936365792001683	0.2849773777928484	0.27103417317971346	0.1898380720255499	0.2178910929432723	0.23584905722638547	0.2032695707104735	0.22384194565480298	0.2641048007077479	0.2683046213398334	0.4097118188626844	0.23670957954386504	0.17205437925350597	0.24240260224065738	0.26354432760413915	0.3799448477685612	0.24932029783596785	0.30856936864056894	0.3183921558508654	0.23057227748167655	0.22103382587321121	0.2893861366135134	0.35202744771291894	0.28237399527964113	0.3064865806561211	0.33376634998899213	0.40443648224420237	0.25355861625077514	0.20284535677551477	0.4030075895683405	0.1722001853624056	0.3480338682597378	0.44268595843157754	0.3860168747750431	0.29382271647984015	0.30096986268902326	0.25124041978767453	0.39474729673743447	0.19271374072654887
-0.12089293636765303	-0.12461387596827572	-0.12075680937816582	-0.2558484810356095	-0.23101460449038783	-0.2209504799594023	-0.13811798838296585	-0.23509330403737624	-0.13996770852269416	-0.1346843231472063	-0.13461295355204078	-0.15241846426723699	-0.2405736427689249	-0.24293738142833052	-0.2541105852844913	-0.19623835994482192	-0.13073194728790594	-0.11233119128393684	-0.1356724524828598	-0.22819385848711998	-0.12701406096694112	-0.2638725816950248	-0.23867181370939752	-0.12746858045681017	-0.10313234614045344	-0.12285395327545592	-0.0944187314276132	-0.11585975625034031	-0.1631544907365658	-0.22067588135391336	-0.09641673597965694	-0.1055818901166653	-0.08238305579967437	-0.09023264726919958	-0.23599744083328897	-0.13257621184056098	-0.20336797655474426	-0.1559116189013086	-0.263813196265822	-0.21483893781367785	-0.20236224854143742	-0.14390209187206696	-0.1860568328147444	-0.25729499094198516	-0.16826827728616	-0.18849271053626	-0.1653084712402879	-0.09846634187423228	-0.18160265783428897	-0.17552845486518875	-0.1011132214300626	-0.11136797051788419	-0.14063271843709624	-0.19261138526433802	-0.07830414995915955	-0.0964756199630098	-0.24810469303055316	-0.23625848585304804	-0.24048986837941788	-0.17278681124806278	-0.11381981392838278	-0.11152035032793489	-0.20444264007664334	-0.18330232419584927	-0.21005628794182507	-0.1095243140929063	-0.11507551428543719	-0.170112689959889	-0.10770845754946398	-0.10750591748443034	-0.1563702198307677	-0.0991098888084008	-0.13231762336464428	-0.20526415671796322	-0.20360815185632802	-0.1303853415241156	-0.2197509604132076	-0.21986044381631403	-0.2503674085050269	-0.10558773013815428	-0.09661194190259301	-0.22861152990293387	-0.18485014163981223	-0.1166186058549521	-0.10484953069631653	-0.11165130269390827	-0.2552839866384945	-0.18153777092633475	-0.23005000060298403	-0.223643720484833	-0.23541548913523513	-0.18123855118845572	-0.1987370156869775	-0.20918074516151708	-0.10388518578250673	-0.10256405445215837	-0.08415227306690977	-0.2624048141285988	-0.21367921702832585	-0.11440768648200891	-0.09963668284778102	-0.1157269981785903	-0.08099718625977007	-0.15249290742856259	-0.2003849335763222	-0.10590155542580057	-0.1080798905949775	-0.12825128808545266	-0.11336228532053058	-0.10953748194681427	-0.15494637988098736	-0.1777212913246641	-0.22209176884954185	-0.27297863534418815	-0.08966487934917883	-0.25232967675202767	-0.12622381915023453	-0.12157535929122462	-0.19117759762550465	-0.18937006892326202	-0.20847599645600123	-0.09666162892569208	-0.25821476365819523	-0.11244919986069311	-0.18355726664226318	-0.1590583651742177	-0.13755064015297508	-0.1153660347953184	-0.22393198003050052	-0.1875296805938229	-0.18101596599467232	-0.1819097959203736	-0.10392877007877566	-0.16713594405336704	-0.1050403751392548	-0.1053658645821644	-0.11846794348075712	-0.1311087917781969	-0.08976441544858257	-0.1254813775341938	-0.11196195618687023	-0.08970735060096799	-0.10041540813043409	-0.10570935896148329	-0.14826648248116497	-0.09198548573433993	-0.13293501527506127	-0.12395027850719773	-0.08632149754217172	-0.09506703054405274	-0.176877945920587	-0.10246482276449279	-0.10999009475000635	-0.2073391591091377	-0.20891022730940514	-0.15699687208837892	-0.1041079370804449	-0.15722858535934128	-0.12869266036808033	-0.10047331455240416	-0.04436268911259517	-0.08933905501585293	-0.1617099211791614	-0.12130350049067123	-0.12666772911840968	-0.10864292098491929	-0.22532717340133443	-0.09175671391877349	-0.11434044961565892	-0.1890152534708765	-0.1193498487372946	-0.1435292677499354	-0.1552066340458471	-0.24351702206455184	-0.10333607733455047	-0.10451616207785638	-0.13627362647452615	-0.18640597593131059	-0.09791326111288193
0.16410786456465218	0.2059670373381239	0.15167371457589926	0.005367618359540735	0.014066402342586978	0.09768732078320064	0.2389290628454247	0.03541247844835637	0.22618409052386076	0.28824011815069894	0.25141735241634355	0.21153326559136273	0.014023770695265211	0.013041007576039543	0.04468584324783623	0.08089439794312842	0.17359779895139366	0.24311919368074333	0.2354103278983097	0.003541813845600761	0.22984453431616766	0.036640565141611625	0.0853323077633411	0.15701902830848896	0.17398861282932604	0.2063011311048287	0.20708418193829253	0.23731365854221492	0.27143562411354405	0.05740091229495118	0.19181671591998295	0.15691239590719994	0.2202384677557361	0.18530434574984203	0.05149868991921339	0.22532485231889268	0.04454564941989657	0.1699562958617683	0.03744776483079747	0.008208743371394253	0.05630033361666005	0.23770657225321187	0.15317554831379537	0.052374371893871174	0.14160393395346	0.07752327101698522	0.18506797362099128	0.2144543869385867	0.15553577986548828	0.182411700583082	0.18415156842778815	0.21436254555020964	0.17825899635752102	0.10072515256420933	0.20101471265067425	0.17639884576591766	0.012448547853507644	0.025317883205976416	0.029313488504952433	0.10488685610929005	0.22192504966952145	0.20835689596700893	0.03670128613897018	0.06081329590691632	0.05117879020894263	0.2052262506427407	0.21373743036630594	0.1530571129541949	0.2031541506287148	0.19750450863691196	0.17535469344905008	0.212122521466883	0.2049150747041963	0.016143287874887675	0.07861810891301009	0.2175964195908625	0.20948456012168978	0.2149816699374201	-0.023875247806606326	0.1801944781964804	0.21410607577436552	0.13177350084496736	0.13794354573603293	0.18566439367580273	0.20197917801802331	0.2153226064761256	-0.02227260081472067	0.21260077700863492	0.04355760176965612	0.05198938598905058	-0.01390772180582861	0.10323590161380104	0.08960181595228311	0.1522545905343933	0.22097150871328866	0.20036168121679157	0.19376587393515438	0.029329652810849045	0.08518935840378405	0.2178830599047047	0.17907181928657084	0.20812148431841218	0.2375472456839096	0.15939182296549936	0.11035896532507508	0.2113147964608345	0.21283206422245451	0.20787454153483356	0.19595382390957516	0.2045316935221414	0.21689157444069526	0.17015370577628555	0.2145112686948533	0.05093722113777259	0.23508339592397842	0.03209089191720374	0.2090550163775356	0.1954466254293398	0.07584661703559314	0.08175556731900946	0.19488712792313695	0.2087160816556582	-0.021678775776845474	0.1823575841263327	0.09890619023939821	0.14269079660911763	0.20439570269753948	0.20855000900545437	0.013266745829023215	0.12910088174802686	0.07082122641152615	0.0653018333511367	0.2335754222705654	0.16094195946692047	0.209036832500984	0.2399969806083385	0.21066889719545942	0.17844665527733275	0.20662167844976118	0.15361688824571187	0.16602754911920464	0.20113693766066323	0.2000378969469205	0.1986934004452172	0.12107634091401703	0.22399367590624356	0.14824534373004275	0.25892096664679354	0.16989858234609784	0.202298524302778	0.059987083545656	0.23546945008512613	0.19640522293662124	0.23034299300789413	0.2590015447531244	0.12745684080668018	0.2425668591240245	0.23620755263519724	0.22358964205504414	0.2536243658673891	0.17977521342969938	0.26204797070155605	0.16468744896062473	0.2411235204526933	0.1643508138444012	0.15180318511507046	0.04940433681684739	0.2563779163191833	0.2616251276326358	0.08743644667731118	0.209249821120883	0.15913166881250482	0.011002713489405399	-0.017915556102767752	0.21232021631558756	0.25262952934408056	0.27016883635613864	0.11176545212370584	0.17976242628186398
-0.30148943762717817	-0.36773728044929577	-0.3077562429435343	-0.19852635744908065	-0.2477974986375412	-0.2533203823561808	-0.4461592186400382	-0.25911706596745815	-0.4304250443798103	-0.3760017679651992	-0.3963070997523253	-0.4327655901971791	-0.22456308600282887	-0.22063147434297042	-0.228542976752796	-0.31327355479845204	-0.4471786584245368	-0.39917822566759187	-0.3953668518037649	-0.20472307267591933	-0.43679162351697903	-0.23775203245403248	-0.2912146253929145	-0.30286637357909035	-0.3335657534185422	-0.4448531553892154	-0.40485950689794237	-0.4174247848760087	-0.43183520943143305	-0.268017678506894	-0.3699398254613853	-0.3662603047837486	-0.4046819679973834	-0.4345281738965162	-0.26278265639909637	-0.4356812816715078	-0.290477231926682	-0.458048469386078	-0.2287477464556276	-0.22858547231322962	-0.23782207805903488	-0.43293073325921655	-0.4175031020617282	-0.2272203548451427	-0.37855512233377014	-0.3290671419732445	-0.42516017358415775	-0.36885884921326745	-0.4093322239310054	-0.41384625238607997	-0.34372484508351714	-0.4030788511053888	-0.46073478130201057	-0.3259271466187182	-0.4218914942396222	-0.4571261105230325	-0.21505224272042087	-0.2546953549494949	-0.22416333963814739	-0.36807657858763854	-0.46763902669132096	-0.35804546843759577	-0.22656580682615635	-0.2517566310012178	-0.2253966912711884	-0.45971887889357527	-0.4083573430823232	-0.43806235458638854	-0.42853761372055865	-0.4509515724708477	-0.4605825576776926	-0.3713160349709067	-0.4576202313863683	-0.23696859773807616	-0.25528215888915484	-0.392628002580656	-0.2860197673946657	-0.3179469291931206	-0.1821394000081337	-0.45220187478514673	-0.4021738955288892	-0.28505622358500166	-0.35789162778567446	-0.4583316930425284	-0.4311585215954742	-0.34388468404162004	-0.18240517603266465	-0.4429931273588708	-0.2674956040214602	-0.2158691032867769	-0.20399463454918576	-0.33645607639664427	-0.27396252965780254	-0.25857038908228486	-0.4076661842855998	-0.3365878154660785	-0.3431798620435442	-0.2267819684107978	-0.2386072694483788	-0.33476872705750693	-0.33173356892319494	-0.4007559480482134	-0.44139680138707327	-0.45782415277978394	-0.3399824657898359	-0.4206305024157396	-0.42772743241519284	-0.42643265724843343	-0.4322391077879877	-0.3957947784145121	-0.43983588294114817	-0.43625418183674614	-0.28071255393322775	-0.22359050391516883	-0.4473484669237065	-0.2421773952774512	-0.42137050115309943	-0.3582723360796252	-0.25888891220758214	-0.26607333355516616	-0.26381069785527594	-0.38151778513966506	-0.1908007381484626	-0.3319540284402413	-0.3306858613006783	-0.42760572427602567	-0.4406703741108955	-0.4166152601412711	-0.26852201899233646	-0.4178215096680563	-0.31876689854206275	-0.2842422178037825	-0.36554346059722465	-0.41924397427699267	-0.3347216612519077	-0.4202679516841519	-0.43790326207897085	-0.30454188815752065	-0.3459291847835958	-0.2979778618320617	-0.31475557546333477	-0.4148236553665868	-0.42347776932508285	-0.3027080422924283	-0.2845594611825751	-0.3612220220374361	-0.2962113928958177	-0.3498578999228874	-0.4661901984908502	-0.41344595517796556	-0.3406402450296486	-0.37425639677972744	-0.3109427637530798	-0.373267962726467	-0.38535512281656875	-0.3867705273151234	-0.3709377362715208	-0.4184063880693005	-0.45255683155200843	-0.3836770296912967	-0.3696227693543439	-0.45208804266934915	-0.4190586538216627	-0.4262832901054122	-0.4503434163027457	-0.469643797036015	-0.2676903023949056	-0.4160310514667103	-0.3225786764645909	-0.32704870916378004	-0.30568692220464694	-0.4711159361882365	-0.34078149907897165	-0.206791418014601	-0.43514187965469836	-0.4061281375612016	-0.38295511105154906	-0.3502875445864143	-0.33824679578141975
0.26216771573733355	0.19112850737289414	0.2474825291915498	0.096836780817852	0.09891988093879053	0.05056407294859128	0.1127450219362712	0.07682297308051239	0.11292582929171269	0.16253553462949263	0.1525506219314759	0.10706111726697251	0.09568951255536962	0.1104282922002904	0.09844872199575253	0.04235987263187149	0.08043457860502282	0.13550451110112338	0.1434372544871863	0.09662874769734486	0.17305457814941047	0.08419215356647156	0.0725003666438701	0.26032307055455306	0.23248950014620254	0.09392432903682041	0.13344485756586266	0.14258422638455165	0.1963510275256378	0.11073068462357802	0.1878605229645113	0.1810783667833866	0.13470058113809	0.10655041078865349	0.0518757377890795	0.08828369358415533	0.024691621178325573	0.09045944232969619	0.10086810244954222	0.10073610532612423	0.0835278618310607	0.13465313970318632	0.11196090346163434	0.1023120157958668	0.05777072609979639	0.020542749815520067	0.09329875316815356	0.17976317313144594	0.07221770052080806	0.08845837365740991	0.2388304601052055	0.116368514270272	0.07410002890606304	0.007985170086659527	0.13905683696243593	0.09183537233700567	0.08944582183083816	0.04834147963882188	0.08014753038065481	0.024294638066086394	0.11762474246622331	0.1963401921350917	0.10479506352718351	0.07605528330245134	0.09838747898263467	0.11113782125017158	0.14001494690451904	0.09371804287089006	0.10742353701392907	0.07428112046572616	0.05873119976314328	0.20237864693828714	0.08478975907856229	0.09767994722323498	0.060966209290818835	0.1324348047494528	0.03257674086401183	-0.0644092906461384	0.14200982653614455	0.10338346766426582	0.12395326109993127	0.08990024267387395	0.026785897928295804	0.12046903506701151	0.11905717442121172	0.22118990148896064	0.1335260160903321	0.09255964558763635	0.04322362191545634	0.060753993211767277	0.11883241894978247	0.009867202984232493	0.060917680947620734	0.029831960928341034	0.12689918299196465	0.2296297001136472	0.23410240682178227	0.02989083219611871	0.07899584724485062	0.22847880683828578	0.2334054043077651	0.14954994134021043	0.14254998921906525	0.06674415976731901	0.023101803251552727	0.12671245076603985	0.10395444036338089	0.11167890468854308	0.09922736474968252	0.13782902604479627	0.08667775359988275	0.11066161645507985	0.03291843947049419	0.10395762867753594	0.09701779323547757	0.07846739151000792	0.09619527463118069	0.20653111588922865	0.08840502276978365	0.08155966059038836	0.03223202637049469	0.16619964089756809	0.11489751188028921	0.22779762343803914	0.013679547757009525	0.06778719238828063	0.10922148894108072	0.11023105742391298	0.015224716017736784	-0.049554314376743264	0.061031994406086754	0.09919378948816057	0.2045753629778835	0.07343920479162358	0.2439896527333745	0.14442700780047396	0.10606503107583992	0.26350074030535564	0.21148636949014024	0.25789900019872014	0.2543808659951722	0.12033180936877891	0.14702998462511674	0.27501080394111654	0.24217620269255777	0.19262929905853446	0.24688201870511253	0.19384716595858495	0.13556036171335706	0.12380736945010593	-0.00822607221404123	0.16390374198828933	0.27222205481473005	0.154300785702627	0.18235234526323157	0.059295752624477616	0.16104452546607403	0.12806192311235282	0.10157303568970807	0.16938637527346193	0.19925459992949804	0.1391698838732064	0.08419631580164377	0.1215999724525175	0.09216695845925071	0.0671859169368533	0.030021414064938107	0.14698552539469434	0.22734765833716586	0.020671859160620143	0.25872940456952653	0.08305003773626726	-0.12787746807961026	0.11214939914631597	0.09832621742323908	0.11991331607619474	0.16513063605642195	0.012755613951569988	0.23478528838785237
0.5308455353936099	0.5157598160622872	0.5212757134713301	0.7708232191136186	0.7575896645364126	0.6997761247743726	0.5851098206394392	0.7848588662502209	0.6129979698169201	0.6000317407604463	0.6156279702896323	0.6396971225903154	0.7537465341544971	0.7468046413116689	0.7348702122001627	0.763241484464311	0.678808475543772	0.5650492916604262	0.6356207656294062	0.7973647942034188	0.5930568544340762	0.7612121761865616	0.7101699412022722	0.528094739483749	0.5316438552067557	0.6374679232510732	0.5699632255752758	0.6228944283123192	0.5623240788964785	0.6780129142983027	0.5359652710085705	0.5136845919236366	0.5889811914781762	0.6409364466420107	0.7337521181820512	0.6220231169942503	0.7400710443251304	0.6840929608236415	0.7528945676442185	0.7625506017220365	0.7642229915680268	0.6130829295786779	0.6855327659556614	0.7479335058762095	0.7226950291981398	0.7371136033692407	0.6915833658762294	0.5137616665335198	0.699305038534725	0.7005948741442838	0.5179212353464039	0.5584025638511736	0.7041810823720807	0.7370799531720986	0.6315578531128367	0.6695874622363189	0.7430867661148937	0.7469019717893199	0.7481060900682281	0.7085952539082925	0.6139814161894057	0.5179031930259119	0.7821485423831105	0.7708096069929149	0.7711772253120879	0.6345794419830331	0.6375358070242008	0.6704452292548584	0.6387625300016724	0.6504195613225441	0.6963470213196816	0.5302144575284224	0.6368906517946684	0.7551122087162059	0.7512006306356844	0.6452720217796983	0.634644944700492	0.5939955030247266	0.8403300434219922	0.6548865533501751	0.5971426220674181	0.6680787393995542	0.6972182710915078	0.6230181766876874	0.6050448643914115	0.5242862920724927	0.8319893217033598	0.633169521263929	0.7489789537264655	0.8108122374333697	0.7896246729257446	0.7659634019343211	0.7197125371334483	0.6907517700785037	0.5663676629221333	0.5307711002613635	0.5235089899656156	0.705738877594519	0.7420195368490896	0.5384021932863203	0.5307840859507222	0.5581976961489055	0.5917842016206514	0.6923426998679156	0.7104221393178374	0.6023826022174119	0.6273665055124871	0.6444380683393518	0.5996591908665796	0.5612488358589687	0.644554185644342	0.6846300228247231	0.6606581929397259	0.7702715252079897	0.6177592649599628	0.76082953093858	0.6536141793931305	0.5510963818990215	0.7491516438023249	0.7439908427767012	0.6876006385417888	0.529380973013958	0.7877858066668428	0.530704735058053	0.7673658573047233	0.7079965738985461	0.6395513950679719	0.6369871421855675	0.7660176209750609	0.5734498210453398	0.6988499765900558	0.7136253736366782	0.5275797989259559	0.7139564809022805	0.5274757073024503	0.6000990606013543	0.667095694339672	0.5363382755695295	0.49880417862116816	0.5283604050239343	0.5281347035777109	0.6099578843481199	0.6232018190925608	0.5166493554862475	0.5136995918788498	0.5110262340578207	0.5160068692475306	0.5327240523454649	0.5940024418893419	0.5972847051095538	0.744072734417571	0.5335439331957814	0.545107157162798	0.5308906948202732	0.5317362022446602	0.7168338618132322	0.5868248834353671	0.5638670488715605	0.6459630734908199	0.5829027998638245	0.5125595653535039	0.6089158805062873	0.7183970351677464	0.6273370558766767	0.7009304155799772	0.6900422594377909	0.7365526396215887	0.605449260962821	0.5501214862189605	0.7423805165130735	0.5477214360120874	0.6931200412800449	0.7487417220782118	0.7529943594738586	0.6406828779156009	0.6500649715342528	0.6215382562593459	0.720696062108634	0.53004742480356
0.5495469855943307	0.5974351687751918	0.5624576606064652	0.1640625719906683	0.13317059331094563	0.17551496059004898	0.3993072155401508	0.14166165644005227	0.4162453777401345	0.4750768652492122	0.40573699467705715	0.3686070038325544	0.13679135945853058	0.13610743511296167	0.1293163598473703	0.15716101188092776	0.389208261340775	0.525091508659134	0.43682838200314955	0.12240676980378037	0.38659715928335514	0.13199017290619822	0.13824229384629091	0.5497495726019311	0.5660627301352954	0.397157442515913	0.5462283843023736	0.42689960704632013	0.32053034435373184	0.09372571342392497	0.5716735280974861	0.6157203154112246	0.5428960161931631	0.441606969203422	0.14474014977660085	0.4097527408304441	0.1516887646019021	0.29971989247281805	0.1253874463373457	0.11812075230213956	0.11850690665104499	0.37555522478635406	0.2691685186904569	0.10669446238302313	0.196226139035846	0.17629401084968274	0.24606530251152156	0.5911860827890222	0.29015320613808704	0.27239157120643986	0.5709459897292918	0.567720639523518	0.34406455424495275	0.19165523454815667	0.4841963383979456	0.42186546556978466	0.153896785938796	0.13818181814075	0.14727485535519955	0.2274574872899068	0.376279568033156	0.5844475395160493	0.10012005143471123	0.11939939538802155	0.11084688043681509	0.38135436929290667	0.4389871761772939	0.30134829715541234	0.4264138962872486	0.4200493747977825	0.30512310289917266	0.576253137575583	0.3889543256806418	0.10350166465990349	0.11886297709824309	0.46304584736469445	0.21488274117492825	0.31086592576318217	0.10761811258332757	0.4117192521342241	0.5165946755229867	0.1395310440242545	0.20125205010368843	0.4071137099297554	0.5018428437300784	0.5687750766217227	0.10384751195956524	0.31214666612263275	0.1383362484238325	0.18996769280614464	0.1096757041676861	0.20072150940185976	0.12470046836782309	0.16935284112812451	0.5423274704841141	0.5664366434051111	0.5727299358791175	0.16291464285833315	0.1292316514068039	0.5545455351392446	0.5685529207186043	0.5784239542861827	0.4302957005912198	0.3448763278129454	0.26620930413033506	0.4829464203948364	0.42632272785677583	0.3958653895864803	0.4671932595257473	0.5725619972774425	0.37585530664670985	0.28876727781508793	0.20376528922070877	0.1298170543538739	0.41976571844889865	0.12670079825252176	0.41499152409587614	0.5610874015529774	0.11121839727671842	0.11754528284758567	0.2130240839099012	0.5764117515600857	0.1137967195950744	0.5652568036364417	0.18112267998553147	0.29934398567197407	0.37505867570879814	0.44195515642762384	0.1674656789429607	0.3039596672691436	0.12863095538018113	0.11294013134634526	0.5721306340958023	0.2538141121683548	0.5638572405637379	0.44862330747783863	0.39035742960341324	0.5547247566337321	0.5958004742759986	0.5544038411115217	0.5560446906618364	0.495338174097561	0.45304520064216525	0.5497584392739664	0.5673694877354756	0.5962940789618421	0.5611073066557156	0.5643477753568418	0.4298120912879132	0.5348871782422182	0.24213761961571786	0.5633681998867226	0.529850700635777	0.5532115386840926	0.3826497810674703	0.2064161440236851	0.533189669050274	0.42152314442677286	0.3634668141444748	0.5292677087374982	0.5865926027767794	0.410733975122097	0.24065966356186638	0.3899687637923428	0.3531077054401083	0.3896399565534593	0.1446286338539511	0.4702209653953866	0.5323486538204331	0.17480927329441417	0.5285908550495709	0.3236340181694405	0.24982294728016838	0.10745352810491934	0.4283124322164782	0.3946234849409056	0.4282923454243397	0.25703891695025904	0.5600108094130555
0.5911299799625662	0.6076168418263781	0.5759525652805484	0.9847163082601661	0.9705011128101566	0.9782543376859797	0.8354642382813943	0.9480849441172099	0.8004654018661241	0.7013638252106517	0.7646487882120294	0.8778422851236929	0.9735865962597866	0.9778195357750028	0.9709488608222256	0.9391927396686519	0.8845458891268962	0.6760385926604944	0.7461505721523631	0.9681045772555725	0.7529211701941031	0.9711560570068152	0.971454571576436	0.5794700912571884	0.5760986269378673	0.86254093378396	0.6539012185615272	0.7314282475414853	0.8874305698850118	0.9887953210272581	0.5972413449472318	0.5907202954794792	0.6398797996532718	0.7707769505799374	0.9702434061755545	0.8536844906822326	0.9575797318672142	0.9265384153686493	0.9865949186640866	0.9586096730689055	0.9516387895215095	0.8418663839201719	0.9458321901930737	0.988376853230563	0.9442122103390914	0.9363639845151188	0.9397042561428208	0.6099666341326011	0.9526581984705031	0.9311559153363188	0.5676063088170183	0.6705440261400515	0.8770036738741573	0.9590505563272005	0.6687901812639163	0.7938280926428646	0.9676543808440059	0.9628108587678953	0.9610398304134469	0.9480870580155636	0.8484768868470365	0.6238818833272515	0.9598190275568474	0.9335670391829072	0.9675780544121628	0.8463974242331129	0.7473077338028362	0.9447859808563501	0.7758551884284657	0.8352338141443894	0.9161423499050154	0.5955092411420052	0.8736747594690386	0.970373118791354	0.9454601407778256	0.7356676931734307	0.9896107822648732	0.9064462216950522	0.9505069104816422	0.8307466025847317	0.6795939681726272	0.9938962499126227	0.9682072462558349	0.8152718811095365	0.6965570492047024	0.5927515451613841	0.9344226629006857	0.9691377720769354	0.9638191225252695	0.9127418270391541	0.9814923917439231	0.9396081276073958	0.9485139786278463	0.9596723188143215	0.6702201324008232	0.5852595626389102	0.5662639459427105	0.999988154828447	0.9546701837106633	0.6084621158613471	0.5778897045751081	0.6301686649648005	0.7590685671401183	0.9262314820393519	0.9707667773534343	0.7126280745964435	0.8011497833798983	0.8345848489460117	0.7767415032894291	0.6420378634425824	0.8759596550604336	0.9401106919786586	0.9666587811985243	0.9864600385219898	0.8109783514521043	0.9737643986431109	0.8191693620861134	0.607952009414229	0.9537893001348534	0.9529057862474785	0.9385469275563953	0.6093131660261326	0.9549054592556101	0.5827578161982843	0.937488067411829	0.9371903839968881	0.8804602778518914	0.763869029117176	0.926011072495249	0.9524938591635095	0.9681185612333485	0.953373232947955	0.5972201220498361	0.9373647929972455	0.5771067368617189	0.7073188217037647	0.8192175864835374	0.6000968924842016	0.5900492036034828	0.5820744000628328	0.5891675148077241	0.688807510986868	0.716127889532603	0.5804060658736864	0.5757266199254583	0.5879957584859343	0.5769705385075815	0.641372454842319	0.7491039259753569	0.6592068275150509	0.911190436269738	0.6223909161891322	0.5633849314816262	0.7212174407523374	0.8805226982490302	0.9505797514697711	0.6541447555756059	0.8617696790288594	0.8655073736438788	0.6346713117174405	0.560733377767512	0.7593025292523813	0.9330311023706932	0.8095294948433054	0.8559845702395148	0.8688507830232606	0.9737539019976773	0.669490751593337	0.6193134798751303	0.946485644413019	0.5886475026665854	0.9122396910963627	0.8275899710208846	0.9655934407300251	0.7771670576610246	0.7927666215959218	0.7293936604324165	0.9641196364078249	0.5764059237034095
-0.399917088894315	-0.3958877484353698	-0.4179973775528562	-0.520506794973742	-0.5460895870133456	-0.5262509180107966	-0.515610570074638	-0.5519300259516373	-0.490003362506448	-0.396157495469658	-0.4394151993634614	-0.5354456390464385	-0.5201667428579303	-0.5119965776253781	-0.510916848866032	-0.5633991183137167	-0.544883611754607	-0.3927089711254082	-0.42289804003150133	-0.494474152605811	-0.4632277141606465	-0.5593853194042211	-0.6046964212280196	-0.4151390138358704	-0.38499097047681435	-0.5277805741545339	-0.3856964951208986	-0.4345911376753963	-0.4895237076223934	-0.5457385310078017	-0.35184814876072457	-0.3820951576099164	-0.39563278722748485	-0.4654320261531972	-0.5822918589568641	-0.5245753163893769	-0.5765508954376424	-0.5738113309627707	-0.544414176566231	-0.4979996312701159	-0.4780239337399252	-0.4863065420157348	-0.5431834710580429	-0.5432275832813543	-0.573517716520467	-0.5843355015480117	-0.5649526274775881	-0.3716703506288813	-0.5703432824602669	-0.560164568520726	-0.39939457550024265	-0.40776138626749175	-0.556161972033337	-0.6033506548051683	-0.40210035589492504	-0.4938295928248068	-0.5332035438608799	-0.5772251455745945	-0.5325846498453809	-0.5891913876575842	-0.5194343766179469	-0.3688317982833661	-0.4773618652740981	-0.4752474749741061	-0.47896987666751356	-0.5181683525234569	-0.42649702324395206	-0.5635704519554762	-0.47694816969999526	-0.5255732376105603	-0.5998091844689472	-0.3706012752987414	-0.5521276537040261	-0.5110662888645862	-0.5148131219560853	-0.43181345223924156	-0.5154763365018181	-0.5316765844088601	-0.45096185737475714	-0.500636277293	-0.3962467648324285	-0.5661912688405625	-0.6170607353794897	-0.5073190117705202	-0.4349566190819374	-0.3761028816710231	-0.4448989037818591	-0.5933683542097211	-0.5825254726276868	-0.45852850505839765	-0.5025451526757257	-0.573250295403521	-0.5214767843295972	-0.49822739711218894	-0.4041775527439833	-0.37738445883463295	-0.3788982558364747	-0.5711517463376883	-0.4747927718875836	-0.3681559637130687	-0.3882111968312926	-0.39903531654305174	-0.4403541403675571	-0.5888946739430202	-0.5805020286547572	-0.432439481719799	-0.47783770167233214	-0.4959072116516287	-0.4795368903374476	-0.3876183114066813	-0.5462164345568294	-0.5690651732190107	-0.522522159934668	-0.5413612033359698	-0.4897103108492372	-0.5517590202019572	-0.49528190021285207	-0.375610447472849	-0.49553804070810753	-0.497813271885075	-0.4438629501933235	-0.3671056864090941	-0.4861757220925692	-0.39177436689931927	-0.5791724045312906	-0.5810756249383487	-0.5278539196056864	-0.45661394048848775	-0.569765171860824	-0.7352452092546654	-0.5867535341826461	-0.5254942481810368	-0.3772377084162779	-0.5761262947778563	-0.3913184006847619	-0.4205641968361728	-0.49255050375987514	-0.40618385699664533	-0.36581182602173357	-0.4102804394659421	-0.395805377349163	-0.4068436294717798	-0.42566547415349637	-0.39330637072527136	-0.43546853902672955	-0.3746343040025144	-0.4210431364527181	-0.366072804425202	-0.5046602417756816	-0.4074645057162097	-0.5726709685126739	-0.3632515457596052	-0.40344753535061895	-0.4091450409749537	-0.4955144470125739	-0.5699707363862765	-0.3777792321722078	-0.515415594235026	-0.532980425390855	-0.383772544017012	-0.3904791237510041	-0.46481409315919403	-0.5676480682123556	-0.4787570936145409	-0.5317681933659458	-0.5625272898984407	-0.5923062743197495	-0.4143673548294022	-0.34714685592060895	-0.5833796450275403	-0.39334268284689855	-0.5713102015088589	-0.6145442152619071	-0.5098699852838496	-0.48132525707897206	-0.4358004198911132	-0.413737672668028	-0.5773334309526522	-0.3851361331316429
0.5627706364861493	0.5749378924412955	0.5794885349346588	0.8097610562699518	0.8587291093295868	0.8443307975142629	0.798297639638227	0.8575665470574987	0.7389653336213368	0.5924889256678566	0.6876126347251157	0.8134923586005969	0.8466741616031634	0.858790904316463	0.8354895834818696	0.8573112869635249	0.792320994297729	0.5958712121816524	0.6611042628747333	0.8403785599393631	0.6722317984169284	0.7915880505400026	0.8424503213074708	0.5724170612527377	0.544143579099359	0.7696534528221783	0.5853887623955579	0.6511870699178955	0.810002608024931	0.9383508857137077	0.5453797423896385	0.5561106978886184	0.5589503782898707	0.6971866198053831	0.884730744067457	0.7828903216354208	0.8848029568229594	0.862186714436991	0.829381976879041	0.876121006215492	0.8607896258035896	0.7633096416647942	0.8866105776807105	0.8639826077307953	0.8783154044088688	0.8786185605905213	0.8587742526779975	0.555992115596995	0.8804140131440548	0.8607414485564471	0.5536636088794117	0.6003384129207923	0.7936523473716744	0.8850586138894287	0.5859876759784695	0.7067282926284135	0.8517180695068428	0.842729928430008	0.8574039802340582	0.8986818922939668	0.7958865529040511	0.570463165895401	0.8785581860710555	0.8626174038425414	0.869614244884171	0.7802361790867639	0.6595276870279195	0.878815480002645	0.7130359770237898	0.7564159745824826	0.8373325906373986	0.5466106290127726	0.8294351119608436	0.8960498878790224	0.8948013026545294	0.6387741210179579	0.844980535122736	0.74186595076303	0.8297857931055227	0.7304334586458456	0.596509843728601	0.8858484010062503	0.908607076734476	0.7598547667103965	0.6236209170708329	0.5452294352440027	0.8063542444818811	0.897777638331438	0.8605701644452013	0.7432262774649597	0.8635100240391131	0.8604378776921013	0.896813327316947	0.8548601628234622	0.6041929994072868	0.5393811942319794	0.5130968136109408	0.878077657038234	0.8644793767939953	0.5367184694692353	0.5361074760917156	0.5753915887147908	0.6812220762268787	0.8310322258014561	0.913443797608206	0.6306905449374716	0.7254903253666792	0.746284192751018	0.6996555758495199	0.5761144884224974	0.7979140201727051	0.8407092846156581	0.8222209105480314	0.8134149735537467	0.7283148905957837	0.8146679821976228	0.7187789940813584	0.549482425224588	0.8928862549955741	0.891795907109641	0.7896385878596763	0.5577995586199356	0.7983628228809417	0.5502422502296643	0.8712662413706456	0.8568671133112042	0.7967450556152229	0.673448158080233	0.8427344471019133	0.8767045068853061	0.8620075952859138	0.8970898514389507	0.5479045038362668	0.8691821711810344	0.5416698403958551	0.6337512262976573	0.7294987131718289	0.5607393457239707	0.5438668890353652	0.5691083376898147	0.564671774943956	0.6102136322994844	0.6336248380887456	0.545075876702453	0.608451054495394	0.5428338704448563	0.5955085754398817	0.5629969263469173	0.6494625763320178	0.591298909374462	0.9079439703158332	0.551977844602709	0.5582095405779941	0.6242242926210514	0.7389104589556952	0.9024779588048473	0.5743481251666739	0.7454738995922223	0.7884571734066934	0.5718528841191112	0.5502512979104917	0.6845605053223063	0.8589062408658057	0.7249747862610233	0.7707665407338092	0.7781828523128435	0.8853022957799827	0.5946875494334457	0.5280550524517753	0.8774520194708444	0.5474339073495099	0.838396052607761	0.8181995846805848	0.8609045135595841	0.6988621166598353	0.7114653907712412	0.6492198970590564	0.9054423607581372	0.5507459701954845
0.2235582929392019	0.23256239076993693	0.21959037020777256	0.3036944071072938	0.2605461317240739	0.2209934744659878	0.1108621321616015	0.24048784962340933	0.13407650314989178	0.17506054110428243	0.1311068775997583	0.1262489543403403	0.2779006742076104	0.2779674024461747	0.28542650749585047	0.22288387223277617	0.1183463713588696	0.20741730840996803	0.16050859975905396	0.29237101396347415	0.1254134487584257	0.2739606569431693	0.2136212630693158	0.21784713761534302	0.2374092138767984	0.1174782847987281	0.21386663052396562	0.1523976171968585	0.10398816586469942	0.17578059863032486	0.24193651733589525	0.23999403411637601	0.21052211710297905	0.12579937233004151	0.20911052093447274	0.10705365949105741	0.21649625239767303	0.1255506695455918	0.2771765156738149	0.254504218689688	0.25787787088128256	0.10622554427777307	0.13693772736646187	0.2453829742907017	0.17330964389171477	0.20861509319358898	0.15286516978429976	0.23305870503784257	0.15069533418752987	0.15968167909917583	0.21750478570123782	0.1981661277594458	0.11246364608514556	0.20118518176712066	0.16718510305936618	0.1273882986044958	0.2548851354002688	0.23113454413576218	0.24225755047075037	0.17890455782431436	0.08781675077853088	0.2405308882776394	0.25156252395757017	0.2447682725702826	0.25663972811795105	0.10549280467957818	0.14271417639116066	0.14403520008679094	0.1138327402524129	0.10827993289760389	0.1412673104259852	0.23807705804224966	0.11107432949054002	0.23596405226161699	0.19891511390475705	0.1456092851666708	0.1659405407421066	0.11548866645577226	0.2984230299002208	0.11858600730138971	0.18208808306607271	0.1891271163551431	0.1615487408034034	0.12463035958361549	0.17009400887184367	0.23514334458653152	0.2915874870514528	0.09582591932329826	0.22738698246337347	0.30689634954738587	0.2807887555707377	0.21388872998071043	0.17941067947257136	0.17386633632648835	0.19633876206646467	0.23912037861842592	0.24257646203094524	0.25000971679489803	0.22809382958122643	0.2439935740509554	0.2301247929400055	0.21963020782005577	0.10758097721450938	0.1414424242121079	0.19198218714523824	0.14552825667586083	0.11795858542585157	0.10135623326257322	0.1444692559269763	0.22083456803628437	0.12557801940357313	0.1543725554492161	0.19327702278911657	0.297028831202828	0.0991081320125881	0.26339699110266346	0.11882501722132753	0.23834329254813666	0.22632160439605345	0.22002929990451997	0.22397928960624422	0.23160570009939277	0.3063402485090608	0.22185327704767507	0.20298603030333964	0.16485001634844343	0.10656397396679235	0.14549283391482748	0.2582579564290717	0.17412501818602077	0.2264580221123209	0.22086216528190036	0.23856118722780742	0.15059431058514575	0.22653151401633587	0.1473122944500857	0.10333684043495765	0.22616679908781123	0.2463666832325764	0.22863443642938497	0.22417106534190634	0.16123525377906672	0.14781061767339848	0.22665153458268433	0.2283123715134222	0.2427312571857229	0.22439226187018074	0.25003596309839626	0.11672611602492249	0.19370553270930263	0.21066119485724588	0.22649817518219403	0.2197279198486241	0.22856285832979129	0.09824269974862433	0.159002810434704	0.2125966766398637	0.09558521229396509	0.08460149313198446	0.22769859535404058	0.22160211800655788	0.10793606214275886	0.1584948392618378	0.13080913879572256	0.1328979640351272	0.13389989474380803	0.2042830084096949	0.1557067855516914	0.24780498439682916	0.20587480818441029	0.20871202460017596	0.11868286680047568	0.23200802393596504	0.27284394476984086	0.12424653857362591	0.15113995184793427	0.16691220696268017	0.1842275393791414	0.2262944256912128
0.2625892340855513	0.21632423249640564	0.2838596337502326	0.1867353641257225	0.22061630448821024	0.24448285856910917	0.30093705295132966	0.24316913720405753	0.2711012128856594	0.23434775824040038	0.26997807946345126	0.30191308591308785	0.2258358474637137	0.23135449794270146	0.22711632011310573	0.25307476549622904	0.2726375997995301	0.18377280438201388	0.2508080783080637	0.20819913721812344	0.2405722073498307	0.1932261397365277	0.23683219394616367	0.2863377520799273	0.2244695938392935	0.2539028971788942	0.17420515446597107	0.2343680856731843	0.3414026942354533	0.2996539906583117	0.18351635424763313	0.18438292874981815	0.16677519609916533	0.23931088971229558	0.27177569130241125	0.29521210540196924	0.27481617724941165	0.32380915539757654	0.22352031889820329	0.23810109542047347	0.23781416594379684	0.30035813039800263	0.3427853484493893	0.25681500261827267	0.27377685634850973	0.2660785594120888	0.3103543382109904	0.19192973982686456	0.31486682172542146	0.29810040133348953	0.23799683137267863	0.20356964424795154	0.30240667359295964	0.2772033931377899	0.18254706493721196	0.22897274369116388	0.24217455970646945	0.24418481563572952	0.25237489214412584	0.2807737658871608	0.29120871640224816	0.1932917538332799	0.2298034901173433	0.23020383888130852	0.23509690270089828	0.25734011854186517	0.24850676806873984	0.3134508470255654	0.26482272426015707	0.26106338157090536	0.29256704198150013	0.19197457981561777	0.3095875855617788	0.2519475651702761	0.29348618613135824	0.2594794038670048	0.28797478031656615	0.2624182072454199	0.1739726404720127	0.23562146737242123	0.18623863024625492	0.27453447220308985	0.3022379221652326	0.27292100025760896	0.2254531029488827	0.204834375299834	0.16953421065649316	0.3652363602076567	0.25179953272054567	0.134257318157776	0.21335605732869567	0.2513430820922509	0.2823314200041204	0.28778161610371167	0.2107347305307593	0.2079119546376963	0.19353186914889853	0.2655043091318216	0.2506151855663063	0.21018133588768778	0.22371729940394652	0.20236665065398152	0.2256874940259916	0.28699022516783657	0.30070116312382944	0.2243897136785764	0.24953151146840175	0.27830127410583677	0.23251958211596951	0.1848929713234731	0.2955974190044791	0.2927716423603442	0.250596490428149	0.2109601678044351	0.243627211327407	0.21634569784189212	0.26695847972273523	0.2156710587619955	0.25631302119924443	0.25949321417549126	0.22421426084017343	0.18917134082913944	0.17525837237283165	0.238181381073915	0.27067841028843936	0.27401407729046395	0.30324354354920613	0.23147432484825609	0.23057996416438215	0.22983206953519192	0.21561958173010648	0.2354514228987249	0.20070260291373326	0.30517971906244395	0.223929109496747	0.21660066565623953	0.2923498285614619	0.27089885911211187	0.17217540315367164	0.27637054889743823	0.25483699572154345	0.19001402206947948	0.2270258409621509	0.23393488720272915	0.31245275916626963	0.1805542172198707	0.2919062616462221	0.19395524868707426	0.2210799436030746	0.20136581869069897	0.27786488994143416	0.18917014791601977	0.2600345498689405	0.2721632820379383	0.2983238803741304	0.3017305315651279	0.18844873283403246	0.2592065574377271	0.3063666625727473	0.18619099246856669	0.21027865818503594	0.2572500491855239	0.3016031763632943	0.2724436725410329	0.27572650075498106	0.2351854585401651	0.2715200936035679	0.2142685113792186	0.19194655147516937	0.26569381627925986	0.25269319341179924	0.299934114516019	0.24903550732416108	0.226431341664103	0.24678692087589776	0.2819390715084108	0.2826147790864047	0.3033737657627783	0.22743356575799772
0.5817291163359813	0.5205691389984625	0.6033800475841428	0.5795074418398775	0.574013234008973	0.5556556705295707	0.5246708116100104	0.5857739689214606	0.5272893291784805	0.5113016404952025	0.5214590470175074	0.5363431581890907	0.5684117526944987	0.555149667546599	0.5654454257387078	0.5820035046960731	0.5388576138352564	0.49723103651879785	0.5259476217857978	0.5559755534915752	0.5199526880862081	0.5827434859074793	0.5929209731629286	0.5994899424899401	0.5603184940768924	0.5248952797144922	0.4989122196645227	0.521622511875718	0.52409016013209	0.544806170383885	0.5250210443965254	0.5210718558368805	0.5069135445216054	0.5325515225364187	0.6053813551748003	0.5236187124542128	0.5969598127289487	0.5615762747050069	0.5730354839502049	0.5378564034411751	0.5316116952862661	0.5275047283856128	0.5711340178198532	0.5907592732808379	0.5841001304270695	0.593534461909673	0.5682512238006466	0.5142114875593272	0.5701668894896562	0.564726581334528	0.5636753366249377	0.4887547383600268	0.5573726515539204	0.5878103382367522	0.5301333276710479	0.5383981248932114	0.5922428509077172	0.6114715329260717	0.5911777698335118	0.59270088757538	0.52452655784617	0.5247982139286683	0.5253781463193348	0.524387172021353	0.5324477084431498	0.5238817842541214	0.532226924217467	0.5631916447007961	0.5325696737344489	0.525244690444263	0.5732494992633114	0.5201503299125249	0.5359376047990559	0.550115670118834	0.5691906937106672	0.5320250945431997	0.5067182105188052	0.5491149295371099	0.5244871698792418	0.5349093790544311	0.5006554025180167	0.5579428604714479	0.5764910820712257	0.5451554079199811	0.5125737283629237	0.5281170902092808	0.5287971624764799	0.5472604978656721	0.6028970906016315	0.5639674090094116	0.552304165098365	0.5792964849519737	0.5521170468176358	0.5425420397127404	0.5018237247916929	0.5478211749104303	0.5427053446390562	0.5956347872380321	0.5372734485223855	0.5361293074799344	0.5570902974321295	0.5024161461524133	0.5036486131575378	0.5585464843588012	0.5845007615588982	0.5052753294702786	0.5238881661777114	0.524301063514023	0.5103362143641572	0.5015497680613187	0.5416655256905918	0.5644281270645827	0.5188096232053042	0.5734474688720705	0.5075335894357061	0.5863540372711125	0.5284128059911218	0.5337174268680948	0.5230377365626959	0.5218150469573509	0.5140829903479086	0.5121278243446289	0.5514405858604129	0.563503773156446	0.5925232155813063	0.5686124395293476	0.5316208963294734	0.5224117931264585	0.5885230840930835	0.5568036026371453	0.5533888259876002	0.5188219143318608	0.519856501465482	0.5751105480539308	0.5515292666906252	0.518539556932779	0.5378763684950559	0.5775257887548493	0.5260535383005709	0.5975416844333534	0.5773572255842648	0.5139279273617762	0.5340991903932336	0.5684698472172597	0.6253819093253096	0.5145598342756225	0.6175206778324943	0.5041619532174052	0.49215828580421295	0.5112766250792117	0.6032771753605533	0.4986787205058041	0.5845695124780314	0.48030203729460075	0.4985087464728586	0.5805652890227333	0.526609122517286	0.49353768121802377	0.5301314311650523	0.5281900673776752	0.572048761189336	0.5012417718478066	0.5728925141917464	0.5321071686226547	0.5508961083120244	0.5407115241936721	0.6156251982362742	0.5181301304662262	0.5285454281771752	0.591946671559559	0.5752144109945486	0.5602245246899912	0.6236159059823088	0.5674562122032445	0.5262373892852344	0.5342425438006443	0.5371020718878455	0.5855266750115437	0.5648882576539953
-0.07448260581442802	-0.04661847555739314	-0.08647249409353412	0.28815001704212023	0.2626994424883166	0.25443952023611693	-0.0872143946594663	0.23719951682200097	-0.08659090470365301	-0.07771994709276146	-0.08863152252058058	-0.053245635810038924	0.2651363001459707	0.27218006609279793	0.2496390776877076	0.19521176462920253	-0.029302492477642453	-0.04244773964042768	-0.07407805624013024	0.3016899555234039	-0.09681285041634662	0.2404706458614715	0.1958313132805638	-0.08127082106629734	-0.07222713823575051	-0.05530365993302645	-0.04837027622972155	-0.07970165642482398	-0.09890660697704715	0.23040194784518325	-0.06174749088887478	-0.039824587014858095	-0.05955800356446718	-0.07527723662905832	0.20771752037840285	-0.07206135880329066	0.20406655010302122	-0.01005382153573324	0.24634309244948788	0.285161470793914	0.2911476870677516	-0.08643070217771077	0.006215098942363426	0.2454414810448705	0.12045022733851572	0.17451882947133773	0.030260303587023654	-0.05258317298537936	0.04106961154305727	0.04611070844641667	-0.08621589756685398	-0.046224739299790193	-0.035971023563641444	0.16592454739750184	-0.08150167000039295	-0.06244306887963462	0.2601883647602868	0.21810331205479438	0.258529064973596	0.12487698343166387	-0.0818472423529396	-0.05191988044030578	0.3065434502951469	0.29278999381495635	0.300172113109772	-0.058431522138421135	-0.0763563727404704	0.01067948867633263	-0.0860476168654153	-0.06640910360777481	-0.005430023736543735	-0.06632193196487028	-0.060662234515552235	0.28638262164542055	0.254782455923974	-0.07914945302306127	0.21120898018537487	0.08954900834580752	0.32489621431032895	-0.06307020076036123	-0.04951565410103194	0.20724665535461173	0.13594158551344748	-0.0909861539180553	-0.06752077001692851	-0.053677451378152594	0.29874637284490124	-0.020892905246657448	0.21287427736126668	0.29690484325818	0.3056927929193382	0.16571700569551756	0.2555985110863533	0.2378819168099452	-0.06216027278962215	-0.06431477197643419	-0.07981247863862316	0.22944515031660384	0.2758473422165642	-0.05872375536840012	-0.07321492559655025	-0.048852206183276195	-0.08283874265250331	-0.005712085267810321	0.1236371456068009	-0.06941684773717251	-0.07635429712745019	-0.07169082607112927	-0.0715760040910489	-0.04306647906426066	-0.05080283126700898	0.001988963788628964	0.22902787401739855	0.25351481525012926	-0.07558104281197946	0.23145349773413237	-0.07115657786356187	-0.05583248464714917	0.2798550726756744	0.27467682912999075	0.23436934918857544	-0.05570447155876963	0.27937606235095763	-0.06507722182242663	0.16487807407764132	0.04532245887904611	-0.05941974193366671	-0.06872029788015747	0.22452622632180336	0.1419478790329074	0.22571671668529225	0.27105969674390357	-0.0633716356757507	0.04619704759670884	-0.07459811464035383	-0.0818257888804682	-0.07782946531257963	-0.06882003600598154	-0.05578747408191791	-0.07971003318269261	-0.08091168168637856	-0.0581960007217522	-0.08342638975255064	-0.07712209609289854	-0.07568626661077878	-0.052889837542532	-0.08477511076674875	-0.039966500183734086	-0.09978457963261424	-0.06440175823541823	0.1435338744224816	-0.0467884852560443	-0.09261568500816701	-0.021731104231708778	-0.07616687193501138	0.10861787233809524	-0.06199390765144587	-0.06572650271064832	-0.06672757640613654	-0.06944830299588832	-0.13901259455151405	-0.09672259330932036	0.047951706141196274	-0.08319565485306006	-0.03830266227029695	-0.02132632274378339	0.20502660728915206	-0.08981080879196267	-0.05664743511060703	0.17649003063945118	-0.0756427932084079	-0.015456741243449187	0.14050084044247912	0.2674076701354548	-0.07740602967171738	-0.08851210368298247	-0.09168026072787079	0.11268993037478843	-0.08282933678950581
-0.05110635874216947	-0.044633992004915676	-0.03698138034480104	0.0064260261369815525	-0.015843407733095907	-0.0034251880648338145	-0.017925790621694873	0.0001771263228068365	-0.0043310060171827675	0.027144976874415278	0.019584978603500836	-0.02093809099910996	-0.006765703068099108	-0.006266805006989382	-0.01837272240594731	-0.052204102486041584	-0.035534734343248164	-0.029986213300343997	0.019360964798866384	0.006800484135157284	-0.027515541465298665	-0.02112732679795637	-0.04308685178709361	-0.04331030756971664	-0.0358031177921795	-0.01916585366365843	-0.04945450951828388	0.011036171038156947	-0.026059613469918474	-0.048284441675807824	-0.054881092880921675	-0.05231487989274315	-0.020300531878270092	-0.0004435300650826174	-0.0395352694223336	0.00010179842568845687	-0.05450070561456861	-0.0671641227138053	-0.023044634696192362	-0.002804979201277008	0.0045088426582032964	-0.010954294785064989	-0.07613830243114232	-0.02169507839873125	-0.057253892611703744	-0.0629043464852966	-0.04083458540707193	-0.03586833023761486	-0.07121740390714293	-0.053030949646672	-0.035121091737052454	-0.0332875985818117	-0.033955776007629376	-0.05235280253472561	0.006573723566627165	-0.013945547032654937	0.007057037396909438	-0.034960704315626236	0.010594685346746596	-0.07791030526477309	-0.02623127266687031	-0.061035327664148306	-0.0026818857690879827	0.01022322846829607	-0.00028483391211325815	-0.027516152835550936	0.014696954117323607	-0.07778793577274523	0.008270802007903422	-0.0016513846770452034	-0.061951131709578104	-0.044237129101568226	-0.02340481460778286	-0.017372883614228923	0.01180117776268759	0.02725619582005777	-0.0022869815107898067	0.01970364128413017	0.012694391061234267	-0.02399076758308534	-0.017872281573392837	-0.02751444463834536	-0.059790026524198056	-0.02798190190777025	-0.012320395012891353	-0.035981663047153625	0.015140358140139462	-0.0722258462743571	-0.03773932695031566	0.0414084524129657	-0.009256011196249844	-0.04683871030237627	-0.006015334417696	0.019287076715805873	-0.02150452663884643	-0.027285271392594637	-0.025707292622520847	-0.05213691196953647	0.00576683828585052	-0.03694114601512273	-0.027367583844147628	-0.04347803234419666	0.0008998627485622412	-0.06070917735141954	-0.07375504289799795	-0.007980672868648925	0.004671861613559564	-0.004455183116277281	-0.019094324571876736	-0.04831485115401708	-0.024695620333622575	-0.0724421467956362	0.01548814221928331	-0.008471509706185612	0.00864469032834006	-0.019963571123130852	0.010123530953580942	-0.04851148580370236	-0.0034734458958462777	-0.0033680550619690913	0.02623733127259946	-0.04127764859217396	0.002175516995420651	-0.024589201605860603	-0.048547402201829945	-0.07645257501863476	-0.02217316677464247	0.005962815641604169	-0.04455820372397731	-0.14624409701065422	-0.07318632490089104	-0.028761573706215737	-0.028711542915303853	-0.05729563256234471	-0.022547698171231187	0.007428936560461966	0.008693713544309992	-0.035291406949154794	-0.0365280307888524	-0.04707442394316651	-0.05027119782109708	-0.0121544554644918	-0.001969496153851738	-0.0376525492835265	-0.050323744086987574	-0.01541051498967376	-0.046786377621059985	-0.03706536322921865	-0.0907706983287631	-0.023161044534153616	-0.06052874285431659	-0.03304540426253892	-0.025148754215657196	-0.0752099733729492	-0.06076519331602116	-0.062161633601732935	-0.017342863317246562	-0.03877973584711096	-0.014834358671137887	-0.021601014883931083	-0.029512033553496672	0.010733408904487263	-0.054700454308376965	0.012628131024663453	-0.02199537995744623	-0.04385219908779136	-0.04363500077076696	0.02288147406991506	-0.021614986242046955	-0.06477567095474498	-0.01727766636329557	-0.07193033891198741	-0.07523712606304067	-0.013818639349131023	0.008954277941089092	0.05078886604911918	0.0493642683820643	-0.06401847376322492	-0.03976718296122002
-0.008300240682452317	0.05133371539759543	-0.014819574830277508	0.06958230596870021	0.02149594847635007	0.02777020366678347	-0.04297572985333868	0.011605363731002225	-0.002796735532025571	0.0036465557674533744	-0.009551566348936655	-0.024395890274451604	0.04734403519696144	0.03761543715824571	0.06316612097886774	0.04010831077304282	0.045282889101349075	0.049346622600232565	0.03327565824235336	0.05809884549234305	0.04578933664537031	0.05713853837804171	0.01711354461992466	-0.019692009524645983	0.03421869632822784	0.019281961549131574	0.0841857166000767	0.043920667470242855	-0.09589891673602612	-0.010255572137735716	0.06610912940629432	0.10185885909689438	0.08896981115318177	0.058571061576692965	0.006866252719290131	-0.011849138157822722	0.024642204435727413	-0.010541816892576536	0.04600363245480092	0.02924901146210805	0.032631546957765836	-0.03522539182125209	-0.0324604639217375	0.017300975726007126	0.005890832159204593	0.032945529838697626	-0.016337866118821723	0.04156344438374812	-0.008495623224326426	-0.011681572055320236	0.005905064358042347	0.07896721166836304	0.018801816400380603	0.033244379902238566	0.0961060112817836	0.06897752552563559	0.03031695597617244	0.0274188376696005	0.018930613353789857	0.015421437748375441	-0.023013186132870775	0.04198861592857152	0.024410041179053307	0.027596664626641884	0.027853139044003425	0.007876773676630935	0.049306593364220136	-0.0181505571739788	0.02621820316097158	0.03016540701818672	0.012344301731537763	0.04774403387767798	-0.02274371412919156	0.01112687888511392	-0.019184376886155416	0.06796994566038793	0.0005646957279227677	0.066618177034667	0.05412821234644498	0.050504096316579164	0.08395218281334405	-0.032890214688017796	0.00016932523478581374	0.015992938615311716	0.0974754079217362	0.02805287990162289	0.06285185574111747	-0.05132891742344445	0.026766365166746978	0.08531758973716012	0.04093346995391424	0.049217875734865205	-0.021651050497587573	0.012443273820810771	0.06352176953658496	0.029570010057562685	0.04707212287713833	0.03207521022795838	0.028628157274041957	0.028584231917889592	0.030846066439126824	0.08702681917096647	0.029453978721252674	0.03891406978276962	0.012883291564816143	0.07962625467241467	0.022334541086828516	0.01731866492794891	0.0807330050217223	0.0913509829441383	-0.010258968995817644	0.013556969801322663	0.011643868257051923	0.04332758767555532	0.014945092667018864	0.04551188971754787	0.03288820634105004	0.0593254473587308	0.0002046865145355209	-0.001610761642538136	0.04387548551268759	0.049023490836306735	0.07427392883730964	0.019013177734152342	0.042038236964375905	0.03594168692807993	0.009396196058109998	0.06908978298721162	0.0509938908404783	0.06520588925927358	0.03300300999839338	-0.0036995667277108374	0.030183618081354058	-0.007891944037469734	0.009748736308210042	0.03856970896450873	0.012543874414134626	-0.0061338532045726035	0.03923047829463931	-0.007872223476246512	-0.0040151260908254036	0.09081586273199771	0.0815110338259975	-0.02020817941115423	-0.013541618853069023	0.036796117652339436	-0.024934333192669758	0.019338315873360767	0.14662322142877393	0.09965576093701647	0.02608339083060908	0.03261946520786407	-0.030164694873066403	0.062403171331689405	-0.008067574135457209	-0.014539031438308772	0.05376987369858795	0.010378905772215494	-0.009043681986901336	0.038905295786222385	0.02663276991480936	0.01405660021495149	0.0020511825777464188	-0.015534251307116331	0.045256455013532954	0.07779494657144805	0.009174566783445456	0.026552885402496895	0.016858970150293917	0.036973627112942456	-0.020294180018487505	0.01731714007015478	0.09914255683531897	0.048582373303078116	0.04515657511236042	-0.049765377173595096	-0.007337595311173034	0.01575775908316547	0.015663349574411636
0.4514040337997202	0.4315763759704121	0.4725206426389274	0.5013836611355573	0.5205412531430318	0.5880589610805624	0.5849046267361979	0.49806922067450526	0.5701625538069299	0.4836627632235591	0.5632589885204762	0.599626582896609	0.49596698004314516	0.49649166814946916	0.4918295293336035	0.5584209247876712	0.6298120657846156	0.47712560130539267	0.5451964953803237	0.5007894021753012	0.6059408422851664	0.4845153676966734	0.5232688298893848	0.46172380968271237	0.44573886819911196	0.6117811619672013	0.4904803675594493	0.5638364050321598	0.5814320142060194	0.5654710565695003	0.4427443282808355	0.44813984711163873	0.4775987220135816	0.6118190525110463	0.5234850794943287	0.5934169486440593	0.5671952563182241	0.6094013195464603	0.47665684969759864	0.5094249600063454	0.5216532883729961	0.5738469102706056	0.577257271719761	0.48571514447755754	0.5870126577208428	0.5952366222958132	0.5716077156938237	0.43965317003414556	0.5941698775476671	0.555954592593161	0.4485026940180376	0.48769047862834475	0.6035225202406762	0.6015257738167508	0.5375301061825104	0.6254895564445897	0.516933253565971	0.5231308369030119	0.5377928736175226	0.6274582948070635	0.6175803242736864	0.4320868761352538	0.5012892411538807	0.5175558376668967	0.5181666271595544	0.6224856281415196	0.5718439613037647	0.5999966889957569	0.6024139697737614	0.6212480589393863	0.6287975434809248	0.43511406563714244	0.6178344158557525	0.5514849710963319	0.5484084404895837	0.5572785794530282	0.6396546437344306	0.6644169680030159	0.42904342074765733	0.6366167302709684	0.5179690203055853	0.5435083669901357	0.6319887405281999	0.6394860993501139	0.539321382318126	0.4229043254764035	0.39932961548679685	0.6103550794509827	0.5377257691119839	0.46127667137427814	0.5023240063211687	0.5651431601424806	0.5874129128288983	0.5918256303297507	0.4955648661465079	0.42903115831687905	0.4311372734788357	0.5344153869943868	0.5396876802709949	0.4169239794637705	0.4475739957047082	0.4637097534324592	0.5899342612124379	0.6359843632834792	0.6068537163802126	0.5584149512313703	0.5970762524448203	0.610523153494221	0.5982532221860173	0.46891400959860147	0.5816916266047563	0.6111867108535987	0.6160838365161674	0.4640787494196847	0.5912551134647348	0.4848156066916633	0.5926720415199942	0.43738108700166994	0.5414035331297784	0.5521403304733505	0.5628532214943152	0.45369678676919284	0.43543520474324476	0.44848691180778516	0.586362645227799	0.6303823141034828	0.6150110648947293	0.5823932412962904	0.5546150032889279	0.7478636205627422	0.5700078783140066	0.5657508791756853	0.4225003417768825	0.5969655595436918	0.4324846409419802	0.5570267785772671	0.5976632885740274	0.4382668503207397	0.41965550914381894	0.4633032657670106	0.4518579732683125	0.5528844452363926	0.58053844598817	0.4220065647601266	0.49786411468415886	0.4224443143297731	0.48244368521556763	0.4041559424326439	0.6403740946626078	0.5071142554116312	0.6078964891022134	0.44514606488879555	0.4491616415973209	0.4321989219960494	0.5772771935935184	0.5975076932650143	0.4526290756504672	0.6106270120533803	0.604203389479185	0.43880115371696776	0.48839854596805904	0.5677522611600694	0.5912445050223318	0.5742417124598362	0.6143028752729889	0.6568330477540851	0.5542208354309202	0.5261715718882216	0.3961538305756859	0.5965255040020003	0.4412563298103194	0.6255653409302837	0.7062077086859022	0.48504215277953394	0.5943609700051591	0.5158358499485161	0.5191827646489175	0.5962990193898114	0.4513805907304453
0.0283308487565134	0.03327740167815532	0.008336456207209991	-0.08626696899858083	-0.09504569354974726	-0.045898895025760916	0.0644032664846664	-0.1226977215163784	0.05930984834320799	0.03480665426310056	0.04678239178660057	0.034012269407210166	-0.08165827270432474	-0.08147201430785991	-0.04635723856387808	-0.061946121517190006	0.04322383301588209	0.053445731143063085	0.0346447628063741	-0.10937090242032077	0.14268667324812576	-0.0615968575358177	-0.04922035164002972	0.012998306022793865	0.04712881828993595	0.059741700901190936	0.07846546811534547	0.06324258730612539	0.10914313559559516	-0.028043866940410084	0.0821478176938901	0.06692245561538848	0.0465472301275022	0.0873898449069738	-0.09577190908126818	0.033461748930780716	-0.07892734389607142	0.022850955722904215	-0.059468492809954115	-0.09568879460519161	-0.09254040662610183	0.06772695320960817	0.018573277567210417	-0.07850680906593865	-0.04171683709360777	-0.0544784859017339	-0.004492757137954356	0.042549438694533676	-0.01692660051736064	-0.02143369050407576	0.03154431760577511	0.041427359144081494	0.006036994489880737	-0.07592142599244514	0.07026256411579959	0.08413860454965719	-0.09449063354526069	-0.07950069828741188	-0.1022120825152309	-0.03119635385991884	0.06185881466155854	0.059854273886649684	-0.09563380705322894	-0.09900731842289826	-0.09292925050371081	0.06061546368076512	0.06540939125580467	0.018020620680308713	0.05818471963657232	0.03840010808782904	0.005472600681319578	0.056586486330695046	0.01110902934593136	-0.0944146456253657	-0.11129425315461355	0.03653962121532753	-0.01110658275554352	-0.013589361866660682	-0.13044506488620614	0.08643948943692112	0.06278650935092536	-0.0512013344999587	-0.06435120503335193	0.09644116157806368	0.05737560321883042	0.03711625230628959	-0.11926177144589223	0.03059614465298985	-0.0824510222655365	-0.1271007468101466	-0.10751977075910824	-0.07338628086275698	-0.09085187661326463	-0.05411258087996748	0.05303348589605486	0.038615577076390545	0.04412229782968077	-0.06999490895618937	-0.08164521092041058	0.044667583235791425	0.04113281176341596	0.045873927086892946	0.08544837612961001	0.03488406003117053	-0.04724876518520335	0.06533639105685704	0.05814335796478301	0.06646232347208378	0.09457634992870309	0.05729369964255268	0.037714812744944565	0.06739604826271164	-0.028900179532112186	-0.07232335722475233	0.04706321052551651	-0.07914051258212743	0.052989944004177475	0.06244015931342137	-0.08676821859567505	-0.08825016750084133	-0.043828956117395595	0.05863133553352698	-0.09023030595032352	0.035242016286973016	-0.07729502900914426	0.02503991712496048	0.07941027912211376	0.07218367632214398	-0.07138202021150111	0.06494579779596502	-0.007561957466836883	-0.052793250174540535	0.032240932746737144	-0.028787566414910398	0.02525451659079228	0.07134856338561615	0.03844511535165071	0.015554036034883062	0.0406113018629424	0.01790678309997637	0.034592923080633414	0.06942282269817637	0.08850633666081928	0.008660686947615431	-0.004949900240322852	0.02251328060475563	0.003924643039655146	0.03222598994405504	0.21224922764749124	0.05717833860924018	-0.07060080637119645	0.0478610970626043	0.013666991188646477	0.07588826567231902	0.17569786331583573	-0.045157949322961716	0.03820920922471835	0.10490283463793562	0.0443028919476022	0.03575690998636147	0.0417708315989275	0.04715941109070296	-0.0008746002330280167	0.04829060837640617	0.054783594734203495	0.06543418646544472	-0.09974613043224995	0.03885566244550123	0.03783456367110202	-0.05598692308530004	0.022792736722769463	0.03395050799239421	-0.02836110742624645	-0.08845845437943375	0.055615508186993706	-0.02783480357705806	0.01892064382567163	-0.053573450669103656	0.048288625716917305
0.30033253918897673	0.2991393422925914	0.3135283333044041	0.2383172426978485	0.24180619210409424	0.32092882632674036	0.4041008518559722	0.24115490330716566	0.38322766318628265	0.3257673259247039	0.36793597273361445	0.4098774260420054	0.2197969539655041	0.21283449025638282	0.21631215522747413	0.28904007945023424	0.4576825241929895	0.36860706341717153	0.35479607732445784	0.22771059833777926	0.4068932820039567	0.2347103377766784	0.29049583280892943	0.2980447068980209	0.31916454871012767	0.44503534973479497	0.39278438979853814	0.38826511208304104	0.36493086324085056	0.23936934218720876	0.34690107372345125	0.3518475179353956	0.3891058461079727	0.4500434649997844	0.2785512143874076	0.4249324104372886	0.2958277864166232	0.40448482562589416	0.2130599427932083	0.2304645903109087	0.25967481145541715	0.37701478021448587	0.36033437012289404	0.22526164078822267	0.33752742316554163	0.32063641508118346	0.36664439039033103	0.33523993304820965	0.37539753184104396	0.3711835742113596	0.3013971982514625	0.38311075969161446	0.4162948389336881	0.34271086739633505	0.4233777229019633	0.45534050647504376	0.24424106547198857	0.27233670131970755	0.2657140838673261	0.3641547900703942	0.42966878288990507	0.31165428246915083	0.2419248752510663	0.27598106087893537	0.25345432307589855	0.443575708831486	0.3974847999227036	0.3917420120880285	0.42642786800869414	0.45610151620425343	0.4217794312955948	0.3184495116425916	0.43471190484797595	0.2535564086777802	0.2887078034330015	0.3782828175154317	0.38415372926562386	0.4743435796317079	0.16161663301969786	0.4590900566805415	0.39785806712007643	0.29293655442929456	0.3590252776604351	0.44499741237541524	0.3969320882216163	0.3035626397102207	0.15284433959716093	0.4042939683209609	0.28533333441341313	0.25600296359986696	0.21073991729038702	0.3202454813208042	0.3083053550957645	0.3448617468818528	0.38529605528548383	0.30887119725514023	0.3154630784971021	0.2694517418630765	0.27150884950605714	0.2939547611109383	0.32287548518815945	0.34579021812845234	0.43936996207303003	0.44985143753213586	0.3532436550248096	0.40787706086554987	0.4303041628447237	0.4227586230320264	0.44008772939943275	0.3655526946450499	0.40918150542724896	0.4074046497221805	0.38891932805079665	0.2098442132010506	0.4421685303951203	0.23521189161031364	0.42372283486071405	0.3172850812738227	0.2774607396367671	0.28578932527068257	0.3622951256940977	0.3552225324083317	0.17048928957425039	0.3160845488762404	0.3240273332911461	0.4157982353803985	0.43811067002941784	0.41616649670510497	0.27581549296849084	0.49967491570962475	0.32168454907679367	0.28856467908051375	0.2987597355828534	0.36898144547362144	0.28962280743165314	0.40436239187056244	0.4134776791718393	0.2807094863388313	0.3173061136411631	0.3061962611557947	0.3030536027615308	0.41519676511339854	0.4163866666811177	0.27322450523403236	0.3276238970166495	0.3269495505280363	0.31458695703220685	0.28909120851055925	0.4601679248513548	0.39192848548948556	0.341122631279023	0.3490044259516052	0.28230841000960205	0.2997610026605044	0.3908864670046812	0.33795801421832095	0.3380974759495775	0.43877553800407765	0.4278501112456047	0.32268489793921207	0.3635309226208201	0.40500199704291684	0.36764210883255466	0.3941520895977687	0.43061318392722503	0.48577015983207694	0.31153168352697846	0.38289112319518925	0.2850928246557404	0.3248289045271191	0.28288146320932417	0.43405694104668957	0.4207111292576555	0.19295749379704738	0.42988947220501417	0.3491799956059318	0.32919805910827205	0.34951607988359	0.31659674681485195
-0.07904988126034862	-0.1526934805255212	-0.08363015790439438	-0.28078807378456544	-0.2664193135570954	-0.33636891246760386	-0.24365875770534845	-0.2674463681199735	-0.254203206097849	-0.22815213367543258	-0.2736917180291372	-0.2597990247010152	-0.26138444104544994	-0.26309552353889315	-0.26915624442696046	-0.2604834676768397	-0.2653230564116736	-0.2078801065374985	-0.26310342136780324	-0.2912211238276265	-0.2751264023046463	-0.28125442199194073	-0.28654784024723606	-0.08238435108649106	-0.10662995581234333	-0.2730921694279277	-0.17988879306994682	-0.2647518214352358	-0.2356170395841572	-0.23230042496712316	-0.1327848230320019	-0.14667323873933188	-0.1874337663039673	-0.263117169963006	-0.2557062640729935	-0.27164792278198524	-0.2474662959657009	-0.23615852112185415	-0.26805180331427175	-0.28508237428897004	-0.3226373238174404	-0.25990389672266995	-0.23274990050610994	-0.26180687527116103	-0.2537279590476756	-0.24295016655710744	-0.24748620962544005	-0.16434055583844331	-0.2404856656900844	-0.24788888359860212	-0.10694064208806578	-0.2105488537179589	-0.2597342147511324	-0.2537436885882179	-0.2300993329021398	-0.25533682643596184	-0.2721743984536094	-0.2530125547192538	-0.2906495597296296	-0.23597645530328953	-0.25848259837246407	-0.12907806529895613	-0.3025213325153672	-0.3303173351370784	-0.31419134724903985	-0.26645882922468184	-0.26802029850595904	-0.2305440877991219	-0.2727662676704095	-0.27355569440850414	-0.23716749774810592	-0.13274063756245694	-0.24886586236857278	-0.28737071836857275	-0.3195955185531118	-0.2718454794970047	-0.4075985805334298	-0.39658333525754225	-0.2694901229697087	-0.26368952055843936	-0.2235443760552172	-0.3070301981279741	-0.2561064837471618	-0.23733398971152736	-0.23401959410622547	-0.12914649815976176	-0.2481820415153268	-0.24244235817092252	-0.25984382293207225	-0.33255445028223646	-0.27360415392147835	-0.2518218697506607	-0.33619356543478324	-0.37863697906177024	-0.2052924653808666	-0.11839524169309434	-0.10810116069710757	-0.24369392742589174	-0.3261881151428568	-0.12176717441928883	-0.11166533169951082	-0.182730176007244	-0.27704785664536674	-0.2425311038744974	-0.23457220288275787	-0.26096720982018035	-0.2770989420304487	-0.28466876771481037	-0.26093279423406357	-0.18557446632068758	-0.2571557121137727	-0.23902765750971877	-0.41046520512806645	-0.2792769368841623	-0.28485505601046535	-0.2728861180324298	-0.2788464287940681	-0.12988784170828482	-0.3210908344672899	-0.3285513330301536	-0.41325529075081263	-0.16742602195692907	-0.24398934176736303	-0.12949451777381404	-0.2499122406047954	-0.23914873281898608	-0.26327191385879284	-0.27604912115623387	-0.2413102397735501	-0.2505291696443148	-0.28382436524003934	-0.30273261182328903	-0.14405257760572596	-0.24693671679560159	-0.11200134308128087	-0.25886416935482787	-0.2752795029311192	-0.09041561155355934	-0.12833836593245015	-0.07298098794109348	-0.08371630767820942	-0.24783278513136192	-0.25878251057862905	-0.08167157096826314	-0.06636933555751945	-0.14859451728022824	-0.06813693105269969	-0.13833144242791637	-0.2562602396079549	-0.19785033344424002	-0.20249969471504542	-0.18025556265521414	-0.07742594777275916	-0.1772371259579057	-0.27506956409601047	-0.24612428743502918	-0.1722944980361833	-0.28734336317348774	-0.2772470785929397	-0.1517616647493131	-0.10211768094436233	-0.264568141485879	-0.2485357365364636	-0.26658686379643487	-0.26126410805950423	-0.2572258350440409	-0.25630144080989786	-0.23638765280940144	-0.1248513479548439	-0.2500413491124196	-0.10808460855025784	-0.23921764215220925	-0.2064994380019008	-0.22545613528675662	-0.27667580156538146	-0.2512702985932454	-0.243823300624685	-0.2337338517666509	-0.10233950189034771
0.2572914956524496	0.22063219808734022	0.2413273590687211	0.22700281577269887	0.19893076989595562	0.1977286165064517	0.12619844310500897	0.17682128980288883	0.13421916231900807	0.175000768175558	0.14491986691462955	0.12169441749742337	0.2073707873251688	0.2092784362225574	0.19189545125601457	0.17159318265581855	0.15006089362964886	0.19698293956642884	0.1560571013299021	0.23491682409084078	0.14713058379788801	0.17577347575506994	0.12834056325280727	0.24349514687152188	0.26165993562139434	0.12584369662169026	0.22240497104147272	0.1542060423240077	0.11355176759920002	0.19252392809598623	0.2606892565719324	0.24549468909818858	0.21607808227351177	0.177881535869766	0.1605933101633184	0.11399852544268715	0.17344426936146992	0.13742855062999645	0.1775190194064125	0.2257379359661625	0.22159257807833643	0.13639570052746303	0.1550948155618027	0.17721871873433825	0.13211618458126306	0.16073129193308788	0.10439869497708336	0.2260839478060091	0.14723526917126767	0.12580056929590955	0.25849991676746165	0.1843952869816223	0.1284830084985061	0.13810209600994017	0.20997195180739744	0.1706332813221814	0.21496399581220413	0.1779273892727096	0.20972127247159128	0.15882589868446467	0.13183942345586666	0.248788003605028	0.23941874759741485	0.23083498519754145	0.23084386384913064	0.1420608374381021	0.1725801597822136	0.14568108675136152	0.1568319816319736	0.1309770703176451	0.11088848430831272	0.24942736457401068	0.11984963699901376	0.23043703947274163	0.20158691815637889	0.15507865603589718	0.1500925451601351	0.13571972328379647	0.276044587065708	0.1631771802710561	0.20350182072125922	0.12000851635612472	0.10823770428462931	0.15743994690747914	0.16448196000356813	0.24758538405677544	0.2709580260563127	0.10423510415971435	0.16601940369380208	0.2390681484966099	0.23933426981522324	0.1608681921483186	0.2003689060536502	0.18647839458259313	0.18990365641028042	0.25674875588903	0.2721869431938559	0.16577762331059046	0.22359318875714224	0.2518493311307335	0.2589771451684056	0.2093356577024278	0.16003099112549954	0.13092485010344707	0.1690461443662431	0.16816455342178127	0.14471474291757128	0.14929581216016402	0.150812866506912	0.21565406589357386	0.11208961266206191	0.1335881689315615	0.13085445959952546	0.1659708614983399	0.12205972000533512	0.1753731353150708	0.13689215878405303	0.24369648481821485	0.21321438887459424	0.20838205858472972	0.16524876013049627	0.2288617597834329	0.23403203732422748	0.24203286422858947	0.15844476097018187	0.16282808078174626	0.136803667946222	0.15938540371830906	0.20047328116045932	0.08668962541506767	0.1685560802481257	0.2046084155352301	0.23371523091602242	0.12793050067133066	0.2553627936175017	0.17303266386650848	0.1392025681830948	0.2455296719956116	0.26010038653781364	0.2485896446700804	0.261106102264721	0.19683165009553258	0.1806073560050393	0.264568989709413	0.23109565427393386	0.2349894833076083	0.24218830289177848	0.2290407962852463	0.17827442081091652	0.19946470651546602	0.20079936402273113	0.21894930858396797	0.2577096508875696	0.15829802639801643	0.10963761253778896	0.15194895866441796	0.22665943711525352	0.1091074514177432	0.11358876826786213	0.22730541619275094	0.26663691198365824	0.12417703932256115	0.14148877008862296	0.12377457414740894	0.15260764453915532	0.15799897121865175	0.15780873127228562	0.18291214037774653	0.25228437982393564	0.15902760197243368	0.2515381442289174	0.14574448412957852	0.20078140279409568	0.22388580972272035	0.1417007179357347	0.11186813171835318	0.14093089098116818	0.16171951301491957	0.26613251147311556
0.5939758800331352	0.5885971140226307	0.593683862592713	0.49333685440084074	0.5254031370032632	0.5013523596859246	0.6160385871449623	0.5400605945935739	0.626690618424508	0.6117888401742306	0.5890923725852386	0.5851492474842384	0.5424057962248274	0.5435624602673037	0.5704035031566159	0.54714760789182	0.5612479193148834	0.5966113229663077	0.5985811496324969	0.5126915304296611	0.6010330236560473	0.5282315829709554	0.5267369210222705	0.5970224108089197	0.5905041955452717	0.5892539841686568	0.5908462548495097	0.5929836828241155	0.6362735644225324	0.5682501573775933	0.5877798472135842	0.5652501163927941	0.5739452568364001	0.5826750854250566	0.5244546817876798	0.5780186257837503	0.5403498700496694	0.5684459639838035	0.5523979525742762	0.5303892935073606	0.5259698524559183	0.6204539563612164	0.5823604947432339	0.5276099380194978	0.5684362229604634	0.562426020558467	0.5834840124202805	0.5788260370418636	0.5549036728795662	0.5715729596609902	0.5848694629188707	0.5754593450603336	0.5615194087839779	0.5321310889827076	0.56492075947533	0.5894900215343388	0.5016526242397923	0.5104569259500702	0.4952741819068606	0.5647939107523601	0.5993829365172874	0.5957395743218796	0.5091247990752985	0.5135645201854375	0.5084778129145507	0.5939943152209561	0.5827036408412964	0.5877884519150971	0.5800480893603273	0.5710765352583671	0.568821024989761	0.5873537771399093	0.5734593445344665	0.5044252667799867	0.5028262560567756	0.5737233169094607	0.4838765078154393	0.48444199688830725	0.5107109200453749	0.5861669512982541	0.5747924572461935	0.5295766128664119	0.538565378600713	0.6070716163331968	0.5851047754067902	0.5899170876947626	0.5177449360555084	0.557286130884544	0.5308709654909609	0.5023234227100031	0.5085293571535661	0.5532971468945691	0.5022223720518404	0.5073957241128113	0.5900396815390969	0.5921358308271398	0.5747910176481024	0.5453071001710283	0.5228897845363547	0.6078341994057952	0.5822673785413153	0.5782602016423954	0.5820569332381198	0.5670222573060975	0.5432797020643368	0.5651219237859524	0.5896028989996283	0.5708767055029493	0.5961667485065802	0.5773057279961995	0.5973452503448686	0.5881022381892842	0.4917305993093269	0.5574389556543333	0.5856473949295127	0.5334514032658983	0.5807171747239301	0.6013133611908756	0.5150770285290474	0.5171173070343009	0.5146546659827277	0.5824438177307041	0.5296363290771684	0.5898782943228598	0.53839278358152	0.5622924247422056	0.5799864743654448	0.5827251912436613	0.5558723377243493	0.5636873282359731	0.5390190836389693	0.5265242169132753	0.594506828649473	0.5587388669862572	0.5916651560000301	0.5848350955473176	0.576961759821909	0.6091751695709733	0.5757349020700937	0.5963825120338349	0.5951149418036321	0.566154639493404	0.5771657467460383	0.5857894368879113	0.5954309384872303	0.5788556855994131	0.5965745320714415	0.6184816983983541	0.5791245119890163	0.5810532269732649	0.5714990902400772	0.5868841673616485	0.599669210261772	0.6393627660784433	0.5880686174908254	0.5532069301092932	0.5915813176587672	0.5619352553973733	0.5725538051112495	0.6124544937930005	0.5540984408902185	0.594846654617665	0.5588393345484399	0.6097003630721964	0.5817369243841282	0.5745249699633226	0.5088066408574621	0.5825692972944065	0.6208366815444435	0.5513726655643103	0.6033460073082122	0.570848115140342	0.5814229592338738	0.5297214242931838	0.582812067157906	0.6088972344560462	0.6154341909182437	0.5517874654319141	0.588961676164057
0.14546673254905731	0.1037305973079164	0.14883475056769147	0.07807779608963672	0.08890895629122006	0.14803269076534314	0.2062432241391898	0.06460339749124996	0.17569388469663907	0.13640215813094334	0.18322435213909932	0.18446973659622334	0.0968001952516608	0.11221158507878527	0.10613980958869088	0.07075909323264723	0.17558908118183572	0.1422698931657438	0.1583395658313882	0.09964949883300353	0.20708946326243954	0.032285800486034466	0.0539921001279923	0.14926693524499826	0.11560007544495965	0.17790239129488444	0.140217868053107	0.1707442344802819	0.25535984342918067	0.1632065847650711	0.11867724668167562	0.09665845162988687	0.10536974449877864	0.19694580167782466	0.05561695686729186	0.17243727307931073	0.0791171733902416	0.1782092088499684	0.06047422408187371	0.1343113875571109	0.14879362683078481	0.20135944851762622	0.1926777208838826	0.06970968480670112	0.10652406917572685	0.08627192723996305	0.13602739520238546	0.11119147212415123	0.15145921446951116	0.13509515900271282	0.12000824029994123	0.1291651377143693	0.1485815135875797	0.06900802109505574	0.13557723956213605	0.1832556372818867	0.09588105158126703	0.04653379230011115	0.10963405393547318	0.12201283880315517	0.21489535664320442	0.1228981883044723	0.13298613713709193	0.14668002638958674	0.13833915748063536	0.20369412213127733	0.18008850341099777	0.18559622438023715	0.1837987269287206	0.16853244442332632	0.13655299788583247	0.11037562881205584	0.18658915430511122	0.14165980107479015	0.13847514965320928	0.14056871697420437	0.2052628597037125	0.17944771871820742	0.08125048697745835	0.19853169492696704	0.13621595236433218	0.11225742952422425	0.09309279118467251	0.22503008751863948	0.1384833028839333	0.11311660108854857	0.05320608143254835	0.1828090036735655	0.05434662624630801	0.06792205410742228	0.10371694483461283	0.06722156413284402	0.165249565718965	0.17802244480014087	0.1407138150641569	0.10933260783775667	0.09499792593295064	0.07296154325451103	0.1584584117457033	0.1154016628215862	0.10926423165414251	0.10847078762765255	0.20912401870654665	0.15760183420690932	0.12300245113822827	0.1603195822093698	0.18231547457605846	0.18720649799320171	0.1835486151420304	0.11784418363807384	0.15893167723243862	0.17595471334891463	0.165123919609831	0.04600659986086235	0.17476150069152208	0.04260400322384954	0.1614554605780832	0.11478655617672759	0.15385228609429696	0.15944069877164913	0.18188305516768366	0.12232783396815253	0.049125153336281646	0.11505868643394193	0.06828416098246876	0.15776963706514538	0.1992978698317861	0.16422067839904259	0.054095258811336894	0.13735805250045782	0.11275533961465753	0.16219101069770142	0.10395873305855532	0.13320146491850016	0.10984490016530374	0.17868197611893988	0.1733728345303349	0.13209862348705856	0.1057741011130181	0.14794229769549194	0.1421792484420889	0.15277830025919795	0.17963560719268876	0.13316987438863984	0.17743482526708426	0.09230122666135804	0.1671206665390626	0.11194664870251705	0.18855285106064548	0.11975959968260858	0.10794399837767887	0.12239396263263497	0.13466877697381543	0.13891613507477243	0.22466999238403465	0.13231263691263634	0.11453841131263309	0.2043736130512521	0.17760897213346707	0.11035362253960002	0.12007355315903079	0.17665575997634483	0.14023262216331203	0.18077495099451202	0.1740666989511603	0.1755217870458062	0.055804948388118725	0.1465306336437306	0.11512836889803124	0.0848911145595879	0.12416009091888322	0.17752311155551487	0.08647695724858542	0.08914513295956608	0.16555857460319665	0.1608487926991339	0.15937757794831287	0.11403290337584443	0.12474493783978494
-0.0032392749437007637	-0.035008133688648725	-0.01241201487790114	-0.5790530934112956	-0.593076191554573	-0.5449905030601857	-0.34541698203543264	-0.5968639455305762	-0.33226736789026406	-0.20074273552193217	-0.3044393914674049	-0.393419316093205	-0.5909152459399778	-0.5832000717711537	-0.5798252252424527	-0.5800927604866359	-0.3788599374865021	-0.13272663616009467	-0.2873740354976562	-0.5964642248459148	-0.30305587232685244	-0.6227916010524317	-0.6017203907575999	-0.015007114333993724	0.007993938112775545	-0.35063370623260853	-0.09538806958710792	-0.2769725928992289	-0.35486107843615505	-0.613520145369809	-0.0014774027778840793	0.00414916150880866	-0.11053836017131564	-0.2924345638122943	-0.6085531694747557	-0.3554414313109505	-0.5947506857002093	-0.45575442554973083	-0.6002398839161269	-0.5977753606835017	-0.5706278333923847	-0.3496033175366085	-0.463823991571958	-0.6050085867965692	-0.537757224971988	-0.5777375049037818	-0.47100641860649317	-0.0156481230343506	-0.46768703431241315	-0.457365652813472	0.007689924434614762	-0.12131434422461393	-0.430272147149579	-0.573566489995466	-0.19564168345705024	-0.33039855568627635	-0.6014378482056212	-0.6283624887845394	-0.6012346928608938	-0.5348077205821141	-0.36388522363630127	-0.007005507050428919	-0.5801512813405962	-0.5691153163286599	-0.5725046187748665	-0.35676089207757444	-0.2778466067427214	-0.442454382892613	-0.3222482346740087	-0.35404527053666934	-0.45937422301694103	-0.006104382076941216	-0.3928111339301877	-0.6050838766077161	-0.5925443429639625	-0.28030601655193477	-0.4904449801075121	-0.4926554272276487	-0.6093704826939825	-0.327999508946397	-0.16264124765339427	-0.5611428225793257	-0.5647100370014893	-0.3379934351032897	-0.2222865957550038	0.012274125706021613	-0.6324765810762267	-0.4502703654015853	-0.6121551363984457	-0.5473553538183734	-0.6033232378253486	-0.5583982048815556	-0.5850484426858585	-0.5413073084912637	-0.13780721930449627	0.018836402343384365	0.03410066244225027	-0.5862305996180701	-0.5666581541792355	0.009930486504201697	0.010730054120378377	-0.09226538263181319	-0.24771431276493416	-0.42361459111894634	-0.5138309758961932	-0.22783166456793064	-0.3161228741344563	-0.3517457698424624	-0.2687729019620905	-0.08635343971909039	-0.3891639636935772	-0.43618206371875173	-0.48634041273254897	-0.5864079913711064	-0.312056872476566	-0.6151045611827382	-0.33717624940539387	-0.023940771405084986	-0.5734970090463696	-0.5691865869367818	-0.4390951737025017	-0.026192088908315855	-0.639773703349348	-0.003315546056985183	-0.5728046544398688	-0.45604232037922937	-0.3712777003188836	-0.2904577816255824	-0.616267399327917	-0.5158723980176958	-0.5784453741921834	-0.5818414189474559	-0.017591629275614376	-0.4956652324636364	0.013247531426096845	-0.23598417929198445	-0.36388348901592155	-0.00293225994644538	0.0435384837327983	-0.010701106472460621	-0.0012333593165261558	-0.2007476835953525	-0.2516890665282659	0.028481071873594027	-0.0261861967010149	0.008021785482968419	-0.014822449913138025	-0.025733436604246054	-0.24553526780913765	-0.15404046846662395	-0.5538085123249916	-0.03624098196495978	-0.018879223172360758	-0.12804437796527113	-0.2532003566301262	-0.5393571448696125	-0.11152124339735445	-0.2713474455485411	-0.3895979263268227	-0.1029056419211759	-0.00577892690273301	-0.28442676448108317	-0.4937368339700969	-0.337939250975644	-0.4086241916413545	-0.3858450199335591	-0.6082593205412985	-0.20595706599648678	-0.004078526809992093	-0.5719833738233471	-0.010681771514170817	-0.43131421826292443	-0.6232707918769541	-0.6323258834806941	-0.31836882502051544	-0.3112122801741974	-0.2829354233041671	-0.5207787640038443	0.005211085347000419
0.3734978463805725	0.37948335810713657	0.35872967254636023	0.25727922924953167	0.28891760838074904	0.23030786753689048	0.3044208916803477	0.3046819929995879	0.30438265234304174	0.3655804230367977	0.31118072570099176	0.2793352044926751	0.2899702227312112	0.30717391121577725	0.2893198801739381	0.294304535556824	0.24749976351269665	0.3468540968925842	0.307400442442086	0.27968982640526396	0.26104988281405905	0.26313856148365	0.2651627021315937	0.37120267698839327	0.3526609211895128	0.26475466724842056	0.32298786610933916	0.2810613272393533	0.3273183224764339	0.32225057196402995	0.3469710625408811	0.3219910627498054	0.31996619416893557	0.24082090678195023	0.29101877947084087	0.2793394759859007	0.2800552564216543	0.282833226046005	0.3022163495958706	0.30021141520132844	0.28743470907207264	0.317005056274653	0.31440937836025507	0.3126021821895631	0.3069513806638399	0.2802999442367509	0.31266250583029687	0.36724577557988586	0.3086729226282842	0.3294363707038272	0.3706381369254945	0.3424852251754309	0.272777267057553	0.2637909466919805	0.2634835705695523	0.22499036291375674	0.2707161525279651	0.2624236250635412	0.26200049411985576	0.2848083660975073	0.2775998298544824	0.3804951449773558	0.3089119473162416	0.27868914479834933	0.297269895782864	0.26543704621659714	0.2810072294856662	0.3027404302113223	0.2637183378428376	0.2427399620585518	0.2771769803660842	0.3699948282317653	0.26917415997534483	0.2864579342453081	0.27774576396233525	0.2921893260093744	0.19488767332455664	0.08256356037632817	0.33654339630873886	0.2358794228912217	0.3032951659207636	0.2992161091389953	0.2835475138222182	0.2400804752082405	0.2945971624232171	0.3807153552439394	0.3351984189306995	0.30456430138232937	0.2676988438720755	0.24563225658185406	0.3021214726783378	0.275048718611377	0.26299836705729296	0.22401652128512373	0.33809397715076905	0.36859182521441125	0.3559076206555244	0.28118715849042675	0.2783233173324362	0.3864803418637727	0.35646811714270654	0.35684622094216906	0.2711572345827573	0.25353663264505466	0.2912162125565327	0.28711251680750327	0.2681018914269246	0.2586032573125149	0.24882152338845176	0.34351202359161315	0.2984144111817967	0.2784422769502815	0.21152618869378192	0.30786716947471404	0.2764648713762349	0.2787601261517122	0.26772457000586763	0.36774769188220924	0.2913063135136692	0.28626948917355644	0.21480365875239937	0.353302737407729	0.2962201333367638	0.3634907825595518	0.2775097776601026	0.2670098385327545	0.2536839405129214	0.2593547508349769	0.2635149901637786	0.17352408790784868	0.23736572053904248	0.2789076211925752	0.3861426621912797	0.30201038800969415	0.38274055462290224	0.28555562068097956	0.26877159923747457	0.38778669368822183	0.3641698677036663	0.362254751596287	0.3703213790477699	0.27256882317100406	0.26311263805089785	0.3925909167488546	0.33840082648499287	0.3627443040362881	0.35830492462043967	0.40945859898395986	0.22162043458828062	0.3118305565186292	0.2668510989596679	0.3696849132646578	0.3839663102693818	0.4276195313946243	0.3301304297539044	0.3011185180193139	0.3624425973207566	0.2876264053685026	0.27422392935237794	0.37230786062770527	0.3277485847974111	0.29990337828853036	0.2911936986577121	0.29398697116447325	0.23494661947026613	0.21163210099786928	0.26441736940025307	0.3120272804260143	0.40746848194742213	0.2802593827628521	0.39170022448235914	0.27424679553098175	0.12161297187213793	0.29929162625416506	0.25858475567783323	0.33620265485110234	0.3392535653842794	0.28786731833031487	0.3618698964762137
