NIPT-PRL-001-25-BL-Px_S1	NIPT-PRL-001-25-D14-Px_S2	NIPT-PRL-001-25-PD-Px_S3	NIPT-PRL-002-25-BL-Px_S4	NIPT-PRL-002-25-D14-Px_S5	NIPT-PRL-002-25-PD-Px_S6	NIPT-PRL-003-25-BL-Px_S7	NIPT-PRL-003-25-D14-Px_S8	NIPT-PRL-003-25-PD-Px_S9	NIPT-PRL-005-25-BL-Px_S10	NIPT-PRL-005-25-D14-Px_S11	NIPT-PRL-005-25-PD-Px_S12	NIPT-PRL-007-25-BL-Px_S13	NIPT-PRL-007-25-D14-Px_S14	NIPT-PRL-007-25-PD-Px_S15	NIPT-PRL-009-25-BL-Px_S16	NIPT-PRL-009-25-D14-Px_S17	NIPT-PRL-011-17-BL-Px_S91	NIPT-PRL-011-17-D14-Px_S92	NIPT-PRL-011-17-PD-Px_S93	NIPT-PRL-012-25-BL-Px_S18	NIPT-PRL-012-25-D14-Px_S19	NIPT-PRL-012-25-PD-Px_S20	NIPT-PRL-014-47-BL-Px_S94	NIPT-PRL-014-47-PD-Px_S95	NIPT-PRL-017-20-BL-Px_S96	NIPT-PRL-017-20-D14-Px_S97	NIPT-PRL-017-20-PD-Px_S98	NIPT-PRL-019-47-BL-Px_S99	NIPT-PRL-019-47-PD-Px_S100	NIPT-PRL-021-25-BL-Px_S21	NIPT-PRL-021-25-D14-Px_S22	NIPT-PRL-022-52-BL-Px_S101	NIPT-PRL-022-52-D14-Px_S102	NIPT-PRL-022-52-PD-Px_S103	NIPT-PRL-024-52-BL-Px_S104	NIPT-PRL-024-52-D14-Px_S105	NIPT-PRL-024-52-PD-Px_S106	NIPT-PRL-026-47-BL-Px_S107	NIPT-PRL-026-47-D14-Px_S108	NIPT-PRL-026-47-PD-Px_S109	NIPT-PRL-027-25-BL-Px_S23	NIPT-PRL-027-25-D14-Px_S24	NIPT-PRL-027-25-PD-Px_S25	NIPT-PRL-028-25-BL-Px_S26	NIPT-PRL-028-25-D14-Px_S27	NIPT-PRL-028-25-PD-Px_S28	NIPT-PRL-029-25-BL-Px_S29	NIPT-PRL-029-25-D14-Px_S30	NIPT-PRL-029-25-PD-Px_S31	NIPT-PRL-030-25-BL-Px_S32	NIPT-PRL-030-25-D14-Px_S33	NIPT-PRL-030-25-PD-Px_S34	NIPT-PRL-032-47-BL-Px_S110	NIPT-PRL-032-47-D14-Px_S111	NIPT-PRL-032-47-PD-Px_S112	NIPT-PRL-033-25-BL-Px_S35	NIPT-PRL-033-25-D14-Px_S36	NIPT-PRL-033-25-PD-Px_S37	NIPT-PRL-034-25-BL-Px_S38	NIPT-PRL-034-25-D14-Px_S39	NIPT-PRL-034-25-PD-Px_S40	NIPT-PRL-035-25-BL-Px_S41	NIPT-PRL-035-25-D14-Px_S42	NIPT-PRL-035-25-PD-Px_S43	NIPT-PRL-039-25-BL-Px_S44	NIPT-PRL-039-25-D14-Px_S45	NIPT-PRL-039-25-PD-Px_S46	NIPT-PRL-040-47-BL-Px_S113	NIPT-PRL-040-47-D14-Px_S114	NIPT-PRL-040-47-PD-Px_S115	NIPT-PRL-041-52-BL-Px_S116	NIPT-PRL-041-52-D14-Px_S117	NIPT-PRL-042-25-BL-Px_S47	NIPT-PRL-042-25-D14-Px_S48	NIPT-PRL-042-25-PD-Px_S49	NIPT-PRL-044-25-BL-Px_S50	NIPT-PRL-044-25-D14-Px_S51	NIPT-PRL-045-25-BL-Px_S52	NIPT-PRL-045-25-D14-Px_S53	NIPT-PRL-045-25-PD-Px_S54	NIPT-PRL-046-25-BL-Px_S55	NIPT-PRL-046-25-D14-Px_S56	NIPT-PRL-046-25-PD-Px_S57	NIPT-PRL-047-25-BL-Px_S58	NIPT-PRL-047-25-D14-Px_S59	NIPT-PRL-047-25-PD-Px_S60	NIPT-PRL-048-17-BL-Px_S118	NIPT-PRL-048-17-D14-Px_S119	NIPT-PRL-049-25-BL-Px_S61	NIPT-PRL-049-25-D14-Px_S62	NIPT-PRL-050-25-BL-Px_S63	NIPT-PRL-050-25-D14-Px_S64	NIPT-PRL-050-25-PD-Px_S65	NIPT-PRL-051-25-BL-Px_S69	NIPT-PRL-051-25-D14-Px_S70	NIPT-PRL-051-25-PD-Px_S71	NIPT-PRL-052-25-BL-Px_S66	NIPT-PRL-052-25-D14-Px_S67	NIPT-PRL-052-25-PD-Px_S68	NIPT-PRL-053-25-BL-Px_S72	NIPT-PRL-053-25-D14-Px_S73	NIPT-PRL-053-25-PD-Px_S74	NIPT-PRL-054-17-BL-Px_S120	NIPT-PRL-054-17-D14-Px_S121	NIPT-PRL-055-25-BL-Px_S75	NIPT-PRL-055-25-D14-Px_S132	NIPT-PRL-055-25-PD-Px_S76	NIPT-PRL-056-25-BL-Px_S77	NIPT-PRL-056-25-D14-Px_S78	NIPT-PRL-056-25-PD-Px_S79	NIPT-PRL-057-52-BL-Px_S122	NIPT-PRL-057-52-D14-Px_S123	NIPT-PRL-057-52-PD-Px_S124	NIPT-PRL-058-17-BL-Px_S125	NIPT-PRL-058-17-D14-Px_S126	NIPT-PRL-059-25-BL-Px_S80	NIPT-PRL-059-25-D14-Px_S81	NIPT-PRL-060-17-BL-Px_S127	NIPT-PRL-060-17-D14-Px_S128	NIPT-PRL-060-17-PD-Px_S129	NIPT-PRL-061-25-BL-Px_S85	NIPT-PRL-061-25-D14-Px_S86	NIPT-PRL-061-25-PD-Px_S87	NIPT-PRL-062-25-BL-Px_S82	NIPT-PRL-062-25-D14-Px_S83	NIPT-PRL-062-25-PD-Px_S84	NIPT-PRL-063-52-BL-Px_S130	NIPT-PRL-063-52-D14-Px_S131	NIPT-PRL-064-25-BL-Px_S88	NIPT-PRL-064-25-D14-Px_S89	NIPT-PRL-064-25-PD-Px_S90	Genome-IJB-HP-14-xx_S3	Genome-IJB-HP-18-xx_S6	Genome-IJB-HP-19-xx_S7	Genome-IJB-HP-2-xx_S74	Genome-IJB-HP-26-xx_S14	Genome-IJB-HP-30-xx_S18	Genome-IJB-HP-31-xx_S19	Genome-IJB-HP-33-xx_S21	Genome-IJB-HP-36-xx_S24	Genome-IJB-HP-37-xx_S25	Genome-IJB-HP-4-xx_S76	Genome-IJB-HP-42-xx_S29	Genome-IJB-HP-44-xx_S31	Genome-IJB-HP-49-xx_S36	Genome-IJB-HP-50-xx_S37	Genome-IJB-HP-64_S169	Genome-IJB-HP-67_S172	Genome-IJB-HP-7-xx_S79	Genome-IJB-HP-70_S175	Genome-IJB-HP-72_S177	Genome-IJB-HP-74_S179	Genome-IJB-HP-75_S180	Genome-IJB-HP-76_S181	Genome-IJB-HP-77_S182	Genome-IJB-HP-78_S183	Genome-IJB-HP-79_S184	Genome-IJB-HP-8-xx_S80	Genome-IJB-HP-80_S185	Genome-IJB-HP-81_S186	Genome-IJB-HP-82_S187	Genome-IJB-HP-83_S188	Genome-IJB-HP-84_S189	Genome-IJB-HP-85_S190	Genome-IJB-HP-86_S191	Genome-IJB-HP-87_S192	Genome-IJB-HP-88_S193	Genome-IJB-HP-89_S194	Genome-IJB-HP-9-xx_S39	Genome-IJB-HP-90_S195	Genome-IJB-HP-91_S196	Genome-IJB-HP-92_S197	Genome-IJB-HP-93_S198	Genome-IJB-HP-94_S199	Genome-IJB-HP-95_S200	Genome-IJB-HP-96_S201	Genome-IJB-HP-97_S202	Genome-IJB-HP-98_S203
-0.12680668893507888	0.04354074120570888	-0.14989498114823338	-0.3568842427452854	-0.34321965364432816	-0.39144011813591095	-0.06443317390537276	-0.30779093843022953	-0.046126379691461564	-0.024169456158735794	-0.03994017438496933	-0.04871034834035029	-0.34622105945349346	-0.3551638077070185	-0.30358965354865997	-0.2190245347918736	-0.04989787579002991	0.02347888680329694	-0.026434192584758806	-0.4603413770925039	-0.006518955896803819	-0.3459017884916159	-0.3540784528049592	-0.1644232101306131	-0.06715818986826744	-0.05718680089213911	0.022909627067412758	7.797087013955428e-07	-0.03619958965328776	-0.3599966278612614	0.07950875981910552	0.016612641949726094	0.042343273257998734	-0.014990799385096926	-0.3355839814066316	-0.05674885955845621	-0.2455753998312998	-0.08139293181314969	-0.33614542634636213	-0.4020850745645903	-0.46897306053488585	-0.05878538991568358	-0.08525455962794184	-0.3294418864594968	-0.1413556311304818	-0.17314643276043176	-0.0849628911776372	0.010686442513596052	-0.08866809977023019	-0.09142639373253272	-0.061413211509595805	0.016557948678433625	-0.055107131660088376	-0.18989433780985535	0.014447741492294199	-0.03259889867394769	-0.36099006776140585	-0.3090754614495006	-0.3873532907363403	-0.114227142769774	-0.049179918443798265	0.025565638975901153	-0.46305141110157166	-0.47288427618006335	-0.4935379165211585	-0.048376948499260705	-0.005603750318657022	-0.08898258422757024	-0.01593150214087803	-0.04494268108489741	-0.08775697867547713	-4.7907192567975265e-05	-0.10002661611319619	-0.45826485291066366	-0.4886566816686143	0.008508469712022168	-0.486791155470752	-0.43562600732597156	-0.48710461367501634	-0.03625426163610618	0.009011346263154363	-0.4148878412948641	-0.23831239481858582	-0.058977137483068376	0.002069715947041695	0.02489044168069665	-0.3781531186069955	-0.07652012225528623	-0.2824867951709673	-0.4696943013054581	-0.42455530884155135	-0.14167372008440068	-0.45755158695171716	-0.4595632574086148	0.03220075663936159	-0.026235880289042834	-0.021269858440284048	-0.3171386247047391	-0.5023386571217068	-0.014777280193344094	-0.02961007301776883	0.031260701967243204	-0.022862427992174528	-0.09008741539211501	-0.10449151493691333	0.013618014740885462	-0.04049556206453023	-0.018410124291189572	-0.003214501928015437	0.03244173169806719	-0.06307806719303354	-0.07688488169615168	-0.4538442621825791	-0.36359773308413956	-0.06825307321075388	-0.29673603007150007	-0.04328391341214932	0.0032211693830626054	-0.4658990579293937	-0.4653886733402731	-0.5359176733197886	0.021957040296570994	-0.34371172057960897	-0.05221521538808613	-0.16445959514879874	-0.0917575269987645	-0.062167076281900935	-0.022163196016483075	-0.23788596642678786	-0.23584577808281484	-0.33417989411912763	-0.4762883925147138	0.03836186873983809	-0.0979311440226032	-0.023271594087163908	-0.025165754624226946	-0.04628785019734699	-0.13154793122144282	0.04040692628373073	-0.15904754778621347	-0.0961851456250199	-0.0015407303915277587	0.00048295719934203507	-0.05685035763340025	-0.21920857126725504	0.022124990620367428	-0.16355765431377697	0.013789934457978117	-0.010592506807746871	0.03431400971246164	-0.13961932463202978	0.008433045612311424	-0.0725066572242414	-0.0099787379085257	-0.017344406196255588	-0.09337174990558436	0.00471554812228888	-0.050919537573399065	-0.061255902375043594	0.051028297399758366	-0.06077153544110822	-0.019238658892706664	-0.1010676922409324	-0.025899929363957463	-0.0835136150933761	-0.054453449003484616	-0.3153748412865499	0.02805905252611565	0.051071882286144454	-0.1909311698543283	-0.07963268878069757	-0.09693298213235693	-0.2446873992094711	-0.34947574329396947	-0.031863181887694825	-0.03795192791025756	-0.012425753099722825	-0.08463795139598188	-0.11062831818233901
0.32758755329318634	0.09882043472932359	0.3345467786925523	0.013571017528597296	-0.07506621795797164	0.08141129804011865	-0.14600142874502292	-0.12775144553892354	-0.14256065557186415	-0.08793025301055485	-0.20799255122364768	-0.2845716777694273	-0.10469785627425449	-0.09211662296235473	-0.1750506473973098	-0.3249918527621696	-0.21519213999348552	-0.07637987692066585	-0.1325930189534738	0.050455449427312726	-0.13534664451838163	-0.2063520120257954	-0.12313668473074069	0.36624061119268153	0.27538556790785373	-0.21468600393777681	-0.050401606117669265	-0.13763766746783412	-0.11974704251351806	-0.14368844990418678	0.0010685874456420053	0.10622583638245806	-0.0541726517446328	-0.19269956553175	-0.1984984380081195	-0.21952148422839823	-0.31390952555886076	-0.2749418161714667	-0.22194425922243183	-0.023224214447156777	0.0700616488406795	-0.17764769931079738	-0.2357637870605775	-0.14807171581930872	-0.2254516132770346	-0.3033036561549465	-0.18651325830285348	0.06330733577794048	-0.34913876246348835	-0.3013973081425027	0.2807082036682659	-0.08757814225514415	-0.2457758668369417	-0.33173213368503945	-0.09318995510216749	-0.1807996328429235	-0.10363868379029245	-0.24232768623319878	-0.019216231337702783	-0.3014275247410429	-0.19941073327544984	0.05596171813248453	0.13847237112592226	0.18762140104124642	0.11387060291366513	-0.21720052899335002	-0.13647734654472773	-0.2908775843583982	-0.1555688841752731	-0.20958955375664962	-0.2547099525392997	0.14291713307088552	-0.267963265575104	0.08385306688943533	0.12007917666686135	-0.07524877106775592	0.18557401883366392	0.201870840541778	-0.004760404416410291	-0.2004123897714435	-0.11707711028120346	-0.0010266219913362962	-0.3024183388323336	-0.22870636083644524	-0.11079470197374264	0.08886061098907501	-0.1738210653078206	-0.3171652928594687	-0.24731702365376368	0.14702527305880564	0.02415645844462122	-0.3955440416515076	0.10605133331871536	0.1654286885693727	-0.07691909024494493	0.24331936859208547	0.24637023052022608	-0.2238585719943908	0.14503563207172665	0.23455939571374929	0.2161938706959638	-0.01666932872349286	-0.14589201711081573	-0.2635841089497058	-0.34202517507975944	-0.15383494988500357	-0.1683209483976129	-0.1776048652612747	-0.18828753659443898	-0.0747505811753254	-0.20635770972051395	-0.27470131064159065	0.22204822429058374	-0.07909151999032082	-0.21823869000501128	-0.29558945832403577	-0.20266743338721874	0.19268109118829074	0.11705846289873406	0.11406600151029378	0.23835932176706015	0.026722305421990833	-0.20459478329856812	0.2705834139397587	-0.3377095792572817	-0.3293479285916396	-0.2367782421988301	-0.14941953030918115	-0.3219526825398325	-0.38884617674409866	-0.256228823514976	0.059404998131086184	0.1021900228702482	-0.3199388254552283	0.2792560773718378	-0.11410671346499146	-0.21720807400680903	0.36745148691990426	0.14488804590615273	0.381465688663475	0.3056349797577559	-0.11039713550284488	-0.10991564601661913	0.29646012891481394	0.3908990958094801	0.09225877181092021	0.34584179741840243	0.027870973318206538	-0.06726513182709687	-0.09080840022111053	-0.2836923149202398	0.0056942360656946495	0.211020386735216	0.034407606687379036	-0.2143419163013865	-0.34882607094229084	-0.05962533906208119	-0.22049662765982836	-0.21964488502126284	-0.0709757764044231	0.2987535699090218	-0.11166800167961435	-0.3415992836498894	-0.20188709196539323	-0.24007401523221683	-0.2701207628396107	-0.21074218854944943	-0.14044638840011625	0.07990031921257826	-0.34125694255514916	0.30159608094097073	-0.24579518583880544	-0.21772856907251253	-0.11113529404526595	-0.15556776533837746	-0.18312110824554642	-0.1725789745723531	-0.3719741625622171	0.3588239513113347
0.24551765993752936	0.29126060017553307	0.24201490083153882	0.2573856388995688	0.2130431026679897	0.296891008468449	0.26624175296929165	0.16836535979938727	0.24464190295533517	0.35181584368782476	0.30610267785894313	0.261651367005265	0.1960034450669848	0.23458348496890585	0.19849043159085278	0.15641944142157438	0.24656982598584304	0.3130492108390832	0.31024947335109315	0.3521382985383474	0.3470395435887463	0.20691546953959877	0.23500519094528766	0.24889851918725597	0.2678473087150862	0.20206075559321962	0.275885072144044	0.23561594326995824	0.31366476624474515	0.20600555835857987	0.26720033577556923	0.29335415427033307	0.30233007774460996	0.26327795049552793	0.21063707834507056	0.24605441664699235	0.1662736540600031	0.2215259040728953	0.1830476961305369	0.28867606329499346	0.3801136529805207	0.2604196952607844	0.23730487525744876	0.20720887539043525	0.16700556198157268	0.14554046641084895	0.18688570879918215	0.30277821412494016	0.2409890727262043	0.13521837812757592	0.26821573660809406	0.3420346430152686	0.20679047128195005	0.13789044759822794	0.3032062202206654	0.3209009527917677	0.26088167741800744	0.20923217204342265	0.29496575439091643	0.2295064336304563	0.2468600448674416	0.3006846611616159	0.4152227989385527	0.5063098603563143	0.4446212313050281	0.27661078210319867	0.30118849719324076	0.1992673222889763	0.3031543779681713	0.30485527221169095	0.2300847000461551	0.3201173806109123	0.2169373959560924	0.37455906667596894	0.4268835950614234	0.30878750876006866	0.4737964249392849	0.47039195371970355	0.2961983707239761	0.2556248196570985	0.34216238004897653	0.23421087804127788	0.13048252520693865	0.24717009233804607	0.32723132455388787	0.2706243914780423	0.21089384109207243	0.167702519633179	0.14154671648306494	0.4413091676518034	0.30008488672353445	0.19008087956030506	0.35996365159126953	0.4050813173057735	0.33469341068641606	0.2647798784310851	0.31493951345654936	0.22030544131714874	0.5107016900556596	0.2905537997128853	0.26014524201355754	0.28380517270522526	0.28522999124768283	0.23566121038383736	0.20570616364585487	0.3151067243254699	0.22748280749193284	0.30140854844801196	0.2935055489992516	0.33022046576400355	0.2775377749573437	0.20292889963374094	0.4627854522134441	0.2267872124728723	0.259011214438688	0.16534338175626828	0.2554567224869448	0.2936784970417025	0.3954785925914059	0.40154510098479584	0.5360310945955575	0.33520740934094645	0.18557943928171106	0.2814164328647741	0.17182896387248509	0.23293295865923414	0.29563848549273003	0.31246374629698864	0.1773303017702756	0.2694739712935144	0.20273773144277468	0.39900680960045115	0.29317129327142327	0.20298158793248794	0.2875367008666725	0.3109665068697894	0.262362018252731	0.28171459772517365	0.2863416907239571	0.24805321004475722	0.2594686885478629	0.3162543387805116	0.30642015258320027	0.26402905769437374	0.2424253651836103	0.2511744965512482	0.24246372485130166	0.25453391822254867	0.41484179535958027	0.263852965653587	0.24581424174843725	0.2851011959368503	0.2269558124128524	0.29892522531496485	0.27743269289122996	0.11180837503684676	0.2837288867899914	0.3766853737551515	0.2772613223289775	0.1824434739601598	0.3062846445294545	0.2931963932197596	0.192744645907364	0.260408416163566	0.2893446678534103	0.24344574041925685	0.21337323713764494	0.27512721455858674	0.22917501435068868	0.17625027798913206	0.2577514722427889	0.26260974730862247	0.22179645024498856	0.21430326758180618	0.2705417334603236	0.1848315733482987	0.18084511688330754	0.1264493452069239	0.2925092978788095
0.6603009483097206	0.5322128606572702	0.6844580748803557	0.5408206394877214	0.4426974959293408	0.5205564649409276	0.5223120112008433	0.48928601135791094	0.5153571567237442	0.46288445552469215	0.49063213688294616	0.4764783426874152	0.4767239694122929	0.48377040457847453	0.4557598562692098	0.32863289468975987	0.5046885330821693	0.5102482540159924	0.5136935643150105	0.542349962527231	0.4482339228895684	0.41017600499281204	0.3875616205660346	0.688470253685501	0.6861638879763206	0.4563266571473086	0.4958938618614268	0.4738630067185864	0.508302855406851	0.4840960235244284	0.5018786899799456	0.5870605467350171	0.4848258603092671	0.5023043172467143	0.39602574679124725	0.49944090506328953	0.3711715997783308	0.472509976541281	0.40954911160447616	0.48273851119371813	0.5333177565093842	0.5173054423392729	0.5130208006612113	0.45980560513115565	0.4650763882994041	0.4202888274917499	0.4717655657405371	0.5340081379116508	0.4674790848294391	0.4130440659040284	0.6365935007291951	0.5015570262070647	0.45744756560490885	0.3614200966806028	0.5035854410891716	0.49873560875639666	0.505000006852987	0.4092148194437859	0.5466995493519785	0.4837199439698946	0.5161720202834627	0.5419031337606	0.5652413805905315	0.5713728838473235	0.5836454831206169	0.5212970281132565	0.48870453507764133	0.48390975657313773	0.4956826951567025	0.4957786826050975	0.4638574417121393	0.530625046082944	0.4849698479415774	0.5299019407646148	0.5520451662787537	0.5250207561212837	0.5643520763833045	0.6821732697146006	0.4844772121861569	0.5195767973995863	0.5076117403296998	0.4868632301228949	0.36399884218939516	0.4805820065883595	0.5154975074817296	0.5186219128087756	0.4244330535488927	0.42459523219678896	0.3708109434851774	0.6404608172159546	0.5103073320132957	0.42175838206517113	0.5245869403695247	0.5257085192480724	0.5047078743715354	0.5952567689127958	0.6331945194455234	0.4326626873501157	0.5821267393792017	0.5494437040011283	0.5875431467927138	0.47221941395328215	0.5280926187073651	0.49965942778831485	0.44124494251455715	0.4798170276028304	0.45662739970731736	0.5260650883498421	0.5144792101277215	0.5030926049183871	0.5253080275641151	0.4648946830625226	0.5441561509705051	0.5057642887280621	0.48507921355325934	0.40243016331074666	0.49493324854829157	0.5495315840048194	0.5418029066526705	0.5459831347896137	0.6324940685435827	0.5215203776726045	0.4339063652310404	0.6235873386258098	0.4052794643279265	0.4754335828406444	0.5068877467409408	0.5035812897994643	0.38377945265678404	0.3590887318565491	0.36911648203676994	0.5316190241068115	0.5094997589342622	0.46171002093856295	0.5896245312622522	0.4949210915677962	0.4939551189537196	0.6443679454559369	0.5363183110457812	0.6969676343637633	0.6247592536421014	0.5208830275742009	0.5244249169974162	0.6758582733820157	0.6487277464716149	0.5093600838773714	0.6561682697480896	0.5246578967535055	0.5324257625247553	0.4895911812918041	0.43654264676927546	0.4930975156928812	0.6206154277960231	0.5538544272845757	0.44166345260775997	0.4055322191803349	0.5538601279251468	0.5431781377864429	0.5076768958388066	0.49681382464193447	0.594832268149254	0.5390502341939243	0.46462256409115077	0.48515957562582446	0.5282333792319964	0.459374976945903	0.41458107052773985	0.48808859946983274	0.5897324324373068	0.3865984454246001	0.6717637183391162	0.4970037445626897	0.46890495649772523	0.48886754440037683	0.47023311884688657	0.43887936762256474	0.4880991022783109	0.37644337058939725	0.6085288360068632
-0.30963212263776174	-0.30126332979587567	-0.3081420108432087	-0.12808964510202006	-0.05053544771384913	-0.1149754483354885	-0.10313646229164136	-0.1400609540660857	-0.10954574737917654	-0.12764119957308662	-0.06687319286629126	0.001604762653777403	-0.07942763462293723	-0.04412054945395863	-0.038628855176174426	0.0888470098790177	-0.07462702542966262	-0.20895478640625573	-0.12879166584317503	-0.06266444977272856	-0.08130648123661982	-0.015119881325611678	-0.018503150735318413	-0.31748668170809446	-0.3169386596686188	-0.07360460873695879	-0.2610209118528338	-0.1432981167912341	-0.14717920080277117	-0.04240921551300847	-0.3045789008684564	-0.3185214406510589	-0.20115199040542234	-0.12575024997447565	-0.004922802040322971	-0.0666639538531926	0.07037719657896682	0.0020559095865460147	0.011159244753458239	-0.04096821541178075	-0.047518689025509514	-0.09963267019975063	-0.017537171544318886	-0.04555731746892569	-0.10283174829566628	-0.01595040172903356	-0.0996664563498804	-0.2815879360943937	0.06297308283220013	0.01369312140998423	-0.332574515995268	-0.2276521068959448	-0.030495218610303562	0.06323425721066026	-0.19305514333091245	-0.07783453823806687	-0.026010545539174812	0.020737541151161845	-0.06823123324489638	0.04493205361377778	-0.09016023403263339	-0.2830327226797049	-0.05627197913799087	-0.04127853061378439	-0.045094530719473724	-0.08959084974972986	-0.1400285086028719	0.0008491191272686494	-0.0985779529687632	-0.056150082059659615	-0.008104395046825447	-0.2953869111542098	-0.0043765774641015415	-0.054482643859494556	-0.04990738533126293	-0.19164076830930002	-0.06522549750193748	-0.08249677703995179	-0.03890111464203114	-0.1096462262843149	-0.17964503103695914	-0.10139464567669912	0.06675439646758288	-0.05906953225140593	-0.2033784440387881	-0.27879921473816177	0.015402580300807267	0.031057900492047735	-0.04404788839681334	-0.07367080640656246	-0.0831583869537092	0.09941855889166645	-0.07137684235878372	-0.07052864168845652	-0.2559143718689688	-0.280971816723662	-0.32268832632207	0.019338007933629067	-0.0245451760048645	-0.3052067540777108	-0.33390852885871847	-0.27279628224434604	-0.15490531118692008	-0.006212580949671781	0.06739317965837105	-0.14730781811068322	-0.11067642672769938	-0.1010034411816486	-0.11651090212879782	-0.2287438980588635	-0.06750036361248825	-0.003130771143698155	-0.0788899933225907	-0.10511684106946759	-0.06178961461287971	-0.005200503032577131	-0.07726381605199736	-0.28620094234672033	-0.06242046844139823	-0.054106837432858435	-0.05558460310341798	-0.30165712038318915	-0.041615247898518615	-0.3121145633072465	0.05061024729242672	0.040453480512266965	-0.04634700131003111	-0.11369189998839094	0.02873861647314639	0.1654800113301209	0.05732829739078241	-0.02952843072153083	-0.3012475996179591	0.0459686120862034	-0.28197385203080616	-0.13638106217625895	-0.07037501703138385	-0.2956161766914437	-0.33492058463037033	-0.3201342587421573	-0.2944060887383402	-0.17209981559679116	-0.1651399495450758	-0.3424068201833558	-0.2813067109426066	-0.30234189807809686	-0.28432994910301673	-0.28015632220022857	-0.20834014228807077	-0.21481204854906058	0.043835816677846445	-0.340859520244679	-0.3208010305125758	-0.20737191861701182	-0.05722077757817823	0.045672028476706206	-0.26683146557865267	-0.07106353921699432	-0.060044134195806856	-0.2754262233228828	-0.3431291537063984	-0.1795488427258161	0.04185092079268804	-0.0974002478103209	-0.040288173326261126	-0.017286803686699978	0.0007520962651869356	-0.17455814069148118	-0.314303198050241	0.06235933232835397	-0.3283921094582629	-0.02462926704581811	-0.01968874712340199	-0.09052862276460114	-0.09849971208900736	-0.09709846438137333	-0.19442108592673424	0.0733686473684041	-0.29881937775341516
0.718338656694729	0.47373111956836217	0.7465969940327368	0.03266483824659627	0.010790998214334602	0.07729679627168484	0.08761242610164982	-0.04792954416334855	0.1196002936124673	0.2662077502710201	0.17505690263517626	0.08789673637785661	-0.018605565511268823	-0.0022426195853854636	-0.05071388821937825	-0.09014335416492414	0.09184914943158756	0.26095854879339986	0.22055237725977989	0.09451197538681977	0.25491325540840204	-0.0030676178584315705	0.041867454382540414	0.7661871278090144	0.7046644780674951	0.05549388776889547	0.34104158229825315	0.19465190437866248	0.20859599103883752	-0.02006095882069786	0.39810432647759125	0.5023569660302216	0.2997552782053935	0.19316822970403114	0.0035215940004045265	0.09561766699534074	-0.08676531683075031	0.013739089184320236	-0.046316881740709914	0.04990822266705197	0.0988709993555566	0.09919663224851488	0.020319869661509032	-0.02565922571611337	-0.02073738032799341	-0.07569135480355146	0.0218445399168935	0.4509131394837082	-0.03330540630987905	-0.04076051151309451	0.6451311340164612	0.335911452492357	0.04405333439790693	-0.1050195259273155	0.23700336449774415	0.1635206984503519	0.007477404068928939	-0.030639289779795742	0.049664843640997325	-0.042743187962978435	0.12528257228700787	0.48289732546022457	0.1387450236100144	0.18642100494330693	0.13315324979077042	0.13107175691185413	0.21648743262610584	-0.01012775707065422	0.19305732665249012	0.11782810606028052	0.020521390837573733	0.5691538812073831	0.021651740504448902	0.10749006173496589	0.1367069598777162	0.28635844073964845	0.1900521114314201	0.12137649977276288	0.07704228282713316	0.1320740558931408	0.32003963129440105	0.06333996409519282	-0.07788359348831314	0.171845816313337	0.2977396374208715	0.5069223096976321	-0.002851402983479634	-0.007881994606969422	-0.0352141917357687	0.12649287417106042	0.074469278008501	-0.11235970140658744	0.12444565712736544	0.16669449917011897	0.36903201797744073	0.5837807461033884	0.718337091994151	-0.024235568865610763	0.15949584636511072	0.5918692579889373	0.6066865205822249	0.42515443671409053	0.1897050751857885	0.03715076201628459	-0.07245634846752952	0.2565348570044519	0.106695851855902	0.17593829540067596	0.1962678595682219	0.35389084494911105	0.06978169664044151	0.012262907948451418	0.2203084467668404	0.01585117877434533	0.11011864198349222	-0.07493284831631564	0.12274455056398462	0.588266535470527	0.1240490172643991	0.12000697765342722	0.2125371362241993	0.483348972589199	-0.02358100933497903	0.6435709740560511	-0.08643238389007832	-0.003756416760250375	0.09405397410104444	0.20012293844076445	-0.07578286424742028	-0.08812039206931371	-0.034071257338358835	0.10524363331155728	0.5135266683225728	-0.023280847412917666	0.6560459783281349	0.22304203703338718	0.11960195546797273	0.7158226061699924	0.5357873428558463	0.7715089453304704	0.667949756505666	0.26267256136047745	0.26372809612712855	0.7479003762779575	0.756241626069047	0.3976279512954311	0.7274430286587588	0.3564588651239983	0.4130365485224676	0.3019401915377512	-0.03388936232158557	0.46018641931533	0.5783879412163633	0.5011605412481066	0.2095008544021419	-0.10878469177452521	0.3099393461701685	0.24098667888374428	0.10228274682149321	0.23346421826685937	0.6598947105125712	0.17184910178711832	-0.05493053207749671	0.1330802441621726	0.09183048395075641	0.09077321366256363	0.0055975193447497795	0.2693355353088779	0.2809004325606652	-0.0932162902411387	0.7319029542464426	0.04144318983867504	-0.03852572407155305	0.0022404842746916453	0.144327939795568	0.04228079117366404	0.17586123978229615	-0.08615526442989932	0.6729935193078156
-0.5146210210936717	-0.42919335647672213	-0.516671849016225	0.2222954934944048	0.25405967418482245	0.2274025811247753	-0.20157935388094483	0.16056641927781826	-0.2203892307616403	-0.3159875806429367	-0.25634984461320137	-0.1587938351153392	0.21027207190850378	0.22864656618392837	0.15634045099139748	0.14263005829599004	-0.2076122103302966	-0.33969989647660936	-0.28516971103274036	0.2559484633341439	-0.2913818494967841	0.16438366564234957	0.17853859160595476	-0.5163589431271289	-0.4939725817331318	-0.20408298758406784	-0.39656090278546025	-0.3096049130464692	-0.30322638828791204	0.16630278499547566	-0.40662225273085545	-0.4251708514262649	-0.363485330479652	-0.29188185039874526	0.1664809251689945	-0.20205955306745255	0.1343189801746447	-0.13121676252684084	0.20131164462278378	0.27594990277939674	0.2594914162663201	-0.21816146776359452	-0.12819908910678568	0.14948945980549874	-0.08500306470021732	0.013653050450567306	-0.1701219884598096	-0.42525999830884514	-0.059730212244380215	-0.051017524722235585	-0.49176442621489863	-0.3746659462063184	-0.1487068094845972	0.1364944104989665	-0.33872767560784367	-0.23704674815363108	0.21126160392179186	0.1564171186292554	0.2563927091917082	-0.010024274374939274	-0.22064510323377035	-0.41855454903995937	0.25660024341340476	0.26467399994567986	0.25419478152660596	-0.24252288806680933	-0.28529397116968613	-0.1342185520579759	-0.2514098744617897	-0.20522996077486505	-0.12041377894144653	-0.4652265624438366	-0.15719407958004822	0.2593152705269348	0.2538428113230894	-0.3431293821654291	0.24889966495991608	0.21712292755976345	0.28215778855236806	-0.24703496731690172	-0.3553312536850074	0.24572514197476014	0.11458766839374246	-0.281847751635046	-0.34701363616331615	-0.4361488379784883	0.22959330434311556	-0.1337119348700617	0.15231104046047078	0.2322533119425255	0.25099924375317195	0.03662965571740484	0.2602615547862835	0.25346399211135334	-0.3885445109231955	-0.47059559298314774	-0.5109871714775975	0.1340836045300728	0.2571293492342547	-0.4744381139557909	-0.4919689968933813	-0.43197864641034184	-0.2777736808298742	-0.13598091548058025	0.02780950650039332	-0.2931426627202912	-0.261313167746141	-0.2423718648257846	-0.26250096236613596	-0.3803311830068316	-0.17902009155798937	-0.11696782328305699	0.25884374092367	0.18492095392433544	-0.2240732602690333	0.12298760897008096	-0.2218988284762773	-0.4750675379254619	0.24893814804538433	0.2529870674286401	0.2423579613805242	-0.44683147487343605	0.17234462763520328	-0.48170433947112296	0.06301342326749043	-0.1106564176790169	-0.19339015581464486	-0.27433092877707005	0.12575394687210956	0.2278907253649966	0.2217468911570464	0.2761980624570181	-0.44309251375109376	-0.08849638967787549	-0.5017134205962674	-0.29277205086316754	-0.22304380727973216	-0.5005338650098927	-0.46534350028900456	-0.5278779297445042	-0.5043235063972196	-0.3280232767040323	-0.3160305571149676	-0.5241290742094433	-0.4958029906081572	-0.45709737389320954	-0.5123767465214288	-0.43128845773361807	-0.3808241847141949	-0.38264129074495923	0.0404803033694246	-0.46189010880066844	-0.485687269768802	-0.4168425376823183	-0.2831394099267534	-0.006745070703485789	-0.4129720639937512	-0.2554862246780089	-0.20416752096043267	-0.3976748673082831	-0.5022004811374772	-0.2687000453816083	-0.06415985057040058	-0.2309018760995839	-0.19288571010155087	-0.18624913509220453	0.18631138279671758	-0.3354628318114821	-0.43628596493970434	0.10601886553417561	-0.5142453460833611	-0.17347704741600145	0.05433630319959168	0.1923059584095541	-0.2498419147733808	-0.2282079172736134	-0.35851191284597844	-0.01851585339902881	-0.5090684876625018
-0.851636017610503	-0.4856902236590438	-0.8760826666414318	-0.6603187538271087	-0.7672235586625886	-0.6133182555198426	-0.6355167770919343	-0.7383649312654792	-0.6416935044564203	-0.5351851234431682	-0.5908184456680174	-0.6511664183547299	-0.7348035462403328	-0.7246577637106334	-0.6998019455037394	-0.7058459829951593	-0.6327976944288359	-0.5306022937228054	-0.604868676423693	-0.6507946877004392	-0.5811714178680986	-0.7161721331525588	-0.7535210571893398	-0.8888284521899399	-0.7467736184491527	-0.6226657753570066	-0.5288149078513524	-0.5818354529726445	-0.5592000847927185	-0.6959051358014833	-0.45464131732466323	-0.5457489482899077	-0.5098071921656208	-0.5943952866061406	-0.7241276982373968	-0.6404375202141941	-0.6868066365383168	-0.6484526508566698	-0.6937265363233438	-0.7188115756698581	-0.6289935039171821	-0.6104590939716924	-0.6582939994153834	-0.6949120503281176	-0.6807422041184252	-0.7035754951935291	-0.6220330230529034	-0.5009353060856632	-0.6459841110414402	-0.6843383871015416	-0.7154487980761822	-0.5446681886201814	-0.6685529497853191	-0.711802022395831	-0.5419560862849792	-0.6086032185991707	-0.699862183188843	-0.6947056017197158	-0.7160809690369061	-0.6823401547004514	-0.6379606738570871	-0.517782126534652	-0.5454732263287214	-0.5165132359617115	-0.5536035184740398	-0.6093118753109754	-0.5778860079459668	-0.6435310321285262	-0.6089992848245158	-0.624799896038658	-0.6517440148605947	-0.5412430026620092	-0.6261210496525176	-0.6350112996905422	-0.5778021608289963	-0.5829354576980516	-0.5161715002128984	-0.40647797835977684	-0.6675239715286299	-0.6177788974469398	-0.5870804896958155	-0.7442346473200032	-0.7084923189236711	-0.596837807309282	-0.5847132154390853	-0.5335226437628903	-0.7047693122587899	-0.6565458017396438	-0.7476891131759268	-0.47638636403266366	-0.6878438142714547	-0.646303219370957	-0.6015746917937936	-0.5422614279537066	-0.5211178073137804	-0.6477178317166066	-0.6739746016495056	-0.6772115305795654	-0.5462758023009673	-0.5960203908978667	-0.6679302676815568	-0.4962796902684409	-0.6071736550390556	-0.6633712512095262	-0.690854729718045	-0.602357666455197	-0.5937846766447963	-0.6318175510883934	-0.6182685807921675	-0.5162196489396645	-0.6507837644148489	-0.664404022207848	-0.5002438713530899	-0.7263430354078625	-0.6033488979376307	-0.6856878209188046	-0.6283916985138427	-0.5900209514242452	-0.5957949516455163	-0.593383748476582	-0.4393579199847476	-0.48500484479900885	-0.6953761577851301	-0.6892946202523156	-0.6930713894290901	-0.6381236101013105	-0.6312111115218638	-0.592493057200532	-0.7252644020004255	-0.696573322630418	-0.670616708472437	-0.6416941170393127	-0.5097273105944431	-0.6468298321786639	-0.6705228047018834	-0.5802281269111291	-0.6129778345759481	-0.8074365176842393	-0.5172171298833016	-0.893795618845911	-0.7756384365823731	-0.582622505277965	-0.6004812439522227	-0.7847788387735616	-0.9119426739040585	-0.47789910366936106	-0.8764108430339341	-0.4765365081730475	-0.5947995249019811	-0.5295924675624804	-0.6899766752984275	-0.5189370794874852	-0.7495096501747025	-0.5737031174250055	-0.6059981588607857	-0.6741678855874169	-0.5262043418395033	-0.6345659503423257	-0.6313226731944432	-0.5090906251441132	-0.6611553377978452	-0.6115104397150426	-0.6593693360569408	-0.6090336381080756	-0.6249772983650321	-0.6326381997684932	-0.723849361759054	-0.5655616809292201	-0.48084896947916633	-0.69634856808016	-0.7984395139384654	-0.6007038063482395	-0.6789321428523181	-0.7131924467144195	-0.590461110180597	-0.6129470498827947	-0.5671137809776153	-0.6682872223666284	-0.755106192060825
0.08807425777469946	0.09214848824951019	0.10239194423705394	0.19521268662023936	0.19328840580248222	0.2256146853601819	0.07434220806220619	0.13928843094521873	0.05626127308702261	0.08601659107542947	0.053254800000666215	0.02546229714242649	0.16722709289000026	0.1748078513006553	0.16482285507462666	0.17591213381502455	0.04632111803947552	0.05938479438103599	0.022051380578053906	0.17876904939921742	0.07070326007132301	0.1715196898878762	0.1903172445419542	0.09885268528222046	0.05497539690537684	0.09878235874460914	0.04928824354128686	0.07803913422247333	0.056370541618738335	0.17306424229270678	0.08622766660371876	0.0698261118417432	0.10092741599306215	0.009739893893215022	0.17696625829289275	0.04860033856840555	0.18047420462457017	0.0796997132797842	0.18902805030883701	0.18565235752211753	0.1979445350401987	0.06961642476706766	0.06161605674563837	0.1728851523740838	0.10843473530135284	0.11487071179775443	0.11727282544832132	0.07796296778574185	0.061942394692908194	0.07827005688840727	0.06499309063992431	0.016807161942921596	0.059805415714099044	0.1447254172239196	0.0693511487383685	0.05195948076115482	0.15178020378064522	0.18200303518251254	0.15439299974752121	0.059170010734586026	0.027055646106960686	0.08334482895802839	0.23479718194694957	0.2496117066958149	0.23840159378664313	0.033852796366465834	0.04093073460482626	0.07319760504742491	0.03993305384036901	0.060136974496028055	0.0940894328543352	0.07190406452413892	0.09455567550336783	0.1816938759785786	0.21102667790397922	0.00912163862549941	0.22938093925825112	0.3171185612973476	0.1919413206544006	0.023695249574171066	-0.01935628175755967	0.1621583120807366	0.17776924709943878	0.04985150950811563	-0.011843648816185187	0.10618807820984622	0.1860321153205064	0.08629976603340397	0.14630125534301064	0.28486998528342866	0.1754945995516845	0.10514943018108475	0.19606338131525225	0.20734454878297875	0.007788586134196709	0.1118055007377356	0.031951630853227164	0.18319960063974391	0.24011153158335746	0.10464988174810014	0.06594392464993018	0.054527060260340154	0.009974977650493898	0.052465185635931416	0.060866309103527125	0.009354965200612214	0.11042075304141563	0.01212350644429603	-0.0071943925554466825	0.02768361174847918	0.04915733072767629	0.06224279559843927	0.22204782615726182	0.14166947747768616	0.07710979220881524	0.1737534875472293	0.049949744899268206	0.08224342352422159	0.20172806680585967	0.20833770324100545	0.28405858837604603	0.03329608461139125	0.16267737463491144	0.10396577125048592	0.1130246476681991	0.06444652077848478	0.051007154361523574	0.04101983058938117	0.1519189136113506	0.11906451500976244	0.19378977175764994	0.1892351746700349	0.08123715094777273	0.08057967345741465	0.09070229926783738	0.052548067874664976	0.052662397066050234	0.1202132023443433	0.06416578240632448	0.08672796703733027	0.09943303939441234	0.0021307059067468825	-0.003273421432423429	0.025127297798727966	0.1536500695634906	0.12908549927177415	0.1174170385293557	0.13598289175623202	-0.04072643948513974	0.06325680199476691	0.10779804151671643	0.03369563348823576	0.06437342386050598	0.06523481809226375	0.05080849133717878	0.08039732686543047	0.030123084655463726	-0.035794704982368725	0.05256586663273807	0.1436863232498376	0.06582420629723743	0.02778561007556106	0.07062291503674298	0.04484642723847715	0.04953515084808873	0.06074841197855619	0.1657551954862645	0.015721143642545142	0.1628692593307845	0.1349264954974823	0.05006651138745449	0.1083086746984039	0.1656934968699605	0.14709519509948446	0.08818590949221808	0.12897487039513772	0.06496916432428734	0.0939363242356385	0.11316670625654227
-0.43092312724394044	-0.2438974154365737	-0.45508229207326345	0.4129727292099009	0.39483943664826937	0.40283782053433914	-0.19852484446542595	0.39689277907396114	-0.1890851852653107	-0.32732728016589874	-0.27945394509124866	-0.20475779554333626	0.3829577426591617	0.34508735685512515	0.2596632611452776	0.0931600530611982	-0.19656371077341525	-0.2656195744111185	-0.2563206615858944	0.35767778453161103	-0.28558383040072455	0.22345699114573445	0.24118988149287665	-0.4672377222895595	-0.3256416343903854	-0.20348470241241162	-0.22568329575884724	-0.2299961082999302	-0.26724005544130974	0.2591763732764064	-0.23327455272846592	-0.2228803346311091	-0.24253858045383717	-0.24632583204810965	0.2137138200963062	-0.2041927226573461	0.0921245723006984	-0.16370696680985133	0.2511685944164571	0.3573423015324796	0.3318892256784368	-0.22608072304125004	-0.15505271018545377	0.2567761799372844	0.00021570548508112464	0.04310019086345471	-0.15437110634398934	-0.24251355678074585	-0.1516069670794639	-0.050845094212786685	-0.31282736156831037	-0.2512223459242436	-0.145970021997913	0.0896798756670514	-0.2431952046468893	-0.24531470105266498	0.2741816598388619	0.15152370000723234	0.3700273905265775	-0.09537830018993579	-0.21120088357384204	-0.2487580768943415	0.3561563625839701	0.29244839866629024	0.2995593740223714	-0.23888225850249556	-0.2632776795106174	-0.16241775473396372	-0.24088856606801223	-0.23069270819447926	-0.1414393739917804	-0.28561648196391665	-0.2020384028529931	0.36508885623456844	0.3328222636480578	-0.25652348740748665	0.3175843282136773	0.23940131771003556	0.37401215026800905	-0.2110757899454317	-0.26358413091395116	0.4410472605297203	0.0975202420650125	-0.27207779500957385	-0.23385803223802962	-0.28052626340892883	0.2820332719459405	-0.15832949989670017	0.24238178403219865	0.289106744874993	0.3968940364861854	-0.07822922961533349	0.4115459641866689	0.3972651691809269	-0.2338147867851663	-0.33130747142613437	-0.3147386568329916	0.12683846075776037	0.24728821246233176	-0.31143697403840576	-0.288423659117078	-0.23028536134316996	-0.22741926115196565	-0.16188704461297035	-0.05935280806500867	-0.23776955338880915	-0.21812901725324874	-0.22592306255334335	-0.23003171902486166	-0.2544641273971333	-0.17663242364188794	-0.14440899389501557	0.3604911036833722	0.3698638866265722	-0.252611844603557	0.16906019033520833	-0.21922182838250276	-0.30821276135603426	0.3564081122901489	0.3530874628020887	0.2544707156383079	-0.2261753346244311	0.27292628492342974	-0.32882183853261826	0.015821856680451635	-0.17597238695804632	-0.21739675594582863	-0.2575197858253674	0.12399427181868691	0.058530911194853125	0.20812646377301788	0.30327156857791526	-0.27325607070095115	-0.15445032869868722	-0.37338613218552796	-0.2622908710276267	-0.2399640956966789	-0.4255674883237389	-0.26478136456379187	-0.4857748620320437	-0.39985833475402244	-0.2625153885631598	-0.2470467539212391	-0.33340570418423876	-0.5483146322773507	-0.23364223881203344	-0.49076450350510936	-0.1796045853323905	-0.2909853620057662	-0.2365018939762936	-0.025314692990908078	-0.1783709969637403	-0.30288424013399706	-0.32626037029123267	-0.2833624657084317	-0.04586799231289987	-0.22107739135522517	-0.2682194361323741	-0.22207483627831298	-0.15469466240269877	-0.30362357332780754	-0.19277043807893407	-0.11195829345470595	-0.21984083525939482	-0.22286471185173307	-0.22325551414733627	0.19371539623864834	-0.25715670558126874	-0.10582652361902853	0.0443168126865989	-0.35129595310382455	-0.230380688633473	0.05913864720006248	0.3478336143119046	-0.23904693539436728	-0.1578003907831211	-0.19619915988727984	-0.08165864922199087	-0.3983398003245917
-0.7715288287735242	-0.6958313880819413	-0.7499114240756817	-0.12297341470727804	-0.09472475461248125	-0.16266799468757281	-0.45554588310199534	-0.09215769087263723	-0.4774266970364715	-0.5464913935463638	-0.505879957102958	-0.4652083491527254	-0.09992548254722267	-0.10339586039295198	-0.09082994064758179	-0.21984306038024132	-0.4700347410489005	-0.5729807108725324	-0.5329843716958671	-0.19327912590773255	-0.5418687343807194	-0.15320887216569273	-0.16041953061876432	-0.7557015815984574	-0.8027174679919438	-0.4592018883939401	-0.5989345582549719	-0.5471685546356109	-0.5295069115408719	-0.1302744290327697	-0.6513760099215167	-0.7160186336950953	-0.5857648156161439	-0.5388991696673671	-0.1482998517761246	-0.45879208710837077	-0.2123416223542658	-0.40195733448428833	-0.11879754614472304	-0.15198782531899555	-0.20968277319285283	-0.45968631138400357	-0.4039848452792241	-0.11246900076162727	-0.2857578322205612	-0.2323762938626524	-0.40081512590336443	-0.666945139412128	-0.37203564257165156	-0.35249402044352973	-0.803469518841951	-0.5869843292405363	-0.4408944674566714	-0.23583550899083633	-0.570462703211142	-0.5034756756509422	-0.12170621579181809	-0.16289349865260672	-0.12371511887075448	-0.33069606167859394	-0.4687610876671579	-0.7067026998730945	-0.18115014038552293	-0.2060768821478332	-0.19740423512132294	-0.4896904606460241	-0.5381629519066968	-0.4061467689785619	-0.5147123841248111	-0.47670516221388287	-0.3747571227092491	-0.7582943848611661	-0.4096547789033847	-0.20435614187417003	-0.21465916539721214	-0.5744013608229157	-0.2197736975297649	-0.15871568211519604	-0.2230793941462777	-0.49978304434323834	-0.586819232702553	-0.15198289158650818	-0.23680478901041224	-0.4983875175157462	-0.557606797463936	-0.7176925902784448	-0.14600012147357624	-0.41508917577869753	-0.16809271066099307	-0.1554648023064065	-0.16801206560499826	-0.27950105813469	-0.18771286349089397	-0.20605527370685972	-0.6052657021236878	-0.7629076941008937	-0.8294402248981865	-0.16515454003438176	-0.22063724900323495	-0.7820745844924233	-0.7772781992606197	-0.6299779971107053	-0.5288591523135318	-0.41221421017562127	-0.33376859937948306	-0.5510014056398427	-0.4986747292998705	-0.5100411508518836	-0.534759280773816	-0.6100021802805093	-0.44252687598858376	-0.40916948889824584	-0.220135349855421	-0.12431309403703328	-0.46779811167380675	-0.15248421952477687	-0.4817145814194423	-0.7780106583356787	-0.20419988861774122	-0.197711571237768	-0.24034268800169484	-0.6925878432703361	-0.13406610259732143	-0.7991800855869238	-0.259329944465693	-0.3987729917296972	-0.4562555154818237	-0.5250830740346326	-0.2140780429027721	-0.24763773431604114	-0.15751026697628032	-0.21959597069239017	-0.7153014876799308	-0.367650381004116	-0.7981734693191174	-0.5311040801797797	-0.48572313975788334	-0.7983939586897209	-0.7264990932889674	-0.7507273945881789	-0.7875128362468655	-0.5694873542093313	-0.5615862109821474	-0.8239754166542959	-0.7045526467310985	-0.6397834019337272	-0.7410169658661947	-0.6392880468355671	-0.615399496856555	-0.5783540262606628	-0.2745140236197506	-0.6619615386794371	-0.7576629920235103	-0.7281683134133581	-0.5377918448972099	-0.3186309467935831	-0.5915387241239607	-0.5273634162244631	-0.46108771207609317	-0.5320563447363766	-0.8246272768935767	-0.5298284452665596	-0.3592369732774607	-0.49090093750679115	-0.4358191870744923	-0.4573310329153025	-0.19485097052219358	-0.5675607439654495	-0.634884232209787	-0.2322265581716328	-0.8108582855822588	-0.40281391195245836	-0.17937161018803718	-0.12289044603096216	-0.4971761841300872	-0.46737427566007456	-0.5144873252301452	-0.3494508349045159	-0.8182930500337648
0.30150933140889746	0.21722629330066257	0.29054667717087995	-0.17373888914620822	-0.2039232483745701	-0.2024801167300066	0.14809790272953333	-0.09290500871407965	0.15793602066270906	0.16131290653290098	0.15205697175597577	0.14376115289244956	-0.15529907244110364	-0.16807171618630423	-0.0781679200627098	0.040426802278725735	0.15976595518356995	0.20514014532016417	0.17187618031101887	-0.20215938433153746	0.1170500997479612	-0.037864434285019136	-0.07178181105000468	0.2902207897677057	0.33100050849887735	0.14940781344151322	0.23390167364486802	0.1701771950012978	0.17821903070645456	-0.06914683867785161	0.22199547828229466	0.2654149639709768	0.17318077856468178	0.1911397047210136	-0.04359943712018989	0.1514646738740537	0.039597312422460465	0.1316878092345296	-0.07353165784140588	-0.21201542672308893	-0.22844186434732383	0.16279239996532596	0.1425871119674128	-0.0772213004967872	0.15672772321232958	0.11485676996327253	0.1696086563548338	0.23724581577352533	0.12002792595347887	0.12411592525399966	0.3170466848179347	0.22696845238011681	0.13702042919557078	0.07094578585099415	0.18791608022845746	0.13766408720095247	-0.11762301212223449	-0.007925457237059078	-0.18218656870924643	0.09929749137088453	0.17130833022494474	0.23304900204332124	-0.24887258390791445	-0.2767701119712917	-0.24691380321928424	0.16725268354929174	0.1780982053708931	0.1487888535805128	0.1504103595112371	0.1312097895886034	0.12114554628854447	0.2392050157556228	0.14010702628623972	-0.23256254542642557	-0.25066970737982486	0.20164045483520404	-0.2570979485596945	-0.23714484477357356	-0.20230494199292587	0.17521775397941597	0.1972051037046768	-0.18309173957683877	0.07157194789638753	0.16206853143029637	0.2087928081270815	0.21917168598654524	-0.11299897039643515	0.12575879251682442	0.03038987245406667	-0.24168692581116052	-0.20537820795471867	0.09511433749274481	-0.23688647683183672	-0.244295923704405	0.24473487831399127	0.25252231303621964	0.2938299402407391	-0.00859485820379309	-0.27908449459136553	0.23642011227342258	0.29986834323545397	0.23286163439183144	0.18947513618286893	0.1324847615074285	0.09529806531182286	0.1741199264531238	0.14821277519719522	0.15811005349139595	0.17243584926000738	0.2271814487616129	0.14065807914355755	0.13548984593656987	-0.2521746751857694	-0.11951873785203805	0.15133265867001394	0.025025746940050705	0.15265341410466443	0.22893021833725152	-0.24223277196238474	-0.24899138311856606	-0.2802624732659003	0.2620963474549904	-0.0421023334214017	0.28199573226794517	0.08639732114998354	0.13658070871465472	0.13535188290320566	0.1602443918373745	0.054185128609966646	-0.006069087313290075	-0.04869751828550038	-0.2244006570999244	0.2221160785328869	0.12464355508109072	0.24907563431714647	0.16575711415199257	0.15839394272692386	0.2598802191366139	0.24520032408577097	0.2893138952047192	0.2855540032535158	0.19838259283744175	0.1916082529340744	0.3433508779699292	0.23909112108982133	0.22059433175124382	0.2766016777982102	0.2282897211262665	0.18335166729407998	0.20071927877762574	0.0773287406731837	0.28174865579950054	0.33345260005519245	0.2472701016455232	0.14544632849114442	0.12393409907043547	0.2580691290987886	0.144886151063078	0.1430639037600534	0.18977746755428032	0.28227818163769297	0.1878812708044576	0.12041922808600113	0.16369939737165945	0.14237060620914616	0.13731046292030996	0.002595458205670545	0.20344027425743533	0.22393507293795728	0.07083707327274594	0.33219736006887324	0.13492522802293377	0.0732735149575047	-0.09692749160968762	0.1443950644146058	0.15256458708385512	0.22436895973135906	0.11853793766276026	0.257092911348776
0.1945220259622274	0.3197170335666899	0.18941177593946393	0.3487179300660135	0.35336201402492684	0.29526522499964064	0.3683147576393553	0.3938349519138713	0.39476173089280675	0.3206892122596128	0.3121070540298372	0.29749822642173107	0.36914738959528337	0.3608374099765508	0.3813524900750207	0.37112976311267076	0.35884224431243217	0.33594454161312703	0.3289834650134562	0.32486195637715587	0.3510127861199771	0.35538116477550663	0.3811603630717425	0.18825951150691925	0.20407857931144746	0.38337936232721725	0.3478009188439053	0.39206968221088556	0.35612176703501564	0.3961994489029237	0.31462602086308056	0.29690344547099556	0.383440062844043	0.3165694548189749	0.3622709973952515	0.3488018862153599	0.3784000214385267	0.36272410755448126	0.3295957523882962	0.3203668894780478	0.2992250011879939	0.33361183651214055	0.347985388892324	0.38995588998366937	0.38751645898591425	0.3992858835084342	0.38219342778070176	0.3214460430367473	0.3067851245040189	0.38325158905658085	0.23845074424957644	0.26731191088583794	0.3802339076942135	0.3709635550715882	0.3821095383048576	0.3391180920645579	0.3755510194022479	0.36889850674290403	0.37367823397021827	0.35203231522851763	0.3257867070145374	0.27533751563947784	0.2829390636138125	0.24392809536715412	0.2788903662465958	0.30891427247695263	0.3137654786314853	0.3600328485003529	0.34944141035199705	0.3249395672519898	0.3660750999116732	0.25318044392753525	0.374235331644984	0.3125364929019996	0.28897722866840975	0.3256990426699672	0.24585939293144285	0.25989807428557055	0.30138705552312417	0.3461012293094621	0.2746258281309891	0.3761983120757778	0.37535790189912344	0.3642550095388004	0.2886367751702149	0.26532993769374713	0.32036341181719763	0.3649846622017693	0.3416591518879256	0.2780587307088309	0.3449632181642974	0.33246725359110396	0.3095000550199548	0.2666555528867306	0.27665767245673356	0.2739426827758976	0.16365385319165043	0.38662612919500394	0.25789073561538234	0.2600212347619625	0.22912516437646396	0.28608610908358967	0.32248995397933267	0.36039166172930515	0.3394911546177404	0.2835192280000155	0.4028482573361224	0.303607972844887	0.2973737156385783	0.307542012963871	0.33933798041128127	0.369981333090173	0.22723522047219138	0.38682889482322025	0.34203971007388	0.3556319474885187	0.3534409720217331	0.25209174066650425	0.29633487503244166	0.2991263885392576	0.2345308952262881	0.2650365078818169	0.3488961106875158	0.227766583365922	0.3699213632593116	0.3226365188420546	0.3216404596021837	0.3388177807591459	0.3908476766422987	0.33383192390136085	0.31043803679016024	0.29353771710277643	0.2755572229094022	0.3574398753427178	0.21694160073186694	0.3614045667963468	0.32124296122800133	0.23598095495674495	0.27626390375635723	0.17614360077517066	0.2219753324113461	0.3129882706244591	0.3327782082825511	0.16046581230260834	0.2079732988375905	0.3597615102027105	0.2005504255490952	0.371765738590463	0.18180948760316606	0.37840869211822414	0.35144987735032485	0.2454275572057199	0.22474752591888705	0.24570004969671175	0.3178901390568931	0.3641546701207051	0.3550227389090975	0.20535904764877835	0.33417364491950896	0.4077905948713294	0.24999990726885735	0.35481436531253807	0.35242052670662016	0.3376306618748005	0.32609732789196155	0.33593889782502373	0.34658138460993737	0.3136935720113533	0.436175039898671	0.382057671057738	0.18202344236813311	0.35070263437672833	0.4433621805399709	0.3760764482421495	0.38682507666006005	0.4131361634856564	0.3501945795087056	0.3428771453527043	0.2304836946748873
0.25244262762609815	0.07994144672063526	0.26690099444115944	0.37591503141053567	0.39448055474313326	0.3942957758498756	0.19855031022173403	0.33403633089931245	0.18575160118483192	0.1337141354219668	0.14143694802760026	0.16520686029240933	0.37565397277271334	0.38449798526457185	0.32458181245363643	0.3058117375382344	0.1568762285736559	0.08301811178733658	0.14209114170660475	0.4124976114404619	0.12448453254433846	0.3281072254026164	0.3712832697484881	0.2784130983140403	0.17098058965311408	0.14739989561923128	0.07644618792766249	0.11803043023713948	0.11802879912924467	0.3605322467287845	0.038339299217469466	0.07974238213262673	0.0862444188390288	0.09066290694323918	0.3326699222517248	0.16763591460054106	0.320151722690758	0.19697336021224277	0.3108070979953638	0.42717138681327793	0.4172599935748304	0.16976756451342195	0.22683158250716157	0.35016311033018194	0.25364418497781865	0.29062680944219016	0.1822617305179427	0.09890257972266793	0.21453075859146992	0.2283855870122043	0.20207672231528317	0.07294675423869106	0.17349839271323425	0.30669760469915347	0.09340803426554091	0.1493942042136669	0.36981931462174283	0.321737350047197	0.40942852752407893	0.2862635571965551	0.16690207812722424	0.08195810157322596	0.379361414726398	0.38046463372946115	0.3844355207992926	0.14039370687435732	0.10837755739921266	0.1897952725370028	0.14148468787335583	0.16544547148331268	0.21793897771579923	0.13012398004781417	0.19867218563339356	0.4237616236533184	0.4036799599909594	0.12129502995519052	0.37598941455478907	0.3321645168225725	0.41868555326576035	0.12580396551579326	0.08810158757605115	0.42396863147640257	0.3187688697470377	0.15375064948540518	0.08848451428086189	0.09023640603331907	0.34681449817413157	0.18728874698253417	0.2997659004823378	0.35699284646445373	0.41540574292903604	0.25863069649688086	0.3971745887432482	0.38505542195469294	0.05056179509239056	0.1771687108038526	0.14185208078755907	0.3472494212340234	0.39941187299366937	0.16924284409353008	0.1669883000758981	0.0705576450469252	0.11899420393589631	0.21291244703575246	0.2694495436437569	0.0883838820958917	0.12770340822995285	0.15302132380621575	0.10644552317700424	0.06419154096419454	0.19309194009370095	0.195296214169908	0.361383489071738	0.3775653263548967	0.15904158051211925	0.2857970072374603	0.15430477284873884	0.15588066540605583	0.41053696352177166	0.4115566769054526	0.3689876255916073	0.09543230709095173	0.3100051325030671	0.1791313211788561	0.295718860562212	0.19017750207027434	0.17091420975193816	0.1313538116952857	0.3199911095376005	0.34684415231160176	0.3009295509820423	0.42427092770423486	0.07875194334894471	0.2239049083180139	0.17870093315151525	0.13130776806994743	0.14556865832244859	0.25418597301199214	0.09283470121703828	0.28265470550064625	0.20747064768001428	0.10808892719487227	0.12143349109564926	0.19155841867816925	0.3188398361236611	0.10833227725098137	0.27104516402488904	0.09140122500047392	0.13375335011013006	0.07154544534232564	0.308611356208543	0.07336420669620604	0.1771295507113524	0.1234839459173538	0.11555698583423936	0.24121516466142473	0.07253839778252714	0.1560745095272662	0.17193525534658283	0.037564200116490254	0.1980024094078377	0.13143074838822455	0.23279065976514374	0.11677015299472972	0.18812931561117385	0.15608419321255956	0.34252417446243627	0.06616064718463693	0.09273344380969249	0.3149617765903032	0.19687762019941252	0.19527072446999139	0.37681344388663335	0.353147243286738	0.14066266857348125	0.1533100726935313	0.04838974894615704	0.21984010724389075	0.24749709040335133
0.21651760126872788	0.2942338703026634	0.2163456886399554	-0.35498886679723496	-0.3129536597824785	-0.35272053437010814	0.12388921748912574	-0.3043931913191771	0.14821070775013068	0.27957405803694435	0.19628694461270518	0.14561118057277694	-0.3206693406520938	-0.33441205929858064	-0.3012881533507136	-0.09928974771539184	0.14640389240963042	0.28628176067931915	0.22121934131344023	-0.38548094638342323	0.2519201685268447	-0.269371971172536	-0.24770200245958168	0.2128641272384149	0.22011790564759326	0.14919208063456385	0.2956210310747926	0.22722304999296206	0.2419466776342849	-0.27355006111322044	0.2945982847249447	0.24747382661171818	0.2997663947719389	0.2260228630612221	-0.2510821641331268	0.1254304036558604	-0.11676663711481935	0.08584899324595763	-0.2834759275871155	-0.3426146432902284	-0.38085042218206056	0.12563314274926501	0.07297795231758314	-0.30335392827329155	-0.04017603720330931	-0.05397096567928644	0.07366331840494261	0.3066398328700058	0.07031349473410359	0.04240656613783961	0.23938389609382144	0.30547438387954523	0.1270915776499954	-0.05515536132129717	0.28462720957827903	0.19474660187368165	-0.33855077104844794	-0.22639267730876617	-0.36604253037057943	0.0319756534835966	0.11935913587126706	0.2692145994363081	-0.39194431314197303	-0.3979156736656137	-0.40068447394188156	0.1624389147883803	0.23944262206498673	0.09317275540985465	0.1969859860556647	0.15613605804065822	0.05736632968542299	0.30765640081632023	0.11118667651845393	-0.3788069282800457	-0.3853501125192191	0.2634782704186648	-0.39954094504011095	-0.4518573729494193	-0.3679219903452193	0.17728775654751833	0.2847898660371961	-0.3427854262657944	-0.07406110850038006	0.1942629849964117	0.2625518569832179	0.2578477667279536	-0.3128752706122778	0.112330190506514	-0.19623421647259015	-0.41431684743018593	-0.3710377687174607	0.015255732874168926	-0.37524765394942894	-0.3824149341676832	0.3115220706948114	0.2626528548114849	0.2632365636784095	-0.24410670609839635	-0.3983665148879612	0.3026373195271751	0.2498355103033708	0.3184122025109485	0.2102450612865377	0.09758991981601395	0.04356937664656163	0.24418624461358968	0.1980590675741895	0.1645484585252162	0.2043852648378532	0.3061844852565211	0.1013193024598194	0.09393250863084435	-0.4029714863283123	-0.352770404426619	0.15942153751220822	-0.22505746465093554	0.1577835983705676	0.2831771577004887	-0.3782100970654273	-0.37879537794429813	-0.403858575480102	0.34272889362782677	-0.31854049552382063	0.2529348524183633	-0.015964863533683316	0.0988095534178487	0.1336641849179262	0.2204827109855752	-0.10456467377722278	-0.047255038479114275	-0.28884817996884843	-0.38507573724841837	0.29397698851125353	0.06784442645002231	0.2772462124384837	0.24294048988670408	0.16839362536935515	0.25303768747189104	0.28676185672034593	0.209687597146277	0.24638269780431654	0.26840025810386686	0.24609618436713154	0.22119439021195703	0.20574161034310773	0.3347613793082188	0.21163544067217588	0.30196863433429844	0.2818157594557591	0.2743117860323341	-0.017327991430596268	0.31439043307160536	0.20622091822984612	0.28162557468312444	0.2133079271711546	0.030814020774442508	0.2743769250797137	0.1831603506719799	0.1319044117314332	0.22072977688084028	0.2783360089310847	0.2107876702981084	0.06100314606691781	0.1722437699222868	0.11295870073086628	0.14174822767390188	-0.18373128651574602	0.25891607263219146	0.23975966494537115	-0.057780635695742044	0.2219479076884181	0.09737184266331855	-0.13302886619404783	-0.3460351984830256	0.2074843385815049	0.14108827393843798	0.1894778372689413	0.05868772445004955	0.2679527751177428
-0.06274320839865882	0.041311900228565464	-0.06883210342127427	0.4309374463879395	0.41981073750912795	0.3976945040670624	0.341826811609388	0.45769982049377017	0.3180911795982507	0.18499084756409234	0.2239319721243797	0.27595777666595894	0.4337706697106486	0.4425407194982992	0.4628519746662008	0.4073842801251117	0.29499325989398684	0.19451465969340498	0.23877419107045333	0.4362250676489243	0.16687477038412663	0.4481500847349558	0.4574672948748128	-0.05954825037944649	-0.06296877142918539	0.288178931148322	0.14625489747774006	0.2163728256804615	0.2331387910456692	0.45998296284968615	0.07861262351690201	0.05562556862355884	0.12709420032990798	0.20899996795792447	0.44456109878066546	0.3047638200501889	0.4219005923397976	0.33539292878669663	0.42891650984311697	0.4432432001810385	0.4248603297183548	0.3165349455939532	0.36591508238464415	0.46705496993870593	0.43758848005570444	0.4318696185683079	0.35671510815908797	0.06529668066558941	0.33114031375050124	0.36038955053022753	-0.02560679687182798	0.13597821883440903	0.31895047040211505	0.4081392228231292	0.20113021585375257	0.2503237960682094	0.4693483234955594	0.4572350246933073	0.44855297876298333	0.39440227861729477	0.3111722103137415	0.03749159185202328	0.3554612781507662	0.3428625080731919	0.39070161882746596	0.26525837913045186	0.2228608004591497	0.33182785947178794	0.24862263529765333	0.2768285630061054	0.3521684553353669	-0.02057597671199323	0.31007900558678186	0.41251530508437934	0.3847287082745555	0.20364886873012084	0.33567365037849917	0.3315764421379564	0.419224524143099	0.26655563841643376	0.15205368772531175	0.42499647146349967	0.4088188768815333	0.21348442710935833	0.1917607790799587	0.009594713367971082	0.4253959854939408	0.2940665044509867	0.43259153096217073	0.36233699886343274	0.4315319659708555	0.36041841076244635	0.3634994234543269	0.32093941583850666	0.1224673513132154	-0.04193764337391858	-0.0935038639453093	0.4737594735601965	0.3875868487815986	-0.044426512369159336	-0.023516850872356602	0.060314097187187006	0.2614480133188613	0.33446827185506617	0.3727960197182281	0.19774009176676605	0.24558560138053315	0.26538612244836274	0.2320744726284581	0.11770396091285934	0.3407674791895622	0.3435155643973736	0.291013387889573	0.45819579378629177	0.2732201932061004	0.4431630239963678	0.2766972808428633	-0.036810527157313915	0.38943867735059406	0.3897684500558682	0.2950745359737665	0.037297029529328514	0.44615890592029356	-0.05560334947815342	0.3986855229592344	0.3132880966131831	0.2930231331082892	0.23030119765830193	0.4330268384001383	0.41579606584402223	0.431284778544563	0.4385016085820985	0.013627788897816358	0.34092239542624286	-0.09364285545925327	0.2264493774055522	0.2631087284577072	-0.08784840609351069	0.026973457156376675	-0.05793613232282795	-0.07797387661139282	0.201800882784169	0.21861214974053345	-0.08105603349156437	-0.043717538860415954	0.05632939011685779	-0.06369716758856991	0.06766778924271549	0.14414563644963563	0.1430530553941824	0.4088175805600515	0.058067889167670646	-0.008298881467888257	-0.001031802234335459	0.17687132436434488	0.36383070554524005	0.17489894965934483	0.23697153103415763	0.2983477283552873	0.17834886146229328	-0.04028161905228988	0.29403308740074324	0.33809136867996326	0.2671217865901218	0.3075561401593046	0.2680232061311848	0.44350170386793336	0.17784800789539595	0.12923672995834473	0.4305032834588275	-0.07520445313707491	0.3131933957569927	0.5042399934453693	0.45283413127910527	0.2454952674314031	0.28344682758945844	0.19423147656401696	0.32705009807046576	-0.08609468657442865
0.3014465261957483	0.23144204132957508	0.3320659107851365	0.3830559481859166	0.44583058678186316	0.3893417767617221	0.2670628666648641	0.3396873863469957	0.28751777498014663	0.30051016700961086	0.35287541895486846	0.3976064452008351	0.4048934680987184	0.4228499616560754	0.3526957473578751	0.3821431808052352	0.31783276525763415	0.27943345102122985	0.31992083012567046	0.4436661171604305	0.3944726238991221	0.3755640148816759	0.4082191522179687	0.30670830010140493	0.2840419488338239	0.28832137332172625	0.29205843075142013	0.3165673091428884	0.28220408089784726	0.3602069389035035	0.2338085075338659	0.23287749949940106	0.3018043705811563	0.331817313177222	0.3741293986891781	0.3256502992088116	0.35790467328840564	0.3367417118575991	0.40161168410684966	0.4675305948107542	0.45167222407421037	0.26979285403878284	0.3100811148556046	0.36009437529328575	0.24048796757099994	0.28795046090272824	0.22675264291398578	0.24110177248444792	0.36163997233484835	0.33874513224548	0.25018644784140426	0.307203121886671	0.3476214704489082	0.355366551931273	0.29656065491271344	0.3484153066399718	0.4020506528895015	0.34689738536009646	0.43799437505959415	0.32025526421973244	0.3078986797031996	0.2629994935018377	0.4307359161932731	0.45595588387550146	0.44225796688186303	0.3237871266499517	0.3134335981939386	0.32299683087748443	0.3379239549520943	0.3487123592067337	0.33000584606922084	0.2518698029755969	0.3250156604411326	0.4517148388188357	0.45165056241576607	0.3029495246140015	0.4426616768750019	0.3773139718208513	0.4763813880626978	0.3166358115132528	0.3605682759124621	0.4543669054534347	0.36842916164021355	0.34952632845501347	0.32838939893408287	0.2595542928599116	0.43757948043784245	0.36538010102402146	0.34041640783733573	0.3965656733767164	0.4362499624143382	0.33958621617278295	0.4365076730581232	0.4309153454404423	0.2956459581338239	0.2629993935330727	0.3080361767569599	0.3361323952605462	0.46697358807372424	0.23695322515847123	0.25277916071211476	0.29273116728825843	0.29716759396378367	0.34928677647571127	0.3512100091093268	0.374564773446601	0.29714192915511173	0.34466170428889564	0.3556757111157307	0.3004895074595486	0.30981885383391805	0.33686387217750946	0.4301655684082427	0.39383396205819154	0.3178093223618499	0.3317307375483761	0.3310887928234326	0.278611857744159	0.4436858022114315	0.446903054817101	0.4676112146848682	0.24970200837248202	0.3896902157253841	0.2617587308375375	0.34108154860156215	0.36501289832903155	0.3487017582770665	0.32688448358959704	0.35820268750566336	0.46231047873923026	0.4282625797198095	0.4678357082003023	0.24554214841000882	0.34215982512419113	0.28997309368698443	0.3082484501270516	0.331343123838862	0.2765166928257925	0.21335750698396355	0.3246500868731398	0.26715894040506105	0.3113745344001553	0.3217138419494845	0.30059156248259694	0.2946712374140469	0.2042514411082143	0.2941589685908583	0.23268678986354369	0.36719822343986447	0.31106552204782567	0.3386398552927128	0.2503428130605578	0.2728071543499521	0.31677907903802	0.40648121775795515	0.310196017818743	0.2523417829749586	0.4134977522353819	0.3317864766696492	0.2494557144731427	0.2246081433248055	0.2779152980555393	0.34724708285093087	0.3194317591551224	0.33480004033417676	0.372951845589339	0.37714791538681597	0.3280436323374536	0.19007214155869523	0.3417269543476759	0.2839825442124202	0.302929783274676	0.2665056387005978	0.39255410377104993	0.3089859255601062	0.2863543216338425	0.28193014605383926	0.34857842278551027	0.273113330039352
-0.7102648673135434	-0.6051530814456321	-0.7329982329260061	-1.0034377591671264	-1.0168391720239296	-1.0759725219516736	-0.6547419660506053	-0.9067534415012135	-0.6643022499424864	-0.629825754822231	-0.6752094195146379	-0.7258269748717876	-0.9618320401110003	-0.9907034188983743	-0.926674280680303	-0.892942317803433	-0.654862797967211	-0.5839909083195569	-0.6520312843995595	-1.0919575567731106	-0.7215696193533905	-0.9711555637979123	-1.0519065240246865	-0.7218229116254964	-0.6790102382886383	-0.6452362332971033	-0.6026861210426384	-0.6256659583743636	-0.5863843842301018	-0.911326701139143	-0.5851068992869035	-0.6064397385948594	-0.6035811821128927	-0.630210161068306	-0.9761000330671004	-0.6831320326608783	-0.8534741743397014	-0.6873386917122186	-0.9475335272612349	-1.0756380173018079	-1.1202840429765515	-0.6456057775429216	-0.6769491830691956	-0.95090357713986	-0.6887650742440121	-0.7483183873548214	-0.6435029116487052	-0.5994977834924349	-0.6868339123678184	-0.7463889959445458	-0.6635030559385067	-0.6108135349371422	-0.698101438705359	-0.8183502212128255	-0.5689380093056011	-0.6736690930681268	-0.9707386786564198	-0.9082144126247342	-1.0081767131624533	-0.7087705337269927	-0.6811794593399718	-0.6271841088543473	-1.1192194112910652	-1.1901064775542558	-1.1366242487170517	-0.6472939702394607	-0.641917048972849	-0.6592918637913396	-0.6801421803858589	-0.6895317190762678	-0.7056042795643067	-0.6462204008936427	-0.6669118101497664	-1.1122827000059474	-1.1358454552663217	-0.6126049617363578	-1.185202550597652	-1.0734250531228409	-1.1058463032128625	-0.6300836120807858	-0.6341246581168696	-1.0331269210809497	-0.8731422768002162	-0.6705069759985209	-0.6243976901102679	-0.6382425449804814	-1.0142127961696108	-0.6970171058921895	-0.9162771084426766	-1.0857198827295185	-1.0626779280540188	-0.6966083909081167	-1.09253219378295	-1.1408167918614234	-0.6017717719878388	-0.6668398647215681	-0.7030005436416669	-0.9064054626671669	-1.184734321245877	-0.668970706109888	-0.6527589590281844	-0.6272581699785837	-0.619729126439587	-0.6879258625816798	-0.7228991288073032	-0.6951426883320273	-0.6085460576896726	-0.6853168879534399	-0.6637836688071832	-0.6047952807187846	-0.6628017845431482	-0.6949540312820293	-1.201587730204597	-0.9896376610381554	-0.6720230887273158	-0.8810507173399358	-0.6790488982849434	-0.6785698884195615	-1.1218267490213452	-1.118318250914455	-1.17576038999737	-0.5889010395402832	-0.9529711659480031	-0.6839030865145472	-0.7583737412648432	-0.6781156808820907	-0.6786351910318242	-0.6462656283330674	-0.8437676098862386	-0.8534154015145772	-0.9973978940469403	-1.1388189789098992	-0.6382201233442186	-0.6936165719801382	-0.7049199205043981	-0.6332718840729084	-0.6718901377717899	-0.7093116739227563	-0.6106558013266106	-0.7382566844433223	-0.680710736009098	-0.6105188075361763	-0.6362928818263642	-0.7036616829908688	-0.7222190871774574	-0.5659282721913974	-0.7079831384290678	-0.5587957624046712	-0.6415942635511698	-0.6011757144836489	-0.7788882370989636	-0.6088743436946522	-0.6520381029237514	-0.6397810088998399	-0.7373878845950768	-0.7029760927866064	-0.5305893634891589	-0.7171443103044104	-0.6802215421591489	-0.5513202396618193	-0.6629127696780355	-0.5953052450041385	-0.6741809090526203	-0.6547007341892639	-0.6629467765653705	-0.7148412462276743	-0.9324653475291271	-0.6375435405634329	-0.4965050551047286	-0.800867242019667	-0.6948750104121444	-0.6541229781483942	-0.7991191374161983	-0.9661906772305053	-0.6428296674964169	-0.619403855222608	-0.5765958800132973	-0.7133055819045719	-0.7104537319481941
-0.005472280117049089	0.09830760920221274	-0.010936889000304317	-0.039098125275472656	-0.07392115301697946	-0.07128162393781859	0.15559363840530982	-0.0359621636066452	0.11879847942228469	0.17336488521212748	0.169416773454663	0.16154260800741382	-0.05838476208691487	-0.05835339453682173	-0.005370576424378576	0.04681435370422024	0.14081705338872427	0.16023599544580996	0.1554106795826741	-0.10472237192942824	0.13073837569233998	0.010932270306919317	-0.01934537951283663	-0.019084645531864564	0.035406820396412145	0.12717115061259082	0.1339186124408476	0.09981927552048862	0.16622118789509885	-0.0155607028214578	0.12280003575352419	0.06953122995415781	0.12480791876130384	0.1511554478066269	0.007007585350496975	0.14840296287839888	0.05248126854980664	0.13077205543225223	-0.0022688026821624796	-0.08644018386663446	-0.11387614559905071	0.17722612984476097	0.1453771876252189	-0.010350193201618035	0.1117354442608196	0.08088522724254074	0.1463890501551146	0.11432427807723466	0.15579270706129697	0.07795713524998371	0.022837393265613043	0.16558571547480241	0.10807091385167802	0.0673030157677359	0.13109397021080701	0.15867549268062903	-0.027909380475957674	0.03213560773423138	-0.06765579856063894	0.12438305778995873	0.16351779025867832	0.09403046428524583	-0.14100569083846215	-0.14527940774384093	-0.13470091384440558	0.17564775593239987	0.16632657331987902	0.13287390512090172	0.14591132346541033	0.16821417469744196	0.12995122511420068	0.09444430687811374	0.13040447495338106	-0.11960202520701838	-0.1389195710188403	0.1359368041424746	-0.14944766838996323	-0.10068389051713311	-0.09391774020118573	0.14703101717929148	0.15248991618569493	-0.07832046657652916	0.03219945133899502	0.12130495364344832	0.15840530703176461	0.09290560605847235	-0.02280113151447924	0.0967711478048831	0.01979482439583788	-0.12143324421091037	-0.08866744892511322	0.1288328443685	-0.13539228147930163	-0.15199782426887873	0.15838757484556806	0.03018234191739419	0.07452720833715626	0.025395600674089996	-0.14472689623470614	0.05982194711993474	0.04322557062925944	0.14959582821276582	0.16275950834648711	0.12709058130120965	0.1163361412047278	0.15869170426341742	0.12430783015045335	0.16518283237474637	0.165397721041549	0.1468589605456199	0.16030240940019083	0.12248781461806446	-0.1487222884103378	-0.04349201029548708	0.16429161241042423	0.04337738614940509	0.14240632552083268	0.0637146128432066	-0.12781077568365598	-0.13195794473938843	-0.1939630436844104	0.13221483031846495	0.006149906143480405	0.043839868481946986	0.09538455647614574	0.15209418684790119	0.17055690285201486	0.1544990389479531	0.05575686361781082	0.10772288185759399	0.024351787638488193	-0.11671329373720038	0.10849537515313527	0.1261599612276127	0.04990484897811767	0.14383087988220436	0.16614231671707944	0.0033390695591280495	0.09091013316873132	-0.022082825581424992	0.013697352747510882	0.15065912620672064	0.1358917333059985	0.03834850025748493	-0.03965137224370416	0.1272458893268059	-0.019104658577429656	0.10194484589493757	0.20222115461460086	0.11446851869046754	0.12176721528284637	0.14843409683477646	0.011073985353680413	0.09611203200794374	0.12750693403632576	0.08261866711353841	0.1283447290040269	0.2187095710860274	0.16531608535665332	0.1054780721108115	0.041609746001303405	0.15175817291643093	0.11242147416866069	0.1578896241213177	0.1711434212352234	0.14572293560745983	0.021009845081510575	0.13560763840866194	0.03881548421817432	0.09049228157200259	0.0275027653885469	0.16462255896962458	0.05702304763774918	-0.028628391174547824	0.13155716882794846	0.10294172740067872	0.12497471851742412	0.09744756209584732	0.012495771620430168
0.26291559567261574	0.3333105198567305	0.24135202180230814	-0.26561645718583965	-0.19691308613662484	-0.2434216086355413	0.2012674807592782	-0.24133339633257533	0.25489788196562146	0.33097284209164685	0.2864460194302397	0.23552350296082986	-0.23360583606069046	-0.2441712420485352	-0.1975629269635682	0.07368080686826582	0.24055045644995743	0.34158155222703324	0.2944405513911171	-0.32704571063249305	0.3525998230525503	-0.14004276975149654	-0.08619011177579582	0.24203270231040325	0.25993121436770456	0.2618348232871445	0.3743816206247839	0.3655244832181862	0.28015806811600047	-0.1767878397368	0.3252681859438528	0.3164994039021222	0.38252818765425395	0.32021223959688	-0.11550069539235913	0.2324218937596741	0.03012858320542476	0.1808224367344377	-0.20889496977614724	-0.2689264877602137	-0.3239208204706276	0.21094733159111595	0.14041326413833027	-0.1826081284811117	0.06762238880564023	0.05183953106071512	0.19666615250637876	0.35829106847352205	0.10899187798333916	0.17519951883042667	0.3022912883214766	0.33937011158543806	0.24140507084016355	0.08048361061290425	0.34251064094355177	0.26771824847184816	-0.2477343680094563	-0.10047792515963735	-0.29920103773605783	0.05988793623752445	0.22488047466284322	0.33858966582986655	-0.35338624566532484	-0.3590289074679101	-0.3797117978335112	0.2403843880777018	0.31627400702360003	0.1825718270619066	0.2952529116772951	0.2373087070662342	0.1622257126366286	0.327403750148009	0.20028882496770617	-0.3138017861103561	-0.3521732602948054	0.3496427028021812	-0.35701798856982275	-0.40509391710790155	-0.3073081058439328	0.2632650130394981	0.34398391564078173	-0.2381168807264079	0.09735395934441743	0.3081197098890468	0.31301181310982146	0.3377568803842676	-0.21985357022055618	0.22953947969761634	-0.07738334993396374	-0.39951903631393904	-0.2911301711415712	0.07586391474481372	-0.3285474902236477	-0.32310848475950266	0.3294670283405433	0.3287426660287612	0.2706529595169728	-0.1094801992425685	-0.38229362366760117	0.3218949555028096	0.30223129920883757	0.3501737481362877	0.2687087908229889	0.16345002450673002	0.09688428073126898	0.3295900601161465	0.2984988061011659	0.26335572650652106	0.29330052790236616	0.3565192927639404	0.16742096366047854	0.18541315296726668	-0.32084964560480583	-0.24956891027492545	0.250888763639916	-0.10530429158573434	0.2696981741622515	0.3449191035753177	-0.32153468012325853	-0.3291305186174014	-0.41954598381471	0.3243518175633159	-0.23247961391698035	0.2961855392924298	0.08085799674448312	0.1548413296865796	0.19791927519029384	0.2987152400436255	0.020637812264670125	0.02444686863847756	-0.18421556180964727	-0.3408416565971471	0.3219034989588079	0.14308112537502538	0.30684358191990585	0.3127612127018467	0.2651982323307299	0.2732856087488119	0.31518481958189953	0.23882846943163927	0.2850740095984231	0.32980524081482604	0.32685205646214316	0.24656054151231133	0.22248452148545877	0.3484177514629618	0.2500686059541991	0.350491890081784	0.2649526809368028	0.39025515116873244	0.06304335630750517	0.3187478276233662	0.28810368341231846	0.3394382332317331	0.3615860948968833	0.13956750028419146	0.3456731388479533	0.19887685390964843	0.21618681996042327	0.3557964392354647	0.2918581541201906	0.24684005340191034	0.13050713990890572	0.2710947126897607	0.1617043598580395	0.2647911018378997	-0.07539009825010497	0.3643595233319113	0.34734974993238904	0.052572724340529606	0.25153002794073814	0.1660728304038076	-0.02490857365452638	-0.26621987115536816	0.3034210468959389	0.28286966020828785	0.31643742200467717	0.16654655977327043	0.2925108708833885
0.07577526018353026	0.11754205905894471	0.07303201539985582	-0.2913323487534971	-0.2963599840729436	-0.2668358501309732	0.0979031234605015	-0.3163018053499661	0.08428666532618292	0.2384669180962535	0.18834123730339253	0.10604422031986065	-0.29720028642946694	-0.2876320320223523	-0.2528134144505581	-0.1236432188761016	0.11785817057328674	0.2240705511036332	0.15893030071891998	-0.30514403894226594	0.20234211015235318	-0.2325832845121769	-0.24973106845372925	0.05782598970624986	0.09920212852055019	0.12654907619957695	0.15177061179896503	0.15410667622647956	0.21860156994056787	-0.22606460418166843	0.17648896445323034	0.09849015390845424	0.18543044380047924	0.18196593081905513	-0.22083501877857742	0.10341922404891282	-0.11713284439681158	0.07043593243379112	-0.23307089313615573	-0.2962394314590062	-0.28264150055902004	0.1365187246666621	0.04395322706361253	-0.2488485833500916	-0.04240463804581562	-0.09840051138749578	0.09634685649008518	0.13021763780229537	0.06850481189460485	-0.023374858064393184	0.06045511480867144	0.19515759856828216	0.06155073872812797	-0.10985678759528492	0.21862125003745966	0.1711155491924792	-0.27140777616825806	-0.18047590059605725	-0.3101550521978462	-0.026054795630534477	0.09800074159449428	0.12442106426418456	-0.25666327663133826	-0.22925778784729786	-0.2641280033935779	0.15840676719627858	0.19532247908435377	0.07418254262806132	0.159840535197424	0.1473516816632098	0.0579060746924923	0.09769605534844054	0.0997938761059819	-0.286781481768027	-0.2713477973865308	0.16055996966363043	-0.24904358812464664	-0.20900818997568762	-0.2995476091578595	0.14605931829506089	0.18729586098366482	-0.32435030856533587	-0.1243965181996872	0.14672394856526702	0.17403463061617844	0.09811916997894723	-0.2592503568441027	0.05141697719164	-0.2316661267344219	-0.2314900666578197	-0.3080998403024304	0.012265654817226981	-0.2787938674053977	-0.2603949559402051	0.19454196869060864	0.08753207469786214	0.0941002772559702	-0.18029598100949334	-0.2528492315517852	0.07217302235665887	0.055194583589433535	0.13811967163459984	0.15804999369900835	0.053226346744175326	-0.024697764272681735	0.1732498016765865	0.17097627227534337	0.13150338609456005	0.16436350516320752	0.20296428693611135	0.08687175888389734	0.050364875026262634	-0.24190696602272257	-0.32436111769340303	0.1560214476331133	-0.18925388444343455	0.12759937536730762	0.07763756437912203	-0.27112680023223834	-0.2678362227612995	-0.19512378892547913	0.15216728752367842	-0.27842012694108476	0.08167158740038347	-0.056076524817554624	0.09357685254403349	0.13161936104833938	0.18282975248500102	-0.1394401461361931	-0.03952383086007433	-0.21796183183965384	-0.293030731153725	0.10362728697074661	0.05360977541028676	0.09595206335545528	0.1849529118687328	0.1545711076460119	0.08804802659894014	0.07871990613733246	0.04878483482936727	0.08273380510451737	0.18307083908122315	0.15462132048142982	0.08622449241585144	0.03807764363823604	0.13359219459192803	0.069844153710346	0.15317551010121339	0.1846952926100862	0.1748719642838891	-0.03539116003970136	0.09879804316796592	0.06714756656878415	0.1909883431088976	0.18024591479436086	-0.03967396481396061	0.1878275838432709	0.15744730026848225	0.12404860134125117	0.1291497751571992	0.038892635213228804	0.14801675579473514	0.02831817642062362	0.16368964372737063	0.12192155621246595	0.12495413396864088	-0.19918062409473528	0.18493419745177117	0.12023234143529633	-0.09264257725706347	0.08328301887020963	0.13958033164949948	-0.11658578312271986	-0.31360199793405175	0.17243948183751281	0.1196394090956106	0.1664958500229927	0.00836790968260176	0.06000402915088324
-0.3564836684113336	-0.4191426375679751	-0.37014383271551493	-0.3785507006621676	-0.32392404256412805	-0.35621382166633364	-0.3689416193941982	-0.31943430216175	-0.34806742206159086	-0.356732924006203	-0.370150010587963	-0.39016657450889647	-0.3155741936321344	-0.32436304033430585	-0.2994991168907318	-0.26760063764630976	-0.3637994789651854	-0.37488899534594783	-0.3735827638001029	-0.3350713653800844	-0.3618060433064423	-0.26316521630675377	-0.26716069936180487	-0.35767835384139524	-0.3921549245082361	-0.32174005838397507	-0.37529321632267243	-0.32988306184502253	-0.3747291578873615	-0.2868931356333336	-0.40950900651254757	-0.3880755814037125	-0.3907315167765682	-0.3606721462488593	-0.2583705176394115	-0.36140857597988457	-0.2682024938436927	-0.363269916161225	-0.2860508555261692	-0.3288905429768331	-0.33353771352288325	-0.368164817161176	-0.39051590323490354	-0.28949381122277207	-0.3160564714874823	-0.2987014220084305	-0.31803607614085455	-0.4205091537786809	-0.3990011301423711	-0.3142049826005667	-0.3694448993325621	-0.3858782223666662	-0.34871725560619826	-0.2798272799623281	-0.37910224470094805	-0.38191229710453417	-0.31776361267805214	-0.2707592477968842	-0.3518964434275006	-0.3859019388186756	-0.3719414314833749	-0.41848234979372495	-0.3684363638150488	-0.36587996387458005	-0.35829887927997167	-0.38252977113647607	-0.35588649722986476	-0.3609871619901498	-0.36796657682613165	-0.38317775814237026	-0.3552592738824481	-0.42077215036228305	-0.34703607012152043	-0.33504741822278805	-0.33676138840399555	-0.3573824195656102	-0.33752708559485717	-0.4241830092409902	-0.30148884917880037	-0.36894362185639495	-0.38787942428572064	-0.31125317343687525	-0.2702542842818817	-0.3386148579166009	-0.38093351382237434	-0.4216995162393083	-0.28441658046617335	-0.33650038256418174	-0.25220048079527135	-0.39847557442549647	-0.3339842437197689	-0.3421201408153435	-0.33838234488542906	-0.3306775944931086	-0.39579642298850604	-0.41548957141106224	-0.42643070641726877	-0.26970146544573703	-0.3477945506734936	-0.42252415684554095	-0.3758581261739095	-0.41914700189925774	-0.37839645594673116	-0.38219590020536803	-0.3715083131371258	-0.3705044098312282	-0.332980663714409	-0.39002803379816403	-0.3875822838635632	-0.392479543810203	-0.3963610179993207	-0.36271279261361183	-0.33723190045618995	-0.31049427924063516	-0.35483762193083884	-0.2605209871462651	-0.35451645086826084	-0.4286516299131385	-0.34053001477980155	-0.34917567006461964	-0.3435115232016684	-0.429831828025595	-0.28731837609729866	-0.4084156218614228	-0.3182672347433871	-0.3878764291757357	-0.39291032473747084	-0.36853911206039097	-0.29022542344694885	-0.35764751162027314	-0.2774520565157625	-0.3210799909706497	-0.41126431153193493	-0.36100561644911017	-0.43444359475260136	-0.3541455626017766	-0.36384368848192633	-0.3838301105674991	-0.3938657887782899	-0.36209801046852	-0.3825769729288796	-0.36507557468600554	-0.3635365261350115	-0.38365234127334574	-0.35277938011805754	-0.4326670049515073	-0.35809775901581825	-0.4415566879807592	-0.4762576032712019	-0.3791189450341667	-0.3615604436304147	-0.3953829390727536	-0.34431961045321796	-0.45957619917605597	-0.34871222401012314	-0.3076935805949103	-0.3890892718764571	-0.4686538221074969	-0.37803897892098776	-0.3917431706352137	-0.37887359809923254	-0.3835763145233311	-0.3567809069069369	-0.35970143993646947	-0.3981622553942456	-0.35065003285357144	-0.29426707520608153	-0.3513162984426136	-0.42808655270435964	-0.30387715274886445	-0.3807248888412722	-0.36161909994616165	-0.3035916563469881	-0.31140611739779306	-0.33784999942491944	-0.31514876156497845	-0.34352819274648577	-0.320672559631709	-0.39684054808744224
-0.03096460790859444	-0.13349480799030958	-0.020410695083113245	0.5159311525320189	0.5366623921067594	0.578052208854596	0.11220334966111908	0.4206101888565589	0.08386668534497971	0.005069365016056981	0.09588027884316286	0.17712578506514629	0.4944954631221715	0.5303104816355717	0.4682268269128247	0.4443417328661431	0.1266821753510413	-0.02736383693779848	0.033837476648529735	0.603644462769804	0.03176036277757513	0.5087802381351232	0.4867307168294921	-0.018542280820970647	-0.017567945830968296	0.14877690878682995	-0.09488300593640717	0.02333898553109076	0.022668390633956592	0.44757693355177797	-0.09106368872037053	-0.06861510055349915	-0.07670185677672842	0.06054953125687526	0.5011434917096835	0.13895016740918345	0.43934798601960146	0.1989443642877298	0.550038431693912	0.6123574669851896	0.6369723163003932	0.13451478615265913	0.18556665795211058	0.46439647417851615	0.23744449840053963	0.28652884394684464	0.18706978744923053	-0.15151936313728312	0.2599682140668649	0.24559281825454368	-0.07014470330905534	-0.05583195396585605	0.16100323168787892	0.38371517685739165	-0.03621856917128935	0.08441005219455913	0.5066459292928597	0.4820180411347883	0.5248482054161514	0.24352703272208834	0.1312619549901322	-0.0851014122988141	0.6394984938291272	0.6733104270249247	0.6484409686511333	0.11400676621204829	0.04767489188611132	0.20359933896475024	0.07040664199224553	0.12704950024100373	0.20468802002149525	-0.1440788630045962	0.17986453377272452	0.6205733908173744	0.6405306604887964	-0.02741612480757799	0.6572247623268215	0.6125079525348162	0.6441361240166948	0.09182811827857981	-0.0297772493708979	0.49924023173172416	0.40341217932576834	0.07638621352877603	-0.022792488995757643	-0.09022094616035986	0.5869011084132024	0.21139528665023147	0.4667553065956007	0.6217328652800694	0.5679945765471515	0.3264085630338701	0.6139134319635349	0.6404011502435688	-0.07267357964270302	-0.10136914589971546	-0.058973622965377115	0.47050988115756	0.6692554741233497	-0.1395625969959621	-0.08220958181143037	-0.14476994324622547	0.049457125755429904	0.17210347617227842	0.2764513272732272	0.03890182747771784	0.07992445904897819	0.09118085685578589	0.07565982194861329	-0.07058927424494268	0.14404689063526413	0.19702475860320753	0.662222257447358	0.4666236878299197	0.1292533523193284	0.4749805183003265	0.11450445123297548	-0.12852242301999467	0.6254402452397952	0.6287335054983904	0.6717872463002478	-0.16593008518402858	0.5047967852751175	-0.065871727555391	0.3144812366763464	0.22724887081448053	0.14368934356437038	0.050595510040483876	0.39339131574313035	0.45327562195846094	0.5920184280467793	0.6542989764283501	-0.11881226556041485	0.23453823512223274	-0.09719959406836434	0.01804872751099937	0.1275846446867748	-0.09050919681072624	-0.12786218670039493	-0.01552876511025364	-0.0597699554961497	-0.011443300507875953	-0.004274718281776335	-0.018331700922085428	-0.018837421463812842	-0.20534321713042977	-0.015246610440489805	-0.161661184940335	-0.04652658400998849	-0.06304547565535823	0.2872588426538415	-0.14616144678217205	-0.013932307314757572	-0.0632102930413707	0.0790144310648089	0.28803765468872344	-0.08544456511025442	0.09423061214387544	0.13682405610369655	-0.058965740415401924	-0.11835682642608908	0.02918806724090095	0.24103866896179546	0.11855242809806478	0.15025213566125523	0.1660584049726914	0.47573334597418115	0.012103447671932138	-0.11595307540417157	0.3623759431725867	-0.017024313757092943	0.18252692481368876	0.31689815611968486	0.47975544268072345	0.07281811374703401	0.12959763008858324	0.05458063110533096	0.3037982798669464	-0.10930463480729607
0.11997090886200325	0.19434442118355988	0.10624826237747534	-0.07175527836640845	-0.1327409674079379	-0.03285689952385416	-0.05067015081133258	-0.1577260068060639	-0.036079165700446975	0.09476429909651371	-0.018678765884115378	-0.07797079963468564	-0.15818367612979645	-0.15826403849638318	-0.2011245453333197	-0.17798155716634795	-0.05604101935099917	0.11573169823146365	0.022180096087117823	-0.11264549106321287	0.053840617413066116	-0.22764407414585563	-0.20075516436892543	0.10965759897669057	0.1022451523823917	-0.029863437332468656	0.1274214990976698	0.03192114704891455	0.04826858974179751	-0.18983355882705605	0.20305383795038404	0.15807737509046202	0.14411909154748095	0.01377653367062237	-0.22976437475816147	-0.07544313682409073	-0.19546121774171643	-0.12803375712168022	-0.2122152732529628	-0.13746572566054394	-0.09016263845299238	-0.054811266208383225	-0.13058951396577656	-0.19603373419712017	-0.1699334866296426	-0.1906364054935829	-0.07122063819840907	0.17244987591500618	-0.1653664237808977	-0.13112324989236032	0.13767942873813915	0.11527787333376174	-0.08452416361186199	-0.16226339419398872	0.09225059454089343	-0.015459735590343693	-0.18935184603036964	-0.23282894209552987	-0.13932331148935176	-0.19015724133408823	-0.07861718268279877	0.17819634550446234	-0.015674019819397117	0.018639471755251463	-0.042246340862666154	-0.049654524258040844	0.04685371631341878	-0.11548858251143879	-0.0027359150555750777	-0.05299005616878291	-0.14655950711233415	0.1921746795657074	-0.09771879454563129	-0.08519851458877614	-0.04462798520012806	0.07079775233679678	0.003015609012268175	0.040959099106243436	-0.1220056588611119	-0.02992015400831896	0.06849000316416962	-0.10563843620649598	-0.14152929605951373	-0.0342536384627492	0.05663162037414052	0.18511140555161842	-0.20650282389772273	-0.1062416037993742	-0.19619224991921785	0.0048571425316456945	-0.11155077571072253	-0.1959634934314959	-0.04685456076086243	-0.0009705121837250419	0.12482750672950527	0.17287373801617809	0.13967817045339348	-0.24612442284735703	-0.024083941635792652	0.2077120003116798	0.16235323535516816	0.17229552021247008	0.011082285932696917	-0.13310732895172495	-0.1756700431726539	0.03665269364438101	0.009213398861964373	-0.04157336169971465	-0.01201032143816344	0.12600154436883637	-0.10520328783382965	-0.11863992986822991	0.027161867314395537	-0.1658239636362724	-0.04305018097694113	-0.2279308458296413	-0.042729146084509256	0.18291753492634405	-0.0487985359314449	-0.046649885649431067	0.0474088905157989	0.19442623259943376	-0.21471494035311867	0.16672988806489858	-0.1829180895267625	-0.1320764204315419	-0.08509998307020741	0.02138040864975907	-0.2053443015632623	-0.2167655790461796	-0.2164990636972025	-0.10889463301530194	0.18801717442546156	-0.15351679413914868	0.17158978704695604	0.05453794852724367	-0.034371697583919725	0.1564104114092171	0.19117950660821398	0.10120571778884699	0.1471459994704542	0.06684853261977647	0.04589437287855905	0.09103898367323815	0.12801853804793534	0.2215579205538813	0.12267424801425664	0.18723706469747628	0.06531062646556879	0.10444629294015548	-0.1955737649558572	0.17783247174014036	0.1310027137793499	0.14577297757487612	0.0006464639100888236	-0.15062936014805955	0.09720793915416864	-0.06730383970679979	-0.07402888247568273	0.13588132535840952	0.16470555994199557	0.014887164925598467	-0.16626401135224564	-0.02483460077530303	-0.11150000151435077	-0.07205000687208973	-0.19631542406332958	0.06375735961543552	0.1630033187433539	-0.19779152710050993	0.10230654154950017	-0.10426971071534519	-0.2308650220937163	-0.17640253438629333	0.017421624442303163	-0.03293745073568824	0.015157537805709997	-0.13565710687133914	0.17713967604963338
0.369482480677644	0.22717583102431607	0.3836884797707945	0.29627015629877596	0.2521351783011037	0.29581443166241084	0.11609976999404412	0.27534111455699295	0.1122630591581715	0.08868725856058915	0.12280066211831317	0.1151926953966377	0.2771410682749225	0.2685533519202966	0.2400086171480675	0.10831390926868137	0.13008333051804624	0.12337971674103695	0.09809064576908064	0.32668724978471814	0.09393726248239306	0.21739614207231353	0.162534047951183	0.3884517616308687	0.3378000639962065	0.13910891503545883	0.11389934016619976	0.12676048381682467	0.10856865641264715	0.2579148297627796	0.19913305096626352	0.25635922818076634	0.1484170499289265	0.12788042296626276	0.1982140634276013	0.11782199681076852	0.15841245488837694	0.11865581498214003	0.25507448304737584	0.29138765904165154	0.33624141554199904	0.1217116931071471	0.11135402321933938	0.23915630140374192	0.12426806332997939	0.11717028223157547	0.12465278301882529	0.18425039694253545	0.11563438011676688	0.08419138759448205	0.30875967114536096	0.10221336833609676	0.11290535138065441	0.11944671602561255	0.1310253959283946	0.11976950874013217	0.2562296882806378	0.21198258897527714	0.29434127523033937	0.0817948727849879	0.10182287772937168	0.21874975429784746	0.3592950626477017	0.3260794326372507	0.3620085258516056	0.13277637419953411	0.10789172384212745	0.1396360270345329	0.10526786931979773	0.12456719720179929	0.10733171039463793	0.20555765899217307	0.139608040474376	0.3312013798974286	0.35258232863911887	0.10267943479433658	0.3245487366678058	0.35852485109688337	0.3221334498661337	0.13490414079188115	0.09420777388067278	0.27896247843108857	0.10985498526907053	0.11732694800378732	0.08532073309361018	0.22898972629781453	0.23858183748359993	0.1242375031844615	0.17884524653128	0.37016842790967786	0.31088707292112255	0.13279262904026726	0.3442534894791737	0.33880113041290477	0.11091007272847755	0.29977937301736873	0.262797863995576	0.21376451442449187	0.3540215418903653	0.2624559137339232	0.27788751677023016	0.12446568433979341	0.10983000024876302	0.10834775596878707	0.09537325265277477	0.09191151157210461	0.13987419412708277	0.11289880364575808	0.11799734965135769	0.12017654476995812	0.1183810703618349	0.10147788799885568	0.2831672376349218	0.26816481023707855	0.12371509453351773	0.2351329667337171	0.12328687668911445	0.2356611167559737	0.34062985240019944	0.3516660021499288	0.3782099785013111	0.14946059194731812	0.27024424762264476	0.30260175579683807	0.10994591540416768	0.1306059698999171	0.12482111671393828	0.11613575590740785	0.11726659516545898	0.044038122881177276	0.21997793064572183	0.32837001898638696	0.20873828547966441	0.11277104477762748	0.27859446186097947	0.10315029659027017	0.13057330812055742	0.3494483277357097	0.2220499949325632	0.382959145849593	0.3316238291838938	0.10570679238285427	0.09777684703615605	0.32445347574236166	0.39902830875291845	0.20577716064739807	0.388720039905437	0.21942765894473934	0.04667234768602665	0.12621349218689362	0.0833795139483676	0.13894127967955103	0.3365771356603719	0.2217857071132673	0.11055014078122063	0.11499295386730249	0.13082971292770576	0.07951351035487672	0.1214283827487401	0.19711905599485188	0.27155956098364575	0.11033519823606572	0.13849187535904875	0.12054392436878333	0.12027776731970177	0.1217309886536341	0.19322624293177018	0.11515059734865576	0.2932351984365803	0.09875785590395844	0.3379443832534661	0.1357901464994727	0.1384260437900318	0.2825459508875147	0.1279751212970173	0.14103604765633335	0.1480999569197761	0.11557015011969837	0.3091497355837516
0.45782411713572	0.31928363169457974	0.470941609079236	-0.37386740202757385	-0.3462912156440837	-0.3675374987871899	-0.05868415690827182	-0.3368488878599445	-0.01510257621993212	0.12750278566126583	0.013738592649381265	-0.09375074371629344	-0.36303559735799734	-0.3510849535760503	-0.29211548612966654	-0.23789302650389715	-0.05811412196880408	0.1456878625173073	0.05022744031224498	-0.4132407063626031	0.09922845442333228	-0.3065872989207095	-0.26032612242934206	0.48487215731326505	0.36316416192008105	-0.057022783279096545	0.216210625564078	0.09408477951252231	0.05765623555006265	-0.34691548606755224	0.28882971709037364	0.2991837317682825	0.19810127962543422	0.03817340915697079	-0.28387247172068436	-0.05346212584132359	-0.28436103208604074	-0.11878023859235184	-0.33002709026653726	-0.36503599400828124	-0.40753670079101323	-0.0412113769518596	-0.13734037775953248	-0.3011074888868479	-0.13874920032003818	-0.19836945582180288	-0.06750643415775845	0.294018652862027	-0.1874629857101429	-0.13314100695702083	0.3862280103759931	0.17382367413976474	-0.08609740365946103	-0.26185120209915513	0.11776004073323501	-0.004901551940473148	-0.34306848733935513	-0.30145558199810646	-0.3989702273576099	-0.1960966680707182	-0.0290313714207055	0.3093696772757302	-0.43193124081981005	-0.4029119609098936	-0.4150834044560896	-0.03927848681592899	0.07434366766745162	-0.14939441716147325	0.04075757882254494	-0.04898529275332145	-0.10807877119045325	0.35660854001214704	-0.11630178429854257	-0.4244237389246839	-0.43252417478916705	0.132156798432358	-0.40197080911422506	-0.39885103217444856	-0.44904621887217305	-0.02650652873925749	0.12707308374728118	-0.4178031351367393	-0.22434106601784537	0.01691510593195665	0.11900506166924074	0.34891846642860863	-0.35473707696719275	-0.13569286776387188	-0.2629962099991823	-0.4124489346612602	-0.40491211443106817	-0.24924783196065	-0.4535095369541962	-0.43720666634547656	0.20230355498047697	0.3958563454106362	0.37291592061766377	-0.29228422810599924	-0.3973795803983954	0.39562689559184516	0.3819815002939967	0.2786879031209889	0.02172828394136478	-0.12605825002813356	-0.2158190829340262	0.09188122479576113	-0.003516889301378251	-0.0017746437580679064	0.018819445083226527	0.21026280806875247	-0.09936313308860084	-0.11809043420176399	-0.3990892305989649	-0.35843075125667423	-0.03381751949029618	-0.2989110372679852	-0.022885587059503026	0.3834420811112401	-0.4215371021530851	-0.4277197789689894	-0.4573497968191625	0.29013688304062946	-0.34013343603807383	0.3919098280918232	-0.24030603384769417	-0.16935735475874555	-0.08463008633846097	0.04146477094090187	-0.27003124414266316	-0.3463542285356066	-0.32183877330745025	-0.3986019667048004	0.3367134817784426	-0.15858549318069504	0.41836919360528274	0.07524495419620839	-0.03323330383960374	0.4484239344444729	0.35000907616806604	0.5029451129682695	0.43264640731448	0.0940152362183164	0.09626708337849696	0.3808233824471944	0.5547987049171226	0.30483921272193404	0.494295773463971	0.24833189851654125	0.12081169314373125	0.18942615356262843	-0.20351882142926608	0.2668401985994838	0.3692889403020712	0.32216903980554257	0.061337768027139805	-0.1907132203698606	0.17931074404176317	-0.04431943102033127	-0.06345969276594263	0.18460734714556223	0.3900833785224438	0.013293332183247172	-0.1900563547274391	-0.0036141895946692204	-0.09269136908380253	-0.053774967593914424	-0.32317450987446417	0.1393199139562356	0.20682131631180145	-0.25211141717698726	0.3902965333983685	-0.09909389805136298	-0.23514476838172815	-0.3618386068014273	0.019577173404976708	-0.02934673136460869	0.09016628017716771	-0.1961958430988264	0.4511160990732491
