NIPT-PRL-001-25-BL-Px_S1	NIPT-PRL-001-25-D14-Px_S2	NIPT-PRL-001-25-PD-Px_S3	NIPT-PRL-002-25-BL-Px_S4	NIPT-PRL-002-25-D14-Px_S5	NIPT-PRL-002-25-PD-Px_S6	NIPT-PRL-003-25-BL-Px_S7	NIPT-PRL-003-25-D14-Px_S8	NIPT-PRL-003-25-PD-Px_S9	NIPT-PRL-005-25-BL-Px_S10	NIPT-PRL-005-25-D14-Px_S11	NIPT-PRL-005-25-PD-Px_S12	NIPT-PRL-007-25-BL-Px_S13	NIPT-PRL-007-25-D14-Px_S14	NIPT-PRL-007-25-PD-Px_S15	NIPT-PRL-009-25-BL-Px_S16	NIPT-PRL-009-25-D14-Px_S17	NIPT-PRL-011-17-BL-Px_S91	NIPT-PRL-011-17-D14-Px_S92	NIPT-PRL-011-17-PD-Px_S93	NIPT-PRL-012-25-BL-Px_S18	NIPT-PRL-012-25-D14-Px_S19	NIPT-PRL-012-25-PD-Px_S20	NIPT-PRL-014-47-BL-Px_S94	NIPT-PRL-014-47-PD-Px_S95	NIPT-PRL-017-20-BL-Px_S96	NIPT-PRL-017-20-D14-Px_S97	NIPT-PRL-017-20-PD-Px_S98	NIPT-PRL-019-47-BL-Px_S99	NIPT-PRL-019-47-PD-Px_S100	NIPT-PRL-021-25-BL-Px_S21	NIPT-PRL-021-25-D14-Px_S22	NIPT-PRL-022-52-BL-Px_S101	NIPT-PRL-022-52-D14-Px_S102	NIPT-PRL-022-52-PD-Px_S103	NIPT-PRL-024-52-BL-Px_S104	NIPT-PRL-024-52-D14-Px_S105	NIPT-PRL-024-52-PD-Px_S106	NIPT-PRL-026-47-BL-Px_S107	NIPT-PRL-026-47-D14-Px_S108	NIPT-PRL-026-47-PD-Px_S109	NIPT-PRL-027-25-BL-Px_S23	NIPT-PRL-027-25-D14-Px_S24	NIPT-PRL-027-25-PD-Px_S25	NIPT-PRL-028-25-BL-Px_S26	NIPT-PRL-028-25-D14-Px_S27	NIPT-PRL-028-25-PD-Px_S28	NIPT-PRL-029-25-BL-Px_S29	NIPT-PRL-029-25-D14-Px_S30	NIPT-PRL-029-25-PD-Px_S31	NIPT-PRL-030-25-BL-Px_S32	NIPT-PRL-030-25-D14-Px_S33	NIPT-PRL-030-25-PD-Px_S34	NIPT-PRL-032-47-BL-Px_S110	NIPT-PRL-032-47-D14-Px_S111	NIPT-PRL-032-47-PD-Px_S112	NIPT-PRL-033-25-BL-Px_S35	NIPT-PRL-033-25-D14-Px_S36	NIPT-PRL-033-25-PD-Px_S37	NIPT-PRL-034-25-BL-Px_S38	NIPT-PRL-034-25-D14-Px_S39	NIPT-PRL-034-25-PD-Px_S40	NIPT-PRL-035-25-BL-Px_S41	NIPT-PRL-035-25-D14-Px_S42	NIPT-PRL-035-25-PD-Px_S43	NIPT-PRL-039-25-BL-Px_S44	NIPT-PRL-039-25-D14-Px_S45	NIPT-PRL-039-25-PD-Px_S46	NIPT-PRL-040-47-BL-Px_S113	NIPT-PRL-040-47-D14-Px_S114	NIPT-PRL-040-47-PD-Px_S115	NIPT-PRL-041-52-BL-Px_S116	NIPT-PRL-041-52-D14-Px_S117	NIPT-PRL-042-25-BL-Px_S47	NIPT-PRL-042-25-D14-Px_S48	NIPT-PRL-042-25-PD-Px_S49	NIPT-PRL-044-25-BL-Px_S50	NIPT-PRL-044-25-D14-Px_S51	NIPT-PRL-045-25-BL-Px_S52	NIPT-PRL-045-25-D14-Px_S53	NIPT-PRL-045-25-PD-Px_S54	NIPT-PRL-046-25-BL-Px_S55	NIPT-PRL-046-25-D14-Px_S56	NIPT-PRL-046-25-PD-Px_S57	NIPT-PRL-047-25-BL-Px_S58	NIPT-PRL-047-25-D14-Px_S59	NIPT-PRL-047-25-PD-Px_S60	NIPT-PRL-048-17-BL-Px_S118	NIPT-PRL-048-17-D14-Px_S119	NIPT-PRL-049-25-BL-Px_S61	NIPT-PRL-049-25-D14-Px_S62	NIPT-PRL-050-25-BL-Px_S63	NIPT-PRL-050-25-D14-Px_S64	NIPT-PRL-050-25-PD-Px_S65	NIPT-PRL-051-25-BL-Px_S69	NIPT-PRL-051-25-D14-Px_S70	NIPT-PRL-051-25-PD-Px_S71	NIPT-PRL-052-25-BL-Px_S66	NIPT-PRL-052-25-D14-Px_S67	NIPT-PRL-052-25-PD-Px_S68	NIPT-PRL-053-25-BL-Px_S72	NIPT-PRL-053-25-D14-Px_S73	NIPT-PRL-053-25-PD-Px_S74	NIPT-PRL-054-17-BL-Px_S120	NIPT-PRL-054-17-D14-Px_S121	NIPT-PRL-055-25-BL-Px_S75	NIPT-PRL-055-25-D14-Px_S132	NIPT-PRL-055-25-PD-Px_S76	NIPT-PRL-056-25-BL-Px_S77	NIPT-PRL-056-25-D14-Px_S78	NIPT-PRL-056-25-PD-Px_S79	NIPT-PRL-057-52-BL-Px_S122	NIPT-PRL-057-52-D14-Px_S123	NIPT-PRL-057-52-PD-Px_S124	NIPT-PRL-058-17-BL-Px_S125	NIPT-PRL-058-17-D14-Px_S126	NIPT-PRL-059-25-BL-Px_S80	NIPT-PRL-059-25-D14-Px_S81	NIPT-PRL-060-17-BL-Px_S127	NIPT-PRL-060-17-D14-Px_S128	NIPT-PRL-060-17-PD-Px_S129	NIPT-PRL-061-25-BL-Px_S85	NIPT-PRL-061-25-D14-Px_S86	NIPT-PRL-061-25-PD-Px_S87	NIPT-PRL-062-25-BL-Px_S82	NIPT-PRL-062-25-D14-Px_S83	NIPT-PRL-062-25-PD-Px_S84	NIPT-PRL-063-52-BL-Px_S130	NIPT-PRL-063-52-D14-Px_S131	NIPT-PRL-064-25-BL-Px_S88	NIPT-PRL-064-25-D14-Px_S89	NIPT-PRL-064-25-PD-Px_S90	Genome-IJB-HP-14-xx_S3	Genome-IJB-HP-18-xx_S6	Genome-IJB-HP-19-xx_S7	Genome-IJB-HP-2-xx_S74	Genome-IJB-HP-26-xx_S14	Genome-IJB-HP-30-xx_S18	Genome-IJB-HP-31-xx_S19	Genome-IJB-HP-33-xx_S21	Genome-IJB-HP-36-xx_S24	Genome-IJB-HP-37-xx_S25	Genome-IJB-HP-4-xx_S76	Genome-IJB-HP-42-xx_S29	Genome-IJB-HP-44-xx_S31	Genome-IJB-HP-49-xx_S36	Genome-IJB-HP-50-xx_S37	Genome-IJB-HP-64_S169	Genome-IJB-HP-67_S172	Genome-IJB-HP-7-xx_S79	Genome-IJB-HP-70_S175	Genome-IJB-HP-72_S177	Genome-IJB-HP-74_S179	Genome-IJB-HP-75_S180	Genome-IJB-HP-76_S181	Genome-IJB-HP-77_S182	Genome-IJB-HP-78_S183	Genome-IJB-HP-79_S184	Genome-IJB-HP-8-xx_S80	Genome-IJB-HP-80_S185	Genome-IJB-HP-81_S186	Genome-IJB-HP-82_S187	Genome-IJB-HP-83_S188	Genome-IJB-HP-84_S189	Genome-IJB-HP-85_S190	Genome-IJB-HP-86_S191	Genome-IJB-HP-87_S192	Genome-IJB-HP-88_S193	Genome-IJB-HP-89_S194	Genome-IJB-HP-9-xx_S39	Genome-IJB-HP-90_S195	Genome-IJB-HP-91_S196	Genome-IJB-HP-92_S197	Genome-IJB-HP-93_S198	Genome-IJB-HP-94_S199	Genome-IJB-HP-95_S200	Genome-IJB-HP-96_S201	Genome-IJB-HP-97_S202	Genome-IJB-HP-98_S203
-0.30927794946018766	-0.23723166635893594	-0.3596934581491179	-0.2324010396132593	-0.19530963721045308	-0.1812877649361006	-0.07812433733939718	-0.13403303024817925	-0.10724768393417594	-0.11209577063298502	-0.12000446705861019	-0.11651614430956798	-0.16446589747799018	-0.16148743618032974	-0.11712290111036766	-0.02998884763754632	-0.15620915921276168	-0.24839397049454137	-0.1484093064639856	-0.2112399892700068	-0.24311872420460212	-0.05090670173070459	-0.025594256344944055	-0.34408247966874395	-0.2574965042461813	-0.1282343789220321	-0.24685731132339772	-0.12749822352293608	-0.2355318265182289	-0.1319647997622836	-0.3128973416269687	-0.342371048743354	-0.1980884420293399	-0.1664567892891322	-0.03704581815299755	-0.12225049677193266	-0.023591330275553116	-0.09797572987009807	-0.14153751559365252	-0.20836658271996372	-0.22803650864535746	-0.10930267236424175	-0.10659591100844203	-0.11227148946777196	0.00030788646229269745	-0.03433827771112612	-0.0962045148128267	-0.24174953925741172	-0.08794024985896733	-0.08654908757455536	-0.27963544141686486	-0.21361334118562608	-0.12717860918879012	-0.07087441787956586	-0.1401799388285042	-0.14642333694480708	-0.09752657327277048	-0.04911931545359717	-0.13819710189574258	-0.04800466536894622	-0.09103273977225186	-0.2766747244133259	-0.1955211111429253	-0.1773190222604824	-0.21033938826583687	-0.1670040092025814	-0.09246742192811495	-0.19058624176833322	-0.10547052501573703	-0.14603994065216191	-0.06961214347621116	-0.2850550828130367	-0.14331868132078424	-0.21387490594188807	-0.19347385060717054	-0.07572579766923501	-0.1645892303013039	-0.14351989643820795	-0.20173014843902942	-0.11383101016444071	-0.21769738942811034	-0.12101660486940587	-0.05766885366593942	-0.24483538751175138	-0.24067482079803204	-0.21066027871813542	-0.1445560008312114	-0.1576537244897015	-0.0354758950411697	-0.18973361230372526	-0.1931672419497964	-0.10079602105961662	-0.19465474486980228	-0.15898920434361818	-0.23500295383646658	-0.26940398833345863	-0.21667815381853023	-0.044631811947137154	-0.18817680927030883	-0.21015408365414429	-0.25423726671089425	-0.19412997418369365	-0.05566377167862978	-0.12543864085558049	-0.09764881307692552	-0.11248255090660882	-0.12026094211845453	-0.07718354993228414	-0.15864596382355717	-0.2372755200420918	-0.14926165578657363	-0.1775897799374575	-0.18228283075119028	-0.10652770443650432	-0.08551621345383971	-0.0379781623983602	-0.09055043816502947	-0.30478269243233264	-0.17694057712644917	-0.18632224608087833	-0.18546526588446272	-0.3197599199467296	-0.11476876762172959	-0.22808087943477978	-0.051501629632856274	-0.09983702945780228	-0.114611196685501	-0.12197148472373485	-0.040049229335784906	-0.07478993391051307	-0.1464892690759675	-0.19564837336979618	-0.16286650311408207	-0.0844353077033864	-0.20896504656887005	-0.17416998589737365	-0.02415336430906044	-0.2675659536642122	-0.2604371908886337	-0.3493611983263355	-0.29594474629516737	-0.16233714788200881	-0.1360004019496756	-0.2596678714194306	-0.35870598248297997	-0.24074096127999028	-0.37026759773088425	-0.23619609859984952	-0.11090465938528624	-0.21979626759556747	-0.035793834882431	-0.21021541804884303	-0.37505732046710544	-0.2623300169777898	-0.20535714896502	-0.11741354703688499	-0.2825960364588836	-0.11622407642590218	-0.12809363793147888	-0.22659887280967989	-0.276758873845354	-0.18956845555325363	-0.08079965780566263	-0.1244821262344578	-0.1886111161676472	-0.08207990126851027	-0.03578449776558025	-0.15015246527435877	-0.28321248598457094	-0.06354010737666448	-0.18662312504655	-0.12166971402694454	0.042674138120526436	-0.1564272055783567	-0.06941244552742423	-0.18686359228908822	-0.21390514795055926	-0.09924245689300262	-0.24537994710009758
-0.26193807406634656	-0.166081983155286	-0.310324320335379	-0.4853721373402322	-0.4202840216890674	-0.5198189874311179	-0.21911002526283707	-0.31495861851804935	-0.18734147971956616	-0.1897792192358354	-0.19881731762081867	-0.16252504488654723	-0.4038485277347875	-0.4074502176872939	-0.35474633486415924	-0.16670459137074972	-0.138588168595879	-0.17628953482786625	-0.16894589221028447	-0.4533846213751549	-0.13979933653641616	-0.25732831788449484	-0.23318250793671014	-0.3156993543835506	-0.2077485935921951	-0.16487065312430402	-0.11517077228343439	-0.1273910674685335	-0.09063138586412664	-0.3951244691512465	-0.22234344731734523	-0.12138440371710779	-0.17362625891602024	-0.15915841259316116	-0.2694626293073703	-0.15533765541573755	-0.19006128422499896	-0.16977759516022234	-0.42643337741691767	-0.48996312784152396	-0.5488018279265144	-0.15941801073673983	-0.1702292440200461	-0.3323979621267132	-0.17144170440892437	-0.14448108296649975	-0.14961056361818456	-0.18454195178666544	-0.14761008414497567	-0.12778712828123254	-0.1755077987508515	-0.1548344185591225	-0.19062651737516256	-0.11451594835831533	-0.12987446651905873	-0.1858079055718465	-0.31660813609305705	-0.21594636372084253	-0.38556656024522395	-0.122632305135352	-0.17348654435119165	-0.12599891034373437	-0.5051740982574884	-0.5078672407289619	-0.5107901179671649	-0.17091804338675703	-0.13264708613817344	-0.1225366062978974	-0.17449737104253263	-0.2043598737264702	-0.14902252814898934	-0.1840530603248135	-0.16423038524368253	-0.4738612229892707	-0.47825551875817207	-0.09322127872202965	-0.46116706858381107	-0.48483589255183734	-0.4894781763152424	-0.21034373582740562	-0.1292667670718183	-0.4094473961358608	-0.15568706690234457	-0.13678556911187706	-0.15314250666783868	-0.2035353155088253	-0.40799097335417284	-0.1562955759520156	-0.16879851708069152	-0.5155234447412732	-0.43207435604209055	-0.12569996701502548	-0.4871528497980897	-0.4721020598651131	-0.13418122579543787	-0.22562023506758755	-0.20733460964927558	-0.2849215872006219	-0.4739326543598291	-0.1612893878899084	-0.2117253671876314	-0.09319931275975174	-0.15742526402978166	-0.17156537798170512	-0.12444213999895204	-0.19650141999656467	-0.16924776003536715	-0.16865558708991066	-0.1654618685183519	-0.13670061217465077	-0.20598466931016163	-0.12520135184398404	-0.4609265221793283	-0.3490215416241565	-0.18006922030192468	-0.2922339824560192	-0.15629145949918108	-0.15822343367640784	-0.5133582369096507	-0.5185200973936457	-0.5058891125316162	-0.13434686552762223	-0.2943239850342143	-0.14708738743890817	-0.12374099610389241	-0.18210761341444126	-0.1621269673188848	-0.18001876731372768	-0.1301277057402009	-0.21564069573328687	-0.4458354613527258	-0.5444805443974474	-0.1551338618418319	-0.15597299619156935	-0.12445437429725512	-0.17609079623990243	-0.0990384257144668	-0.16718778107593774	-0.18437906364515994	-0.2968715797515123	-0.23640628913873662	-0.14663403849956294	-0.13383469806821935	-0.2212748716982872	-0.31391342459187366	-0.2105559853447787	-0.2997252252123205	-0.11972260448202482	-0.2656758104287169	-0.14592637138563672	-0.13742117996670616	-0.13115182677855694	-0.24136132822169565	-0.14807108634616115	-0.15856730909849065	-0.11855960937304785	-0.12806975066607723	-0.17129965812290174	-0.1634407852321895	-0.1401352656490298	-0.19611709962933477	-0.17564289716594933	-0.19208894209354382	-0.07120209320584886	-0.16312156177995032	-0.2071716828454191	-0.18700735786878264	-0.1328898219355625	-0.09528472843625632	-0.1451513484824105	-0.1381574385417515	-0.1912794618625565	-0.15293696561211975	-0.2810974721278416	-0.1713061087837674	-0.18765681490568165	-0.01537731702520001	-0.15449608781632881	-0.18766655564987694
-0.23400358698920223	-0.07537433105435737	-0.23419190719330255	-0.18208835938847398	-0.23742838458120638	-0.1902988255999155	-0.21327241449718928	-0.25379249187560016	-0.24494108838383563	-0.2408247350368701	-0.23893935645905576	-0.23469134595419425	-0.23517339836355075	-0.22588606149736443	-0.2408140411262242	-0.18302942308037287	-0.16706728305047572	-0.1728957908726408	-0.20220353082013184	-0.21684608544765352	-0.21885666286787314	-0.1830119700531675	-0.14714973386498342	-0.24519226618454618	-0.07197844373508169	-0.2190398921985365	-0.17707817899977835	-0.27231034961521006	-0.11947362206440901	-0.18052976294193085	-0.12238467619748855	-0.02474088827088034	-0.1680861875082065	-0.1966273388085175	-0.20547880967132678	-0.24509130291022	-0.16935831477974525	-0.2418605761065283	-0.2090995118980675	-0.20610821516119746	-0.19579986081669618	-0.24567479816083312	-0.22835228306451885	-0.2528494298754421	-0.22392321415831554	-0.16778107807334933	-0.2386143623647725	-0.13005617206000294	-0.20026116418982542	-0.14208172639547811	-0.08221124373666946	-0.15202788880059234	-0.2461183207586178	-0.12727260831326745	-0.15302539777181082	-0.22896424084217235	-0.19615531982763768	-0.17981052379274387	-0.1939799328769486	-0.2029865561163354	-0.2801927787334503	-0.07971817816845186	-0.2330759635739212	-0.213456603269954	-0.20807491776294396	-0.2148226026194748	-0.23238153086596922	-0.12424240959178692	-0.24865110514603586	-0.21085400363226742	-0.233839524845704	-0.0748088203495252	-0.2275609574023321	-0.21681852941356414	-0.21223514012395306	-0.24545913435933855	-0.28110781474031943	-0.2300385229271484	-0.19440727933623644	-0.2802443348714809	-0.1438709983642176	-0.26844324371894224	-0.16993260461732362	-0.15245851977566913	-0.16115848662986804	-0.06754021554442567	-0.1756218933726337	-0.2090786617341138	-0.1670066419394828	-0.18206425754766972	-0.21067812006453265	-0.14191701392306666	-0.24178575690884094	-0.25605706649377225	-0.1474074460513868	-0.0388802078229927	-0.11376849788028473	-0.2436058712374852	-0.21345855367067812	-0.04379254652799747	-0.04949978864811444	-0.1528178262810267	-0.32018597402938165	-0.22787698826079236	-0.14841823173833593	-0.24401607312646525	-0.2605377778989981	-0.29252837478081806	-0.22640804708344361	-0.12096390122814668	-0.24415991987152177	-0.18592008292397474	-0.2637910802457475	-0.2294806038627946	-0.2876501109270233	-0.20377249215767598	-0.24203541205121556	-0.10540265820106834	-0.21936882695591217	-0.21118556446990155	-0.2349895287740081	-0.061753328477299405	-0.1917406243718768	-0.03309650921065621	-0.15056643022347033	-0.2510592739386399	-0.24024260794705857	-0.23507504988495773	-0.166183896681267	-0.14287559900134697	-0.21165402533931627	-0.2157733516592376	-0.14621466896497484	-0.22214302313396908	-0.025945065173181084	-0.2126026955822323	-0.33171396523218966	-0.16361574008135213	-0.07171749467543136	-0.23111210551544506	-0.1757327030817141	-0.170167495144087	-0.20430952455520085	-0.1792453034112713	-0.2697833197433762	-0.09014282868959356	-0.24798859223380706	-0.08521339283089419	-0.2584156254151472	-0.15447623342565975	-0.21407403141224318	-0.14970778144686755	-0.14600616614633646	-0.04328692902770272	-0.18712472883917816	-0.11309131460013247	-0.07899125232178474	-0.25435004418394125	-0.23391432565106504	-0.14357091121320487	-0.11252115276097202	-0.16988898804550057	-0.25748961776899315	-0.20914746756664052	-0.1558755025930259	-0.2746900268223603	-0.17652021400331808	-0.22659612949567706	-0.027906914999845933	-0.14195191045055983	-0.11191837578636674	-0.2623660172425776	-0.2820422430384053	-0.2529587341336902	-0.2517892669503856	-0.21595053859786303	-0.15174227761470582	-0.2001394352279154	-0.08410905941284016
-0.22113405972316563	0.03551449354752696	-0.23928306879892458	-0.18541470750809785	-0.2104881039418704	-0.19594817072193993	0.09073267884032757	-0.15252642419387802	0.07216770583165817	0.10838113194814632	0.06226969933609279	-0.01694643203484493	-0.19587613022309142	-0.1464006117464718	-0.11698841369475751	0.04163622318154152	0.04841649487116603	0.09041435472575444	0.060611898114510995	-0.2143816574830254	0.03604501661364003	-0.04951157058181253	0.014008629138371378	-0.256735078321827	-0.07581464373235358	0.05846775477952594	0.07252134256846056	0.05319178310195012	0.09558105622490273	-0.10197200995692855	0.05265952775294101	0.02725167580081521	0.07977040369471113	0.04272018142463181	0.023383371253755933	0.0367104378485686	0.05300807745125967	0.01012220978059683	-0.13808531681951208	-0.1880392996877735	-0.23257187187807654	0.06465145295952042	0.013195977372630369	-0.1367756732657652	0.048070361943554504	0.07760568986644102	0.05541133674313617	0.07088794545125415	-0.00048110018077350547	0.06196980584087666	-0.12413738570275666	0.06283662529748517	0.06671895819692707	0.09304592749108131	0.04985992053637055	0.05107917911843357	-0.0993099650113137	-0.01484880406323677	-0.11947778980490249	0.03525238407075548	0.00013463416229557434	0.013150992198358927	-0.28682828759193973	-0.25539638145075716	-0.23941107693253844	0.03193587524056159	0.024795801934638054	0.026838407276067816	0.012405229536233561	0.04037891288784727	-0.014201035822787103	0.04473231913434261	0.01251878637357974	-0.24144329247403645	-0.2291926426028067	0.007834119009685489	-0.2755670164212924	-0.23730082216371573	-0.139177005184834	0.014878553196044239	0.04481496594033231	-0.19731314929489946	0.08349454493425987	0.09324618717341393	0.0830552369921609	0.022612364754289474	-0.07304984236731368	0.057354277591444805	-0.02207851791151738	-0.21924334278458002	-0.18293970703765422	0.04795471527419512	-0.2715812317293931	-0.264227415224172	0.059239155254012674	-0.009770852998078394	-0.01983648788556351	-0.042306578773234196	-0.2514892358488979	-0.04208252442180642	-0.05792264279085725	0.020555577879016698	0.024837346751369407	0.020053277462562247	0.026439610195943222	0.05340414919788154	0.05512411127761162	0.0019151278546886558	0.05677672446123401	0.06484881752939052	0.034137776393792216	0.030213317307926854	-0.2762436716209009	-0.12010681354419535	0.029034962710982368	-0.04992930479645484	0.02609255978621812	-0.007913876319642507	-0.23831958022808253	-0.2349943173665317	-0.2713388050987974	0.050132781081433556	-0.08645872461442002	-0.006470285064825207	0.06751338939656325	-0.004233532443940494	-0.022096645237007148	0.023477701978156282	0.050550632418360025	0.0982970241625153	-0.15217201788263632	-0.2475446926636798	0.010093140054505581	0.01925736729837428	-0.0734671949129139	0.0891441052640523	-0.027813179843947475	-0.21047559910610092	0.047672909269376076	-0.27822679600136846	-0.20162927170867223	0.039667724878767144	0.062204100648311875	-0.17529827988318658	-0.3208323222801572	0.05966540048712603	-0.30104155977934227	0.046780067645314685	0.09719061193177493	0.06561137650826411	0.009360760232661677	0.057930707443893656	-0.15547706110796405	0.1107283097077716	0.02869652924785343	0.0830597875464708	0.07914546197112805	0.07634409827556415	0.0422457180872335	0.0604948550234463	-0.011064760895670933	0.059899200944099396	0.04116028026184637	-0.010378749877743579	0.03934481850917999	0.059942102424323185	-0.050196737672709386	0.04516848253741375	0.058021823806311004	0.0996600720349821	-0.12641388838520573	0.054773086289521794	-0.08055146571820866	-0.14838885568930804	0.07015593358054593	0.0717273395398393	0.06028923365500903	0.04978997291461636	-0.06124346625876745
0.6307804876074691	0.4090415885070978	0.6065737462330185	0.36984888536749183	0.41326209583498463	0.37451870868610126	0.3625230528543968	0.4143389600687517	0.40612973603642744	0.41111433233614014	0.41595393841966943	0.4585528068461352	0.37250897635867153	0.3656428014967299	0.3642524473563046	0.3676952207098253	0.39908009768681485	0.3861341443744315	0.422355468042397	0.3922422421795876	0.48748951192381285	0.38905948091447184	0.36282691595263683	0.6314741216092845	0.5159514963880076	0.4037391822221049	0.43208812620083015	0.4565504051027156	0.4283320550944766	0.30886016825180035	0.39779570369505424	0.4082468599889947	0.4424649008622954	0.44175256693215825	0.3435175081327715	0.44333658134460374	0.34464791249660875	0.40728244350761633	0.3821141056225186	0.3636415990991244	0.35765092549857913	0.4186854976259241	0.42513291342066717	0.388795392201171	0.42967290531641555	0.38947215315313244	0.43524166969436406	0.401272292122951	0.40745072334534704	0.375259779738642	0.5215033500322053	0.44768008273808346	0.38340961619242575	0.36265410852003	0.4594189407728887	0.43475074679214964	0.4328557531387035	0.39721723613971127	0.41752212616358686	0.4200118844134234	0.45407964926845545	0.4323396796532394	0.4063822696718997	0.40919936794874523	0.39041778842409813	0.40252619847910565	0.42929478569672785	0.3659883146755093	0.42159587769529017	0.4073335275409109	0.43154755588494975	0.40496931153654625	0.4176029412267427	0.38766354767458433	0.3914097605384105	0.44338179217743	0.36419064019552083	0.36043312835105246	0.322025990665622	0.44289745682650894	0.44339990171509547	0.3728105981347758	0.37172873848994514	0.3851355493761316	0.41561288940284247	0.41445664481687483	0.32896466687465065	0.3816315824292982	0.38437890510671424	0.36476500292320535	0.3921968366602576	0.3425885180386301	0.39689920312499094	0.3900345220137629	0.4546149928630401	0.4499612830728701	0.44910213540237987	0.35088716796136654	0.39502427438272536	0.48358333343522064	0.4854345793322985	0.44707963478599566	0.46236315465730904	0.44348123831884834	0.3860396302043525	0.4635449377837463	0.4423269448696814	0.4587550534630309	0.45305489751198946	0.4236924466878148	0.4317288113268798	0.43093538870068804	0.3603916321510696	0.4078302898270819	0.44380644603222563	0.3748085559944899	0.4240277650280828	0.44712558126021307	0.39130936494714574	0.3879234419954384	0.3444455831332708	0.41022335853216574	0.4119993082449972	0.4617533520023126	0.3658102546570632	0.41361181894681187	0.4752576270184047	0.4693867036015771	0.36594888872736886	0.40664889417463246	0.39111135594687985	0.3854928169530939	0.426589721366027	0.4037754434677542	0.5187494406600883	0.4248214796693227	0.45030831258852244	0.62535229891928	0.4027965628908413	0.653193047242706	0.5945573223812893	0.4533553634086922	0.44129186531996545	0.5766257743563805	0.701616710136155	0.4017295085229462	0.6636900656695126	0.4329639898005756	0.3911219165469919	0.4425437819810628	0.442003663006432	0.4225937686582757	0.5691877231802673	0.34538904884452437	0.48138214706946947	0.33512258883298496	0.4490882235502499	0.41089797044194	0.43148554753856916	0.4643993916828152	0.5521100396869446	0.41596116931882143	0.4059376932664327	0.46967374094293113	0.39628773215129065	0.4092780012304239	0.4049907784224255	0.5037650112888723	0.48416381373388817	0.34802757377614346	0.6253598666837648	0.40828042024584277	0.49183359506766866	0.4319249176632254	0.44846941921465955	0.38925228866077943	0.4863128137662185	0.3928198459456862	0.5053884062105218
-0.033851268695793954	-0.22463303879519664	-0.08584061780529416	0.24570641243408242	0.29623067762459093	0.25322948087512326	-0.12567654114087634	0.322075265322384	-0.13871219323183553	-0.1658087832423975	-0.22557000392926768	-0.20283628704717976	0.28128336656106867	0.2535910376522976	0.2688343688888552	0.06112307405290136	-0.23435690754885435	-0.25565657552674304	-0.23526432024345445	0.28250501809682027	-0.25090173592042697	0.1687135905707326	0.10487401823467536	-0.0718287075724388	-0.12690449205618043	-0.15346748361850043	-0.24278124071721163	-0.17736787702886697	-0.21546453198127857	0.13953809803887085	-0.26136110450856176	-0.2868042937039827	-0.23819142095663692	-0.2553098534083356	0.046857328133464896	-0.18520230283431993	0.027775569285849303	-0.12632060098828946	0.22677165654097076	0.24234466451064451	0.22354635959001734	-0.13634265522905664	-0.16702093384158795	0.2730323501297802	-0.0106378117246647	-0.038820244960757797	-0.06769137955750586	-0.2190120073996472	-0.1383947569549132	-0.11533329756985582	-0.09946002681704207	-0.24588196777567234	-0.16729067467266984	-0.09865897994111004	-0.22151379020736833	-0.2628175594070788	0.21186098768497835	0.11453761410092801	0.23311818093719927	-0.05571236067700412	-0.15280432076033523	-0.2472848325777635	0.2723194487711559	0.2584653818169587	0.2527742255588629	-0.19765072686410334	-0.17517590267883576	-0.1997638828090742	-0.18173553703612305	-0.24565949797819808	-0.1722658183681317	-0.21527508473075208	-0.18208682399192788	0.27567172316873684	0.284974975509696	-0.15253579941181933	0.29637554017722995	0.2600074109284937	0.2098921014679	-0.19762119614699108	-0.2521213737769304	0.2904124967938512	-0.038355844962457794	-0.16808992146706003	-0.27277933373004276	-0.14668881373620252	0.19729543143370942	-0.14626039627717968	0.14100450665379505	0.22612561433301515	0.27343635067188654	-0.0788599468837005	0.2804552098348955	0.2957337167422292	-0.2681324339288911	-0.1782138231188734	-0.1850898113553875	0.17904453306233675	0.280757785400642	-0.04853145006473779	-0.11038528267791113	-0.1891524891999828	-0.13952835980403666	-0.2074813652352595	-0.16910614825188208	-0.23894172094867389	-0.2052425218637295	-0.16910704787875652	-0.25741881541569445	-0.2635094806152745	-0.19072532256762958	-0.13610612113506293	0.28842719447172105	0.24280050632403483	-0.13815128528644172	0.12268409493884931	-0.1794282237805651	-0.24108303700492323	0.25927598019131365	0.2577944981479768	0.2460193986047038	-0.24488496534351056	0.23080751713599634	-0.11700205529087308	-0.032515215216393986	-0.17008949143118351	-0.20328151488282087	-0.24764237332048167	0.03063152640935586	0.008749049275512746	0.24419206880229943	0.23324453090117686	-0.15224921008626846	-0.10395808531256194	-0.0648775949695493	-0.2225236961270612	-0.05920169533263829	-0.006535915162231384	-0.21211803992034084	-0.06531173460382271	-0.03352242755399153	-0.24772297900705986	-0.19573657343590978	-0.055384142796926036	0.021144899105581275	-0.16755720373101363	-0.01786555036114544	-0.1932878783302125	-0.17218290399212788	-0.22812752794224805	-0.13403358589467296	-0.16561528292266908	-0.04716351440430587	-0.17172354618150443	-0.21447612857697457	-0.13026441306555314	-0.2788551544315276	-0.1542866759986088	-0.191084067591465	-0.22981273781589845	-0.09381751576771173	-0.25617802149415875	-0.12671902561487686	-0.14681397980206434	-0.2655837486390628	-0.19250945210654724	0.11179368656391127	-0.21336860638259691	-0.12098624477010343	-0.06486924990407487	-0.019616655730859342	-0.16846839389657542	-0.007584061059921585	0.341970129563754	-0.20471960108644455	-0.242570826531947	-0.2005974239985111	-0.10525481986748363	-0.015482852778116493
0.26709873508172927	0.26456888193025313	0.34458007325233136	0.5179568455087932	0.4917696147355078	0.4846994392330444	0.3869965671095128	0.4648770405686468	0.33102430539999667	0.31491237681875583	0.3609794610642641	0.33103006236355936	0.47067950728157176	0.5065882688388854	0.4856901638959216	0.3810498953250387	0.3181199983852889	0.28327573980383686	0.3029770216122004	0.48658169178762223	0.2129283007652435	0.44333898487136253	0.44091944090984575	0.36079491539637515	0.24067744643706923	0.34210297088994374	0.1906256468348591	0.24205622005222832	0.26705377666142477	0.5112045394676847	0.2777266442569334	0.25314794126772205	0.289404826565225	0.3240468647031253	0.4948006774514348	0.32352779293487915	0.435039444005526	0.34107549831699957	0.5138725611884882	0.5182654051688127	0.5070586215620138	0.3131495522734307	0.3435851476962123	0.4717240237495011	0.4485669397617388	0.40546786571214116	0.387851836827755	0.27493800054930045	0.32613300027622427	0.3536230151260342	0.18602707710138028	0.27089839042187364	0.33783169276447017	0.34971376998467296	0.3100077990719727	0.3441978512966511	0.42279210215293495	0.4113416587912321	0.48682016581176923	0.3414888058859139	0.34248755920962537	0.24834217117868668	0.45354176992144485	0.4362469801185915	0.47888974417772573	0.33634774783266846	0.31412659867936127	0.3143587072052942	0.3522904939901906	0.3743811437809818	0.3453333299534792	0.2602651707410099	0.3336804671458196	0.47615566493433975	0.4529287874761567	0.25389616552127975	0.44006720892847107	0.4138584593662379	0.5420408185824196	0.3633822101602849	0.2821888402310115	0.45955630341930714	0.3948735838391389	0.22205056369861298	0.2730303972056487	0.2752768362659148	0.5202802285288436	0.3218655986275546	0.3678307564418199	0.4550033268452289	0.49293998777218845	0.3645811916556547	0.46088411343424995	0.4266001389533383	0.23183873282902084	0.27457045184145196	0.30488732947313396	0.4701510109614592	0.4301226572677355	0.19162672605526732	0.2648534510861463	0.21283598346123983	0.34264438088790244	0.34876136060559165	0.3150630797627166	0.3294852932620153	0.323932746344863	0.34240181091758864	0.3338736834370573	0.23818114994838352	0.36947539387216016	0.2618502719597677	0.4459619016282555	0.47579002279395327	0.3423505077705692	0.5132119250732151	0.30536327324320534	0.2722899523917374	0.46795652460727394	0.4723044908445622	0.4422116499017605	0.24686999851133407	0.4875748327393602	0.20103249422852149	0.369368063903482	0.34400237640082715	0.3278121488981341	0.3603419443810885	0.33795548232666806	0.30778428764212745	0.4936068778629638	0.4947355028317545	0.2689735699345264	0.3382624070043965	0.1855187483331468	0.2987030896711636	0.25000539489590645	0.17153929178190092	0.31444350161497914	0.3731852488866971	0.2656449161409186	0.2996924484374782	0.278490124778954	0.23146173644146556	0.3628225428174892	0.3072553645243309	0.3546272207496161	0.21216699225768532	0.3702771366662118	0.25229434667677647	0.33810134422606297	0.18589831526837092	0.25303297400393815	0.1354523363142393	0.333306761040699	0.3392496830069192	0.22405515970061163	0.3324866540740779	0.33073572346274904	0.23803993842893673	0.22892032979520588	0.38207996301344965	0.358858301924172	0.24655831732726413	0.331656396855616	0.3427742356877546	0.4051676524742472	0.2644892908866966	0.13726585342945835	0.39070934758867176	0.13106664794906653	0.35077751362683746	0.43304806119146916	0.45511349533474604	0.3302701350188572	0.347462505033936	0.17953319335406376	0.31680666788829176	0.1578998851021748
-0.23349405181602884	-0.056879436954050816	-0.24463998935060627	-0.25680602803680375	-0.28766476378254424	-0.27481989642404553	-0.1352702152435717	-0.2842760785707877	-0.050651623439411014	-0.02303219405967946	-0.08732004288109829	-0.12575190232857625	-0.2735282198407072	-0.2659692977714991	-0.25229558712820815	-0.1739674975798558	-0.10782572958895485	-0.04832105185151153	-0.038580912943792955	-0.28064766532053836	-0.04799497161521049	-0.24595856511626285	-0.21697375892281134	-0.2617369076624691	-0.1149132604310203	-0.12141590447100736	-0.006248516746624452	-0.022742441057410016	-0.018198326060653254	-0.258085709813011	-0.04981366856773481	-0.056664197588549306	-0.04021879705115783	-0.08699060874955386	-0.20294109663500476	-0.10113315772936908	-0.1723531198930356	-0.16206872004982037	-0.27811001237925054	-0.27879735251014554	-0.2920289326808869	-0.09375321053436673	-0.1607967705144377	-0.2635513888349071	-0.15131411120733723	-0.15870860531841258	-0.10482699471997627	-0.05897993826637101	-0.1774438921188058	-0.16672875432560097	-0.13031579155092765	-0.05563127329399369	-0.11147938515915062	-0.17223111067533192	-0.054532307678995584	-0.0705969888298677	-0.27411689977310283	-0.22273394131447172	-0.28857278624170324	-0.1446847995730719	-0.10036868693472287	-0.05285712226720718	-0.29245156114908144	-0.3012912347792321	-0.2868023695774461	-0.10714563867414026	-0.06296487940697873	-0.15691430508840953	-0.08135030709650831	-0.11273217159982855	-0.14124005684593594	-0.05603716786385958	-0.12474529966612395	-0.29412866042471103	-0.29368807972314	-0.05796316217279256	-0.2529975553907346	-0.2739588301363369	-0.2616796924956076	-0.10242543671972543	-0.05698766443745266	-0.252140685242753	-0.16111168014506017	0.0002398771610898076	-0.040450047330489444	-0.0622162329572814	-0.24564633200860175	-0.12257462287252631	-0.19941163811225276	-0.2948673888201422	-0.28535441754633173	-0.19828977181065705	-0.29048625873104356	-0.274838807267286	-0.051570217657590414	-0.0927158195966809	-0.08379711835605953	-0.23368377104695365	-0.2899656613584137	-0.09258151664419359	-0.12099726757244533	-0.047358174026256535	-0.07344503981381036	-0.12928331404658794	-0.16680694582464872	-0.08288627685334607	-0.08275554157657652	-0.08783007473565675	-0.07426101433856698	-0.0444938621383046	-0.1363693509491326	-0.09320491980782196	-0.25274209436575573	-0.2755060264606517	-0.09445483561911508	-0.2626399796092932	-0.06295416424873326	-0.08337861117081495	-0.2962493064485449	-0.2976985430036328	-0.2702867127243888	-0.04882434075051641	-0.27780974167274486	-0.07038633193030217	-0.19788151279093824	-0.16532251763814892	-0.13031462205068717	-0.1002642989397295	-0.17033683923739018	-0.14515951156495638	-0.2798544757484237	-0.2995202463980999	-0.07266155263169792	-0.17225010649679018	-0.11007603303502911	-0.04872717529987671	-0.047614038005951854	-0.20784448760466384	-0.0801792924861765	-0.27165247341198867	-0.22185173590886947	-0.0861905720008202	-0.04478844847849395	-0.2040543628278031	-0.321694358560464	-0.07394251453021385	-0.2825007994607944	-0.04438951158003424	-0.0692814487553362	-0.02873178940382514	-0.1722997442817253	-0.02896188478240165	-0.19933029499503535	0.01484899618816287	-0.12687248943472662	-0.17529104781287025	-0.04491513472895097	-0.07729548474168012	-0.10559578187171141	-0.049058946363821854	-0.03930478561808515	-0.12919741353482364	-0.1604607972914195	-0.054515342887361755	-0.12228983619121793	-0.10108837659990168	-0.24578438018093052	-0.04025518511270801	-0.035894024548438166	-0.18673972184729654	-0.12838462989857874	-0.1123699416960933	-0.22684959577291974	-0.3152744168957985	-0.07115290557994511	-0.0823077976833707	-0.011372661620186436	-0.1510776935063008	-0.13123912768531637
-0.5325137526883688	-0.43852203863144207	-0.5142332734138616	-0.39515257018347344	-0.40867551171688665	-0.5117642068950805	-0.5187244109204119	-0.38800813419830094	-0.4889789955550712	-0.418540356853564	-0.510935691954008	-0.5501919708051826	-0.4169215580570495	-0.39564044126056935	-0.39571077501657764	-0.42921364029342857	-0.5206423477308406	-0.46028343589764215	-0.46253928700340313	-0.3949571556541989	-0.4617169980287225	-0.3966959573559661	-0.3936383279315738	-0.5259607613144717	-0.5256746013942328	-0.5321033927497092	-0.39847308950987453	-0.44786061762484347	-0.4730681678383108	-0.4937414735732604	-0.47274422580511305	-0.4463738103749128	-0.41283949395854086	-0.4998066074684053	-0.44928734559228295	-0.5314402223887135	-0.42410303700106144	-0.5642450430507349	-0.43751525864919105	-0.40250668785148125	-0.445082400902956	-0.5212138335051382	-0.5701884450389622	-0.402005276471971	-0.49399187853299004	-0.4773409658811401	-0.5368563811766942	-0.4216277064492337	-0.5621062976446966	-0.518507643474744	-0.5189771541722432	-0.42719070256207664	-0.5394816927460231	-0.4749248637335667	-0.4262316222267003	-0.5069390107002869	-0.3873398818544736	-0.4318097631242877	-0.3768229073698304	-0.5123517786738173	-0.532449374132053	-0.43878532395829745	-0.45743371923298454	-0.531190556324973	-0.448797572176165	-0.5577983324282914	-0.4589058920053532	-0.569588640599872	-0.5179016323317109	-0.5578201355482981	-0.5379651918136181	-0.4595514650658678	-0.5584087199065579	-0.40434944765040404	-0.44702983666019064	-0.41644129866311197	-0.4657573058590926	-0.5770750663655159	-0.41557477272897153	-0.5476925376829629	-0.44143056116018636	-0.47381642069107205	-0.47298696287945935	-0.47848446927669785	-0.4438719317617366	-0.4836553159444938	-0.3880464196320424	-0.5424795789150594	-0.3991785867530393	-0.5503783694667425	-0.3894486426775133	-0.46127290537099347	-0.4318958089086551	-0.4775845179431299	-0.4192209983180775	-0.4922434670637536	-0.4900913359706399	-0.44330654295369	-0.49109999897530093	-0.49692724099738456	-0.5189030780604569	-0.3727559912123042	-0.4938981555947066	-0.5567577163721045	-0.5404152936336089	-0.45251653633001	-0.5123546363276086	-0.5162855016470742	-0.49986270935726546	-0.41341372125732617	-0.5832988410039581	-0.5284550619564332	-0.4665458682653996	-0.4022364818953204	-0.5121774709973308	-0.4263216391513676	-0.4872367637057013	-0.4868513888823282	-0.4851546435950141	-0.482065985987225	-0.5407982638030835	-0.4394697052468503	-0.3755987422948873	-0.47749094524930014	-0.46418501300594356	-0.5762173188672715	-0.5439097520400009	-0.515159782250173	-0.4389542491795427	-0.4785922550307184	-0.46714556769486626	-0.47674172739913095	-0.4193528185179295	-0.553409402211785	-0.5054935168429644	-0.46207240994400456	-0.46757841668681316	-0.5237828746226605	-0.44398249216504	-0.5261234295618581	-0.536232553192298	-0.4367555772799542	-0.4404271449267834	-0.5305851934390013	-0.5072048266668445	-0.4399023666275149	-0.4924367290296775	-0.38637517053096987	-0.4789708394607093	-0.42355022552836924	-0.5352220991135475	-0.37785646037781095	-0.47148037297679946	-0.41018945601348794	-0.4997742770980768	-0.48981350195457357	-0.3922824636507873	-0.49783101882209196	-0.5346427581389368	-0.38480067338705615	-0.5036939238519964	-0.5308565150042144	-0.5570631623303659	-0.46473566065093036	-0.5421448357424326	-0.52666120837906	-0.4122009932602186	-0.3966661228350272	-0.40340303604448463	-0.4633671771900472	-0.5441667547349123	-0.5503844922495384	-0.4945517780840876	-0.31183138933374516	-0.44899612955818075	-0.5316389353422872	-0.37266007383685823	-0.5150028121740622	-0.5083414089663449
-0.814340424378694	-0.7209766294526772	-0.7916035045404701	-0.9928156189176327	-0.9506947079368382	-1.044642592428418	-0.7238959788481846	-0.8715362431506946	-0.7314134166997159	-0.614022615263412	-0.6971080695972405	-0.7495100376890225	-0.9445204083490306	-0.9362203889497995	-0.8999577382926098	-0.8111602711827477	-0.7249741334581068	-0.65040371934166	-0.6935448513652411	-0.9577064996076317	-0.62194446105496	-0.8315961367411542	-0.8565151618600968	-0.7975731262144614	-0.8836990220581243	-0.7129656895780359	-0.6174988091467642	-0.6415442386729628	-0.5415797608439431	-0.9793053214787966	-0.6683750324260136	-0.7402333292074794	-0.6076964222644452	-0.7029042846842568	-0.7938075772396056	-0.6793367429492185	-0.791103430193699	-0.7455783518029349	-0.938223354399421	-0.9754596831194293	-1.0265917661468493	-0.6726105758125942	-0.742586197531636	-0.8683657754590316	-0.696871129530564	-0.7650646579601099	-0.7308251110386544	-0.6542680567134378	-0.7587374209448461	-0.7645105037895541	-0.8981630264976181	-0.6215541489115017	-0.7197697404867562	-0.7630761362482574	-0.6512774762617288	-0.7061370967905539	-0.8603165264796614	-0.8441039558946093	-0.8807513002794476	-0.7707858881459362	-0.7347866411045778	-0.7385641157995841	-1.0091333536262466	-1.0438154325828162	-1.0071777644561397	-0.7619508788280245	-0.6890766597469078	-0.797285183355537	-0.711275989109263	-0.7659653810432473	-0.7206784801118307	-0.7354924370494658	-0.7558384207546355	-0.9769296564288878	-1.0018293287712698	-0.6651081053557328	-0.9957035766805475	-1.0676219961032696	-1.0045081166221976	-0.7426496077677107	-0.6974828517753433	-0.9427547970880439	-0.7815147881862174	-0.7869150341460325	-0.637312556580341	-0.7783827838459629	-0.9697669582534454	-0.7599744372202034	-0.8535801953244653	-1.0783167409673546	-0.9455531871955685	-0.736859552551881	-0.988580209181283	-0.9985984132309562	-0.621675986822599	-0.8070866849086376	-0.7981474121898928	-0.8285327926186467	-1.0231306955011923	-0.8555949022592546	-0.8468353698975372	-0.6482824222522372	-0.6420044386798223	-0.7393655293215291	-0.7609315466604736	-0.6863807330278135	-0.6694658124676761	-0.6969546661483044	-0.6234440255251655	-0.6094136943580667	-0.7512000860912154	-0.8237110026307786	-1.0003951415540484	-0.869173527915871	-0.717747747125838	-0.7988416680250725	-0.7120527841516147	-0.7156045749665914	-1.0053379931813886	-1.0121575190424068	-1.0662486662225246	-0.6742142050290238	-0.8551920872072676	-0.8222535390779422	-0.7648608429427775	-0.7532293223517659	-0.7408838633389992	-0.7012633775262407	-0.8255769465912455	-0.9349949521560799	-0.9533789909511712	-1.0193142276348515	-0.6999151922380028	-0.7350178355792767	-0.8789090124365446	-0.6532708417317287	-0.6621890139867405	-0.8410415205975548	-0.7070033897713135	-0.8036810803187364	-0.8477869399276986	-0.7054392512444605	-0.6373894858256093	-0.8738091589245437	-0.7424631460857128	-0.6855355520413354	-0.7766210853974147	-0.7212367107526798	-0.6204850807911587	-0.614637554082385	-0.7100007106620254	-0.6610851723417236	-0.737223432783591	-0.7479998682742279	-0.6737240815528333	-0.7648957746565376	-0.6082108244434441	-0.66439147004449	-0.7126041276309615	-0.6257454183491229	-0.7926790595575454	-0.6816040317788796	-0.6956838936492385	-0.7392111984736751	-0.7387801269227294	-0.7262580617315249	-0.8105441974066175	-0.6195113095982178	-0.7212931587321354	-0.7634780068789722	-0.8587208965279103	-0.6990574891519398	-0.678337111809036	-0.8464445328538338	-0.6446747438282372	-0.7495880908503867	-0.6339898923637872	-0.7587303929158072	-0.7973431375478964
0.19892584996290236	0.3405116081732814	0.17007052083115037	0.20072080749372687	0.13351113276433094	0.2236683243766471	0.3254344542089858	0.1624085196236673	0.36505335975415576	0.3515916299699782	0.28591225516720326	0.257030302347739	0.19361078929950892	0.16718722282386797	0.20200504768455974	0.2537907732963698	0.2795917600032153	0.37965054697159634	0.33545877170441235	0.13405136408210327	0.3602058591386497	0.1924099146876997	0.2768300138657587	0.1477367929387933	0.3139382813265426	0.2960009190407659	0.38685743063586436	0.35458647937805254	0.42589258944991465	0.2520382799958757	0.3891881272816963	0.3441589302248331	0.3215362698548771	0.298470430213762	0.27530851930703143	0.27733026275218475	0.2436320738807567	0.270400087883267	0.15867270872396955	0.13404485090944346	0.15088636328874647	0.3247834917648686	0.2552354425507998	0.15541211445737005	0.2564577938535173	0.27867518820905735	0.31759173356390086	0.3542655775933128	0.24753075734792815	0.27928079221159385	0.3213783435647655	0.32418787394291326	0.3237106942254996	0.28329869122736484	0.27949163656475634	0.2727139291896902	0.06474554041354451	0.1554114879818095	0.0618097020476083	0.2880412122925815	0.24005198142451697	0.3427358034694867	0.17102806471117785	0.18762742972500213	0.16366280462372074	0.29354814429394094	0.29936994128792066	0.2605617619707652	0.27131153840641586	0.2666877342348323	0.21643299817065187	0.38393806627031657	0.2817460622586788	0.13087251774504977	0.1510701361969747	0.30699719953103805	0.21823073236303206	0.26937080662981494	0.20553453394868304	0.2558547901865986	0.3155666843237692	0.2522971688134171	0.32663554180248694	0.4837262412505134	0.3529451908164629	0.3539889760592499	0.2524497895664912	0.34883611368906836	0.22352994611697924	0.24508410046082946	0.12082927337964572	0.3092918073137792	0.1447433691508892	0.18531875673204062	0.3301817167610808	0.3387275251514065	0.32747203625020754	0.2655708223431341	0.19497905115448408	0.33224542222210024	0.2996498350004901	0.33018601110191803	0.2545484634733092	0.2565978001187741	0.24085815536263847	0.2753066461761261	0.28794981669543707	0.2504109045369823	0.26098571229288825	0.33987138477048945	0.25850093972886523	0.3773208063538583	0.2207615160287134	0.12089399094234375	0.2675421795480063	0.1861605225435422	0.3068306472596216	0.33104149173677355	0.15139179749304213	0.15306529667104862	0.26731366708354964	0.35549061904172236	0.12291106703299817	0.33012460540932137	0.27204654782532667	0.2468095680209866	0.23944683378061823	0.24062799530432943	0.276111216310573	0.3139902020448416	0.2040044210691624	0.15257816504201321	0.3181958765182874	0.286927149359106	0.2842944184453085	0.34537288678312744	0.2926768818030538	0.2119835017231955	0.31981488968547883	0.11211620494985577	0.2017945477492039	0.29124402507977504	0.32100368328391166	0.24773398236812824	0.07092737106493788	0.37001114604633567	0.09712595713937977	0.3604525923918016	0.3297324838650162	0.34851682082920654	0.2067393552426786	0.38133506474656714	0.2228715786465989	0.4696538255329294	0.2823651967932469	0.3075281437148537	0.34508692915362765	0.3294490579777491	0.27876400866418816	0.3461943873497802	0.38463636752306024	0.23126485099237784	0.30284360031086954	0.30196417950876825	0.29674518574881537	0.2905071679392935	0.1280811748188227	0.3195865596589091	0.3611142640980265	0.2980532284030309	0.2800032649382197	0.29667538383156283	0.14542860930591978	0.06786177360013865	0.2765933847713943	0.31615383722190177	0.343924280956729	0.36480280914578533	0.3024836950084627
-0.27504752739666766	-0.14129844457570878	-0.23258906195948334	0.08920052885910335	0.07490059603788948	0.09052223329948098	0.015719068883820214	0.0753508387445656	0.013926244525403947	0.006895622229018822	-0.010172603168266223	-0.02194560203194601	0.04942823716656655	0.058057671230988345	0.05713765507549831	0.02061884438848166	-0.012090939552690166	-0.04170211862599116	-0.01808685551721352	0.09126066457916135	-0.011014377969411612	0.036718263045542904	0.034100199004684084	-0.24823924855918453	-0.21331782159936763	0.015464907207836942	-0.028556234131775667	0.030280604938199854	0.10050735141138306	-0.025632111764431684	-0.10032390380795124	-0.11771742341847183	-0.036236417524866546	-0.01660705374484371	0.06358124486883773	0.02235981403967824	0.03572246266854967	-0.005420104730435998	0.05807131995402373	0.07894674282601263	0.06691420952144217	0.03808541477696925	-0.00613996792955962	0.05587204639763124	0.06284664229920989	0.03272817508313541	0.05758033277324845	-0.10522677265264627	-0.02893976787690919	0.003462251585759135	-0.2407986233692572	-0.04231528041770309	0.020158581607506637	0.008897398218586122	-0.040783431272982534	0.006196469933635859	0.028552907638206226	-0.006915600794491439	0.059879836731495856	0.008963697325155784	-0.006260959402019636	-0.1337398209203003	0.09465456559840804	0.07990451464159831	0.0912378228201283	-0.026059317809402655	-0.021774115230114438	-0.05587989426447729	-0.03472798388096285	-0.018632387107367337	-0.02253641153073971	-0.1402459061708845	-0.025968462923580862	0.07240352820641074	0.09433949687327045	-0.016568628147824227	0.10527576167387204	0.05216786406602314	0.06437683342644149	-0.011408407495841544	-0.05971197153025615	0.09423817293698647	0.035939527168483004	-0.006993546071769219	-0.023783644197903117	-0.19062126771152585	0.05791879504413186	0.008306321030695271	-0.004973723740257438	0.03526594663706614	0.07525360892905716	1.4225288812591552e-05	0.0876489232025176	0.1058623896988109	-0.03437326859579433	-0.200510653148963	-0.19156142236129364	0.04496171122066703	0.07291041246661259	-0.271192015581962	-0.27106416338871564	-0.08852346553087659	0.044745631854243045	0.0014060640464216706	-0.038174756183504854	-0.02197582922218584	0.028790024758141658	0.004719704888763207	0.038163722182445764	-0.057401717684557874	0.0063471943301244005	0.0019399219156702452	0.08879565144465498	0.052252646749900045	0.010596013875354166	0.048284604696580274	-0.0063698246004461195	-0.14093237536100528	0.08946956824849986	0.08707075973276926	0.04060173593489194	-0.1228400259877639	0.022315607567672854	-0.23845424664313633	0.008724622247911928	-0.024817026789142868	-0.023261855530909592	-0.010195391986501587	-0.003434265316688445	-0.006938389655294738	0.08168291011824458	0.08630957842107737	-0.1461150005982781	0.011495621700026742	-0.27923302989230214	-0.003698567432119035	0.03440519285614603	-0.29417539945782845	-0.16144833853547647	-0.27589084640574346	-0.27888949578348865	-0.0564170798417558	-0.0038607051956067173	-0.2616003565761602	-0.3061414152134554	-0.1297468116752612	-0.24947760156573964	-0.12446858715445445	-0.038864388029610786	-0.04739643218615339	-0.007433388122852783	-0.09527651891940045	-0.21940370551285082	-0.07696383290805968	-0.009489339052645748	-0.0007125094724714509	-0.05185888690900059	0.015979037280408087	0.012353497379430228	-0.05278245466029485	-0.1535330023520157	-0.003076812293885789	0.04946524225739837	-0.014613220133288321	-0.00222030916236432	0.02680472554825572	-0.015281118595983884	0.014976582666460181	-0.16318144037810992	0.0296596693792872	-0.3121071882835378	0.02855243153347753	0.02248444624733789	0.04426218696298906	0.020199781104503725	-0.01150147604645603	0.027760682517811802	0.03473745674489084	-0.2991351830369332
-0.005155744811137397	-0.11220126336190916	0.0011883932172503664	-0.218716062796123	-0.19527518425594026	-0.14772331432359787	-0.15954736546357728	-0.2076082392595736	-0.15502203101597972	-0.16601383543569137	-0.15339249310549952	-0.13134454460004202	-0.20197519021961174	-0.19769288739034407	-0.19039622736679085	-0.16840909516970293	-0.15997086249752818	-0.10356529162955448	-0.16092317946231255	-0.22506077540767794	-0.09265132611378518	-0.23485447099640377	-0.22094497905596866	0.017771280032559816	-0.011521820193343912	-0.17181782329133954	-0.12196124454166597	-0.15157623012878207	-0.15608930348953304	-0.11232430958256791	-0.05807617437571246	-0.09571010028124188	-0.1857289506898958	-0.14887846088254314	-0.17064117013043195	-0.16664880900519113	-0.17760578857279608	-0.13361936698500243	-0.17744728603607995	-0.19976270610156915	-0.17342031035516503	-0.13091640073499666	-0.12392358591664546	-0.1978408989729591	-0.13045117711868115	-0.1245120606089455	-0.07114893392154742	-0.13245670060521783	-0.13029695408443592	-0.12668909608758883	-0.0009679175541538534	-0.17664632799793695	-0.13325370014194388	-0.11430815349072126	-0.20496594752976183	-0.17477167658699683	-0.22354461729753983	-0.18309776302962089	-0.22639627791676142	-0.11489195320092845	-0.1639861506874935	-0.11139885474352292	-0.19947184952263308	-0.16215402387292682	-0.19070451563652396	-0.13265052418595616	-0.2042139433535835	-0.12133271946315835	-0.18497501443939596	-0.1305057461686629	-0.18855688044408914	-0.062323227558388344	-0.1346296405443337	-0.2162453284124864	-0.20074687927085633	-0.22020164614441962	-0.16335480634275673	-0.11054534195736837	-0.1693069056007513	-0.16301879198089225	-0.16502492748016162	-0.15346816207983516	-0.11987293627021604	-0.07881818394060261	-0.1514534954297806	-0.06298324486700578	-0.20089226715059139	-0.11899845351973466	-0.21954800501759125	-0.14252706632568046	-0.22098624261481253	-0.1701630658994906	-0.19818942000451056	-0.17740024244126562	-0.16869559052293026	-0.04900894022204631	-0.06729815968388736	-0.18402523559965983	-0.18637261617348383	-0.06001847805847289	-0.06267711973208268	-0.1796023583882576	-0.22673876103519636	-0.1339724258798143	-0.10894835429325776	-0.1590141526000307	-0.1633275930810399	-0.20084662584708995	-0.20550603020072788	-0.16136743661084257	-0.13467028211346738	-0.07645661657718729	-0.17121621478358978	-0.20566932945702637	-0.17922626682637194	-0.21083050129373254	-0.1666181270562519	-0.08367683826794706	-0.17501528443861003	-0.17731453552176818	-0.11785762903265591	-0.09765754398781333	-0.2177194063539642	-0.030159667033491114	-0.15968104075195366	-0.11962662979253773	-0.1416507125503531	-0.17562266587963415	-0.14414803838419377	0.009642921254873642	-0.18246282710798079	-0.16466579176110552	-0.14204710026269246	-0.13841196418288432	-0.056652319407658414	-0.1378975487728335	-0.23635811104872723	-0.04102165385433132	-0.11290448169653927	0.006429373854019371	-0.03550876633506485	-0.1793457568635914	-0.19030361154559744	-0.023681267565551722	-0.04420075247903585	-0.1256521915890751	-0.04163734976842087	-0.12986099212461766	-0.12226302643866625	-0.14471887016855556	-0.12413234951622612	-0.125034355555316	-0.0927178515902203	-0.05203510000226708	-0.1833472186331131	-0.13875083716972492	-0.1551696794824119	-0.15639139336441277	-0.14920921086219507	-0.16254735257487096	-0.03163867575067285	-0.20009166430976277	-0.13852863754094824	-0.16620570190762773	-0.10804292226849682	-0.14907847059682194	-0.21569652935205974	-0.20398822481944795	-0.08701185278244686	-0.1414330588909034	-0.016726261044663154	-0.14977895675215797	-0.18468691564782752	-0.23593835976622446	-0.19113713675620497	-0.14847038993763956	-0.2210283282313104	-0.121711730859836	-0.09457238901889013
-0.3676272768585738	-0.13954325806071394	-0.3455095653368676	-0.3947113553813427	-0.4773991693704971	-0.34451024618106935	-0.13053694528101595	-0.4708535054809159	-0.12477800582691202	-0.10118086193999572	-0.09005341394628323	-0.09324658541812235	-0.39419270128934003	-0.38578662316296913	-0.38393617060985685	-0.21006854204334252	-0.08949902775095402	-0.029175580480671134	-0.11089951676122974	-0.39742568251334665	-0.009397974678984719	-0.3378318761059078	-0.24465903605123884	-0.38321226327104896	-0.17717546970500425	-0.08433926184162356	-0.06104683075180521	-0.07564008286036543	0.07745835655150356	-0.33823025983455507	-0.04212489454767564	-0.08265497986350819	-0.11258092131192322	-0.0818579415071	-0.20929069263021227	-0.06440504983814076	-0.20355417691762462	-0.10385765809825447	-0.377442712096641	-0.36643550340356185	-0.33969350345731125	-0.019891896184190724	-0.08539289589464925	-0.41118721732961405	-0.08864729089777278	-0.08146018902367601	-0.00904248448290966	-0.10586027736675617	-0.12041443665887809	-0.06967429981430505	-0.16177877883548536	-0.09925272087311195	-0.0670430181495782	-0.08468260704605089	-0.1584010498121312	-0.09756639688543674	-0.28961695238785873	-0.2788694487246081	-0.34817494689374306	-0.07198425831922751	-0.11643586058837603	-0.1303756488244695	-0.36666033338773396	-0.31984454266717793	-0.36385083238427945	-0.06920086471722821	-0.167538770064051	-0.08792718742763626	-0.13738739167725128	-0.10307183396879795	-0.1729466493624101	-0.09346046240192084	-0.0883272909578884	-0.39338996145977045	-0.35750629861183786	-0.20018536432465062	-0.38485761654944983	-0.3104501389170798	-0.341751943463947	-0.11486394721935246	-0.12154139905974949	-0.387498292392891	-0.07020020037347564	-0.04968577729687455	-0.06131285261898868	-0.12924132563129986	-0.3467081839543158	-0.03535148472269016	-0.3264252319341984	-0.3002161854309653	-0.41540852495731473	-0.1971740807151267	-0.4019679950196275	-0.36834417157904237	-0.09399294177972918	-0.15064397392575318	-0.15315771168586684	-0.27374249409657186	-0.36167515645735915	-0.22049375944704241	-0.20198474969660896	-0.1547184443371007	-0.14181429720148847	-0.07674890882324924	-0.09837670228822083	-0.1337689970738808	-0.06493721646576704	-0.15444729054144285	-0.06576563761960426	-0.09185308807445915	-0.057984739734797855	-0.021504374586453642	-0.39229438319789856	-0.38809418720639594	-0.12777820123073552	-0.3129114464866805	-0.1344664123893095	-0.06322218618139626	-0.3457290535390425	-0.34084327454708824	-0.34305163514093473	-0.06100054276720855	-0.4557087915356405	-0.16967089139613734	-0.15524711562985316	-0.11207881197888385	-0.09382195805443712	-0.12111713014082108	-0.17698664818128362	-0.04640934215805036	-0.3386845848877695	-0.34071956967292144	-0.15907303336779316	-0.08728701719792718	-0.229880616118409	-0.05913490095635078	-0.20083748220652226	-0.3612599857929121	-0.12419800771040292	-0.41841391811927386	-0.3431575916312958	-0.16115397836848017	-0.100325194259628	-0.3343525825398923	-0.5345800958837241	-0.10722135587530766	-0.48313730048987424	-0.17411808153580804	-0.06427038601607375	-0.07695654422053776	-0.12020894785019225	-0.13059917354253814	-0.30063580306170806	-0.080916842559756	-0.07975357257244402	-0.07554181027849609	-0.10486312307010805	-0.05054250288054769	-0.06837513569233104	-0.12814425603987983	-0.15000058848755354	-0.11921956313549793	-0.07492333769456987	-0.13014145984812914	-0.05435930970683399	-0.14374136626136985	-0.3437852284114994	-0.13491735752699469	-0.19748019364396074	-0.10092361620786076	-0.31649974028754924	-0.06678861842273527	-0.26348366287827374	-0.4972329484669112	-0.13269302641617425	-0.08554496285260833	-0.11629002515247976	-0.07553674603368178	-0.2757210182391274
0.8918353640675063	0.31328026566764355	0.9204687678767144	0.39957212236286377	0.37611907338502437	0.4081016109341828	0.14927009151411652	0.3360439539065849	0.21578505439105758	0.2508256548907206	0.17913896390676998	0.1657430998720246	0.36232919269492325	0.32328987797010267	0.29100606241307253	0.16856737997282745	0.14287284402051503	0.28102298835850814	0.22375589364388612	0.395694078424527	0.3562107774064941	0.21876029935770003	0.23623617897326793	0.9209062935214144	0.556468133964701	0.17493924754451912	0.3377096475370902	0.27661510064248435	0.2867412696874233	0.25446046116536847	0.35604056489880387	0.3404083304016933	0.28185422534542337	0.2052921262511089	0.16161339804655966	0.17708060032415154	0.13256257810446015	0.1526528797896694	0.30455410788666676	0.368020493760416	0.42353229778160834	0.19590010017224962	0.1478083343068846	0.2883818465144289	0.1458036377262783	0.13589697513043125	0.18388540852639057	0.31514360905757344	0.13305438625275062	0.13529895960848956	0.6476370197856381	0.28343624619190677	0.16580143345901788	0.12145808449548123	0.2083299507438151	0.18216977208786483	0.2772925217247065	0.191632389308969	0.2856081217077814	0.1534091102308424	0.18704827828923679	0.3262362080672203	0.4732548136654553	0.43781000745018267	0.429883857199541	0.17840590916947852	0.20437426772762735	0.16016627357189805	0.18550115109203863	0.15800099538347873	0.13709892811001134	0.35656566878161877	0.17408682181918736	0.4172876431504752	0.4082151748699591	0.2579804277010981	0.4508144118623281	0.4068064604727319	0.33885163002117447	0.19347599697686413	0.26304905555493097	0.37152556637695333	0.16948230224874333	0.3136747909947279	0.2833276344148585	0.3639065995224392	0.30116697007960114	0.1868129441129105	0.20802572619790588	0.41675090408091386	0.3544465242589988	0.10441716380504128	0.43818741918905507	0.4222264573380121	0.30537309734972384	0.4538616463960225	0.36385805882506755	0.24593912952693792	0.41607537592437516	0.5144140737244499	0.502799120244646	0.30733476662886156	0.23209570211967193	0.15002394686661105	0.118157622193244	0.24006390292073224	0.1928715773982842	0.2003538151153339	0.20211620821905574	0.28266471666509585	0.17242577239736354	0.2397943233305365	0.44255986810333825	0.26921025340959354	0.2052680993582155	0.19479367089726152	0.18564387658538645	0.33226865073427797	0.40609613529509675	0.4098959786772474	0.4403046071142451	0.3275751733360554	0.22603934078834736	0.4420364130255467	0.12341143222530107	0.15855931072016408	0.18227767364980774	0.1859563856076848	0.17683083932863664	0.2887258696869204	0.35584588878874124	0.44251490658526926	0.2971776867233061	0.14267127913595684	0.5051968867963748	0.23818724017123544	0.2670931742755149	0.8070748132893916	0.3211630218814678	0.908294265215185	0.8060014211687191	0.2581222363634295	0.2247125267031548	0.7748470867952388	0.967145770373041	0.34485107212300947	0.9626072231307411	0.3416018130000844	0.23905803863377484	0.2723320246107883	0.1112689140851379	0.33973337987472746	0.8355530315200993	0.38547469298308035	0.282811977802512	0.1427003334444166	0.317070812182144	0.19927837521929356	0.1607068540105824	0.33275406929403606	0.5352276373186508	0.19933545105701564	0.14362420799350428	0.21753160561183255	0.17366907065728354	0.15204588913126188	0.1706371700646499	0.3182111595088959	0.46141499200390945	0.1282192324068085	0.607069850385309	0.17052390511407112	0.2147251414036664	0.35671151357477193	0.1924619988304927	0.20096873064831283	0.31027832122324556	0.1814815418466189	0.6228479339992683
0.07562411876301345	0.2081588220793457	0.0713904482865419	0.004759859512036835	0.03239141992265743	-0.015772905151855865	0.21681005921658797	0.05842697577854156	0.22557340043285493	0.23243192146651417	0.21258068840410627	0.17411545546680687	0.04228562842768696	0.03194252665770603	0.06883988568677124	0.16345140863969448	0.16749738663116198	0.19014971369199388	0.20794702650185815	-0.0014737360282005008	0.1648100993487453	0.11362926021160291	0.17957565678805043	0.0795470706685637	0.15143030094864995	0.19782263848667303	0.16996749819201534	0.18794552745603316	0.13334437788970444	0.08126380464978167	0.1853903234627446	0.17951783032288354	0.21104965955015034	0.20312826092667013	0.19063056557305724	0.19852701151284347	0.17478211584187014	0.17374765374395254	0.04253113412146453	-0.007780269337806733	-0.012344525586862387	0.19333098742369736	0.17234441333139228	0.07412963994118893	0.24047444889361325	0.22570411862313308	0.2178299550309139	0.20620530684801977	0.16331545123568122	0.1816821753458965	0.1343547042291422	0.20166233880306705	0.17211679681175543	0.1816611434452824	0.23675323836233242	0.18335712213654481	0.0197719630484271	0.10625437788823605	0.011188876851242646	0.19460301849550465	0.19085222845671482	0.2101803793704576	0.008400788924309621	-0.024795604638840618	0.002672866051915357	0.17903022619095915	0.21844490063771088	0.14529489365557025	0.21877638262684862	0.1705818770285571	0.17726186669382446	0.20299549361011748	0.18117499541123577	0.002526462793584483	-0.016448742583740128	0.1922849992591296	0.023649758602685977	-0.013268362967581049	0.0027510786193111203	0.19063987774735983	0.21433900032756079	0.08065029559491882	0.21920263662289774	0.18851258140107724	0.18688876680140698	0.2093631252748671	0.048712290529798086	0.17764063332706104	0.1267167890334318	-0.02361009578495732	0.007789384889676898	0.15509752388367326	0.010427891025771241	-0.0008037908279315831	0.18060299883466294	0.18927234572680712	0.22910037442648423	0.15660456018362473	-0.00929695208189757	0.18435762036513087	0.21920659202346443	0.20581482175654997	0.21196938498854132	0.17611577355733113	0.14705775161759194	0.20887121940303677	0.20033884982982011	0.1995003899162532	0.2022074955969933	0.1830453642111088	0.18273170374975192	0.15965288564786345	0.020854031892022173	0.0597981318239556	0.2031816968716547	0.12376269297947118	0.19071955616150035	0.21809915686733936	-0.015704026947449434	-0.020826579882439633	0.012053282935840903	0.20428947521285823	0.06788134861325618	0.19216223032810525	0.1866896845268448	0.16123229681781215	0.17864264508320046	0.21051050447275563	0.16502521795375485	0.11389392311730989	0.04116184563280845	-0.002233745821369204	0.23172649992296304	0.17352015555667044	0.1850708178668014	0.2144938364730581	0.15118536675321023	0.09397841377872562	0.2303513158172869	0.11558509438426529	0.11374545515469292	0.21029308783823536	0.212002656070916	0.10068447606505554	0.1309633772636392	0.2183578376350137	0.0868613665784615	0.20637049162888432	0.24097999123957523	0.20311541377212117	0.16983279316303845	0.1932405350890583	0.08419982833553952	0.13954821737299222	0.2232255967077254	0.16993281456068515	0.1732288158937051	0.23014930527724378	0.1878635418188966	0.19737015656686208	0.1745415854518893	0.197530650926513	0.18110232722633374	0.1877774772859685	0.13107286815725105	0.15981714138765865	0.11291889254005877	0.21012744295004696	0.16910488798361156	0.2007537475737129	0.14722765562971762	0.1934907630688734	0.1696710865924484	0.051383123657069874	0.2150591022406766	0.17769608818988591	0.19789252463217466	0.17238507910604944	0.1284111107946278
0.3296194225533853	0.1889593072820511	0.3804784509640473	0.18450933074323175	0.14662089390756033	0.24493779309621322	0.2693447660519258	0.15633075527340368	0.2729540988693664	0.19399391115459955	0.27289631562130157	0.30050891350748765	0.16802888527540272	0.16845905470760278	0.15698923486811217	0.25356902564104655	0.3074159881792998	0.23791036690743086	0.2468890819483595	0.1722258628696105	0.21864159495433758	0.2043237159692412	0.2475672021012493	0.3712219670399678	0.25582543256250584	0.31265392975346373	0.1842963695259519	0.215118748913163	0.3094463194134126	0.22703650344035614	0.22735362467421102	0.2817223838703432	0.21765197599720157	0.2997312478288422	0.2699467967218858	0.31639722979273477	0.2575470647071745	0.29350613402409653	0.1803744877713619	0.1865597254857408	0.2204029067414691	0.2943479315749081	0.3071431281761495	0.1526939940747453	0.3290498513652934	0.33485519441885747	0.3652839935646607	0.19108914034660032	0.2898355286445289	0.3247655840063335	0.2791360607724073	0.23295940396174233	0.28922593595995694	0.30291567666025737	0.2666754628065099	0.28608970696864267	0.20069081640336592	0.24177541680931028	0.18187178412984897	0.3299444277182193	0.2951861494147072	0.23504004209343685	0.19508713029893035	0.24133716714335918	0.2029123766710907	0.3254934383313489	0.256237926512626	0.335025605540501	0.274988990899659	0.2999346777535801	0.2672119626605722	0.21415823141745646	0.31520495179771835	0.17758122486411546	0.19548884366310693	0.20879637263331294	0.1562849051192187	0.24045673577746465	0.2090136249068336	0.281521371045114	0.27113243300553147	0.15776383993573634	0.33074134037159975	0.2880311136168222	0.24551553667750456	0.17968537706455656	0.18769147804899328	0.3305783699895971	0.20930588217808202	0.2814949431617815	0.16748270629395867	0.2607973196856333	0.16472710222989057	0.1654597921876217	0.21751578062865726	0.21598245138637237	0.18802451283528546	0.2399346093250002	0.20966328732020942	0.16549212340155456	0.20168912037711131	0.19886986675663157	0.26232289244918183	0.31901405023574536	0.2822323010147396	0.2210227234234399	0.28628184888822894	0.26850070488902966	0.30239225044493223	0.20774356079746245	0.34165554944009524	0.3468907915489665	0.16466676515364148	0.16321399168768824	0.2768761244378397	0.22982341478058319	0.246444652925197	0.2715739516041564	0.20566077175382796	0.21575388226779887	0.226765501575581	0.2468946559477808	0.15491509128098946	0.17519119067200767	0.30227513213503865	0.27445074990858687	0.30156237404021813	0.2924077470927404	0.26622046037197683	0.30055230232476904	0.2125429188953841	0.2225660367671469	0.17989604020441002	0.302282217924993	0.19502303615165353	0.2514808495323242	0.2037168172659907	0.29643657993764017	0.2232748864911524	0.3722016548091933	0.3094090386752031	0.24552917843995548	0.25465672085999125	0.2924443964393364	0.39933008033587114	0.21417096431490312	0.4095333324589109	0.18815664335339752	0.18927652524128555	0.22993792917211595	0.27055735423883476	0.14558611747108424	0.35301863242773135	0.16648156863833583	0.3321414381437239	0.3109839282419533	0.224536304801526	0.28888290987773196	0.3164384364303823	0.20564032542949653	0.275723410431128	0.3231625014343521	0.2848486728621201	0.3060524392069517	0.31104038598036265	0.23708069512565555	0.21100541147957266	0.22206573135433985	0.2035587966140579	0.30894531737664144	0.15037476607683098	0.30116116103005086	0.2769986753015372	0.14949760542456317	0.236171193236381	0.30434719140457234	0.2875142374933848	0.28687209279158765	0.19141677157726528
-0.6886261609070885	-0.40691997676886343	-0.6934048008216793	-0.39036700376650457	-0.3534797820161945	-0.41138472169234164	-0.22368435907494771	-0.32974528419875837	-0.25597761031678523	-0.2549450190327911	-0.2365103391748098	-0.2548323398347996	-0.3720963112227234	-0.34749905557578786	-0.32746075818968223	-0.34105073576925365	-0.2849083559208279	-0.33816364709025737	-0.29888752335217295	-0.3759462267955381	-0.3229960314210373	-0.36266387364191627	-0.3833945179435576	-0.6916803298913115	-0.5615753437025353	-0.26094943614162747	-0.3807240381536429	-0.25664645190581903	-0.2832776820678008	-0.37805364227941235	-0.44248697483999755	-0.5049850292896803	-0.3305442012949462	-0.27851980023115197	-0.32375191847184986	-0.22919528687383436	-0.3357991646644447	-0.22778650365273223	-0.34787917623355163	-0.363362493902074	-0.4090225016584012	-0.2214591095427937	-0.2327668496863472	-0.3253401797370205	-0.27287790526499467	-0.35228276580681334	-0.2931740411517779	-0.3814917920335759	-0.2380706850018242	-0.3248599595394256	-0.6252645713344918	-0.3342381206978872	-0.22521284559129928	-0.32932711821089594	-0.299872432099595	-0.2773807241384283	-0.3667939162248861	-0.34551597737880624	-0.35690864508808284	-0.292752664987444	-0.24920656515081505	-0.4507870937488207	-0.4265683498315391	-0.438239660714031	-0.4113220196062746	-0.30353271689499395	-0.2510352815152067	-0.3512660599390306	-0.2493101138671256	-0.29015678182001814	-0.22846268956556115	-0.44936120749871883	-0.2778860366450507	-0.39538723785397817	-0.39579368663027964	-0.23936847136363093	-0.40050085602739427	-0.4334674735872745	-0.3621837295463272	-0.2511358132815416	-0.37059508270000124	-0.35336452186157147	-0.3727608497588774	-0.41252182526519077	-0.34826605550526485	-0.40752809064757584	-0.3580766225022894	-0.2869128424621455	-0.37880762508743954	-0.4420498584028347	-0.36142111446848757	-0.2869605857102213	-0.4020786100000814	-0.39998023334072624	-0.347283647111344	-0.49388507182892727	-0.4346752078628908	-0.3219063553410285	-0.42305498583918516	-0.5000491971014204	-0.5110017510771718	-0.3736963301736029	-0.19198593100361905	-0.25412644805338624	-0.25857312100870533	-0.25528652722347855	-0.22382210037457592	-0.2150205206412682	-0.25481829076743545	-0.3464896771190302	-0.2759033718272199	-0.343700084336294	-0.405765904807813	-0.33664739692315465	-0.23315367235636367	-0.31434949727723027	-0.23122285077987137	-0.443754166428132	-0.4014889433873791	-0.4036663916600503	-0.4478687146668578	-0.4428391762914152	-0.3330266019925963	-0.4652665829240219	-0.3404638401317259	-0.2247526653532525	-0.2597410458915872	-0.2512098310295515	-0.36391347926505574	-0.385419695194857	-0.3686247060303836	-0.4168453959506732	-0.36148103270103643	-0.2240567613616754	-0.49924032124525536	-0.28760562162938175	-0.16416925570999424	-0.6578249674244285	-0.41358942518546316	-0.7170496713461771	-0.6569460690753277	-0.32094923843876966	-0.27538978307244966	-0.6618770482688956	-0.7583981541544882	-0.3994424684480448	-0.7593570632656057	-0.4459598643911032	-0.1993272822608277	-0.34330520087541766	-0.201070788022444	-0.3848899088208496	-0.6685099299386563	-0.45731633668101507	-0.3211611631471697	-0.35979874777880805	-0.3910106076041065	-0.22917587712055604	-0.24674300629638635	-0.37972253919972304	-0.5860795467033191	-0.2973348096635811	-0.1680705648391025	-0.30565438077336626	-0.3112858716396404	-0.19177197606898802	-0.35091220612013335	-0.32892034809803167	-0.5115928886507406	-0.3530621276134032	-0.5273699276436137	-0.21879219468588987	-0.24121693022113144	-0.32529339896429477	-0.19470640690803392	-0.301953957395383	-0.3887432633714441	-0.25960274013210505	-0.5198706678718097
-0.697260600506613	-0.642134506700302	-0.730940734112609	-0.5914363799020682	-0.5811737990769624	-0.612206005456638	-0.5941708391995634	-0.5534866183131643	-0.614736573879849	-0.5913358052269344	-0.57673857078587	-0.5099230712718622	-0.6005695399570031	-0.5994587292034869	-0.559246769090456	-0.5374956566963139	-0.5621256017559632	-0.5905126763678702	-0.5874095231143667	-0.6206649871155366	-0.46657880833401083	-0.5608298706994405	-0.5553247407285663	-0.7374001367407398	-0.6738430819841632	-0.5763976160539449	-0.5455192133032304	-0.527011886523465	-0.47304792661469514	-0.5670875271410848	-0.6101822721321428	-0.6598640483812055	-0.6001228130080211	-0.5729431652525346	-0.5422473276974469	-0.5482230230939598	-0.5663693120820258	-0.5284678153672953	-0.5782734344509878	-0.6304680256345824	-0.66099506174178	-0.5286564296718254	-0.5070586214726931	-0.5688552339728203	-0.5189778720811228	-0.5523202990640783	-0.5315964693953988	-0.6323157349133638	-0.5101393699716715	-0.5422142630361371	-0.6676346006090749	-0.5862057364403844	-0.5427464278354289	-0.5063150622561702	-0.6348079419207909	-0.5572060686640046	-0.6381469068413289	-0.5667664076568499	-0.6248477371903055	-0.5389745135886407	-0.5545205545926828	-0.6433927332372723	-0.6294022735555677	-0.6445032819449369	-0.6254932970884013	-0.5771812918286171	-0.6191985578320705	-0.566278349469265	-0.5993042462227677	-0.5541282308543377	-0.530376037775383	-0.6478517325804082	-0.5603653205237938	-0.639045981022646	-0.6337578874188805	-0.5840542529740415	-0.5766208037655408	-0.6102501974988157	-0.6219117851581658	-0.5506690401410888	-0.6258097025857567	-0.5183414603040076	-0.5604751597480362	-0.6054922910955525	-0.5832567924612276	-0.6583315006600444	-0.5850341760823926	-0.5703163272208878	-0.5567766984964885	-0.6636951465106277	-0.6164132638076284	-0.48801821421733665	-0.6186971959778117	-0.5983459828017611	-0.548760235508534	-0.6801704954345499	-0.6529266288120669	-0.5205699804177227	-0.6349341468653825	-0.6758862770265589	-0.7115250464583315	-0.6098533341155414	-0.5557121879353281	-0.5186452463706499	-0.4964163058123449	-0.5488992934292635	-0.5412601540784421	-0.5540797342802368	-0.5443413626404037	-0.5737926192616788	-0.559041195026296	-0.5368776353047029	-0.6005673136259689	-0.5818967100518858	-0.5678463788548063	-0.5459372381113285	-0.5658377423327946	-0.632401867088402	-0.6415547242339266	-0.6522612929580609	-0.6211642057291232	-0.6504631509286444	-0.5818148970810447	-0.639773295032312	-0.5176587789287062	-0.4962030560941264	-0.5051683625119223	-0.5478167870341848	-0.5325650376672525	-0.46100340068083884	-0.5770978438056197	-0.6347710294425329	-0.6529908589668733	-0.5227172252750766	-0.6574371976924954	-0.5876137573668793	-0.5601358460412614	-0.6775394321033631	-0.6976318540607399	-0.7796438039207844	-0.7233326524475335	-0.5972435347878124	-0.5933524586538691	-0.6975871943511874	-0.8361099206138406	-0.6825944448101269	-0.8067050148665909	-0.6523106489080542	-0.5651538005111372	-0.5921707480127508	-0.4649680083702301	-0.5942057260045381	-0.7568357025398629	-0.5859027689958303	-0.5781308968991633	-0.5462756280889017	-0.5776743607190494	-0.6009288197123069	-0.551596867435159	-0.5810519282157389	-0.6807191146109873	-0.5810485790144818	-0.5014797316442223	-0.5953160150886428	-0.5153936653360869	-0.5134536812095125	-0.5553851839463874	-0.5458346406980125	-0.651610018698883	-0.5330356411112228	-0.5855434715633547	-0.5499636202512035	-0.49302440874179115	-0.5960935283656755	-0.5634656827269017	-0.586521510842855	-0.5961741671353115	-0.5085518551999149	-0.6755276060772968
0.2765301307157	0.19159988061840538	0.2529328059744368	0.5545223120672002	0.5681611384301359	0.5133350504959848	0.18638648647609893	0.49978155361698523	0.19966304226173492	0.13569789987539166	0.22078131208096308	0.2972616533779052	0.5316073147683731	0.5427301227470454	0.48464254052526945	0.31020657314198097	0.2560569649573047	0.1551844159983557	0.2243963660915534	0.5886971466448145	0.1985497233918912	0.4107950011119084	0.3077240150869216	0.2593116627865037	0.18915005035979102	0.21234639210528103	0.15391568937309233	0.2149677479583364	0.15237320604980226	0.44709845856300834	0.12572732782212792	0.1810852970203185	0.14825040279222929	0.23904474512834153	0.2911793615801859	0.25362287573411313	0.29394193753782843	0.25990868190746874	0.5091748968830367	0.5768015458667006	0.5695120847967043	0.2114092262211642	0.2594022333159414	0.49103981724003254	0.20211933593112746	0.20026373767345862	0.16572303476734135	0.13055942013388744	0.27328871033711744	0.21525889575666546	0.22152764084257112	0.17741065820608426	0.23179649682177253	0.2243728212951647	0.20393330282895542	0.24072130083058924	0.4877239759137768	0.39456758266367165	0.5026913852451721	0.2332265646613828	0.26575042826288947	0.208590329653554	0.5629735813461647	0.5315719857792811	0.5695959435733174	0.24632524499077577	0.25952847601404033	0.2427612486560304	0.26943041102800125	0.2443634411418349	0.2985704249161858	0.14683683435752717	0.2656643399156142	0.583448287112065	0.5702907455003454	0.2849180306141461	0.5508120546424912	0.47465661269595405	0.5460721220962739	0.257840243050981	0.20067459479189903	0.49134887814215467	0.1916833981057759	0.17368725788464717	0.16650505608082472	0.1844996812084033	0.4795920756783212	0.21809693645378195	0.3962716216240284	0.49933308387050346	0.5597584492825788	0.28911002562239296	0.5738094382237878	0.5499751324990965	0.19062723305926466	0.1492908500938363	0.20235916207897142	0.36139981525326476	0.5486461200263218	0.2026620786303519	0.1795852081328964	0.2059075366337456	0.25104914873089035	0.25552794971875203	0.26240171952508545	0.2041645912599197	0.2297338633596219	0.2847866036905098	0.22935426816980156	0.188079499518469	0.22121039246048685	0.2363998603541665	0.5711015727908859	0.4838045863604989	0.23373288087315447	0.4101360787708249	0.27687808634909233	0.20247350247151646	0.5580663643900402	0.5607543282683584	0.5098622661796748	0.15499930792826022	0.4647634233603666	0.20249904694185536	0.2616978175505639	0.2855819631007007	0.2987914960430738	0.25740450996567976	0.29937070070875177	0.20920390970366456	0.5009238891583051	0.5440620179767838	0.20152078471662027	0.2500796879652558	0.23601199397069816	0.1700842512443776	0.3372463524284445	0.2998768741015916	0.13090574508510616	0.262466709741588	0.2589264661304308	0.21031425327009157	0.21846120426709648	0.25787246511361994	0.2702929709352321	0.1016237861226754	0.24869991642086955	0.15056433935296165	0.16827446735053847	0.1710541570562933	0.27872389764420413	0.15891130619480118	0.21373877963498603	0.16085913876004015	0.19499997594985452	0.21322842822886295	0.13655522738686257	0.19452516954938473	0.24300067257296767	0.14385296633284672	0.12519378082191127	0.19373717146729735	0.23803944813126965	0.29506231697241597	0.2430992781628295	0.26818448734626044	0.4234828536331168	0.1761031469214081	0.1392240417817175	0.21543343411900764	0.28917009275960387	0.22795922883578387	0.3368645746872514	0.5168973524528057	0.2157244457452428	0.20795978609821805	0.18686240832828374	0.24588264643867427	0.22352184614700096
-0.18031600193191138	-0.6058871570006215	-0.24855374430429766	-0.5088986422563142	-0.5354256358950824	-0.46611578724766156	-0.7554788270177679	-0.583200029326195	-0.7059621274458445	-0.7450716417500154	-0.7475719269211969	-0.7219180892822701	-0.5308685725332374	-0.5342280168916174	-0.5643858876415253	-0.6292629296399772	-0.7272125455669523	-0.7081341355079334	-0.7117121832773721	-0.5288241656407748	-0.7699952996971349	-0.604173987757908	-0.5806189437211544	-0.2266526850301217	-0.3295767493612892	-0.7530047248768468	-0.7123669843472187	-0.7509761795509458	-0.7761023420096678	-0.4992516468747579	-0.6358077957917345	-0.5904663562987882	-0.7566453079141915	-0.7505863196420206	-0.6941313927482071	-0.7852351839822171	-0.651986431419056	-0.7381255242717144	-0.5564836063946732	-0.517264918133933	-0.4735452206989544	-0.7573185653176961	-0.7467178485176469	-0.5754970185026484	-0.7733512449879596	-0.6972296690710096	-0.7354829772029723	-0.6642793430394522	-0.7106938676789156	-0.680578462897768	-0.2487688145781281	-0.755799387978751	-0.7460545973202604	-0.6793163915756939	-0.7468834557393649	-0.7528411308671861	-0.5555574142126891	-0.5875684300065769	-0.5667488570098405	-0.6669933987853924	-0.7237620678389423	-0.6166416395261716	-0.4997619044525046	-0.4709294335227721	-0.5094023474469798	-0.6871766995088822	-0.7061305329752872	-0.6637101665171561	-0.7017076490177696	-0.7248855644209005	-0.7506524600047484	-0.5817242735402759	-0.707696582136307	-0.5049924279599198	-0.5059786327063001	-0.7132033543369816	-0.5235310538614599	-0.4451799907290866	-0.4946142310000679	-0.7318689724451846	-0.7049786347516591	-0.5828756130336759	-0.6695556811661305	-0.6057592671604572	-0.7376610993998642	-0.4851036975569423	-0.5065200008179627	-0.6868426397068985	-0.5619436496256154	-0.4258421167063507	-0.5296899163637954	-0.7301739468023976	-0.5132065292932875	-0.5177966950235786	-0.7662498033611684	-0.43588408788274147	-0.5306842282000293	-0.6346676345316833	-0.48958464347497616	-0.29772556699314406	-0.3556350504984848	-0.6664339669959616	-0.8035933167890472	-0.7512801297242844	-0.6831553273710114	-0.7622912315115964	-0.791020241509985	-0.7611266155969703	-0.8325897888585287	-0.7370305361224629	-0.7597428400887207	-0.6214317986448179	-0.5115976993102136	-0.5749815585050224	-0.7449145559684069	-0.6496240989729039	-0.7115638160109286	-0.6378112696288096	-0.4972550590066936	-0.489272965004168	-0.4482689466994591	-0.6379550873276538	-0.5625958435281004	-0.41551505597099936	-0.6917699901312653	-0.7354784777754741	-0.7352784380275657	-0.7817870525706605	-0.5970106773132511	-0.5279811683391002	-0.5598047866928304	-0.49077694557796187	-0.5928903240623244	-0.7388579689512444	-0.30972034947253474	-0.7557963897186666	-0.7323239510741866	-0.14290847688088598	-0.5964242878085422	-0.21007216617754665	-0.1829420001232741	-0.7202741236042458	-0.7484146134731726	-0.17216332106160398	-0.11040918468013933	-0.5846687101135513	-0.14311791786140893	-0.606027941201905	-0.7456139528816368	-0.7337775912637547	-0.748250366380488	-0.6383372079305398	-0.26475726606702105	-0.509053824394164	-0.8034007154476048	-0.6682074731791745	-0.7570483618428576	-0.7503864113075802	-0.7572454670116529	-0.7379509179334132	-0.45344687400276124	-0.817496987350453	-0.8053621515805576	-0.6788824484930671	-0.7184859601246232	-0.7793695331268042	-0.5953686171075345	-0.7855691337536861	-0.5226159031073405	-0.6968795307353177	-0.26324270381508796	-0.7791071378979506	-0.7666645982022249	-0.5518095546759336	-0.7982596908650317	-0.7009539806799334	-0.7574751507578965	-0.7106009421077388	-0.20518457026984877
0.5096386922614033	0.648932203967574	0.5071730449650531	0.6112099073244306	0.5516938498673383	0.6022427921270957	0.649081634567397	0.48569760645781623	0.5958433983551175	0.6380429325793311	0.6735175158481989	0.6642824892273735	0.5314610275256703	0.5707126294913712	0.5409540875812905	0.6226852789361513	0.7123515508406189	0.7213938406171102	0.6531008393428124	0.5568787134206103	0.7216291506964594	0.573698958910513	0.649992845442156	0.47373889914922995	0.594559476662525	0.658145633610997	0.6827537103121583	0.6408691399790647	0.7907755289206113	0.6597842481750857	0.7010259127466716	0.7131215189084457	0.6480174756447807	0.6774920840623577	0.6466169337146452	0.656835222412162	0.6405792225705267	0.6603761774896304	0.60321488768482	0.6110650585036704	0.6073964686290596	0.6790607968568503	0.6787118698684602	0.5027037572258055	0.6059060407736548	0.6337376314736637	0.6324612816782849	0.6515928023012716	0.6718744131293523	0.6941278486264584	0.6119759940259822	0.6696624054379047	0.6976040531054432	0.6879027127065238	0.593973045025537	0.6842933059406344	0.4986595546747372	0.5894505715147641	0.5274290588166792	0.6154755931491521	0.5989141865866628	0.6380088735809457	0.5404174661325708	0.55341154480788	0.5742442328606464	0.6765511668145521	0.5814040801085858	0.7283669735565499	0.6299649430979641	0.7007687808176228	0.6374505322317227	0.6466951456690102	0.6666681695536454	0.5505086575503514	0.5524360077014716	0.5630279790837303	0.5148027101599225	0.5555188376871709	0.6472498249843892	0.6522432192682939	0.6342258162815678	0.550234816851205	0.6491398747251322	0.650110655366171	0.7033868326307751	0.6320006145602476	0.6513787671105542	0.6852159574572481	0.571610412949255	0.5864046592816913	0.5648585871885495	0.6822416388768593	0.5392178243984894	0.5262382852128569	0.6915074631866579	0.633306712992092	0.5809602559655894	0.5910693810115663	0.5354563197037482	0.5585453416194378	0.5562320847464708	0.5993155974308771	0.5819770688957554	0.6719486512988564	0.7218477375181094	0.6381126187882231	0.670583324912501	0.6034405062679787	0.7028350746996321	0.70808038390089	0.6612841400089488	0.6574060297486461	0.5073456097733702	0.5190958947494397	0.5973296926094442	0.6108369078489796	0.6368286853839012	0.6557923274505151	0.5691787355926196	0.5720281289636949	0.5533458178734311	0.6750414485837865	0.5423507318351811	0.6005328243876306	0.6454237556946749	0.6945917307653087	0.6567777654020757	0.6565841138047657	0.6296825881203129	0.713011278150092	0.6017854996802183	0.600916307235138	0.5861259528635804	0.6590152610476631	0.5710236351810423	0.6591881583669096	0.5279703389889775	0.5393295565733994	0.6248069712138749	0.4266955336081575	0.5225633842499666	0.6275932268056594	0.6241087789680435	0.5396076864116873	0.3812003368056016	0.6237670109874828	0.3939523738563372	0.5700252147808093	0.7055974237423662	0.6599621389450854	0.661286809948148	0.6192963393769303	0.5672236261749339	0.7172405362628279	0.6440502042059008	0.7213496948444155	0.6848139836159701	0.6390508837912562	0.6639376514617323	0.6206801976892147	0.48834296212332196	0.7116596145957061	0.6813392432856804	0.5503592654304401	0.7761649695173877	0.6919306723188021	0.5605875514956471	0.5878048661534873	0.5549966073078055	0.6788835564825362	0.5085471903208616	0.6776640487466434	0.5240991895179046	0.4364511177405306	0.6224857943824454	0.6980812473437887	0.5751037674606634	0.682623769171524	0.5938876231886053
0.2885309769027975	0.21298662038014962	0.33245977671997873	-0.19518116555059306	-0.17745367697944164	-0.2132566707561208	0.13926965220904042	-0.18660033946745994	0.09643697166190678	0.1917741982234126	0.1373937727351213	0.06871726934672694	-0.19654941456202144	-0.19068677367704862	-0.19504529684474492	-0.04247423580776184	0.07553667610060036	0.1599564085861578	0.132399341355542	-0.20568266970759144	0.16021205796967805	-0.09529787123049308	-0.05022953130409846	0.3366357250548898	0.2373392831357491	0.07312839947193267	0.14494350589548466	0.11175599394514898	0.16536526137168114	-0.11859199697118952	0.2063247009265029	0.16464134111123682	0.21163567092976143	0.13776913505790586	0.024579570795442485	0.09616849197186379	0.0014296117614941983	0.058901679578112306	-0.12995617646022098	-0.16515778554448998	-0.17135980408331133	0.09079513850218715	0.07393391005357487	-0.18220219975955296	0.04961382942968243	0.031474252612398085	-0.014803635144689353	0.2034005397477067	0.06275142970301852	0.06340750134831478	0.22602575541063244	0.20013642545190052	0.06572831126468136	0.0770990463935311	0.20711304548624773	0.09633582974745628	-0.21535898905331133	-0.0906128220813178	-0.17369617730533957	0.020743530090043566	0.052347034707433834	0.1768429573447149	-0.18272335222946806	-0.20843359449923318	-0.20163854926771296	0.03129549953412239	0.12171361471615455	0.038855553526740624	0.09894483024956205	0.077079889058642	0.09298910729876228	0.1977072135970667	0.04646194264728047	-0.18777669808989322	-0.22393403364359568	0.12058890009992222	-0.25880177641318136	-0.2623256979475179	-0.18157282422536059	0.06881859508005199	0.1584723655867363	-0.18151357104408775	0.01659302882357555	0.0165928921524848	0.16250628361109315	0.20919563599690832	-0.16882166014800562	0.02439396924272552	-0.12684939316898422	-0.22133797308018613	-0.17276658074619886	0.09868668838410737	-0.18799259142162736	-0.22810791732367167	0.18945161309703853	0.2541452209805608	0.20250742893720708	-0.08557849633515985	-0.2364127271629429	0.19273364118298628	0.23225551269385308	0.1551599401259214	0.11788428655349736	0.0747444913163644	0.08263031404073375	0.17992849819797824	0.11349006295429223	0.09267481815444381	0.14945648654110957	0.20234911068465447	0.060740345128650286	-0.03176722800978861	-0.272830255878312	-0.1626707372663395	0.07396113918372492	-0.028233997872326444	0.09314437970077254	0.18834581153469324	-0.18154333463408154	-0.18369006728853146	-0.2582757387241441	0.2017550750990504	-0.11627978907131062	0.2053411597367763	0.04472349698281092	0.06818777918408712	0.07516751371187413	0.14383334325300726	-0.04694850236494305	-0.07623698982875687	-0.14892143172916383	-0.15569813780292202	0.1860073082012292	0.07140735381363468	0.2181332651131817	0.16431007878035475	0.054962059147709214	0.2621887125087523	0.23881554641143096	0.3300437851668462	0.27775997645419126	0.17177988706139227	0.14992303913190336	0.2656588733737836	0.365211704758195	0.21803511219476251	0.3661354922952398	0.17513177174640637	0.23753356002771603	0.18840568862512047	0.1021663973122016	0.15946341230178426	0.30688165968945524	0.13915853885706947	0.16598899884561694	0.06955827781618573	0.223588585887478	0.12536057296109898	0.07478198209360797	0.20312068723244123	0.15381467902109308	0.1569284219340604	0.10781815589214727	0.04503175296818343	0.07343910353118313	0.09320236070525283	-0.07045853342802759	0.17323955517177328	0.18461240435010304	0.06236526904826023	0.17634889105627344	0.0857421895759849	0.05585545431801847	-0.19355546861605857	0.1848858889696182	0.0515537418781636	0.1112256127192988	0.0625664295356985	0.24808613963852413
-0.25635014458644856	-0.05216236422419643	-0.2586612688444847	0.04961439778047638	0.015423395467409257	0.025265065570643036	-0.024883293148670355	0.0058088885908111065	-0.015133177692943839	0.02686031423048149	-0.0302523621862483	-0.01006582160132255	0.04405575613354673	0.04311880280148528	0.03640710438801348	0.014152852433184232	-0.0254205709034048	-0.02101429984360223	-0.010741696130773831	0.05530584127038493	0.046688671199964976	0.008761120492739083	0.01960615242777347	-0.267101625607423	-0.14222569555003353	-0.02619809775199125	0.04403734098569398	0.07095927349133588	0.017476663325705216	-0.010674916522420724	-0.052981296636533975	-0.08902339179017246	-0.022209585443280694	-0.05168523705702968	0.012646317632709292	-0.014235444154652027	0.007554161102252183	-0.020326910209619325	0.01597537503217461	0.0493380348351454	0.028888152333067962	0.026934408239468383	-0.02048537174846335	0.022237867761174673	0.029523394791743568	0.005062046629545319	-0.01374332225660127	-0.033654010137449314	-0.020080091756836588	-0.029534066952262933	-0.14413943163850004	-0.024684008203343683	0.0077508649844342525	0.004854092641399715	-0.06295228676420397	-0.01090834315268599	0.024442486130833663	-0.0033923167007601784	0.021984874622984096	0.017590097948015443	-0.0020238621616607	-0.0709276005826843	0.024187541399890128	0.010830432644472865	0.03504498633524744	-0.03723868204990763	-0.026567718454863914	-0.09036148858929913	-0.03409731784902345	-0.04732163554718591	-0.01898673398657666	-0.0677224306552274	-0.03933358749710433	0.03920929098638373	0.053132426701351904	0.016174512300155514	0.057311301606594256	0.01277933940561371	0.05728806777455764	-0.018228069378128514	-0.05624746880368456	0.03572132605634867	-0.0005758417334840726	0.006629034441919562	-0.0203552783058292	-0.05837165043587725	0.06228179944067941	-0.033559433031262825	0.011956358506657605	0.00686018115306361	0.03142332464774453	0.028720358927845663	0.03647807723859611	0.05141410260975035	0.0040347942740433795	-0.11624811649615305	-0.08397647256540755	0.02002621404104546	0.03486267835614551	-0.10031604082672699	-0.12213441623023033	-0.0027545997829834523	0.012219191540251556	-0.020730257592258522	-0.017336353335053095	-0.015068171497808286	0.0021960790807930286	-0.0033619820993765204	-0.015433643266099167	-0.0069218276402708	-0.05795721483695829	-0.011843436382016098	0.06726212199811224	0.009874289988015567	0.0028856877629980515	-0.009948736674603581	0.01570950141561281	-0.07401684150933793	0.036752730854178656	0.03761424125197482	0.013810521315689994	-0.06621465327472817	-0.016004323892061356	-0.08091246687597961	-0.009688078278726558	-0.017173292375000787	-0.012509012259741187	-0.04715066914284391	0.010290131816647258	0.0417040563285789	0.025905088184563052	0.007345038211420643	-0.03672492886439335	-0.008317702600122684	-0.11870341516925878	-0.001575595297607063	0.06790589341613487	-0.24481082751586766	-0.11461701657362741	-0.27268689595098383	-0.25106140232980656	-0.061060653378745694	0.011246210727519163	-0.24584395225912456	-0.3376635741951066	-0.07115085412661223	-0.33041886146892485	-0.04590293172157764	0.01975328457404288	-0.00937987905202256	0.023299984795829037	0.03924367578449198	-0.25060745241344096	0.03637750684388566	-0.08901406118875135	-0.04163722397776973	-0.036159582415139474	-0.004818203262203252	-0.017565416905907322	-0.026116313093292348	-0.12718639260656836	-0.10362714545553967	0.00522211264265679	0.009802290243510342	-0.04427201414749257	0.025374192184622696	-0.028949383323922828	0.002638914142127441	-0.10021332007856118	-0.007603899881384352	-0.09846202635067594	-0.01333208542718492	0.012142202665340301	-0.016124782007956084	0.0009056848287130326	-0.04112195312686137	0.012608143256089083	0.021858700287446103	-0.14434909554146771
-0.452557939840743	-0.1562469288901224	-0.4832616888472211	-0.17085970283979954	-0.20937585935708966	-0.16952324716659115	0.0013135013977258192	-0.1580416470368405	-0.05393055519973136	-0.13180071190416318	-0.029074699342714422	0.09012424979651043	-0.13579994998181552	-0.1412613868228609	-0.09523307901030045	0.06856280410307955	0.018839773498176865	-0.12658129249468056	-0.0934125267305225	-0.20166520512188676	-0.07153473889174208	-0.028102253850357112	0.02943111558157499	-0.4952671189755694	-0.22801446361462682	0.0073162100476474035	-0.1716781985635165	-0.08133632261824617	-0.040902494599401235	-0.06121231213463982	-0.16689598202260278	-0.17166899027614088	-0.14973496023443714	-0.030520705751829552	0.07007774190351965	0.04775597582096605	0.08595671411565894	0.12095477671666263	-0.14188225175685956	-0.19306109960688497	-0.20591859273639254	0.040925020086643976	0.12224005842481833	-0.11163398311200726	0.13250038058401034	0.1100547988500512	0.1086037833063031	-0.16933354213437232	0.14124247197327472	0.11764984019989341	-0.22717030263118623	-0.12198681296217342	0.039989172837251646	0.1229010503039	-0.08657284056589845	-0.04801169281200904	-0.1196396764040025	-0.021516228406703614	-0.14920657452424405	0.13047567174799374	0.04699284754542973	-0.14357496838898878	-0.21625932504414355	-0.1919064675578405	-0.2007182001957619	0.023170437563769047	-0.04116234576576891	0.08323306408422013	0.003162120263930507	0.00968345302052706	0.08798725708223809	-0.16793719467100124	0.06336798957246645	-0.212853325008399	-0.1903605391679513	-0.06459395670716564	-0.16250223101540054	-0.12068596675532808	-0.13556895687137102	0.014815851642423411	-0.11849365230920636	-0.12393798648409945	0.09330665962740123	-0.14279316828617702	-0.14017165064643397	-0.14244002873215825	-0.06726705630840027	0.05816657784070686	0.0017803559033766347	-0.14889759868234595	-0.19807031443742287	0.1280419090864582	-0.2076782305099553	-0.17143386543872738	-0.13799540660849471	-0.2055221005970357	-0.13321494381443286	0.013372529466786215	-0.17169192929756869	-0.22203169462807096	-0.20855040311418424	-0.1387761586680273	-0.006782716810489392	0.07951916195782174	0.13611908124812852	-0.07871936652907882	-0.00420823561367864	0.023602430339950492	-0.027179143806252443	-0.13841871610989212	0.05805662310618179	0.0645603931996239	-0.15281399565073092	-0.11783227007877553	-0.0008000390289104875	-0.0010988211903675549	-0.004084855961664052	-0.08285208857258183	-0.19094377996392012	-0.19369040185509276	-0.13319676094145963	-0.15286365256142384	-0.10816878978449265	-0.16885118040129046	0.11652602110349053	0.1242577257228338	0.0831305818503553	0.005137481808027172	0.07582945705153518	-0.03101204257081905	-0.1484839773153869	-0.21713875885510234	-0.11166767577335926	0.13521726738757886	-0.19248149604125372	-0.09506972793079235	-0.001263873918679631	-0.38622450247210915	-0.15911334073981634	-0.5158000632206099	-0.38479454709165795	-0.10538615345390503	-0.07918671177290645	-0.3684802251044441	-0.6386759944924704	-0.19254304873394038	-0.6270356540909487	-0.20703541125810834	-0.05018672276360123	-0.11905798600870096	0.14750373596910352	-0.1870794057488868	-0.43728002676471833	-0.2410007112097304	-0.026430248212391122	0.10008869946259738	-0.1844911509547588	-0.017912083281173857	0.04979212790958046	-0.17353356002960776	-0.26936467583118895	-0.0383485622563742	0.11852016834382773	0.0010214796606320131	0.04297253164240958	0.023531637346692252	-0.007634398925601721	-0.13775464054678985	-0.2698655231022232	0.10028522400787229	-0.2616704479358196	0.0432020559953151	0.06086068368855829	-0.22536178735181997	-0.05304392119265697	-0.07043908490811165	-0.15726272562045127	0.10021705337543566	-0.29442173918837433
0.5424769841673477	0.43982858022314586	0.5146047213909297	0.4596116278819622	0.4845723321932983	0.4235077482241173	0.4076081188828732	0.46663019624432	0.4108443985877115	0.4030213919528499	0.40924742940049885	0.4247326180404807	0.48805233020840977	0.4428241977487567	0.43937997727923916	0.3733206887243279	0.4091069032292671	0.36675526903900235	0.41322851477418265	0.4732762404575592	0.3752569973846622	0.43917888901889235	0.4357709316125783	0.5215930423277123	0.45215429987515976	0.4197451886675482	0.38468207188839176	0.4033772068894711	0.25835386442196656	0.4589364696825945	0.36274247018462125	0.40283046486188967	0.43825031712480433	0.40958850084942666	0.4272396491950967	0.42948377918804703	0.37638067577660517	0.435191545057802	0.44086007946924577	0.44992013275766873	0.4684178379166182	0.37265518141356657	0.4073892294768675	0.4636274948525576	0.3767091665339398	0.35838465035795475	0.31947314766986623	0.4293997500850555	0.4282751621420374	0.3616365243180574	0.46960777092712536	0.4414522818086001	0.3951029283190679	0.3473988921312474	0.4705628069448127	0.40984247424583153	0.40331051881272495	0.39412872917525155	0.43013696830434267	0.36850855390068726	0.45557728390956886	0.444369510190209	0.5064633276702758	0.4582472011098149	0.4771889018680143	0.4142928767897963	0.4784134338994044	0.40999375546628325	0.48067839714375815	0.3912982919450201	0.4818687122037232	0.39530950304715085	0.4366327486658721	0.48613375392151015	0.4479088316702282	0.49506948838956255	0.5158533129983712	0.4566055762426906	0.4262539377516098	0.4433825854139428	0.4423096622056646	0.48412269426343535	0.36213620371531907	0.3251037371816947	0.388887404503935	0.4544462689786991	0.4212741666844617	0.3825387873782118	0.41235338080229966	0.45128545041586865	0.4580900041302045	0.46549766607149146	0.5079700019845893	0.48228388642639985	0.4290834871557313	0.4374545657186829	0.45808519879686893	0.45804198939538865	0.4754834038209331	0.5037291775952103	0.4955400929657555	0.5008446756627248	0.4698699934821374	0.39550421403209346	0.3765944854668781	0.41885120066731685	0.4100547648584104	0.48282962306003985	0.4300712453365364	0.43161141985722995	0.39807762516360856	0.33749634192144373	0.5242123212078719	0.4447468270768984	0.4500074698499633	0.4413578335274315	0.4414717501458182	0.4481960272817833	0.4620344405439011	0.4566257104844694	0.5115549668578104	0.4191978955948862	0.45019879513141947	0.4800402228206395	0.4153063744958887	0.4373326291001606	0.4396664018877334	0.4429763450353169	0.3737805770456165	0.2044567297797311	0.44578641409929987	0.48217013015000676	0.5018549901941012	0.4103811908444709	0.5380791160054962	0.3920368185965839	0.4921488562241688	0.5791787314689779	0.44447930698816096	0.5399713416615448	0.5518203641400949	0.44790424989923816	0.4458620918058057	0.5108531610610437	0.6116839564733559	0.43350934426138565	0.567088361922614	0.44422458939673193	0.41555447887511476	0.4307135289216121	0.38278537262700574	0.44702439727151877	0.5379788106476834	0.34344340081277935	0.4471766565888826	0.3766804617669154	0.4099666543485413	0.41335654611286765	0.411855756813434	0.4349071097282894	0.418506010951219	0.42974650621517274	0.393483647234642	0.4591342278841811	0.3450930764551664	0.4148196447630602	0.440019208900438	0.4381126168092405	0.4359647139912911	0.3735203339220431	0.5626583009164874	0.4133459561778131	0.4780261130735557	0.46826266581249953	0.4250120567611029	0.386247124526959	0.44216514774656324	0.36735347291013265	0.5629617799554608
