NIPT-PRL-001-25-BL-Px_S1	NIPT-PRL-001-25-D14-Px_S2	NIPT-PRL-001-25-PD-Px_S3	NIPT-PRL-002-25-BL-Px_S4	NIPT-PRL-002-25-D14-Px_S5	NIPT-PRL-002-25-PD-Px_S6	NIPT-PRL-003-25-BL-Px_S7	NIPT-PRL-003-25-D14-Px_S8	NIPT-PRL-003-25-PD-Px_S9	NIPT-PRL-005-25-BL-Px_S10	NIPT-PRL-005-25-D14-Px_S11	NIPT-PRL-005-25-PD-Px_S12	NIPT-PRL-007-25-BL-Px_S13	NIPT-PRL-007-25-D14-Px_S14	NIPT-PRL-007-25-PD-Px_S15	NIPT-PRL-009-25-BL-Px_S16	NIPT-PRL-009-25-D14-Px_S17	NIPT-PRL-011-17-BL-Px_S91	NIPT-PRL-011-17-D14-Px_S92	NIPT-PRL-011-17-PD-Px_S93	NIPT-PRL-012-25-BL-Px_S18	NIPT-PRL-012-25-D14-Px_S19	NIPT-PRL-012-25-PD-Px_S20	NIPT-PRL-014-47-BL-Px_S94	NIPT-PRL-014-47-PD-Px_S95	NIPT-PRL-017-20-BL-Px_S96	NIPT-PRL-017-20-D14-Px_S97	NIPT-PRL-017-20-PD-Px_S98	NIPT-PRL-019-47-BL-Px_S99	NIPT-PRL-019-47-PD-Px_S100	NIPT-PRL-021-25-BL-Px_S21	NIPT-PRL-021-25-D14-Px_S22	NIPT-PRL-022-52-BL-Px_S101	NIPT-PRL-022-52-D14-Px_S102	NIPT-PRL-022-52-PD-Px_S103	NIPT-PRL-024-52-BL-Px_S104	NIPT-PRL-024-52-D14-Px_S105	NIPT-PRL-024-52-PD-Px_S106	NIPT-PRL-026-47-BL-Px_S107	NIPT-PRL-026-47-D14-Px_S108	NIPT-PRL-026-47-PD-Px_S109	NIPT-PRL-027-25-BL-Px_S23	NIPT-PRL-027-25-D14-Px_S24	NIPT-PRL-027-25-PD-Px_S25	NIPT-PRL-028-25-BL-Px_S26	NIPT-PRL-028-25-D14-Px_S27	NIPT-PRL-028-25-PD-Px_S28	NIPT-PRL-029-25-BL-Px_S29	NIPT-PRL-029-25-D14-Px_S30	NIPT-PRL-029-25-PD-Px_S31	NIPT-PRL-030-25-BL-Px_S32	NIPT-PRL-030-25-D14-Px_S33	NIPT-PRL-030-25-PD-Px_S34	NIPT-PRL-032-47-BL-Px_S110	NIPT-PRL-032-47-D14-Px_S111	NIPT-PRL-032-47-PD-Px_S112	NIPT-PRL-033-25-BL-Px_S35	NIPT-PRL-033-25-D14-Px_S36	NIPT-PRL-033-25-PD-Px_S37	NIPT-PRL-034-25-BL-Px_S38	NIPT-PRL-034-25-D14-Px_S39	NIPT-PRL-034-25-PD-Px_S40	NIPT-PRL-035-25-BL-Px_S41	NIPT-PRL-035-25-D14-Px_S42	NIPT-PRL-035-25-PD-Px_S43	NIPT-PRL-039-25-BL-Px_S44	NIPT-PRL-039-25-D14-Px_S45	NIPT-PRL-039-25-PD-Px_S46	NIPT-PRL-040-47-BL-Px_S113	NIPT-PRL-040-47-D14-Px_S114	NIPT-PRL-040-47-PD-Px_S115	NIPT-PRL-041-52-BL-Px_S116	NIPT-PRL-041-52-D14-Px_S117	NIPT-PRL-042-25-BL-Px_S47	NIPT-PRL-042-25-D14-Px_S48	NIPT-PRL-042-25-PD-Px_S49	NIPT-PRL-044-25-BL-Px_S50	NIPT-PRL-044-25-D14-Px_S51	NIPT-PRL-045-25-BL-Px_S52	NIPT-PRL-045-25-D14-Px_S53	NIPT-PRL-045-25-PD-Px_S54	NIPT-PRL-046-25-BL-Px_S55	NIPT-PRL-046-25-D14-Px_S56	NIPT-PRL-046-25-PD-Px_S57	NIPT-PRL-047-25-BL-Px_S58	NIPT-PRL-047-25-D14-Px_S59	NIPT-PRL-047-25-PD-Px_S60	NIPT-PRL-048-17-BL-Px_S118	NIPT-PRL-048-17-D14-Px_S119	NIPT-PRL-049-25-BL-Px_S61	NIPT-PRL-049-25-D14-Px_S62	NIPT-PRL-050-25-BL-Px_S63	NIPT-PRL-050-25-D14-Px_S64	NIPT-PRL-050-25-PD-Px_S65	NIPT-PRL-051-25-BL-Px_S69	NIPT-PRL-051-25-D14-Px_S70	NIPT-PRL-051-25-PD-Px_S71	NIPT-PRL-052-25-BL-Px_S66	NIPT-PRL-052-25-D14-Px_S67	NIPT-PRL-052-25-PD-Px_S68	NIPT-PRL-053-25-BL-Px_S72	NIPT-PRL-053-25-D14-Px_S73	NIPT-PRL-053-25-PD-Px_S74	NIPT-PRL-054-17-BL-Px_S120	NIPT-PRL-054-17-D14-Px_S121	NIPT-PRL-055-25-BL-Px_S75	NIPT-PRL-055-25-D14-Px_S132	NIPT-PRL-055-25-PD-Px_S76	NIPT-PRL-056-25-BL-Px_S77	NIPT-PRL-056-25-D14-Px_S78	NIPT-PRL-056-25-PD-Px_S79	NIPT-PRL-057-52-BL-Px_S122	NIPT-PRL-057-52-D14-Px_S123	NIPT-PRL-057-52-PD-Px_S124	NIPT-PRL-058-17-BL-Px_S125	NIPT-PRL-058-17-D14-Px_S126	NIPT-PRL-059-25-BL-Px_S80	NIPT-PRL-059-25-D14-Px_S81	NIPT-PRL-060-17-BL-Px_S127	NIPT-PRL-060-17-D14-Px_S128	NIPT-PRL-060-17-PD-Px_S129	NIPT-PRL-061-25-BL-Px_S85	NIPT-PRL-061-25-D14-Px_S86	NIPT-PRL-061-25-PD-Px_S87	NIPT-PRL-062-25-BL-Px_S82	NIPT-PRL-062-25-D14-Px_S83	NIPT-PRL-062-25-PD-Px_S84	NIPT-PRL-063-52-BL-Px_S130	NIPT-PRL-063-52-D14-Px_S131	NIPT-PRL-064-25-BL-Px_S88	NIPT-PRL-064-25-D14-Px_S89	NIPT-PRL-064-25-PD-Px_S90	Genome-IJB-HP-14-xx_S3	Genome-IJB-HP-18-xx_S6	Genome-IJB-HP-19-xx_S7	Genome-IJB-HP-2-xx_S74	Genome-IJB-HP-26-xx_S14	Genome-IJB-HP-30-xx_S18	Genome-IJB-HP-31-xx_S19	Genome-IJB-HP-33-xx_S21	Genome-IJB-HP-36-xx_S24	Genome-IJB-HP-37-xx_S25	Genome-IJB-HP-4-xx_S76	Genome-IJB-HP-42-xx_S29	Genome-IJB-HP-44-xx_S31	Genome-IJB-HP-49-xx_S36	Genome-IJB-HP-50-xx_S37	Genome-IJB-HP-64_S169	Genome-IJB-HP-67_S172	Genome-IJB-HP-7-xx_S79	Genome-IJB-HP-70_S175	Genome-IJB-HP-72_S177	Genome-IJB-HP-74_S179	Genome-IJB-HP-75_S180	Genome-IJB-HP-76_S181	Genome-IJB-HP-77_S182	Genome-IJB-HP-78_S183	Genome-IJB-HP-79_S184	Genome-IJB-HP-8-xx_S80	Genome-IJB-HP-80_S185	Genome-IJB-HP-81_S186	Genome-IJB-HP-82_S187	Genome-IJB-HP-83_S188	Genome-IJB-HP-84_S189	Genome-IJB-HP-85_S190	Genome-IJB-HP-86_S191	Genome-IJB-HP-87_S192	Genome-IJB-HP-88_S193	Genome-IJB-HP-89_S194	Genome-IJB-HP-9-xx_S39	Genome-IJB-HP-90_S195	Genome-IJB-HP-91_S196	Genome-IJB-HP-92_S197	Genome-IJB-HP-93_S198	Genome-IJB-HP-94_S199	Genome-IJB-HP-95_S200	Genome-IJB-HP-96_S201	Genome-IJB-HP-97_S202	Genome-IJB-HP-98_S203
0.0355242712876053	0.0708748593164788	0.06460631644984444	-0.0017120168945619768	-0.19319249520654178	0.14671394542734428	0.019901710534096645	-0.23118982447891095	0.023535535154483422	-0.015357945356868213	0.024547645846046573	0.05831003112547828	-0.17884305579922846	-0.2151318045749159	-0.19527701031271988	-0.02342806861241928	0.05642026080061588	-0.016702411239946424	-0.010623668940508646	-0.12395907882027715	0.037007999267995445	-0.134663381470667	-0.05844882464148646	0.02788233794887679	0.06586601499410363	0.06994773746787246	0.03314605149446784	-0.0019177817743555037	0.048191828817525456	-0.11278134433132989	0.044205615876249965	0.056467098204572186	0.026983274673650498	0.039968368404970395	0.0018777529588346054	0.054477620569127694	-0.01691234586704718	0.06794155949721425	-0.22200235188688888	-0.21167203873449983	-0.044947931844664654	0.02831994561253498	0.06995233707652257	-0.2225407527335113	0.11454621017381816	0.052290133885331824	0.11562577926357077	0.044994372604860416	0.05831010325416111	0.07803250475918755	0.054512275653048725	0.011108364580557611	0.04867065200553122	0.0044485674079261794	0.016810804958829723	0.015363543346276848	-0.03733101703040706	-0.07522957278331291	-0.053556257507863275	0.0637393605719512	0.06152063203320396	0.05231856039642921	-0.01692328095229345	0.04458912758904238	0.005852031317384668	0.05092740785407476	-0.0024773981877453943	0.06083101566581134	0.03034590529242273	0.05584350273434657	0.0810949426173389	0.05432947117666154	0.04519807538106424	-0.18590912604941048	-0.07734870138790258	0.014872123903077156	0.09524059990132615	0.11420060532651596	-0.2170913154462579	0.036938720494177874	-0.0032782117839531277	-0.16811944479623475	-0.015533683177522156	0.043036769344898335	0.024676249691370583	0.049692772483044795	-0.4162985146608903	0.07315390393717613	-0.10753958339577382	0.11493959682406933	-0.17623211236458186	0.02768446619462747	-0.07379258486812985	-0.04526680474150774	0.004227502164782654	0.06502894726139155	0.04437696018917944	-0.0474213384332538	0.04215181635239164	0.047222071779698144	0.0627797558300868	0.0176678327949584	-0.003656613755861654	0.08945075231777676	0.04393836094842815	0.03533892381455403	0.05161473121348287	0.028995647843243072	0.000813141785301924	-0.0003220891336272458	0.05728850429885618	0.09378592655688589	0.0633238279890606	-0.1375324649941492	0.02739623896344015	-0.10744679122967202	0.03262571883723428	0.06792597761825542	0.03962810990469577	0.049778271288822964	0.13550255676571715	0.05816360971772469	-0.26241993664569463	0.07617483141514467	0.023750772455185698	0.07034226820171172	0.04696483741869345	0.006068656312174514	-0.0208413511677015	0.05865100078630209	-0.06667652345719015	0.03796151455092542	0.05794910255178115	0.0807372816300018	0.05735829240538742	0.0021895135086428263	0.05043606470769438	0.04206443931501913	0.05855003310087703	0.041890962768200035	0.0406494622894264	0.0027496421476704558	-0.00017987462581425806	0.03858544173418252	0.02734016601833192	0.04146723540997829	0.03617662043878078	0.07991972583675108	-0.003626036048862441	0.01725987291930081	0.03978411438059279	0.037405297446193086	0.050085710101877595	0.07115818465257423	0.00998577467747036	0.10389237567307183	-0.006424670839375479	0.02157252445056676	0.049809677737969404	0.04902940926793353	0.04972354425018394	0.024136839664382764	0.08499389013662212	0.04955724790694255	0.059839294926108066	0.05170560560871407	-0.16945351279187193	0.024869093461430652	0.07325709420294871	0.019933848107065305	0.04675455139220758	0.07080681719113702	0.008764004317545343	-0.22699123761023163	0.0034842976104308976	-0.0006259998921981647	0.02007275151148563	0.08145658661449034	0.02507587625242516
-0.1525889939713363	-0.21860490782738898	-0.1475312168441226	-0.3849954756579349	-0.3525502500659947	-0.32260921033580536	-0.27675849666579944	-0.2938116089596813	-0.26476613743974264	-0.26032360710822455	-0.26165873923224137	-0.25960099569507644	-0.34038689884459317	-0.31708455810753733	-0.29799524103894337	-0.2517414234342431	-0.2548884316552299	-0.2561319987889968	-0.24461082330550157	-0.3710347126605935	-0.2287371737460004	-0.3425036739883499	-0.31267186496790467	-0.1369273777448173	-0.17108923306749776	-0.26880891252145245	-0.23314511971126578	-0.24277699354833635	-0.25760185800283997	-0.3130331535433496	-0.23072886050535055	-0.22301872888113816	-0.24085819173634315	-0.25116907609099137	-0.2981646708367095	-0.25642086404926356	-0.2637808874936116	-0.25816015966690165	-0.37276673145041517	-0.3434279834031616	-0.3576134640930203	-0.2789537723078127	-0.26945084321534185	-0.3635622760912668	-0.27780452810584433	-0.2560096806800307	-0.3082650248520089	-0.23132235378883295	-0.26100515305281136	-0.2676627994470946	-0.1795584876190656	-0.25159500565787973	-0.2584843671821234	-0.26115928262306787	-0.240454637041028	-0.25058823480134995	-0.4217529952385529	-0.3636828264454651	-0.4143936224104918	-0.2831919683776285	-0.26666436315476805	-0.21743978309060463	-0.3103485307552818	-0.3147946543440925	-0.34137497893836855	-0.27392377710479976	-0.25139175397308733	-0.2647614283115597	-0.2541148617591166	-0.2663794058240523	-0.24786499597236766	-0.22759210841001196	-0.2710058722648584	-0.3227545386470265	-0.284854789359551	-0.24760878366980651	-0.35687995614488277	-0.25000942775133905	-0.347777806673607	-0.2611653369207438	-0.24026079910395418	-0.3187737830415024	-0.2644244378817081	-0.2718720280558151	-0.23866786723495734	-0.22583419120595707	-0.3649918113634687	-0.2711030141269183	-0.2937908424708252	-0.317793158986744	-0.3638152900301824	-0.2771806179679427	-0.28459016555093064	-0.24661459995300136	-0.2402701930872012	-0.19577984588994582	-0.19763808914816097	-0.3144832836332092	-0.3152954143122161	-0.20535853954831174	-0.18505264254918563	-0.24065600176247964	-0.26934671347960604	-0.25716097337814225	-0.24489643009456855	-0.24050732171616115	-0.2622892826834673	-0.2583143198033696	-0.2507879711389365	-0.23655267456067774	-0.25168754600281906	-0.26550924323341885	-0.3251893410919321	-0.29541045495013274	-0.26855594861603593	-0.34001886034855877	-0.2572139930498575	-0.22177301568564134	-0.3304899353181209	-0.33417213874554896	-0.3757987583158118	-0.23096540471492186	-0.3582091721366215	-0.18896797140611762	-0.2452845665715038	-0.2614277008586239	-0.251391476950365	-0.2500758902134111	-0.24034064341010752	-0.3731764893322925	-0.5204928454635337	-0.42742179742312303	-0.22192629883122772	-0.2761774364017535	-0.18854563667543514	-0.2537970738050913	-0.24697560930822443	-0.1584447061463899	-0.22458669727116778	-0.1342588801717013	-0.1620896009043476	-0.23392421212400952	-0.24036171817620505	-0.15791435088158445	-0.12458384917323125	-0.23593815761290451	-0.14223281857272374	-0.20765844616659163	-0.27238455919235327	-0.24107954912074117	-0.2746079168318529	-0.23403811467025584	-0.1579236243476679	-0.1850118529975422	-0.3014707398898022	-0.2651539724686247	-0.23587506630368324	-0.29739771161224693	-0.2609482484566552	-0.23313162019021183	-0.20140081316734082	-0.24353883887562136	-0.2691307337355292	-0.23021118616507685	-0.25676004975896655	-0.26183016208647447	-0.28818084436623803	-0.24303574550221957	-0.1998940704346138	-0.2613123551762116	-0.16582915397309725	-0.27811931059421147	-0.2677446706980888	-0.39397453338235244	-0.2472550784303322	-0.2533776377625032	-0.2402053227347066	-0.294008943316468	-0.1915763651238865
0.2508305004445283	0.24716986374552558	0.24273246974527218	0.014081141484646245	0.00485869053573991	0.0331201116734474	0.26048857596364383	0.14916140650246584	0.24868249960905947	0.23514539178663407	0.2423660988287085	0.2447811437783761	0.0322907269725501	0.021538823632545813	0.13755284664206663	0.27466261388003854	0.2415597672297611	0.20390869156051059	0.20852182016848644	-0.052013612586810726	0.25228473933609863	0.20720034988914207	0.2241591805878199	0.25379344539141657	0.25722234751847567	0.23096497600275503	0.2268087474890228	0.22070219060244314	0.25668130314344073	0.14554099369307	0.23225265726718808	0.2451090413421804	0.23065141406423517	0.22678961185265087	0.27601792392407765	0.23196483918567395	0.281461874065436	0.24645403207076721	0.12241421757520132	-0.017528845442016938	-0.04864307272758933	0.22509607037009507	0.23688791477387447	0.14207986980350631	0.2551860708194933	0.28107061965234875	0.24995676000291045	0.2382402347319556	0.2594525949181552	0.26706036789245524	0.2424920307024269	0.23747077120974894	0.24373809431261254	0.2944658073805353	0.2194268069144468	0.2203268691988652	0.1061843777049965	0.23334815772694315	0.029826321933008396	0.2700229253840176	0.2311665830036959	0.2506841778352207	-0.035984879308881376	-0.033927958080274684	-0.051503776795980075	0.24444125785764861	0.22829175167197013	0.24508020367466896	0.2306403992483929	0.23179418987785266	0.23779001367892794	0.24270946225776502	0.24071877856818372	-0.049948080505920256	-0.049873870079154115	0.24799932226449337	0.02846112370101052	-0.008642905884569327	-0.061406172519133606	0.2278655995002116	0.21750495375981574	0.13944490611601826	0.31177571428659767	0.25675045639110905	0.23008722763695397	0.2412490872155706	0.07905326741777938	0.24276420705234805	0.2277535849479813	-0.0194116718930957	-0.018521912073189428	0.23982273813487864	-0.02688189820320154	-0.0477072693891506	0.22262399882432352	0.2485225024326619	0.2500728581703164	0.27515912166931034	-0.017446099460867448	0.24033938915887837	0.247300562374315	0.23992388847214416	0.22285121046206702	0.23723915349194621	0.27076108418919953	0.21959829062961933	0.2272147149833947	0.2251218249900996	0.21810394869230573	0.2237501855527724	0.2506044548699121	0.270783473007265	0.02149420513038401	0.11711690879514798	0.2572596833609133	0.22747885321912814	0.25440704133831576	0.2514398511590745	-0.02950480809317854	-0.019532807568594185	-0.01697015228795576	0.23448425685641228	0.15522099149014656	0.2505896798647419	0.28812159925427894	0.2452191484341549	0.2568957476369859	0.2206066073236891	0.25291139701191956	0.2510666755191676	0.15616176583332178	0.012219426345706372	0.2526145738946258	0.25451427115674796	0.2466484574139796	0.2242587688306071	0.2533323638244527	0.25597928484929633	0.2278338488486942	0.24177602193744796	0.23384748259965663	0.20743710714137265	0.2275043688139059	0.23956281525144113	0.2387914182062374	0.2297197815131703	0.24506287178290892	0.25276160346946824	0.23999557110195596	0.2266027248880324	0.26946793712355166	0.24035636526639584	0.24344695436050964	0.26163442344448984	0.26225940488595	0.2491908490897263	0.21815163626064657	0.24729082570818028	0.2509250432210465	0.22436646893679033	0.24197619297601775	0.24224208185592672	0.255039222760858	0.2450055270044242	0.22977557190151326	0.251215836437904	0.24535985701498356	0.21813185848082012	0.2366186551482957	0.2826816335017	0.2554408602042786	0.24949805970799604	0.2898556983746823	0.046994079497510645	0.22020307903584013	0.20993598437694214	0.21809535421751688	0.23616826071243915	0.24823841608333863
0.16290594207312264	0.19857373252721033	0.17796322516957883	0.28446044346338406	0.35555514873849126	0.28290624627387806	0.20171102636339525	0.4662161143788254	0.17086678593852533	0.15017965093212268	0.15738719040725704	0.15458457440439038	0.3687796610845595	0.3938510896875772	0.42153849976952174	0.5153667578157556	0.13385530232844003	0.14775063715899311	0.10827823041471063	0.4368541828773158	0.1360790751389167	0.47323698901688116	0.502711015135915	0.16746343787472753	0.20882712577081008	0.11213431678835314	0.15664439963965696	0.11870414040172558	0.15409826537839721	0.45051781121717493	0.19225401880793833	0.21690305206263352	0.16295463002386856	0.139031841584285	0.4801880903236547	0.1502580765185035	0.47377387324891995	0.19719190708821627	0.3821597477452763	0.399750193884994	0.37695645094208063	0.13739883233547992	0.23287935476245666	0.43024138789330435	0.33030807079714397	0.42059802665780877	0.20085610666300366	0.18033075500347015	0.2656256376878342	0.3056637796471172	0.20276852616541996	0.18772641326608216	0.15885589054263585	0.428726235139983	0.1297806808298356	0.13492918166633866	0.4136797788060531	0.46692874295849063	0.4301814673983593	0.29822134796660293	0.0958964770494325	0.19408782968563745	0.35562648308795	0.34314797341641845	0.35191299898553696	0.15851802894369854	0.1353412155742969	0.1643826277182018	0.14769448460688112	0.14834230198620063	0.23633438748495325	0.2002731179623019	0.1524676373224679	0.3945332034654596	0.40919465435856295	0.15530580066958774	0.35836487701826514	0.38526259726109213	0.37413602364475496	0.12983060703005306	0.1251415691852015	0.4205855600544288	0.46027818932507714	0.23150407445522939	0.12767702639922898	0.19114987014957813	0.4060239160571185	0.16138286302795993	0.5012619098402205	0.33519448053691375	0.41894784420517583	0.29603811149188997	0.34816649424131696	0.37845088618569356	0.1475745389174897	0.1971232292254065	0.18578714380232283	0.5133693912281412	0.3632662342490218	0.1719081629693792	0.21084915958429634	0.18156972864415732	0.11080320147590365	0.2132211486817417	0.32565131196664143	0.13584919776580878	0.13238133911528674	0.1286706555155908	0.11834732245567503	0.16469050555839776	0.17718421184891242	0.24582170559120933	0.349760084570774	0.436329690963456	0.16437951174141918	0.4999545057821675	0.15596152883998637	0.20888603284116475	0.3530098338847769	0.349020420288358	0.2800001108512563	0.18430363495173904	0.4544109458072415	0.21422324836578815	0.42448507773037514	0.237109236548404	0.13343213283005956	0.13429692863008275	0.4984195264207827	0.3154513171670995	0.21287034771697919	0.28879827641065536	0.21072407348571434	0.26711192653805604	0.18717443285093444	0.11991389359831893	0.1513697226334398	0.179000733222806	0.1941653840082424	0.1506216373796031	0.16454785892101007	0.09771197866331907	0.13935647292805545	0.1601888023503465	0.14110079792017233	0.1624746356017291	0.14798349704983982	0.1977633435321331	0.17547741312860418	0.15597283129857561	0.3206223222952466	0.18543173009686953	0.19266977119664672	0.2301635385194192	0.2200854417791334	0.2594363483799305	0.15809177511338102	0.20262016562441623	0.17991760385144479	0.14089341153682136	0.1755940843181438	0.15444359009887162	0.2399074386427004	0.12470263941222273	0.1187539854738991	0.1608452828933789	0.5121745740654651	0.14121917353207053	0.16793908996542908	0.42452938417461994	0.1781877114695466	0.1692575182338693	0.3734821233838017	0.37999144737136725	0.11447774772948076	0.10859568237056585	0.13491244721981266	0.19868702465758714	0.18305103071248247
0.12283395434771091	0.07195859764444221	0.1345762987690564	-0.1939892623586317	-0.07510235032720838	-0.20723203590358205	0.04982532005812082	0.051326175352729535	0.027211824359112208	0.007978889073415152	0.004261890368729114	0.0034961845670836225	-0.05305179932015078	-0.05048734933033955	0.01834912400647306	0.14222411991218148	-0.008807699490753607	0.0225904089101506	-0.024348876502547773	-0.06986424644040387	-0.01702819918880609	0.059972738694273456	0.0841697111910781	0.1387681506708464	0.11385674937651229	-0.02120796471676009	0.045276498873778645	-0.016879462234342585	-0.015730867901747048	0.014136310918049476	0.07396966932307734	0.10011362704152649	0.012221946328219657	-0.012997907560727523	0.10892804203076745	-0.007475663438111901	0.11870471998351867	0.03893178821053005	-0.01250818217637538	-0.04167384819585275	-0.0970273082478686	-0.010326415703271932	0.06256185409375611	0.0015958996726564284	0.09321448152054203	0.12410800381176007	0.03423534628267597	0.058851763557955156	0.08366127397401821	0.0986448419916408	0.1225307231710916	0.043730831689530784	0.010966259146869078	0.11961983606837641	-0.004669048757673731	-0.00851069457300399	-0.014767961752391146	0.08024941347315384	-0.02501386804008232	0.07452403885514934	-0.04155668365141449	0.06731486459416879	-0.13221848785666132	-0.17491840165272557	-0.14528085535189372	0.013850171135411066	-0.00970349409732374	0.010757494796687361	-0.0023765161717195504	-0.0035852201787898996	0.05787066721037701	0.08321290106472776	0.0027945951901568525	-0.087514778322897	-0.08277846638550443	0.03505807811362449	-0.11208326914480568	-0.13700383806303149	-0.06545368119779259	-0.00796288110900914	-0.0022752225221577826	0.050613942263816804	0.1463943465502619	0.07683242808661905	0.00694485803800339	0.07989013153962593	-0.048361858262224194	0.007758623187293867	0.08994393722778658	-0.23191587699427327	-0.07211555858062549	0.0502098076852623	-0.10136326526113976	-0.10320711882156278	0.024561457426191702	0.08655324189534412	0.09501374331995484	0.15263498189280564	-0.11065552581400065	0.09150297789557513	0.1152371384152941	0.06318167306691483	-0.03293710668649509	0.0391582418376792	0.0807864259838409	-0.004757482098102693	-0.01695979128917227	-0.016845802160396606	-0.02683666600897905	0.041702228700572504	0.021871019925307933	0.06378154530019853	-0.09525153881930742	0.05530865335267551	0.013641518375878015	0.08415169107370202	0.01664012178051185	0.07496082030593919	-0.1339613438662912	-0.1273763208545545	-0.19707823676634764	0.05712751124270034	0.019402998242180135	0.09254051512065886	0.11855443873532755	0.05578335581566325	-0.010285153901467115	0.00044260005784418216	0.12339311512396511	0.07684525089920796	-0.0892890212042445	-0.1697763481079075	0.09125098417994139	0.08056122724476639	0.09448086529697239	-0.028410867493082845	0.00994454882317923	0.1262335002746663	0.06879346050733441	0.13572856422145116	0.11662576693213558	-0.030691184719371406	-0.0024005306034240934	0.11149815423623634	0.14294547603680793	0.04446924110493085	0.13437570869881033	0.06554455192041964	0.010568603256043411	0.021132152808179795	0.10521959217631141	0.06681902698226795	0.13045005966639572	0.1348256572427607	0.033248142342488365	0.058052101820398994	0.023179026300111885	0.024040885730300755	0.022080394959325927	0.004078317528311351	0.0687633194991107	0.0066835356051364175	0.05598531993901512	-0.01295126803132382	-0.02034812295049107	0.01161644576216684	0.0912720921045813	-0.006767733833584276	0.06281043702827273	0.11271966536511656	0.10931057815573725	0.007170344017290359	0.1340999095184311	-0.037516961542705674	-0.030920939681817583	-0.01744919430617861	0.008773458217077014	0.042320142123075985	0.12057603344878857
-0.09219698410683194	-0.13341593491084114	-0.10141783658309378	0.007893206687560328	-0.0026723815615223023	-0.009613162926833008	-0.14164650030025888	-0.015630063068225356	-0.1474809549678012	-0.16239146575976132	-0.16366799551113181	-0.15986682743868152	-0.014230848816575076	-0.004025892514990026	-0.08170013080228905	-0.13984935875863	-0.1532319645998648	-0.16226909808186304	-0.15607912496042134	0.02877779927069324	-0.13364094327077583	-0.11236981763960066	-0.11874749552071873	-0.08345980681485932	-0.11074346806861089	-0.15348891474894666	-0.14143733770278907	-0.15713452470079092	-0.14464056711864443	-0.011250437805615993	-0.14679960305783923	-0.14367364102512417	-0.16699461908762928	-0.16299225568546052	-0.15333671794328155	-0.163317043651442	-0.154495503346969	-0.15035781346054705	-0.0770401631920736	0.03130242134839134	0.010820601091248772	-0.16626912671260652	-0.17006013752454846	-0.04822743964436588	-0.14733754267828456	-0.15801832565195206	-0.14673682089924645	-0.14135677026512616	-0.15771032576488508	-0.1433489174037543	-0.12082539784735019	-0.16778613200806003	-0.14940016604266357	-0.15062582624520054	-0.15778483049508363	-0.16246888039380689	-0.04112362399966957	-0.13546604835720305	-0.02972644153539178	-0.1771571766213682	-0.155550570351492	-0.13442921087170645	-0.026649522446996116	-0.052152025678033925	-0.007479993695735487	-0.15737475339460621	-0.16323579555822937	-0.15342811457149397	-0.1655111123433352	-0.16509906887399703	-0.16552876329916533	-0.13454923244716557	-0.1624988447625705	0.015683252278683307	-0.003267368034589463	-0.13989196536221823	-0.018188377150333918	-0.051008086949334674	0.062490051523680756	-0.15479978499697544	-0.15819821738935771	-0.05131547977630549	-0.16189722708547238	-0.1689187846443776	-0.14488377915827377	-0.1370280513949528	-0.05211535007057122	-0.16631126998612633	-0.13348153407465585	-0.02544297685903285	0.028845683984933368	-0.1755226564357783	-0.03084652642826649	-0.04500451091802221	-0.1547054636920065	-0.12520642696501644	-0.12406186776351745	-0.15492799925601738	-0.02980427022857368	-0.11820723787383644	-0.1228970581504027	-0.15084819967700253	-0.16655735470513758	-0.16215126886780082	-0.17303615797034286	-0.1545999358320061	-0.16197184465550735	-0.16049732852993964	-0.16256754252403022	-0.15564747777685442	-0.1439889165496402	-0.1354481376521532	-0.017109576896508744	-0.03117246187564332	-0.16311546625008727	-0.14377231294077816	-0.15038837068410435	-0.137676245116145	-0.028757954041367384	-0.026923699124977496	0.0070125131740788604	-0.15340106094765002	-0.06725228767583524	-0.1255197287155878	-0.1526433935323161	-0.16389584129258317	-0.1533235416796603	-0.15498644765101982	-0.1399690370132436	-0.1934664613441888	-0.046521558983273315	-0.022221363123868798	-0.13883455293575236	-0.16465968634291958	-0.11377844395585668	-0.1659481994390518	-0.14765340150820583	-0.09424887721308489	-0.15081649585904802	-0.08688976542684043	-0.09569888125496004	-0.15272048987680936	-0.15961660538814998	-0.09547810111746241	-0.07358365925766672	-0.13947279058425108	-0.08523393153221764	-0.1144956861637544	-0.17957729873219214	-0.16008332950787266	-0.17997651142733007	-0.13931474925710566	-0.1057904603992186	-0.14007899019668352	-0.18888930565205436	-0.15219460720973704	-0.159377215238305	-0.19036906132626674	-0.1599818393989913	-0.13988399435707694	-0.1238883391119758	-0.1551047836643678	-0.14304747308520133	-0.14354382046042735	-0.1523812167702544	-0.13993337598065866	-0.10479651723081018	-0.16368714354854302	-0.12190411409799848	-0.1576434041637495	-0.10476164303725051	-0.15713550497018228	-0.21925002558198503	0.020357380985463025	-0.16271280445315825	-0.15204536554982728	-0.14442407453586473	-0.17751379815389035	-0.11552940032905756
-0.6769700208773672	-0.6516405967635067	-0.6693745989212064	-0.2697472960349029	-0.16911699791141527	-0.3636104606024063	-0.6414041832413112	-0.2552245487441125	-0.6354567957314284	-0.6169985320321515	-0.6105502369062132	-0.6216038963960707	-0.19887340531350217	-0.16668741335202722	-0.3009371585400501	-0.48631847547074314	-0.625615968129294	-0.609734065926871	-0.6219143127784718	-0.07560139739127225	-0.6474905224742347	-0.3662756115158311	-0.4509384128936432	-0.68210475253905	-0.6670717170944686	-0.6314946776651184	-0.6327234826660426	-0.6180532583540709	-0.6433104263941971	-0.4016045177332968	-0.617911657254936	-0.6390576074318332	-0.5997993924222541	-0.6002118817569805	-0.5419492903484676	-0.6056887395886728	-0.5102966082571283	-0.6387528251073044	-0.22836874942931257	-0.07534659947747957	-0.15180122314163777	-0.6134295747790378	-0.6244673042999729	-0.237382408428149	-0.658736267175661	-0.5949087283482536	-0.6790220446551466	-0.6310994262705943	-0.6353143084255913	-0.6553422578644954	-0.6483497468722861	-0.6029765522545332	-0.6325902310081243	-0.5591955580167848	-0.6123589058972636	-0.6095826739771527	-0.3040108761391297	-0.3947657527852274	-0.20659402185816012	-0.624655390288441	-0.6269155705088189	-0.6408422606840998	-0.21557087992798157	-0.19519998772999952	-0.1803057062909169	-0.6275810733801738	-0.6134723210314014	-0.6304821610254231	-0.6018938387623707	-0.6163682593238945	-0.6280349064309934	-0.6425080235283563	-0.6173884737113549	-0.10247968471764976	-0.15188126105240493	-0.6444047924210395	-0.32530032920992874	-0.22340938933095378	-0.0421945291465263	-0.6283918677353127	-0.6175870080889103	-0.2854637922821305	-0.5325651036125024	-0.6194697012784717	-0.6387759386643302	-0.636375098972128	0.010944617816079583	-0.6247664750884919	-0.38921407264547686	-0.16784758027459543	-0.11150769645210046	-0.5585699750265739	-0.24952405437528974	-0.23631011230600374	-0.6247049926652898	-0.6507845479205266	-0.6454148891503652	-0.44048717544123184	-0.2160573439632386	-0.6579578761206385	-0.6534692491488799	-0.6257319239857467	-0.6098517202676457	-0.6347124101788812	-0.6046745890745783	-0.6162247281586719	-0.6097488754914283	-0.6151651666557764	-0.6116309161013892	-0.6130985687545721	-0.646618275821168	-0.6698161915685562	-0.3073483020016414	-0.2904794367531468	-0.6127814247826562	-0.36910161472796227	-0.6306262341449573	-0.6492561311998567	-0.23814171329224376	-0.2606537158115695	-0.213551948512672	-0.6202225657101478	-0.21706417406273903	-0.6558333659183289	-0.5796473958604788	-0.6232167985704996	-0.6231487361689146	-0.625935211279595	-0.450296778066298	-0.5734016833365309	-0.3265250952049979	-0.2547338966753904	-0.6466923286190073	-0.6454934688680507	-0.6596487126952018	-0.6005575294395554	-0.63129456548164	-0.6777435711883467	-0.6198703241889378	-0.686997335899666	-0.6711650683123852	-0.6197222934563308	-0.6118254574176057	-0.6722189440112143	-0.7034745168671269	-0.6389460588077818	-0.6870217850089735	-0.6760660853174	-0.5840919212994712	-0.6099349251441817	-0.6116585979945797	-0.6431954474007918	-0.6542910123338491	-0.6494756828778668	-0.6163783580590482	-0.6530244726414511	-0.6077298834741854	-0.5948077202400281	-0.6168689045390592	-0.6405133029016291	-0.6490611552526787	-0.6184885169689481	-0.6536989967987121	-0.628788660378142	-0.623242192648833	-0.6530694189386306	-0.3474059898650649	-0.6023732458653736	-0.6546529735005445	-0.5614611095057923	-0.6627204543073207	-0.6388797717049586	-0.5734284279449885	-0.15377141815500484	-0.6034089057662547	-0.6308352837121219	-0.640142699624965	-0.6382462189798591	-0.6503778450524843
-0.474464628401152	-0.5042682757499447	-0.5064394047840427	-0.21128406289404583	-0.2068265170419816	-0.25388190221633933	-0.4725304017339852	-0.20183394412341218	-0.4937264633496361	-0.4495007348336124	-0.5012631087835809	-0.5294957815991128	-0.20989240415601626	-0.19329847645433768	-0.23014534234861114	-0.3819243460377224	-0.5284978343065209	-0.4785018067603236	-0.4735972113069157	-0.2019213634452762	-0.44121546353409224	-0.25814488767909294	-0.2680528664315006	-0.4628456927812227	-0.4750670653244914	-0.5519983699470352	-0.5162681234136908	-0.47342673538966806	-0.4620653566156856	-0.15220018937423208	-0.5226895703465563	-0.5079226921506302	-0.4994132888986218	-0.5178060653045831	-0.33364634717409747	-0.5306122655149981	-0.3629695720834524	-0.5233040186895648	-0.19927537303663453	-0.14113407566975886	-0.22039908201597597	-0.5226289142162294	-0.5283275332590578	-0.19708030101457383	-0.46454783012958134	-0.4201156001939671	-0.5232112783401636	-0.5111228241158199	-0.4937409100563913	-0.46388302452719576	-0.5039338581319579	-0.48356371342926896	-0.5201358563212851	-0.3711413704677815	-0.49575091834505214	-0.498661094835962	-0.3028162309913085	-0.3524166893957078	-0.25564839697073916	-0.4627728738207423	-0.5347787101069956	-0.4844914645857086	-0.2113952805972348	-0.19667698984259877	-0.2192625663404478	-0.5334432726074291	-0.4689532218877597	-0.5306899627679356	-0.509675936632845	-0.5333494551154686	-0.5226630281256878	-0.5101533579392007	-0.5260413019959285	-0.15733846886894554	-0.18413701653488124	-0.48682953804328444	-0.311530446922741	-0.20146512008655357	-0.09902178528918121	-0.5203853638848754	-0.4725208679979027	-0.24802189737452673	-0.4038816537228952	-0.5097036032508833	-0.5013588339167863	-0.5154446583932809	-0.16110424844010665	-0.5347378192455344	-0.29612265708450003	-0.12060162442577635	-0.1605668138921773	-0.4858133875715912	-0.18903989159484716	-0.1704056053752856	-0.4796065536332498	-0.49554902545150026	-0.4974262025646715	-0.396985146617822	-0.2736527491804218	-0.5147568655620509	-0.4955386415082361	-0.4880281348285235	-0.48092934091850315	-0.523270155858925	-0.44913920306727995	-0.5152832627422357	-0.5338343589563107	-0.5111357019971637	-0.4799517251478582	-0.47114170415990064	-0.5087383880331278	-0.4809254191367267	-0.3136550800203102	-0.3382239586588983	-0.5031203055972009	-0.3116590208452199	-0.5059282237420416	-0.49380784652735055	-0.25750854699326536	-0.28049814770027104	-0.23887685389212365	-0.5291865242674604	-0.18406717950862145	-0.4871722815883289	-0.39136411671217763	-0.5130348704134778	-0.5040613285412973	-0.486858078941927	-0.37967785625837236	-0.5034688873464767	-0.43669515684248283	-0.319106820910415	-0.4958793212705296	-0.4982694728496333	-0.49509838253808425	-0.4786889240220398	-0.5158723812240779	-0.46756237210222484	-0.5324995517904896	-0.4935569297651382	-0.49526467340551705	-0.47964885168402815	-0.4670614903135355	-0.4840712093297843	-0.4817358165333874	-0.5206333703116772	-0.49018606851418944	-0.4791695454070276	-0.4740204682425566	-0.49265510305083127	-0.4685813040945872	-0.49321426616164876	-0.49338431640561964	-0.4962437745399281	-0.4617806792087693	-0.4922125547560994	-0.4523411101550324	-0.4914583722134279	-0.5185877708920984	-0.4931266899440353	-0.5041519104753457	-0.4896172949484908	-0.5002660538128426	-0.5082865548153932	-0.539412198517193	-0.5003368248907009	-0.25015207793443883	-0.5043714043581412	-0.5232580894565593	-0.3977217128024043	-0.4839320739393015	-0.5186209718912145	-0.46868256967404487	-0.1968573460433081	-0.4785964590504451	-0.4903788234560792	-0.48616326083863615	-0.538499910404944	-0.47914118336600875
-0.22388723540369249	-0.20923708246466682	-0.21555126353210724	-0.13830167587762854	-0.15173100999534495	-0.11655116060336461	-0.26096866854026995	-0.14865088908309165	-0.25220941431116056	-0.21147121581792178	-0.22891823894784957	-0.2365792633163028	-0.1726393376798951	-0.1543905599786118	-0.18194984425844413	-0.19413738576301237	-0.2272687814359277	-0.22019190433345032	-0.22602263612368617	-0.11570001764064873	-0.18290632242584276	-0.12537796329383477	-0.14431320298239664	-0.22715542941164235	-0.21836354957210974	-0.2239908162784205	-0.2267183986198945	-0.21834170899988226	-0.19355553465083786	-0.12886580803110692	-0.21868162087542903	-0.2153666469604134	-0.18746656122542465	-0.20900650949356592	-0.1681405565979252	-0.22735646670766863	-0.19297144514071352	-0.26125392877276993	-0.12229638986405321	-0.12092083865374005	-0.13057125792596502	-0.2281165708599714	-0.2578049510785359	-0.1249552015136614	-0.24322351757424115	-0.22290600134099092	-0.23040705984741322	-0.2202689219488948	-0.2639743012240254	-0.2605688678988825	-0.22450206427064745	-0.2006556267158507	-0.2498509240848879	-0.21117559706462946	-0.2058497382531656	-0.21737370054066285	-0.1490767874406779	-0.13624054281536258	-0.12395623746165542	-0.2134271338614424	-0.19188402428456885	-0.20706121238012204	-0.14206839288685857	-0.10068837222551495	-0.11323403891827784	-0.23983292152471664	-0.21714178623139663	-0.24738679195611368	-0.20482691820635707	-0.22081228522976937	-0.24839929558787244	-0.221089897781582	-0.230042832198547	-0.10633641400680405	-0.13867988533138376	-0.2477539641067903	-0.16714353229526774	-0.10397924388853706	-0.10715551376581083	-0.22719224933217397	-0.1924388732539417	-0.18335015614753986	-0.19626227977843805	-0.2412622590562033	-0.22430948799722567	-0.2201604736607145	-0.040305692349493646	-0.2220649853549425	-0.15522446874167534	-0.0673925565605233	-0.12559907958205707	-0.2200518359147412	-0.17041645754338403	-0.14418708061995206	-0.20664186941164236	-0.2118269719902307	-0.221658676031247	-0.13819207218431545	-0.12261421239115074	-0.23079260087680475	-0.21717968125541176	-0.20841172032549915	-0.20416307872688727	-0.23536528249710287	-0.21558220536978723	-0.22211296053716245	-0.2184301368571644	-0.2222412153272887	-0.21686448276732956	-0.20986745081742242	-0.26271069402607183	-0.25056298598993826	-0.18489758878262808	-0.19586370594777985	-0.23284319041567914	-0.1250694213507603	-0.24179984788355147	-0.20128937058558694	-0.14557003530243307	-0.16047602981406767	-0.10377928983986166	-0.2049944228449605	-0.09314699366517755	-0.2103155921993467	-0.21716346025021338	-0.2525904761895517	-0.20875280227174525	-0.2282368011526444	-0.20808415460326496	-0.17441317718130422	-0.10866115970673997	-0.1579852497370427	-0.20574877120194085	-0.24369378213094695	-0.22207866886087846	-0.19385453993088317	-0.23640129160136342	-0.21699004827452356	-0.21379594650601946	-0.2217256234539261	-0.23792734621070116	-0.198131878711103	-0.21677526087739218	-0.23025533144984506	-0.2320302404168635	-0.23541234559587887	-0.22518936325264272	-0.21552391072976224	-0.2198376364588952	-0.20477620645267303	-0.2402240115481118	-0.21199361339968392	-0.22271589718597468	-0.20601804199520046	-0.2034152178315436	-0.23805535981218823	-0.19686590020254718	-0.21116587788789287	-0.24248566695812906	-0.18298205130414114	-0.23549408027284158	-0.2316682806354714	-0.25588584247727114	-0.22436737651563038	-0.22968263114359683	-0.2408422698005649	-0.15605399010464205	-0.20413408372618208	-0.21624927119097814	-0.21076233099867347	-0.22841217273072723	-0.22284111731159484	-0.17365524957745304	-0.12460271661674213	-0.19582369885312476	-0.22947074132687295	-0.21319685142506867	-0.2324541816712582	-0.222208213323137
-0.6307678988285187	-0.5859151288612222	-0.6476958913791466	-0.5961662058168189	-0.48804781658189506	-0.6018191231148617	-0.5046306864131593	-0.4800193688471704	-0.5253055434975014	-0.5025332666132224	-0.5308454436153137	-0.5891814010553593	-0.5073095880857501	-0.4794700645938453	-0.47052752609749104	-0.5423646055803255	-0.5829591864376396	-0.4907446042475567	-0.5113689823217634	-0.5174304946103322	-0.5347343507612757	-0.45053312225907005	-0.44400603309621695	-0.6305016002407514	-0.604067761062791	-0.6155212626289241	-0.5584837250465944	-0.5201621503432986	-0.5416164632017404	-0.4215333223054226	-0.549344734083061	-0.5689964577541788	-0.5281882074536519	-0.5406018176149007	-0.4951327450034948	-0.547337827493994	-0.5229926347558579	-0.6050803399691017	-0.45934429774758745	-0.476365568358643	-0.5366433447452298	-0.5468623481018661	-0.5998091318049904	-0.4888034323740535	-0.5699065386093225	-0.5633073879754916	-0.6122940185095144	-0.5557886439477727	-0.6007280808005658	-0.5662662723426206	-0.6030260707105943	-0.5103305952335095	-0.5704672478293606	-0.5393454603924994	-0.5365573959272966	-0.5276116154568048	-0.5920413818299073	-0.5243599443189018	-0.5991141862729198	-0.634170345592623	-0.5975977554353913	-0.5541448325013077	-0.5300003075583672	-0.544448025927087	-0.5748469662387808	-0.5729948216090159	-0.5106780406653965	-0.5921776016182294	-0.5386629869418236	-0.5659644883412496	-0.5722791964726346	-0.5661469809415682	-0.5602406563686306	-0.46210122946253057	-0.5173274646676994	-0.5413583294230248	-0.594776385969101	-0.43728588348711134	-0.4711129515304829	-0.5630018356819495	-0.5261878926622738	-0.5149490705984102	-0.5652847592963464	-0.5274477918744639	-0.5658757007662802	-0.5723996977164445	-0.4956937409917382	-0.6155051186999834	-0.4639068286023134	-0.4971069953083966	-0.47331584247837855	-0.6555781432971723	-0.494153087418394	-0.45664962153141325	-0.5294846988209042	-0.5913596884737901	-0.5888330889955495	-0.5245793393034475	-0.6022969847908333	-0.6107419283150555	-0.5986497879926056	-0.5387015589236249	-0.5240978792127953	-0.6037912992254656	-0.6308589326127937	-0.5406915282703184	-0.5640326838237387	-0.5456999492704623	-0.5136126963025754	-0.5072843997555269	-0.5960744202855577	-0.5962356938043258	-0.5397654387090794	-0.5138547072677253	-0.5477761296051907	-0.4730564859258015	-0.5563126213809987	-0.5712920207321945	-0.5428083981900879	-0.5324192391897664	-0.553888214169874	-0.5739359471263755	-0.4494246717244822	-0.5882508201605923	-0.5647764061656684	-0.5782280092538691	-0.5788588024930437	-0.5210528450531644	-0.5288902717997415	-0.5900111358786193	-0.5801785902896073	-0.5993933097320526	-0.5732539116643796	-0.6137052033473487	-0.5978831650363746	-0.5137212104350761	-0.5734408822932512	-0.6233612855600983	-0.5648181875789445	-0.6507269169196754	-0.6172842206330166	-0.5269892905620702	-0.5065066660095797	-0.6164397347932619	-0.6563386122618502	-0.5605027277653025	-0.6580787420242822	-0.5847818204740343	-0.4836350102186578	-0.5304572376572274	-0.6118405413126119	-0.5505481705770114	-0.6015397109475706	-0.6249301282136178	-0.5019129695945255	-0.633027867757608	-0.4930544110080016	-0.5058586927819171	-0.5519915141458398	-0.5614187769232468	-0.5773632445124134	-0.5245376857530497	-0.5685716199111303	-0.5762374435240589	-0.6126318392638319	-0.5623107672714577	-0.42012805535097075	-0.5246224778455852	-0.6171662645481046	-0.5662557926862193	-0.617762731851033	-0.5789796388292687	-0.6662788332615301	-0.4866920579727901	-0.5138813595058707	-0.531463623919889	-0.5436070901022589	-0.654451067109621	-0.5802327674444823
0.025579169770713464	0.026346986062031938	0.045565049480203526	0.3589696030452388	0.21722448004407335	0.36136074231041543	0.026939224403982706	0.14076661344622526	0.010789812721384379	-0.015259250540714628	-0.009068203407136738	0.014349475514361137	0.2505310492113274	0.23071933702090947	0.1990437811469496	0.11952191756447866	0.00544069302255859	-0.006065015232591675	-0.018345397574435263	0.2961836781653196	-0.016586120331184673	0.07332343606515532	0.06384760644476856	0.026703988768764952	0.02911121716863936	0.02804336292333237	0.006796207794169812	-0.023282005682971285	0.0064641426707253286	0.11530526127360413	0.006794310329380687	0.018801691624778488	-0.0221710478153829	-0.013927125031453713	0.08295191326331018	-0.007940251376912996	0.08265065421952067	0.062284419804231356	0.13852824633149663	0.22097387094887555	0.33116371036495557	0.01484545163876727	0.05664439797543808	0.15207475852166297	0.11513414289551621	0.11551434621982168	0.09435430902427025	0.006712439354848998	0.08234571253793183	0.10464430432924202	0.031040709894786675	-0.014155200713671046	0.024615048947274093	0.08793643963299944	-0.016986845990292626	-0.01425685897648496	0.26744308969876296	0.10423856524680086	0.3263449893616282	0.09227243772628674	0.014385796880103788	0.00017717107628800743	0.3225828034875567	0.3151797913320602	0.33829336173304037	0.023438946773046185	-0.022733889711924277	0.041150298793464574	-0.01310849324041402	0.006466759161788224	0.03326561432421009	0.02764514407868192	0.008154221195465036	0.26312767861519	0.2991562630081489	0.003214278174866664	0.3456140582580158	0.2308769569860753	0.21813091453427602	0.012474996590494447	-0.018475765319953374	0.19776735625607644	0.0929306583085239	0.009705524183315217	0.0007653419385364457	0.02092535657956872	0.13438962928866477	0.019141798813228722	0.07654950103018453	0.2654270167939971	0.2358970556801221	0.13500685330872417	0.2902914415431876	0.2656695690914766	-0.008629118950348125	0.019804624393950657	0.014635743359942097	0.073963189121716	0.3793439014326377	0.041444359007377404	0.02806394287301618	-0.00048146244427806073	-0.01174522259671533	0.041488581898359855	0.10656060016965258	-0.009393850361107375	0.0025539065719003967	-0.0027739686470406866	-0.021973174054527977	-0.017902161977576325	0.053219646074693705	0.07256720977107872	0.28017307470446196	0.17780581280079777	-0.005245385501126437	0.07380092967854103	0.001810185869311004	0.015966767596335613	0.34212314551504247	0.33764526829193564	0.2993745808885361	0.0015668569860060044	0.10214452527698667	0.022197504992733	0.10576382195842599	0.04238743220063029	-0.011442227767236163	-0.0077813499786580365	0.08315028587933945	0.050771387175401014	0.08448008077483635	0.3045750821776584	0.015524023706375442	0.07848677462539169	0.03120384855237121	-0.028269913520737627	0.004312945701978418	0.027610483960350235	0.010144731067539506	0.03913225928352039	0.04163818183120083	-0.02367973404057891	-0.030116250996303856	0.027422976966591434	0.05072882442795672	0.016584449427908626	0.04120068934408293	0.039512955883882955	-0.025199188403022987	-0.015112234086749193	0.09889393564889454	0.01202994203136934	0.029683654129411166	0.01929598048449553	-0.0023590708415868605	0.09677292195071732	-0.02588790971650093	-0.0167792046389119	0.005381881999768134	0.008361235649390189	0.02106054350194901	-0.019523282978751555	0.07126164375833642	-0.013079121046147363	0.02962737371275123	0.02777362154621668	0.062102960660634685	-0.020500631769015426	0.03748882916389079	0.10047756776459768	0.026111989830246055	0.025380491241955516	0.07488317824374476	0.14739496042632383	-0.03021653596664725	-0.002193135956857925	0.004348276937485657	0.0776974803045694	0.0082517350713803
0.27831403721764103	0.2671765717293323	0.24879792767528228	0.17685493547429548	0.2536823699710501	0.17160400020107	0.28773574385460077	0.2697865962609781	0.3046819071788297	0.33410096034622316	0.3195315351030763	0.3090197726286332	0.26740149889205	0.2713812095923973	0.3034072176043243	0.30533705722077176	0.3091539866420794	0.3005688855282185	0.3337029273232155	0.15873782354247032	0.35333607967678826	0.27640119184131906	0.2749257218295582	0.2828236314202749	0.2836414854550918	0.2953615881121111	0.2771923734389281	0.33996301893466796	0.3323548975041445	0.2748499289050801	0.26408135088400553	0.264227636011673	0.29678155977198717	0.31322903338498165	0.2764752316758715	0.3097616859207425	0.3053237802936012	0.29520196712847646	0.27271783331005717	0.1715837513517087	0.15853257444450047	0.2999230820661847	0.28759489332355426	0.2607348416192785	0.2536255674714645	0.2861793554515939	0.23601784773422677	0.2759684432293855	0.29042225078886597	0.272345381392038	0.26447433472891224	0.29561733321259265	0.3021725663414313	0.3090604602243565	0.31504746294915165	0.3168503346137309	0.1962663209490925	0.25321884185445165	0.1586727979969358	0.28847971657548266	0.30918532942156574	0.28864780996014117	0.17569231051644393	0.0854058943139413	0.14648531571635245	0.2906282496091964	0.3404549847800803	0.2960647708437618	0.30764703281500083	0.2987125107980543	0.30339586421680376	0.26119808974619707	0.3021242346740973	0.17295858822754434	0.12836664169983408	0.30997274791712404	0.18781526634671022	0.1019988212067239	0.150601406809498	0.3019798146643582	0.31809007683886614	0.2791667221451637	0.3077502035541322	0.28752836085914246	0.30645901141924337	0.2639403486181986	0.20068659473756442	0.30313436310421393	0.298781404385722	0.026355171078976614	0.2007164638026834	0.30412352431352563	0.19909104568207273	0.181478830572521	0.3038044515999734	0.27673844056534735	0.28060177465922187	0.250448152074386	0.13451979503992123	0.25827986152926785	0.26953624210554605	0.2838285868131958	0.33566180840813653	0.2985825690577716	0.3150223121606386	0.3069014723229926	0.3042071377517813	0.3155480965856633	0.33948482542458014	0.311026908593515	0.3053403632424456	0.2812764815668639	0.21090664431149683	0.2916882801498534	0.3183678868067923	0.2651934100286616	0.3132315498218311	0.26810803728786803	0.15971612410306432	0.16866331910249807	0.08118454494037211	0.26783813369524556	0.24209242240220338	0.28066834249370765	0.3085952038412242	0.2985726277370868	0.3316457526235923	0.31844316053579613	0.31228799289330567	0.24256663247138163	0.18087555897729332	0.17636313932162975	0.26458164199981216	0.27849504698905103	0.27268294333846543	0.33820391791723337	0.31474616524689825	0.27562352071125995	0.2633464988406333	0.2551625556084576	0.2664995784903793	0.33226626748333166	0.3418850947600546	0.278020526122822	0.2595639635137911	0.27493614003540023	0.2574049957170079	0.27404900826917	0.33443764984939817	0.30462780021085434	0.28963276315475117	0.27468593912905426	0.26491435297525057	0.2643217419956143	0.3057087922123992	0.28230215164179917	0.3256623834128112	0.3098501028622652	0.3094994247720243	0.28996450728684586	0.28957864164114155	0.3308012825773421	0.2774458560764418	0.3308450111597373	0.30686166754032784	0.3007603660290564	0.30016138610695065	0.3097443817258232	0.26415499266536036	0.30125782512221255	0.2886000952053057	0.2939900876729985	0.2765599830527462	0.23912486099726613	0.3405907120995104	0.31639366090856114	0.30091947072427006	0.2704346894030524	0.27075844899672297
-0.3329404300070773	-0.3859428099264228	-0.29712951376696106	-0.49437287014930975	-0.41601428466587587	-0.5263909445136191	-0.43417017699150673	-0.35475742245296893	-0.43065757874387367	-0.438687560960599	-0.42804861745990874	-0.41101980482336997	-0.4082520845512422	-0.39458248103167726	-0.38692107132068976	-0.31193805571181066	-0.4157916384247963	-0.4536732479738461	-0.45062474299813693	-0.39466028071861425	-0.4271223458662057	-0.3912947042890128	-0.4034996532528675	-0.31686562170871113	-0.3360419679128924	-0.41885425812071475	-0.41836325033698973	-0.44103261728435306	-0.429923785836538	-0.42218940123437576	-0.407622795617525	-0.3739286665348346	-0.424879203928039	-0.4307128151985242	-0.3857719790991163	-0.42944469405613106	-0.35851497781362374	-0.382482698676591	-0.3811452022912002	-0.362253203181678	-0.44341280593080035	-0.4392202585236268	-0.3738341492989957	-0.36494475556083095	-0.3871982489650083	-0.3467249027680718	-0.41095428653208654	-0.41494219655964903	-0.35555603742024366	-0.3712217407690884	-0.34228361689236697	-0.4242382307834397	-0.4181173386452064	-0.3617518555968855	-0.433562336470373	-0.4392390996456359	-0.40368209473788896	-0.3669878004795112	-0.3883336642498575	-0.3692694269869031	-0.4183038372949469	-0.4016978137988836	-0.47669881603647246	-0.45733658260574206	-0.46999523660867015	-0.4152175125758063	-0.43706669668518705	-0.40926558176832684	-0.42908671421096733	-0.42436986905566887	-0.37349793362262895	-0.3940428645205051	-0.42384797818663567	-0.3964927665199327	-0.43315507930556196	-0.41386765750098775	-0.5049413713170463	-0.48537160503866095	-0.3763067311601508	-0.42585066756349954	-0.4353853804485954	-0.38716712756210236	-0.3042117467686749	-0.3969108959696157	-0.4196470405352657	-0.3951261966679158	-0.2574890254566151	-0.4036830400225998	-0.36945406597627095	-0.46254310825430456	-0.39487177599019985	-0.35593766694838946	-0.4768188035078418	-0.48080029529645074	-0.42729304701714677	-0.3714979040797235	-0.36628565157900606	-0.34228113874863175	-0.4525991105558054	-0.37029407587021124	-0.34601069513676275	-0.41013543423449716	-0.4451153103866631	-0.38246651585683655	-0.33638267475981054	-0.4312966872993358	-0.4299866200430812	-0.43410873226123436	-0.44571223579501873	-0.430638595547433	-0.40239256895581343	-0.3836104637933865	-0.5221853894129633	-0.38954635644687174	-0.42116163779970517	-0.36627516635825064	-0.41370593701142044	-0.39156624562955655	-0.48784402958511963	-0.4973007253830902	-0.5037935147885025	-0.40006739057897744	-0.3395653731180389	-0.36194774632272386	-0.3464393515661466	-0.38952147980229845	-0.40531584718714886	-0.43599799929218197	-0.3332592307775475	-0.40459130256284026	-0.424909023245607	-0.48157700291892414	-0.37977552740709675	-0.36302476045832577	-0.36350322879449626	-0.44168629113930524	-0.40279558880547484	-0.3337203162937733	-0.39778722429531543	-0.3077794167640695	-0.3442625972849259	-0.44082376400932677	-0.4352685256547276	-0.3448077363327289	-0.3051543561198612	-0.421535398334941	-0.31283858640676887	-0.39138865424754565	-0.4445116905570481	-0.42748786195106225	-0.34170829400603586	-0.40817600938492593	-0.33052439360295716	-0.3129228739487079	-0.4315576032299212	-0.3721536928864835	-0.4464106340931089	-0.4420536153511574	-0.4139712016107825	-0.4326626526213432	-0.3828289297331604	-0.4225862511568389	-0.3996350289937084	-0.4084800696170613	-0.4131265040720542	-0.42647036149858464	-0.34936182759605616	-0.43516357045041176	-0.37073119874954985	-0.3591212084457057	-0.3321120202160086	-0.4267498883270774	-0.28645151237824906	-0.39802056167555067	-0.4419382154432543	-0.4442765358460755	-0.4372485455617233	-0.3783871221065105	-0.37505246268500836
0.5800167858308048	0.5665703854635483	0.5879799506067607	0.3784127103601028	0.38459115182130166	0.4393574896126531	0.555523302817368	0.3505729016612569	0.5541168789100525	0.5518287434981436	0.540825036654836	0.5275351900265268	0.3701304494312636	0.384330652602236	0.34492273248822714	0.34755786165242164	0.5381842133801419	0.5954867914254307	0.5814404708788576	0.3878752713676883	0.5474348681892756	0.3074276107367796	0.3474343610223054	0.5792833447448726	0.5587464069070066	0.5415690145960382	0.5850314229267087	0.5645489117593969	0.5383446609039197	0.3566056288720908	0.5807104224230114	0.5572433445432233	0.5660018842205409	0.5561495045224316	0.37606875779486026	0.545572806931827	0.38047711843839105	0.5284017745620809	0.2990306361710001	0.39745413929296536	0.4172275901486744	0.5578428521482638	0.5003403844149046	0.2955961413658841	0.5025417744552944	0.436232279768215	0.5126823874624621	0.5766241162547286	0.491041168898499	0.5053442226884696	0.5770549048861143	0.5591008594321502	0.5491622889080344	0.40300925549105393	0.5716186314162325	0.567422555686889	0.30096476688424945	0.27180515825138607	0.30887391648651985	0.43270785363924835	0.5389773875201762	0.5628140953751857	0.4341949085348833	0.4587726927165051	0.4239234997084489	0.5387723064980986	0.5519444831398809	0.5415867515621696	0.5560417567595692	0.5421423242999884	0.5055539586595797	0.5773861491699642	0.5387302029810204	0.4407653852069645	0.45688513839697664	0.5529053242955589	0.42219766938048564	0.5256220924910594	0.42661353393039203	0.5588338296164549	0.5768821137237305	0.32817819874441245	0.3494088254249226	0.5175659482137188	0.5671454605219288	0.5766124227565462	0.29102764939175574	0.5014820072970021	0.3404609698866339	0.46088318462683187	0.37491743447293713	0.4376313154897925	0.4578687860824645	0.4825496312258385	0.5760747698447485	0.568621904551029	0.5662387425029507	0.3216761993056937	0.4456165717579592	0.5869150471137898	0.565878539755743	0.5657009854198878	0.5547736258147186	0.5049578447463994	0.43244379726785276	0.5727295492719954	0.5514361730851017	0.5578180170499333	0.5633421122915002	0.5735035053821892	0.5435115347748648	0.5024781325050963	0.4564322586026224	0.3864342009503299	0.5244540834324057	0.28902209912299437	0.5355032572733922	0.561099535329804	0.4408860670250354	0.4503575589544033	0.4924782121049093	0.5645971446617344	0.2894978159140822	0.5611658631453762	0.41348057330420807	0.5090833857534797	0.5157148166807758	0.5703240988302053	0.3633961161234138	0.36081422110720873	0.2661204616598588	0.399978491538444	0.5573076207668982	0.47223248682603836	0.580592557458769	0.5571484189326866	0.5331146925344757	0.573553616237997	0.578017088539214	0.5961148445910204	0.6028056366189095	0.582079803156273	0.555895805475607	0.5925904276145882	0.597036502040368	0.586147760550695	0.5930831452114353	0.5763771212857994	0.5357089550907093	0.5679850581681205	0.43773036471074855	0.5745430104053262	0.5917257663932394	0.5311977925831044	0.5016598775631081	0.48782274200443365	0.5780163679887832	0.5084349633376798	0.5302605665490999	0.5905510334215993	0.5789146975529149	0.5432821639447919	0.5317026041547767	0.5386841601181643	0.5472744058510233	0.5519921949461434	0.34191307059603315	0.5717646769816492	0.5860836687069179	0.40075477114063507	0.5651409254008134	0.5287497605596275	0.3666536589234358	0.3122661179302616	0.5618621885069561	0.5823869426184579	0.5885597188722831	0.46996283339523337	0.5802797040834908
0.38686578818066497	0.38442072729379406	0.4004920965178952	0.19121016222449386	0.17142752629361593	0.23438990877031554	0.41924047306037526	0.1357186536321107	0.4208545707748983	0.36287191557575293	0.40788715488386096	0.4260489152292034	0.21170068244721188	0.2376948308349214	0.23326995317351065	0.2964133003124737	0.4266339781362084	0.3646952569877824	0.3858079646169681	0.17390574291696928	0.34468809671102696	0.12605646588199734	0.18446538076532024	0.39378388127285346	0.4052975138263235	0.4238043286882579	0.3921123198109555	0.3790250398872115	0.35705766438939346	0.13050732377393484	0.39531724548950575	0.3950260750432619	0.36871475783458785	0.4025743069364305	0.23491641264345528	0.431902541638403	0.2671003705620628	0.43398617880596657	0.08392151501928671	0.14196141661911618	0.2336555801607728	0.4057287848468024	0.43090571894198804	0.09330693581287727	0.3719281417921013	0.3331540650873978	0.3742623098092128	0.38960467396023035	0.4168177872038522	0.3977664452726428	0.40963612677458705	0.36805961469801607	0.425071062384735	0.2887850848183773	0.3730467308795443	0.3871028181994123	0.16027737060083294	0.13530166432069526	0.17430138122829783	0.33288710065739835	0.39448339180519343	0.3783180096233477	0.2748541901153144	0.2106900633934869	0.24453314794981004	0.425744217014165	0.3835633329104723	0.4267413618243714	0.38526179524178217	0.41821115916388785	0.4597230461543297	0.39391146066932115	0.4179713301165875	0.2215638385764649	0.23400699795901336	0.41646356802943596	0.25548263881321254	0.2471198051360748	0.11693822758781455	0.41194615800818757	0.34638544465076704	0.19269196815492848	0.29920081093889633	0.4212210459840653	0.39084314901199535	0.39271469032040063	-0.0005885823087260766	0.40674665861789605	0.20267731775246098	0.2216788159667311	0.1430125972211441	0.3147315563800833	0.2711762433366002	0.25410825162759276	0.3633340986791156	0.3919525467500333	0.4018947338493557	0.1500412000829959	0.22228399144466437	0.3998964619907034	0.4023253464873602	0.36873928360859154	0.3596048412261392	0.4302359689740315	0.35528380381486724	0.4096402111076728	0.41618425333832043	0.4057609718629721	0.38253960084442706	0.36491971547494073	0.4190932669030826	0.4016537731907581	0.30904507583235374	0.2511889934558673	0.40461491147244466	0.1418415277734065	0.4191719130870484	0.3726856183031809	0.256541972252296	0.2624856147954773	0.21872784686707578	0.3862556740254689	0.03289099560748768	0.3973629358193569	0.31391050036961665	0.42720573236477766	0.39867612107397954	0.3930782811193543	0.2952126608178395	0.20972521444252215	-0.011818053692208758	0.17182259084781645	0.3759327344345631	0.3961372886337602	0.40233832619828713	0.3586514258409965	0.43524690097350793	0.3790290922305595	0.4026225830065808	0.3864236082078205	0.4128679019987691	0.3604489718554631	0.3856385791641904	0.4035051671198605	0.38722313344633297	0.40475513483728276	0.3798760856471879	0.3796839500068162	0.3867874942935915	0.3722837147872673	0.37422710406536897	0.37498254841415934	0.4108485201435813	0.3828878327231494	0.35860560155405374	0.38533870906875545	0.3422391132047705	0.3731979135243908	0.4318100493064314	0.33983703122621894	0.4275237959888868	0.4168497960516697	0.4212872213865747	0.427074747154115	0.41612596041297156	0.4086256763603209	0.1554679982293445	0.3844404578802456	0.4036887038940452	0.2976079992901869	0.4172653993439681	0.40223370461813246	0.27059118154906714	0.06685187145478191	0.36284976276471326	0.38365459371276023	0.36327548736892845	0.3852681182300912	0.3677985762466949
-0.378537056267917	-0.4750682477204178	-0.3529691001760106	-0.95508376866836	-0.8109520420567595	-0.9074059177159417	-0.5556619752089971	-0.6667896784783591	-0.5376960799162331	-0.5483422395031669	-0.5399048905795304	-0.557881090329452	-0.8217193416717139	-0.79141798625774	-0.7423787942369919	-0.5985966720499858	-0.5362186646131162	-0.516141299212293	-0.5319118055365892	-0.8285402465343257	-0.5624703556369782	-0.6931508626391845	-0.6730529606853126	-0.35879564069434555	-0.4196829405915923	-0.5574607564614692	-0.474525365951181	-0.5343622024553003	-0.593205032318416	-0.7381293072650807	-0.4561594518836377	-0.4483781536046888	-0.49429800633764254	-0.5293321329743622	-0.6737894669429862	-0.5344564254382091	-0.6429291995468384	-0.5716786027635571	-0.7665482969848046	-0.8106967981244924	-0.9025588357220106	-0.559847001681725	-0.571168345375108	-0.7411324044643781	-0.6614160707616463	-0.6439367746931478	-0.6443284928298381	-0.47665924840304486	-0.5813217386465375	-0.6142448910830286	-0.40485844867376397	-0.4965013545052269	-0.5524144007959788	-0.6551882864583034	-0.5163873727570925	-0.5295514370679916	-0.8501447247665244	-0.7002246325297935	-0.8432304190778641	-0.6540801486729952	-0.5620553073798551	-0.4705033733914721	-0.9054420986724561	-0.9058281352994435	-0.9124914631730168	-0.5444847088954979	-0.5379375624694959	-0.5711693440576983	-0.527100725841306	-0.5419170152363932	-0.5463521954013394	-0.4643016225202503	-0.54764221260151	-0.8276264622234426	-0.8508015970530007	-0.502820510743378	-0.9194489693462665	-0.8212437617383819	-0.8414714675978762	-0.533927632534656	-0.5139967632883292	-0.7613390966759094	-0.6133510493467187	-0.5181497779914602	-0.506668539197528	-0.4605205265013531	-0.6654899226577994	-0.5781285878135364	-0.6485983032102071	-0.8542654340125633	-0.8177390121355187	-0.6791765570645639	-0.8910192152155911	-0.8735414592526124	-0.49562226613567206	-0.44826793138118814	-0.4268101427154968	-0.6485434689510916	-0.8784381808584993	-0.43784256689243084	-0.4201412222988715	-0.47395974733909363	-0.5736408231648346	-0.5684430392921314	-0.6176654425782959	-0.5075665831789794	-0.5447767830553533	-0.5409130020321683	-0.5459696189514254	-0.4919079134233909	-0.5821668230136972	-0.6184525261255518	-0.8965902368331252	-0.727237128512581	-0.5528293516389132	-0.668426287592352	-0.5288560138273837	-0.47372427328438016	-0.9158713557440349	-0.9229496706993034	-0.92342130148641	-0.4673056524652365	-0.6797033907028776	-0.4509912690339084	-0.639520035610156	-0.5778473095176577	-0.5455416423132575	-0.5208063323155775	-0.6189588575163507	-0.7232359420867822	-0.8867457319851595	-0.969370638620895	-0.45506687597567774	-0.6002952134244741	-0.4301361278234106	-0.5508225068085322	-0.5202119692442347	-0.389073821125822	-0.4564262234840859	-0.33890830842466146	-0.3815378087233019	-0.5220167555104677	-0.5220896238245215	-0.37967261056893975	-0.33890997733186556	-0.4852562741390418	-0.3551459476596749	-0.4964542631264094	-0.5593178124573122	-0.5013380511411352	-0.6083740687289114	-0.47119125921953386	-0.3697725236298488	-0.4246408799211294	-0.5831279857601173	-0.6367577737053722	-0.51873087206296	-0.5792121892861715	-0.5443796558770548	-0.5254502997516796	-0.44902741230470566	-0.5167801743595684	-0.5999191680336797	-0.5119126641247024	-0.5603188816319895	-0.5610006444272398	-0.6378826010829792	-0.5113990900395219	-0.45003924841882614	-0.652196354664801	-0.39770869754731986	-0.5827524321575016	-0.5895785486318097	-0.7969141197400524	-0.5438724597331873	-0.5329798383984089	-0.5197021221670807	-0.6090183270595322	-0.4104278302193789
-0.42748860741419664	-0.4295158001796225	-0.44220191083833915	-0.43315855669523	-0.48749650618425255	-0.42819783887854906	-0.397402009340715	-0.5951131729790538	-0.3690526405923734	-0.38284864630639104	-0.363559500484986	-0.3407436900531027	-0.46103170992093667	-0.4805757618374632	-0.49091786811369575	-0.46167513284116624	-0.3444433084968426	-0.3873232335881412	-0.34776345720880175	-0.4623073989430996	-0.4065460565274498	-0.6060990857302254	-0.598367079999776	-0.42942948720523433	-0.4433535448049756	-0.3329422872477701	-0.38712103028735	-0.35664625028908686	-0.40500307614429576	-0.6847979862811275	-0.4149697460248959	-0.4241552239249543	-0.40404616112101394	-0.3679484785279653	-0.5513743855667009	-0.3526306353204244	-0.4782996898339199	-0.34912058740101815	-0.5623999252906552	-0.5541149248995839	-0.4239080941416191	-0.3544891220136098	-0.3437498421957298	-0.5903617445636268	-0.450958217835314	-0.44561930446115927	-0.41816567204591626	-0.40808186086320364	-0.37118240189557383	-0.424447912406476	-0.434963859746596	-0.41310506367074357	-0.34742387301423355	-0.4736697122035938	-0.37418248803970033	-0.3650747205201638	-0.4445089793472412	-0.5364985104357144	-0.40395260383253756	-0.3963824343270402	-0.34818931637393297	-0.4262357536565784	-0.3881921444150459	-0.42421593920329237	-0.3837871762717323	-0.3497336733839518	-0.36174867906452546	-0.34525931331691617	-0.3786597038241147	-0.352630668284736	-0.3638736497394337	-0.4264461494925354	-0.35447222200432527	-0.505126080760891	-0.4410355712843509	-0.36088527898277734	-0.3858122069413854	-0.49679309012865336	-0.5657053960301319	-0.34971342613946654	-0.3862218986200365	-0.47999268568408116	-0.4684407764761662	-0.3888566288136001	-0.3597172790938348	-0.41931558843893346	-0.5957131057764874	-0.33674912975988014	-0.5330509241493814	-0.48749722235889326	-0.5347413566839049	-0.3395858943918856	-0.41760363031003733	-0.4444096461571653	-0.38923414463552075	-0.4343559690004182	-0.4184711802649166	-0.5419537805679422	-0.39059436489382204	-0.4149768847716441	-0.4386155634389679	-0.41095089488660197	-0.3597991597657235	-0.35544421959537087	-0.38768329619012	-0.36125678892833946	-0.35225755651566726	-0.35230269728126773	-0.35411078866671175	-0.4011161107184876	-0.3440757370527475	-0.4231428419159875	-0.40220874381554494	-0.43769177895328754	-0.3641638095012477	-0.5617677593523723	-0.355502395752603	-0.43703156678797034	-0.3898366222041211	-0.39358027726928096	-0.4397020374366477	-0.4041564619413018	-0.6543177897861588	-0.4431556383163721	-0.44479284047389767	-0.362445882671648	-0.3545480676670245	-0.3584663267344389	-0.43927545917882443	-0.41355815533197204	-0.5207238891068658	-0.3948700224247283	-0.43224084959258346	-0.3837417725602193	-0.43145843976102294	-0.3738055559160631	-0.3525402198749844	-0.4393831248688146	-0.4114810531683862	-0.43787903754565816	-0.42267091672495316	-0.3626695682863028	-0.3669813687697127	-0.41929489931779435	-0.43511980708142106	-0.3868394837943395	-0.43151850553123244	-0.44464145949285117	-0.38343157448943466	-0.39187600294835234	-0.3836387568399895	-0.4156111655359457	-0.4426630097335732	-0.43706614190418197	-0.40519699191154734	-0.3941169085375633	-0.41073260634078873	-0.38881579178663284	-0.3612377459360862	-0.41595393266316105	-0.4036514915904829	-0.35998839774251334	-0.40735463211173273	-0.3437597939993526	-0.3270031372445419	-0.3733716604822145	-0.5725933229328422	-0.3774002057500687	-0.4175318211541703	-0.4482301988390506	-0.42123398877610707	-0.3727033849272875	-0.4293221631793577	-0.5601607987823175	-0.3695072575281578	-0.34544347126417374	-0.38405135617064584	-0.34894060793573706	-0.4304846780670389
-0.5127362258194902	-0.46861710398533585	-0.5155122794061893	0.11497466049165972	0.01866490949242828	0.1288234544905555	-0.4263040169361947	0.012845721455954244	-0.46271643170743204	-0.482159038557163	-0.48738927291381495	-0.4920560170439221	-0.005987305709960908	0.013363263451713445	-0.09006050050143583	-0.28774445729382614	-0.49380302908222695	-0.4727343143472932	-0.4953644937192667	0.08173295787771673	-0.4678068243181589	-0.11731840460491708	-0.14481124854615593	-0.5208112856596706	-0.5023711043956259	-0.48000265740688886	-0.48122175573734627	-0.49950931570457224	-0.4446120409658513	-0.020108939836461753	-0.48103438199049664	-0.48851110325714775	-0.48932932859429534	-0.49370329024730675	-0.2296452787842493	-0.49373105265715156	-0.30310628078984214	-0.4705983365052503	-0.09223726035183427	0.049780531703336156	0.08227210207718005	-0.47072704724191383	-0.4832423877073877	-0.02095723983145889	-0.35371801917698686	-0.35237425733732874	-0.37005831304162384	-0.47452313005949265	-0.45320947146402646	-0.38920083013378215	-0.5094602770392501	-0.48111182683354514	-0.47292924710519024	-0.32388877760481827	-0.4944121828718909	-0.4907886677345812	-0.0255513627180341	-0.1788598062955001	0.002437022123258914	-0.4049339659658856	-0.4802293562128598	-0.4772600316022124	0.09479169045983046	0.15997123089463183	0.1370835885069618	-0.47393967210781607	-0.49836190563462357	-0.47007529031759376	-0.48834306383676884	-0.4867062948101518	-0.5012755152533079	-0.4663490574883622	-0.48079999602295065	0.09845137484552602	0.12935744440346675	-0.4863170687102992	0.04066931067944164	0.15013042665384013	0.1163246428817892	-0.4829980748048418	-0.4901041992504416	-0.08526854902828379	-0.34133406729215354	-0.47828098896056315	-0.49208404319137866	-0.47624617658397395	0.05101657642013606	-0.4900865388224921	-0.1873233164081833	0.21901733629394052	0.055907797488762914	-0.3982743441173655	0.08138209066677199	0.09975616624330014	-0.4881284786900526	-0.4885186870123934	-0.5040405064717121	-0.24307915569011554	0.12695186399001465	-0.48341565012235954	-0.5021988118251156	-0.4810288581570339	-0.48038405852975796	-0.48827132659468475	-0.42664195537249183	-0.49494682829403147	-0.4874481140169674	-0.48941772153329777	-0.49491169484570807	-0.4906149164812511	-0.46221633561017306	-0.40495899993805495	0.07038298528924994	-0.06655768951819185	-0.48330142062211123	-0.1667968720997052	-0.4861061877757803	-0.46490413541622966	0.1107907162059576	0.09722237179815635	0.20408827389066655	-0.4917412198109985	-0.025700763529058646	-0.48927965698249876	-0.3481991813809332	-0.4758921688284463	-0.5009827533015793	-0.4889468612120921	-0.31335231939154096	-0.32403353088631515	0.0028876754685238717	0.015096642115440338	-0.47634493975448877	-0.4402883141879361	-0.48916530641729794	-0.4899785577261496	-0.49798849772285114	-0.5019420270056744	-0.49182015853145766	-0.5163593945334984	-0.505875197458448	-0.49788189510439695	-0.5045997321274219	-0.5142731717813445	-0.5112357122631274	-0.4717706260897605	-0.5076779196728511	-0.44153105154493644	-0.48401225791331104	-0.49155206357964276	-0.43202864010602504	-0.4697151931610767	-0.5154061210547742	-0.5219012060263722	-0.44746317506257516	-0.4162825479095458	-0.483992814902816	-0.46514196030251276	-0.4854594036421154	-0.4548474923570277	-0.49796251359836674	-0.5010233084094161	-0.41518731093099637	-0.5122194822385872	-0.4859699437886651	-0.4484140701556931	-0.15661722651599028	-0.49385478030864205	-0.48503873818454546	-0.33119745368521647	-0.5211757715506424	-0.45207002327329293	-0.4488297317593065	0.05625614797860058	-0.49456045226705536	-0.48381366277672544	-0.4708812507034167	-0.4479863353190259	-0.4925063702611734
-0.17670568331142075	-0.18425051010603086	-0.17253305145453282	-0.19640699721261737	-0.16398784659879584	-0.2224478755499433	-0.27502669877318486	-0.25344985011028376	-0.23377165321766122	-0.18269284587837306	-0.1859781934174315	-0.18684251806757932	-0.24497920776590704	-0.22849798494896864	-0.28389986047833315	-0.23767480656209647	-0.17760149901689465	-0.20786142591099252	-0.19502948613516155	-0.15394756841380638	-0.14871555636211614	-0.1895937859292904	-0.1833154514783978	-0.17405002564619143	-0.16904518593314158	-0.19202378329909084	-0.20074823876398928	-0.1744050577280645	-0.1749849255126424	-0.19486822537223422	-0.18854225687755302	-0.17806813994663873	-0.14074425153487552	-0.1610235099917291	-0.20248872590608058	-0.1736758216303375	-0.19370355195326655	-0.2187865894381261	-0.16260609139871093	-0.12900002532336105	-0.1487582494052867	-0.2065092535003471	-0.19611983704450922	-0.24277718806431609	-0.24648351977638108	-0.22360891826615656	-0.24848135550238296	-0.19251561782325385	-0.22589947986369757	-0.2537967091805311	-0.18684924156183805	-0.1580921462393564	-0.2151985386582753	-0.21250471911259808	-0.16794156780902422	-0.1798232049262323	-0.255748122777827	-0.19169866895796095	-0.22745557200002184	-0.19907592239522556	-0.15721237968100554	-0.16427716424755381	-0.21785301760191192	-0.25866394282730387	-0.2132121190002784	-0.20716503689917928	-0.1705705507662674	-0.21448358925389135	-0.16381383960930399	-0.1777529973029461	-0.17707193025375853	-0.20081032018623113	-0.1922012202139602	-0.14990512855853627	-0.22850230322914838	-0.21271739568348697	-0.2353825756695347	-0.22537863498136843	-0.09325854846019102	-0.19406659070146132	-0.15824858386168117	-0.2676582897344667	-0.22330730171626798	-0.2018456930394187	-0.18993683569916409	-0.19635207469409355	-0.21338085970274875	-0.16548318032187662	-0.2031675257132318	-0.209467699369501	-0.14412752682538718	-0.21578713352650006	-0.24212102384578774	-0.21781066795501688	-0.17085161329782786	-0.17450919564806047	-0.1756195373229604	-0.18649472352085156	-0.2590457718396284	-0.21440727616471175	-0.17571332659416697	-0.17175695248931008	-0.18026114525669423	-0.16941133930430005	-0.19806995401901098	-0.17791892268580062	-0.1758183927875939	-0.18185429090979127	-0.17735694745599914	-0.1686451280308149	-0.23139969756443057	-0.24609395382195295	-0.2623549376560027	-0.23846351068424287	-0.1925635665734732	-0.17137483966147535	-0.20013519675875543	-0.16949382661166282	-0.2318360882890696	-0.23542634774893942	-0.23689810334218733	-0.16776287262175277	-0.19817652612722292	-0.16892809037348086	-0.21212155956297266	-0.1944902749863701	-0.15138836790212598	-0.19301070713159824	-0.18586813634972332	-0.08676207754475845	-0.07688911362918599	-0.14337659898719324	-0.1688653481322213	-0.206640416747474	-0.18937467929799084	-0.15658179810463996	-0.18359821454958838	-0.17185526928155823	-0.18222291573998858	-0.18118389611301974	-0.20799567379515407	-0.16215067187463814	-0.1614076278797089	-0.1870183514298935	-0.19991493534397084	-0.2182492475703265	-0.18840554829761755	-0.20310355348090783	-0.1781819416006904	-0.16360628449372014	-0.21893065624581617	-0.183926663719483	-0.17687280268804248	-0.15685530790711824	-0.17625668698437916	-0.20969051801748956	-0.1595789427739715	-0.1773944137174185	-0.19675548236954452	-0.17641266727276392	-0.1986179884014203	-0.1736906414317177	-0.25012280117573243	-0.15780030289744207	-0.18609486657144103	-0.2260332417529139	-0.22320855097355907	-0.16026791909144128	-0.1935798101056904	-0.21812380715857352	-0.17411407232875534	-0.2001078280202388	-0.14163619879768327	-0.11848184584190619	-0.15576224581453813	-0.20651063877880016	-0.1950416272463206	-0.19885752786449742	-0.1844768993102367
-0.034353887140429515	-0.0059494028384078496	-0.04546889562612108	0.10137238963069933	0.14634233312768533	0.05237910840492695	0.05202127198324642	0.12039817439737888	0.04137471384963798	0.04805949746117427	0.03652587405381079	0.030733943873256286	0.18254522175674703	0.16180543956868632	0.17145051605488112	0.08596603603299885	0.01594119401845763	0.06923274946444874	0.051279857274708074	0.12515316093090495	0.006213654308313249	0.1078406239836453	0.06033027152426157	-0.041721284118192176	-0.03941112338802846	0.025644110577481352	0.02721679525074365	0.04218432708143062	0.020755693396170297	0.05991506100183584	0.022241629441746555	-0.004970321591497878	0.022190353722899625	0.029364631805311278	0.06042480254330485	0.026634101671153695	0.09026131657718989	0.03715493785887862	0.17121754974472764	0.15648003082581347	0.1226103228713986	0.05440791407947963	0.04373821898427778	0.16487924049169925	0.059862452837072824	0.08671386796857816	0.036556164931213414	0.020838861705910657	0.0501845512292588	0.048499559693256894	-0.008830025784319268	0.030942888322645745	0.0355138735042623	0.09183933822157897	0.03636858115025081	0.04403925632151773	0.14784078906093237	0.11891242330776351	0.14864708615466624	0.07884189540241823	0.01410074550467727	-0.006891244976544295	0.12630859198397176	0.1697881125328609	0.12520085260571195	0.02997885264204929	0.038043671299176365	0.03888568186650336	0.03403740993706361	0.02618112756058112	0.029231399536552405	0.009396705367838883	0.03355589783946854	0.12684628636480183	0.12546321375202393	0.01975209230803883	0.10450754658146884	0.1037503573874758	0.13876863559524	0.029308757758087042	0.037755625477807	0.18185236724196943	0.09768801060620863	0.02531515166378283	0.02344635731653838	0.014440665427361193	0.213163359344027	0.029397822982185837	0.11477188185508726	0.08102136992027892	0.1324755039315344	0.11876981014493804	0.1466838756792604	0.12977711803138464	0.030335784237403032	-0.01298254377468358	-0.01170015283832787	0.1243865328256141	0.1655940003771526	0.00709438188120582	-0.02064772042931179	0.018255709504290077	0.05880819652907854	0.022271511525689902	0.07525093586922564	0.026376581821024744	0.031985323355179146	0.03632586098236118	0.04763799687169028	0.03586196332029719	0.04135146240168075	0.036660159999281114	0.1112806466531492	0.12904106452453923	0.040178103971811124	0.11308198283816548	0.023644304095358726	-0.011574206002404414	0.13888526687174452	0.14102003464128413	0.13313078775416431	0.011453014104638434	0.1445687289877604	-0.023358338662671216	0.07959668397646208	0.04574960789454796	0.006329170239160048	0.03761293518153895	0.09520512056303332	0.06677072654763219	0.16661340270980862	0.1137813778681502	-0.012753996572166998	0.04218518189992662	-0.0146951575228811	0.04619144365067347	0.007776560040460734	-0.03893178351842408	0.017919044074520135	-0.05084939036757205	-0.013708823172163292	0.03597533673381258	0.0314900546334719	-0.025773622293233114	-0.045124975783643745	0.03185340052013859	-0.03841791594161076	-0.011409249465274995	0.06162904711230531	0.031599140862081265	0.08399347739000247	0.00838067823098864	-0.023902870328329148	-0.025350031557867428	0.050535244908824814	0.048114929389638975	0.048589780974873514	0.06205369195791495	0.032845547126956004	0.027112107570144678	0.0014439219383164115	0.018221724656253213	0.04556734653024248	-0.002969622951030537	0.027375866115758415	0.030485025769450586	0.12720258029029308	0.0324134963290572	-0.005861886998607568	0.09400675890892085	-0.03380136374064907	0.03227229337512899	0.07493592449066788	0.1573392710785592	0.04237046227385051	0.05029457023921988	0.03811422731861357	0.05362490144955795	0.00011989748431452674
0.4219569887797253	0.41724382673322014	0.40355088230031144	0.48527981703264234	0.33023664565108946	0.46010091153294763	0.457519944688516	0.20515077440136412	0.4690906346008741	0.4242287822480315	0.4401400904628653	0.4622599445514278	0.31018040384253076	0.2847686871068249	0.2367578723962405	0.27841294686951257	0.4691092673738575	0.45006562816478834	0.4826506409741983	0.3478349802126435	0.41545141341472225	0.1996037418754664	0.18913823895318818	0.4132760889356203	0.3811667918416183	0.4951936539190436	0.465161948916642	0.4571159909414749	0.4205165298645308	0.19621712518621673	0.42211595721641615	0.3980347451635553	0.40054587183606316	0.4377037340794534	0.2331682255133715	0.4508541751014935	0.2851976777946408	0.46848824614526985	0.2593169013146339	0.3189907848486935	0.43886190515558077	0.47069690074520143	0.4379444840295025	0.22719467078611336	0.39102493189451304	0.3627107192131992	0.4661835623542371	0.4376403952957201	0.4299826956317805	0.4092106839463441	0.39239502306591423	0.38878844114018485	0.4843987780053782	0.3263307136304716	0.44663697433921645	0.4531615243194701	0.3669720995129103	0.2801761358059054	0.38140897003935204	0.4056401676885123	0.4701003838061626	0.4079979461323351	0.4898678945709324	0.5479461753253255	0.5075320641158735	0.47349084113415774	0.43977115351108054	0.48033363446059085	0.4287871904740447	0.45783340477313506	0.40161731104709264	0.42483287695470817	0.45794732757100653	0.35403621177247535	0.44462892053945724	0.47309233244473126	0.44269820769770385	0.42807695503981424	0.3682497556837302	0.481344171389145	0.43411785256390756	0.27979027575144755	0.3101144523701924	0.40061047141885275	0.4794541271078373	0.42670709551491215	0.21600317636628288	0.45118754444133635	0.2120917366259433	0.5050014258514066	0.3063243245261299	0.4520259488877737	0.476626251724907	0.4814695813206561	0.4380560670426844	0.4020054571855196	0.4106623337615396	0.2521915906130594	0.49440298109070324	0.44754914615154107	0.3863702232945253	0.41384748683144	0.4495248759261752	0.42945161060196757	0.4100033777597649	0.46547336587381327	0.46122144188026437	0.46531854116311877	0.45692324095846115	0.4144741589091513	0.49320445020810577	0.40673905436291335	0.4137618827706513	0.28700981773664846	0.4343846737343272	0.2303380902525303	0.46149553990419967	0.40309209936230583	0.5001991752666446	0.4893007983173414	0.5338135208947571	0.42129597302015387	0.19432157046174306	0.3840324161813432	0.3598425893828897	0.42433214180893475	0.43587555410560463	0.47011158832088484	0.28068657701750455	0.3872657855632249	0.4950100055279515	0.5152024415456559	0.3993488171735585	0.4138438740794118	0.41823896667219984	0.42545808082581527	0.45748220744977264	0.40732922756017265	0.4186210155365464	0.4306783647151762	0.4413314351330526	0.4633483244215879	0.43272123144867647	0.43557180906499016	0.4459059147148303	0.4737646996083986	0.43855496852195086	0.4284386123466811	0.39378174538701094	0.4234217515617388	0.4025014609521549	0.43174652523632917	0.3919574022327841	0.35108599008118246	0.3723750018785217	0.42502124579237277	0.40185653980578107	0.385264266684363	0.4401659364395012	0.4462222552748861	0.43844209934709544	0.4424564858493574	0.4308359747975994	0.4629275371836694	0.4964903307421822	0.47822292485073126	0.1961664624718177	0.43647004321392213	0.4419738770591153	0.34859727472102575	0.4047636094764022	0.4529534451005194	0.3441756487136417	0.3054585982977238	0.4333335799803366	0.4985416371755277	0.47176587990322505	0.4647370646590102	0.4147252571946737
-0.5986847559915595	-0.6032850244738207	-0.61286361395741	-0.21906971689284432	-0.2460218132424229	-0.2757539788631666	-0.5665197424589016	-0.25543374835966426	-0.6017044375151738	-0.5720713576934155	-0.6085618722178596	-0.6404290016446202	-0.29690862042863425	-0.25941820957123785	-0.35049664091575133	-0.44728846533287786	-0.6416758070780286	-0.5896917230728829	-0.6125550042403826	-0.21917636800261858	-0.570807724598601	-0.3223530862112351	-0.30911890833561956	-0.5887656238370355	-0.582612427809219	-0.6674560870140459	-0.6248044714818838	-0.6075492503226054	-0.5765208900886891	-0.17956089559504934	-0.6078312935190697	-0.6006038389388291	-0.5949650125788533	-0.6199917881534145	-0.3792809535258405	-0.6307123508806189	-0.4262004538108353	-0.6233413846322527	-0.2910407789958349	-0.1507821417603849	-0.19822350534394934	-0.6275823252425023	-0.6131789733845923	-0.2999566417180774	-0.5182609127277317	-0.47378179765795314	-0.6015045268652662	-0.6082324620078331	-0.5843940787350508	-0.5354677234801747	-0.6037956956395044	-0.5735885300647452	-0.6317983167053232	-0.4388048787668826	-0.6156803528743359	-0.6163049381965258	-0.4061937217652669	-0.4180037131177623	-0.3820450935377904	-0.5606409460877154	-0.6464318199682785	-0.5844047122364064	-0.2774334000948205	-0.3056041160854495	-0.26317884724997814	-0.6365724999970288	-0.5947906701112063	-0.6377272258406703	-0.6128134302607896	-0.6373685446328095	-0.6025475023899916	-0.5997803138045434	-0.6299362015233485	-0.17275662715191237	-0.2768803163929449	-0.6082769222290574	-0.31010077276981335	-0.29016612687384746	-0.1048865276539651	-0.6355362725080563	-0.5969127296559021	-0.3393503226898423	-0.4545007373710178	-0.5963406535367201	-0.6316333324314365	-0.6081449578820763	-0.2663412487091125	-0.6424270085941001	-0.36223917289568136	-0.2868461942268887	-0.17959204101600712	-0.5747297251400253	-0.286010258326029	-0.2739021229850632	-0.5977816854804243	-0.5977866778991268	-0.6010549008121403	-0.3963428336548656	-0.29146514110735977	-0.6214744036044352	-0.5967311093834186	-0.5876697357095185	-0.6060600883959038	-0.6169178213356117	-0.5549029494181911	-0.6282891891073682	-0.638041742589191	-0.626434271332996	-0.6085740098144323	-0.5798643084372612	-0.6273835012805563	-0.5656403413913784	-0.3292865898866797	-0.35566815640818367	-0.6105968930056339	-0.3588995859419754	-0.6206434032208118	-0.5898143018693193	-0.2805639451553918	-0.28746388413511076	-0.2875334665826375	-0.6262372851222533	-0.2595503634412283	-0.5888318070948739	-0.4639732553871324	-0.5970962749065092	-0.6231666990810611	-0.6122424216317652	-0.43769877973767124	-0.4631441180026068	-0.3080694746189015	-0.28823474414732325	-0.5920925940313556	-0.5829922973402495	-0.5993090928955447	-0.5968352972364918	-0.6288500443967504	-0.5867439943941327	-0.6223981661149629	-0.6112371298283362	-0.6117511434210208	-0.6154817178090558	-0.5917211646292916	-0.6075449858306774	-0.6075866212190151	-0.6258012565625963	-0.6122825480853472	-0.5848599839860602	-0.5694960878512656	-0.6005764314673349	-0.5617979443885007	-0.5947047596424917	-0.5931886733593206	-0.6044464063856685	-0.5509014396100026	-0.5793142694557684	-0.5665604893659526	-0.5791611687953578	-0.618846954612207	-0.6087588891432384	-0.6100214106006266	-0.6047640811162194	-0.5794572716345975	-0.6341937794104553	-0.6609044411916433	-0.6145967945798132	-0.29519792998008154	-0.6128180070812037	-0.6301944411361183	-0.4729106326108698	-0.5982803560988053	-0.6220950063723981	-0.5371991698686339	-0.19600614087976082	-0.6008004119614776	-0.6280465400474659	-0.6144986507362893	-0.6364708262059143	-0.5885631813088873
-0.2694587009255154	-0.2711343030885812	-0.24454115677468652	-0.02864029222241464	-0.0664867520848343	-0.031809595457394105	-0.32218747111648965	-0.1267121314751447	-0.33640122208204115	-0.32993259276258774	-0.3380439613315051	-0.3539587018166171	-0.10748472048969922	-0.06205210738451643	-0.17919548714240763	-0.2969665494559631	-0.3438936422129731	-0.288105708903688	-0.3455742255256561	0.07431433216728066	-0.33990555555828067	-0.17486847488982474	-0.16777208788845263	-0.2701211268689533	-0.2730035667575554	-0.3480853779403971	-0.2852911735490359	-0.34479692624536723	-0.341901263606272	-0.05227775322093553	-0.2517213272296906	-0.2580353791077052	-0.2732951701324855	-0.31643253572601215	-0.2306710592322866	-0.3266066409735173	-0.2670979238592347	-0.3648992775438036	-0.12273530440309478	0.11646092394190154	0.08056322408417026	-0.3319978376875435	-0.3561723662728197	-0.1439866908975686	-0.32219146441496765	-0.33176107033355906	-0.342246745235138	-0.2723407541470778	-0.3715269210364242	-0.33901602361187005	-0.2558660799093966	-0.2666999483726093	-0.34884430024295915	-0.30430655999124284	-0.3154107100626363	-0.32561929172887827	-0.15885316281649497	-0.22255077658488548	-0.08450136440331134	-0.37401866086874885	-0.3436642517215604	-0.26784305870328784	0.02547494110411945	0.01457971965263656	0.027584512643033618	-0.33629243506278866	-0.34183366676182536	-0.3517992032109619	-0.31044689796205166	-0.3255049349237557	-0.3447837883557891	-0.259395586741135	-0.3349873022739931	0.1413964660947843	0.1037347080396858	-0.33556735219262185	-0.06658472309694051	0.09444973752574014	0.1870574466787806	-0.33429346924718095	-0.30303486937039853	-0.16508768228080406	-0.33039297965729986	-0.30850521093180355	-0.33234372256691475	-0.26282515777451887	-0.1147590230064632	-0.35641607886039245	-0.20591900113099182	0.07258911558621296	0.062460781984946215	-0.40745642647914715	0.030162150678288133	0.07797273550883656	-0.2923311507598703	-0.2687747227516805	-0.2715444795385493	-0.2138951681791882	0.007631536596988717	-0.27484036515169585	-0.26074477938628543	-0.26599108308682207	-0.34985521224626687	-0.3495152994577994	-0.39443756995662516	-0.31671509457257063	-0.3269470903036255	-0.33609039033593036	-0.347386212341406	-0.28118046970951177	-0.3722609281253016	-0.35852998716805956	-0.07453056713623664	-0.19811914691773846	-0.3488503062479623	-0.1912496556650121	-0.3499030854070671	-0.2585334569656397	0.007821958277724625	-0.005440706414285748	0.022873855819324676	-0.2687447032131144	-0.11688260357961981	-0.2705879945939604	-0.33250331310895864	-0.34978666137029985	-0.35598724382525904	-0.3311312914717956	-0.27513734319889305	-0.30947896924559803	-0.19618859506902847	-0.0735107916407279	-0.2537258644059782	-0.3622916164420715	-0.26847357013432605	-0.33141205326117446	-0.3492394992910832	-0.26261044658744137	-0.259905172585343	-0.25026655042248647	-0.266541050906113	-0.3293259786894075	-0.3320974892765672	-0.27028604873198114	-0.26816729071120315	-0.2920641322976004	-0.26085051425655786	-0.28117964735787715	-0.3240766433823268	-0.2921084627203031	-0.3812236658627363	-0.26446601525601227	-0.2385971991169148	-0.26360580017813123	-0.319523980293437	-0.3655476017175647	-0.2851451081945093	-0.32072844639056103	-0.3420421385343759	-0.28739352898320514	-0.2936052860746339	-0.33948983930373633	-0.3389150597509326	-0.35305984713387073	-0.35442955369833834	-0.3445861314649186	-0.17884968190976497	-0.3035240257184556	-0.28313847065781567	-0.3247925480661633	-0.28432000353826825	-0.33578238029068214	-0.3468586232278415	-0.06369409801507096	-0.333284989055531	-0.343909375271741	-0.30991861803985304	-0.38373210972608407	-0.2443232124190033
-0.3101849124350386	-0.3765834668369885	-0.319574499475846	-0.746057030394041	-0.638045017894678	-0.8528131545468343	-0.4206117426873868	-0.6005274436444913	-0.38318349901907706	-0.3493433910437365	-0.36536297306478915	-0.3843066734805603	-0.6934165746728712	-0.6769371126541373	-0.6817337448026867	-0.6304369414157867	-0.3620202063869428	-0.34605846921911637	-0.334338689878087	-0.7103596209858599	-0.35309850965109985	-0.6135356672119099	-0.6305987917507172	-0.30399653360551876	-0.3620747514391493	-0.3703031481386279	-0.3436156003438541	-0.33434026983248816	-0.3890836692516992	-0.6663808284635752	-0.354614573278256	-0.3602891979759949	-0.33425616844762657	-0.3543832280601461	-0.6361445484136181	-0.37110795671409696	-0.607869699755744	-0.4298576091040977	-0.6112449421276565	-0.6690479412621315	-0.7962683885653807	-0.37476998074709633	-0.4429580318365216	-0.6319859027432522	-0.5911143777282878	-0.6090320393783286	-0.49263176444183515	-0.3577961375233443	-0.47518749282288103	-0.5318693936336594	-0.3532371832065952	-0.34417805574966326	-0.387413825803419	-0.6032468008855754	-0.33606699767213505	-0.3489622015370082	-0.694085200439005	-0.6113587311964184	-0.6820022787784668	-0.5290430871350407	-0.34056071697437623	-0.35440272664148	-0.8271593893471958	-0.8872832704893157	-0.8237683419971431	-0.37883934582705875	-0.3404621772074883	-0.40326818880342324	-0.3516977226487612	-0.3700611758721295	-0.4448599593663189	-0.3702306265888994	-0.3742210780245962	-0.6922579125388391	-0.7944744224958001	-0.34663362352568444	-0.8578117937893639	-0.9278813797082566	-0.6611696225710437	-0.3569908182417149	-0.31842997497557024	-0.7020207424984852	-0.6157619066154776	-0.39430956918919263	-0.3364143447051657	-0.3607197808420328	-0.482986479560576	-0.3930867039281522	-0.6242362663325107	-0.9233460703126524	-0.6698633132116583	-0.538106894838773	-0.7736304371912714	-0.8189471337349388	-0.32718181707240396	-0.36479382028322854	-0.3381014972083481	-0.6183357448684548	-0.8458598514728692	-0.3528259800225894	-0.36055140497966326	-0.33430409485311047	-0.34357742012415077	-0.43533730701515094	-0.529205197519561	-0.3475139204484891	-0.366047963312006	-0.3561157997178856	-0.34148710507757657	-0.3338250129313555	-0.4163982783390069	-0.516269378485135	-0.8543727917510738	-0.676280777331783	-0.37399443302308405	-0.6093649550006559	-0.3625456395598133	-0.3698367276169096	-0.8474873589714056	-0.8481083195912975	-0.8732653001458017	-0.35074946407693647	-0.5613726148111409	-0.3799856542909325	-0.591527715193156	-0.4513124526095272	-0.34559475425306363	-0.34168441807703015	-0.6221080410054443	-0.4720541976943862	-0.5200742384382903	-0.7560197539895444	-0.35469159637276687	-0.48806101734077817	-0.3564880828395293	-0.3337233021927229	-0.36224336523816786	-0.32175374828641484	-0.3621412821175927	-0.2932835808345713	-0.33017465788458183	-0.31492726235978635	-0.3348208249865486	-0.31525514863845155	-0.298886527922198	-0.36179675128592814	-0.2991368236699596	-0.402323024425895	-0.37290494356772746	-0.3393381527633445	-0.5173962655406094	-0.34648920119008325	-0.32952850472545725	-0.3618210806253454	-0.39664056933013864	-0.5226197473027194	-0.3422073286118041	-0.39900948961711125	-0.3915679776165076	-0.35747508725715577	-0.35889495942220767	-0.34992471780207773	-0.4941752221522197	-0.34030680017182174	-0.36960873757358303	-0.39865190373116893	-0.6147796467793687	-0.34131156860264794	-0.36474158051031075	-0.6018554828338889	-0.33221285012546486	-0.4105575033281405	-0.4982502653795628	-0.605378624131262	-0.3296235391322553	-0.33825339276273547	-0.34858387630660975	-0.4436486038094472	-0.3182085715135378
-0.8515908754545707	-0.8684096071332937	-0.8557275249123644	-0.7152917212246941	-0.8822463000991807	-0.6572555962967919	-0.8954236381124612	-0.8044325431836147	-0.9068729874784733	-0.8690113083841798	-0.9114280961191825	-0.942432347781793	-0.8988541245386347	-0.8938368981128517	-0.8552174276719382	-0.9127414894175317	-0.922316340189377	-0.8738641431482097	-0.8749745703004516	-0.9277543768221239	-0.8286061764716766	-0.8391306017978158	-0.8094946061538024	-0.8447936843912001	-0.8614768756261122	-0.9354714537374861	-0.8894209837500355	-0.8782199723250306	-0.8526908156466873	-0.6779512394844351	-0.8932441630173398	-0.8892607765652933	-0.8704707359124803	-0.9026132019642656	-0.8208529670718752	-0.9239364708837761	-0.8852521189955298	-0.9545650036096381	-0.8841184936415596	-0.8988652521597809	-0.8691293169835476	-0.9200261305694142	-0.9849666208849647	-0.8598103731472746	-0.8966175478063676	-0.9118566896659679	-0.900535111611785	-0.8840609276981216	-0.9599278778902056	-0.9104627233617466	-0.8879082170371482	-0.8751919483968023	-0.925871650278068	-0.883598636502791	-0.8791731689311586	-0.8904291848253241	-0.9445511252054901	-0.9064141498295144	-0.9666316962331053	-0.932645982575802	-0.9100429695979211	-0.8568624394220206	-0.7852603919776764	-0.6992546547057241	-0.8059539955042403	-0.9343458844225184	-0.8819168301203255	-0.9391012365537903	-0.8953150691632893	-0.923612417710236	-0.9618912796511636	-0.8799912636236774	-0.9270370902068588	-0.8173363729393395	-0.7661150683722968	-0.8996031762428528	-0.8313879288699466	-0.6339169246680616	-0.8487259507207533	-0.9087919101277473	-0.8569459538233475	-0.9078920968184745	-0.9329277225791658	-0.9348684527017632	-0.8873710293958015	-0.8879245989688747	-0.9227345112961839	-0.9560477497786869	-0.8774136488061146	-0.6294299057506768	-0.8840767882815159	-0.9785822230944861	-0.7363434514282524	-0.6869360746292112	-0.8647253885059567	-0.8681003004455363	-0.8828860291503324	-0.9326790804286518	-0.7733713267259134	-0.8887061732517333	-0.8772016730016632	-0.8728685492280462	-0.8884847309277928	-0.9539211050908327	-0.926861104679929	-0.8945225950361775	-0.9199160199708645	-0.9045635200737725	-0.8844240471662916	-0.8675177481329045	-0.930540102813065	-0.9166136700395088	-0.814931345001652	-0.9379136719822179	-0.9241074169118868	-0.8885698652545007	-0.9173404477078644	-0.8562568431327959	-0.766612842647729	-0.7660145081194732	-0.7114110175787285	-0.8940193554028036	-0.8288506533205632	-0.8629587261253712	-0.8952931686273818	-0.9619573613304768	-0.9109237555620756	-0.8847292889957348	-0.9493242683728367	-0.9800168761336088	-0.9287433627849274	-0.8967586867833042	-0.867248480556627	-0.9566451071569788	-0.8676140116671005	-0.8778533798420519	-0.9199737150096895	-0.8438298669569919	-0.8988827573759197	-0.832609519913482	-0.8702775218254815	-0.8609395207269971	-0.8765033748766868	-0.8603943515917265	-0.8310315152614738	-0.8961296953743629	-0.8421181269512166	-0.8381213047077934	-0.9055085457515873	-0.8776635921512234	-0.9611197887722367	-0.8632722477843234	-0.8633065736744356	-0.8983204239246239	-0.8947185320044913	-0.9345133818760301	-0.8466638143610603	-0.920305514936478	-0.9347814871876128	-0.8387790106066306	-0.8893923208754771	-0.8991329817541367	-0.9209147541378884	-0.9019895870358835	-0.9303288634360511	-0.8943323302795841	-0.8530498751721111	-0.8815456608826064	-0.877125947496256	-0.90186711994322	-0.8772259978865529	-0.9141860852908533	-0.9615144893232854	-0.8839900903542228	-0.8749059812467124	-0.8821466645267614	-0.8579069438788853	-0.976125281485694	-0.8638594402886417
-0.06870840716706218	-0.018497830750392158	-0.07282536945212681	0.21587644130158684	0.12491550329313786	0.22305404693783135	-0.002514065309978983	0.1477657600849126	-0.01238079943200393	-0.003790016239387059	-0.007035570264179808	0.00034445142146541374	0.1518960910026082	0.11348374901102293	0.16783442038299562	0.07838664100014746	-0.0028012648486558656	-0.023427534508491166	-0.019849424739051866	0.11869470326375023	-0.004076487507811977	0.20556071731524023	0.15579121515672872	-0.08198108151774078	-0.04657573710912913	0.012449519955089583	-0.03355953165335443	-0.01650538042795663	0.01851910479128091	0.19029211809776647	-0.0389824210027746	-0.033893881554914435	-0.0302159950062946	-0.012707199830815391	0.12204648749354574	-0.011102690074205473	0.05692478446605784	-0.012132903537222878	0.21287796797698266	0.10709456699140124	0.13154380936323692	0.006692988243567788	-0.014947614525304714	0.23048023772954207	0.033741611160331	0.02370712100352218	0.07734743364783832	-0.02985947108182485	-0.007112382266536987	0.010119243732992639	-0.05393828078658411	-0.027671522520520436	-0.010878277163883787	0.05510507782869406	-0.017647456682414325	-0.013160028048725125	0.21842230508847743	0.2190763007681537	0.1924397833576175	0.05714375191769695	0.0053699889126244404	-0.03125820806709095	0.16033953645748242	0.19235453573830996	0.16954748862274927	-0.0004796290562887884	-0.012600209619557781	-0.0007081591868275394	-0.010785302749031472	0.0012780564153068719	-0.0139238750935127	-0.03024337830989904	0.0021576336620028336	0.0933473342614311	0.12992672005973846	-0.027954941181047743	0.17888731698477492	0.16712670898669799	0.08971493268692049	-0.005494829653303029	-0.02291102389943306	0.15331627993928504	0.08018988367014307	-0.010345536255250032	-0.01815564607715847	-0.031644527888464974	0.1882311929908346	0.013102044346620823	0.12582645105187587	0.2633677521497261	0.12768800914354253	0.025232528170273313	0.15199311070453647	0.137853168446626	-0.027293079572469986	-0.03399660068872637	-0.048341589921027495	0.11547757927855481	0.1631473546577473	-0.0382237815120513	-0.04512462973379036	-0.03298821962041093	0.004615401675673619	-0.003408474286500207	0.02686576864790796	-0.024635519605376993	-0.001502136864803244	-0.006235259447149005	-0.011979420122925952	-0.031937548897481766	-0.010225982568714237	0.04221699292371367	0.16980102269685446	0.08272139797231509	0.003668824483538266	0.18229360876204503	-0.0104834838618314	-0.022224778063935996	0.1749864461552449	0.16979900169286918	0.2248208093434782	-0.025152884763913363	0.23465812373033468	-0.03170396884859544	0.029767444461650416	-0.012664331414825536	-0.0011506776799596885	-0.021085001283072252	0.031450702896525407	0.06307244443146995	0.22551004999656438	0.18296671117311347	-0.031162560765552072	0.02106940931383977	-0.04488417676043288	-0.011226918518253262	-0.012731773732259505	-0.06171462258839172	-0.03387027101757342	-0.08413824455738958	-0.07078629463624203	-0.024533791700964855	-0.023161314842267855	-0.0723322357017033	-0.08715065362673687	-0.02849888285377275	-0.07569179566736357	-0.012002103242899353	-0.00211647758542223	-0.0224329884771739	0.022550919753490106	-0.031678378657122364	-0.07431085432314374	-0.02867672551788933	0.02027934524687061	0.029405941365756916	-0.020426997705304484	0.02256409571708004	-0.00724469361575647	-0.0059645432764730555	-0.04501420309490778	-0.024071111113859595	0.018486074085270338	-0.020887275926381427	-0.0065934227173825855	0.007171418890180525	0.13311115308310276	-0.023147937517405404	-0.029725918171943227	0.05392778657935984	-0.06017615208378699	0.02787696104684255	0.053090359673312104	0.16119159869499278	-0.015652276777729124	-0.014929026918427069	-0.01372315132722847	0.04370302624849082	-0.05942001079809017
