NIPT-PRL-001-25-BL-Px_S1	NIPT-PRL-001-25-D14-Px_S2	NIPT-PRL-001-25-PD-Px_S3	NIPT-PRL-002-25-BL-Px_S4	NIPT-PRL-002-25-D14-Px_S5	NIPT-PRL-002-25-PD-Px_S6	NIPT-PRL-003-25-BL-Px_S7	NIPT-PRL-003-25-D14-Px_S8	NIPT-PRL-003-25-PD-Px_S9	NIPT-PRL-005-25-BL-Px_S10	NIPT-PRL-005-25-D14-Px_S11	NIPT-PRL-005-25-PD-Px_S12	NIPT-PRL-007-25-BL-Px_S13	NIPT-PRL-007-25-D14-Px_S14	NIPT-PRL-007-25-PD-Px_S15	NIPT-PRL-009-25-BL-Px_S16	NIPT-PRL-009-25-D14-Px_S17	NIPT-PRL-011-17-BL-Px_S91	NIPT-PRL-011-17-D14-Px_S92	NIPT-PRL-011-17-PD-Px_S93	NIPT-PRL-012-25-BL-Px_S18	NIPT-PRL-012-25-D14-Px_S19	NIPT-PRL-012-25-PD-Px_S20	NIPT-PRL-014-47-BL-Px_S94	NIPT-PRL-014-47-PD-Px_S95	NIPT-PRL-017-20-BL-Px_S96	NIPT-PRL-017-20-D14-Px_S97	NIPT-PRL-017-20-PD-Px_S98	NIPT-PRL-019-47-BL-Px_S99	NIPT-PRL-019-47-PD-Px_S100	NIPT-PRL-021-25-BL-Px_S21	NIPT-PRL-021-25-D14-Px_S22	NIPT-PRL-022-52-BL-Px_S101	NIPT-PRL-022-52-D14-Px_S102	NIPT-PRL-022-52-PD-Px_S103	NIPT-PRL-024-52-BL-Px_S104	NIPT-PRL-024-52-D14-Px_S105	NIPT-PRL-024-52-PD-Px_S106	NIPT-PRL-026-47-BL-Px_S107	NIPT-PRL-026-47-D14-Px_S108	NIPT-PRL-026-47-PD-Px_S109	NIPT-PRL-027-25-BL-Px_S23	NIPT-PRL-027-25-D14-Px_S24	NIPT-PRL-027-25-PD-Px_S25	NIPT-PRL-028-25-BL-Px_S26	NIPT-PRL-028-25-D14-Px_S27	NIPT-PRL-028-25-PD-Px_S28	NIPT-PRL-029-25-BL-Px_S29	NIPT-PRL-029-25-D14-Px_S30	NIPT-PRL-029-25-PD-Px_S31	NIPT-PRL-030-25-BL-Px_S32	NIPT-PRL-030-25-D14-Px_S33	NIPT-PRL-030-25-PD-Px_S34	NIPT-PRL-032-47-BL-Px_S110	NIPT-PRL-032-47-D14-Px_S111	NIPT-PRL-032-47-PD-Px_S112	NIPT-PRL-033-25-BL-Px_S35	NIPT-PRL-033-25-D14-Px_S36	NIPT-PRL-033-25-PD-Px_S37	NIPT-PRL-034-25-BL-Px_S38	NIPT-PRL-034-25-D14-Px_S39	NIPT-PRL-034-25-PD-Px_S40	NIPT-PRL-035-25-BL-Px_S41	NIPT-PRL-035-25-D14-Px_S42	NIPT-PRL-035-25-PD-Px_S43	NIPT-PRL-039-25-BL-Px_S44	NIPT-PRL-039-25-D14-Px_S45	NIPT-PRL-039-25-PD-Px_S46	NIPT-PRL-040-47-BL-Px_S113	NIPT-PRL-040-47-D14-Px_S114	NIPT-PRL-040-47-PD-Px_S115	NIPT-PRL-041-52-BL-Px_S116	NIPT-PRL-041-52-D14-Px_S117	NIPT-PRL-042-25-BL-Px_S47	NIPT-PRL-042-25-D14-Px_S48	NIPT-PRL-042-25-PD-Px_S49	NIPT-PRL-044-25-BL-Px_S50	NIPT-PRL-044-25-D14-Px_S51	NIPT-PRL-045-25-BL-Px_S52	NIPT-PRL-045-25-D14-Px_S53	NIPT-PRL-045-25-PD-Px_S54	NIPT-PRL-046-25-BL-Px_S55	NIPT-PRL-046-25-D14-Px_S56	NIPT-PRL-046-25-PD-Px_S57	NIPT-PRL-047-25-BL-Px_S58	NIPT-PRL-047-25-D14-Px_S59	NIPT-PRL-047-25-PD-Px_S60	NIPT-PRL-048-17-BL-Px_S118	NIPT-PRL-048-17-D14-Px_S119	NIPT-PRL-049-25-BL-Px_S61	NIPT-PRL-049-25-D14-Px_S62	NIPT-PRL-050-25-BL-Px_S63	NIPT-PRL-050-25-D14-Px_S64	NIPT-PRL-050-25-PD-Px_S65	NIPT-PRL-051-25-BL-Px_S69	NIPT-PRL-051-25-D14-Px_S70	NIPT-PRL-051-25-PD-Px_S71	NIPT-PRL-052-25-BL-Px_S66	NIPT-PRL-052-25-D14-Px_S67	NIPT-PRL-052-25-PD-Px_S68	NIPT-PRL-053-25-BL-Px_S72	NIPT-PRL-053-25-D14-Px_S73	NIPT-PRL-053-25-PD-Px_S74	NIPT-PRL-054-17-BL-Px_S120	NIPT-PRL-054-17-D14-Px_S121	NIPT-PRL-055-25-BL-Px_S75	NIPT-PRL-055-25-D14-Px_S132	NIPT-PRL-055-25-PD-Px_S76	NIPT-PRL-056-25-BL-Px_S77	NIPT-PRL-056-25-D14-Px_S78	NIPT-PRL-056-25-PD-Px_S79	NIPT-PRL-057-52-BL-Px_S122	NIPT-PRL-057-52-D14-Px_S123	NIPT-PRL-057-52-PD-Px_S124	NIPT-PRL-058-17-BL-Px_S125	NIPT-PRL-058-17-D14-Px_S126	NIPT-PRL-059-25-BL-Px_S80	NIPT-PRL-059-25-D14-Px_S81	NIPT-PRL-060-17-BL-Px_S127	NIPT-PRL-060-17-D14-Px_S128	NIPT-PRL-060-17-PD-Px_S129	NIPT-PRL-061-25-BL-Px_S85	NIPT-PRL-061-25-D14-Px_S86	NIPT-PRL-061-25-PD-Px_S87	NIPT-PRL-062-25-BL-Px_S82	NIPT-PRL-062-25-D14-Px_S83	NIPT-PRL-062-25-PD-Px_S84	NIPT-PRL-063-52-BL-Px_S130	NIPT-PRL-063-52-D14-Px_S131	NIPT-PRL-064-25-BL-Px_S88	NIPT-PRL-064-25-D14-Px_S89	NIPT-PRL-064-25-PD-Px_S90	Genome-IJB-HP-14-xx_S3	Genome-IJB-HP-18-xx_S6	Genome-IJB-HP-19-xx_S7	Genome-IJB-HP-2-xx_S74	Genome-IJB-HP-26-xx_S14	Genome-IJB-HP-30-xx_S18	Genome-IJB-HP-31-xx_S19	Genome-IJB-HP-33-xx_S21	Genome-IJB-HP-36-xx_S24	Genome-IJB-HP-37-xx_S25	Genome-IJB-HP-4-xx_S76	Genome-IJB-HP-42-xx_S29	Genome-IJB-HP-44-xx_S31	Genome-IJB-HP-49-xx_S36	Genome-IJB-HP-50-xx_S37	Genome-IJB-HP-64_S169	Genome-IJB-HP-67_S172	Genome-IJB-HP-7-xx_S79	Genome-IJB-HP-70_S175	Genome-IJB-HP-72_S177	Genome-IJB-HP-74_S179	Genome-IJB-HP-75_S180	Genome-IJB-HP-76_S181	Genome-IJB-HP-77_S182	Genome-IJB-HP-78_S183	Genome-IJB-HP-79_S184	Genome-IJB-HP-8-xx_S80	Genome-IJB-HP-80_S185	Genome-IJB-HP-81_S186	Genome-IJB-HP-82_S187	Genome-IJB-HP-83_S188	Genome-IJB-HP-84_S189	Genome-IJB-HP-85_S190	Genome-IJB-HP-86_S191	Genome-IJB-HP-87_S192	Genome-IJB-HP-88_S193	Genome-IJB-HP-89_S194	Genome-IJB-HP-9-xx_S39	Genome-IJB-HP-90_S195	Genome-IJB-HP-91_S196	Genome-IJB-HP-92_S197	Genome-IJB-HP-93_S198	Genome-IJB-HP-94_S199	Genome-IJB-HP-95_S200	Genome-IJB-HP-96_S201	Genome-IJB-HP-97_S202	Genome-IJB-HP-98_S203
0.6426383688833424	0.7445435445147739	0.6447615811128049	1.478713179931266	1.5002651167266956	1.472963844376404	1.2471084856487737	1.5443528527006987	1.1852163067128976	0.924912241200275	1.0540485581665324	1.1743217758994495	1.4852211106339095	1.490036820349369	1.5058203879185843	1.5849720498767577	1.1746356416569845	0.8776427616572298	1.0036916802891704	1.498173249754805	0.9904461266132226	1.5322593961211521	1.5499654327853336	0.6358495200016813	0.6558224032721689	1.1952212972146916	0.8562443898829268	0.9997936240406562	1.174271241428968	1.5305290894815033	0.7755258865949617	0.7738546278053204	0.8347651628734787	1.035830593565541	1.5692922992215312	1.14941789021861	1.5818204142524153	1.2871047920065217	1.5041955586846314	1.4983570816396958	1.4749241530930346	1.133197323249319	1.2827142824514581	1.5476862670964253	1.4942999728330555	1.5378840835742542	1.3842913966804151	0.7543641464317152	1.3805397936919912	1.4076532941750306	0.6690795711938253	0.8509850550415783	1.2218435024705094	1.549431700101678	0.9332979795676761	1.09780294579823	1.548651360004049	1.5525715920052992	1.5451699187388228	1.4305838093320988	1.1338226524767838	0.7699515910654675	1.4692200762021441	1.4475400082857544	1.463670673669981	1.1450393876684217	1.0138098694625854	1.2896845980240423	1.0375939647477224	1.1747403566915793	1.2839025954364585	0.7345053002422637	1.2090794383016963	1.484690752876523	1.4922754452862734	0.96238471819806	1.444679627841405	1.431118828637901	1.4939810447845738	1.1293754999717607	0.8914687132340329	1.5485450549261064	1.5806603937957038	1.1416288685348814	0.9594315685329824	0.7155262799878878	1.557287165092363	1.2780214958181888	1.556102163990604	1.453297970667358	1.5062103594499863	1.4699880389438313	1.5073683071120294	1.4862459704103188	0.8781674380234021	0.685170835643019	0.6888213917144385	1.5838135027036928	1.4770676180489857	0.6961357457856705	0.6783866243636791	0.7905656170649911	1.0710561096530775	1.2633503460821978	1.4291389545828366	0.9810449551823976	1.1126739749051773	1.1099468047497423	1.0591783467905118	0.8257833593152581	1.2365680423900618	1.287561466082275	1.4483291580039046	1.5095628233729277	1.1255500201863697	1.5409123130970563	1.1247565010251102	0.7306091385227874	1.4881929030567724	1.4896782748772728	1.4404126425276784	0.7685811598185652	1.5218159308050103	0.7002070382653423	1.4945811009658707	1.3089470224691138	1.2072614227896008	1.0532901615520833	1.5772146686778215	1.5093827474430574	1.4679737342114032	1.4673366863180048	0.7426803632977679	1.364590694862571	0.6785159073979624	0.9885820636290565	1.1481054040089487	0.6472782527448835	0.7100353868793093	0.6296488100399235	0.6638394094422875	0.9257960076220784	0.9867435436167512	0.6487314726740385	0.6251090556888175	0.7398503093885049	0.6298979996144733	0.7436921133414708	0.9237653388369345	0.8579674091607907	1.4452380703103878	0.7918181617895718	0.6799311770824296	0.7908218233983031	1.0077013282253477	1.4273692914246616	0.843026381464977	1.0968032618338717	1.2071170134684672	0.814058621979686	0.665398527455868	1.0903010448052948	1.3833211882999186	1.1011070290343485	1.2828759174170374	1.2203627020660124	1.5497005187481736	0.9686454541331913	0.7556934150958194	1.5506269456955055	0.6587682175504173	1.2234011744072217	1.4893856111223513	1.4949087972113477	1.022929727859395	1.1354547676037512	0.9850583921463545	1.3735189655376077	0.6712409573385583
0.35485398534669554	0.3687009378257524	0.343347581102202	0.6835364546616184	0.6353718905082851	0.6999487876390794	0.520263703262182	0.6281959878898056	0.5165184030065213	0.4448845437386386	0.4730266157966978	0.5698303831316818	0.6322750878631779	0.628724780934817	0.6113265401876667	0.6429868264025989	0.5385797556511503	0.40888871286254846	0.47045599265724236	0.6584708500899089	0.5103863511427934	0.6182366783562957	0.6135974628005159	0.3432572158502625	0.3442163170608471	0.575378839002684	0.43725359762918614	0.49593383867928875	0.5631498040777602	0.659014328977937	0.3965987586587857	0.35557024176825514	0.4026563669307289	0.4894298398081668	0.6330399318535576	0.5461082442870318	0.6328218132889448	0.6339386261581035	0.5977828712846485	0.6438773049297545	0.6567900226666635	0.5475845674933627	0.6169863105119134	0.636259968065034	0.6962713884362611	0.6783081610938878	0.6869149220925799	0.37242777541373173	0.668776380504562	0.6600496046509927	0.36355367229593594	0.39710812075415247	0.5835502367190729	0.6404628886893107	0.43156171418267664	0.5099489225832288	0.6211697198217847	0.6249554079860044	0.6312588747944659	0.6823921602390035	0.554456443571255	0.3792852964775193	0.6801515553059634	0.6849833518026732	0.6720066284012027	0.5258423267453786	0.4783914467105401	0.6343238411268916	0.4582620076142566	0.5341178877129475	0.6283857465066812	0.37341696657919377	0.58661030599443	0.6584470922154073	0.6627912813889565	0.45305576877428355	0.6431245648819993	0.6818580854945139	0.6782155169214318	0.5255296576751102	0.4426110565266369	0.613675476671857	0.699683320933647	0.5842758681836838	0.43447780948993986	0.3649019826058427	0.649929757182025	0.6456072621645278	0.6133969096979883	0.7113291815899118	0.656465500924501	0.6603377314502826	0.676529906564027	0.6899627005999133	0.42923372360305023	0.3561371207711336	0.3525562534564597	0.6351957081840925	0.673587970701148	0.36161774347119524	0.35854809155615497	0.405208635621341	0.5073756518107065	0.5989601978105862	0.6468963182732058	0.45713665543914705	0.5379327110726436	0.5110064289824855	0.4869521035759671	0.40918629014277297	0.6066894488956592	0.6705258113674984	0.6545993529380557	0.616355977463085	0.5548811603227669	0.6203600187844197	0.5358217684086842	0.3914179548155602	0.6768215570012679	0.6687215100536238	0.6755860062646194	0.3802673198202404	0.6149010797467511	0.35062936277781753	0.6739996418942412	0.6281704914452705	0.5555466034108621	0.475333455031576	0.653932667187952	0.6535489278379313	0.5895811931326552	0.6453022791317881	0.39250523290052053	0.6670595120703566	0.37297102923725	0.47933501928295885	0.5396171532061937	0.35487293204603954	0.36911901153547666	0.33384947522985575	0.3608129301307311	0.4401532228606241	0.4717552204963409	0.34840291760080466	0.3406301328884711	0.3809201751484771	0.3433900395889464	0.35516788348706907	0.44543038092787635	0.4514544870940368	0.6587733557548375	0.39738161403115557	0.3729388240212177	0.3606393629550224	0.5287136822404999	0.6747745568394433	0.4122658121567163	0.5574845913109155	0.5718290445204371	0.41438253229779864	0.36702697694645525	0.5172133364591153	0.6717000399016745	0.5348308483515826	0.5696630761352725	0.6082825173997713	0.6253073146868827	0.46628794878866753	0.37041537594412133	0.6477205872250315	0.35146512238150207	0.6053072886341194	0.6571154248014174	0.6074243925339634	0.4894811289221551	0.526394791784281	0.47147380074840084	0.6694479965389949	0.37751637507756775
-0.4394958803914202	-0.39355492831208866	-0.44450407118268875	-0.3223976238569764	-0.30373467266057835	-0.31727162829969247	-0.4527653829233318	-0.3149293125739179	-0.45547775056201933	-0.373559940894865	-0.4018551736995783	-0.42114778162167166	-0.32645022684994435	-0.31968525122239955	-0.292427739493776	-0.32273556060017966	-0.41869645699867286	-0.38177268947085297	-0.3925957277530289	-0.3017621372305411	-0.401200380498513	-0.27913433990087494	-0.2588050255908951	-0.4581572903630422	-0.41328159715825874	-0.4326291171130597	-0.3855125605521038	-0.4008078164146376	-0.4851994792609471	-0.32000460622062127	-0.4296264568206847	-0.3718097645494722	-0.386065564318424	-0.40725566182815753	-0.3047587510898196	-0.40501747195784454	-0.329901174909749	-0.4345294494537179	-0.3112192533829321	-0.31509422499743517	-0.32189387253475904	-0.43231667335915036	-0.4335039660474645	-0.3242515274119479	-0.37504334897096364	-0.3617316135227584	-0.3799664024074728	-0.3901937836155218	-0.4041368977834804	-0.4131020121090729	-0.4218515360896286	-0.39059700897237754	-0.4408215787186401	-0.35562888773053125	-0.3770558299334084	-0.41898578985833845	-0.27164579014268936	-0.2927556168614678	-0.2759869491250545	-0.3965608229271228	-0.4308396936731536	-0.3862717298471172	-0.3124146786749569	-0.28311531485263586	-0.2873438700908662	-0.4195792210362075	-0.40999963119516425	-0.41334049236839565	-0.4248916259389889	-0.4242798691780083	-0.42574548402636336	-0.39091990950485417	-0.439672198968743	-0.31076933002376805	-0.29417518100863926	-0.39925367644064214	-0.26981008823373326	-0.2678299014087416	-0.289643060781814	-0.4113737382856465	-0.4071916749799853	-0.3076813514940414	-0.35349353029053465	-0.44678307156250696	-0.39583035694925955	-0.3776762846298247	-0.3017423129713816	-0.46114984374141965	-0.2843661431239127	-0.26972247660241044	-0.317292428964787	-0.3961481068986076	-0.3304208442854376	-0.32912129288048975	-0.39788289247427006	-0.41088148929011603	-0.39601579164500544	-0.29504294939322184	-0.3040554058416533	-0.4185005747594348	-0.41745448069687185	-0.3878978754490757	-0.43237174948292023	-0.4188735459762263	-0.3859157149825879	-0.39980371134691256	-0.4287704244095757	-0.41898662567260203	-0.4232356922200353	-0.377965196376231	-0.45361651564936256	-0.4225146269061925	-0.24617080306481864	-0.2791596752688912	-0.42123498680783333	-0.2996276363536124	-0.4109435448595793	-0.3975206144534465	-0.31945440922262924	-0.3204591528919212	-0.24942405077396024	-0.394398781361379	-0.2879829352563165	-0.40222092316378594	-0.3665785991901199	-0.4293061241680908	-0.43609858513638916	-0.38022873357471976	-0.3310782737357712	-0.33986488493741307	-0.29607503139939195	-0.30690947564476134	-0.3789155613229702	-0.401692021320626	-0.40884592432127387	-0.3992516849396007	-0.4199134657274409	-0.42876713607812833	-0.40161724169896096	-0.44621750772235425	-0.4416022920980684	-0.3766752940977661	-0.3919166874586092	-0.4139949599556529	-0.45537984859029296	-0.4171877619609227	-0.449971482081941	-0.376229307363358	-0.38725436995661944	-0.3837695166569712	-0.374081277246369	-0.3744665192843907	-0.4425010618218019	-0.37198354918728027	-0.3815686326249594	-0.3976260559485102	-0.3733101114314027	-0.43307758149223885	-0.4447394174742388	-0.3912449815003038	-0.43622973148738303	-0.4644698903396453	-0.4038952071919048	-0.40134869221017366	-0.39751014722819294	-0.4208780565990196	-0.3066397026412767	-0.39431815818286886	-0.37640507218757946	-0.362110025875723	-0.42933013151286237	-0.42191627678210475	-0.40064613825566164	-0.3000741998145164	-0.40421350936732414	-0.4242675271639873	-0.39346583458749745	-0.4010471832939711	-0.42889449685017345
0.7222198548591957	0.6952278247525302	0.7144804477560348	0.8643261960493439	0.8609922724567726	0.846018251215165	0.7607941937952064	0.8631903533779252	0.7464677121622182	0.6641065175118985	0.6987414232415751	0.7333322592219779	0.8585235639907879	0.8541576794766665	0.848921204336908	0.8042229734868609	0.7193168430214062	0.6629719855606057	0.675526607576162	0.8160832896848297	0.6950542960383028	0.8434589760225234	0.8430489826488313	0.7142045308237154	0.7186439129691942	0.7444355776957398	0.6551637041895425	0.6818936170109303	0.7749033785254574	0.8944395958210309	0.6760293329386069	0.6990737412760312	0.6546668737471574	0.6942615421906536	0.8250564577514299	0.7203164818938786	0.8096230195025061	0.772046045552246	0.8599416851913478	0.8459178671164655	0.8315227396851733	0.7076988035301139	0.7593920895214593	0.8410867394866031	0.7784099621344961	0.7771832619031867	0.7699161099992488	0.6729294412383893	0.7707506245736243	0.7764095910871412	0.7118740289266124	0.6601548506594118	0.7519441619981851	0.7666947271880039	0.6667620716776005	0.7117202863204141	0.8464690321437179	0.8245976021803225	0.8515229151774907	0.7789284453878539	0.7172240678769891	0.7001128279974278	0.8202025109479293	0.8080094573731361	0.8049068681059071	0.7150970586642339	0.6829657562192969	0.757845465067356	0.6968136049988906	0.7376416890211781	0.7634808133142069	0.6883616360080491	0.7503177468711861	0.8323367989852455	0.8017733108475403	0.6731435514002061	0.7980540026902584	0.7580426986649972	0.8024734642904024	0.7076939935144805	0.6560821468252133	0.8535360156430803	0.7571469431800523	0.7107473324352881	0.6728569014762097	0.7061208814553871	0.8280019530103282	0.7767369523406021	0.8256857256198716	0.7727578241564392	0.843783182488162	0.7933798540760498	0.834237250630652	0.809224723738414	0.6562248107561058	0.7068034010992968	0.7222090952681608	0.80956069757358	0.7922914381059168	0.7094673491666336	0.7122331590648091	0.6563377225054967	0.7089187230790563	0.7473650567884804	0.774157920252882	0.681707896314833	0.7182004440210891	0.7069099388755438	0.7063503141535011	0.6548052934722578	0.7605475764227059	0.7552581950957572	0.7886754983948983	0.8455965479119196	0.7241767357858145	0.8362401852814699	0.7100638827572024	0.6822116372733498	0.8184029777457463	0.8164161631862761	0.7510001868303587	0.6695840817694639	0.8496271997790878	0.7253966786194902	0.7881163021400888	0.7804404176411586	0.7644541344110684	0.695836546350577	0.7882225335264164	0.7861466947580763	0.8492734318012504	0.8222439335416936	0.6772219579136508	0.7802936777273838	0.7143584345164887	0.6778171377344153	0.7250794462283093	0.7343630377835816	0.6893824856172089	0.7230759213336198	0.7301067736057432	0.6677483476859617	0.6777105969090468	0.7274755046283302	0.7158402391842639	0.6808814869322175	0.7108825122358889	0.7005843985500885	0.6668085948218707	0.6548251236405299	0.7668971419663032	0.6510284019787994	0.7083618598703668	0.7430649355816351	0.686949583221769	0.771043658831604	0.6514193165099817	0.7091835269500134	0.7541746651879019	0.6419026004594727	0.6593771009017625	0.7184866820960694	0.7485520417053245	0.7183878404725158	0.7189249634356973	0.7346548390714494	0.8210204806299138	0.6840520969798575	0.7040567002122512	0.7768885388602643	0.7221558171079129	0.7429564240083121	0.8171849534353491	0.852007367402689	0.6853744059470922	0.727394060830853	0.7039345014247246	0.7696787821412918	0.7182820180242979
0.07181596134897829	0.019910512846829834	0.07942269352131305	-0.13195075732253386	-0.13488124198759427	-0.12637696995745173	-0.07126622585921787	-0.1494563921175383	-0.04026544707225298	-0.04697269268512215	-0.05777450176267017	-0.062305136458298396	-0.13564622534882442	-0.13258093648463248	-0.14342587144656815	-0.15518035759385873	-0.04803359871742842	-0.026351343254002443	-0.041019866899419374	-0.11670945280523688	-0.04097525115970872	-0.14034607862757276	-0.12436315340055983	0.08542767592280347	0.07596145185778279	-0.06539241152874052	-0.02778883810524531	-0.0493026176524214	-0.04804491467910786	-0.11099428000504473	-0.00999290705209653	0.02595378453602047	-0.0076972450826084254	-0.046550587189364986	-0.14675447864202812	-0.06741199444090089	-0.14922523657510772	-0.09846845285625351	-0.14879075972429368	-0.13100463555770459	-0.10948218662143382	-0.053523102260136804	-0.08717062334512561	-0.1574284567271158	-0.1593293280107227	-0.16560082653122937	-0.1560333933719592	0.014177566529525107	-0.13266791989651383	-0.1430726204372742	0.05964760291313194	-0.0117395450288207	-0.07420529928261409	-0.15111617296498803	-0.03791396235692697	-0.046560231661445114	-0.16281841956400261	-0.14935750273293785	-0.15641466253442438	-0.14924908680253351	-0.05720659549257957	0.0035693139168796045	-0.09576585000444647	-0.0800416804108313	-0.08952031139714255	-0.04745624075353615	-0.03549704156833301	-0.10112180006321776	-0.02902637852242	-0.06068594128001152	-0.09759681229122767	0.023876873360148085	-0.07410866280127025	-0.1167615641609716	-0.10910102917761837	-0.03560861390405841	-0.08512394490502322	-0.08192491901623043	-0.13337986593847878	-0.05726400399619107	-0.015442738225099437	-0.16433367891982692	-0.20350913872189563	-0.09433234171318781	-0.03125124117450308	0.03391054391702612	-0.15095018960008444	-0.10001059683030562	-0.13271099455263186	-0.09111682620538496	-0.13466935307800748	-0.11987959759952475	-0.1337908995826192	-0.1124055386027273	-0.012610027717375447	0.0549474735234471	0.05826722539511657	-0.15240273157461548	-0.09331949313098885	0.04898510444739497	0.050741535614629144	0.0022314288913634767	-0.0490136976451367	-0.07642657545710103	-0.11858911969183798	-0.039037131833887365	-0.04827593274286761	-0.04879261648716736	-0.043534725562952806	-0.011069460487403301	-0.07502431287840584	-0.11517984703775162	-0.09004902510412281	-0.13831179042646619	-0.07257504166243638	-0.14538874188715017	-0.049398662364402615	0.03861779693226984	-0.10858981646951431	-0.10621317629464565	-0.07980122399342733	0.011212179838842803	-0.13329949497875193	0.046721315220922	-0.15861971545599907	-0.09865786615870155	-0.07031932315404403	-0.0625999612538337	-0.16473666368224693	-0.18642794407241547	-0.14099180751829998	-0.09229725257013453	0.016246362851996723	-0.12214601111249558	0.0554698570796829	-0.04511299445611326	-0.05642998888703964	0.06908917126993681	0.04271732530384319	0.09091399452638642	0.05851891403489419	-0.03926554776370968	-0.04799300538709929	0.07063079395920023	0.09246829602876604	0.012759489162367008	0.08803336083390963	0.018323113433071928	-0.03325529746151713	-0.031048547416176034	-0.14459788455632305	0.001736775593164805	0.05297644634335712	-0.00537096480662784	-0.06885445245048553	-0.14617709584444188	-0.015459020405148918	-0.05007623004575061	-0.06082710431368053	-0.007670120465247607	0.08604168564136015	-0.03994788674849699	-0.1426007612145817	-0.06598313032650639	-0.0866109593177712	-0.07714488354414299	-0.12444559206336302	-0.043680217739654595	-0.007342700952993844	-0.15062292146062806	0.06436545699507316	-0.07384804476726221	-0.15717910794825946	-0.1257727843256094	-0.04361211880151199	-0.05561559863094663	-0.041165781548516536	-0.135881078400498	0.05736319260878668
-0.08375980507392776	-0.08636516460480083	-0.08557017296703577	-0.01772788313685679	-0.03866604098995159	-0.019068040094380415	-0.12116051755190112	-0.018223130409762547	-0.11446154925665032	-0.1308259574500807	-0.11678733650876581	-0.1282430723586207	-0.06129638929023935	-0.056641762455521924	-0.0763824066136088	-0.025577660440316577	-0.09325792883784483	-0.09422103487291185	-0.08506237821077191	-0.021894773241432255	-0.11201450782143364	-0.057414125526902685	-0.06239860666223608	-0.0907525447035445	-0.08311548375090473	-0.11608729121195556	-0.09382527541314407	-0.11656750744306706	-0.14507901346384117	-0.03871701823811104	-0.10433536184249505	-0.05864737793974446	-0.08644335481970118	-0.09072578201390148	-0.015204986112292138	-0.11641728638463635	-0.017999588448965695	-0.09268785947003198	-0.07753384724367697	-0.027099059613474932	-0.030058248737108925	-0.1249051608379231	-0.0867555624586576	-0.020397478046473225	-0.02954784137108142	-0.04115960892614014	-0.06254309224480838	-0.08722855753832136	-0.07252258254232026	-0.06729183827548425	-0.08530854013445928	-0.08216556637140422	-0.11187642924415615	-0.036304472507869764	-0.08625411152681507	-0.0943043661200667	-0.04409570054184746	-0.052895678966255064	-0.010749937860634703	-0.0641103022653224	-0.13645305262441454	-0.07515198933669943	-0.02783803125274749	-0.03582846023791984	-0.03401294283697261	-0.10320434901715854	-0.08185832602686084	-0.09196851163673796	-0.0815783922106245	-0.10929755870349585	-0.09741331558862872	-0.08502714916227457	-0.12115747665544153	-0.02248565439272733	-0.016092656919301854	-0.09165305823785429	-0.03499903161253555	-0.08501413341036308	-0.01959845255676647	-0.11671172101108847	-0.09193394896034275	-0.04628201707526973	-0.03751759251992494	-0.17989237783774376	-0.0801863114532851	-0.08017511631189318	-0.024180537011728134	-0.10079284531567194	-0.05676556909464543	-0.043106798502113755	-0.009314492974946395	-0.04285406749011157	-0.00907901157985845	-0.016865573347696575	-0.07851242903412302	-0.08388350896236497	-0.08208145315836947	-0.021281809873318028	-0.024061672780987267	-0.08980725401538493	-0.09301255430838319	-0.0829013786056748	-0.12732584370208794	-0.08996558208724713	-0.05517645618257212	-0.09683929122940167	-0.11042147170173276	-0.0961136030350813	-0.090715111947073	-0.07465513822502694	-0.10930928076137077	-0.0914274593814129	-0.04874125391430294	-0.06703178355278254	-0.1494261537035863	-0.05253646461759044	-0.08988205313784788	-0.07405351920843843	-0.012738215432637104	-0.012803875485332364	-0.034380094913516915	-0.08013654296410098	-0.03042415749032397	-0.07532639983981874	-0.04795942987396391	-0.09078467204162662	-0.12292014557374807	-0.09757496622208013	-0.03889235600114478	-0.09182407284565632	-0.10759133703985298	-0.06957106585963722	-0.0800366045262857	-0.060511698841500386	-0.08441870188176671	-0.10408239173408364	-0.09671076664259635	-0.08224062169156611	-0.08886166366477295	-0.08964077209392725	-0.08445050503978237	-0.09749236114202277	-0.10280951745505836	-0.08246658937204955	-0.09710944674144704	-0.10438339026067152	-0.09062737423946178	-0.08197780160703567	-0.09905742762785476	-0.09818036091777556	-0.043209132505567	-0.07292585482871718	-0.08587225469901084	-0.060367550071616274	-0.1401386956907683	-0.054332030724349153	-0.06664678642003426	-0.11139087610657374	-0.11777307138362987	-0.09573302393892981	-0.09918700530847867	-0.1290719036427877	-0.03910665422905586	-0.11801578882538878	-0.09251311883725223	-0.09735885578881785	-0.045625277926065175	-0.0956824598424967	-0.0818008675984797	-0.040167277103886026	-0.09146284752176027	-0.09263349728337823	-0.04742124401984253	-0.04982413490084352	-0.08954439902782664	-0.11170201704814851	-0.10403418229989435	-0.0747036291065717	-0.08940117380516861
-0.11086593112476072	-0.07515248716173321	-0.12982778362976227	-0.02419994596394795	-0.04250871447689131	-0.0385410355954456	0.19495524104436196	0.012227288367811368	0.15059501683906185	0.05718018716055183	0.10771675865772713	0.17631685905526018	-0.024837301883559357	-0.0361389722901804	-0.02557084484511926	0.06273610368122648	0.16802735456666695	-0.018882405207819662	0.052463293508074646	-0.0846950347908219	0.07979250146879333	-0.014847374396008375	-0.02782248511353086	-0.1365145183149018	-0.11927017833501227	0.1868986992722731	-0.008210375663335656	0.07878134890274627	0.2125768250579233	0.06123864289745104	-0.055625605091457975	-0.08915566480108243	-0.04946709241965145	0.08614507439991749	0.04448137409133594	0.17553270984544744	0.07073592045165676	0.20122179481394942	-0.003176027571305237	-0.04992921050786678	-0.07031111583706089	0.19350383531840348	0.21428580146514337	0.03776686689537777	0.18477686366936985	0.12779201332258916	0.1510977394229816	-0.0780806496696277	0.1690047688495389	0.20069606875605267	-0.09801043117387505	-0.04377091137714348	0.2070364132329766	0.10512556090076848	0.010598260226238186	0.10596014189629128	-0.039370524050743747	-0.002911110326499808	-0.05006735737517304	0.14626662300391824	0.18297565324915854	-0.04768978710321513	-0.07536015323924404	-0.09566737175269022	-0.10320374128779095	0.1421346543867904	0.05691822188013852	0.18387246398711848	0.04541456282333364	0.16142051619798953	0.19857725584180147	-0.07386083140253863	0.1909333807723475	-0.06494069556678277	-0.07599081799843685	0.03411614013418037	-0.12742217939011674	-0.12917624995145183	-0.06377248710999853	0.15201706420658123	-0.010820044057149827	-0.01825643833998164	0.09790189403668739	0.19297780963403177	0.01576346679560582	-0.06771823033577158	0.0070117356625941235	0.21527702189734726	-0.014843852889313905	-0.09063292123165341	-0.057411061423666906	0.1882192561549738	-0.039061633277339886	-0.05618162674957976	-0.025321514831528717	-0.10594042452682652	-0.08694737713903876	0.034954215049532764	-0.09495436707563616	-0.08769075745089343	-0.10043982505565026	-0.0555632757878821	0.1268998230245873	0.21115769092114095	0.18107257083016587	0.05314781398801789	0.12892953940203827	0.1302664018452962	0.08684392164888206	-0.04268975183307582	0.21440399596098036	0.18461543954674925	-0.1419855749160457	-0.03371726297834712	0.16972167101293706	-0.0033827925103793316	0.12901531484001783	-0.0812170076328321	-0.06712007334630717	-0.07493873994181467	-0.1309892058196188	-0.08521238167172143	-0.04459151041052538	-0.09300089653928166	0.13303297885018794	0.20214322915431937	0.17545200506387837	0.09127925438780851	0.0841827758721425	0.03980969992920837	-0.046227029356457214	-0.10972312474470408	-0.06220665851061337	0.18264833058601182	-0.07757799160578022	0.06938580660591186	0.14452131940513652	-0.09876535394279717	-0.08555916824889545	-0.13314308980672449	-0.09949093169045109	0.033244190493052994	0.06663473898874546	-0.10526474329717873	-0.14226039692596115	-0.0793593356380205	-0.13531655989414337	-0.08098330905681282	0.02803846407591215	0.010434567205015038	0.18682546271786316	-0.07128183395454281	-0.09748844312296513	-0.020143732471868278	0.14266210027106013	0.1557948307412525	-0.04076446606436049	0.13856049108289958	0.19623415798415633	-0.05537380681746139	-0.15118021913939628	0.14471218633857708	0.21473866849781653	0.13689285935813078	0.21265114314142586	0.20465015294590022	0.018495352113661934	0.05814961392494644	-0.047009310765819476	0.11088549862885312	-0.10761847532256731	0.19661492675662062	0.14317244519361078	-0.05534525797512786	0.08659226165331473	0.13503649504898557	0.05198329417912122	0.1636398878512042	-0.08008610694519928
0.2305185476936813	0.2531307073003465	0.22819194660256642	0.23214115130805452	0.23729193993299397	0.23461303778499254	0.18989634275163098	0.18452774445821668	0.19376208957758967	0.22105335867404596	0.20924255902542266	0.19760559938765826	0.23050763519037504	0.2293352318831764	0.2077670588496386	0.18528248009143627	0.18898835308668838	0.2092229383756265	0.20818608864511395	0.22794926718099445	0.2393222784493338	0.204198994458811	0.2122348705094736	0.21597610831581565	0.26375530399494806	0.19507152066373962	0.21838464168119126	0.21685422100390123	0.17094655728454067	0.19533839840940453	0.2188489494677892	0.2567285735772968	0.21032003436125074	0.219844377432237	0.16383422455820057	0.19584385375515484	0.17215210779677564	0.19128717663879935	0.19541447708770815	0.2356344641764842	0.24182667654218198	0.18647970779971612	0.17852845652460286	0.1636214174649691	0.19698559645316838	0.2055834581254744	0.21812792289688543	0.2339130374859244	0.20168353603757044	0.20020162307762202	0.2440060763271057	0.20860325707397848	0.19088516980489761	0.1814776610650875	0.2127749651692748	0.2134702655316867	0.2197229736237855	0.19216675593411764	0.2370812981705393	0.19648538840641266	0.19205132580580786	0.26289208085575666	0.23014415439898533	0.23812177001658508	0.2374458765899219	0.19397408596246907	0.21082784196747	0.19325076085831872	0.20606032696163862	0.20880602687685684	0.1910714116988686	0.2528787579703848	0.18996403535066692	0.22282075893938003	0.20297228622974173	0.2168718906407549	0.23956336173171422	0.22107452157048674	0.20992929272933708	0.2004440390451117	0.20777355829590755	0.19603760948558452	0.20426364543287173	0.19289731146760497	0.20995666704343935	0.27669757809976064	0.20378922916663128	0.17956379895837288	0.18164743672304334	0.19653285607026189	0.21974336303756692	0.1897611091278813	0.1971245757885945	0.19680386558863366	0.2079758504139807	0.25012444612580725	0.27845983540470337	0.17725201522665052	0.21484031685181953	0.24923841709474404	0.24701104819992303	0.22951980397337413	0.19070249694359537	0.1834131189450543	0.19282665847794628	0.20927786530504477	0.20745355430452217	0.20102595672209617	0.21994038540236172	0.22736188517052325	0.19065676756143712	0.19592035247209844	0.261019799681457	0.21427148054529638	0.19449832943822692	0.1966324142727915	0.20861216356014262	0.2462113391827671	0.21405562666945338	0.21895081988423043	0.22154807832041407	0.23031801442358124	0.21830400693525243	0.2691684105807921	0.20382598913421834	0.1968990311853342	0.20267889301808428	0.21671945949283528	0.2009208255663139	0.17766396146635538	0.2078086236891556	0.2633488269876378	0.25893496809064614	0.2035089579654219	0.26487319154303224	0.21090957245888997	0.20685974723283662	0.25181584961938713	0.24572015284657006	0.2316404818306726	0.23159649440554236	0.2181158931426026	0.21407599409653744	0.26363960376077805	0.21604252424635173	0.23200818138526047	0.2225158350360285	0.26397229784477666	0.222777001053719	0.2219434680024414	0.19517647069117672	0.2221457029074052	0.22177270842699026	0.30500508783703667	0.2210952369280747	0.16731759356846454	0.21443410855194778	0.21941244123867082	0.18791677191255074	0.19631213929110447	0.20885328264809272	0.1979118272872501	0.17350683117110943	0.2121475353959823	0.18329419242334816	0.1922345172575926	0.16699311126238953	0.22814509466553073	0.2593325097063282	0.19060055266632875	0.23738733875920104	0.1952648001731781	0.15763840294224724	0.21879892268420664	0.21681122773746953	0.18954099299521487	0.22742068967383422	0.20256507905523302	0.25019713898884793
0.46208547467266653	0.39361851267866477	0.4641442526947047	0.7342004079371734	0.7580950804901959	0.739890041161421	0.5081455785284329	0.8086578002883612	0.4838317943038002	0.32099496788001336	0.393362761695742	0.42298900908182685	0.7453556178344235	0.7535336721960249	0.748562178403233	0.7494646486604951	0.4465594160053543	0.3643760695869578	0.4015702868277611	0.7722404189919622	0.39052710522302125	0.7732238163241129	0.7917316807645772	0.4640265538148986	0.4534879735338273	0.4322317656736071	0.34174689437361416	0.3700857136256746	0.454230891031854	0.804382041394599	0.35535123162800103	0.41518428166558285	0.3609980159300532	0.40163531686697923	0.780972531430241	0.4039414585774518	0.7604959934410932	0.49278761532102344	0.7445450319405794	0.7648049904913531	0.7638728671070861	0.39600199424636673	0.5156577368519432	0.7888725415332448	0.6389260401780575	0.665253164471138	0.5165388041592301	0.37692672355631107	0.5522189527751891	0.5809695096414617	0.4367441291781897	0.36945660842549755	0.45106718873008383	0.6935766549591257	0.3786676458222927	0.42408348211056035	0.7927698321166547	0.7697123176438776	0.8030613381441755	0.5832059743013034	0.3884148711101277	0.39422934235177814	0.7671041367280677	0.7566241456729159	0.7650683252465352	0.44054727091491186	0.4042986488774053	0.4893838466206435	0.4396068721300834	0.4520745959863026	0.4963645487118483	0.39195903888493694	0.4355549826185197	0.7545629111914313	0.7586333645409297	0.4017776196504587	0.7441548042251618	0.7335297807088302	0.7508580373588561	0.4160136774224986	0.3646789411759368	0.796674419786919	0.6566741623805711	0.3587662421938434	0.4083067687230941	0.4145297490096934	0.8154255086514404	0.5026021087297362	0.7803757588947748	0.7551604272336419	0.7718723161213646	0.6755729638280196	0.777860779269447	0.7751675934292077	0.36488708262527525	0.4292072700942525	0.4317544326585204	0.7705542351600257	0.7819714163783368	0.428486751459118	0.4299495953286214	0.35353715887741705	0.38546856736397694	0.49486898449630157	0.6323044539062759	0.3722729975514288	0.4086619238372353	0.4251732289099281	0.41889972836567135	0.3546324948545843	0.4721945501940519	0.45973088087368275	0.7380674160125492	0.7594990966330707	0.37610169301030477	0.7707744471309197	0.42686921510088566	0.38073348943792973	0.7785130913630016	0.7823467326306354	0.7590122413978577	0.3698087599819405	0.7873453468281829	0.4434156310368049	0.6476648080149466	0.5032996925424486	0.45008902799561756	0.4065576108893326	0.7073095042921755	0.5928803572026743	0.7061887383334494	0.7519593789273142	0.37557959032235133	0.5441793045721494	0.42443110885928864	0.36665604310173183	0.4283646267079525	0.46117442413703935	0.39549500055640574	0.47364860403393505	0.4585857488359871	0.3483458033975509	0.37280333133690796	0.4605480660223972	0.4616991184242775	0.37519996419214086	0.4597433873968012	0.4066886965557176	0.3783854000095995	0.33279165093952673	0.6053483725933163	0.3532136343413205	0.43430554554458406	0.44212603166682574	0.3339507265672414	0.6169987631051486	0.3480612903235236	0.39196583935848867	0.4550387844522253	0.33211683291959504	0.3921045210342728	0.40500859170620096	0.5551066136867946	0.3953970643692965	0.5029966519310152	0.4419062374191763	0.7700250356556703	0.37667590109729776	0.39963227467267065	0.6950394339629608	0.4514338867110066	0.4370699114783263	0.6932174938449652	0.7600552379161161	0.3988395854169633	0.4230502911981553	0.39217333519720354	0.5463346248675754	0.4286764038883346
0.4156135650169841	0.4093734242151934	0.4205064743636233	0.3227151129232668	0.33434405519694754	0.3077783132899701	0.37398777614998924	0.34998512107163415	0.39109425975367573	0.41890122742223623	0.4037880161628109	0.35717628331421447	0.33261367939633013	0.3332188137879505	0.32600156511424694	0.32766699225068907	0.38393120465625463	0.433667328897252	0.39109538385603937	0.33599869181063224	0.3958841774817896	0.326542952954205	0.3154155992695573	0.4353161714736318	0.4097573711129966	0.36342089032573033	0.4330340088087409	0.40048820554578224	0.3955190985468927	0.3427236451793113	0.42997281141638544	0.39225353434877985	0.44178917568140963	0.39059501205594604	0.3446367569387665	0.3724729097736518	0.3422078909487528	0.323985713112921	0.3343046581614608	0.33918539019782057	0.3379071750908884	0.3859560939996497	0.3518418307936928	0.3566191442876936	0.30305833627946166	0.29194335108698144	0.25631016308723475	0.4247551223177697	0.2804100518358291	0.285230933436709	0.4016739152587261	0.44560894128412865	0.35581673486514087	0.31167169713549636	0.4115474676192572	0.39157505779923674	0.321550939765202	0.32222696917221527	0.3277370084854292	0.29053630979584877	0.3911592232898773	0.38606767591278957	0.3355609737826176	0.325579964993025	0.33137113211241587	0.38609354807805807	0.3973497423104506	0.3134409441803525	0.40014568415822427	0.3832489294800572	0.31136531522061617	0.408800009023626	0.3524182454152893	0.3468925322004276	0.3428128759375696	0.4012819040803173	0.3506296644807503	0.2971328585987273	0.32903156476946815	0.38701063536925184	0.43212047541329013	0.3444059732776299	0.27736662044439075	0.35211307202555364	0.4031235486932109	0.3885623703196259	0.3318767879205393	0.3472321034366994	0.33131773956612975	0.31603447207832436	0.34539020845230295	0.3265678688515593	0.33664533849363143	0.3341600921048833	0.42904641513865005	0.4008235581740961	0.3945468420470353	0.3416063303792163	0.3350751976003151	0.4139983627757109	0.4135090191932641	0.44068671608173116	0.3982194929402909	0.35878432333740384	0.3183516715262471	0.4052255821268249	0.3878976105758548	0.3870095737360908	0.3925777927030252	0.43451211803498324	0.34146724944888085	0.2717175372676609	0.31426145904437397	0.3266816036833683	0.3699691735594779	0.3298751541889908	0.37676301077343344	0.4024450183588675	0.3392132217185386	0.3416848724638123	0.322312640417154	0.4403097553094838	0.35287006240831675	0.38412663684636117	0.2904204614818362	0.3194745557225006	0.3661420376987068	0.38159508052427804	0.30837442143684024	0.28550381368864086	0.32207479214226076	0.3142663304361314	0.41649684468003545	0.29099165930066306	0.39562052136798576	0.40389487846771577	0.3730098679117264	0.4016889943640569	0.4062626612755956	0.4244900584301269	0.416497493694829	0.4203415742299941	0.4003843866772171	0.4023863494516742	0.4427811809614899	0.43721686566816653	0.4340247547312135	0.40939517422261995	0.42434249408392377	0.4300133893098348	0.30153697038428184	0.4339596438102924	0.4135906830035546	0.35804684418726895	0.3913340186024067	0.3196171492830586	0.4262731547379729	0.3853971687256832	0.3750133123677053	0.4402038173479629	0.45800088820109464	0.40393052528278617	0.31792878788219103	0.3733150157442714	0.3553731496121876	0.3572659596327413	0.344655661494921	0.40522446177190496	0.3775626576676083	0.3116304407756989	0.40565741932123567	0.35019309713807	0.35331107518724125	0.3530582018808218	0.3906373193971078	0.3862263352028349	0.3981951865175186	0.28138585739903177	0.40414636237139456
-0.009365270199048276	-0.031400464816039725	-0.029711076098664954	0.023076381643507324	0.08517937563898902	-0.02628626325410817	0.13556620696686347	0.0929545813088913	0.09876533347685763	0.08962349958469407	0.09119498081968812	0.1402750154713232	0.12959963630496152	0.12449500522587852	0.17371492303385194	0.1633943069474963	0.09547120281700919	0.03086901084064724	0.057296340633664414	-0.04954793427688177	0.09939095929711445	0.12934501758223937	0.09364816253547144	-0.01695815844276996	-0.05164955740653843	0.13478368819763545	0.042583819994642856	0.10155681343933907	0.14970062768151104	0.08377081250384273	0.020331792075190314	-0.07463182674923725	0.0033279821380675922	0.06828838657703007	0.12371404974789939	0.12039375752472463	0.1615186806068598	0.16165164023789586	0.17485319610658123	0.03488764336574758	-0.04763215117672316	0.12288639723813646	0.16170890020182732	0.15379011191579756	0.17693794959247588	0.1731618190735415	0.16124512744467606	-0.028784035892823467	0.16650150010599624	0.17752749953629715	-0.02297870430605921	0.009319493915272582	0.142100864379204	0.1603333480809891	0.035431586110717186	0.07536598992256108	0.1305661825958357	0.1544345543682688	0.0465570359795736	0.17416564971835663	0.1439070617790762	-0.02351288921163521	-0.10116423880166377	-0.13094392856324782	-0.11556900694125487	0.09072047565781073	0.056932845656065725	0.14890008382008196	0.04172017711243925	0.11385052294701979	0.16437881021640732	-0.028883193619920283	0.14437464180799237	-0.02270332223506609	-0.10000503022807038	0.056501307165251105	-0.11649086852768452	-0.09118142672716505	0.03509667692043063	0.10289465464391916	0.04016902797237758	0.17804073161000178	0.19295190751748093	0.20667035144282753	0.031034853827004633	-0.03958303151769507	0.1253386644924303	0.18275789469710113	0.11256749386413885	-0.1462558601787033	-0.013359349836173193	0.17522626497357063	-0.025612234144492582	-0.06714417734384852	0.015072877248929941	-0.04613602521412834	-0.04521393963469697	0.15311609696211365	-0.13152312674838218	-0.009653447562273924	-0.021252025338915806	-0.004800537727828659	0.09565099327974122	0.14601606404709738	0.15493488939827027	0.052371668741387226	0.09347486283991065	0.07686101518737441	0.06685950889704019	-0.0023050436027920833	0.16895608754033353	0.15851954897006193	-0.09770895717740342	0.1314217577927193	0.1514451380561001	0.15353164894661253	0.08316915052913845	-0.040837233076799775	-0.09882814906269984	-0.10620946189290632	-0.16119940459286475	-0.02580560915304684	0.06728761327760409	-0.053141124169825096	0.17238518328905372	0.1548492603044066	0.1310564865013238	0.06949063475175687	0.16969249177656126	0.22840261480629281	0.17291657318385406	-0.015664667708969474	-0.024442311723654256	0.16042018162218818	-0.019506709306389647	0.07650886813843341	0.09058577443957742	-0.016435395968436	-0.036038630174114857	-0.026679754987516263	0.003785064660643371	0.05786972946130721	0.0740764737257042	-0.03276937833809978	-0.010119980002354902	-0.001976591818325671	-0.020010564750366458	-0.04807622197701872	0.06922082158285481	0.05792536683472511	0.1573063990082902	-0.0311306948931256	-0.001603726377104972	-0.02306885713617901	0.15739128881147973	0.17888725156491042	-0.009765187642121597	0.14372024911114128	0.13944694546434017	0.0073786923926871875	-0.06129169428396694	0.1141767937805812	0.156538379253864	0.09962849258073421	0.12020681653386704	0.14672662822576543	0.12209269944503558	0.06456269282943393	-0.019967429453009153	0.1716587446579485	-0.02215880501518762	0.13367087246748574	0.19747659080409236	0.06969184916151518	0.0767495060926071	0.08532084133796061	0.052561032933366086	0.15794304318744135	0.0033512897111318864
-0.5889109334052571	-0.5010944390564666	-0.6039640493808696	-0.0541491292084626	0.011621467507565542	-0.058004695258884256	-0.14799735264857294	-0.00728961209912822	-0.2101727469144729	-0.3438374707855875	-0.27554839290348876	-0.18850638484019777	0.003922787922235313	0.011203905715091778	0.04280917683248461	0.039563717951908425	-0.22028901787224575	-0.40076982988232285	-0.31123478276935485	-0.0003490707097279916	-0.3232055499175689	0.03613566521796936	0.057770577366351855	-0.6034163601321574	-0.5811249569407613	-0.18165583389971773	-0.4171635155767981	-0.31479753033757146	-0.2097095899649154	-0.06115865390956844	-0.4705385750911936	-0.4987399768317947	-0.45386659511828453	-0.3057443608722232	0.009442907737754497	-0.21961442765768135	0.019632828468640742	-0.12199533492413123	0.02886101077124084	-0.018346807501074466	-0.033016923228534015	-0.233677427436435	-0.14257891723839095	0.0018618156687418702	0.001369629381607923	0.032996366634309854	-0.030902617097130727	-0.5021343980877603	-0.04183315548257337	-0.03208054446998865	-0.5652803242420408	-0.42705397019767966	-0.15552765253153195	0.006669185429866539	-0.3608435567439524	-0.27685797251974	0.08119658612935421	0.052885370075904756	0.05646532609632729	-0.004080805557033773	-0.2399321211954804	-0.4685040024182914	-0.039787876394031765	4.087347541377462e-05	0.004739388938475031	-0.23318516306606485	-0.32432915759029946	-0.11878324492239936	-0.2969478415985613	-0.20182900421756866	-0.10629721856550146	-0.507825580309609	-0.1775371609358995	-0.0219803704649026	-0.010403600156719497	-0.32427698037610214	0.03824443634691885	0.0640246920424475	0.046044255563230135	-0.2257177370211526	-0.4072888998973934	0.05048008053769677	0.07835000508112529	-0.21036109099841677	-0.33077554933744874	-0.5116953081964617	0.06491802902361889	-0.14957466365104843	0.028786232489384236	0.01768777955811525	-0.04076398075243605	-0.04656322130274755	-0.05597610712918842	-0.037298351238065616	-0.4108030876272643	-0.560212490815728	-0.5296367414292602	0.08246259004361339	-0.0037658061232031664	-0.5277082172927129	-0.546598598550987	-0.48635276979765507	-0.29459204163400743	-0.15350011102885008	-0.05536242104839577	-0.33305355058043895	-0.2726934732215385	-0.25577295259920463	-0.29425710946049494	-0.45869047190520756	-0.13584540452998517	-0.09935693904618377	0.08101785357246573	0.04254442642386071	-0.23741400403819235	0.040363572895297406	-0.2501798689846408	-0.5315559282852523	-0.04353011576572138	-0.040359400277115695	0.08544392145904237	-0.5035522452505782	0.025909256442838896	-0.5457569819937845	0.029525803222951633	-0.1020356095336767	-0.1787216233357894	-0.2644551312899455	0.04015322242425533	0.06489609952183605	0.05639809207338985	0.008780664188202045	-0.5121574646387412	-0.07890871079934399	-0.545501841668053	-0.3378689580888338	-0.23307099342597642	-0.5757919082534677	-0.5215862422898987	-0.6015123250241052	-0.563839136683938	-0.35705775010330204	-0.32555156515849254	-0.5772951547417743	-0.6019541876894776	-0.5016353619790832	-0.6056608553114549	-0.49607536058083046	-0.36613419579162665	-0.40785466260542824	-0.029392042237340425	-0.49624373852506	-0.560121254139164	-0.42327655969249534	-0.30013453093754433	-0.053357098274951165	-0.4387334322042021	-0.2631926829130491	-0.18571707054717407	-0.4694100899563293	-0.5942259732937973	-0.26038652995236655	-0.09672824230944042	-0.2536518092119417	-0.14491977495564223	-0.17586664130731278	0.0025530582101376265	-0.342113337222153	-0.4724774037128064	0.03363143397461818	-0.5690071602569621	-0.17516252852392633	0.028938964004113388	0.004148104695323063	-0.3084332954637712	-0.249740946559381	-0.3366244112813332	-0.0646632655445617	-0.5463906239554216
-0.48235391423968443	-0.5268420346006238	-0.4917619950405612	-0.5097790286555207	-0.5030243782260977	-0.5383935530261776	-0.49395727491596053	-0.4796093821436934	-0.5021797012902683	-0.501196856444435	-0.5113763438671499	-0.47144972523349293	-0.48834067910853796	-0.49301017044189577	-0.46261244484450725	-0.5139632034971132	-0.5078302552798125	-0.559653776317095	-0.5588558629792737	-0.5618225014297467	-0.4963200138323076	-0.49532561641581496	-0.49820598355601076	-0.48269782573955056	-0.5017179564481654	-0.4605979844747622	-0.5331686615918003	-0.5092188161057424	-0.39501262579235585	-0.4722696968626291	-0.5052350081682476	-0.5630039469909747	-0.5590831680323106	-0.5256720846745064	-0.5374577627282157	-0.48024001258034643	-0.5114675121754829	-0.4508403783076188	-0.4909729994543107	-0.5176280558953951	-0.556594394269852	-0.45776171914607844	-0.4772223181522708	-0.4590006296970408	-0.5053315869124219	-0.5056126706433877	-0.473572896109947	-0.5349767325997482	-0.4980295593084939	-0.4894713226579249	-0.4993924490734071	-0.5622153273042529	-0.4487006863478401	-0.5637407765519491	-0.5677339940693347	-0.5206333215843509	-0.4756480891014967	-0.524071195005951	-0.5211366128813475	-0.47570407299575346	-0.4482636910984552	-0.5255457971003608	-0.5688680380872371	-0.5828955066156574	-0.5750088933934654	-0.5145049217337602	-0.5479396660587348	-0.4815589440740812	-0.5630698533614185	-0.49412941463515336	-0.47035429478660806	-0.5232479292237041	-0.4482262114770924	-0.5470898052202293	-0.5932545807989711	-0.5509631441798366	-0.5751170413769227	-0.5666098351342943	-0.48449799282614736	-0.4973206510070516	-0.5489759596460978	-0.4393242082093627	-0.4407560096437664	-0.40861439454948	-0.5735481125778341	-0.5142605751813725	-0.4384743784117763	-0.4195868989300344	-0.5615275453821699	-0.5505113454866051	-0.5319779969421928	-0.5180940383329958	-0.5346270059125384	-0.5447079821910712	-0.5585520789233973	-0.514596574119853	-0.5079745746729388	-0.4863564448975348	-0.5820860564315904	-0.5073227803052678	-0.5014505503437368	-0.5311849805216262	-0.47872410594714077	-0.49309459708569847	-0.5534422186423167	-0.5359979053022565	-0.4907596322394646	-0.515100226533915	-0.5241575314568595	-0.5468513760393854	-0.4427588409180897	-0.4637745640408957	-0.5876371646063544	-0.4858359205823599	-0.44737725021282004	-0.5106294503872222	-0.5183412845873755	-0.5252630963264371	-0.5671256515341039	-0.5763753104398481	-0.5742643346678115	-0.5394554856683327	-0.5291826362327767	-0.5144723086987375	-0.4980563023569009	-0.457581405828017	-0.4651344253724675	-0.541369017599794	-0.5179427412455713	-0.4588289887027107	-0.5011237344156725	-0.5744543728317311	-0.5140827427512572	-0.49587558628389206	-0.49296195565855316	-0.5211275461825936	-0.5008020033958328	-0.4836318208098195	-0.5180670190150817	-0.4868605706339222	-0.488511510583601	-0.5346610986474746	-0.5279447128666399	-0.49281115538817877	-0.47007169480784683	-0.5082894131584381	-0.4802518046376302	-0.5314650601324424	-0.5378236153358231	-0.5125327233142776	-0.5363341384525518	-0.5514774063056607	-0.49795089520097835	-0.5177402767889736	-0.4575999337260038	-0.5060053683411843	-0.5608782649911497	-0.4703479005423351	-0.4500805198748523	-0.555869772818918	-0.5118920592683637	-0.4543677911886954	-0.5175968831162066	-0.4878741885106369	-0.5502628437251633	-0.47323450604212813	-0.5612432972663446	-0.522598257561264	-0.5220657711990438	-0.5337223611327307	-0.4963044323117235	-0.46827944416700706	-0.4415523957915528	-0.5328882421741384	-0.5277549537893427	-0.49832323703869885	-0.5202357614328452	-0.5111556816682608	-0.4849731454030215
-0.41716027519561055	-0.38482589535104855	-0.4116642357142996	-0.02593758601127316	-0.06708652358141318	-0.006839802745809115	-0.2599293494307058	-0.118338951921177	-0.2560327889868094	-0.3325039088519567	-0.3006289417669303	-0.23694075637504225	-0.07411248850059424	-0.07241119218161354	-0.1073860562808431	-0.15597262310696844	-0.23863650026311878	-0.34581072433701976	-0.29237018267946335	-0.027715317194106748	-0.2762270061793423	-0.10295932435398714	-0.1180290456778596	-0.42063060770195665	-0.3971860189934348	-0.23031555539311527	-0.34354534054240893	-0.29569739714181303	-0.2686307194398978	-0.07636876941785986	-0.3856844940400134	-0.37324589687489024	-0.3537329465770344	-0.27926483984732625	-0.13126854791659048	-0.2464962875608917	-0.15596394295020713	-0.2142311252204981	-0.11939687654987971	-0.0398768359562148	-0.011282487321008144	-0.2642887325641918	-0.22125901481690396	-0.13551028800021173	-0.21569422486641027	-0.20271967725846468	-0.22639969966559825	-0.38589589418146514	-0.20241693477465167	-0.22162519591924484	-0.4056316065015078	-0.355267455716493	-0.23149563803701256	-0.17858674975718833	-0.3221800079011837	-0.26457723205653577	-0.12033580332486077	-0.11742100335798597	-0.0971180978121641	-0.20291677075009568	-0.25683900279055094	-0.3790517522580859	-0.001985085508115436	0.0035128864658434955	-0.003922562839070193	-0.2527126961502353	-0.28788522891529206	-0.20977214731979804	-0.29233229667963473	-0.24592945328006272	-0.21453357328588574	-0.38843698609344285	-0.23316918143229237	-0.02823894715210276	-0.01984120763652744	-0.30698346650584996	-0.009028616353200764	0.010311948523819142	-0.05105536954419432	-0.26370281015303115	-0.33169568436685626	-0.13308514602169572	-0.24382039384058818	-0.2915589445907078	-0.31404395694114395	-0.3851303541258384	-0.11572550246912855	-0.24413831999696728	-0.10291143008364417	0.006926422957258815	-0.0432288037963994	-0.18362538812302523	-0.04261365887626953	-0.02339792155282741	-0.3354689476889083	-0.39825017709464017	-0.3916689836476292	-0.145740099517316	-0.011303774435859337	-0.4042368872386899	-0.40572551883454416	-0.36075237606413585	-0.28507845994394077	-0.2135387793686367	-0.1838674289287736	-0.30852370784817945	-0.2559738995225684	-0.2636871636071765	-0.2775313789793731	-0.3543017507710047	-0.2236634867886172	-0.20642525491070174	-0.005393448296344111	-0.08879804462334712	-0.2617764864737989	-0.1118881365432152	-0.24524041514901013	-0.38303806807476365	-0.014983984900285796	-0.014320457056983926	0.0041303519721650195	-0.38016425410621896	-0.08189509538668369	-0.38769016707241694	-0.20263366906504537	-0.2022560238813707	-0.2384235286131553	-0.28445142830713094	-0.17744971079813682	-0.22113637954449922	-0.10228167263754215	-0.001487524951412661	-0.3741872092811233	-0.19342586210674761	-0.39809922514102264	-0.3004959217693758	-0.24435064880498186	-0.41044540275447383	-0.39532405124733455	-0.41918235689674194	-0.4149892682717088	-0.3255199318921383	-0.30192613046788813	-0.4034430875949757	-0.42829448619542676	-0.3904781262674993	-0.41823005800529695	-0.3800895847393572	-0.31989181409635264	-0.3353588095297571	-0.2146006125673588	-0.3651533979205963	-0.4083451627991273	-0.36215097892459885	-0.2817350042055352	-0.2079291860129448	-0.3536422866742716	-0.2512987094820689	-0.2354928340159324	-0.36947724274484256	-0.39347754209895713	-0.2803025270143253	-0.23051863273888512	-0.25566670100371564	-0.22713899714109997	-0.22172067791783345	-0.10559589033056013	-0.3007235405813989	-0.38634075459703926	-0.17831946215591538	-0.41509368410109077	-0.2095028182989908	-0.2105957588439173	-0.06069764683275905	-0.2788575967370491	-0.26237657328844033	-0.29953106108264144	-0.2105734652513383	-0.4089421764548475
-0.4748681520746868	-0.4700492185401228	-0.4804753378407206	-0.18091223402622186	-0.13186905754881068	-0.17882223235564165	-0.19060142866406046	-0.09436305845629236	-0.2505119728621498	-0.3394726425777987	-0.2803120444104395	-0.2439270502392007	-0.12822602106999897	-0.11524832636757278	-0.12875091115982545	-0.14869901187525608	-0.2825878377722232	-0.3995402703348302	-0.3288738170349456	-0.07493274927166828	-0.3344466601921902	-0.123516236460348	-0.11490210739499118	-0.46487567549220876	-0.49042255154725445	-0.26055578290625064	-0.4070070841292291	-0.309751956058983	-0.25393011459665665	-0.2205235606839388	-0.436655746653712	-0.501316882538548	-0.43585962062232725	-0.32010798725503975	-0.13774659605162912	-0.2787231691438144	-0.144299961013694	-0.23704329311526706	-0.12546465509881688	-0.0927118297907618	-0.08003165972785296	-0.26890622957135724	-0.2353537783214268	-0.1098745674571578	-0.21691551954080984	-0.18098876315425952	-0.1988586083197743	-0.4780922776126113	-0.20518901485400035	-0.197689923986076	-0.4876768072245975	-0.42463039892592525	-0.24312631593099077	-0.15386504450279312	-0.3750125346955162	-0.3004184657375598	-0.08727503441714181	-0.12578015776370635	-0.08203891264433276	-0.18587437643470942	-0.25875630063430205	-0.46779417330646383	-0.1145223113443558	-0.11721360771881233	-0.09239462578621326	-0.2690306531401761	-0.33226133892487186	-0.22796842529961275	-0.31383822711562476	-0.257139430850405	-0.21462154765427333	-0.476749369641492	-0.24285799619662152	-0.09330850617595725	-0.06829309302943178	-0.3406141000645491	-0.051887413877926905	-0.1009803870174339	-0.10076814246125858	-0.2618651971325116	-0.38677067673741955	-0.07214729635961867	-0.10280485906799577	-0.17560890092316173	-0.3572197493089038	-0.48364411770784393	-0.09118725359853627	-0.22825189347929492	-0.10581296914064997	-0.1270457229621081	-0.0929517263015515	-0.23764573866332817	-0.10771627611126246	-0.1039035367074068	-0.4108137023856283	-0.49743331958095877	-0.47617780933646225	-0.14789024323731315	-0.06514866359397446	-0.46571540231086345	-0.47768681927687495	-0.44995966155198164	-0.2887159386796528	-0.2435571146859863	-0.22314743039339868	-0.3431575385333915	-0.30214160776456384	-0.2915169377702477	-0.30814433625038373	-0.44684976210153005	-0.22719191147720663	-0.20239697209664176	-0.06800076621475849	-0.12354875720680467	-0.25633008700661897	-0.12690897998602713	-0.2994769387898156	-0.4833512449990269	-0.09571051244197519	-0.07873798634211006	-0.06872496350574915	-0.46506883715190483	-0.07709854704096668	-0.4964870489017767	-0.19663255557097503	-0.24420528957108367	-0.2557583748226863	-0.29978456909924855	-0.1613804074986427	-0.12127331559417048	-0.12390244462037153	-0.08863874220262989	-0.46973719656579865	-0.24325192316075944	-0.4772580961653996	-0.32898497670155985	-0.29477002950478637	-0.4801406121621594	-0.4831504812018814	-0.4700118877094469	-0.47286114005589086	-0.3691129008874643	-0.328143138108022	-0.4879442609641058	-0.45353337590142595	-0.45358126482447975	-0.46109481972292277	-0.4755469964191184	-0.36385691208466037	-0.3997861975661744	-0.21220929351031365	-0.4718784602622451	-0.47460863741103243	-0.44417955246127305	-0.3042630866245162	-0.18768416719810171	-0.4480387566911136	-0.2750206289573639	-0.2508811706144419	-0.4401047612982625	-0.4753587561502031	-0.27111610928495766	-0.20622749121799888	-0.3032608972234827	-0.21141796832947735	-0.25049995702723993	-0.13564306840623364	-0.3518346845231991	-0.48083933969010084	-0.1652223174422962	-0.4897071901126252	-0.27842361721537384	-0.1771951516553901	-0.09021876661282553	-0.31775090239296266	-0.28558255259532533	-0.35212092152410124	-0.20502742544934394	-0.4691200226989649
-0.8900284652954503	-0.9066942620248998	-0.8675813099745625	-0.7440884999906514	-0.7753936946461536	-0.7056906425918649	-0.9452723869212813	-0.837984497186578	-0.9326484544976463	-0.9852686347469011	-0.9660754923651027	-0.9952722446836336	-0.7967642599204929	-0.798235475648704	-0.8317457363128555	-0.8815605860105805	-0.9727388050407034	-0.9453096186682	-0.9687309579182058	-0.7075803483252768	-0.9868176199743199	-0.8250684645012744	-0.7977104135606711	-0.8688797598975381	-0.8574221900881795	-0.9883190984124715	-0.9694517683990155	-0.9895560782949905	-0.9768409444294971	-0.781566013826075	-0.9501610102430675	-0.8771371805431907	-0.9423068759206399	-0.9635214225259169	-0.8727050494205112	-0.9970913461866143	-0.890418288470752	-0.9783662416230311	-0.8337325154877078	-0.7585780618708524	-0.7023995440260339	-1.001832534806251	-0.9731971454002115	-0.8973988698070549	-0.9172894558170995	-0.8887124025084026	-0.9629697986848167	-0.9278355698901567	-0.9463691292425447	-0.945286366225934	-0.9080333405920538	-0.9313976215417301	-0.9936486531767014	-0.874021079891581	-0.9519269985552838	-0.9617309301044918	-0.8321571568422561	-0.8512297348938455	-0.7840904152212458	-0.9333038064068768	-1.0054862806745888	-0.9155295266998128	-0.6622583371931674	-0.6355670477287788	-0.6491745626963427	-0.974390915773473	-0.9586062865393924	-0.9801620116089503	-0.9342791397252181	-0.9607664056145265	-0.9766096316788621	-0.9190342317551236	-0.9969377405744515	-0.7252598273881843	-0.6968334174770431	-0.9555894722916687	-0.6557397379091642	-0.6463006442183923	-0.7788634592635667	-0.9853534490300891	-0.9545582781008894	-0.8672628100641157	-0.9285168218083788	-1.031177243791792	-0.9437364334392983	-0.8996133516789172	-0.8579371612120145	-0.9833804688943103	-0.8219659290209639	-0.6417181867841029	-0.7433813865336899	-0.8721403926447102	-0.7501477527475946	-0.7167103784809418	-0.9465092484927154	-0.8930960455771364	-0.8702438352884483	-0.8856786750524734	-0.6654864153976239	-0.9077121314809355	-0.8960776327706015	-0.938431688929087	-0.9871903208317344	-0.9753455728728437	-0.8871954791732557	-0.9607508949575079	-0.9816166670578628	-0.9687526653147828	-0.94948040768414	-0.9431318725806631	-0.9798894449386003	-1.0009905874636478	-0.6473774984684062	-0.808257990131079	-1.0071382075695094	-0.84482890107928	-0.9799409776145888	-0.9315513112071518	-0.6836489774205704	-0.6810228786943667	-0.641118907936063	-0.9145134901295162	-0.7830027254377753	-0.8647443255089265	-0.8959542329454966	-0.9652214101763164	-0.9613457396155798	-0.9693601239882785	-0.8653810436673979	-0.8917316275329388	-0.8009973406890489	-0.6691809320571945	-0.9226548100150981	-0.9431128124533174	-0.9112383266414318	-0.9762598407642521	-0.9731449834702521	-0.8794981777801706	-0.9219869284373716	-0.8528384083214048	-0.897378042101776	-0.9641518830586356	-0.9740579620113184	-0.8690360660607546	-0.8583435805782305	-0.9239162501150936	-0.8651950390222048	-0.8768736706106879	-0.9593899891808811	-0.9821853671425355	-0.9245760845317385	-0.9394661272524925	-0.9238445242390946	-0.8501557006898572	-1.026999729893867	-0.9160806003261636	-0.9490997284227	-0.9858021500122716	-0.9853124237637003	-0.979112791740321	-0.9096063206401526	-0.9615510275828167	-0.9689131871732908	-0.994219508772245	-0.98483869513838	-0.9979886788996526	-0.8414596990489136	-0.9595176614029098	-0.9266119041074813	-0.8736433662698311	-0.8921971729511883	-0.9911037526279234	-0.9191495571269926	-0.7596128506986201	-0.9707400705471877	-0.9785040419685727	-0.9615165867838168	-0.9315389092150366	-0.9190085281926028
0.34583778853064556	0.3632314196849877	0.34230627335249747	-0.28108788267935136	-0.30410965552600394	-0.29730238090883115	0.03045286477891114	-0.32270934399012824	0.07330323594322743	0.26312441261941283	0.1769820222289322	0.07140595891863034	-0.28262237991553324	-0.2942733451130033	-0.2870022267892249	-0.3707224292095433	0.042457927471999654	0.2714247880309979	0.182598252426571	-0.32601578957518557	0.1866558727966835	-0.31372565731887053	-0.32494948531244844	0.33590806860365	0.3639379005807613	0.063745467460358	0.27239326650097867	0.19882395984752388	0.08539107802426191	-0.3290920687803163	0.35174569704498704	0.33575629943990964	0.27693992848386995	0.17015307376882352	-0.3446970590312571	0.09323186664970753	-0.36734997413183323	-0.04004131352480966	-0.26508828939872664	-0.3028877735223392	-0.2975695474560858	0.09043471342845594	-0.05683931345717813	-0.3202711530721762	-0.2838315728467644	-0.31492683940029514	-0.1610918533400841	0.3463348352225119	-0.1448480022668948	-0.17685522653024804	0.35807806821908383	0.27560946896178345	0.04450612163825585	-0.3317947059681111	0.23492003381179288	0.12658759517688425	-0.32621913904454286	-0.34281745472977293	-0.34108698974681967	-0.1890998554100561	0.09289954939070497	0.361949849881702	-0.317422695630493	-0.31036592898047893	-0.32273955542045224	0.08712980453689699	0.16711766789482296	-0.05234039600201215	0.16316104927596622	0.07662065009033017	-0.048633926044941655	0.3603502313479571	0.0521205602870512	-0.2939649275347393	-0.3091735612256768	0.21721209544910045	-0.2865971073429607	-0.315081052147144	-0.3137359644042818	0.10937055240850227	0.2352428037125001	-0.3244535892489419	-0.3829772720436861	0.12407364401556042	0.22110620486195937	0.37451524381043105	-0.34703098877731003	-0.03131939504342077	-0.3453875849557923	-0.31719811662550407	-0.31534146047520856	-0.26809596657714585	-0.3194244248991612	-0.3199769443857236	0.24750182416549704	0.36807000911195276	0.38043194025155214	-0.37098222169511214	-0.3313717298446921	0.35577796558279373	0.36718128311771314	0.3023750267714664	0.16362759782460573	-0.044653191234674344	-0.2124939804962358	0.21513649089073386	0.11753090044733323	0.1149966823285198	0.1604283681933963	0.2852124765083101	0.011924343870540727	-0.04678697538714749	-0.30854008008415507	-0.29861411494492907	0.13003488052529755	-0.33334565309115094	0.09576854463558633	0.34497457143552135	-0.3223755836867869	-0.32572330616406514	-0.3166465585832376	0.3252800802814222	-0.31798353632585846	0.37496809145141996	-0.2555291170459375	-0.04835833252144445	0.07374367519837262	0.18374503731547037	-0.36245513646316463	-0.24462913192140623	-0.23359356471439024	-0.3259712038338159	0.34253126604471046	-0.13577031644743298	0.36693881983984605	0.19742049954972413	0.09095163858909866	0.3622681941963917	0.3681133512818074	0.34483331609711326	0.3520087061792412	0.24457148280844268	0.2059167276285068	0.36366453577467034	0.3397409067673846	0.35726452594761493	0.3376137684027481	0.3656087786087349	0.2315931019907404	0.27101131226705444	-0.23443627775039155	0.30168917161958897	0.34483762711268384	0.36707279763266104	0.18198937041588664	-0.20505275696873965	0.278796394164372	0.1003850592673734	0.04582759662775249	0.2958542045244085	0.33106907682755254	0.14032772740092192	-0.17859490594503155	0.14982150845476866	-0.04533023744310574	0.0006126827813592306	-0.3457744478259972	0.21434374005101542	0.3806493669569277	-0.3280827607023296	0.3621191898356352	0.017441097234937586	-0.25006941770276836	-0.2901141075067499	0.1667098546169186	0.11810497228856291	0.22388494796339922	-0.13601331608448552	0.35671218587747766
0.2012641512464234	0.21598610066312843	0.2333012510509967	0.014242819743378321	0.03366027057556606	0.016976349456957363	0.14675673708194298	0.02944419143505113	0.15640361839218375	0.10211844112415422	0.13259079958096917	0.06512488737050015	0.01867765353824688	0.02012773086704947	0.01667738513291392	0.1215212352826452	0.1101257694798459	0.20024366339872993	0.16601044366439008	0.05505301499242651	0.12425641559581471	0.058136186037626325	0.09336142108225409	0.23232295060193106	0.2541307430755324	0.06590189702253732	0.16271749950611	0.12285568222458484	0.09053642795441794	0.029563194828264	0.17029875931704933	0.23342195790666373	0.22405523320391366	0.14635203768138066	0.11718826114255329	0.05896569551112418	0.12216015805992639	0.08509964933960473	0.05394199027398004	0.0320802903667288	0.06662980261659221	0.042158265702232994	0.10316349474117664	0.024801837433631374	0.11433779600497021	0.1312223457614949	0.0679798027048858	0.21888761687927621	0.10176117215898901	0.10502642601112155	0.19936294958858022	0.22425993725977897	0.0683689979549241	0.18085260574904966	0.1852600852237983	0.14747540228900033	0.03617990678376844	0.08882399277384753	0.060968602724380774	0.09781763888351544	0.04950098360673222	0.1758270939757752	0.0643540497849947	0.07486909296711497	0.06387596297604636	0.1259215600834095	0.1711970746215666	0.08592446678005708	0.20737705310055243	0.11630906405802416	0.08862612794867522	0.21019088864108038	0.06983529987057158	0.058469155882781065	0.07583328192283179	0.17897788416535934	0.0803798748039341	0.017185745778097034	-0.007216291188545942	0.09874487337484575	0.19348791935254886	-0.007133803273826414	0.07952838859979215	-0.0016608119256688036	0.20127632716888755	0.20771967192293336	0.019871106107332975	0.08594300972645003	0.1123939024920804	0.022971564942958933	0.03275943672493123	0.16849357681070762	0.02086310570664246	0.0315093171531996	0.19652635607445887	0.22413241962190786	0.2277657306518909	0.09595132606500187	0.06477149390444811	0.19971310972910758	0.21623184041211116	0.2144843103809295	0.10598361263005923	0.0922081018634047	0.16663728565518585	0.14884961431036764	0.10897580424684664	0.12690585119441122	0.16334693283682086	0.1985123000530725	0.07284760821170255	0.0460127610327061	0.06505568457033045	0.03579060195105828	0.04152077815255187	0.07497498707410413	0.11846945992179128	0.2031735001032817	0.0580986247458537	0.06944287347689548	0.0487971494921145	0.23540644415960252	0.06454024301568334	0.2235971852479757	0.12873557403682112	0.0966909038217916	0.09361500990124849	0.13990981309895628	0.14150291369666299	0.0494609911908465	0.049554717677030985	0.05551354328703598	0.21466474664888197	0.10312336272057263	0.18743718733933237	0.13447812077319687	0.10716993744861583	0.2000362378919817	0.2091852214872327	0.2377131542456734	0.18805777004841392	0.14118697399566169	0.13790299488904728	0.2251067054494914	0.23326146889726154	0.21446544613000443	0.23810202271019495	0.24551642299567414	0.17511004988230214	0.13286091087302307	0.135542231902891	0.22615092658197106	0.1820677308188988	0.17402655333059372	0.02981174094751346	0.12694237230597755	0.18595346615246508	0.08742577460121373	0.09192153917791712	0.200349345733341	0.2781895505324309	0.10277966289917331	0.09686554586243959	0.0795124231378597	0.09403219613835093	0.03804723907956459	0.12038069484285605	0.14583548357364118	0.1646156922436167	0.16039859478050722	0.20335980741752055	0.045157645493137555	0.1034199780291239	0.05505154774965981	0.14217290383941342	0.1150306709182074	0.1569171272319603	0.1133256401945643	0.1722765003696767
-0.1587358730952213	0.0102966438094374	-0.14012244892683562	-0.4245815139924581	-0.4438724411197041	-0.41403112096642175	-0.02401642453637362	-0.45416696546756047	-0.05547986124963995	0.054296271943974406	0.02015804313093343	-0.07477570357447627	-0.46035881116759175	-0.4576267178509468	-0.4703838711609342	-0.3345145365335894	-0.026256642468360722	0.08411578890637539	0.01562835885282471	-0.4127998997575181	-0.06185154085005927	-0.4440695971530905	-0.45255613254054344	-0.1549702170270572	-0.07049661116882619	-0.0709789640754078	0.05654369425179981	-0.023056705298526686	-0.07545791444866692	-0.45035390119914415	0.00891985781893051	0.04435935701606379	0.08231065630789855	0.005594881486045367	-0.36880845948401936	-0.03167998746506263	-0.3358103973437078	-0.12261531438437319	-0.4586628136921057	-0.4372839582364329	-0.4085111098009809	0.001747425350489079	-0.10525226127364415	-0.43169403258325706	-0.18929921109940295	-0.25735277322220834	-0.15075614145483374	0.04832067758734976	-0.165206826401528	-0.13178467073046604	-0.08925403186404236	0.10115711094336982	-0.061697679242690984	-0.25619529656214135	0.0709404459310832	-0.018129430976186953	-0.45175111270283824	-0.4030709442388037	-0.4394061196028746	-0.21813020940921707	-0.06384110116859054	0.010194994268854257	-0.3920922057860955	-0.36979053347305546	-0.38350542117159486	-0.038239889853247555	0.007758185693728353	-0.11278316302746336	0.01292466805368614	-0.04922905686297484	-0.10345110183688538	0.012305259992754794	-0.08142550436316653	-0.41094803998070334	-0.38036514161314017	0.029187846984328913	-0.363906186057061	-0.3736220973416402	-0.44494030392722766	-0.02014119265355662	0.04345451701132297	-0.4630781795214215	-0.27594600832368527	-0.06946808046116724	0.06010289692925	-0.010314651329915464	-0.46692003814813193	-0.1525200875648731	-0.3966055154231798	-0.37355250859767664	-0.42465947188123804	-0.2413394638889142	-0.4249951048897464	-0.4155996895259031	0.07548121171934011	-0.05240118008932022	-0.03316167201238753	-0.37111867216526123	-0.3873947176283644	-0.05139127693798083	-0.058180494661429716	0.06067126190158997	-0.021269367014551184	-0.06582858765625729	-0.17336891885612318	0.04983269782922578	-0.04547199315406734	-0.0004897422305433496	-0.0015198882978616907	0.0788481329117397	-0.0877609206324905	-0.09938128657790123	-0.3673642455199264	-0.45854201703576397	-0.06971605891402041	-0.4171504914190362	-0.035472116902216765	-0.006732629555306957	-0.40172519048229155	-0.3967390359695306	-0.35666602399432207	0.05304736375441041	-0.440126373245419	-0.06024373602036842	-0.2590857256649558	-0.11586579935842467	-0.07295159245770949	0.024073145511804533	-0.2997929713757273	-0.33026704944632007	-0.4682871595786785	-0.4150333484982192	0.023258553637613893	-0.16137213183829877	-0.07223999701491901	0.013382464367028696	-0.03556808297916601	-0.13507371928891426	0.0064230199362124984	-0.14413749424907552	-0.14175527599324378	0.0741190877659812	0.022613279939930342	-0.09805147270793613	-0.16851412148310324	0.01573277850854403	-0.14841151528453164	0.036231981215711126	0.03957395914272657	0.04319565496721066	-0.12559780579692398	0.07894709536254502	-0.108627882853882	-0.015442071561103513	-0.06263393803159016	-0.23894089317558068	0.10133316091735464	-0.10356650008368029	-0.08405050589446639	0.05251611294337294	0.005188642462989251	-0.03311204559310854	-0.09035522569404619	-0.0367408110301023	0.01362430756904863	-0.054720128867328355	-0.36793866509225365	0.03218122961272611	-0.010132641007350784	-0.2745015290072136	-0.10537829255965767	-0.0655313314824153	-0.32620940852468594	-0.4367538388972303	-0.0039981454831848895	-0.032848076683948985	0.004190532554055576	-0.1637320726602341	-0.09662057116724931
0.3374596776444033	0.38630547721841435	0.368044011946284	0.06170437374102414	0.09262636309650388	0.03177977426144499	0.27067698479704605	0.0538239963409263	0.31179920782810466	0.3535553324939533	0.3367370086471728	0.25527439617275516	0.1066611265651082	0.10296549610136776	0.11614907861516313	0.14217795862700353	0.25760158187298055	0.36928178530963973	0.32552332484047697	0.05787691149767252	0.30943983173125755	0.10120753548479886	0.10315812140205036	0.36647402210051283	0.3829111801528513	0.24862094174107827	0.35494217368523306	0.3396808980943844	0.3142654902649099	0.024291124987589813	0.3782864550267364	0.3905325801060816	0.3671739750771629	0.33023478497811587	0.10364803820123472	0.26006888154052243	0.14096735903958876	0.2254500040868845	0.13418206295391102	0.08049376946728584	0.07375453175979504	0.26543413467966204	0.21931641797253068	0.08059364840522451	0.1677242317364734	0.1866470596522355	0.20915357574591772	0.3762303158946143	0.19740329077116653	0.1778899496555532	0.34536386065784164	0.37463146675267156	0.24214512800418508	0.18701548033313853	0.34507342205195957	0.3134701045557219	0.08054354213539519	0.11858475409777672	0.0615140784331851	0.2214047195762832	0.2856842032559268	0.372035329600816	0.038330097197319085	0.023157832420858476	0.032192179680750804	0.2880834754454795	0.3340407828566413	0.21961135334646306	0.3386835539276182	0.28047126948758594	0.21522850268810387	0.37234226812817994	0.25976930765217576	0.07628444969769868	0.05348786849238399	0.34467930536348523	0.06325756750883163	0.02078757326813188	0.05462369293746991	0.28348080790523666	0.3610320323536602	0.08873590995918143	0.1908045575606944	0.2938277253307119	0.34464493530495377	0.35860369786657187	0.06836535389315909	0.24780597733532425	0.11056160441553978	-0.015795978047976528	0.06220161543264777	0.19526994179221	0.0396653819105888	0.0325546040197974	0.3552983814886471	0.3721046723857453	0.3775301066401455	0.13419172545884936	0.02699159129878012	0.36582674595248554	0.3586960740818603	0.3748698878911134	0.3422967612103569	0.21180032195254536	0.1954383027938619	0.34700756741337446	0.3012710817187009	0.30118262480014846	0.3403468511908422	0.3662442963399313	0.22665658825526883	0.20874492878265744	0.04435422262228342	0.10522629004333076	0.29564740585639526	0.1212483795140096	0.2760502250058473	0.3679895203203557	0.03599696473543659	0.043345154638375655	0.007932427106038448	0.4011741154404791	0.08554978308335273	0.3798260829077107	0.2065788600489505	0.21886726138216187	0.26874940581488094	0.3142978977692008	0.17102351447067718	0.19883585744891039	0.1502967206360237	0.08307947863373114	0.362771740359625	0.19509206832124856	0.3455487032829194	0.3433774369182244	0.2716717545576798	0.34064233991121184	0.3604787232010368	0.36160679529117157	0.33841301528416123	0.3502507585219421	0.340210087232251	0.35664251049233164	0.3612623677156349	0.3797984480246287	0.36457801553923797	0.38881626590016416	0.3584046947083054	0.34853449813075577	0.1775432214815462	0.36896021987187266	0.34406014270573315	0.38320464888498396	0.3042236198642768	0.2271903026137399	0.3561367530595173	0.2988589698311981	0.26619348002138166	0.3579735235968754	0.3986427069713878	0.34392606918276125	0.18031040744949878	0.2882661838365973	0.1858706541999132	0.2094394673222761	0.11777952746946438	0.3427819287488838	0.3495001878260926	0.18947934726967333	0.3362888093553825	0.2150341557875543	0.21999226337948177	0.10178884815650105	0.3310259260856262	0.29917394931977936	0.3257581709374897	0.21100410953958865	0.3313128053152835
0.612439647584937	0.7282970873631956	0.6227739725464285	0.4349919942239678	0.4260350384499743	0.43796842889473253	0.7859909640779629	0.45954393537396154	0.7642381638970615	0.7489237414081782	0.7549225740532151	0.716113457840449	0.4243762161327155	0.41816411886817806	0.43660952201061287	0.5604997582730218	0.743100088592674	0.7682673765272101	0.7340479770647667	0.3993147348955466	0.7098071239233945	0.4544642460270415	0.47569230992008127	0.6169587536012762	0.6633908205364272	0.7378640559368949	0.7553514151288421	0.7212827903221757	0.7758024805665509	0.517346911432122	0.7348456812387838	0.7397208499760639	0.7630047430233065	0.7421127524586812	0.5240357864943446	0.7305388770713467	0.5573174234041551	0.7126157947987664	0.4586668343149278	0.40826951518093296	0.41483709376237604	0.7521557412291218	0.7156813108602313	0.48111458581579136	0.6736402757585176	0.6259767974500675	0.6719535106297121	0.7391976142147305	0.6756153563343931	0.7177498649304842	0.6482338676407554	0.7781036127702425	0.7511362176657495	0.5891881247914084	0.7595081955405385	0.7366787505354697	0.44561791577404725	0.4992364261741141	0.43858791422324095	0.6503839332295978	0.7191588290889661	0.7261851665514301	0.4234011257789091	0.4260396385186888	0.411101865247671	0.7305195289237529	0.7367487905297683	0.6930059244969314	0.7519634573150493	0.7409321059091785	0.7096598757310986	0.7196867414450258	0.7290437209736356	0.40372972692048525	0.39965662278942304	0.7513299409902583	0.38874344644355574	0.4012438069365508	0.3928273137749761	0.7396152782303689	0.7486206901409387	0.4544103797814053	0.5985035484882375	0.7001289891491684	0.7647535993748158	0.6997776264485314	0.48157356515729033	0.7083432899507034	0.48419460817553445	0.42260433124280594	0.4041582021545037	0.6599736491602128	0.41385123260729273	0.4080224739863008	0.7613648776089685	0.6757118470976411	0.6932512056535124	0.5384071606678906	0.4039663868753136	0.6787805755412152	0.6742898780801837	0.7512857973320997	0.7415608755724213	0.7256930196861614	0.6667080205706626	0.7579109205454149	0.727194265616768	0.7507707876126553	0.7470233266866498	0.7610513694715648	0.745227417348475	0.6867586414035131	0.3973454423513532	0.42783977857482924	0.7112411590476626	0.485150799475531	0.7239957602483102	0.7036770236158083	0.414125501962759	0.412727399934953	0.4020025787201542	0.7538963829517664	0.4173308979525058	0.6815719226570192	0.6373207314638024	0.727802520720807	0.7443994412253906	0.7456193567117707	0.5841139397504387	0.5377466761874308	0.41892727270232616	0.4117785828036733	0.7208103132672772	0.6782596171974588	0.6594643247125902	0.7361817548169807	0.7364224671731567	0.6271405629754395	0.7047119305102028	0.6182909355350019	0.6323691677812303	0.7597851160258566	0.7412502387665467	0.643157926560705	0.6068927824981867	0.7312782173997123	0.6143738524558509	0.7395121764208628	0.751149647051971	0.7477519631927052	0.6905947777115055	0.7538728298675262	0.6437112883821351	0.727254766588615	0.6999070144270589	0.6147506428979195	0.7674425940185107	0.6979520743768113	0.740635201904271	0.7501365650089502	0.6876812659047623	0.75776028939934	0.6759821448877845	0.726704108980101	0.7374880063591811	0.7199122538326924	0.5092109944942633	0.7528570782953699	0.7108904665527513	0.6019878965969907	0.644011439050033	0.7306308770248195	0.6240944535619121	0.4056326816531205	0.7324968550678921	0.7374729610961894	0.7425661894796514	0.6630702445002823	0.6486966934899723
-0.02269012379701936	0.06420201218284977	-0.03127353519576127	0.5270064087605207	0.5387304827747497	0.5130894122811762	0.3115486627830172	0.5717598533953819	0.28685685348831713	0.1856791222369009	0.21519109236491687	0.3187203721877693	0.5548460240663872	0.5511948514004931	0.5553783496040603	0.5335315275113387	0.3026402857966294	0.1405094781665175	0.218031665717328	0.50339346578664	0.2275161629637319	0.5467396955951032	0.5278434759913916	-0.043934792166297976	-0.005690089955883104	0.32471115547670415	0.15065768895868387	0.2205274254296382	0.2796603351976229	0.5510798598492787	0.07453091333586281	0.07260480225930704	0.11509038278177056	0.22119255787282924	0.5324921494536131	0.2963803464905542	0.5362518562928504	0.3711191088758482	0.5538847119076729	0.5263568617286454	0.4945772361941402	0.2771571455519299	0.36248437217090124	0.5645817461070749	0.45141657251341183	0.4955003706629646	0.42770252853526414	0.05295256719798025	0.4211369459451456	0.4034278787142025	0.0005623008366120452	0.11336710112584009	0.32368199056814984	0.5115439173799835	0.17757478598377394	0.251475201815218	0.5526957125507854	0.5482709464685407	0.5344543343796357	0.4507067233350348	0.28556673767231033	0.0866667199535828	0.48575505287139265	0.4841040238250557	0.48860465334560754	0.2834749640411779	0.21226864627199793	0.3838088955086645	0.20834228376709893	0.29547719379447945	0.3670648755420487	0.0526584022560028	0.3179494156181306	0.5065499323420319	0.49915424266064656	0.19264485409250282	0.4935152580939274	0.5060547172300999	0.5523472912975419	0.2819388402215463	0.15694296242482633	0.5829538220900373	0.5098596564210162	0.26985179821416805	0.1810516244385227	0.053212696343475516	0.5631998141422824	0.3674934254309018	0.5368411937408994	0.4893938707669033	0.522437138039986	0.4517833103400116	0.5307172486772174	0.5124042703785417	0.15023988918112707	0.010036182114921986	0.03719092310814288	0.5329112870137079	0.4898352898294026	0.01668217084317044	0.006272368929207475	0.10670964972469171	0.22811050608478953	0.35854897552178666	0.43510804040670625	0.1947895211945623	0.2678461320529507	0.2582353418824376	0.21790723598679954	0.1257107273077247	0.3359609114268395	0.37539378949144897	0.49983310000804015	0.5489805128674982	0.27687566419703497	0.5510056042380053	0.2864605379354448	0.06334887266229358	0.49290643377631527	0.48815989565733786	0.5103912063006254	0.07262389108414909	0.5324755232423294	0.036927383157930954	0.4776528771638724	0.3735974372473988	0.3150111324995801	0.2362080818805005	0.5264650236788201	0.5023600956902681	0.5487226292345992	0.5014496296553684	0.0791114152488803	0.41177554141458395	0.028039788190677928	0.20646868403156335	0.28863721422315497	-0.0026507913835403657	0.028172696587757874	-0.04118318279173641	-0.00545134114756482	0.17757252148170533	0.20670224453012936	-0.004687589082122294	-0.04569732566263382	0.047593837837692915	-0.04094071663716971	0.06246018098155996	0.16707746410639904	0.1614561364614834	0.43105050206542483	0.09804291485211655	0.0022452896958998006	0.12461276021586881	0.2424162072353023	0.46876711340321386	0.1351017719130409	0.27733776847277836	0.3238461493645166	0.11199132060480554	-0.025334623267766393	0.229407843737478	0.41290606524647555	0.2785385582406956	0.3449090691045459	0.35110856950882685	0.5354033956436134	0.19557628867918794	0.077526602746211	0.5097052886499688	-0.016061252639632678	0.3464687431693303	0.5122443817054471	0.5317441086443494	0.2206472943467842	0.27392483742421236	0.20880762876761008	0.43154916849657776	0.013943271018699965
0.28489725049790077	0.3296016650785682	0.28183672134626364	0.8031945212731529	0.8209143470257478	0.7922220082664608	0.490851604944371	0.8097092888857518	0.48890096653209164	0.40470407372047273	0.4407789693868463	0.49112777105403066	0.8245210378319452	0.829724135122315	0.839311562781898	0.7444667925620074	0.4666889064736422	0.3891829878889803	0.44586059061074995	0.8419603329310821	0.4400729993965344	0.8108596117956393	0.7924223102199343	0.27783537262506824	0.2857054535685441	0.4930829303018241	0.38430081918685427	0.4497645490078836	0.4846412089026148	0.7364212061156024	0.34148445891899437	0.33159080335568586	0.36796588818311404	0.4430147608749507	0.7648290889825489	0.46856868435237103	0.7471082638479074	0.5338530944338137	0.8314989937765423	0.8322547159920334	0.821360647695794	0.45045796275238753	0.5149621638667947	0.8194143042623827	0.609607988912076	0.6845726693728897	0.5870373890810998	0.32413283704498863	0.5871379246975321	0.5478746478794113	0.2916452977576201	0.36410298883496944	0.4921271361597402	0.7234051419810236	0.4134764737441384	0.4677532243155321	0.8092064815049133	0.792967980139474	0.8130318604376765	0.6517003601606617	0.46357848326921924	0.33232085265576267	0.8082145932512788	0.790581961324061	0.810823108454551	0.4805376476437247	0.4433785039521267	0.5456498290843051	0.4547797017390113	0.4826599483619834	0.5223300864133267	0.31722040210950553	0.5007992120498972	0.8476112512946807	0.8457448929234128	0.42073811837289193	0.8418136001114098	0.8067175850461501	0.8442256365048071	0.4685903202672271	0.39872469238399905	0.8223482047714918	0.7166403993573878	0.50617146579235	0.41984734383466943	0.30678085575082087	0.7885170383614708	0.5546686955756273	0.805621691774675	0.7686846993035868	0.8481290650654332	0.6254930767907136	0.8382665996243243	0.8311737742628795	0.3894810981870294	0.29799628708865283	0.2981949474556319	0.7511722605625457	0.8194743731498019	0.29291443138670403	0.2924814562479798	0.35237329452473054	0.4568060238262058	0.4936991013846072	0.6044385221245128	0.43154697864156016	0.4749494342007213	0.4564068652967794	0.44814936567750463	0.3672463844356233	0.4913179068852724	0.5509956442291395	0.8162620656397521	0.8313268717939202	0.48194709813267705	0.7989669803592727	0.4766898952202197	0.32961117999143735	0.8218333470192334	0.8233353832632372	0.7962113406255515	0.34124987025279113	0.8376357560037456	0.3101569148995959	0.6737959364109836	0.5289209578617675	0.5029799834765273	0.4576800827361996	0.7327870423752538	0.7769066914193339	0.8647393588591241	0.8192206089142505	0.33180327693196593	0.5711969807474621	0.2962545926599931	0.43560935783536897	0.4707604414227276	0.2867552151392924	0.30081954446436887	0.2692825423651293	0.291904508035382	0.3999788870128121	0.4325251998105418	0.2830989030767134	0.28297822028986674	0.3221055930669385	0.28124028682424645	0.32732425920391445	0.3909975905839101	0.38103365183273635	0.5678164397024867	0.35884636057277075	0.2987461786472567	0.34103721556166705	0.4444453650282632	0.6832576208165471	0.37830091357178913	0.4637391277763407	0.49845368032483345	0.3875651773960794	0.29335247896513195	0.43984265262744	0.566789096933569	0.48001182921405255	0.49684413120091603	0.4941557700290589	0.7862353911841722	0.4150237724724523	0.3283640892881596	0.7141761203421544	0.27654324399323243	0.494946244766626	0.7059499340355314	0.8512559238063853	0.43798749453441393	0.4907761187599467	0.44223054641278053	0.6077132646556839	0.2881514186464678
0.11009353394516769	0.06566153666087043	0.12054220653590803	-0.4242889858133533	-0.37107410017666287	-0.46531328116302884	-0.15913365942696264	-0.31843352683927073	-0.11904987162799621	-0.01772797927796274	-0.06984109521331616	-0.14616242969212417	-0.3418080044093541	-0.3482913098487045	-0.3090791690387572	-0.34217260670707783	-0.14436328639719914	0.013539362627781354	-0.06591174710207662	-0.43254518237931816	-0.07374047173327908	-0.3117751334556328	-0.28241218317288397	0.12549504579288295	0.09783830734686914	-0.14378336000687586	0.007141067585069535	-0.05741648239635837	-0.10087532922775883	-0.32984069635953595	0.07407545566308678	0.05221351115128634	0.02387167604920938	-0.07135530112144489	-0.33055457539161004	-0.1204599368995656	-0.33139244836402515	-0.20071061984319108	-0.2992673108087123	-0.39298199995212235	-0.4331378995563996	-0.11103409584806359	-0.2186734592236236	-0.3188032103322398	-0.34534410201104837	-0.34033413651934885	-0.267290129034627	0.06485149640754011	-0.2728439894923208	-0.28993672962160466	0.09378326705862844	0.019763574298020545	-0.15056630671754923	-0.3413566691283493	-0.021392276617097444	-0.10497978962086024	-0.3369385607813331	-0.3419775934063568	-0.37555094860758187	-0.2763348211763992	-0.10645512044688418	0.04940088476627179	-0.4584693665730001	-0.48530479041542496	-0.47433856226950977	-0.13584799352211277	-0.06390649906276324	-0.21478609630875253	-0.07413071109223957	-0.14091423791723276	-0.21141535882479887	0.06361294081767059	-0.1427873193902665	-0.41287479863091003	-0.4418471868491971	-0.04132090739413519	-0.47045572014028036	-0.5070322451573916	-0.38471566061578877	-0.13001454000143012	-0.0051447063089390815	-0.3268077965666961	-0.36130581942017104	-0.11187181541054586	-0.035149737196589065	0.0610603449546449	-0.31459547104087415	-0.19545170338875303	-0.33684342380728827	-0.4788045764118283	-0.410835045403392	-0.31189474705927756	-0.4165186761211017	-0.43141994621182467	-0.005862581021208832	0.09560844694505441	0.07291137883262491	-0.3273850035394841	-0.46446850592592315	0.08596589047467527	0.09588970150537575	0.027537790879593016	-0.059653500526425096	-0.20897459103795338	-0.3063289466121465	-0.036616783939680014	-0.10444686795224048	-0.10912107608324936	-0.07538512522683793	0.018630046620008937	-0.17395096730553303	-0.21333643812185957	-0.5046005620917523	-0.3178235595255955	-0.09278593853820444	-0.3303475122539037	-0.13327349638869893	0.04813744427359226	-0.4457048400799929	-0.44707530277838636	-0.49100298391038255	0.053672393019455	-0.34613820772581705	0.08835584511028188	-0.3110345356581736	-0.20179120161501965	-0.13413654163973085	-0.08655031478116504	-0.34920879649743153	-0.3152971092165928	-0.29480504309591915	-0.45257432313174306	0.03803728633899335	-0.2619347932774341	0.07296227692907771	-0.04362525020650397	-0.1272530666015084	0.09906334776081623	0.07264311407045523	0.12069865385919512	0.10751849132547553	-0.020024968652727113	-0.04605627905119902	0.09518943795538949	0.12164741376670471	0.07952710636393975	0.1170580401573869	0.06057909576276155	-0.019079836199291336	-0.001542617710442104	-0.31765504434324754	0.02904936097260248	0.0986514849643301	0.033770793730751945	-0.06325939245912854	-0.29202553087045646	0.009164426530046822	-0.11011582661274935	-0.14406659278265457	0.03810075438789358	0.0856123759620839	-0.06838356529711134	-0.3016514273910025	-0.10059133445863949	-0.2368352493858569	-0.18617918456443158	-0.3391322745318136	-0.0393821206598266	0.0684224051085151	-0.3335086783591261	0.11001195349784519	-0.16875399499403354	-0.27216190789395667	-0.3698396259502692	-0.06986093582663602	-0.11049801977904658	-0.05008924969891507	-0.26877478854705794	0.08231244378344653
0.5237924238689	0.4844664176269144	0.5000347448099769	0.3126457696956302	0.2836237482553182	0.32017535926957513	0.42880385415872707	0.3016869791559477	0.4272112199180689	0.5205317961724572	0.4690661087160368	0.49465145345416983	0.2934414274810658	0.28805343729616495	0.2922155333091328	0.33269885663808224	0.4679573250511991	0.4756557978063906	0.48682063711397267	0.2636142665603233	0.5327125606600003	0.276423568654006	0.25843457574021367	0.4963150122627125	0.48560810283105665	0.4941520119005071	0.5033476948499861	0.5092322122641304	0.4574846691227847	0.30966028464305145	0.5035734397481125	0.4598689961487416	0.46114958167806575	0.48651200683647033	0.2892467421204392	0.5085090328664112	0.3186085980488947	0.484029428770951	0.2872732103237114	0.27727110262219096	0.25191156986892493	0.49398390769192474	0.4732590629061848	0.3126499275969143	0.44472199014449715	0.4038663434508976	0.49906742109430186	0.47779450714226435	0.47475345089869875	0.48346122259606544	0.5246348955023001	0.45979791494404626	0.48833678164133937	0.3522191348596429	0.48197086488948354	0.4699608747539317	0.2892134865399024	0.29371739905219324	0.2808238099879011	0.4348724139659343	0.5096524646646277	0.5192043961543815	0.262859131865972	0.2686091200503774	0.2639213474573209	0.460128997318021	0.4801405834136362	0.4791472074421915	0.4445241034519697	0.4748840660608615	0.4863680648915824	0.49976151128064095	0.4951524008575982	0.25551486777579424	0.2544238294357968	0.4910893337057255	0.2379486279461213	0.3023366643079088	0.3190915070791951	0.4767250532202843	0.48408174763505313	0.311115534161061	0.41437713844682045	0.5144419690763651	0.47027507843838606	0.5159746429458931	0.32311313754742316	0.4652504547556056	0.26286005565279097	0.31527428423980697	0.27790074490046957	0.39207346421369244	0.3014771611641294	0.2905838561339048	0.47511465447745255	0.5002902769739468	0.5014009751481598	0.30819421123107293	0.2654953388662135	0.518240195262474	0.5082113926124914	0.4711134055590968	0.47583145677337113	0.47842558813831393	0.4137720839293853	0.47784701234882626	0.4934623329285729	0.47042213756456863	0.4696801549544541	0.47585596276579145	0.4968661559869549	0.5109817404199399	0.2736841555968384	0.2738275237404629	0.523339287578054	0.28771240211022836	0.4901588160458374	0.4973149789302537	0.26810472030048227	0.25868001398776674	0.28867375141314083	0.4510277020769028	0.25554066227278127	0.4986739809855019	0.4029830314848701	0.4829424890528612	0.48324815992523934	0.4805254906567809	0.36031770398927515	0.4073000133925342	0.2690080495177088	0.2592821568135352	0.4943192308337805	0.47695377630647656	0.5353313535984141	0.49582701694800113	0.49236601448548944	0.526797136792537	0.5054080621492951	0.5027524139213548	0.5249810846279571	0.5026545837516639	0.4972094154719916	0.5127236277567933	0.49841848076247963	0.4854867264744888	0.4975165886143475	0.46459247305429485	0.5056789901227388	0.5247295993085137	0.4554013151687783	0.4537701510531708	0.5258497892513998	0.5253059512029793	0.5759261551829027	0.38654340052837066	0.4742149169296005	0.5363954174818875	0.47523118911944523	0.46362197562165836	0.4317713862413422	0.48057052348623297	0.46894675128630253	0.5169745639936314	0.45629202497439625	0.4983258144874549	0.267647209522495	0.4999083393729713	0.528632311970341	0.3649214102762493	0.5247397558565036	0.5050838213706028	0.34211133325439563	0.25074281901887296	0.49823447247445185	0.46012806279714413	0.4766336045666936	0.4598277921229293	0.5484178353796578
-0.17993400838615614	-0.22323643748296151	-0.18230871181840486	-0.40965403334344214	-0.37433601014362167	-0.42763087556880497	-0.12901989054183505	-0.3357671811136993	-0.1520243044167535	-0.20830431817808986	-0.18215457572698202	-0.16264097572753725	-0.36060310714428184	-0.3545115749607594	-0.3437300802676933	-0.29864032207434293	-0.15238562519095045	-0.21661775572607322	-0.19153278931594947	-0.3825761803741516	-0.20319132617470503	-0.334625204665785	-0.32728015154799794	-0.17819159735391044	-0.20154815117553831	-0.14789340216378863	-0.21520834823520363	-0.1909195492646133	-0.12136300560942948	-0.3817889587276934	-0.2126635844850555	-0.2249363362116401	-0.2286753620599411	-0.1866992503580655	-0.30620294807064113	-0.15872317607739722	-0.2896073005812284	-0.17160259635881853	-0.33864622462864064	-0.3631315899928952	-0.3785433670361372	-0.1377867347248019	-0.16714475668272527	-0.30869967735286974	-0.24395775252508584	-0.27981828988911583	-0.21974868536005265	-0.23960707282656402	-0.22951537837646202	-0.2134483269970126	-0.1970155065069788	-0.22374044515083913	-0.1437120494917497	-0.27665831240996186	-0.20482513689217025	-0.1710899274985555	-0.3538347446351919	-0.3238374734866392	-0.36357636717869685	-0.2314608466490496	-0.15236964688323798	-0.21608476068614596	-0.40660547661612984	-0.4221531621078819	-0.41117986373969506	-0.16389985319343153	-0.18628480076135745	-0.18681426407741364	-0.17967756971180243	-0.1519751541104789	-0.17864256981423848	-0.23038715826974293	-0.1521409811586176	-0.3749407548554253	-0.3979365900178625	-0.2016690651189278	-0.3968133129610127	-0.45230960952929117	-0.38838911799221043	-0.16080911791795868	-0.20214096476157684	-0.34114538764512653	-0.27076246317447195	-0.14660583555063006	-0.20254045976111412	-0.22785274073584594	-0.33036814716346347	-0.15756378093057793	-0.31646714418122107	-0.45808584546658787	-0.36666361452813384	-0.24948131437249876	-0.3813366286789998	-0.39963913715674254	-0.20752555456048954	-0.20832881023397376	-0.2122528508059771	-0.31837299115199513	-0.40368360807459236	-0.20668677601155205	-0.20381902969039511	-0.23344715165293695	-0.16934560756128614	-0.1583408672914164	-0.23538623546669152	-0.1904583494296097	-0.16260073175754267	-0.16560785007417697	-0.18187680688796865	-0.2258864207191011	-0.14469735381945983	-0.18942425481650726	-0.4196602296604018	-0.348694546896503	-0.16224216969685476	-0.32471476408996774	-0.16635594291151307	-0.2216045850688706	-0.39815787119645546	-0.3904796001258935	-0.4310014035039199	-0.23096285141523298	-0.3379597077546019	-0.20083855846933663	-0.26763101453040533	-0.1748113066743585	-0.1429050459030789	-0.18803034021274617	-0.2992656324032159	-0.3001973295808044	-0.35385628124009433	-0.3903865749245132	-0.2361876181884517	-0.21828808758358625	-0.20481996383132506	-0.18872327631841024	-0.15994321558140556	-0.18226359392057756	-0.23099015014413515	-0.18059168964274191	-0.1799857433755815	-0.20628791447874223	-0.19304818981775457	-0.19406477908831488	-0.17994547764762442	-0.22419278517366464	-0.18250970004681277	-0.23321237203648532	-0.21597243093083313	-0.2146434535154364	-0.22902511183631746	-0.24044376352595426	-0.1884819011289573	-0.19385850985061448	-0.1898552363436649	-0.24046299660499737	-0.2210131264394426	-0.1674271809250774	-0.13873599740540793	-0.2298582441596233	-0.23058446910136182	-0.15986219901779203	-0.19662099800092853	-0.16934263216029635	-0.1550822933829285	-0.14714964449096368	-0.3108990402633469	-0.19970537525842408	-0.2226630916155995	-0.28364777311340533	-0.18999466659004427	-0.15337745142332132	-0.2794808909586759	-0.3636280909257112	-0.19053824729726904	-0.15766927085807328	-0.20132765614790854	-0.22693240933584036	-0.19115106697788792
