NIPT-PRL-001-25-BL-Px_S1	NIPT-PRL-001-25-D14-Px_S2	NIPT-PRL-001-25-PD-Px_S3	NIPT-PRL-002-25-BL-Px_S4	NIPT-PRL-002-25-D14-Px_S5	NIPT-PRL-002-25-PD-Px_S6	NIPT-PRL-003-25-BL-Px_S7	NIPT-PRL-003-25-D14-Px_S8	NIPT-PRL-003-25-PD-Px_S9	NIPT-PRL-005-25-BL-Px_S10	NIPT-PRL-005-25-D14-Px_S11	NIPT-PRL-005-25-PD-Px_S12	NIPT-PRL-007-25-BL-Px_S13	NIPT-PRL-007-25-D14-Px_S14	NIPT-PRL-007-25-PD-Px_S15	NIPT-PRL-009-25-BL-Px_S16	NIPT-PRL-009-25-D14-Px_S17	NIPT-PRL-011-17-BL-Px_S91	NIPT-PRL-011-17-D14-Px_S92	NIPT-PRL-011-17-PD-Px_S93	NIPT-PRL-012-25-BL-Px_S18	NIPT-PRL-012-25-D14-Px_S19	NIPT-PRL-012-25-PD-Px_S20	NIPT-PRL-014-47-BL-Px_S94	NIPT-PRL-014-47-PD-Px_S95	NIPT-PRL-017-20-BL-Px_S96	NIPT-PRL-017-20-D14-Px_S97	NIPT-PRL-017-20-PD-Px_S98	NIPT-PRL-019-47-BL-Px_S99	NIPT-PRL-019-47-PD-Px_S100	NIPT-PRL-021-25-BL-Px_S21	NIPT-PRL-021-25-D14-Px_S22	NIPT-PRL-022-52-BL-Px_S101	NIPT-PRL-022-52-D14-Px_S102	NIPT-PRL-022-52-PD-Px_S103	NIPT-PRL-024-52-BL-Px_S104	NIPT-PRL-024-52-D14-Px_S105	NIPT-PRL-024-52-PD-Px_S106	NIPT-PRL-026-47-BL-Px_S107	NIPT-PRL-026-47-D14-Px_S108	NIPT-PRL-026-47-PD-Px_S109	NIPT-PRL-027-25-BL-Px_S23	NIPT-PRL-027-25-D14-Px_S24	NIPT-PRL-027-25-PD-Px_S25	NIPT-PRL-028-25-BL-Px_S26	NIPT-PRL-028-25-D14-Px_S27	NIPT-PRL-028-25-PD-Px_S28	NIPT-PRL-029-25-BL-Px_S29	NIPT-PRL-029-25-D14-Px_S30	NIPT-PRL-029-25-PD-Px_S31	NIPT-PRL-030-25-BL-Px_S32	NIPT-PRL-030-25-D14-Px_S33	NIPT-PRL-030-25-PD-Px_S34	NIPT-PRL-032-47-BL-Px_S110	NIPT-PRL-032-47-D14-Px_S111	NIPT-PRL-032-47-PD-Px_S112	NIPT-PRL-033-25-BL-Px_S35	NIPT-PRL-033-25-D14-Px_S36	NIPT-PRL-033-25-PD-Px_S37	NIPT-PRL-034-25-BL-Px_S38	NIPT-PRL-034-25-D14-Px_S39	NIPT-PRL-034-25-PD-Px_S40	NIPT-PRL-035-25-BL-Px_S41	NIPT-PRL-035-25-D14-Px_S42	NIPT-PRL-035-25-PD-Px_S43	NIPT-PRL-039-25-BL-Px_S44	NIPT-PRL-039-25-D14-Px_S45	NIPT-PRL-039-25-PD-Px_S46	NIPT-PRL-040-47-BL-Px_S113	NIPT-PRL-040-47-D14-Px_S114	NIPT-PRL-040-47-PD-Px_S115	NIPT-PRL-041-52-BL-Px_S116	NIPT-PRL-041-52-D14-Px_S117	NIPT-PRL-042-25-BL-Px_S47	NIPT-PRL-042-25-D14-Px_S48	NIPT-PRL-042-25-PD-Px_S49	NIPT-PRL-044-25-BL-Px_S50	NIPT-PRL-044-25-D14-Px_S51	NIPT-PRL-045-25-BL-Px_S52	NIPT-PRL-045-25-D14-Px_S53	NIPT-PRL-045-25-PD-Px_S54	NIPT-PRL-046-25-BL-Px_S55	NIPT-PRL-046-25-D14-Px_S56	NIPT-PRL-046-25-PD-Px_S57	NIPT-PRL-047-25-BL-Px_S58	NIPT-PRL-047-25-D14-Px_S59	NIPT-PRL-047-25-PD-Px_S60	NIPT-PRL-048-17-BL-Px_S118	NIPT-PRL-048-17-D14-Px_S119	NIPT-PRL-049-25-BL-Px_S61	NIPT-PRL-049-25-D14-Px_S62	NIPT-PRL-050-25-BL-Px_S63	NIPT-PRL-050-25-D14-Px_S64	NIPT-PRL-050-25-PD-Px_S65	NIPT-PRL-051-25-BL-Px_S69	NIPT-PRL-051-25-D14-Px_S70	NIPT-PRL-051-25-PD-Px_S71	NIPT-PRL-052-25-BL-Px_S66	NIPT-PRL-052-25-D14-Px_S67	NIPT-PRL-052-25-PD-Px_S68	NIPT-PRL-053-25-BL-Px_S72	NIPT-PRL-053-25-D14-Px_S73	NIPT-PRL-053-25-PD-Px_S74	NIPT-PRL-054-17-BL-Px_S120	NIPT-PRL-054-17-D14-Px_S121	NIPT-PRL-055-25-BL-Px_S75	NIPT-PRL-055-25-D14-Px_S132	NIPT-PRL-055-25-PD-Px_S76	NIPT-PRL-056-25-BL-Px_S77	NIPT-PRL-056-25-D14-Px_S78	NIPT-PRL-056-25-PD-Px_S79	NIPT-PRL-057-52-BL-Px_S122	NIPT-PRL-057-52-D14-Px_S123	NIPT-PRL-057-52-PD-Px_S124	NIPT-PRL-058-17-BL-Px_S125	NIPT-PRL-058-17-D14-Px_S126	NIPT-PRL-059-25-BL-Px_S80	NIPT-PRL-059-25-D14-Px_S81	NIPT-PRL-060-17-BL-Px_S127	NIPT-PRL-060-17-D14-Px_S128	NIPT-PRL-060-17-PD-Px_S129	NIPT-PRL-061-25-BL-Px_S85	NIPT-PRL-061-25-D14-Px_S86	NIPT-PRL-061-25-PD-Px_S87	NIPT-PRL-062-25-BL-Px_S82	NIPT-PRL-062-25-D14-Px_S83	NIPT-PRL-062-25-PD-Px_S84	NIPT-PRL-063-52-BL-Px_S130	NIPT-PRL-063-52-D14-Px_S131	NIPT-PRL-064-25-BL-Px_S88	NIPT-PRL-064-25-D14-Px_S89	NIPT-PRL-064-25-PD-Px_S90	Genome-IJB-HP-14-xx_S3	Genome-IJB-HP-18-xx_S6	Genome-IJB-HP-19-xx_S7	Genome-IJB-HP-2-xx_S74	Genome-IJB-HP-26-xx_S14	Genome-IJB-HP-30-xx_S18	Genome-IJB-HP-31-xx_S19	Genome-IJB-HP-33-xx_S21	Genome-IJB-HP-36-xx_S24	Genome-IJB-HP-37-xx_S25	Genome-IJB-HP-4-xx_S76	Genome-IJB-HP-42-xx_S29	Genome-IJB-HP-44-xx_S31	Genome-IJB-HP-49-xx_S36	Genome-IJB-HP-50-xx_S37	Genome-IJB-HP-64_S169	Genome-IJB-HP-67_S172	Genome-IJB-HP-7-xx_S79	Genome-IJB-HP-70_S175	Genome-IJB-HP-72_S177	Genome-IJB-HP-74_S179	Genome-IJB-HP-75_S180	Genome-IJB-HP-76_S181	Genome-IJB-HP-77_S182	Genome-IJB-HP-78_S183	Genome-IJB-HP-79_S184	Genome-IJB-HP-8-xx_S80	Genome-IJB-HP-80_S185	Genome-IJB-HP-81_S186	Genome-IJB-HP-82_S187	Genome-IJB-HP-83_S188	Genome-IJB-HP-84_S189	Genome-IJB-HP-85_S190	Genome-IJB-HP-86_S191	Genome-IJB-HP-87_S192	Genome-IJB-HP-88_S193	Genome-IJB-HP-89_S194	Genome-IJB-HP-9-xx_S39	Genome-IJB-HP-90_S195	Genome-IJB-HP-91_S196	Genome-IJB-HP-92_S197	Genome-IJB-HP-93_S198	Genome-IJB-HP-94_S199	Genome-IJB-HP-95_S200	Genome-IJB-HP-96_S201	Genome-IJB-HP-97_S202	Genome-IJB-HP-98_S203
0.6508233889955127	0.7506907345701901	0.6426088510425005	0.9026357793149338	0.8993636186928814	0.9030047745088838	0.8857936818634136	0.9813766472165231	0.9073908746721328	0.7898762817718289	0.8851647255506404	0.9233723792922409	0.870822141599166	0.878026331032961	0.9163587198642366	1.0127205137603332	0.9287969090446192	0.8618232841887112	0.9127178874158708	0.9064824108399244	0.9310923421190226	0.9643285132060122	1.0002380032373521	0.6267617898072037	0.7129742438219844	0.912976850684004	0.821762319136749	0.8995482893420594	0.8843575503586217	1.0259537638745764	0.7454052291908956	0.7583927772652694	0.8408316551775489	0.8910813259560523	1.0164059079025831	0.9175927452708221	1.0080227588594397	0.9495968137217633	0.9431656175401171	0.9121100775607632	0.9222674413486033	0.9098988238525115	0.9422027536013367	0.9316516915594429	0.968231695271988	0.9885660281078433	0.9341568302740697	0.7723386472183531	0.948751601365496	0.9635011476293907	0.7125911939961967	0.8401126451830282	0.9362221660614108	0.9868509910177014	0.8560337957634664	0.9045335769223263	0.8904268459967325	0.9626419381076617	0.894182179096756	0.9715347947708688	0.909262772046691	0.750000197662662	0.9158104841913058	0.9350468367979939	0.9221030287829343	0.9059043612775546	0.8837731565211006	0.9213665746550478	0.9091732712780899	0.933380057536228	0.9644923671598994	0.7651249428413485	0.9316694010087718	0.9051833471513039	0.9092814949028055	0.886096876892788	0.9201768470940567	0.867164504755877	0.9295575284094454	0.9244014852385013	0.8678106628425991	0.9612650395143071	1.0059554928715277	0.917194058013373	0.869277703290426	0.7546546206306136	0.8907630455374526	0.9666374430851773	1.015577203069494	0.9447035139493639	0.9029027199392069	0.9645136100973136	0.9294354403747774	0.9474315127936974	0.8399366638607225	0.7312351362283614	0.7446597494103796	0.970669908103048	0.933758976135235	0.7144195332976032	0.7235950128400858	0.7796796422329045	0.90128179659874	0.931187888163582	0.9558231039372971	0.8967355672075326	0.8974563552267482	0.9142927008566456	0.8923408980648516	0.8162409095648845	0.9128966553103218	0.93510053192199	0.91201949936165	0.9705181523513687	0.9058355861588764	0.9890501849293497	0.9054971589736599	0.7607200703234912	0.9209629850476695	0.9071951395290825	0.9590443790685942	0.7735253709567095	0.948948772240913	0.724665976424887	0.9732694145318952	0.9537922359136619	0.9160961687035131	0.8859799441378354	1.0016182048035618	1.0505126830272093	1.0031311174089623	0.9658828211240003	0.7615913202493959	0.9639991210839125	0.7129361049224469	0.8955268124343824	0.9024194610842778	0.6752586740975769	0.7501924142715835	0.625109921795993	0.6704864043269557	0.8671568630203633	0.8796424636673291	0.699926242016552	0.5978489805105283	0.7319474113096702	0.6111613250772411	0.762488058419878	0.8489327764704745	0.824250899374355	0.9719923861891823	0.7669163590907859	0.6969679841905315	0.7646727172342416	0.8731325731264489	0.9666815882365238	0.761774062390817	0.9067478410182902	0.9171540299238431	0.8145904457648884	0.7224781931280081	0.8966290230129769	0.9648064751720339	0.9273318668702116	0.9411933444096626	0.9318775714671587	0.991793097618009	0.8781109731001521	0.7332658460171048	0.9893660617696236	0.693110554643739	0.9265528427453317	0.9659104245397363	0.8951645802147633	0.883770156005494	0.94273704280604	0.9077306557158138	0.9496002504710034	0.6942411652612146
-0.2036316636149604	-0.15551035441454517	-0.20646968843936106	-0.4720983939210889	-0.3102839544399575	-0.49422200891039314	-0.06996387198760287	-0.2409081135764368	-0.07369410692745837	-0.10502400767298933	-0.08829019654181161	-0.09927411544346518	-0.31550901990083013	-0.3330619102748823	-0.27265501931683245	-0.1351684503025564	-0.09940502122960845	-0.1088809048663108	-0.10622741502562016	-0.38282084589135557	-0.11081374856255902	-0.18267056346986454	-0.18928380233221723	-0.20715342862599143	-0.19108637528064523	-0.09707537086696047	-0.11410858360389267	-0.09716329714345012	-0.06813778216205069	-0.17493905791254727	-0.1528449197477009	-0.1448254206157777	-0.10443016084473053	-0.09777073098211778	-0.1228869279000819	-0.08827319106923318	-0.12731001412745277	-0.09273280674265652	-0.23209975435793842	-0.294449695785314	-0.3528601258738914	-0.09105892716238242	-0.08271331150470729	-0.24266107058039457	-0.0847717415148585	-0.1006421890940552	-0.08546709427963589	-0.1449611024748261	-0.09097293841547868	-0.07212626379633269	-0.18889386119079146	-0.10717428078906527	-0.08858114325010166	-0.0912158584190747	-0.10225638699950299	-0.11166672331788782	-0.32727844264150563	-0.17383343399659154	-0.38156388524685214	-0.08304494508867682	-0.09425108526079512	-0.14582939396175673	-0.3840501625078838	-0.44050342334079495	-0.4196770965764268	-0.09629178898952079	-0.09373026228859838	-0.09044775042558831	-0.10459002566891248	-0.09202362999693559	-0.08954272358800633	-0.15339227689821142	-0.0878165277992716	-0.38919673084450623	-0.38674956863198506	-0.11249352413059985	-0.4482753477133309	-0.5427408690777843	-0.34804581969586945	-0.09907503880585905	-0.10891975610187407	-0.35251541929113284	-0.12094219862752609	-0.08988582363373576	-0.09879347182757267	-0.16139740150934648	-0.30513528236060905	-0.08361647089698038	-0.14786616250373444	-0.5001896209531488	-0.32988991616723207	-0.07973965249141504	-0.3812420848872279	-0.3808848571408062	-0.11801480155238334	-0.17740227563997238	-0.18055633608210347	-0.1860061830461079	-0.4548606875667909	-0.16598150021292163	-0.17659757340804869	-0.131591948988488	-0.10079346034259551	-0.09067734749748896	-0.0879855455822274	-0.11139838052508738	-0.10805996447368965	-0.10351767479967827	-0.1149972084359421	-0.11964278902774883	-0.10201191379829103	-0.08285855179873372	-0.4321561792300266	-0.2182209808019895	-0.0965980252303226	-0.16774431624799052	-0.10111464768050846	-0.1552817429076717	-0.3949066160286432	-0.37210617057591355	-0.47976935882184957	-0.13796782050241393	-0.21395776332201297	-0.18127865862041495	-0.10084569192008472	-0.08798740532183844	-0.09059878856401629	-0.08871818197947495	-0.1258964154184615	-0.08571838540744131	-0.2496652866332267	-0.4118996039475228	-0.14777942663511587	-0.08224343405662002	-0.16542687012539556	-0.09505385369795408	-0.09941095825415228	-0.19477886607934494	-0.16396248599997276	-0.21356608657406975	-0.1995351603374653	-0.11850776100786345	-0.10423148140023519	-0.19854493836928247	-0.23134578906308004	-0.1552539891992715	-0.21103807177111972	-0.16836877486520732	-0.06572867831710263	-0.10485442358252234	-0.09249555617733221	-0.1356612662207127	-0.1893453053330825	-0.13736567756539766	-0.08766024793072863	-0.07206609029530123	-0.13501470099930166	-0.06753868040124403	-0.09258582535631196	-0.12916952081412994	-0.18841302509346441	-0.10188234545559308	-0.08363788070144149	-0.09352491727754864	-0.0981544534987158	-0.097501175877626	-0.15333492789572653	-0.09775509775398031	-0.16654845552671996	-0.10176488890792398	-0.18978861947398942	-0.09525100798535077	-0.17511973034546652	-0.26435239199089056	-0.1004268258133742	-0.0944373434091483	-0.09908792753298953	-0.08960497408800724	-0.18827097173360519
0.47961036257163014	0.42797622474417596	0.5132363717501698	0.5244217269683066	0.5571475368458371	0.5635040706838018	0.4140403871511959	0.5814893412161524	0.3848447046350133	0.39069135489076134	0.37493624264325304	0.38890998453647635	0.49492477925732964	0.5454267365886507	0.5167290587190868	0.4934545647750818	0.40546544189657535	0.38658615178244937	0.37382254789635067	0.6088010992572214	0.36498531439109105	0.5492787494498284	0.5201050572720733	0.5153196541266271	0.4276016162326699	0.37528121125679276	0.39561031783526246	0.36679650573159994	0.3651032118890564	0.5545197054368834	0.412163157340554	0.4261185729298587	0.40236737157300434	0.3753076802719649	0.549479504671609	0.38180251962447603	0.5064645710223168	0.4246398174149334	0.5316973312173667	0.6329806144174592	0.6562655503412438	0.3767705009583702	0.4060034693340868	0.5430389530614103	0.4506605077908067	0.45214919582597557	0.39371796310873264	0.4142850442458896	0.46097469352408316	0.48734572814004923	0.4551006549900938	0.4011006988541691	0.43419599276218807	0.509636001393631	0.3797365938030669	0.37330463999340935	0.5069009799641102	0.533430182358024	0.5187166261071756	0.47426365628089956	0.368108791374019	0.4173173241206719	0.6046061373505468	0.5786380321954305	0.5711634000377542	0.3601687020049163	0.36206500547887527	0.4097021618715364	0.38529890743453016	0.3923540532259541	0.42441472157779025	0.4109913902855136	0.3880562568770453	0.6337334875134403	0.6067781215479726	0.35639311082131864	0.6370637330843162	0.5560206287704544	0.6109728071670969	0.3746840972291534	0.38391468320117395	0.5433825400155881	0.48501187499332993	0.36461201103596935	0.3759729070285868	0.42483897077571153	0.5192539496272139	0.4485507592070923	0.5389081779365835	0.5384396157153463	0.6153835817735603	0.47496364551806153	0.6428612390124898	0.6281518477167963	0.402624531110152	0.42480777717986695	0.4239178955298669	0.5439319678925468	0.5694336875870399	0.39412658888945157	0.41402600600653827	0.41511208728207344	0.364425649573222	0.40831304090134835	0.48165874382349305	0.3710974210451031	0.3657582066819555	0.3766304090947465	0.37356863099199644	0.40623755711216136	0.3755399592506239	0.39756873077478566	0.6667746460228499	0.5740348990811747	0.36743906003459714	0.5217717703086255	0.37932827309459893	0.411454328295475	0.6349227056956857	0.6453563380533994	0.5960578607872066	0.40569011925960585	0.565942952063578	0.42797681918540226	0.4667028649823717	0.4338974471994549	0.37252036810183964	0.3865437875156462	0.5181143955560081	0.4295934153660192	0.5408160372670576	0.6464620616631779	0.41621184151103024	0.45583720256016347	0.40197873817454305	0.3733450113511089	0.3672772217514194	0.4638892962657736	0.40496210255162257	0.5252250927877434	0.4448168651347167	0.37598483638034064	0.3615631318908173	0.4433618175550786	0.5182230419485505	0.40364899991308006	0.5254890904267442	0.4040348192737766	0.3996745410652324	0.3995440518929962	0.43019367500778605	0.40742002975098374	0.4753891887778096	0.45297909263517455	0.3826104114396809	0.506997025100675	0.41655139620006704	0.40264145837324616	0.37679859870721844	0.40041913237306886	0.4091319653476906	0.3560378363314716	0.44555778234910826	0.373091490798127	0.4126415692830302	0.38738803772389285	0.5572087371897706	0.3611334718612709	0.4099277244127998	0.4917200776696288	0.45208793930842106	0.40104661237017797	0.36002892479869736	0.5231887040191165	0.3791991034406315	0.37811931558770445	0.38871194148491567	0.48253987772712587	0.400324530866069
-0.1594972821032907	-0.09925022189937588	-0.15415408331741395	-0.6014782990571196	-0.5892796133785319	-0.4966378789657555	-0.27018415098365045	-0.5688876336912618	-0.23975094416528606	-0.1802403380338907	-0.18846109344373604	-0.24308593063848366	-0.6009650017833442	-0.5690630059368119	-0.5748201254354327	-0.4307971274935627	-0.2518698995819476	-0.14792325870892745	-0.18609419469872926	-0.35662745273886454	-0.18923755118692448	-0.49864687445509415	-0.49673982649802984	-0.1714822904193307	-0.1320440189308662	-0.23665522954668874	-0.13424168208390808	-0.1848843706326735	-0.22280878666914142	-0.501448546584801	-0.11026670469953767	-0.10553775425560943	-0.14174126026374634	-0.19769849133795078	-0.4846362734458838	-0.24099503645371448	-0.4269153309217698	-0.2828334339938873	-0.5674323654490682	-0.47929448631824245	-0.3160343017762637	-0.22763268799031836	-0.2953964204511381	-0.5649118007774764	-0.3798055702456634	-0.4180456919585457	-0.3192465776176723	-0.10814583272419612	-0.31491634650941974	-0.3374706820297749	-0.12578239269560668	-0.14934276895568435	-0.274678984466283	-0.37319926674985304	-0.15487254540025983	-0.19991773410583583	-0.593555144407038	-0.4787778479936119	-0.5779785685480509	-0.3673287491676256	-0.24436237412824277	-0.11259718622668569	-0.3042464769153168	-0.1990389969205079	-0.26488173239556023	-0.25665063244484393	-0.21844011953051037	-0.2781967583204926	-0.1856567490633062	-0.2211791133941016	-0.28141683165262443	-0.10073458432971172	-0.2685950895824556	-0.30246915118682055	-0.211441063636117	-0.18555708762758122	-0.252749262981945	-0.2607254025818211	-0.45917408078416677	-0.21941944958085155	-0.14971977687021065	-0.5575374618812281	-0.40997753455544905	-0.22814613926300142	-0.18868306764882503	-0.1191966890240111	-0.5923622491761903	-0.2825497547337027	-0.4608888454433292	-0.27280565810384494	-0.49319216313503533	-0.34444225188373534	-0.35666597239553954	-0.3157002870849911	-0.12070565588461502	-0.12288546386191845	-0.10717926393400032	-0.4909601723001886	-0.24637344888293142	-0.1302083337496981	-0.12389423802307947	-0.12234434345063958	-0.21464116992660986	-0.29191488996021764	-0.3236421861400338	-0.17672272376663725	-0.2110573393595225	-0.2045006324373314	-0.19307393303886677	-0.1268962274542969	-0.25921494087463315	-0.2693698519864981	-0.2404734575132195	-0.5483598540743937	-0.21750349280776818	-0.49166061794481064	-0.22225412398434882	-0.11458136442395572	-0.2674741525409775	-0.26815781123686155	-0.09840809494550427	-0.11685821347744582	-0.5351143785249344	-0.12367257928309452	-0.3927324256321276	-0.2947452860955422	-0.24625592197589288	-0.19363227784201575	-0.4211619964394675	-0.37981652575083324	-0.5950080063429102	-0.40186916880002377	-0.10839089864558035	-0.3212718726969014	-0.11988236721929921	-0.18912952352924103	-0.2509080774295491	-0.1385957865282939	-0.1034355664054547	-0.16164226797696707	-0.15129836929666768	-0.15772388233019533	-0.200487047960936	-0.13267271581561538	-0.1973664985765234	-0.11445552841253503	-0.17314145761442523	-0.08890942307522434	-0.21468173145942168	-0.14801845204086736	-0.3580913380641636	-0.1257018219552676	-0.12591045903170112	-0.09795377714244022	-0.24349828865281392	-0.3104686822624059	-0.12363610692151433	-0.24072052774129468	-0.2630947424076572	-0.10629564268749589	-0.11263544933397379	-0.2120006160915339	-0.2781370317171371	-0.19515956983769647	-0.23805714671159775	-0.2491786202051229	-0.4408105249787525	-0.1606368236894718	-0.10101366901356809	-0.3966236616126073	-0.14119336090603052	-0.2581879796756629	-0.44097795987893806	-0.5612479038783472	-0.18621768826777443	-0.1903804775635486	-0.12619882299099397	-0.2999794759057454	-0.13523412211510885
0.816604488776676	0.8365009153108018	0.835621245418466	-0.003438923138998476	-0.002894410213129875	-0.013146626936423447	0.5322783851779413	0.035308136099756485	0.5247353115898828	0.7524137783658118	0.6151139771306776	0.47787785529184496	0.016505553044457458	-0.00316183426830631	0.04188305758809126	0.2281108776668449	0.4774735384974919	0.6874209923780056	0.5361977620424428	-0.02903884741033115	0.5776341049832746	0.10640448466042986	0.13757055493232279	0.829577421906482	0.8017024458944751	0.48257956411783554	0.730394595945244	0.6054572193007625	0.5698359772979704	0.1458994682918004	0.8197133240119605	0.8389135578154899	0.7249279963925719	0.5822745899274898	0.13449813750307388	0.4812901197991987	0.25576447903086263	0.4267523444793722	0.04951756673711137	0.0006648776581462262	-0.01794951206386118	0.50047181699323	0.4356682286102664	0.03993582999317448	0.3555825260510322	0.3134407978229249	0.4527324634035412	0.8092549469271051	0.3932907017385638	0.3727216584902769	0.816345607123686	0.7379045119652379	0.4215209775639219	0.3134184656122297	0.6625829858950285	0.5404026760347511	0.003967294895301829	0.13571211042135112	-0.012340664636251317	0.34849011197713486	0.48689097000367926	0.8356525547271269	-0.012161762524876343	0.03908192291614856	0.014705788514557575	0.5070798572488134	0.5865087416032313	0.43226767864373244	0.5686198571962108	0.5160642020322185	0.4465661458520704	0.8154010438317087	0.4549596365997994	-0.023176317021937495	0.03922645120836364	0.5311541669109435	-0.010488848839195417	0.07507236838725295	-0.004578973728518107	0.5083497198226271	0.6771646305688923	0.04115670761800151	0.2876811693345871	0.567413996990865	0.6556328436699601	0.8158127588180331	0.007952213289205104	0.3953830099243804	0.1624677275549718	0.058986507440182065	-0.015699872260071093	0.3536296596518593	-0.038002104180389476	-0.004788318349526199	0.7421761681068648	0.804193419891604	0.7990838696195443	0.1280769243187494	0.03041571346839879	0.8093875231323884	0.8040505235591002	0.7856633101470751	0.5464164778144713	0.43988979564594327	0.37231038043482556	0.6075418596034644	0.5350024581187199	0.530623980653305	0.556295748709867	0.7640313078503782	0.47793112385455233	0.4523864153113835	-0.011533665078029776	0.049306114274393756	0.5131277791189846	0.1363507749638443	0.5116608512903079	0.8201718708023867	-0.002269059822534905	-0.007122244580238454	0.10590696647658553	0.8010612986280861	0.06019432830379638	0.8067753006615813	0.3225730417908365	0.4090004876683018	0.447240881079917	0.635373386901431	0.22809742695588658	0.33641669162336757	0.04372702008491998	-0.02651636730212363	0.8254326464524232	0.4030832737540381	0.8114177202596289	0.6088946881392765	0.48237188373314194	0.8159021419886725	0.8073869246798893	0.8375033885034786	0.8093751132022715	0.6157041364010853	0.5680292211501765	0.8010012970610981	0.8232768800604207	0.8226064225073203	0.847616275817898	0.8183228384522937	0.6648824180361368	0.7326537459430693	0.3738969167813074	0.7935306381823315	0.8171830343964209	0.8407510070392208	0.5708585011493059	0.34966210994710917	0.7923460767782962	0.5620938204325732	0.47653816745497674	0.7505035346995494	0.8136518087346809	0.5222179113738132	0.38768392784022054	0.5398199586992751	0.4713276527137479	0.48720172444865406	0.1417557308596365	0.6401053623274283	0.8090868906360207	0.3118727342801555	0.8012221627242312	0.4757287278615686	0.3349570714332855	0.023833245378021464	0.6193872665234805	0.4892241728291807	0.6009347669940166	0.3609904593617636	0.7940646590843037
-0.3723910741809503	-0.3628620684464045	-0.3749037578370672	-0.6577366058220845	-0.577748377347413	-0.6597869487098912	-0.4599452911415604	-0.575302536387084	-0.46432747164104476	-0.4014149978956172	-0.4318977256530101	-0.4744553591692796	-0.5451738546727686	-0.5717515030127445	-0.5435870132525793	-0.5196514535583526	-0.46373337814338167	-0.3911524386342708	-0.43349644158946954	-0.5737498338203546	-0.40716774218350243	-0.542826542673585	-0.5643708469675355	-0.38038690572535455	-0.3733475112271536	-0.44338509298146456	-0.3782498101962144	-0.4220702661587376	-0.4401094951696123	-0.5420279543979477	-0.3568880084730478	-0.3475752029443969	-0.38402835720411144	-0.434270018410286	-0.5375305118120021	-0.4564431276783014	-0.5291092540212657	-0.48165229148553185	-0.562131812640441	-0.5802156552144172	-0.5530894875817155	-0.4659571017517574	-0.4712785199263335	-0.5542594040764541	-0.5120940407703047	-0.5024718965166406	-0.4883388980435365	-0.3620878851534145	-0.4868744956717033	-0.49863952982116366	-0.3644155305662359	-0.38122435161064355	-0.4625519619806173	-0.5081886367306707	-0.39612803797290663	-0.4407242147848957	-0.5769037197341916	-0.5394742459117651	-0.5935311388526577	-0.49455039438058734	-0.46151234721657375	-0.3512493105350869	-0.5634895396161669	-0.5752280135968222	-0.566046855472789	-0.4625332221652395	-0.43051744421274507	-0.4615536496163195	-0.4482955974124791	-0.4417328022632607	-0.49235708756394836	-0.35516402123068996	-0.445406736988445	-0.5682192551438171	-0.5450241472243023	-0.4223085916985023	-0.6098404841350955	-0.6438095629521657	-0.6012417833759797	-0.44235066757916613	-0.39744294424549315	-0.6453903636760913	-0.5233478413172759	-0.46111306268670194	-0.4035281878249419	-0.36411519225536887	-0.5510941491460936	-0.4803434928095848	-0.5461669436057136	-0.594395788242346	-0.6079835414010839	-0.4838969171105102	-0.5753900738475458	-0.599153522644589	-0.378010654649323	-0.3648654323784837	-0.36112606969969785	-0.5521445283790756	-0.594290329335548	-0.3714191099018369	-0.3697953441169113	-0.3697104186859423	-0.44114934314569637	-0.47324832743042655	-0.4913104784818374	-0.42932792785292356	-0.43681399121209213	-0.4472069919177821	-0.451799668479387	-0.3720753011345287	-0.46419396281752867	-0.4613620778769942	-0.5995938267359693	-0.5548527724272632	-0.44018455130198275	-0.5354219150035903	-0.4422282087329094	-0.35866485502923023	-0.5702413752627354	-0.5534141893159694	-0.5879602861478472	-0.368941548482091	-0.5525066643754171	-0.3680665155669324	-0.5034888510576869	-0.46866503792432135	-0.44464466169851763	-0.423839111700202	-0.5237832534631522	-0.5131691417430952	-0.6042958851025305	-0.6349268659133007	-0.3489372435764794	-0.4913814582474058	-0.35568471697023657	-0.41884479502160826	-0.44973503948692595	-0.36771625783526724	-0.3592505562529874	-0.38456733873904425	-0.37566786089220194	-0.40952992258566223	-0.4275138602934711	-0.3709992935572065	-0.39418345916544933	-0.3623760082938221	-0.3819794067173328	-0.37424580549763453	-0.43733843911252773	-0.3870547992310968	-0.4676353433666134	-0.3693563396122622	-0.3680569274897734	-0.3636252043561333	-0.45613714522352744	-0.5109834558916266	-0.3858780227593891	-0.4667890243061725	-0.4582953875233026	-0.3836471704263053	-0.37017745479454556	-0.4364429355748632	-0.49556604533293386	-0.42922876239319097	-0.465166516266227	-0.45291060577219244	-0.5388987598333627	-0.4048031755918588	-0.3615845881541995	-0.5121022317494787	-0.36690536242612887	-0.46722663348956817	-0.4932291555985515	-0.5306640934448676	-0.43944237989392954	-0.43439506784870824	-0.41224351030245604	-0.48595780665459104	-0.3825332065117719
-0.06113171347183338	-0.12266137189598286	-0.05573951427874463	0.1174270551867824	0.03951551175822774	0.13256101129628065	-0.09891203926117587	0.034678394133044535	-0.09657007921998381	-0.12005303206264117	-0.09826722456413284	-0.08698452852348698	0.04061017257024205	0.05163028431069854	0.0358565081179284	0.02209915495776743	-0.09362065295299488	-0.11706906026975716	-0.09258002732724929	0.06951083283621559	-0.07850351878086702	-0.0032896123332907673	0.02616701547100117	-0.05271095133275486	-0.06842454639407804	-0.09139937479022747	-0.13233960894481456	-0.08973612478957885	-0.1119441965578411	0.030090934931518674	-0.11747284706658506	-0.11693548192925779	-0.12258313686245009	-0.0962366933440924	0.028063228501543393	-0.07910213192799584	0.011099158331837652	-0.06551817334872956	0.034384964327631586	0.062241928811083244	0.06486401247121068	-0.08541208944807016	-0.05910332067095618	0.02753334471448744	-0.01360025465185298	0.015756347615589236	-0.036184060974213755	-0.11825956917349364	-0.05683709289620954	-0.04764781167028943	-0.08382708610893007	-0.11465777689981224	-0.08741698013215615	-0.025573422456139194	-0.12285142422683884	-0.09375496861940963	0.054053986064870094	0.0018243249577858667	0.10052022516175999	-0.03236954855424684	-0.08923056452734557	-0.11818671739979955	0.04714722770506907	0.03183376744890885	0.04925902745811238	-0.07509590850356956	-0.08931273275663912	-0.07455761472991516	-0.0900223961544907	-0.07967055514333479	-0.06795297356414166	-0.10514637379686861	-0.07431007664405978	0.06854849965919863	0.009766516870463385	-0.11529355474798403	0.06782183483940837	-0.0045008921563696735	0.08570944926948863	-0.07862925604575274	-0.10599810963429707	0.06171457797253804	0.01624878382555381	-0.0935748176918429	-0.1032450242738508	-0.08430152067200102	0.03626282006993293	-0.07059521001426569	0.018769566601500975	0.031643867763185396	0.06918464531643334	-0.048063536517190364	0.07520732928670598	0.030457610017333867	-0.12486036583527829	-0.0809868366308947	-0.09159455792871055	-0.0005660786618345709	0.04611658305385387	-0.10166800464307835	-0.08245754905858284	-0.13308237019178962	-0.09514825299409752	-0.05419075062045621	-0.05152247462912922	-0.08730865908918262	-0.08769948114813306	-0.0816647948129611	-0.09028620737642262	-0.11879739120735894	-0.07464200217429803	-0.08067634671492119	0.062026760868692576	0.01489574361220021	-0.09290615847595998	0.019984215565968227	-0.09267849759656957	-0.10145830033728959	0.05350618796430898	0.04913813374712386	-0.0047103086885580125	-0.12474516956673704	0.008263123012565016	-0.07834496410828094	-0.009806374695820352	-0.057371548212659176	-0.08250495392877284	-0.099539999413649	-0.002526086653120055	0.06021457240057984	0.06602054620432535	0.14287525531428552	-0.1218812899348759	-0.05660093736426161	-0.11328949076157355	-0.0951650581761882	-0.08851273147432487	-0.08434382492341269	-0.1022146447433703	-0.05164808081838798	-0.06484814600464736	-0.11953713692660772	-0.10417360001173245	-0.06951797095648932	0.006997858695685144	-0.11978153021956764	-0.04125446529291582	-0.08515703946152826	-0.12333585978726969	-0.12088079750620606	-0.028697941252524714	-0.13730386794889932	-0.07748088802074829	-0.11701449279565107	-0.09746797686010766	-0.061608210427671645	-0.14175100522805886	-0.09286374036477665	-0.07376520916261806	-0.12018361988850829	-0.09105146865355646	-0.08872129388517835	-0.07150161678972633	-0.0957874263909256	-0.0948088011203321	-0.0686151704361547	-0.018790314602633015	-0.094543674884396	-0.1046565779514062	-0.006806445387280313	-0.08034662328154422	-0.08945505419749061	0.04320025521982088	0.017322395981297627	-0.09382342325682475	-0.08466272021292771	-0.12207975613144509	-0.07062937774566003	-0.08155716277381408
-0.33778837529078454	-0.2691849347806069	-0.34462184306791777	0.07304161340130971	0.029869499001831695	0.0494869450279001	-0.19812448491252704	0.0734417210255861	-0.1983368886117236	-0.26561087438260766	-0.21282534280642237	-0.20055799605826596	0.017524758116489098	-0.0020467931892669267	0.020443230910079713	-0.05467212521210377	-0.21472001713572342	-0.254887856056227	-0.22689102808627767	-0.08787768720919575	-0.20968652415601535	-0.06350411348426549	-0.030173116073843376	-0.36063953822549555	-0.28403315347288405	-0.2091094248803693	-0.26042409681503315	-0.2093328120892221	-0.22365451626928845	0.02430469115878167	-0.2468687387077275	-0.2504075844466176	-0.2452401395316478	-0.2048886601200824	-0.012303152160092229	-0.18588769044633938	-0.06806341524118176	-0.17756814546579883	-0.004324265162776425	-0.03376276906763456	-0.061186238650230124	-0.18937504377153686	-0.16887114729854114	0.0034302789452507476	-0.09414923313415224	-0.06941152798969322	-0.14485713844069462	-0.25063553499485136	-0.17666083130041427	-0.14867448997375893	-0.31023687346187223	-0.24423338396906427	-0.2025074976965492	-0.11394762039165694	-0.2496935670675298	-0.21965715122782	0.018558224236126464	-0.07331323665828321	0.029605588732921073	-0.12482630771523678	-0.1981704114485727	-0.2524155519907235	-0.08591660651485264	-0.1334625361298001	-0.11644507173379715	-0.1942651786096292	-0.21218914300489247	-0.18506653199373227	-0.2096000652555399	-0.1975077509980434	-0.17019182840135774	-0.252543514455671	-0.18772550931459447	-0.066011849688727	-0.13315813044531385	-0.23830173392633372	-0.05079182477857738	-0.04849699268462637	-0.03134194521339442	-0.19448897070777588	-0.24169134249096344	0.13477502482735856	-0.06752567177966318	-0.22176328824265434	-0.2346780763648683	-0.2502323914688733	0.01899623502856057	-0.16392525194257695	-0.0430622391835879	-0.09701356274763753	-0.0349357051828415	-0.14367733455679427	-0.03824027500015856	-0.05947483836011985	-0.2527852297257848	-0.2683393587958046	-0.2831762858058171	-0.035535999064218865	-0.10589346471487887	-0.2509445709309521	-0.26619165536965805	-0.2695885398629888	-0.21247386101964058	-0.18041455833895909	-0.17459109420025215	-0.2164569126832638	-0.2104762601141133	-0.2086077444963644	-0.21205301365232412	-0.24573953142788438	-0.19439706889704159	-0.16996205458099287	-0.04166188113907396	0.02767001666347818	-0.20779895624491548	-0.043282101033826265	-0.208180023712791	-0.25646582142721275	-0.08287428493271123	-0.08960564065441354	-0.15730655615914488	-0.2612114684574568	-0.033685823940997395	-0.27353655155700274	-0.1030025645867401	-0.1707381616454216	-0.18062565193854568	-0.2143903740146698	-0.06803876040243517	-0.02903376752585654	0.051547799594515525	0.026761109143141726	-0.2595627531545134	-0.1653830075434769	-0.2682999676528054	-0.21604182635824742	-0.20149757704532595	-0.33419218155255515	-0.252140392523181	-0.37209490466276685	-0.3063938763307348	-0.24088747780935063	-0.22835284257408464	-0.3133390780888935	-0.37163105975035493	-0.26028445305822945	-0.36918730567257596	-0.24982263890643516	-0.24521711690374054	-0.24888948168770678	-0.13837600663152833	-0.2754486506282209	-0.3173037541925636	-0.2572629763574097	-0.2119734291801028	-0.14732447709842547	-0.2803165840802517	-0.20289637162589455	-0.18768626682763748	-0.2524670347253437	-0.27749320306484	-0.20662769176687598	-0.1509597588295803	-0.2062382887370865	-0.2110731046371031	-0.18967119497584828	-0.07871349747489245	-0.22149165441410487	-0.27986808787581907	-0.0980763702028469	-0.3084848169301139	-0.1997583933697986	-0.06273146277580072	-0.025252447853154114	-0.21993072801557456	-0.1957917570704134	-0.22324616069539213	-0.17342707840457044	-0.2756491719483701
0.23143737147803417	0.1672790636523433	0.23526923011186462	0.1353522636619542	0.028878257038812256	0.14674351280042885	0.07605165550195116	-0.04236434041123051	0.08169704530585824	0.15749992033219934	0.1044002313145553	0.08177358418818557	0.05226011625178899	0.06717709761433137	0.019591705963240905	-0.00014207442125747927	0.07655272757832639	0.13249634495414642	0.10099989028319607	0.08172560382698328	0.10761342219505314	0.04701835900803582	0.03346595124239226	0.24740966199350922	0.20681027033220828	0.07571071444970488	0.14169618066597878	0.10683341687675633	0.11070668323996864	-0.026787246990294257	0.1633628076017387	0.1518385047062351	0.1262313878711641	0.09517037324906231	-0.04665759211486738	0.05587936724667315	0.008470749663995678	0.05036821079077032	0.030270134979565516	0.039512837655411984	0.015988830757033792	0.08049532682309789	0.057207294443160625	0.01862720723919116	0.029401617187396326	0.019239397540434452	0.07910753757508772	0.15338374837226937	0.028851001223626452	0.015489308962298762	0.20054637152163257	0.1280031388904881	0.02671982827969331	0.0018764281114162368	0.12624063856080037	0.10183320423289059	0.05392187717168355	0.032461124697701585	0.05562461051796465	0.018069723726158185	0.08277986098522357	0.1647306723488008	0.0502527091479449	0.027473262812265156	0.07864610927690367	0.09827993566731054	0.10998506017951169	0.04931089244682983	0.09525986743501118	0.06940336621843356	0.057720241682286524	0.16480338246633275	0.05212659730380738	0.03201676879412389	-0.002531925326986581	0.10047033566030138	0.014418455754233103	0.1145695357766703	0.0873434197025487	0.07866586037148653	0.12180254404750564	-0.012752612301100086	0.008483176613612434	0.13488416381511503	0.11747454309373744	0.17846878401574434	0.04996765508924343	0.0219626087265518	-0.006164512029312688	0.10270180989537143	0.06423879068216518	0.011101401450077222	0.026018349444486916	-0.006787214232698194	0.13050576540375636	0.1876952321647425	0.18504692399175532	0.017172945045308863	0.05444117735373079	0.2006210256379009	0.1927417283026942	0.1513580755249792	0.09844772960886601	0.04153085564620325	0.017815726953694752	0.10999043612268646	0.09748977804859739	0.08843236832616265	0.10050978094426143	0.13420609401939038	0.08468792158162165	0.07179581334819753	-0.017408144445955384	-0.013218747100225622	0.08915554397790433	0.013395317831022012	0.07931217985150708	0.17645038399491736	0.014691587801488395	0.01760733623039222	-0.0779289236404501	0.16441323155420756	0.03966405323595229	0.19427740623478512	0.019912215662563945	0.028724297152638148	0.04888111816349759	0.10154321098943224	-0.004649416024308378	-0.005730435913614926	0.025012430996224883	0.0052232758611198	0.15664761124898696	0.042327883365528465	0.19098465659473535	0.10834851258784352	0.07900034397659998	0.21940736286195361	0.1729333410338894	0.2609327145526731	0.2306240873626118	0.10764715203982074	0.11042346849266922	0.22103355524284646	0.3072290064999909	0.17679192998022025	0.2714982641817498	0.1824577399426483	0.11011991751635687	0.1308909273771327	0.05091574585849211	0.16476870539481653	0.206825744626494	0.14192636335428827	0.08971824074312686	0.0040036781379346326	0.17088934207343465	0.08301754347143729	0.06881677414281089	0.14804552735409265	0.22214485559831082	0.08040823901480294	0.036868833257958325	0.09417762731347003	0.07053385502759153	0.07566625807610068	0.009419500389980157	0.11642519756018595	0.18711974786724123	0.010247479715670013	0.20176839487248244	0.08165556837975972	0.08800404701145063	0.0568053233752988	0.10777762482769183	0.06718818059211511	0.09283289889343634	0.014358754850257019	0.22300393047554112
0.11964775482697741	0.07225847743939391	0.13985061798067994	0.2814795586311066	0.24117004569804973	0.3033275096497498	0.08945080579617541	0.2184572272703253	0.04826731044267284	0.10007392546861231	0.051435641585728595	0.041518117523408796	0.24491081429082906	0.2606977312945538	0.2195902766410241	0.14825668441366807	0.047545850909519224	0.03744286060336051	0.008840379753179792	0.2980598876777462	0.03190949990943247	0.15392388083918157	0.14511185247085856	0.1466689043518148	0.06966870779428021	0.03879020151289288	0.057148459200413435	0.04164596938076866	0.04332434027787967	0.1939320520115333	0.08796347588083701	0.08525979166793372	0.06707599830377169	0.053803640184887494	0.1425740036206085	0.04421167822782583	0.15031809844061889	0.06696316987630636	0.17716350641518613	0.31890586438956137	0.31717578951292286	0.04785131557611903	0.07864414571392318	0.19397862233187319	0.12863043212101333	0.14971757926648327	0.0983254881431191	0.07352494935421393	0.0968929993631535	0.10077787558984223	0.08884935311155422	0.07797599638155599	0.06943474837957463	0.1214220688946313	0.045558293459428814	0.031015075733383815	0.21124102361210145	0.15950596161462188	0.2299072514882629	0.12382288443410201	0.04182570188048777	0.08876352423627663	0.29946824412244916	0.27235287210608744	0.2827676009788854	0.05084408610400808	0.05438166300438453	0.07243296919315727	0.03233171077959794	0.047009449773196835	0.055276947061047146	0.07200952349976376	0.05999161361293563	0.3065770428508871	0.32155443068636475	0.01981875381330274	0.27606493801123017	0.3407260239935736	0.30601366062799396	0.03370345121374736	0.041498792959182254	0.270470339627668	0.1421653535763993	0.02830984411634764	0.057751007372862415	0.06128198635700503	0.22009308262715505	0.056879170054760356	0.14310241603326662	0.2580780462464495	0.28205940135001406	0.10728813200893518	0.3050422710972017	0.2902019622023389	0.0617440345330509	0.06371320587139882	0.062308068076493486	0.18042544254678206	0.26747319749575765	0.09027871608912856	0.08294100037783668	0.0673530323507369	0.039195954640853306	0.08240286310696864	0.10374554561347808	0.03833795595755181	0.03940927678105079	0.028273908081481322	0.033357304955965575	0.06653089079038531	0.05738231363264547	0.05327018185843445	0.3045071740692082	0.19355534288193832	0.03179515949737875	0.15733943734002892	0.0421594863528139	0.06262223404865801	0.2878482390041995	0.30024341352774997	0.24749989711920045	0.06866237728433099	0.17596970066352235	0.06547402411523616	0.13856674312540546	0.07671115764044457	0.04350912970466432	0.0658046949313079	0.1443159642244094	0.09836623063092657	0.16042895683049518	0.27331555907712846	0.08225702207252893	0.09245213173453908	0.08088354813435818	0.043956022078521464	0.052108247793660814	0.09765356178828445	0.059820052978235436	0.1329412208690549	0.10207597822200705	0.039549465457711194	0.033723007438261246	0.07612221929148826	0.1564086593601115	0.08111735810039965	0.15387092037818534	0.04347607755898812	0.060612697331983365	0.06894885490922563	0.11650254548220192	0.07355595751503179	0.10994612548945114	0.06058236066841126	0.06280842473894248	0.08050258953156066	0.07006726577585541	0.05854911311787474	0.05867432356157952	0.03197018372385223	0.052073809428724235	0.0371023588519382	0.05166937810359641	0.01904892992077105	0.03292956424352399	0.0582492996774545	0.12221278084779642	0.027650554276894154	0.06742023519676259	0.1340049206519957	0.10960586707811136	0.050982853082705545	0.17486454626508685	0.19523999581539214	0.05020892827024402	0.00605836407733952	0.003401573794273985	0.08293228137607121	0.061581666662750986
-0.16402272819557434	-0.11305104525459223	-0.16487922995872714	-0.11055953413253036	-0.16353221269921972	-0.0823248858757648	-0.11832841221050214	-0.09731550135293104	-0.11512436869181084	-0.13535003030214005	-0.13349233342457198	-0.13416795625190117	-0.20100903782236645	-0.17095940273212343	-0.1688920792377632	-0.10565256297556226	-0.13543647674056777	-0.12688076978745544	-0.13468485213466788	-0.03339140903703168	-0.13510870743422018	-0.11471452563813953	-0.10071325177169904	-0.17407415752621627	-0.13147906442611712	-0.1419015665008763	-0.12295007616088266	-0.1325578833268787	-0.11843066240368685	-0.102149412029585	-0.11468678648879224	-0.10895259631004997	-0.12344315999659347	-0.13882435156809744	-0.07812165911654528	-0.13490595905011799	-0.10532911730097787	-0.13927524877660824	-0.14070739908886998	-0.107255008362422	-0.012169099154332272	-0.1393531555821141	-0.14171205191919653	-0.1473525423150295	-0.12583605797798103	-0.12633667648068303	-0.13242942062625684	-0.11340763653660815	-0.1501156785134449	-0.130380761638819	-0.14666963796213184	-0.1264866417697227	-0.15310548851956948	-0.12178555430307589	-0.13171228821472372	-0.13887294945172304	-0.17625248769252935	-0.11885942913430153	-0.1591215841833787	-0.14107212540924885	-0.1365642442796895	-0.110274233553034	-0.0032303208660789118	-0.0014559134262781825	-0.025749873678319518	-0.13273245741634818	-0.1319534696956623	-0.14488442397586174	-0.12880217859277612	-0.1336171308222545	-0.12208047987812015	-0.11785720358636914	-0.14560717928215297	-0.013962604748580548	0.008933928497063787	-0.15492816398259537	0.0008253198677188045	0.004849216243784343	-0.0877439799354084	-0.1316046224238301	-0.13128377265485855	-0.0677927207139157	-0.10546350033543014	-0.10507005982171036	-0.12971495336587194	-0.10253989591237742	-0.17813557799586957	-0.1276384467103929	-0.09210884355744177	-0.029699553997044298	-0.101506269335264	-0.14231306838517577	0.01279362108058485	0.07021695942893741	-0.13006478852282094	-0.11835636522308596	-0.1327859225399193	-0.10485879907643161	0.015164896521089738	-0.11982598804576783	-0.13364261544940398	-0.11516283815756473	-0.13664319749986695	-0.15419359409013647	-0.15584644184905114	-0.14093948746569362	-0.1413616060317926	-0.13617258520158235	-0.14340132766018823	-0.11670007159452683	-0.1414483609829723	-0.11835964093088538	-0.0019358820974254287	-0.10621318959123341	-0.1345676788402857	-0.10428281171334858	-0.13758017630798589	-0.10879031915648388	0.010621769363766367	-0.010332049656521208	0.027457040655514048	-0.11539991279844411	-0.1332627604192211	-0.12118367309777875	-0.13465518906080048	-0.14345777638585555	-0.14226181294227916	-0.12938944102048575	-0.09795084989745849	-0.10781582825929015	-0.10073776171300552	-0.01060233902127615	-0.1181320999103033	-0.1348978228874079	-0.12504007752576066	-0.1249568699999131	-0.14531899623208208	-0.1571093364245972	-0.1117346053152117	-0.1684620830757018	-0.14895199700729003	-0.1509072601099013	-0.13741429905212668	-0.14710311258943246	-0.1933605843336106	-0.1174800106797122	-0.1740065849418091	-0.10774099376535387	-0.10678684464127389	-0.12307637290906287	-0.14717634653820932	-0.11784515081407351	-0.15713361052303257	-0.09624704426447979	-0.13279653950435413	-0.1213339109677366	-0.11671319251652143	-0.11063849963723738	-0.1402831192967169	-0.11281699881767321	-0.11069908832186806	-0.1521763423702747	-0.11892999213332092	-0.11997195719877313	-0.12869467909101	-0.1394131584678684	-0.10116816906882643	-0.1283401584402087	-0.1352230794657541	-0.11876321767054163	-0.15720203072217853	-0.12772537134641235	-0.1484742888365769	-0.17355076976141207	-0.13896258144091483	-0.12988604887273533	-0.11927765103794741	-0.14259259659123977	-0.12207402863128883
-0.8856281023175301	-0.8872709252548814	-0.8915327587571099	-1.0547300131829735	-1.082311741310531	-1.0358297392196425	-1.019565973129793	-1.104051001041614	-0.9999595149687563	-0.9282624343121622	-0.9769002250797904	-0.9734819211596666	-1.0720658403468633	-1.0606703310836216	-1.0792351028841591	-1.021518840028085	-0.9776496420124877	-0.9509334640859346	-0.9686761968501305	-0.9477547156746207	-0.9845318880381823	-1.0423984199716676	-1.065841804362246	-0.881326218026014	-0.8987177868479088	-0.973971833123249	-0.9297123778712524	-0.9787277940067123	-0.9684327202122573	-1.0834746226484253	-0.902218545839062	-0.90237356535233	-0.9538915429104673	-0.9832314842646366	-1.0491921867367693	-0.9894405690350425	-1.0175761797852196	-0.9844767935470793	-1.073097754700378	-0.9904825294895995	-0.9471708732945442	-0.9751383595100791	-0.9875935276982672	-1.0734421054431251	-1.0135940188655825	-1.0212091571576112	-1.0095228746747429	-0.9093545743384703	-0.9874795725032588	-1.0030066038685028	-0.8900957665480608	-0.954842527506494	-0.972605726405406	-1.012243134098258	-0.9625090471046097	-0.9764433387028228	-1.0856574749269692	-1.0220691011429934	-1.0837908263896945	-1.0003521559197104	-0.9687763187944274	-0.8939397168697305	-0.9515355937941273	-0.9326865935871569	-0.9426784926159053	-0.9816866986867627	-0.9841329882360748	-0.9910290744062663	-0.9965409563417443	-0.9987399919309485	-0.9850083770763682	-0.897222388946846	-0.9843829444495633	-0.9421392418277527	-0.8954739213033299	-0.9447707886804156	-0.9806311519917633	-0.9368711002147059	-1.0058543825805317	-0.9894619753192853	-0.9702366474765385	-1.1158193971160657	-1.0357026957250732	-0.983374304699111	-0.9757310146573162	-0.9072721661212322	-1.0911087762626248	-0.9872912967351345	-1.042188292022494	-0.9841365280912462	-1.016992937447035	-0.9911175315799352	-0.9615349550743636	-0.9640592245521125	-0.9349853341961738	-0.9015475805130564	-0.8949231981401415	-1.029321589450714	-0.9567718960893459	-0.8937129735626359	-0.904726100665546	-0.9140291317106418	-0.974797795613088	-0.9887569903883539	-0.9823911131868032	-0.978091005277911	-0.9835125109479812	-0.9824819044134383	-0.9728716364524963	-0.9357907328005547	-0.9832908316077709	-0.9963904352929642	-0.9580700646255642	-1.0939417465376045	-0.9754699381617737	-1.0414536007770858	-0.9881027778499218	-0.8863777029686082	-0.9480849774609271	-0.9356197927179695	-0.9430953884710316	-0.894115787236919	-1.0645194198966559	-0.8999792649505192	-1.0043747488963566	-0.9951817887051312	-0.9792280129977683	-0.9862279559141831	-1.0057616235899072	-1.04957499582157	-1.1202804599883147	-1.0307600483076957	-0.8881039731796108	-0.9896865581831751	-0.8857034766566475	-0.9877950635573394	-0.9739544485337873	-0.874947299297673	-0.8974428880878056	-0.8739653604009278	-0.8951220604822262	-0.9595113063506822	-0.9695821894354746	-0.8900766803010896	-0.8657768682989151	-0.8891057144540926	-0.8715036956680942	-0.8980654052113619	-0.9690696153485718	-0.9477287361228204	-0.9923986852637015	-0.8965391638728172	-0.8978342596767409	-0.896968096354777	-0.9762752468633003	-0.9964292550141536	-0.8992109568090796	-1.0056555864006742	-0.9870604983567812	-0.921220360444277	-0.8841351231909526	-0.9648554197346817	-0.9828674173557175	-0.9847477374826273	-0.9770607086410723	-0.9938805633135573	-1.0383050315390803	-0.9715471038394239	-0.8851340378101193	-1.013250336322911	-0.8937071338903295	-0.9862379777526458	-1.0216439408515572	-1.0755112214754532	-0.9784347110641035	-0.9736170533465671	-0.9746933695788973	-0.9862788565973619	-0.8826292318240455
-0.5818221830531993	-0.6017677904731007	-0.5943801086621026	-0.5066678227971741	-0.6228823754525936	-0.4377609110027058	-0.57714893587796	-0.655833712873007	-0.5617337848412864	-0.5957232034459192	-0.5639049849625704	-0.5042443211611549	-0.6022534199742886	-0.594557147680733	-0.615036437030388	-0.5471493950312609	-0.4995604018575654	-0.5550974066019054	-0.5117974195498207	-0.4166523732518474	-0.5021265217394668	-0.5905669693226627	-0.5816618605204995	-0.5889437949136631	-0.5906081401012484	-0.4997334117210562	-0.5744372905033424	-0.5414189367350439	-0.5676363998817064	-0.6063359948964515	-0.6089556129815947	-0.6182692376731342	-0.5862116392213275	-0.5449682114821641	-0.6070713292158898	-0.5153383044773276	-0.5489508476727429	-0.49068476115001075	-0.6125415139804049	-0.5568963457245599	-0.40199406963961287	-0.5240210009002504	-0.49659880631473513	-0.6202638095360284	-0.5365424005645743	-0.5369600929417009	-0.5166778254619222	-0.6001211930089507	-0.5056434846546543	-0.5410199206527353	-0.5857215133285465	-0.5815966956293688	-0.4914553307932385	-0.5444178486925599	-0.5602356935844277	-0.5103497801287011	-0.6113625841616086	-0.5814471968319506	-0.6100248711310481	-0.5213406706365036	-0.506917174369923	-0.612288360841108	-0.3796504804765999	-0.3205270806896448	-0.3457169194093898	-0.5116404790534206	-0.5439773542437398	-0.4997549271612873	-0.5437072453508329	-0.5223839402916577	-0.4959344803098141	-0.6064777314254592	-0.49190243128462047	-0.3956791022069163	-0.3110811236782917	-0.49581853400508974	-0.38413923439249303	-0.24656052485647906	-0.48934048964527826	-0.5086149644748938	-0.5556654360605568	-0.6391966608982798	-0.5501073171052286	-0.5473302335349586	-0.5508241040608304	-0.6181096131356865	-0.6085176808577584	-0.48872658392942087	-0.5836467717755145	-0.2849657790483175	-0.5607001990055915	-0.5146764461518887	-0.41006297958641263	-0.38113669920576504	-0.5696686451430111	-0.5988412358034929	-0.5821805086057785	-0.6016761289622226	-0.3505573701021331	-0.5993362582054902	-0.6017458686332742	-0.5987391292500521	-0.5173285664379121	-0.4968508430199225	-0.5179777838015804	-0.5297952999577578	-0.5137379020118686	-0.5174788209716394	-0.5183283206945248	-0.5879709114543197	-0.5001987537011425	-0.5136735402195629	-0.36292081112744856	-0.6350665404833475	-0.5119637109407942	-0.5892487835696008	-0.5149586771649266	-0.6008008587512281	-0.3800002557968725	-0.3741333417050713	-0.26674954095339537	-0.5914061266720705	-0.6004897220509633	-0.5987737579993433	-0.5341999206533241	-0.4889627420320311	-0.49714715050498487	-0.569035908805005	-0.5484393315393852	-0.495976407781143	-0.6200445772360899	-0.49757140646769044	-0.6023688191382317	-0.494163318171627	-0.5886706534588628	-0.5503285629592185	-0.49853432433749695	-0.5777814634089355	-0.5973373974572218	-0.5879577128800335	-0.5819445766588593	-0.524121662949997	-0.5230008203712593	-0.5699956972199152	-0.5711646765562064	-0.5977930986806854	-0.5949108614727872	-0.6001530568378262	-0.6068203233275997	-0.5905586072007305	-0.4753884170792883	-0.5864600461245952	-0.5881191068548868	-0.6491959725574707	-0.5481876098545626	-0.5379124052226141	-0.5977741642181378	-0.577534940240825	-0.5036831819218153	-0.5861477915689284	-0.5637228265613237	-0.5035425051073448	-0.49636003098733655	-0.5237939013203667	-0.5013081434873778	-0.5050438707049785	-0.5808876691522811	-0.5498605598931445	-0.5974036392155451	-0.5405088475756505	-0.5795372593852006	-0.508881416826146	-0.4894407910602257	-0.5971511638848921	-0.553377269533718	-0.5015579808205026	-0.5477888853126465	-0.509365337760038	-0.5832368494113807
0.12845029766449484	0.05943471591413885	0.13642571197664988	0.6155994976194683	0.4996319147382842	0.65190230654667	0.11413993075253237	0.46004755595253644	0.11645006771413213	0.07244813250496779	0.1066495500962848	0.16545259050997468	0.4776395545624493	0.5227651633018606	0.45355411259700557	0.3583447856000059	0.17528102288198077	0.10378570787507807	0.13843957192650885	0.7065969612476299	0.15797721401315634	0.43661182089483797	0.4159940304164796	0.14172924316884	0.09633106431786859	0.16217509056228835	0.0880793758399881	0.12432557908096792	0.11322951509424417	0.39173353130104865	0.05893192231713207	0.05206736291585651	0.08545849179981396	0.12620944841340648	0.37402680302183683	0.1423545495661932	0.3360895790272553	0.19813138468541153	0.44942526728363	0.5950754136385905	0.6915524798612676	0.14483503316118435	0.19131278906419152	0.4545691195335096	0.23757189184027133	0.284959106880549	0.18726774107533117	0.06614411715497054	0.2164914325924498	0.20447830119308702	0.10564074397701578	0.0870913641682361	0.18914027182290521	0.2670414853216044	0.10283117605990783	0.14801556297316903	0.49121014417989867	0.4139547715327586	0.5250525096308889	0.25558606872852113	0.1621072329839654	0.05779644127090189	0.7128200360486008	0.7024406711889204	0.7034324760136925	0.16188066848175192	0.13100247109333035	0.18524344879967164	0.12458940086845577	0.15031802615403794	0.19122697161599994	0.06031436978917809	0.1757052030084088	0.6934397845268918	0.7164767664622054	0.1434746767898692	0.6986451399673521	0.6891424035238527	0.6347936321866092	0.15728032600206604	0.10159798474002896	0.5013407034738699	0.29473390208906186	0.13888537193620204	0.11449539170451856	0.06697641065656457	0.48569499651794656	0.20664921476864134	0.3858212926777773	0.6761507187194822	0.6005775522386245	0.24861117076404143	0.7070515372691968	0.7351561068244361	0.0838743869941021	0.08308763215969561	0.08915443577172105	0.4181165050356204	0.7106468627491469	0.07257893254770448	0.07720359986283065	0.06773922448274439	0.1415027748955942	0.1764301708034649	0.22868012021373407	0.1253063888650518	0.1488622263079422	0.13936022318385205	0.13584170913301669	0.07741117198419833	0.17474738993086453	0.17953128192177853	0.7038399899746008	0.45219616265709767	0.1488415811889658	0.40508421429567554	0.14858369967886437	0.06660067597680125	0.7000206335297423	0.6933276233047929	0.655141077419253	0.06939160218029661	0.46306844193539237	0.08585443098681173	0.2783740337985457	0.20219650935947503	0.1681693234220037	0.10926081494711265	0.3585540063420229	0.2607559455357564	0.47096726255946725	0.6360093072287873	0.05943883880211065	0.22278238579000448	0.0729298352904435	0.12394891063126529	0.16898726037622108	0.11432332119120692	0.06586679817086505	0.14665308783212244	0.11572237659715051	0.11781537861236546	0.1336644210241839	0.11550629187982098	0.18619302618047257	0.06057963517242754	0.14855092186029284	0.06290357419608089	0.06932357961948882	0.07728347894966991	0.27854757596114116	0.07280478887731379	0.11201807930327562	0.025648111636644155	0.11514507096916066	0.22158899229291895	0.06693235007765708	0.0960084833916785	0.16380861460681412	0.07762603650326477	0.10922995389443657	0.14232493664580537	0.2122218851620003	0.144208215420829	0.17126482417950206	0.17308097227572955	0.4053001300882581	0.10676753720076093	0.06255797359400833	0.2804579612578307	0.11268287426531237	0.17446442745866003	0.3224635250416548	0.46935458202034136	0.10778424119474062	0.15537020756341868	0.10727374573478182	0.23741126951216923	0.08954971870512218
0.12002375553990016	0.1975050728494987	0.12339520382949071	0.19624381213508718	0.26324869316135446	0.1847229209344878	0.19276840735642614	0.28326765177619473	0.18846029531394085	0.18048775371939876	0.17974034664640762	0.17069215760860745	0.2372963258555367	0.24684894309071012	0.2382544414820022	0.19168332305770042	0.17020568746126802	0.1993811563437261	0.17055519261904017	0.224149913192298	0.1931194855273987	0.23483671073576146	0.2138131669170208	0.11424289365213264	0.15082076238804681	0.1647798968393659	0.21095688892202463	0.18779893175139567	0.19943358576765202	0.25484937892911447	0.2001602036020852	0.2125469680082304	0.20576162096993666	0.17582821981714714	0.2367775931803402	0.17277517465873576	0.1957111350450484	0.172847105217902	0.22954884129377914	0.23978560992462922	0.24222610606751266	0.1834510268742021	0.18760683608902134	0.24030364024565654	0.20233097649755624	0.18687041215758998	0.18782689883782452	0.19871003679394933	0.1661014680476911	0.19689572897247487	0.1569012599652359	0.2020053186986186	0.1699702779635632	0.19196684496951077	0.1848903359568404	0.16928056717329057	0.22738578410764626	0.21618410085908674	0.22575255152331575	0.1886701325228607	0.17200930470455106	0.21016591691973036	0.23933696864842663	0.21352308510437448	0.22846251711469032	0.1677807025369913	0.16956852003269934	0.16527960666735841	0.15856006969523712	0.17641984706794875	0.19732172244538887	0.20074218074984385	0.17188199543876198	0.2199674063621135	0.21089723297399865	0.17155950574054016	0.21670256026450305	0.18678350453741474	0.23018750679327063	0.17264910866106178	0.1784854260275967	0.24989422783702925	0.19131652253804404	0.18574032603407734	0.18402407241800545	0.2037470169548643	0.2560704416923774	0.18973746821079737	0.210073515897732	0.2231998829534294	0.23965614895194443	0.18659169503357456	0.23954648321454086	0.25156755330312475	0.2113470249113331	0.17752894853621493	0.17073832441579576	0.21793187789247875	0.22762417172320104	0.17523010829670088	0.1601974059616202	0.19854132277277378	0.18133631976676928	0.15387414534017746	0.16177715637049986	0.17018455608447214	0.16034491103515672	0.16229780470728283	0.15981970614378596	0.20958145038642811	0.15420731872757032	0.20783794259737137	0.20079463966384398	0.28007184764439275	0.18087297547647738	0.2170380562769158	0.16670392050830765	0.2085402607226804	0.2371618077918966	0.23500354794479172	0.19787684784062004	0.21222579548166834	0.2553948478577276	0.17221731324054687	0.17895973780311678	0.16973127356642478	0.16387303165350872	0.183983625821732	0.20540854346203058	0.17874224730459226	0.25835687368141835	0.2253388155588429	0.21374383562905602	0.1981440404212742	0.1836236392816498	0.1839363817243349	0.16074796774983324	0.1440392157285697	0.1911936231951055	0.1182492929153402	0.1242894946391069	0.17458630933358224	0.17346773184826952	0.1314460268967631	0.10110447285350921	0.18505061979788545	0.1163690783254901	0.17639173515838805	0.19939200146120795	0.19824688002014773	0.17956999189980263	0.20924234971273017	0.13928032133680773	0.24561086767190357	0.18286928013027684	0.2018804413293596	0.19619580746254003	0.19718801068727942	0.1668315657999858	0.19800978641575662	0.17304305056659133	0.16400903741348805	0.20282114733803042	0.1995610643118744	0.17668806981782845	0.1672790820744363	0.21895602481462847	0.1847281891348404	0.18062203161526402	0.1882274682341778	0.13638295139954612	0.18323167589683906	0.1453511812702886	0.2550675422956379	0.16203218712367862	0.18141487733699888	0.2134586074752829	0.16903027801395668	0.1533418327676908
0.594699334588869	0.6516897164639188	0.5889823687384507	0.9439159464592869	0.9011882462775058	0.9454295437602735	0.7522163451266458	0.8852651126791431	0.7699686844728952	0.7070263955667218	0.7629578080995707	0.773990707583381	0.9098142361362898	0.8997436841591477	0.8935548639119059	0.8180264905274119	0.7638713433123259	0.7507322499544502	0.7654884615028241	0.8996215683703561	0.7914402838246938	0.8531741362376579	0.8699432869966817	0.569095460376187	0.6324811213061835	0.7803128187438162	0.7454107133192269	0.7812953935918859	0.7802375064862254	0.8679846473573616	0.6788031731541384	0.6678837750985079	0.7393266486024969	0.7727973415487766	0.8230632506875448	0.7826230561599934	0.794211970686338	0.7843668484010129	0.8693080279624507	0.865752001907651	0.9002531365449037	0.7850153015292003	0.7967916462618364	0.8720102139375663	0.7980540220357524	0.7909622272711951	0.7911291817336497	0.6867147615039977	0.7702994705757432	0.7734336710912486	0.6218385266876473	0.7313842626652918	0.783275979456885	0.779122522842032	0.7628710883695506	0.775049651325667	0.9166471196325425	0.8462579167413093	0.922502005404068	0.7828330657926281	0.7897856160724724	0.671931290223367	0.947356803473816	0.9865664252337576	0.9637138927838426	0.7822062649898556	0.774499042435823	0.7891884661682604	0.7520064419234515	0.7705051657273406	0.7852795600667601	0.680729738490732	0.7920982624977413	0.9117868170310914	0.9472252794625724	0.7926229923930279	0.9699043321764851	1.0625766525906983	0.8966508830549459	0.7876142085833989	0.747304153421625	0.9813005426896152	0.8065919353905031	0.7613987908895805	0.7579444514914718	0.6441270497145213	0.9213381833414678	0.7980739649208045	0.8307947645021796	1.036010267457978	0.8885288392528721	0.7895306210553804	0.9115540120303041	0.9784814999011184	0.7355553485855673	0.6429018810346241	0.6514012263613389	0.8426862696577366	1.0150955911418793	0.6792244284891996	0.6609978195848136	0.6985857709114756	0.7822722013618115	0.7819667845106424	0.7590394629221575	0.7644585136352741	0.781025741005463	0.7626438939285116	0.7633592254100666	0.7239577915988682	0.7753919986178647	0.8001596003377623	0.9302521638258128	0.8828370755581852	0.7921008254304742	0.8464268069575966	0.7714838757133834	0.6592100073591357	0.949264277760864	0.9204656218869409	1.022117489311364	0.6994067734075229	0.8639919684939257	0.6405972831701925	0.7810690689933185	0.7876440160103173	0.805391334511333	0.7526991156916889	0.8063282082480929	0.8197572407058387	0.9101095610627286	0.9228640964571742	0.6698232338061317	0.7857072581438417	0.6743173200161615	0.7746451963163509	0.7880977611316233	0.6107471752599385	0.6771560392948658	0.5633966899409328	0.6274243031011862	0.7663774698373217	0.7810170561639771	0.6296998640227733	0.4958410299349532	0.6773972834909067	0.5464070322600505	0.6836317308269457	0.7119728453982557	0.7296367067894795	0.7969763472629987	0.7043370907034125	0.6402033662900513	0.6282109309218913	0.7431921236234222	0.7805597238362751	0.6882024464224354	0.7445235951931768	0.7842250261753729	0.7312764985241903	0.6600606912565283	0.7916814836058947	0.8067756342207555	0.7941528813792942	0.7643190876019299	0.7773407056199576	0.827986605613837	0.779272555224436	0.6755572000658807	0.7845038654958264	0.6304391416238055	0.7733821409376564	0.8376342155443492	0.8982754087679476	0.7431897105683632	0.7996594953438889	0.7890098581570133	0.7761344522789709	0.6497127117924171
0.17877134870980424	0.19138283855811564	0.16955937729105178	0.041806693402678924	0.09798410824377721	0.019941519675585634	0.1433269532214063	0.10177202974660626	0.17106400014455364	0.16780264633218128	0.17792486619058093	0.15825310659705064	0.1218305591923953	0.0847436840496053	0.12717189571196383	0.1197775750207741	0.15575355983643205	0.1955657517481217	0.19610814899706383	-0.016551587940370982	0.2035161853557767	0.11529962080363017	0.11278833767989312	0.15824159653295974	0.21485285360806455	0.16957030325586148	0.18809086103727687	0.18834841587714618	0.17792836209158772	0.12547927164501158	0.19212276208972554	0.1950147617494493	0.18793176824505697	0.1729214236916505	0.10992245139632421	0.1595358084230644	0.10889690577479112	0.14173376510434232	0.11366503546946746	0.0048002587467819435	-0.046916763353193724	0.15296935978098966	0.13635974691893799	0.11953639618925131	0.10933579983596733	0.11404860473542462	0.1360739070443353	0.19559367383660908	0.13070950492696395	0.1272778613015946	0.19025662841485708	0.1793181811826465	0.13267208340245884	0.12639732896046724	0.19901686595397233	0.18318490284360037	0.11615578748125144	0.10553618880161933	0.11163742679334396	0.11479712282598518	0.15719492475044383	0.18891304668577266	-0.02791873600770181	-0.02716723232367227	-0.009489575450623261	0.16149458135419603	0.18301989991844353	0.1511616427263686	0.19438501959334706	0.17726065469146804	0.1308780264703208	0.205249587259162	0.15381809943503616	-0.03851104856561008	-0.07134265274706161	0.1795880192722691	-0.012185584674370559	-0.05383217830819345	0.004852738105864646	0.1846181749197992	0.19988728496406313	0.04309283829115465	0.12680419085190386	0.19448185131475337	0.17776079561139022	0.21454678114775574	0.12375529198145951	0.13822667025875982	0.11550402380330985	0.03058828259823204	0.019872997913006563	0.12122215509835968	-0.05092950164298296	-0.07325511178938032	0.17773694601424597	0.2116184319868241	0.2069579400532232	0.09757173214642845	-0.020781854125200422	0.19872772313233136	0.21516170489777708	0.19587619359674885	0.1676588426526699	0.1382901858242377	0.13118693278945381	0.18690434742576503	0.18735353926486986	0.18052734063808928	0.1700169417586751	0.18830351243959065	0.16214929856663557	0.15825026454619007	-0.036776297231704086	0.11599405831125885	0.17898885501632034	0.11489727577793361	0.17090093489190925	0.2006984434235361	-0.04157114032158618	-0.04329628261875229	-0.021753428327458746	0.18524939844155702	0.11822674607290112	0.21256946577291147	0.11425505990125379	0.14490607819812185	0.16759471123133435	0.16942522577817312	0.10629266398870105	0.13838630705885344	0.09999754044598662	0.0011484735077856856	0.18573229037471986	0.11666755073792566	0.1968937118314449	0.19649289527467598	0.1580658071487347	0.17903873061932374	0.21096540032919997	0.16493736197172287	0.19825896279654712	0.17829700849324137	0.18469282536333084	0.2031294824258195	0.18609515690415376	0.19415375930528506	0.16287257989945766	0.23287030827348326	0.14252696859782146	0.1880941365765057	0.12734632348306238	0.1779009296939461	0.18337604989498235	0.19854673700740103	0.12440221516091808	0.1319707142496856	0.18286997252798742	0.15444603421589828	0.15480515778984294	0.21942792036037362	0.20735955818980076	0.1659353830558585	0.13982879229847922	0.1995737337619592	0.1650655438591668	0.1719866507126816	0.1316786875649142	0.20753246880534068	0.21465867515259995	0.11643170884817963	0.1779755201780827	0.15618170531373604	0.11739207118810557	0.1350003947021423	0.1748520826140705	0.20302531604531637	0.20880857187316468	0.1420746101941383	0.2103968044377269
-0.577288437435482	-0.5606796757874587	-0.5742155550432988	-0.5819849031531446	-0.45766757142008496	-0.5647161583627388	-0.5208297549771508	-0.4555695267549592	-0.491956968859281	-0.5441505218550879	-0.49628747321648914	-0.47808105293244096	-0.45918939545669013	-0.4718791983309524	-0.4625009664445514	-0.5033805916044684	-0.47887807334136934	-0.48734503404809704	-0.4588489076610929	-0.49913787370326146	-0.4636029550659997	-0.4672747483405445	-0.4999994341051526	-0.5793417296146558	-0.5836026206154346	-0.4679901351648703	-0.49516695278287604	-0.48221206448583254	-0.47720308801409084	-0.4832756307313508	-0.5596183247489527	-0.5608239303886382	-0.5096324161889094	-0.49127613914301194	-0.48495897680102906	-0.4756802885820999	-0.5168351547562318	-0.47642189608487207	-0.4779889292114222	-0.4887809643773777	-0.4867343964120705	-0.4771824861687468	-0.4719442959290542	-0.4649814267932967	-0.5106827766512628	-0.5342423517624528	-0.5049824565159401	-0.547845222033097	-0.4929432802291699	-0.48980023766564285	-0.5761648873031402	-0.5223079411987909	-0.46097007600560247	-0.5027190488370605	-0.4833951842555124	-0.4739811991579628	-0.47489256628776855	-0.49179134290499127	-0.4948600539694933	-0.5012182394007991	-0.47066122682473643	-0.5642945248991749	-0.4783694545913051	-0.49442145639761925	-0.4900158359527528	-0.4894559534615236	-0.49883463009552975	-0.47610879467204636	-0.49766009497574415	-0.48637946034694324	-0.4709911856230169	-0.5523758842757486	-0.46824649538420093	-0.4999463812470377	-0.501436119932221	-0.43924330561899594	-0.48561844476278804	-0.5524406477844892	-0.5067712691767019	-0.47251444832196166	-0.496722770342094	-0.5051975774055535	-0.5166861531912835	-0.49924591969766363	-0.5027989811704953	-0.5825983801797686	-0.444598396409297	-0.4521470731872128	-0.4943781237152507	-0.5024110713501111	-0.49479338139387496	-0.4826708738120986	-0.4915594190070862	-0.48494781621153493	-0.5013094968193955	-0.5756400287988728	-0.5612242526603288	-0.49017279037818895	-0.491397142704851	-0.5742237548584588	-0.5716892201327471	-0.5304423358812059	-0.4742113226964838	-0.49323612238556036	-0.5004971627433303	-0.4888123468943122	-0.4799032966910912	-0.48224839903657435	-0.4819749873274989	-0.5201312434320418	-0.4933543550762902	-0.4587474990132784	-0.5062489178560947	-0.4433941197236132	-0.4603974534124614	-0.49188195794100453	-0.4815103132421913	-0.5639664850798838	-0.4801752480822993	-0.4760911714453788	-0.48335202585797843	-0.5322565112737164	-0.45886695328469485	-0.5771986455566837	-0.5255738580687983	-0.4754175260408656	-0.45981227594770435	-0.5137025640708487	-0.49231952566154913	-0.5112759483390165	-0.4862028566814848	-0.5233304878714864	-0.5505186363779795	-0.47270220150317477	-0.5569753446698842	-0.4912039070414146	-0.4761539901802	-0.5666421459251361	-0.5539213396890665	-0.5763804333834353	-0.5790044085799368	-0.46689562576734156	-0.4693839854528964	-0.5644518884107698	-0.603021899533907	-0.557170307894635	-0.5870810438459576	-0.5591452730143546	-0.5241718460498441	-0.5162137161439462	-0.48942551971223114	-0.5264052976579852	-0.5457050776640195	-0.5577336179648982	-0.50603250042876	-0.4687815934265228	-0.5381599498824385	-0.5123380193535982	-0.4833539546598158	-0.500014593661276	-0.5868004907451555	-0.466110072737126	-0.44587541194349445	-0.4537622626973804	-0.46893664217634046	-0.4878478787274212	-0.4566356471140791	-0.4724294324969155	-0.5398609784180357	-0.5180041608352279	-0.5666257806509245	-0.47726871113511504	-0.5549967076439395	-0.43910870236719035	-0.5081565714936391	-0.4423058154419617	-0.4390273169995369	-0.47500255588078477	-0.5789203365207185
-0.3212083947998905	-0.3455016344575537	-0.31884724766075784	0.04195779027561877	-0.014694209003124695	0.03443485823299351	-0.263022139268667	0.0043993107627521705	-0.232525592791893	-0.33234333073983174	-0.2567921605477383	-0.20556506701375787	-0.045154919486529055	-0.02830876892476271	-0.030387694270334817	-0.027249516992760528	-0.2239256116361275	-0.27224975820105335	-0.2166435213111032	-0.03759412415560136	-0.1913215190071132	-0.03037494143917195	-0.006840928386522296	-0.3291795664613871	-0.2916583491934724	-0.2175897731592003	-0.29828826885968623	-0.22522550869251334	-0.2440359294686878	-0.009303131655874666	-0.335170465002111	-0.34161653084075544	-0.29755737167536783	-0.24698167427322992	-0.013433222522057073	-0.21179209954893485	-0.05456630052919069	-0.17577005978134635	-0.007645363762542226	-0.046970897883888765	-0.03919848924453506	-0.21603080746009784	-0.1741315665627602	-0.021937548356717976	-0.11137259861592731	-0.0735035946414439	-0.1529536379380192	-0.322870854508534	-0.17777297256807345	-0.1626706879352552	-0.3177142586672373	-0.2988196005315347	-0.21839612512264794	-0.11450822812643373	-0.27434085815847176	-0.21915244224324543	0.004489508855029661	-0.03784449596272947	0.04177057926134595	-0.13240610063136468	-0.20932018576667044	-0.33506893956252065	-0.028095445743827108	0.0013179684988914447	-0.005595264073972088	-0.20201120725033772	-0.2300374362041322	-0.1970444877001784	-0.230581180844381	-0.21389820879644605	-0.17581244228734288	-0.3129981064940683	-0.19922492760598837	-0.04025418005489782	-0.052625507391844385	-0.2410798094496061	-0.0062371324825058055	0.028254875075192816	-0.02026909726352434	-0.19472624630715457	-0.269095272467437	0.03328622355890769	-0.05913209056259229	-0.2068455532320217	-0.2661438064348395	-0.30240585457842134	-0.011169362797706459	-0.16665367912606072	-0.022468302410297666	0.07316556355845084	-0.006340028144768417	-0.1459832814266242	-0.03170135741457432	0.0019606431932022855	-0.3044724679693271	-0.30351157816248747	-0.30224021290331693	-0.05199841091374109	0.03115287346167904	-0.303131275399868	-0.29752690263664944	-0.33255984043915304	-0.23078335654607712	-0.18438806418618248	-0.16669283126801065	-0.23575239212306437	-0.21578624986578965	-0.21611782304572452	-0.23818435098798685	-0.30507592859934657	-0.1984369236276211	-0.1895016134394235	-0.039211268738660224	-0.008075846738728354	-0.21477335686188426	-0.023283835320332583	-0.2304187677608357	-0.31298953636741794	-0.025429839309610763	-0.057051924669583066	0.029653400685472946	-0.3209758649709786	-0.025883827301240073	-0.30072402732222947	-0.10535010800604369	-0.1723282659354914	-0.19391268818017993	-0.26597472885453033	-0.05301798166860923	0.021314959775172712	0.06703896693554867	0.06377657543052358	-0.3438622709348641	-0.1679798121811969	-0.31878428906879697	-0.22801730830457206	-0.21514018959741787	-0.33220743544326936	-0.3082087344812742	-0.3204456377400351	-0.2940198228203712	-0.28592633035968135	-0.24155643323465775	-0.28921836749827395	-0.3266592572303799	-0.3331994787401688	-0.33370868694568007	-0.2825262201421805	-0.33378412375530564	-0.3087543159676141	-0.12133418934493172	-0.3345990257397012	-0.31214652432933615	-0.3827146259498056	-0.29232863180005664	-0.14782486184128882	-0.3447448240993187	-0.2558723193553633	-0.2022626044945729	-0.2823712952713319	-0.2685795296329289	-0.22404663873136332	-0.14887315578230836	-0.2045072544518014	-0.2160190021311632	-0.19005413346646965	-0.048406548727826806	-0.23580570369453807	-0.3127397484406276	-0.09621831846981087	-0.324569870523109	-0.2141940689946717	-0.04479917732886536	-0.028386442131849696	-0.2658810057203669	-0.1794553669944859	-0.24372982474259092	-0.16821869439245185	-0.2910303980012529
-0.6808424318931258	-0.6858476587118668	-0.6661670160731692	-0.7102080193005903	-0.7914490198988356	-0.6263022723633584	-0.7589639757000697	-0.8060135476205235	-0.7806617496561502	-0.7168560895119873	-0.7660462174833637	-0.8095832917582347	-0.8304684458549995	-0.7611176996691732	-0.8420419603201369	-0.8695991837194135	-0.8032850971676643	-0.7407739804755179	-0.8003940140166274	-0.5688173327730148	-0.7843765301544108	-0.8484184828508543	-0.8662936483618636	-0.6624839617734123	-0.6966058856177694	-0.8115296650255374	-0.7247134345366584	-0.7733794488887392	-0.7742576881270784	-0.857951592466797	-0.6900828146617083	-0.686715892988445	-0.7233056253640385	-0.7750128464091958	-0.8521345065882499	-0.8095339520666984	-0.8536542258929071	-0.8281520233304248	-0.8460593458155256	-0.6627552063521823	-0.5215029350374325	-0.8034577867770497	-0.8272140230441178	-0.8388701517072538	-0.8230641241266116	-0.830301864651194	-0.8145635764502895	-0.6994702605022515	-0.8287908121890103	-0.8206500637447132	-0.6815112919367384	-0.7173383989682467	-0.8265926024480678	-0.8348211703017309	-0.7478248104251322	-0.7929644879474042	-0.8246884990970743	-0.8599379983734197	-0.7716780716843546	-0.8225253367347612	-0.8100192354618531	-0.6826435872167717	-0.5207834314060762	-0.48023921936154923	-0.5183511343893286	-0.8020780061403628	-0.7763863016598639	-0.8264250935103711	-0.7820145068384227	-0.7978412498758328	-0.8129582063381137	-0.6999248064692779	-0.82112575422775	-0.5227309521541217	-0.46479321842306104	-0.7994670227203794	-0.4759403765611172	-0.42681810894191896	-0.644371201702955	-0.8081642972217588	-0.7470445951565868	-0.778569701841322	-0.8593765312188305	-0.7691918832987028	-0.7453440052380045	-0.6848087881105202	-0.8209625628319575	-0.8324338078988917	-0.8708168216725146	-0.48522144208096374	-0.6767515144066443	-0.8275812645134345	-0.5359121844672173	-0.4911561330406304	-0.7182221640936044	-0.6935281292220581	-0.6967301770610803	-0.8557721542781532	-0.4956238310880356	-0.6899669969681647	-0.7022424572972118	-0.7092527524406772	-0.7854283555623639	-0.8297697440446306	-0.8302447765845516	-0.7748594593776638	-0.7978604165445607	-0.7993079497650946	-0.7903730607878944	-0.7141340680158218	-0.8119728993510896	-0.8095219846070756	-0.4547737409615968	-0.8142739458033689	-0.8033025705366766	-0.8650752184553611	-0.7956337442783769	-0.6899477206128747	-0.4968130756254086	-0.4973105715741089	-0.391270383327806	-0.7013751799226983	-0.8281370105705185	-0.6935375768970015	-0.8301292249949086	-0.8339115701236763	-0.8274294968467816	-0.7492671747398295	-0.8554566917507423	-0.8582585341271008	-0.8310755599170573	-0.5923846868284403	-0.6895358882072637	-0.8248234046130257	-0.6918571257575573	-0.7675739093187923	-0.8101930122444463	-0.6836174304019987	-0.7031109863298748	-0.6594365031087012	-0.6921011875269293	-0.765202700442924	-0.7835492381621291	-0.6996633302040591	-0.6220048573651026	-0.6970924609067907	-0.6464510090302131	-0.7168819353575652	-0.724593132593032	-0.7249258246827271	-0.8324816868277892	-0.7003771321961528	-0.694096536048079	-0.6852467210402895	-0.7648197791363682	-0.828098656092012	-0.6987856882149234	-0.7603769087775248	-0.8122286064500966	-0.7369586129137016	-0.6746243560222257	-0.8056406389608252	-0.834251284067139	-0.791311757271412	-0.8061093047941973	-0.8126649210162676	-0.8597572036369633	-0.7694504117728894	-0.7125317295625516	-0.8388359537409799	-0.6890203774021667	-0.8019011992888146	-0.8635326321877655	-0.8307978601635696	-0.7646809489347383	-0.8235358049346502	-0.7698276988068299	-0.8326109034406404	-0.6972411341304368
-0.7383723856227639	-0.5448903256727705	-0.7751743051754726	-0.2575481216777037	-0.22403374355535607	-0.2545348844663261	-0.286830538819665	-0.16960788897473347	-0.26749562186650466	-0.46022163641337044	-0.3423423748272535	-0.27092029418266006	-0.2218535227035964	-0.24260411178405691	-0.20974916834490234	-0.19891171490372464	-0.2743984216091363	-0.39821941364892266	-0.28714526860244494	-0.25027548792004917	-0.32818474386207896	-0.21691796147802464	-0.19862053066500016	-0.7877236607664487	-0.6498023060767831	-0.27690352660112283	-0.4407400771892931	-0.33628192160064396	-0.29765816284688507	-0.1785274400071184	-0.5575320095971906	-0.5513040749783483	-0.4323069785468109	-0.330563542099375	-0.16594995249250954	-0.2595867268342015	-0.19826054704139787	-0.24913511105673755	-0.20456440573539716	-0.23045897913311422	-0.2600242045928012	-0.2746658738012048	-0.2481480166574597	-0.20501588507300003	-0.2176305842108384	-0.2199954699037394	-0.2518808391688191	-0.5225536709721196	-0.24624195448805167	-0.22621753311690793	-0.6752982809508192	-0.44375448043665966	-0.25054595691631165	-0.21706441590435308	-0.3889530784658315	-0.303813417987004	-0.24299236308054153	-0.220523515804441	-0.2727677384726791	-0.2339943598788893	-0.2709330815458141	-0.5548860010106762	-0.24670665733388367	-0.29705806614708485	-0.27929254855570906	-0.27511010178034956	-0.32655865790035477	-0.25404859095681	-0.3109999760848209	-0.2834607894082283	-0.2440053998997123	-0.5645774433509326	-0.263667271633673	-0.25127559621908846	-0.29999517687640886	-0.3091410073177331	-0.2559032303551032	-0.3067710182949529	-0.22139322601496184	-0.28170554622637145	-0.3932603919482638	-0.1590704768199059	-0.20118942174701673	-0.29213456128727944	-0.37449568011053525	-0.5897929587580114	-0.2349030696137913	-0.22785142059502225	-0.1801599684742049	-0.31664667053778595	-0.25710002875653637	-0.2377850372951182	-0.20807678758356732	-0.23362169518898127	-0.4521160709289388	-0.6149725121332316	-0.6191443139486359	-0.17920270485339612	-0.29522603843602635	-0.5900882970596354	-0.6288421374167587	-0.4909352222401867	-0.3009266040929933	-0.25748750021441746	-0.2503754182269615	-0.3455477513230789	-0.3050677037174008	-0.2863812729819334	-0.31117895312418575	-0.4646896664673784	-0.2769528325405114	-0.24800863721751035	-0.2601888307405603	-0.19213580184026838	-0.2831325641073428	-0.19674243256725393	-0.2867494867037148	-0.5568448830116045	-0.25782865729345295	-0.24763382301972206	-0.32978819006166804	-0.5078760430718102	-0.2230977163520522	-0.626816725654935	-0.22921409247445343	-0.24214542577514112	-0.260147360355657	-0.3578755729198386	-0.19320217491026695	-0.20666908149532734	-0.20766689167653493	-0.2506696927388483	-0.5486514148203417	-0.2322169372709136	-0.5904693878725393	-0.3380103517926255	-0.28023498335547115	-0.6978513421906669	-0.5606238825550532	-0.798144181914319	-0.6963676602640708	-0.3705668993452108	-0.3200533389750605	-0.6771057173249891	-0.8228083362720936	-0.5479439254801973	-0.8116772866656229	-0.553795086733404	-0.35103210756954073	-0.43638247987357404	-0.2528090748883749	-0.5019792863906031	-0.7018796200579848	-0.5421440780270544	-0.30959572957621695	-0.21452032426725745	-0.4979633144032949	-0.28339783998822854	-0.26794415911099734	-0.4466093861672491	-0.6108663088950316	-0.2973741970694378	-0.2223774808188225	-0.28976429411037596	-0.2668862093142931	-0.2789835427297478	-0.19776189777069889	-0.35493452106251133	-0.6013536913508833	-0.2169997005497761	-0.6816528104334929	-0.26719265379991186	-0.24485709939701875	-0.24288302342960108	-0.350143160915418	-0.2738013990896747	-0.328106615710682	-0.24001229070411403	-0.6192136478712302
0.17241012752389195	0.17267957801161882	0.1659792235890643	0.4098901058955921	0.49865393761023813	0.43467979522479966	0.321885542036984	0.5005178569542075	0.2876790296619792	0.19041761774571495	0.24784736570358445	0.28956985577761135	0.4781054417497337	0.5012885927136794	0.48142044311497645	0.3979396871045079	0.2895919657343438	0.18160549822317512	0.2338574422550462	0.523888461912787	0.2209010435715623	0.4241077758238121	0.4111944984525346	0.16282739682784747	0.18583292831267112	0.2846563588221326	0.17821115784251418	0.23262419419292446	0.23273588424431305	0.45669393541847103	0.20118861678142247	0.19559912148765918	0.20404402687456527	0.2660863843552633	0.45522291727670194	0.31396206050508046	0.3997248587843773	0.31640438981069907	0.4669707142771429	0.5103897363540032	0.5508260246318231	0.3040683923015372	0.3198467430763595	0.48229597348158826	0.38313639728521726	0.3977399499892817	0.3310029995130806	0.18837933840087429	0.3539855094329334	0.3795315897283382	0.1922304607157036	0.21064793459637782	0.3273547409563931	0.3985498100100924	0.19636583049711992	0.2506304331764352	0.47119014215982996	0.42108459419348176	0.4812022723920514	0.3781437331711293	0.2807753589154935	0.1863228422609849	0.528815042298514	0.4892198726662932	0.494135383289237	0.27594580470427993	0.24051546714333671	0.3277356713263721	0.2645346526556349	0.3035970224113169	0.29963720681863654	0.19812782624065	0.310608922953425	0.548102661797394	0.5151057085172611	0.22724875251730192	0.5269087417938219	0.4024526648430024	0.4987719494840477	0.2785342942132018	0.20479128500395505	0.45100323378811313	0.40441949780604824	0.21207656335926217	0.21806039301563437	0.19840975487618934	0.4752214990087561	0.3213967531891727	0.4239035808705941	0.40608134676823254	0.500870361899683	0.36760901752465514	0.5532181027357591	0.513000710114227	0.20265668831197128	0.19629845585573502	0.2016796632481836	0.43956734302760403	0.4672918331377757	0.17680246563603308	0.19705387780626915	0.17369106813268365	0.2583487972457519	0.33811522339865957	0.3715046434758354	0.2383848332576688	0.259371248280199	0.2717959731058406	0.2617078808512892	0.19499297864045034	0.29790547963051317	0.30138279610998747	0.54705487920865	0.47934458796093854	0.2649742140408585	0.42603746879465343	0.29195375445376326	0.17579002378692127	0.5379009163589399	0.5567976860384015	0.45798226938588127	0.16642944778651997	0.45217893507867846	0.19034721777023927	0.3908873780073767	0.3349990454235352	0.3083095666588038	0.2559802576171184	0.39454994398769627	0.3643819770412434	0.4468062961858953	0.5291436423381961	0.19536785948977695	0.32865495882016316	0.1793523638514979	0.22909609987592583	0.2891665022663998	0.1748630698279854	0.18980459398788718	0.14442029688797522	0.16659958277550674	0.23363106412512352	0.23003425816557294	0.17208315437219918	0.13303540637412664	0.1716125811438708	0.14896187714820197	0.15911087188827877	0.25098130969306437	0.1995047990526496	0.32987770930854876	0.16528804686978327	0.18597036993578475	0.2085659729413054	0.30080167852434864	0.3697080718659481	0.15857456676320672	0.29715122571196967	0.3070417871258628	0.15086095996503265	0.14498520495673783	0.27258873047338295	0.31364003259652623	0.24087812337323944	0.28447298583711716	0.301937387579432	0.40763652067174994	0.19947800536204993	0.18625222602251265	0.3971707349665973	0.20154548217274204	0.2929909423807755	0.35131649488355193	0.4684375882408841	0.2539975109267938	0.26424697000585434	0.2228564962574145	0.3530835796779276	0.1625055073236219
1.0378374495813745	1.1070478034860944	1.020353429065178	0.647516198993513	0.7258777144856761	0.5911581076402992	1.058428197484599	0.7704113362879406	1.053856007383945	1.0638845972717228	1.0543138390546964	1.0635832278530495	0.7490209337805941	0.6917168629849383	0.7869528319613507	0.9449014839527026	1.0791787265856452	1.0719364208967401	1.0672600710778366	0.6075585360515503	1.0609627084290336	0.8762992535181385	0.895011020767397	1.0157158466740597	1.0687091956304011	1.065488583985235	1.0719129459209507	1.0517774651939165	1.0437003013027957	0.8562825156253882	1.0835742226480485	1.0909387010194547	1.0689869489444797	1.0576938454051035	0.8798841266379338	1.0555257575709487	0.9664482124529372	1.0621120880165535	0.8161004067642551	0.6361337196470757	0.582634323110122	1.0451460991295678	1.046499431053041	0.802853831833632	0.9971666411613604	0.9826592082273966	1.0232279575436631	1.091440969849817	1.0530489573830033	1.0193009209570227	1.07378358076824	1.072756087561103	1.0756671389217227	0.9962401707464481	1.0619898843798725	1.0654453806655573	0.7485347265669924	0.8897868987122897	0.6787507939257849	1.0176111415035274	1.0549581836019502	1.087996871228052	0.6300433804304497	0.6405850580703419	0.625401472396551	1.0489632652027148	1.0525477445672846	1.0523475263997988	1.0708869626587503	1.0638610912915647	1.0677049152218805	1.0845784735175361	1.0622308780983176	0.5942473687542241	0.6417481979218992	1.0644703599317245	0.6233386796271128	0.6805311259463873	0.622556910752135	1.0564092232540563	1.0697398945621368	0.7566253924892663	0.9707824154793698	1.0603973148730497	1.0627648031706027	1.0787701906395517	0.7476453430490042	1.0591406142121762	0.9089648906203194	0.6587332611236405	0.6373035755502959	1.023191981322788	0.5988038269868642	0.6572862369818213	1.0800271920395803	1.0741569318054272	1.0871540929698071	0.8903173447708097	0.6355283549618418	1.0676997289741974	1.0663412514881505	1.0909768187278952	1.0602658604972954	1.0552528684466531	1.038436839636021	1.0637888371444386	1.0585578512713036	1.0654313442924936	1.0647559892739415	1.076417505427329	1.0567860888097673	1.041803441162312	0.6157730205232622	0.7978506388252061	1.051138165435708	0.8902563115335103	1.0659003996205823	1.0920669830255025	0.6146025188212707	0.6115168062965847	0.6745990974642299	1.0836363534540585	0.8293670495768748	1.071161544517598	0.9994236010728879	1.0606823583579503	1.0502972806493138	1.0622407118973995	0.9531243888665502	0.9732178056917646	0.7903379892624995	0.5677564217560691	1.09659081979364	1.0545584096375034	1.0750426917973306	1.0560672450128308	1.0595570620821178	1.05862183088631	1.0847617766308744	1.0163630958260619	1.050580179731703	1.0699849222777484	1.0584606240553127	1.0697328084990758	0.9712481680202885	1.0871759146056115	1.0010961984141251	1.087521430094707	1.0657713501547337	1.0672889435841466	1.036148237461551	1.0856326927011926	1.0512266119544356	1.0818549230587662	1.06456210549967	1.0111269970375125	1.0886330706515621	1.061834961499972	1.0559014660211437	1.0784056244460682	1.0929397185180652	1.057933116715503	1.041222693492151	1.0547405536734544	1.080130849894002	1.0572604414097395	0.9193864729412251	1.0447415105302855	1.0742662102100873	0.9921218820797413	1.058423114801066	1.0647077468506494	0.9932862915187366	0.7904628383829352	1.0671224861547792	1.0547251758368366	1.0573509886487324	1.041438940694606	1.063518281970164
-0.7265103353800173	-0.6365785472343033	-0.7364581026249548	-0.6271548604353041	-0.6539055054197749	-0.6486131851850305	-0.7598729485924214	-0.6822496798031219	-0.736817671930373	-0.6705072004959156	-0.7018325311835985	-0.7467347840519536	-0.6490409318055714	-0.6419750525688295	-0.6860007435821869	-0.7764626970414266	-0.7537743117365492	-0.6474525330086105	-0.7130583485181028	-0.6950309529824192	-0.6631398118773291	-0.7511425373485077	-0.7706557552915547	-0.7484163063523739	-0.6769758657002247	-0.7385484984034021	-0.637650276772014	-0.6795196804451307	-0.6932840115079528	-0.7479385638696252	-0.6403113686151971	-0.6344014044003945	-0.6548933214632879	-0.708918263390963	-0.7578397733985311	-0.7507768122113321	-0.788440916603961	-0.7900526784707695	-0.7053849109982488	-0.6546123304904081	-0.6620858699321905	-0.7373657613722708	-0.7685884000309187	-0.7013623159422055	-0.7729400111200384	-0.765020290184677	-0.7528054556894315	-0.641233065769852	-0.8126594248666061	-0.8072564823962327	-0.6817083786137068	-0.64882354848146	-0.7979033034195466	-0.8063082710080036	-0.6699627814075404	-0.7105179012997784	-0.6652116116254674	-0.758279627309719	-0.6335025113388959	-0.7841580432793116	-0.726889534331264	-0.6283505054576843	-0.6823913912392845	-0.7020545511385792	-0.6825818008956359	-0.7174549772254073	-0.6955487327721852	-0.789376383179639	-0.7287043038391319	-0.7383128924263014	-0.7587109467275355	-0.6403632440442482	-0.755554196966929	-0.6832147871680123	-0.6856833903318171	-0.6996339854228306	-0.7086575313768029	-0.6890233196734099	-0.6496503644311122	-0.7228788556310914	-0.6700520763787143	-0.6982177345868152	-0.7967386196064887	-0.6848594382022593	-0.6622162555086002	-0.6403409510383393	-0.6543294881370953	-0.8020066350435726	-0.7846354670875686	-0.6704604987544587	-0.661440499705076	-0.7874609260244734	-0.6873891696267276	-0.6983189411913799	-0.6400441526854854	-0.6586596151286728	-0.6588759141430567	-0.770578108863873	-0.7026519229917509	-0.6435432393847418	-0.67249420756385	-0.6498130540205447	-0.6979395511505422	-0.7920290775659817	-0.8134872641028399	-0.693199187999481	-0.7190489352799736	-0.728570681822605	-0.7198115463462051	-0.6390956766313451	-0.7480241312343119	-0.7390313478014814	-0.7012192653632616	-0.6955520705483493	-0.7150311133269023	-0.7579656011680911	-0.7325517044399834	-0.6271034520134064	-0.6859261297539623	-0.6758709906023253	-0.697938796594175	-0.6263645137678249	-0.7191965432075103	-0.6628009547946716	-0.7796640051206358	-0.8063474456991713	-0.7544487834338802	-0.6915032840324857	-0.7798623789601742	-0.7758940079422623	-0.6867394138813601	-0.6729771804637878	-0.6305750620699242	-0.7952716290850212	-0.6366866899815484	-0.682048729846237	-0.7338368972841514	-0.698677927084415	-0.6391820969533262	-0.7415172488736406	-0.7031731317353684	-0.689443453433443	-0.6945944764820762	-0.6960107059610157	-0.7116818113787744	-0.641714246553887	-0.7386818881027979	-0.6482961888296199	-0.6896115566258914	-0.6623660409839274	-0.7664913870784498	-0.6266563224931894	-0.7195856665045453	-0.6469624234727185	-0.7175251080055658	-0.8186336704842612	-0.6499809466301558	-0.7378343356048229	-0.7445904937150614	-0.6512353991716988	-0.6155059158120126	-0.7184105495667648	-0.7932113795129738	-0.6914640625131461	-0.7577286302587363	-0.7450526251867142	-0.7890929177569412	-0.6672965598579961	-0.6563964581476858	-0.7925475273329354	-0.7089016578425393	-0.745367116634772	-0.743885395151211	-0.6817513744005408	-0.7128215854260831	-0.7290308058702115	-0.678666241835951	-0.8219099100533405	-0.6594155821789829
-0.4544551888482844	-0.3945287915713849	-0.43968073859504975	-0.5528990739498698	-0.5724255960472932	-0.4761681321876218	-0.3883264639569063	-0.557934013151187	-0.38741006966451197	-0.39337963580167923	-0.4047845170723102	-0.4341472538310316	-0.5851613921472526	-0.571489391966347	-0.5654366867534157	-0.532891147360139	-0.440944901301088	-0.40392337180883897	-0.4121639049992939	-0.41398702377537344	-0.44699110878618264	-0.5316850780598095	-0.5157741970820209	-0.44176535259673355	-0.4574018275992977	-0.44672770632019043	-0.4130070617570908	-0.4216514178124432	-0.39742403125012016	-0.5409098938447012	-0.4321789094504048	-0.40872793989475886	-0.40422749703896454	-0.4235995738978863	-0.538709335471879	-0.43410141382681455	-0.5186145511225347	-0.4614216037240034	-0.538184006565242	-0.5334033037963269	-0.40969006229908167	-0.4358986982501717	-0.4685902274542799	-0.5491800468035368	-0.4949278623729523	-0.5194634475856319	-0.4448153549035012	-0.40913889974034123	-0.4698311482559657	-0.46580168888015083	-0.4556000739362759	-0.41015944041215935	-0.47472606693865327	-0.4946368522808382	-0.40440705157680334	-0.4235408348590475	-0.5555137217928866	-0.5437611963654037	-0.5609823498667554	-0.5119689968437824	-0.44730405816154273	-0.4178301666585219	-0.3667792913097626	-0.29253432287809544	-0.34829989096497027	-0.43315006785936383	-0.412604468566786	-0.45388889531687815	-0.38715880502124	-0.42384340495744266	-0.46560189304013544	-0.4332254426975194	-0.46836047540340164	-0.3853287420053829	-0.30980385446758374	-0.4519410172366901	-0.31448548905248674	-0.26478917495848286	-0.49421454501392326	-0.43552749709464156	-0.4003202621659454	-0.5291160469957465	-0.49495175466960395	-0.38052966044046044	-0.4156849101787774	-0.44277566525472845	-0.5651238552236709	-0.48020557551005216	-0.5201011498736702	-0.27442685062827266	-0.5125889465769374	-0.5129757443896474	-0.40580395344866105	-0.3355627169936394	-0.421831831752019	-0.4572620886416653	-0.4604336656813983	-0.5374762312188242	-0.31310591798123666	-0.4482239645958087	-0.45124479531784223	-0.3894622196532941	-0.43604449779378907	-0.44929241425593547	-0.4743920542646518	-0.4187101792991784	-0.4272675759854151	-0.412397451468838	-0.4226157196977536	-0.41144474740507875	-0.4366343617202588	-0.4595456580275218	-0.3117037026479553	-0.5557530391091147	-0.43792375937943007	-0.5391436746511643	-0.4294742442235929	-0.430157529403947	-0.3570012432141175	-0.3689144544848132	-0.1618565549861653	-0.41563491722254686	-0.5423887634142973	-0.4552448496955014	-0.5131169336069846	-0.4704514039656552	-0.4653338293828747	-0.40408717789783133	-0.5414840998308036	-0.48589986773010596	-0.5134790561188949	-0.4440292666352975	-0.4280219351122081	-0.48073364798953533	-0.45300180728012307	-0.4060451932417485	-0.45477909798345006	-0.4588910332330842	-0.43895456072395944	-0.43690039440954587	-0.45557814876348146	-0.4430509497439006	-0.4272693154766215	-0.45982583567535473	-0.42343756626498597	-0.41320369215080277	-0.43330724277729593	-0.3983458937508637	-0.3705637209525622	-0.39980127462132875	-0.5303041314812866	-0.4139701216301832	-0.4511323873962597	-0.3998825576358461	-0.4286891178758503	-0.4626678830843748	-0.3862667014355471	-0.3742985620995515	-0.44480370435141725	-0.3776512470075628	-0.4506030587880331	-0.45377410977770016	-0.4777133507387922	-0.4284636896559081	-0.4375426453651289	-0.43542378858980013	-0.5150514691339544	-0.41192609262734614	-0.4425304881189911	-0.505185644645861	-0.46720590857795485	-0.4403485997568338	-0.5274720574340969	-0.5589996734123004	-0.3985187328340136	-0.44551242649801026	-0.41459942393907945	-0.4786983120682007	-0.461914524214712
-0.2173216149760234	-0.15993655021864414	-0.19934131210372774	-0.08908775143980655	-0.21239012431429402	-0.0699087873401193	-0.2403388989538828	-0.23123366340491128	-0.24444784836534103	-0.1950167483621817	-0.24039865024768256	-0.2540859722351354	-0.23984658295847114	-0.19933931173423022	-0.25314089415438956	-0.2641783790768849	-0.24591607066992902	-0.21907167171862704	-0.24964007704970184	-0.06897591343327031	-0.25967715693889515	-0.21905077839585269	-0.22033710402428833	-0.1988969973693714	-0.223520327606036	-0.26920537182112836	-0.20862353988392882	-0.252339021435502	-0.23862875038034478	-0.23893919666608135	-0.1896723731723133	-0.16889363274172903	-0.20702008614668702	-0.2543012797159415	-0.2706041284512254	-0.27469167862055266	-0.250164344682956	-0.25688980813088313	-0.23915035659091052	-0.14210280124533914	-0.07858066555192614	-0.265174659415894	-0.2697732664452185	-0.24534403967192311	-0.2804351539514194	-0.2875811279839251	-0.276629882985149	-0.1845496401814299	-0.26506347388554996	-0.2684025123748284	-0.21183095607586638	-0.20842605621333124	-0.26170829939030105	-0.2727358323188849	-0.23318071936090165	-0.2590947327683637	-0.225111080735401	-0.2340273161034864	-0.21077833779300645	-0.28044435251009103	-0.2685709129972491	-0.17479582405510866	-0.054467872852671045	-0.027492764186365287	-0.044732075113967484	-0.27205018972199824	-0.25866821034212295	-0.2776247681002232	-0.2414606910620322	-0.2588286977656922	-0.2403118087292989	-0.19300434309880535	-0.2780025699795293	-0.07869701021204736	-0.0174906440571512	-0.26862757419786587	-0.06325186670895364	0.055315915470692645	-0.10573642282183099	-0.2711290322468243	-0.23030207726570348	-0.16536859616975597	-0.2664241554096429	-0.22156969645869326	-0.24164930675857985	-0.1893348495571621	-0.23233288322010506	-0.25405530503055906	-0.2398118412287091	0.012014523084116269	-0.1257761015363177	-0.28420212536385103	-0.07466854670791379	-0.013237173846888883	-0.20584875754774534	-0.21221427176451493	-0.21943855749786395	-0.22244561842629454	-0.022045121509226273	-0.21414130118603286	-0.2226877037407475	-0.18028056584276572	-0.2622438458913037	-0.28112090972463466	-0.27437033500592733	-0.25041635954175956	-0.27133254391916484	-0.2576849937726221	-0.2575827468069276	-0.20065260280122918	-0.2725547362542615	-0.2624780727626861	-0.05963159852080449	-0.23457714945755362	-0.27056798780399194	-0.2446362141663276	-0.266650293043981	-0.17871079571391077	-0.05720785422170621	-0.06902019702476281	0.011686888415532087	-0.18269740790574915	-0.21874097803970502	-0.21298686745405032	-0.28184480069436424	-0.2681849652817805	-0.290017941883261	-0.23382817852751228	-0.25378706181608646	-0.30149059400382106	-0.20632855307041872	-0.11919911490326035	-0.17450020718336198	-0.2464512044107103	-0.21717471085574275	-0.2469141960929275	-0.2785343001808469	-0.21414723654162637	-0.20266381422911597	-0.19024500339916528	-0.22981537075587058	-0.25209490036233584	-0.26183849389193725	-0.2300101647034242	-0.18632877039618198	-0.1887293740071987	-0.1859848189830066	-0.1879034469164718	-0.20097389944387892	-0.20460249374989928	-0.27512327623259736	-0.18555183710259388	-0.21373320030951265	-0.12858131028223208	-0.2474649004079816	-0.2655669798733158	-0.17072110925034845	-0.2264725834683141	-0.27729932576423966	-0.1920766573996735	-0.2159965960038039	-0.280842862503654	-0.2491242570750922	-0.25330061285499084	-0.2380793768575755	-0.2680382427569453	-0.2281038023869527	-0.25132064581784785	-0.21148583287415815	-0.27239873937580683	-0.22525108258762974	-0.2503453153609354	-0.2678555838190815	-0.23918751350093068	-0.23719680895718367	-0.2649905937783311	-0.23555882572012457	-0.2685128388690494	-0.22859984386497453
