NIPT-PRL-001-25-BL-Px_S1	NIPT-PRL-001-25-D14-Px_S2	NIPT-PRL-001-25-PD-Px_S3	NIPT-PRL-002-25-BL-Px_S4	NIPT-PRL-002-25-D14-Px_S5	NIPT-PRL-002-25-PD-Px_S6	NIPT-PRL-003-25-BL-Px_S7	NIPT-PRL-003-25-D14-Px_S8	NIPT-PRL-003-25-PD-Px_S9	NIPT-PRL-005-25-BL-Px_S10	NIPT-PRL-005-25-D14-Px_S11	NIPT-PRL-005-25-PD-Px_S12	NIPT-PRL-007-25-BL-Px_S13	NIPT-PRL-007-25-D14-Px_S14	NIPT-PRL-007-25-PD-Px_S15	NIPT-PRL-009-25-BL-Px_S16	NIPT-PRL-009-25-D14-Px_S17	NIPT-PRL-011-17-BL-Px_S91	NIPT-PRL-011-17-D14-Px_S92	NIPT-PRL-011-17-PD-Px_S93	NIPT-PRL-012-25-BL-Px_S18	NIPT-PRL-012-25-D14-Px_S19	NIPT-PRL-012-25-PD-Px_S20	NIPT-PRL-014-47-BL-Px_S94	NIPT-PRL-014-47-PD-Px_S95	NIPT-PRL-017-20-BL-Px_S96	NIPT-PRL-017-20-D14-Px_S97	NIPT-PRL-017-20-PD-Px_S98	NIPT-PRL-019-47-BL-Px_S99	NIPT-PRL-019-47-PD-Px_S100	NIPT-PRL-021-25-BL-Px_S21	NIPT-PRL-021-25-D14-Px_S22	NIPT-PRL-022-52-BL-Px_S101	NIPT-PRL-022-52-D14-Px_S102	NIPT-PRL-022-52-PD-Px_S103	NIPT-PRL-024-52-BL-Px_S104	NIPT-PRL-024-52-D14-Px_S105	NIPT-PRL-024-52-PD-Px_S106	NIPT-PRL-026-47-BL-Px_S107	NIPT-PRL-026-47-D14-Px_S108	NIPT-PRL-026-47-PD-Px_S109	NIPT-PRL-027-25-BL-Px_S23	NIPT-PRL-027-25-D14-Px_S24	NIPT-PRL-027-25-PD-Px_S25	NIPT-PRL-028-25-BL-Px_S26	NIPT-PRL-028-25-D14-Px_S27	NIPT-PRL-028-25-PD-Px_S28	NIPT-PRL-029-25-BL-Px_S29	NIPT-PRL-029-25-D14-Px_S30	NIPT-PRL-029-25-PD-Px_S31	NIPT-PRL-030-25-BL-Px_S32	NIPT-PRL-030-25-D14-Px_S33	NIPT-PRL-030-25-PD-Px_S34	NIPT-PRL-032-47-BL-Px_S110	NIPT-PRL-032-47-D14-Px_S111	NIPT-PRL-032-47-PD-Px_S112	NIPT-PRL-033-25-BL-Px_S35	NIPT-PRL-033-25-D14-Px_S36	NIPT-PRL-033-25-PD-Px_S37	NIPT-PRL-034-25-BL-Px_S38	NIPT-PRL-034-25-D14-Px_S39	NIPT-PRL-034-25-PD-Px_S40	NIPT-PRL-035-25-BL-Px_S41	NIPT-PRL-035-25-D14-Px_S42	NIPT-PRL-035-25-PD-Px_S43	NIPT-PRL-039-25-BL-Px_S44	NIPT-PRL-039-25-D14-Px_S45	NIPT-PRL-039-25-PD-Px_S46	NIPT-PRL-040-47-BL-Px_S113	NIPT-PRL-040-47-D14-Px_S114	NIPT-PRL-040-47-PD-Px_S115	NIPT-PRL-041-52-BL-Px_S116	NIPT-PRL-041-52-D14-Px_S117	NIPT-PRL-042-25-BL-Px_S47	NIPT-PRL-042-25-D14-Px_S48	NIPT-PRL-042-25-PD-Px_S49	NIPT-PRL-044-25-BL-Px_S50	NIPT-PRL-044-25-D14-Px_S51	NIPT-PRL-045-25-BL-Px_S52	NIPT-PRL-045-25-D14-Px_S53	NIPT-PRL-045-25-PD-Px_S54	NIPT-PRL-046-25-BL-Px_S55	NIPT-PRL-046-25-D14-Px_S56	NIPT-PRL-046-25-PD-Px_S57	NIPT-PRL-047-25-BL-Px_S58	NIPT-PRL-047-25-D14-Px_S59	NIPT-PRL-047-25-PD-Px_S60	NIPT-PRL-048-17-BL-Px_S118	NIPT-PRL-048-17-D14-Px_S119	NIPT-PRL-049-25-BL-Px_S61	NIPT-PRL-049-25-D14-Px_S62	NIPT-PRL-050-25-BL-Px_S63	NIPT-PRL-050-25-D14-Px_S64	NIPT-PRL-050-25-PD-Px_S65	NIPT-PRL-051-25-BL-Px_S69	NIPT-PRL-051-25-D14-Px_S70	NIPT-PRL-051-25-PD-Px_S71	NIPT-PRL-052-25-BL-Px_S66	NIPT-PRL-052-25-D14-Px_S67	NIPT-PRL-052-25-PD-Px_S68	NIPT-PRL-053-25-BL-Px_S72	NIPT-PRL-053-25-D14-Px_S73	NIPT-PRL-053-25-PD-Px_S74	NIPT-PRL-054-17-BL-Px_S120	NIPT-PRL-054-17-D14-Px_S121	NIPT-PRL-055-25-BL-Px_S75	NIPT-PRL-055-25-D14-Px_S132	NIPT-PRL-055-25-PD-Px_S76	NIPT-PRL-056-25-BL-Px_S77	NIPT-PRL-056-25-D14-Px_S78	NIPT-PRL-056-25-PD-Px_S79	NIPT-PRL-057-52-BL-Px_S122	NIPT-PRL-057-52-D14-Px_S123	NIPT-PRL-057-52-PD-Px_S124	NIPT-PRL-058-17-BL-Px_S125	NIPT-PRL-058-17-D14-Px_S126	NIPT-PRL-059-25-BL-Px_S80	NIPT-PRL-059-25-D14-Px_S81	NIPT-PRL-060-17-BL-Px_S127	NIPT-PRL-060-17-D14-Px_S128	NIPT-PRL-060-17-PD-Px_S129	NIPT-PRL-061-25-BL-Px_S85	NIPT-PRL-061-25-D14-Px_S86	NIPT-PRL-061-25-PD-Px_S87	NIPT-PRL-062-25-BL-Px_S82	NIPT-PRL-062-25-D14-Px_S83	NIPT-PRL-062-25-PD-Px_S84	NIPT-PRL-063-52-BL-Px_S130	NIPT-PRL-063-52-D14-Px_S131	NIPT-PRL-064-25-BL-Px_S88	NIPT-PRL-064-25-D14-Px_S89	NIPT-PRL-064-25-PD-Px_S90	Genome-IJB-HP-14-xx_S3	Genome-IJB-HP-18-xx_S6	Genome-IJB-HP-19-xx_S7	Genome-IJB-HP-2-xx_S74	Genome-IJB-HP-26-xx_S14	Genome-IJB-HP-30-xx_S18	Genome-IJB-HP-31-xx_S19	Genome-IJB-HP-33-xx_S21	Genome-IJB-HP-36-xx_S24	Genome-IJB-HP-37-xx_S25	Genome-IJB-HP-4-xx_S76	Genome-IJB-HP-42-xx_S29	Genome-IJB-HP-44-xx_S31	Genome-IJB-HP-49-xx_S36	Genome-IJB-HP-50-xx_S37	Genome-IJB-HP-64_S169	Genome-IJB-HP-67_S172	Genome-IJB-HP-7-xx_S79	Genome-IJB-HP-70_S175	Genome-IJB-HP-72_S177	Genome-IJB-HP-74_S179	Genome-IJB-HP-75_S180	Genome-IJB-HP-76_S181	Genome-IJB-HP-77_S182	Genome-IJB-HP-78_S183	Genome-IJB-HP-79_S184	Genome-IJB-HP-8-xx_S80	Genome-IJB-HP-80_S185	Genome-IJB-HP-81_S186	Genome-IJB-HP-82_S187	Genome-IJB-HP-83_S188	Genome-IJB-HP-84_S189	Genome-IJB-HP-85_S190	Genome-IJB-HP-86_S191	Genome-IJB-HP-87_S192	Genome-IJB-HP-88_S193	Genome-IJB-HP-89_S194	Genome-IJB-HP-9-xx_S39	Genome-IJB-HP-90_S195	Genome-IJB-HP-91_S196	Genome-IJB-HP-92_S197	Genome-IJB-HP-93_S198	Genome-IJB-HP-94_S199	Genome-IJB-HP-95_S200	Genome-IJB-HP-96_S201	Genome-IJB-HP-97_S202	Genome-IJB-HP-98_S203
0.2614322034462708	0.25756312407880255	0.2668690783002109	0.30798705139298244	0.27084906557933547	0.3130954339490932	0.5462750010484854	0.23591456283105705	0.5151082383382756	0.2921260669322166	0.407665241093911	0.47953581040275006	0.26044741073988287	0.23501383426840455	0.2779590540421537	0.47225327246237947	0.4896725098192337	0.3090410826466544	0.3218434218177589	0.21048552061599501	0.3432947190813859	0.393651520509702	0.4523842426115693	0.25381270162108904	0.25957346577491097	0.4496317895217681	0.2729497755617613	0.34469128394319176	0.5123859284885005	0.328154309408445	0.25883863696109427	0.25794612643898135	0.28089810045999486	0.3851415956753054	0.4158815924245851	0.4604005754041036	0.4936058249429106	0.539603992339375	0.3775697025761205	0.2621450182459114	0.22821305664648217	0.4521614401637324	0.5506002935905565	0.27735181893959826	0.5450857199512502	0.5360353706467106	0.528090011332472	0.2585604472118918	0.5681678353683735	0.5667961222179683	0.2645952092839943	0.30205702837778353	0.5534051728761212	0.53057591817914	0.311301335500258	0.4140767915289337	0.33431636964687017	0.4599956514362783	0.3018419845646114	0.5576391547049215	0.47384200387236064	0.26012310150546963	0.1474919426686332	0.09857397682663101	0.1580211821668857	0.42429830437930693	0.3620113339188848	0.5571679476791686	0.37681667830550636	0.4992811687857631	0.5735429311727154	0.2578900029235696	0.4948809168723971	0.20739726297146255	0.16761515653052922	0.29355007894579943	0.2353829346473545	0.3045369302930069	0.2856556736377871	0.42564885053719104	0.3134856321215031	0.2582978542767026	0.5110294871086546	0.4444314058342461	0.31107785260689996	0.2513081163942583	0.23513657680216843	0.5497725077513147	0.4193261935121423	0.14936888614686994	0.2189821172546791	0.5597171986046682	0.2822736586776845	0.28936028216598764	0.27840842644737107	0.26098970246712644	0.25864440356895435	0.46645848768649933	0.15832307494621056	0.24300993999455872	0.24567725863422457	0.26704762198910037	0.4190250282676756	0.5260177944336693	0.5597403846696835	0.3166566963401666	0.4144101906212665	0.39837634820816725	0.392629145043491	0.2854052595421189	0.4229983218930363	0.5061597422273335	0.24156574511878603	0.2748161051904446	0.4795818145213866	0.395976303056407	0.4379536264148781	0.256726238467921	0.2050145765837657	0.17313202026197355	0.21404635578811476	0.2530196260472576	0.33176350699766205	0.24912346287715836	0.5544672516770732	0.5499607213285937	0.49444710377963075	0.32476947416108193	0.5281224128398722	0.5161905921463176	0.3844259575270609	0.2575490706820078	0.2626001986218886	0.5674253403941824	0.2464316538816509	0.34698844864230804	0.4606668128510438	0.25117850661710345	0.26207947827454225	0.25268594993764837	0.24783490520092327	0.35949233979296324	0.3367707493243998	0.2678034187711744	0.2455118129089296	0.2611073831969876	0.2569017006070452	0.2554102675966156	0.41400332110932764	0.28622590378239643	0.5903656498768393	0.2571077285668057	0.2850032264866	0.23939119749789772	0.429514354959063	0.5204052377359091	0.26513038056545274	0.4877418647827232	0.4998561277627792	0.25973751645777354	0.25093444590172925	0.42307776682154596	0.5138689625541298	0.35943371950498115	0.4562968210708366	0.5097535505414048	0.4046424040333072	0.2992942896613422	0.26453324649966403	0.5249996915979896	0.2680259323478182	0.5024538206988047	0.5162544376716739	0.25280094226424815	0.3745889567302463	0.37711648374190276	0.26365842287301433	0.5416573622497551	0.24019293862780822
-0.02952529405075019	-0.005688928127211584	-0.041353065271899	-0.35617941959578003	-0.42161347211813716	-0.3443746919211952	-0.0870641069235113	-0.41960691446852294	-0.05124837439962118	0.020858927779084185	0.0069967326356455695	-0.014607509930470802	-0.3279632782318199	-0.2949655124004654	-0.32588650314227985	-0.16019333331689115	-0.010927823550548721	0.001665860899409538	0.018000957718806138	-0.24198265187205584	0.0040070159760711155	-0.3162101667729226	-0.22604362335632247	-0.038367283225559934	-0.02217351120106878	-0.0018382307517045282	0.01187426754120613	0.015123954154011188	-0.07384230071060294	-0.40028899707100585	-0.007428189876178964	0.0007714451635373876	0.008652508916102808	0.02118898722535592	-0.3032358017676893	-0.01970465630317253	-0.27658335861891725	-0.02365445334316188	-0.43194001679073524	-0.33067156583156687	-0.2912478030226403	-0.006041295337397945	-0.04011839573304157	-0.42123236288480614	-0.09409505084895643	-0.1462695671670932	-0.04962573718519758	-0.008281207727554224	-0.03725392754049389	-0.08153338907470836	-0.0179269132403668	0.019222313928623308	-0.07646452624424749	-0.1683137621259153	0.016102671482931513	-0.011892255580611077	-0.3559774943038059	-0.33275499756408766	-0.37176472594462096	-0.09410411947635859	-0.01781880005706854	-0.005983316875002476	-0.19546222168860292	-0.18176221783493368	-0.23158984024782145	-0.01774019147854866	0.01293437555122029	-0.06088420530787639	0.017778602616101008	-0.010799096111556439	-0.08871223936476844	-0.012531260052077331	-0.025405434258234272	-0.2365014504687429	-0.22478145851149006	0.021242008102178023	-0.23497242749900016	-0.2651169720338963	-0.3056051716439445	0.00609362093205304	0.015041256078197562	-0.29016610295870093	-0.1799375603923045	-0.01852534545789672	0.00957827503661779	-0.014012417463463489	-0.36843999258972693	-0.03520095602993378	-0.24339402352169598	-0.19500571520203688	-0.2196786603341456	-0.17250145715314233	-0.30631459481310896	-0.3122358352751924	0.012320411534610415	-0.017698657404870005	-0.01165532005057815	-0.25596241890541693	-0.21454674066219828	-0.016898835487209024	-0.01804429675379471	0.0006090693767098476	-0.03000625551363112	-0.00919492441940617	-0.0626331316980301	0.02649777123974323	-0.006928439101897749	0.02047370283678243	0.011931336834894224	0.012326898216838439	0.0023641421368571225	-0.023072621001425236	-0.2274511002053282	-0.30370079533011995	-0.03883340554644604	-0.34656577347649775	-0.005239460061667561	-0.002023360277876224	-0.24831686630248603	-0.23541145474155353	-0.210579213682232	-0.00566999309631791	-0.35728034082620186	-0.019770295565856355	-0.12793983835188538	-0.026837249024560472	-0.017711029978504655	0.017300220692033685	-0.2124944846316922	-0.21674673569138328	-0.4693905709393542	-0.28406829966395075	-0.015764325914315702	-0.03806465040625731	-0.021262202554575976	0.01849455229759947	-0.017836929331907725	-0.024610223383342678	-0.013056351395144217	-0.0423878664775674	-0.022024682507385263	-0.0031638278205238235	0.0066793053814799275	-0.028220143596763086	-0.04931562293743172	-0.014044316037027715	-0.048508637625440276	-0.01969355156491026	-0.040997499568595386	0.013852562665560203	-0.1425701939614002	-0.001933415545350342	-0.039442050707603066	-0.009110193009486012	-0.02394631879328704	-0.05774396141470664	0.0019318675601042723	-0.057808801616040545	-0.030645672371546806	0.00521439037962193	-0.01882890901285486	-0.004343002452756067	-0.04477146378510924	0.006073775634068634	-0.007448790868853472	-0.01576095789875734	-0.24539537431788233	0.008058302469809403	-0.02544545540100565	-0.17209935069653878	-0.024731290323700555	-0.012599459873614494	-0.23464101124885725	-0.2686286160748025	0.026497890741401853	0.003895650319839461	-0.014333326329602242	-0.037534124096983285	-0.02143703807107883
-0.21777607376190933	-0.16423374918523742	-0.20494647329535465	-0.7274745165323635	-0.5707521691906109	-0.6238217484480884	-0.1414139142672054	-0.5472961734895154	-0.13842243373409915	-0.1255637352045191	-0.0804071236436931	-0.11463617980723168	-0.6362449940056242	-0.6571698719021979	-0.5207449290149335	-0.1887857817378759	-0.09617889614392348	-0.1630279125559697	-0.14105144989415072	-0.7836400304439916	-0.14617215079428486	-0.3748950604378234	-0.34866678724026395	-0.21606817794837388	-0.19220565785337354	-0.12351630796808848	-0.1575691145898472	-0.1597667544851667	-0.18321587326144284	-0.5081632339840748	-0.16389032888376012	-0.16677515460878672	-0.1736008967147345	-0.13815388798582567	-0.3672637150425355	-0.1315200964005885	-0.2314572323691912	-0.05990136490073976	-0.42107550298990715	-0.7218653898369747	-0.7562874155800865	-0.11245527214655089	-0.12410487167633481	-0.48973842992458094	-0.22265106844956933	-0.25454604388378577	-0.20251911951490567	-0.18091711328613835	-0.09241339785312214	-0.06641418911694644	-0.19496381199200646	-0.17148083896584235	-0.07526751735862251	-0.20955181781441412	-0.13077314788914246	-0.1089089860348961	-0.4975001465114413	-0.28315989990091267	-0.539686260534403	-0.20932442076741126	-0.13562562589799215	-0.16574038405721142	-0.8410165871022922	-0.8783597003528549	-0.8276274302899076	-0.09840541171426367	-0.10609940172050471	0.007557199910405335	-0.11016594988135282	-0.07023559456940388	-0.03644948090904142	-0.1736686957974699	-0.06363671255166416	-0.7774377701024193	-0.762553543346917	-0.138713190149362	-0.7462765368296349	-0.5126386456995791	-0.6938012652678089	-0.11913944273297604	-0.17913447646761255	-0.5403178710642657	-0.1876538010040541	-0.05195832910388144	-0.15809537685701677	-0.17401405402318415	-0.494756383662818	-0.02067040559242199	-0.35332598975265406	-0.6156051028359495	-0.7906890632310056	-0.1397945932507491	-0.7224314442032191	-0.6814597966364088	-0.15085830465157585	-0.18876122607674245	-0.17498039397899562	-0.2928935617112285	-0.7707351335947465	-0.19793365626447648	-0.2017693676851467	-0.18067510472300086	-0.1324939500980451	-0.06403489478318007	-0.07835942511505088	-0.13867305247267098	-0.11865499288306883	-0.09371165575650311	-0.11621647854873117	-0.16752452190362196	-0.05417405856793271	-0.09858377942880464	-0.7924251063225175	-0.5043759583925046	-0.15077275058105036	-0.33044782300015185	-0.10543732336738702	-0.1895223050352827	-0.8116189554685116	-0.7976970483364079	-0.6630022004640302	-0.16981612011261007	-0.4633509673828762	-0.18852042754679282	-0.20872267164184366	-0.11494399934593136	-0.06011652886562786	-0.10040546253720366	-0.2689829229167645	-0.27060957671423896	-0.4294172128465817	-0.7484945565572225	-0.17653755660740783	-0.10319260531899088	-0.20068989005027987	-0.13148639363057862	-0.10416163271495324	-0.22539740654786594	-0.18216455785777663	-0.2213541648574183	-0.21222633666929105	-0.15720055810026873	-0.14488943617682234	-0.20642364477188702	-0.2524104213922263	-0.18252679273905004	-0.2274770846664526	-0.1299692201077427	-0.23761107289548417	-0.17180176097529462	-0.14871185647691765	-0.1670083729245662	-0.18001781656716553	-0.24297046506740866	-0.14942741812727553	-0.08023353907568107	-0.14463068936252563	-0.22981681463038686	-0.061168123718322864	-0.12655647767139555	-0.1359216489759286	-0.13582305032212216	-0.07840851744503434	-0.10761942822668798	-0.016684777702872883	-0.11708733400465715	-0.36089421522141646	-0.17955699108456863	-0.1425775174772631	-0.23805166757320656	-0.2095418055119761	-0.08615831106993478	-0.24265515899673157	-0.5726790730054552	-0.06814465968167054	-0.01731427844722075	-0.07316066490556648	0.0036954050312859726	-0.20168358233530292
0.33461053578659883	0.292328361432457	0.34042598150590453	0.03631405673197369	0.20548850546203998	0.19149878306012158	-0.04279856315339131	0.1765845939094926	0.012416653035619035	0.24612034412083103	0.1851022372597246	0.054611401787380165	0.1333051869035915	0.13388862964458062	0.12937018460370733	0.014259212195887883	0.03707291621086503	0.22764688504200967	0.1542456966965738	0.17899229641405578	0.2121108338766053	0.07448531347943278	0.031742977957113755	0.33201445698485466	0.3249612448199697	0.06760623136626029	0.22077438830699572	0.18565206188472327	0.06481026482924357	0.13755842398725834	0.31763071580685387	0.31273402931738015	0.24450032868156976	0.1891884673160723	0.0832092603821274	0.09533907978378911	0.029073458413404016	0.04049874886274252	0.07976720641131375	0.1454787506969757	0.24227143844679325	0.07480700699486484	0.0012660867286801158	0.1735985378071652	-0.09261517923639562	-0.03301514404836561	0.04353509223967646	0.26280588127396365	-0.055463171277004064	-0.08476788029074264	0.3280601202991926	0.22145924148544852	0.08754800535873665	-0.0296132602991504	0.2550862279974708	0.19431573733375604	0.15412792087508045	0.07882101840831535	0.16070676214686444	-0.12078078353572447	0.06280650374820465	0.3097251779701643	0.20796468556292852	0.2100254552509134	0.21468787087704752	0.09996084711869319	0.19029300745840408	0.16170113931106575	0.14028082751679938	0.10851898450867548	0.1374199038168216	0.3023925340571284	0.11110630515922235	0.13523250562897057	0.20368268373499757	0.19090591403199644	0.11912490765447828	0.3801551418930943	0.18463330829320249	0.11533761113028818	0.18728551002102833	0.1762542887910634	0.020923614657328088	0.18559311109724594	0.2292619806127921	0.29854143205527817	0.1634815550583931	0.1045436708472999	0.04300676553859448	0.35635059650428125	0.0687969232434667	-0.11084085502083625	0.18565347455966066	0.30274203307347247	0.24038778971661043	0.3177473470077081	0.3356731351665164	-0.027953831801789203	0.2423520090115154	0.32395229571118567	0.308987789323402	0.24802904180821697	0.15253950074765166	0.026279517904162608	-0.06406837216594034	0.1788001289706527	0.18360723357171427	0.14033307687005117	0.1398338160848955	0.24893969732616386	0.12444590444944756	0.07745413516161503	0.07684523167947786	0.10915140389123809	0.10951984985308255	0.08491752412398856	0.11790302769803931	0.27483806845554126	0.21698711769177817	0.247444114976789	0.3297765758333673	0.25206719337179206	0.06292370588644007	0.2951192552505182	-0.09704749838719422	-0.011775190722738277	0.1132601350472667	0.16173453739342142	-0.04263490266620121	0.07605595490667641	0.1454878729347132	0.16364924579553716	0.29354659670371197	-0.026125732753826902	0.3125340687890521	0.182653674126427	0.10281156297503721	0.3215093863871462	0.301133183563269	0.33648480966193506	0.3172497273262811	0.189800291831397	0.19287275401430928	0.3242159832035828	0.363453774067103	0.28110973343535484	0.35373892226264436	0.3246548608574398	0.02636953663575095	0.22887692411811308	-0.04675864995110357	0.25512939733419515	0.34029171636808686	0.2696282688357059	0.11837108467201923	-0.023689272651899962	0.23518915486142697	0.010534447243228634	0.11465096002894501	0.21454916408850297	0.35718627075163245	0.11313212515835352	-0.001803789966860203	0.20721508599159696	0.12416270636145171	0.004859493047412261	0.0506006414529173	0.17577650606067274	0.33204545426642484	-0.07550275017146246	0.31559220627995477	0.08293156591171755	0.12884492044399617	0.06807849579975914	0.17335370229068106	0.2756081204458072	0.28866471632362933	0.06131688524218977	0.2863004707740472
-0.1520660412280879	-0.11100575070329821	-0.15547388079201124	-0.2111293199727344	-0.36781585984915366	-0.2056689860671474	-0.3379040874029372	-0.4256643130282104	-0.28379369962233836	-0.1178091450199705	-0.23036576159158853	-0.2616980098557887	-0.3745995433930962	-0.35149124129466425	-0.3674167581978882	-0.49021348882542304	-0.2540052076751991	-0.12438259296682488	-0.1335696988671405	-0.1837359241747444	-0.1707180097466491	-0.4479594248611052	-0.4560393228712841	-0.14702311724733877	-0.13502135618832864	-0.23441568073100869	-0.08889375084922563	-0.20236219402416697	-0.33763472117437787	-0.5245655052368586	-0.11609943999999398	-0.10049065476336114	-0.13901485277839912	-0.2521148873103337	-0.46271983848235465	-0.26167594211471046	-0.492639904853559	-0.34146090719653976	-0.3527344011744803	-0.2110544784292274	-0.1536183329741672	-0.2213324800288068	-0.34357331713000583	-0.3977743390499914	-0.4744388297646779	-0.5199283634782789	-0.46429157499027496	-0.12760403405391174	-0.3952897449318431	-0.3662299247863616	-0.12838219213905097	-0.1422548025858654	-0.38015334841731874	-0.4740330389820805	-0.17159397309057794	-0.2320956333121089	-0.42025973530851557	-0.46222299947721557	-0.3691075887082065	-0.4490195287653459	-0.26476442976476955	-0.11205751152240642	-0.10235233099651717	-0.025372771218840115	-0.08150348813234434	-0.1812025540932516	-0.1823057889052331	-0.37562927596962525	-0.1824769115751427	-0.30938054331006504	-0.4160585336700833	-0.12105724910924659	-0.2937811777548731	-0.19045098085397602	-0.089176143773918	-0.1108180240245547	-0.26480861273816314	-0.20822907670811705	-0.18280819348499874	-0.2226088400800162	-0.12919770186694723	-0.5230116513286923	-0.5342223803801985	-0.2639117041715825	-0.13383975473642068	-0.11283195932067479	-0.26505292213578324	-0.37602375803933663	-0.47985601946596623	0.011494209653040377	-0.23736311059459345	-0.42650286989035113	-0.2466294540625353	-0.24689803220087583	-0.10160101674068517	-0.13190977008096483	-0.11625838749710629	-0.445311767393044	-0.12654632603053703	-0.11582894494440911	-0.11584632873857394	-0.1285791554190331	-0.2139098388525393	-0.3215578405571864	-0.4359448952869158	-0.1412642342141611	-0.25420405823847914	-0.20688788683366469	-0.2052498791050917	-0.1086070766275063	-0.22426974586823648	-0.380302877184841	-0.16850674709059973	-0.40629796713138866	-0.3136614221914462	-0.4408764750596944	-0.22353644730911817	-0.11601337537557309	-0.1812439670847995	-0.16714811258635787	-0.04137643926480563	-0.11337453442885503	-0.3333479788713277	-0.1165096768474558	-0.45871247290435535	-0.3378413997971782	-0.2677912305632105	-0.12241447336578637	-0.47045171732957547	-0.5244057280588738	-0.45060695676819995	-0.21201360806727465	-0.12904882090799916	-0.4063107368802311	-0.11732154792922789	-0.1739791031296485	-0.24210422147508157	-0.14387099060985556	-0.128390194925972	-0.15052033164781367	-0.1448029549900571	-0.16982028769035715	-0.14771099583165734	-0.154560562044447	-0.1652007458162116	-0.13116311230327846	-0.16253048684456317	-0.12082348050612321	-0.19165761124346944	-0.12457705763570945	-0.48612896309183995	-0.12423799582991477	-0.1602526086581513	-0.10458395015923821	-0.2528170059707435	-0.4656974808204054	-0.10722355769348521	-0.3376195024008606	-0.2853755919313199	-0.12316751000791049	-0.11209200477928279	-0.23765974239997348	-0.4023436999626667	-0.2188201548408963	-0.21933209233370385	-0.27495340655150524	-0.49602672067035336	-0.10926319572568137	-0.1346138633785157	-0.4853531093137302	-0.15673142351356306	-0.29085313198449136	-0.4565410325839372	-0.39429738040230766	-0.18582361971050818	-0.2326743917381075	-0.12574029905222997	-0.41586668303134866	-0.13601652609121642
0.43693612694795037	0.46244816299988084	0.4344396933395859	0.1467240135150665	0.07939566440777202	0.09640564448748873	0.258260577074605	0.050529964691664396	0.29173816396787094	0.4502719997004127	0.3166142197774455	0.29959645745075364	0.09765441522142199	0.11558503264963937	0.0752484755166476	0.09759420625577386	0.27226651580526845	0.43936259518612275	0.43356646251461767	0.14016686173018808	0.40131352116167424	0.04095486054610579	0.12328827975744344	0.4354179073308469	0.44964282103378633	0.32860156649008093	0.4754446326465291	0.3792612877414413	0.2194510766674327	0.0836903301629365	0.4536430655442169	0.4699804307070428	0.43719906341332454	0.3088423155995726	0.07699578235393578	0.2903783837295653	0.030115234049907257	0.19659020241600514	0.001859079693496142	0.07869981337441329	0.11421716044309299	0.30774823301474347	0.23266024006939712	0.025100877377024607	0.16266521955873114	0.11698539038760866	0.1740617586925816	0.46094448758792067	0.18332122868367626	0.13167715694100407	0.456392642398794	0.42639980158883073	0.16852938877736673	0.1078689472301946	0.4079923061754882	0.3148752854912386	0.07410115512745413	0.03589939869634124	0.09582562227882105	0.14589917904930522	0.251853527762455	0.4611087382608718	0.15522010625609858	0.18731812764681938	0.13286709611586306	0.3598644087655785	0.3824876790310496	0.14826615471047927	0.37578964639366025	0.21619041700858066	0.1313150234079674	0.462813081216137	0.2592769719726287	0.13173299354631435	0.13558398887627773	0.47254717147583153	0.16332721059959487	0.21046568433328222	0.12806454224316516	0.3163219135939395	0.4338948453203025	0.08260277935502353	0.10249256700642873	0.2865939814763003	0.4309064863081538	0.4719701421368023	0.031128984772473216	0.13511552985137895	0.08422379032170599	0.1352129231591791	0.1407486622013227	0.17528338602034516	0.1700147835331552	0.20320689297254663	0.46027070791012664	0.4528147167070045	0.4596084059153012	0.14369059041536295	0.17725266538235449	0.4595831600482367	0.46057705456298964	0.45242782163115697	0.3357660184610079	0.20579729474019837	0.07850243692893016	0.4231888926786868	0.30097747692581084	0.34280079537527824	0.3594421147676696	0.45736512537657564	0.344646374909042	0.23774383055134402	0.17592310140904904	0.04400604121023736	0.26299672066916563	0.04023728247010563	0.3153654822114117	0.47227799098931983	0.1550071532907884	0.14194716383620246	0.19898525842201342	0.4627362176434476	0.03463344120252471	0.4671619653334667	0.22977199696921813	0.21564639961742693	0.2546555311167275	0.44312405432726804	0.13591842182638222	0.04019939747544988	0.018199483826672226	0.10806240513856613	0.455982345865727	0.18479659379092714	0.46048508291618023	0.39247927248670905	0.3032729661954639	0.4442091372175398	0.4553474059255826	0.4347027856049605	0.4407512339156966	0.388731398705303	0.41574256866227016	0.4407896435426154	0.4115174469035858	0.4524011425213437	0.4221009367711585	0.4735755403317076	0.37512136752422803	0.4412077790834075	0.07945057996147079	0.47066151804755646	0.4412888031687788	0.468813296874845	0.3219827055333585	0.1550154833613246	0.4720164140683098	0.2564330838122911	0.2538724364388793	0.4760408464467653	0.45373773300106973	0.31925518739786746	0.19271985389671203	0.3742817124026314	0.3139958507420435	0.2628332970947101	0.10688423246586778	0.4436193296519858	0.4641102933357642	0.12622939280069945	0.43662408970753397	0.23401607676371988	0.030331375591832445	0.09858876640271055	0.3712253958331274	0.347390723318114	0.4825078406503049	0.13592867736301928	0.4513588515942036
-0.620028480450659	-0.5528028916389357	-0.6006427389518003	-0.08549718684453013	-0.10378238954142321	-0.13747982647034618	-0.08953496176446216	-0.07250870237727816	-0.19012212466234127	-0.46680887512408753	-0.3463216435946822	-0.23441696699578582	-0.12611143704883937	-0.15925637683775082	-0.08649343352254335	-0.09997095923052171	-0.23172004016008127	-0.45849922507686713	-0.38644383936709115	-0.22220516724753595	-0.4349027593298517	-0.010120369688587053	-0.09323375254836494	-0.599996187140408	-0.5979221301284625	-0.2732530486947168	-0.4645353268946881	-0.40940145001217376	-0.30857415995482707	-0.06451690526471067	-0.5613215058371237	-0.5842328004938165	-0.5049399991054059	-0.38798322248054995	-0.03964117783481008	-0.28362030816233186	-0.024197370768836768	-0.15949704218714963	0.011148067016145145	-0.14105370004549508	-0.1927133539062215	-0.2799815795370446	-0.19037436909153854	-0.06814890513950655	-0.13546332023664084	-0.12242391743958095	-0.32808895948752625	-0.5435833196332062	-0.1287444510138054	-0.11789763979117601	-0.6073761027493583	-0.47629377177497967	-0.21371222172385437	-0.07699102897135529	-0.45157010927498276	-0.3618192224869201	-0.07875822817195693	-0.020608313647802995	-0.09235704306423734	-0.13666606387282595	-0.2737567623913074	-0.5711966684186549	-0.1881221925269753	-0.20000575062170126	-0.18598369812795276	-0.2718146127261497	-0.3874372253388886	-0.2071536162189483	-0.3458619438051924	-0.2726217992591007	-0.19543023699896156	-0.5722146283293758	-0.2588341919052557	-0.17465277808623844	-0.19723809400783346	-0.444828772724536	-0.04001608419979345	-0.1482183190389793	-0.08240997174405668	-0.32922410565971594	-0.44274887927842066	-0.11834047553522264	-0.06633948945839843	-0.3258167291101801	-0.46598827277341903	-0.5700587901602645	-0.07023678571855868	-0.2239455913806306	-0.06315585803521506	-0.09573361465243214	-0.18716769743136688	-0.005351872368616256	-0.10361332779563899	-0.09532396693807514	-0.47355599978820173	-0.5906279973912336	-0.6011711837450414	-0.03944301873900084	-0.18227677248370386	-0.6043930427458032	-0.5920761274139457	-0.5237242486652319	-0.3341993315419013	-0.18070541914160013	-0.1803876956204013	-0.4047115160766005	-0.3453416224132737	-0.33399434740532574	-0.3580707159146004	-0.5143611780151679	-0.2633532292686699	-0.26421847793137965	-0.09542576667491712	-0.11093428649590462	-0.30267743553441706	0.015883796624942798	-0.31150983567560264	-0.5680246552811191	-0.1964132428172533	-0.19852498014937955	-0.02988814362290612	-0.5264529238808915	-0.06088158028449783	-0.5761599625811811	-0.09232021892978573	-0.1642501286709472	-0.2764648320390958	-0.37070746362197116	-0.05956005442806306	-0.25460371835821427	-0.02870691047717179	-0.10681577987581004	-0.5592694861576762	-0.14008241331971819	-0.5910191237179497	-0.3944763376549453	-0.27705830524090336	-0.6198390119148389	-0.5691108054660964	-0.603033964089348	-0.6092069915445041	-0.401716220791727	-0.4094320053241558	-0.6046925331039883	-0.6276772337559113	-0.5583146601026691	-0.6158605111855407	-0.5599122928925737	-0.32857678427493353	-0.48282031926485747	-0.08514627163998847	-0.5402874815223634	-0.5941193505674052	-0.593709164199441	-0.3802086345919492	-0.15717547277604973	-0.46980798568447346	-0.33210660382320034	-0.24112389280132954	-0.4510817494799718	-0.5639023221478116	-0.3064295030300016	-0.18592862136406887	-0.3743006569051891	-0.24607253179699176	-0.196537374092104	-0.027431363768516376	-0.41413602367273916	-0.5805318978486472	-0.06711408999855509	-0.6039616244921566	-0.27540945948199136	-0.1647457971247527	-0.13136602476564058	-0.36139642774593506	-0.40560426676142747	-0.44970990997005733	-0.14938698247904916	-0.5877024935130062
-0.22907654141928485	-0.24547048096533441	-0.22828127515841823	-0.045163781966643696	0.026546181606920953	-0.13048298113758927	-0.2719917791359772	0.06427340624690356	-0.265643627826812	-0.2591335718716123	-0.22913920149490175	-0.2421159815024116	0.02284039395673835	-0.010664472461381747	0.10789083395520713	0.06813140153329403	-0.2439645468782699	-0.26019032694012484	-0.2655509330319767	-0.15270537230198905	-0.24148772836743687	0.11641541222511674	0.05252453182635958	-0.22398014782493036	-0.23911243990862202	-0.2480377312632091	-0.2659938397813861	-0.23122076520081847	-0.23256570720205094	0.059052528755482746	-0.2128077366923235	-0.2497827081168405	-0.24032066994464146	-0.21378107044063505	0.07467352619974385	-0.24914586472267514	0.03468884658526453	-0.20872281044821145	0.10057106680550904	-0.07833874943818761	-0.15259039191979698	-0.2674916035106751	-0.25472332355550836	0.08040261235331869	-0.05458966990655882	-0.0290509966273277	-0.11913092981174195	-0.2537710903554537	-0.19281289092534412	-0.16908178266654558	-0.2468669326582743	-0.25092541756647346	-0.21364609825845976	0.032293101119329704	-0.22992810206116832	-0.2292738314897354	0.07083396158192345	0.040045527777093026	0.05214945007906572	-0.1687912876640128	-0.251762333503128	-0.24986339474239988	-0.15845444941178577	-0.168607736431088	-0.1649537082922083	-0.286893611760166	-0.2474845454579953	-0.186803243619794	-0.2606440043873797	-0.2238402269830277	-0.16490887284900985	-0.23472054998122777	-0.23319053298052678	-0.12007603378172027	-0.1548041486227047	-0.27757612976829676	-0.03840310048189449	-0.06700177965797344	-0.12349168351661965	-0.2485942953578748	-0.2669669628140662	0.1371976031060149	0.0007671493927924392	-0.2349223669396801	-0.2589313193480974	-0.2351371575289133	-0.009541344612196162	-0.1904154486088543	0.08195577074909664	0.005538099079469408	-0.0785121033498655	-0.11719820680619242	-0.1260702302143562	-0.10793032512989739	-0.258677373403879	-0.23242938506892036	-0.23429170903771895	-0.019896468011252236	-0.13799142023457284	-0.22330915309419758	-0.23982868824904513	-0.24526062864703346	-0.2738192653385244	-0.2184674617508366	-0.09443156553600535	-0.2611207448717322	-0.2220127523257825	-0.2462926732789658	-0.257945351764002	-0.2558874825506156	-0.25726728673505056	-0.14933443387526707	-0.12291987712451344	0.13343611815145906	-0.23815829051756593	0.09429803921663213	-0.25629240312463275	-0.2476099140546651	-0.18269300134715533	-0.15538146447405876	-0.038889054082027794	-0.2659687563881005	0.10497253837851699	-0.2550039334967546	-0.11984469784401378	-0.22759858323659488	-0.24110448243446642	-0.2706623294857577	-0.0035096536763773167	-0.08479712078873455	0.04906047601633626	-0.08765759353088856	-0.2432924745919416	-0.20681487960143802	-0.23919239329015723	-0.2505671022028892	-0.25199246388343455	-0.23633894298259733	-0.23814261280560173	-0.22152564922057494	-0.23625399468008496	-0.2596154953361498	-0.256918196247269	-0.24356110963068045	-0.18238071144594792	-0.25709568066522515	-0.20603210260027832	-0.23246759767105568	-0.29897158293087706	-0.25302477260376083	-0.06478043331166419	-0.2505800304936463	-0.2322950589756269	-0.2640315206514943	-0.2843378498074919	-0.045797847352127996	-0.2637592102519308	-0.2693240176082795	-0.2279267803882759	-0.2707986423127235	-0.1953863991307857	-0.24685335081981974	-0.12818084011756736	-0.23017053859139025	-0.24194970593337434	-0.24477594066583713	0.12909731164124683	-0.2834695182627986	-0.2411583378084708	-0.018446103950751996	-0.238371294179353	-0.23255644060236252	-0.009834993224511687	0.13959806822686177	-0.2509728127996201	-0.22479316623289197	-0.26308804092477084	-0.13032970314030462	-0.24746553082598016
-0.32661940999460176	-0.3367738448692031	-0.3278897316105817	-0.34078261016793054	-0.331204859099045	-0.37984268126006276	-0.3062110768621891	-0.3150120299258545	-0.3077865312610355	-0.32352242726826935	-0.3162012358871679	-0.32796659815094004	-0.33885487892925586	-0.31915301010631836	-0.38263549044142375	-0.29265542711011444	-0.3254958097734501	-0.32273051600573016	-0.32516030973814564	-0.34000612119538454	-0.3325475176563822	-0.3452401661243541	-0.3250162838287913	-0.3500425123302036	-0.33487385645467876	-0.32865146590218924	-0.33510713685790966	-0.3356772580486517	-0.31218586981883606	-0.3069773401876005	-0.3360486641311804	-0.3198061163843224	-0.3408766107806663	-0.33443003787042275	-0.2986309899074521	-0.31920788742065115	-0.29113915451513456	-0.3266599486074369	-0.3685600834574696	-0.35322140934556956	-0.3459134518226025	-0.30962930738087013	-0.2975333495922655	-0.31630263930075314	-0.3288086163798649	-0.3266261419446104	-0.33189375910105073	-0.3409736353346095	-0.32344981156332925	-0.3119889161338703	-0.31152477631261527	-0.33828105967697697	-0.2830876639596421	-0.30943435108566836	-0.3319790910733574	-0.3163629522416738	-0.30437288945240926	-0.27438558550329967	-0.3125895739719448	-0.3091839067254573	-0.32029410206823944	-0.33090007342401956	-0.34630585765784266	-0.3866716219123395	-0.3767473964194843	-0.2980317159589576	-0.32008816980230936	-0.2765507065262724	-0.31887420794146737	-0.30750723360696025	-0.2804646033263603	-0.3331512185549405	-0.28581740127990324	-0.3245343227614912	-0.3980948011195222	-0.3276881021389922	-0.29627798988175086	-0.41662843133433203	-0.41387086706443527	-0.317107412812344	-0.34311392328980767	-0.3125762627873653	-0.31086956269394367	-0.27634209265683723	-0.34390644029347966	-0.33541116423556466	-0.38388376021920634	-0.2838954002737924	-0.32022756339336195	-0.4603678992303304	-0.296935354708294	-0.3550773649242139	-0.34969467252738246	-0.3657640934028981	-0.3348218607049313	-0.33642883058281825	-0.323662139566875	-0.3034338481650654	-0.34588628447079367	-0.34800504436109864	-0.34658379160210867	-0.3440132510608079	-0.279640691618472	-0.3225964984676886	-0.28011941415241143	-0.32566736001441204	-0.32222845462934463	-0.3195940752623373	-0.3000135766211598	-0.33755971480651037	-0.30935198263860914	-0.3210509731984077	-0.34301143481733426	-0.3860295575164785	-0.3015108419687908	-0.3219675334221379	-0.30372955651708367	-0.32881101655789485	-0.32062185271126437	-0.3116869601376331	-0.4599789652631257	-0.34388087999376016	-0.38727252883731084	-0.3402383840496635	-0.3154132715640167	-0.32946983051184403	-0.3005655314305464	-0.3199751830481723	-0.3205930334831279	-0.2522059337875507	-0.29913688001056365	-0.35825877399462935	-0.33685554408127444	-0.31201204323493203	-0.34685896229651975	-0.328807321000808	-0.30605032661055914	-0.3348517740681885	-0.34130318914739255	-0.3480952874268786	-0.3525296910992602	-0.3298650108582989	-0.33993598860857627	-0.323406038758607	-0.3470926612612964	-0.342041162996424	-0.3364019850816933	-0.32202048568026104	-0.3176312326131511	-0.3404514109537355	-0.32814828820937963	-0.32509780908592223	-0.32376143111767125	-0.34447239185718953	-0.26687877024561474	-0.3205299179375171	-0.34408219050937283	-0.270992556369606	-0.3063325481938946	-0.33195789625584643	-0.3488219508530794	-0.32959954952799614	-0.33631282120977746	-0.3063642649707472	-0.3059135507646437	-0.3386482015967543	-0.35062220808528427	-0.35008470849023254	-0.3205024739603017	-0.3235635729625252	-0.3269053579433258	-0.31182637836027655	-0.28583035256405614	-0.3552135710338557	-0.3103669943408422	-0.26191870710684934	-0.32765252570166853	-0.33320578212376634	-0.3595994425308421
0.022485954054286675	-0.00550803412514457	0.018984718155232935	0.11529599600125691	-0.033018035911718494	0.164849790124652	-0.16773523137120228	-0.10435387542503888	-0.1656869032454774	-0.021353199042886253	-0.13930688458731877	-0.20214969165558916	-0.076020036035198	-0.03641602334607402	-0.12718001298068815	-0.06864868212093095	-0.2064029788141029	-0.019537363279747436	-0.060273074919182976	0.07561648954444315	-0.060889630514237944	-0.1613017271426671	-0.08078645442806177	0.003286028011527456	0.01951311577449115	-0.18828468310411195	-0.022641038576221836	-0.12587945394892686	-0.18613559085910475	-0.09458830148253282	-0.009393685881010541	0.016819696788933178	-0.03223506945945022	-0.13894116347504842	-0.09650322147627348	-0.1820992671810146	-0.10947689359679298	-0.23018664706625253	-0.1298143893815934	-0.005510179482201061	0.0637668198900034	-0.1378915708552622	-0.16808119376981412	-0.08963403253046257	-0.0935676471327947	-0.09227264903930861	-0.1819426060329032	-0.013152734331527013	-0.15684587804856953	-0.045185997667435154	0.03550562045312937	-0.03355757353559992	-0.18804936208165013	-0.08691781025100562	-0.06862177398386456	-0.10876633214755589	-0.07377998968582004	-0.10271902955866842	-0.0227760466991012	-0.08209625861467996	-0.19069233642575717	0.0030021559809540327	0.022065011806654045	0.00018694993369534896	0.004216817412056581	-0.12334448095292284	-0.0921286856440696	-0.1522963587627768	-0.12326973588953692	-0.19798654789330528	-0.16334123627547398	0.008182751539882585	-0.15722177876149895	0.04366475188633684	0.01796639968718175	-0.044708075535930356	-0.0013042613371331072	0.10509210414256555	0.014120759302845835	-0.12407724519526463	-0.04274153848167901	-0.16623481744277224	-0.06295355635912392	-0.12793394380761786	-0.04421067239424052	0.012051911861503048	-0.09446111786118302	-0.19085415178453163	-0.12154750426490267	0.008931617543454992	0.023317525864369235	-0.0974927556828153	0.07617579659013808	0.11256555276546372	-0.021222685187356136	0.011313809497113289	0.02395317269259127	-0.04012238905569078	0.07894188994274237	0.009471615287688098	0.01291625512397264	-0.026086855903198022	-0.07403350071721192	-0.22416153790124138	-0.06068978939686713	-0.04929567885500209	-0.15191105746982292	-0.1360492706677593	-0.09111754053112052	-0.020350242711608832	-0.17779185205524384	-0.22139950074701342	0.03182324378261535	-0.1570110754662946	-0.16091634656618992	-0.13109070982385554	-0.12413788222515047	0.0055385809564495875	0.08518872646463123	0.0613256891515723	-0.02691239498675556	-0.010914397226950354	-0.12966627158649352	0.01552897853531661	-0.0028338214132773015	-0.2153201045869254	-0.1543508876329483	-0.07054455724443122	-0.07090123722383142	-0.030073403838759824	-0.057020194060704146	0.0162593621905473	-0.0058396664667969694	-0.166621914362943	0.01368336299745114	-0.09406653993526957	-0.1647117688652852	0.017566662231606175	-0.009650200503106929	0.001397373017600026	0.00492398917129154	-0.056663655702063706	-0.0742245633354107	0.021538533985841976	-0.015694117356862172	-0.01142457737325299	0.0014028984787239768	0.01980264862008578	-0.0968969900903414	-0.028991873891735034	-0.13312508355656	0.0032842287058236913	0.011233162115042453	0.009909977657491034	-0.0583747545524622	-0.14271653109378912	-0.029292381450379476	-0.14848272662154666	-0.17977260725006367	-0.040602307422381675	-0.015587017213305868	-0.18855125794322808	-0.21827486446454264	-0.12618282046369872	-0.1493549261904612	-0.23426332402546574	-0.18092632449199142	-0.0611321385910656	0.02467673682888903	-0.07096732963545645	0.014084624632419732	-0.18884423418755913	-0.10016963952314258	-0.17792188034868345	-0.10209404059463993	-0.056957039864535944	-0.062325350860715514	-0.199886114734373	-0.007368949227492025
0.09772945406660427	0.11315191967429797	0.1077936209963409	0.6977789072921933	0.8055076227612025	0.5566763797224293	0.5527028671215899	0.9110257877244029	0.462080928396965	0.19691978688341394	0.35236592437503045	0.41894285990306557	0.8441605719094863	0.7952591103982624	0.8907714937538328	0.8391354844401365	0.4054966616041491	0.18486470727588694	0.2204916218008362	0.5574275635047807	0.2355247606539595	0.8619768089534452	0.8253354828857123	0.09621195115808104	0.08818768268872224	0.379450591947992	0.12941356630557718	0.28673198622853224	0.46726347016083625	0.9069858401547096	0.10837392769217352	0.09763968366433104	0.17018045380411326	0.34149371932912964	0.868410835076479	0.4064791889269078	0.8360367473055855	0.530674950276938	0.8580778907288789	0.6240012154034655	0.5101500242284459	0.3770158946999068	0.5346285900734848	0.916818767870885	0.7864377276459009	0.8421236225661501	0.6594419004519855	0.13515472970058637	0.6328420659857468	0.6727763069836731	0.09128152541855608	0.20387125811687432	0.5367833568838215	0.8218345355151685	0.2500775516253945	0.3327960257472944	0.9199262050030299	0.8452353930007851	0.9201917181627338	0.7319452600162188	0.3941240090927385	0.11823621170153442	0.4915259686695709	0.4398434237737362	0.4751011417385198	0.3446832759716403	0.2844221262179948	0.5673082950385174	0.3028907367602528	0.45856961024849296	0.6154576663195418	0.11028735219543306	0.456950107166485	0.5656338702116798	0.4806743498657736	0.20009701162815777	0.6499224224117283	0.6208769177556162	0.6756565697973144	0.3403652198820032	0.20428631050594748	0.9493890621187348	0.8781372222955864	0.42219232909175974	0.2109456076582747	0.09180621818622886	0.8926903452733442	0.558766095984754	0.8662619360653293	0.5614028176929542	0.6737972760854473	0.7422575818709615	0.6547081061801914	0.5916895854982076	0.1447169471655185	0.10045129868836508	0.08124206266463407	0.8171513570422549	0.4937978551887541	0.07074492241585581	0.08428323135654028	0.1399043867539233	0.34986126480904534	0.5100219913819963	0.7124601020558615	0.22850756455783203	0.36234309997730907	0.3289831342875589	0.31682655895459355	0.1391762570319241	0.37589631720405703	0.5426584943702485	0.5457590816121777	0.9044464918620244	0.4415107643199252	0.8518630341406557	0.3580189008412843	0.10699490969200942	0.5489948938609829	0.5294673893290354	0.5577633720468601	0.1338388846242428	0.8957199473618378	0.09967680845037236	0.7753398238243968	0.5306840575556226	0.4280049864008604	0.2273629618749623	0.8027596666478346	0.8094914281832314	0.8813551166562102	0.6232985277346458	0.13046631124998448	0.6404460599154875	0.07924623998767025	0.2697512938810307	0.3912835558062818	0.09057153272297766	0.11816377534767533	0.0975502663004717	0.09012212570105271	0.25786441289642104	0.2275808010145386	0.10877127624459623	0.10007542192582355	0.14330856862278593	0.1067834984396964	0.10132180138884722	0.3108023236747509	0.1668669594332672	0.7625019170130597	0.12511870414040893	0.11757359298210002	0.10745086574979554	0.4013712872962376	0.7451576763892914	0.14569178927746748	0.4891022385467184	0.4521588637574101	0.17880502365364406	0.07424036104952333	0.3773530511340071	0.6198678573448665	0.3187773051046122	0.38092992037381224	0.4291358230085224	0.897578442218938	0.21592351204381122	0.10015020960211976	0.8272222121754843	0.12301005965110423	0.4338138221997968	0.814919458531734	0.9288173082351392	0.3089391626876661	0.37029332109182256	0.19487858990145182	0.6545297768216431	0.11263391759033245
0.6397534721447653	0.6801203356520265	0.6477733640066203	0.5937982444778368	0.7616963670193049	0.6556861194178634	0.5037495069737399	0.7112650363142975	0.5412980455070372	0.7102863236043898	0.6546424454014926	0.5626147503139904	0.7247122192286374	0.7054210041030742	0.7355471678437614	0.8100271634462035	0.5462148255459315	0.6944530078573332	0.6561643859317379	0.5946864065245346	0.6984846141485836	0.7963472578250074	0.8106038704974767	0.6329907568354125	0.6518622513964029	0.5831887938954614	0.6851625444701969	0.6683718519798136	0.5703467230621565	0.7720544679977424	0.6949484396138477	0.66746655770949	0.6984721857276953	0.6529875762123188	0.8154289617532328	0.5896392417026005	0.7740972072979658	0.5654887564924976	0.730122298940625	0.578915385415276	0.6253695133739083	0.5832953523589001	0.5433813593549055	0.7319124062076828	0.6691316445940559	0.7265954701806827	0.6507546320313302	0.6744418319778817	0.5533747735821642	0.62449455418339	0.6524779933810742	0.6883913926329824	0.583439726679977	0.7814320671005774	0.7208181038880732	0.6709313491810371	0.7968966912891864	0.7873708544561506	0.7400528810872916	0.5658126221419483	0.5579227242107302	0.6673466241126194	0.5137530904807298	0.4626080938459022	0.516953167345431	0.6037675426839424	0.6751163781164249	0.6412390674504614	0.6341660995391946	0.5801862003342659	0.6356247601701608	0.6851935812159672	0.6078057058466142	0.570867189158673	0.5700393679504082	0.6777581727225439	0.4963222519432623	0.629519492119732	0.5171568560997715	0.6201217904484624	0.6705539331030979	0.8029718137902812	0.7816096328431692	0.6705405518269326	0.6881465035038874	0.6841133542158797	0.528271410710421	0.6022404838226573	0.7939773729796772	0.4313145639450171	0.5476129132700147	0.6475848208493535	0.6136685233763893	0.6653327573468348	0.6951629942022395	0.6658415899926832	0.6635966065109067	0.7472045591832801	0.6098699267587774	0.6496451610983266	0.6482386218399623	0.6873128000806454	0.6591491891489236	0.5520387792833427	0.6446592969583544	0.6710131424177019	0.6534809436176517	0.6290125304898302	0.6473094028907384	0.6852483381716175	0.6254821931264934	0.624414043062026	0.5288746273011841	0.7198900039242914	0.6047351488802686	0.8075246428463261	0.6212221534849364	0.674574944244319	0.6139020971782984	0.6038402279707097	0.42253294035544553	0.6745049466470505	0.6665672740180101	0.6546361952859667	0.6989531353319484	0.538659055066943	0.6034195098014613	0.6596743857889996	0.765173164461893	0.6853686426512879	0.7489256348341241	0.5301258672473852	0.6758048032119759	0.5499622108384133	0.6459042883266427	0.668881973122809	0.5998155917635211	0.6235909647318612	0.666631909429779	0.6239572770070545	0.6242824067774747	0.6693185556099767	0.6742034628881718	0.6443289864274709	0.6062948146368461	0.6577087224351538	0.6276494934282515	0.7049288180192338	0.5632775594107877	0.6909356909668071	0.6424297078915445	0.6980455542997691	0.665208452752753	0.6218873451466518	0.6477659511248538	0.7015130117416648	0.6891840475532351	0.520237578728738	0.6037347789500469	0.6829398032681224	0.6953688522703617	0.6039523260310278	0.6064947474432701	0.6874773359295657	0.6063728461051608	0.5367087625937634	0.8089778462268118	0.6501188527479977	0.6857202761201493	0.7224307892451716	0.6543200922339012	0.5725990287701368	0.7920089362876354	0.7048612078524694	0.6579015729380919	0.7439554820041607	0.7092748555050736	0.6247617680832185	0.6349021878368215
1.0016944723504067	0.9492490677339221	1.0000888053577166	0.5167905738857962	0.42883857112040846	0.45003269698739823	0.544416266565262	0.4101851033715308	0.6486805571741563	0.8712700944389238	0.7721624177236894	0.6986758542678463	0.3921003609179621	0.43381014559679487	0.33719392758617006	0.15193110261325374	0.6939180431330784	0.9036005321442335	0.8506951541493677	0.5754848460400581	0.873939159935718	0.2714153600403265	0.2349854898650602	1.0082005265227187	0.9864545466119843	0.7443752781310542	0.9184860012433445	0.8758878702499759	0.7051795890777532	0.30413414926040094	0.9646429321186469	0.9642206831748676	0.9198594706223533	0.8072650499555489	0.22322302273697112	0.733752278727313	0.2032285051912361	0.522874732588858	0.36854008309544817	0.5445106643553557	0.6034553917675486	0.7187648934134399	0.5497938971006049	0.38791051157564915	0.26273228536956506	0.224025917388511	0.5534669537595992	0.9346967161371043	0.3899683428750178	0.2226578441593593	0.9829190558904228	0.890032039680821	0.5746982635197327	0.21942841842559438	0.8754035266342588	0.7994913878342523	0.30240111763030153	0.23015107005510468	0.35093048779442304	0.27538988177690016	0.730690410747147	0.960086317120135	0.5758699295060747	0.5991488448285383	0.59253741693377	0.7527573905826956	0.8212988747420407	0.4977508470892533	0.7977948016040188	0.6471121519731743	0.4676317933307357	0.9492613673993776	0.642245375819225	0.5321405304296248	0.555409707097161	0.8731171242885198	0.46884122298623754	0.26054139546024746	0.447625418951037	0.7616431976827983	0.8934809950706644	0.3637434902571799	0.14503347987737222	0.697845769962472	0.897307547896762	0.9518363879491412	0.40745892488980984	0.49027467725333473	0.21676265759673288	0.3468755485241708	0.5446192561132062	0.25074585841006314	0.4735966691011121	0.42254651751245076	0.9094611582041492	0.9760515109517197	0.9868149626809546	0.179242674309934	0.48382989247411523	0.9952186393738327	0.9751420704985572	0.9372761876274092	0.7735996805231333	0.5429182730858786	0.22808885818629623	0.8385976220345215	0.7951105472904947	0.7668260207134958	0.7779273963373283	0.9319917211533455	0.7084399420908729	0.5935848011829238	0.5044354113604751	0.3162052930390331	0.7090761785300033	0.22862788732392422	0.7468687752603828	0.9460594534074316	0.5552568776589865	0.5497174833997199	0.37270215495308134	0.9232023505879334	0.4031388921786613	0.9548887665907009	0.2039778952582114	0.535172169898819	0.6618239251161321	0.8295121526290834	0.23004466298400963	0.24715255162091285	0.3268182236387259	0.5144597992556696	0.95242346152305	0.3950868655001797	0.9814158029432984	0.8427382571106684	0.7353867277809536	1.002548399867644	0.9712321714553345	1.01588094673027	1.000052733902393	0.858099430389003	0.8773744491504185	0.9889217069509135	1.0473010180490723	0.9508914171402396	1.0251758290688555	0.9418761561427834	0.841028353372278	0.9121142994116376	0.2808935774780841	0.916188443229891	1.0008133777270487	0.950441558012977	0.7061665046634347	0.2995681316772961	0.9099829858026296	0.6907756132803502	0.6533265503114309	0.8752030382629061	1.001167874191164	0.7777097113350655	0.4923824466764364	0.8304550902459359	0.6760635835765749	0.6660851736677319	0.27141363806320684	0.8896051830184657	0.965548470617883	0.18563969728128044	0.9782789822693438	0.6699710704524792	0.3267697334627707	0.41498312220473	0.7652883343010217	0.7289319503411593	0.8842670258652867	0.3629676600809434	0.9715771764446226
0.12904450472671974	0.15946198608290932	0.13051546394735916	-0.2051643533457217	-0.07836021171692573	-0.2186484118923188	0.05378070541293386	-0.012034417294706556	0.06572144060354558	0.15593791318905384	0.07777997685466581	0.06889536990123661	-0.08845618480228168	-0.11058661425450209	-0.044714551842682165	-0.056255836228188916	0.061163297253206746	0.15434030131402818	0.13548112368218537	-0.166839385572487	0.14610688973595956	-0.035960935790910906	-0.05923536758465674	0.12809274754834626	0.14246815840918156	0.09107298503282941	0.16276065476610804	0.1348200505880262	0.08207117713938035	0.031014832888636934	0.1682502733496265	0.1527572844376658	0.16164680763052094	0.09178668275251073	-0.04374132625911434	0.08314642946661072	-0.05084788436995061	-0.0030182660944428237	-0.0281936702885002	-0.19168808111313945	-0.16593213948031937	0.0865359381412447	0.03743654875924814	-0.01905585440803298	-0.08131098692359405	-0.09082444764658129	0.03576419350984346	0.16186418744635778	-0.019391019202758444	-0.07749687957806616	0.140832589893856	0.15447831770201328	0.016966889527534165	-0.1294303999688151	0.1517082287716653	0.08994038986301026	-0.019872080716645923	-0.016383193646297436	-0.029030499796048617	-0.05556236194128407	0.07106967426663417	0.15481506139268084	-0.04241198848928823	0.020886377308289378	-0.03825137003997939	0.10594060542391341	0.1113996965489513	-0.008790246612866329	0.10292878096797625	0.028669933921080457	-0.015481982457491883	0.15995913872226472	0.04946691016929936	-0.1718519756989677	-0.06125869821089362	0.16060165351392797	0.0075285127087516	0.08119979265991138	0.017855166495280378	0.08445081913141636	0.15775392261378637	-0.05336133942683227	-0.10037869143054731	0.07535931623794016	0.1599404352556974	0.15614751647076175	0.04388365955618276	-0.016950635528694726	-0.05930890819015869	0.18174022956863295	-0.1821367147487371	-0.03878400171915189	-0.10336993833235478	-0.04761750826662155	0.15531050153274636	0.14886741623368482	0.1506974669246089	-0.02867039724558801	-0.061522757345181533	0.13966092169481545	0.14300073922691972	0.1619451854872574	0.12062033684055083	0.003243864304955879	-0.10348430474979375	0.13581143029288534	0.08625401307505626	0.0808568400187643	0.10524624144250243	0.15678862586759695	0.07956195926430674	0.029135983891602452	-0.08615048223386643	-0.06920082993072102	0.07698836433182049	-0.0010747546528407648	0.08534124457963732	0.15763178438595585	-0.12928366710156167	-0.11752811978697672	0.24094356693341706	0.15908443436346847	-0.05768173271096631	0.14806086540019414	-0.044106111147453775	0.012740666280477451	0.04674521806084149	0.12164679049825143	-0.07808341246853755	-0.08059579680749697	-0.004448302672754645	-0.13062097663202632	0.15957577183089366	-0.015708266889805353	0.1402245442192058	0.12297040341067919	0.08202111520674185	0.12573678761529117	0.1562878862511107	0.1186119939239409	0.13463683631564516	0.13033064178878298	0.13829295702227826	0.13489351870500094	0.10517414421868004	0.1598965684252848	0.11293135540816772	0.15774587411817992	0.17980682792512087	0.15902935399725554	-0.09948827952092038	0.1628724960374483	0.12477770728226956	0.13174232028080904	0.12786601622145	-0.06844543733669381	0.16143069807098992	0.13585068932451186	0.040476556866326896	0.15916110540258338	0.16019732870975437	0.09788840920647918	-0.009457126415546704	0.11770411562991916	0.051787199289524126	0.04863819418801914	-0.07651585092531	0.15622849419868015	0.15004950950156343	-0.09267912230787684	0.13990023025350276	0.043741617837963265	-0.03464351591881603	-0.12090955027113548	0.08620204564218939	0.08438239505583968	0.12350819503686165	-0.056758900582856084	0.140299008786776
-0.162649837410385	-0.21127292826413813	-0.15315530744684502	0.07136659743271334	0.09668569147517639	0.05012630126325823	-0.4177349569373237	0.10630157361458831	-0.35741757668026075	-0.2745499507012801	-0.3352595236582474	-0.3487615367265414	0.12023964436685916	0.10983048499469306	0.1050873715536007	-0.2460043673320072	-0.36598405549191004	-0.25774565740792854	-0.30655780995252374	0.07868294197779796	-0.2646956951975981	-0.06286645112100306	-0.15940908003897816	-0.13822184415981442	-0.17313538713018065	-0.3340672795364279	-0.25606873702700716	-0.27307288840592864	-0.2807258960135136	-0.008450947227519795	-0.20357462519282682	-0.22824739528406957	-0.2209414221021249	-0.29643250754211714	-0.10762862471802437	-0.3289905657929924	-0.2229784108197066	-0.4439929708152134	0.013695509056237454	0.11908566637228082	0.07421357709311938	-0.3512621087513291	-0.38524086304743194	0.08612836330430496	-0.31970905143874295	-0.27500807183962805	-0.2316309125286561	-0.19307313910875729	-0.4300730849207869	-0.4482314950976171	-0.19372353846821216	-0.24443143293511668	-0.3647570353956154	-0.2560458986501496	-0.26575657909165973	-0.30795852693734027	0.040494198515373364	-0.16227882694977153	0.08777236261580548	-0.40172664690436266	-0.3384300988507056	-0.21666171259297284	0.07991967351970528	0.07620273826007204	0.07893820842755822	-0.35520055282726964	-0.30896284472662966	-0.411838716329351	-0.32860115117736866	-0.36396521494057926	-0.38781674261208227	-0.19228982887926516	-0.3673750943021258	0.07936062721347986	0.05502363806070376	-0.27138375801931525	0.09439407658964022	0.04867393153022401	0.12048831083021017	-0.3299999533339783	-0.2533841129552101	0.09104270356608274	-0.2863204240589975	-0.35378556060875915	-0.24789849716766804	-0.18738674669761698	0.13637234450913938	-0.4096235908009572	-0.126749753443342	0.09081432665585557	0.1126752143989774	-0.38198123680006135	0.10452856732386845	0.043074702261887615	-0.25383622104219167	-0.17785681479810644	-0.2020152481406403	-0.22944099913115873	0.056035606262898996	-0.17149447580481672	-0.16481577499276673	-0.20225209673779723	-0.3129803256351611	-0.42924599002687414	-0.36711143424550213	-0.29826925271991067	-0.3131003103345831	-0.34128534574793296	-0.32382214440467627	-0.2365250664102395	-0.3793092586178718	-0.3425753321733688	0.08052227862067035	0.13007447538860423	-0.31552933548570494	-0.10921211021265173	-0.33775662256891237	-0.1980901738201748	0.08311011728041975	0.07272429302141675	0.06375788783772052	-0.20003664475506786	0.07303956257640193	-0.17465384271203244	-0.3344686879773892	-0.41765071936232256	-0.3619053711575955	-0.3292913657168093	-0.22955981882111384	-0.2720995982356835	-0.014660207858595314	0.12898593944638978	-0.1931617840823886	-0.43902835409722385	-0.16232694228892547	-0.2958764762294954	-0.34199689992893856	-0.15960565123137305	-0.1923015762601456	-0.1341844495075822	-0.15420115400179646	-0.27320548611868134	-0.2767466779600753	-0.17157524211449737	-0.1201733851570147	-0.19092449726212948	-0.13775977249529062	-0.21701723279606225	-0.264533868084153	-0.23812831302723705	-0.3476670654565367	-0.20797731502379296	-0.1971413767478623	-0.15728452690914893	-0.3020483294628151	-0.34167847621231706	-0.2323833978298153	-0.2772207575755671	-0.36703743976251196	-0.24181499984245852	-0.20950460811226568	-0.3220533616187882	-0.36780340994634014	-0.31190794060985627	-0.3984951094459287	-0.38391184961776725	-0.0794194685319409	-0.25632917614334544	-0.21155183918922937	-0.2825606496565497	-0.17256487465356776	-0.35331256164792035	-0.17040599992871525	0.10598986064818036	-0.3449788718321077	-0.3462090965262612	-0.29407165423835985	-0.4545247343432389	-0.166628469076419
-0.2667580374534222	-0.29542147877200325	-0.2665286056284644	0.17016406370094478	0.18318008772361044	0.13455448809394038	-0.2345863286684191	0.1847127405181902	-0.2404331659432115	-0.30284596063477526	-0.26787097911017393	-0.25543057586761747	0.18300972352709094	0.19743742936914094	0.17862832713843702	0.009450807175057988	-0.2278235309089473	-0.29291654118070803	-0.2582132491794559	0.16320429252067525	-0.28527846202947116	0.14881844318265247	0.06840290518895857	-0.26119481956438667	-0.27038308629999724	-0.2669751054249366	-0.2950688735443232	-0.28980762039918856	-0.20732582222620366	0.147980593042784	-0.3132036937026677	-0.2927616555290214	-0.3027588718961625	-0.26688128237270436	0.10539974559790334	-0.25603302452757304	0.05386584001218757	-0.2229041539602991	0.2152149951406987	0.1652457897562435	0.12779057871924188	-0.23672901179570527	-0.20295034651591343	0.2069496131204937	-0.03964915826984182	0.003395254799465605	-0.13399984931947906	-0.2823516904249836	-0.16178497589382657	-0.055180288597638114	-0.2781459169394443	-0.28942491811937443	-0.20723870943684147	0.011109987952056158	-0.3137944480826144	-0.2585251762382515	0.1802778096106557	0.10216467471587988	0.17301115318745364	-0.0784766071685886	-0.2163991722588312	-0.286438477404817	0.10915231277704696	0.10319640438565157	0.11505148635974598	-0.25866616258160685	-0.2736499732361435	-0.2145606239374272	-0.26920966817218717	-0.224681664688683	-0.21780462927349126	-0.2934861484812671	-0.24677521899906102	0.16060970234436178	0.11387879024158841	-0.28226305167212123	0.09165618552970094	0.03961899503815859	0.1343202166865488	-0.24480507329891865	-0.26819147566855556	0.1627857410899189	-0.027907503617274773	-0.27060636089916407	-0.2835420835914855	-0.2916313014730801	0.19246923810666194	-0.19416111937078978	0.10153601000963414	0.003314738007465262	0.187033196504029	-0.10321504940533109	0.12826430395459826	0.05873893573499776	-0.3020556324881805	-0.2776028835804518	-0.29008856784174125	0.03594710326543195	0.09654881378273646	-0.27689879102383663	-0.2704638042133875	-0.298635041967958	-0.26048311420186243	-0.20930301071724777	-0.024086667133763548	-0.2708250522311753	-0.2724636197776889	-0.26147313531756355	-0.2598503823118234	-0.2926611948529586	-0.2846388602228817	-0.252596536865786	0.13955476961657542	0.19220554829306563	-0.24863043735909818	0.1256359469278654	-0.24993190287604877	-0.2888418765738424	0.14893509186418685	0.12581623879681975	-0.004037256797731672	-0.28375576026161675	0.22418390881007572	-0.2696174468999148	-0.06212752607798032	-0.20992560689091833	-0.23245734554928416	-0.26461687692317315	0.023724170681351006	0.06587375061477609	0.21709134303240057	0.12838723901167648	-0.286514300122225	-0.1866705788020599	-0.26729215685700064	-0.2780573196573452	-0.2582385112548542	-0.25944438932888825	-0.2854666348925134	-0.26231688504846834	-0.256774990596897	-0.25652861500518054	-0.2760262647002548	-0.266386563711608	-0.2627566255641109	-0.2712423738476196	-0.2673715511115263	-0.3038613266040679	-0.24403867155301456	-0.2943323174628089	-0.06330536544315611	-0.29971588199965116	-0.2877764637318481	-0.2620746509921882	-0.24683745222772124	-0.09493571848119102	-0.29387575101174807	-0.19371045469955395	-0.24700306853272763	-0.29291759122750677	-0.32129104768020467	-0.27504621900278153	-0.18381377248967695	-0.30449565916268756	-0.24616018030084824	-0.2282994063177996	0.09870900712482268	-0.2627906725674164	-0.29229887313098113	0.006129173190370388	-0.26985539663115804	-0.22054014335208133	0.0946515552364411	0.24009071809781407	-0.26599648984369845	-0.2996833741296005	-0.3227495810698025	-0.18742168521822578	-0.25668343031232277
0.7981606774032397	0.8483581476343127	0.8001218748483233	0.2474473238756692	0.3070341511426039	0.21570160128948523	0.5612853374148316	0.3433640818837716	0.635630198009989	0.8266435725012862	0.7522510255938949	0.6782988612861024	0.3342472952796317	0.30817214187935993	0.33441218133325046	0.4475482153286757	0.6787756938319853	0.8271087385950541	0.7999298175462258	0.2744240762264851	0.7886183567398471	0.3708318405703852	0.4131040278406538	0.8013964716471974	0.8114983633438851	0.6954057762348156	0.8445155153965594	0.7777068529831122	0.6797456763773777	0.4061142441055593	0.8634183842071086	0.8330563935646309	0.843892130288199	0.7854712394227787	0.363274205517537	0.6960284075759682	0.40555265336760726	0.6412368698489187	0.3199315471352246	0.3016842326596153	0.29844319275368253	0.692007954207146	0.6243153505921039	0.3544922804783126	0.4989385857827733	0.4828582005466512	0.6667453823449253	0.8376711774554847	0.5874663224591073	0.4644596359041484	0.813233084059205	0.8238781901091091	0.6585186218177003	0.4570849459479751	0.8136805720264021	0.7600580404071573	0.3518990421391206	0.3749905628336444	0.3169998078429438	0.49341109607872374	0.7131619701211508	0.8220595904560059	0.31006845899520014	0.3463288824570977	0.3048831882578922	0.687288063701385	0.7785678660202289	0.6474503597240058	0.7495027067421718	0.7021992669869643	0.6256315336225488	0.8371559430802084	0.6847385106719678	0.30009978806808124	0.3188030035180615	0.789676416739097	0.3301859151703467	0.24482958488817436	0.27963630873269685	0.7383146470111993	0.8012323525911359	0.3901319917643303	0.44300772791494325	0.6968988916726631	0.7953240507743633	0.8461642564100185	0.3067501924724377	0.6591628221539078	0.41095799561423907	0.32158464111515384	0.29698421457894086	0.4285757240315289	0.28955124898276285	0.25288447884314647	0.8478759819142181	0.8162486978665828	0.8290079971418807	0.3563681547650954	0.3046712108169986	0.8219314418882724	0.823751107166153	0.8520964541924383	0.7146948895963154	0.6487615143882866	0.5319142224099787	0.8147464788041332	0.7539908260227535	0.7500392917778645	0.7512989310077608	0.8385822006212467	0.6924802379739078	0.6964989163644775	0.2958324742971673	0.38018715064898084	0.7014962276926222	0.33783039154797323	0.7220280845252511	0.8455049471216747	0.27274742496401794	0.2872649839495262	0.3103571497029222	0.8485149381034074	0.30869815096662745	0.8209291093440493	0.43376457670140717	0.621653379033196	0.6816859796483498	0.7850895967268819	0.4229608537219938	0.5077537242451455	0.3527871328869462	0.31051542470507526	0.8265756348061517	0.587090148415618	0.8199834764841287	0.7848793723377875	0.7030686884231809	0.7912391225286078	0.8225087852254357	0.7915943119976399	0.7949245000349703	0.7891464351085999	0.7865106930700351	0.7929375360145757	0.7952545046673232	0.8106738901976269	0.793612362921	0.8343207059030426	0.7004945800020858	0.8416108806095599	0.518069677623405	0.8592644632730788	0.7984927560566977	0.8254352402620759	0.6785746561126063	0.5968483271448191	0.8409060141882627	0.6622609503052832	0.6697297726334713	0.822937182700147	0.8563118150830886	0.7123333770508966	0.6576308590548611	0.780459584295513	0.6918097308303425	0.6607451872915219	0.4273106431269296	0.789145028819284	0.8168833271891129	0.42504142903884423	0.7967343776194639	0.699721405137248	0.506743233887839	0.31511029443467353	0.7669930287834774	0.7982309871752247	0.8048663525706672	0.6190669996331846	0.7988506382954144
-0.3428478906058757	-0.33659046943662274	-0.3459353208962943	-0.5382004709267776	-0.6366096788885565	-0.4490819275838204	-0.4935708897481659	-0.6521987107786238	-0.4979417591376215	-0.41776537112468504	-0.5020527213618124	-0.5146240499683497	-0.6754469828588054	-0.6828809607085345	-0.6736871900661675	-0.5321217186105209	-0.5285675612153922	-0.39025250588128046	-0.4659249604701471	-0.46875420811335955	-0.42316396103074994	-0.5850486628876472	-0.543129493366222	-0.327221527592794	-0.3277619371860355	-0.5085733243123168	-0.3880031755624884	-0.4536346833409839	-0.4526423662590968	-0.597069108280903	-0.33095092965764894	-0.3435116012327616	-0.36114859277519884	-0.4510850999892919	-0.5459395839088503	-0.4902736382397108	-0.48852531136250754	-0.5338099529477591	-0.5811686912837042	-0.49811690643127693	-0.42083498920790474	-0.4879287262735751	-0.5235748917276504	-0.6367701526446459	-0.515745509027442	-0.5102235986497085	-0.501747662735798	-0.3328020801487742	-0.5268047957895867	-0.4956634834558725	-0.33856111451156545	-0.3848250563177571	-0.5282502673052951	-0.5211724519441094	-0.43232707736240816	-0.4711635053459101	-0.6402738479541452	-0.5101867183890079	-0.6268629152993761	-0.47687764615874073	-0.49990750501822445	-0.3455624429269716	-0.40831133881797155	-0.37197912310304326	-0.3792256607626642	-0.5081436264290653	-0.47758011509996245	-0.5458173450349748	-0.4924124865507339	-0.5225394598718391	-0.5009186617667105	-0.33154905513762467	-0.5324574335652015	-0.5142681372577222	-0.411855623587148	-0.4531273120747884	-0.4622300671307762	-0.2582214011745113	-0.3871697685630958	-0.48374743259304964	-0.401823217925119	-0.6928724824639	-0.4713449119335461	-0.5159013599801522	-0.40917524755211687	-0.3235187215946761	-0.5597718312086144	-0.5299376520232071	-0.5573964296278068	-0.2438739810263368	-0.5942057554079059	-0.47067908613618537	-0.4926585929093217	-0.4257714806531918	-0.3835637891976059	-0.3300504128953268	-0.3309953621709346	-0.47777916815263444	-0.4592687792611325	-0.3158421967238678	-0.31143616166616384	-0.33968087007828707	-0.46006091885537814	-0.5355287348972876	-0.5307523985090965	-0.4486195452034937	-0.48386261681071663	-0.4999440267735099	-0.48472251467414984	-0.36286465982220495	-0.545428402408984	-0.5278083231657549	-0.514139029364217	-0.6668548832563033	-0.47993070835720286	-0.5481118165492036	-0.49938847392776275	-0.3272436481043982	-0.47107502712751537	-0.44838094411978735	-0.24064333865890264	-0.33311645961910297	-0.6091538818991373	-0.31889868209784655	-0.4870888286528908	-0.5167552129785333	-0.515720256200467	-0.49720619877355166	-0.5069534758587733	-0.4911198218521594	-0.5911948945759214	-0.4617578856783884	-0.3367504497329369	-0.5096060329806114	-0.3110984718945703	-0.45764769366116176	-0.519980614231181	-0.3384177609980229	-0.33116050556894394	-0.33777299143020334	-0.3300959079289164	-0.43665861034580333	-0.4383955849323139	-0.3479926782490417	-0.3388385253980918	-0.3363251112951462	-0.3474951789171513	-0.3572180470214289	-0.40805563441288295	-0.369331231265312	-0.50720329537411	-0.3407342088139562	-0.3553656407264636	-0.2966415942807633	-0.42008715478053527	-0.5673458332736155	-0.383291540728224	-0.43449877165622175	-0.5254936783180484	-0.41015265472152596	-0.3344295583814336	-0.48679029438490184	-0.5438442059869647	-0.5105564307082937	-0.5552839555957327	-0.5308074690507524	-0.5929019679442564	-0.41811442211726557	-0.35604922780204884	-0.48827942960148607	-0.348408215760721	-0.5212525825097152	-0.5534271736493286	-0.7041155685431907	-0.5061415936333251	-0.5356708976442411	-0.4344591050059503	-0.5202407453447585	-0.33041517121376796
0.02417642502943529	0.03138321004178851	0.02424879676149548	-0.13790864030733835	-0.05239743842804942	-0.09588755297024362	-0.0945328344309734	-0.01204184478589855	-0.09568255852100442	0.017575794930508953	-0.0574824665316199	-0.10006966419572781	-0.01727907020889137	-0.011190184742973674	-0.07019423197434424	-0.22331543867281978	-0.13770314093461902	0.017719015584830494	-0.032130973894742024	-0.07079525986873675	0.0055864516123179525	-0.18387773261641263	-0.20261679561707774	0.028157704909836878	0.016590789026027467	-0.08517191046566719	0.01819713906134826	0.010790176889386119	-0.03995446318640846	-0.0453998884137984	0.03455945162109286	0.0258878393431948	0.043391207898899165	-0.01586795818337708	-0.15456824870184976	-0.06379246529367105	-0.21775571890375464	-0.1571527095844723	-0.17801966356455717	-0.08857924745640643	-0.09120410131071943	-0.09241277595298696	-0.13268622386988863	-0.06122313424797571	-0.26964965155181786	-0.2248672384540497	-0.10004108328395216	0.03574446643606205	-0.2192089598745397	-0.32471292901491133	0.01706405092509944	0.02730383687132143	-0.10483881315123945	-0.22532523525797618	0.02948161466711327	-0.04508869672570645	-0.08049672931351608	-0.20711641978893086	-0.046138769910140084	-0.2147257731984993	-0.09648454310545537	0.030826153556153035	-0.04847566947491057	-0.053798312525136976	-0.08393834931401656	-0.0764025786306164	-0.03210177648922967	-0.1311130849463937	-0.049093894227728224	-0.11509324304096753	-0.08923901650878034	0.01894359182699744	-0.10486096218746505	-0.06565221730755534	-0.09679279636411403	0.0019246243970435228	-0.008135014652125794	0.02699613278674258	-0.025615425112619647	-0.07704309594472569	0.010294755954691037	0.028687154519282138	-0.14079765162612878	-0.05875978844477275	0.02347721784819859	0.01448391960083438	-0.009927228090492929	-0.13948507558648324	-0.18539738406805478	-0.05978454872110839	-0.04146315615020528	-0.26287116199431715	0.014513788467430844	0.044092553675815216	0.022727505142259463	0.017937237194356914	0.022244976618752493	-0.2457629976051726	-0.015779441297700536	0.018560060255220806	0.01805546098858893	0.04348581806903479	-0.027413690790094147	-0.16835174730940658	-0.33920489042034463	-0.01736683304201353	-0.034669380331015354	-0.07039332450833792	-0.05212394338501828	0.022806182306883666	-0.08537266182962222	-0.10098453107826609	-0.07148043621891252	-0.07767235433402916	-0.04218669584400764	-0.18945933675679005	-0.08114014988106358	0.026985627310571914	-0.002258494189492158	-0.008166020866502699	-0.00441303499218032	0.0377899002042803	-0.14483574935274734	0.01617661688704901	-0.24231536944672483	-0.15699239619615152	-0.12000427761039917	-0.048243441475697514	-0.24984144331454503	-0.13961403499943495	-0.174273706367385	-0.03329298716938883	0.031873081417772786	-0.16496071973982385	0.015725539879584777	-0.014952987883730867	-0.08804364743222502	0.02572667083004862	0.0357397944072331	0.03385072595511235	0.02950843963975161	-0.016841415966892162	-0.005440425247784764	0.0225693528614911	0.05846504348038584	0.039713267308095046	0.04243201273172506	0.004689575372877286	-0.016881775201196256	0.03191895832269098	-0.2646024144991146	0.025808624015760923	0.03386249765565122	0.03266530436392456	-0.0006946722863776095	-0.25161767777031646	0.024916125740432032	-0.00855118654129354	-0.1099323292329606	0.017008972587798016	0.03157295652923889	-0.041544338097921	-0.19442341422405093	-0.01447227085589585	-0.13748189310130138	-0.14971612435028953	-0.1264362835719513	0.01398474932370436	0.014671488696536727	-0.26088208291790754	0.02319758493826231	-0.12539338093664343	-0.19762517445062805	-0.04316484867335332	-0.06561284798935453	-0.04993668505425408	0.051493732809673176	-0.19580003789701578	0.028394120913843607
-0.19440855415474748	-0.21785629881551422	-0.191934522102902	-0.19876112904969637	-0.11261764942392191	-0.1475348210317208	-0.06929638622196509	-0.10692555310689109	-0.09253933852517343	-0.20633261317487386	-0.15781381537933958	-0.10812190577397021	-0.09659717654322063	-0.09044971792968703	-0.11340160870093635	-0.08748066291516171	-0.12984777214023988	-0.21303158398403615	-0.20276884597815034	-0.1061012732843408	-0.18505805536394065	-0.18166693579706375	-0.12184333876889311	-0.20109873313819684	-0.19718504404385312	-0.12062794375625152	-0.2154179057897471	-0.17495429087953915	-0.09500201727348223	-0.08133313832183012	-0.22080753050289137	-0.21227684025630703	-0.2138684107767385	-0.18222995771946676	-0.1303079948487089	-0.1245817797633697	-0.14177202833987382	-0.0876126299152796	-0.24984791912931695	-0.12276855291854274	-0.10529779923417168	-0.15286985431363986	-0.08507235829679294	-0.1506549528297534	-0.09587082951515957	-0.07806520807415052	-0.07571144195766766	-0.21285042617947145	-0.09616241959910526	-0.1489263346586512	-0.1964200290115655	-0.21381875730402813	-0.07196389124344396	-0.11879049983060178	-0.19142799078670056	-0.17348859051837093	-0.12485421834555091	-0.16559706536053045	-0.11832053148012758	-0.082320463389387	-0.15651527761866485	-0.20921170693718744	-0.07972765729700035	-0.08932766779039483	-0.11114937054346297	-0.1491125948062563	-0.17595751372584542	-0.08264125114056613	-0.1607190869188726	-0.11873766305353209	-0.030973046023811457	-0.2099092374825208	-0.10312151889382318	-0.0849480702240014	-0.1031982535271426	-0.18075900994797278	-0.018638200422973705	0.09206001524141796	-0.05505882118068703	-0.16326597903107368	-0.2071992426861197	-0.05972846077367601	-0.033092643065222554	-0.11717627915295423	-0.19997733326164177	-0.21580022159403553	-0.12853559942669676	-0.07609361697342192	-0.13239221232932125	-0.017955995979954092	-0.10562068691135904	-0.11386468792829221	-0.038388086522385734	0.047508107757824325	-0.21819476915473113	-0.20164805757088564	-0.20568547554307168	-0.15164483544954002	-0.06853964973320156	-0.21532350637998182	-0.21483942966512107	-0.21578100247722634	-0.16483206565966252	-0.10760849423103466	-0.15351591196506478	-0.21063941536766548	-0.15844559816955453	-0.15776950977717003	-0.16489747814299172	-0.21005569567682383	-0.1134210387988957	-0.050649085942367264	-0.050388372770584916	-0.11178684510620548	-0.10759350929210723	-0.17700821771924627	-0.15224110616573586	-0.21458568994296787	-0.08308877024508932	-0.07692244314616671	0.05707137738907617	-0.22366513726720386	-0.22567719294627533	-0.2087073310042196	-0.08166944807667181	-0.08412783635535181	-0.11986052278723514	-0.1846905731942334	-0.1351753779563003	-0.08147908310759497	-0.20609179455245216	-0.08918755978060383	-0.20854271032887942	-0.061699259052819866	-0.2118353480956415	-0.18487044516198853	-0.13071521614052853	-0.19292558558915013	-0.20682276647096254	-0.1906143616724583	-0.19271394043608378	-0.20393950951121867	-0.1915246522697835	-0.18330131720989848	-0.1918347815413699	-0.20818367925066775	-0.19332624505675447	-0.19557790110271844	-0.16885405834846057	-0.2187204131159251	-0.09288568154639562	-0.21248674234861317	-0.18511324008717397	-0.22699546259872652	-0.12653655372951558	-0.10072979310770128	-0.21053330359675812	-0.09165176753376375	-0.10111717111869348	-0.1951555560922276	-0.21744758418599316	-0.13405505820590338	-0.10425330267944766	-0.15726531037831298	-0.13373361523536229	-0.11941084349008277	-0.10879032611622924	-0.21664396004251854	-0.18966874505192047	-0.12556084368651413	-0.19344331162959888	-0.12361880437236625	-0.13739770732030632	-0.20544494902726115	-0.16353364603568402	-0.1628250982557516	-0.1732651418467359	-0.0763161966947557	-0.20982426235022206
-0.43860369005490163	-0.40703645033663594	-0.4312759176461106	-0.0526184824314779	0.033920482869945895	-0.05761931136281334	-0.09715994968498251	0.06684326284276518	-0.17179038201440713	-0.35347864110665683	-0.25145647640422886	-0.21615648870044255	0.042434202482774436	0.04122881427104122	0.03174189037493999	0.08808558803344055	-0.19710951434610072	-0.3447276850886114	-0.3375437266715975	-0.0894341342561408	-0.325694565650432	0.10454262638244685	0.08750584374705914	-0.4504796170125245	-0.44292311098626225	-0.24591585144694658	-0.3803106230615675	-0.3292390002234449	-0.17530591635100923	0.09826972582982108	-0.40854422967160364	-0.4198399364302793	-0.37155188411281403	-0.2897919327158769	0.10871259719330542	-0.2266658972417814	0.0966338279262978	-0.09808115357301048	0.03369271649458408	-0.034488640243473895	-0.06153882515379472	-0.2391235944404527	-0.09510701362843813	0.056147641312402546	0.08353169005324532	0.09959404191261431	-0.0813377289079785	-0.40599437298049557	-0.004339607436734033	0.049654804593022156	-0.4312096372661577	-0.35929896213079804	-0.08004491438633285	0.10373294764762023	-0.3429332815385939	-0.24822115147579368	0.09393964488918741	0.10472193327515014	0.041630787957137844	0.057067148308012544	-0.201511398841448	-0.42162972458157666	-0.12595209131205515	-0.1938261389466541	-0.15018300260577355	-0.25392566902534175	-0.29722974056404217	-0.056836915651426706	-0.29126592008029095	-0.15892960153239935	-0.053807309837114764	-0.42168575324527113	-0.15906413968378366	-0.05115862676256752	-0.1463286229132747	-0.3627130755195319	-0.01703024749000917	-0.07035315492927566	-0.12685108331916967	-0.24773262855493147	-0.36684620760203723	0.13828871209285568	0.08041404352625933	-0.20674480258097452	-0.3618788669776588	-0.4259304712785874	-0.07298038163617399	-0.07201761886209676	0.10580606480740859	-0.22940625321461264	-0.012686351237137045	0.06029977629622943	-0.03612074887733202	-0.010217972868999475	-0.36779846409030825	-0.43674986320354503	-0.43456788331358676	0.0751912082142285	-0.09157792287565378	-0.45681908937104143	-0.45490449755050066	-0.38873136263637187	-0.24934084206972476	-0.1166683666715714	0.11707591693857103	-0.3395288484391932	-0.25081533196793715	-0.26701627670699235	-0.26999533287869315	-0.38064964703901893	-0.24448255860448168	-0.14797314573353473	-0.06451228519943533	0.03728594394161386	-0.1938971667211739	0.10173583950449386	-0.22909376353478203	-0.4133418806106629	-0.05906052133669665	-0.05550457604183853	-0.1862995913891405	-0.4042100781437251	-0.0015040605464350099	-0.44437838000043695	0.06963775472220221	-0.09548248510165477	-0.17303268091859372	-0.32384960250884365	0.09115808829199476	0.06502358079430712	0.07881552637278691	-0.06648706667608587	-0.41518600867728905	-0.02516061246916515	-0.45678547154841387	-0.3209947138374274	-0.2081859599165675	-0.4487276498715176	-0.423457157485589	-0.4455539773459303	-0.4564155829154699	-0.31157301042661856	-0.3347022831128196	-0.4297757570259101	-0.4459841691782128	-0.4223985264217919	-0.4341305657432397	-0.4123653499249845	-0.29664862467901887	-0.37088070354431	0.1203127102578295	-0.3891595674294529	-0.4143705543979601	-0.4648116281268385	-0.26085604034194965	0.05981678836645346	-0.38734124312373064	-0.17513371810512823	-0.1706184173348644	-0.3865429277311182	-0.4206422217189253	-0.26688010475757207	-0.0688563317478891	-0.2815051303850562	-0.20358269401210563	-0.16796180772911137	0.12044628489305137	-0.37902267540406376	-0.41755540606433794	0.08840910532592713	-0.42621394849180405	-0.16350752830993429	0.09459607283333202	0.024713786738912974	-0.2777022807647809	-0.21060538560157524	-0.3828603911880355	-0.037645932223558304	-0.450580249536897
-0.27845991298373085	-0.3563261225557419	-0.2746437350967475	-0.5073232392550712	-0.4229935622787345	-0.4896812294618685	-0.439808993194137	-0.3800785556294484	-0.4027248412836058	-0.40548054063031563	-0.38601055013873664	-0.3921382998622455	-0.38561503771183825	-0.39361019368270567	-0.3456398549930304	-0.29271506204336806	-0.41569977985512935	-0.39945851448548464	-0.41053268853282887	-0.44966556238620964	-0.37289688751680183	-0.28421233528433437	-0.3370740338430452	-0.2746731751746132	-0.2974851911492613	-0.3872762341183036	-0.3987991171436354	-0.3556836892401747	-0.34089291089034834	-0.3590527266487069	-0.3568803874339588	-0.35225371744249967	-0.3658515441342736	-0.3683521808921155	-0.314848711943847	-0.37319066187792205	-0.2841763360943397	-0.42707645429032337	-0.38134715397093866	-0.4993387685881977	-0.484682553906004	-0.40974128843834545	-0.43196216995435843	-0.4107920963009499	-0.3814716636742217	-0.3421086692503628	-0.31378011808349143	-0.3434410376704247	-0.44617035953060896	-0.48806480841561484	-0.31053672431248064	-0.3860105442383473	-0.3698298762905744	-0.3410326518527734	-0.37590211868031875	-0.381774972818687	-0.39045362176762516	-0.3132896148355757	-0.4505446379754071	-0.4228387571088805	-0.40451892882334445	-0.3393023939283766	-0.44688864235424447	-0.4337448272977429	-0.4637671530573918	-0.4167163777613557	-0.3940173307262006	-0.4035799154808496	-0.39682688499053415	-0.38864507795861525	-0.3401746806502853	-0.3466095191373646	-0.38884090224821855	-0.46259258656378127	-0.471033683402883	-0.38693399835105446	-0.43881018429139684	-0.42519854043966276	-0.5087469557478272	-0.39661795943369954	-0.3853078222500245	-0.2602395646079774	-0.32046918550602677	-0.3643562480555755	-0.37055464370208835	-0.3528531083060793	-0.48841781702411546	-0.38578015062929544	-0.29460371561701615	-0.5187427531648021	-0.4376071376928973	-0.39789957227131667	-0.4655249927564723	-0.45135119973145243	-0.40311223345981656	-0.3111170501636911	-0.3248934717790408	-0.3631898682009629	-0.46757842187240617	-0.31708809400212035	-0.32094247464323084	-0.3540391230415482	-0.38484652627612026	-0.42838618325258954	-0.4396121110741469	-0.4171452078791201	-0.36802333445451996	-0.4002388651905732	-0.395358296319486	-0.3762279557316308	-0.39959528956464374	-0.30735540504313513	-0.4489850081617051	-0.30947833820584114	-0.34542066371839925	-0.2996355610312738	-0.39857938982480384	-0.3534047437011032	-0.4596414087465566	-0.4656475314611747	-0.49699436219097737	-0.3601319215770806	-0.40369938488904356	-0.3286569064192821	-0.4308869071588904	-0.42338258916273597	-0.3951808223299905	-0.4175310634056172	-0.34262932496482523	-0.40589636152487385	-0.4186922783550825	-0.4719431904370537	-0.33371058292101013	-0.429868675208245	-0.31334161801814087	-0.39156919898962117	-0.3915196335966447	-0.2752974892530077	-0.3232850070556034	-0.26193601470933153	-0.2709152192660383	-0.39294295043483635	-0.38787136630998525	-0.2775109841670941	-0.24214491465181764	-0.32108247844051074	-0.25717675919467065	-0.3542160753244661	-0.38676050461808564	-0.3863568834762895	-0.360202180498459	-0.36946061931244484	-0.2843497688418145	-0.3372277279062661	-0.3475776870983526	-0.39148672406001406	-0.3811676462963476	-0.3640547063271422	-0.3849939263613016	-0.3834050511340962	-0.3437114525858298	-0.36978964437680434	-0.3423871139486003	-0.3741233226727934	-0.43208748616533704	-0.42199242526242847	-0.2738413780989424	-0.39442205289546056	-0.32450731268596833	-0.34005940899077114	-0.29081341956485907	-0.39304933883215926	-0.3844051087623155	-0.3211010111877475	-0.41011097524025103	-0.41734548891739703	-0.36979465239069453	-0.38367535719678725	-0.30376824547433434
0.04782522720363298	0.08804540045176629	0.043565319833803365	-0.5933596360756576	-0.7308208641153894	-0.5493518656218551	0.02629781819272968	-0.6941225985052755	0.09563302756365376	0.0932214208555286	0.08185452714762294	0.07459078013451502	-0.719296437673737	-0.7258491130975772	-0.7101306969023761	-0.5063092463640096	0.08366331108024248	0.12073780176868175	0.10703573778162388	-0.6017445465354356	0.07551147395837889	-0.6237839703258425	-0.5378384401414925	0.038870108714134086	0.05900195946293817	0.08041620811302479	0.11334406555971639	0.05606275241148574	0.049610110965326706	-0.6403237881427841	0.0621020234791745	0.09611957428339553	0.07485512316985969	0.04329172536719171	-0.5605012140403791	0.0861605648558219	-0.47672047560102204	-0.011929002986594564	-0.6129986690254297	-0.642755894075337	-0.59604233613292	0.11704023647994045	0.015846568416961762	-0.6474662715065325	-0.3809675046588006	-0.43898870505433313	-0.20526157501789027	0.08873775250576574	-0.12454131123835278	-0.19967579046739187	0.0794489119561446	0.0821576599217166	0.052525629438920626	-0.43425763953921565	0.04918268200886637	0.09064828104736831	-0.6378948445586629	-0.49567345416635694	-0.6342672345648163	-0.252133512348462	0.08662500144747666	0.0867106083038001	-0.5493951646401907	-0.49167333716748757	-0.5442753914253322	0.14986200388336385	0.09227080448470286	0.027353755961454937	0.10480502178964747	0.07055302292586425	-0.014763369750795521	0.07217984384532904	0.09381996935972757	-0.6206162764683106	-0.5556106471251133	0.1077736244483722	-0.5919413328067779	-0.4058522863931608	-0.5249559560532844	0.09888546723792498	0.09750420325103155	-0.7367205692113911	-0.42885108746104866	0.09715166957868528	0.08031690112604191	0.07642993715011925	-0.6057571036143319	0.00725366728287373	-0.5748867418973849	-0.4555699325070135	-0.6533698289293566	-0.3202885127205583	-0.555110028482099	-0.5374059451220937	0.10763564258522075	0.057459182663857036	0.07105184024864279	-0.4813733175897014	-0.5939172019415481	0.057061158124892666	0.06842850248981823	0.0815357492981143	0.14288068821540334	0.0041152664243560705	-0.24275983007695595	0.09448297678997318	0.06808380382787561	0.09425747701834329	0.11225465958714971	0.1028718573706935	0.08339204254947542	-0.06143871871832317	-0.5968873220647124	-0.727993964399519	0.07786489075686025	-0.5881577044141669	0.11683755707251488	0.09163486046169847	-0.5904099102810106	-0.5982603137587812	-0.42840505767771864	0.09988304737739334	-0.6384624633840889	0.08498186763115435	-0.3604792580739433	-0.02379915713799531	0.10647279525216581	0.11744511020471916	-0.46213677802566433	-0.3318558916836855	-0.5911870768264395	-0.5948957288435403	0.07817671468392222	-0.10539108880144914	0.0670060338188815	0.08534669658815704	0.11070875835719564	0.05871364073467278	0.07318815923669204	0.04094638530041346	0.04813819953257874	0.10605963323531466	0.09201018925295408	0.06127893929794452	0.012763605509725731	0.08416906155305545	0.031027047817248563	0.07359050576447389	0.13523742940382005	0.09180661072139303	-0.29583548725037695	0.09357514837705273	0.05504856430505985	0.09458549731357589	0.12528227746775072	-0.30820019036354923	0.09733627907971286	0.04733595400697442	0.08145893740369221	0.10318263377588997	0.0468137216298128	0.07330824753510744	-0.147703994550743	0.07437945633671735	0.11199313064609188	0.049940759403092574	-0.5943854654256778	0.10699446408621806	0.07006342165835143	-0.45430452299374713	0.05465236534005509	0.08195377742134245	-0.39156510851336684	-0.7509672608029926	0.10162225565541812	0.09830420750500225	0.10887868649154313	-0.14582873157091175	0.06639644407076156
-0.07208289521120259	-0.07013883408555313	-0.06661406043922766	0.21943544922378092	0.3177129250002972	0.13631160176465892	0.358035381133231	0.41541589648773697	0.27351534831464447	-0.024878606458765204	0.15614892086148813	0.2378017393055983	0.32794328567923564	0.29295664672008537	0.36246106053637517	0.43746266711569276	0.26313746142289773	-0.02888043568858159	0.030803166037762036	0.06798897874381156	0.029017195117548245	0.4649780923552376	0.4336312285827019	-0.07824435712543873	-0.08109846672377471	0.2027879639100596	-0.04690351446844718	0.06858838751836162	0.3037887252059851	0.4535438635873893	-0.07735177658113196	-0.06744564836677108	-0.05434449787937207	0.11582229816212022	0.47269246700540263	0.22594154030167696	0.5115262902449045	0.3561225733889762	0.4518457539410732	0.19981262226354157	0.05745721993247311	0.21102693724365318	0.3507171648370094	0.43402822927364654	0.43111644005510386	0.45856456756136227	0.3573533082787557	-0.06873081379029772	0.40370721879047083	0.45730085158578304	-0.06857329395763356	-0.029385310619888888	0.34638038154626194	0.47576982571793913	0.005610958592285678	0.1399308556183995	0.4285372411406323	0.5232567558109465	0.3873980455552343	0.4352381720945534	0.2538722794141601	-0.06355542956880228	0.03843743045578389	-0.01565523621103472	0.01928571409284642	0.18745150340474784	0.08483690366620107	0.35222204674430896	0.12171852088569551	0.2802359546021663	0.37169900293052993	-0.08360878189569515	0.257691744958948	0.12811079180435408	0.015709349376201623	-0.004475133813261811	0.19866866049517257	0.19286503504846125	0.25177246460506364	0.16482474110453255	-0.012861102994437351	0.44257602636404797	0.4729792383988735	0.21420993471321625	-0.008341172009229417	-0.09239009615822358	0.39449871601782766	0.36673490684572085	0.45920154791120166	0.0670242543504781	0.20965135087590572	0.4461206925303129	0.2290504858954331	0.16851089161710459	-0.04658754735644052	-0.08176598722887135	-0.08113441652060749	0.45502996278372443	0.04422617391617269	-0.09705218447985647	-0.09058342956514659	-0.06692482303049849	0.15932221006455066	0.34077265652325733	0.4674783977336977	0.021686473807754014	0.15975170475657846	0.14534971579951436	0.12143742405382423	-0.053837513697415906	0.19752960683951282	0.2695162277265162	0.15895268032791776	0.3693730296975432	0.23353308793530209	0.4767511568451019	0.1843055637046138	-0.07723665307183561	0.10473395402684557	0.0762533988550598	0.08605003853352326	-0.06942317452442029	0.4117632283725163	-0.08389742985660878	0.4246699706082992	0.3640066524759085	0.2586707490772306	0.05298397040906537	0.45453558439268754	0.5195727717196923	0.48788986003590695	0.1885684201723855	-0.06869203385515155	0.4098794632085358	-0.09036270595683796	0.06726588413429017	0.2194707035230552	-0.07782164558451188	-0.07113396935457039	-0.07712565389837481	-0.0871180395931348	0.04609458872246361	0.0379292730298951	-0.06618184546252984	-0.06204758618205414	-0.06099131301355237	-0.06364123530022853	-0.08827349248106273	0.15856673615769454	-0.04793626901303577	0.4673333978507265	-0.07968389852680047	-0.06316112112370584	-0.07819369802867954	0.1800122765415781	0.41494958314063346	-0.0511787468346	0.3301204771372272	0.2683021201906101	-0.03478862319654338	-0.09499820077236171	0.19166999836063003	0.3347411039600733	0.09527883003583545	0.21935436621780424	0.2923027576293039	0.4701234546312128	0.00894212508453901	-0.08256853685939419	0.45238423328151095	-0.06604001382131441	0.2709607673382698	0.5340292288338859	0.3740519609953174	0.1131652455842066	0.10212148050661041	-0.01815543025593952	0.3897064915568477	-0.08583425644818221
0.48377081476333705	0.4608131726129685	0.49331935097490276	0.38052567695660494	0.4424825665532201	0.3511323734715637	0.32589949398354773	0.4501205906254528	0.35713538676512724	0.4193478895282939	0.3760016405767591	0.3528911339751878	0.4477077214047752	0.4534838722858058	0.43064787344366984	0.3532112887431607	0.31059251649194136	0.42957992079520824	0.3761188097386119	0.46974867050993774	0.42638813116953855	0.3704492161941907	0.3235839028235645	0.5002886176792405	0.4820208890532376	0.3612763527547413	0.40897646143748484	0.4359577588888376	0.40548503748249487	0.42332316816271753	0.47410698058869394	0.43970201592887176	0.4655390646581168	0.42187275429144855	0.3617353606642984	0.3776224841959852	0.35994426221531306	0.26643755384401985	0.38207672770989437	0.416970480066299	0.4118274334386872	0.34322376186252423	0.2842704332388165	0.42181349124691275	0.2972253324616422	0.34247558814315743	0.39099456150456147	0.48253294072914055	0.236666270889978	0.15655849142831657	0.46106754328326094	0.44592255904153455	0.35641162420919353	0.3274632245753672	0.44811339906040276	0.39304452714649796	0.37160364971215804	0.33848437413727345	0.3848008868618398	0.26908186349026564	0.32997705358997365	0.4573342196161661	0.3893011765694619	0.34429047247903166	0.3976209429620089	0.3361702890654883	0.3910553917632275	0.31041372849403803	0.3668254593049927	0.33755549447091526	0.374378894027672	0.48394685963566464	0.3500733203685804	0.4527564301704138	0.4433217675805148	0.40609593675035466	0.4242851903100493	0.29227910257194034	0.4397797371227257	0.36207694820378494	0.42589602681544103	0.46280678186628565	0.4083327092614124	0.37982498764009165	0.4366993597321809	0.4817909051948901	0.5166733529733144	0.30244102433415454	0.37020658190961664	0.40892055819481854	0.46132126036180204	0.3024821596955696	0.37818501883816613	0.32283730602121397	0.41901914677144536	0.4882119296061468	0.46159761458775883	0.33026864012946766	0.42160655174879835	0.481937129846871	0.4864406235042599	0.47033717173680034	0.3907665794490175	0.26110230215894636	0.18410101050172484	0.3901144719613984	0.40248692965572547	0.3588325134102562	0.37673072528534945	0.43434133396582786	0.34195332048228855	0.40293824855950733	0.41811737506741975	0.48020458286159884	0.40990162856409873	0.35837615040288373	0.3543005507404434	0.46982563722981396	0.41075630279573716	0.4134131607419317	0.3565898355739221	0.468671170470643	0.4122947004982033	0.48380557813023195	0.31002014491566104	0.26238540495091756	0.33474449407935425	0.3548836808934071	0.3267279200030275	0.2612927589945449	0.35259459077694844	0.39231635898684114	0.4847327695480427	0.26467733137684785	0.48633168920311887	0.4023753803689867	0.351712800575522	0.4799096068208739	0.4809754715677408	0.4968934281773494	0.4903190699358999	0.4108582553755421	0.40414513339064273	0.48123033961144956	0.4897143828406192	0.48564565106903446	0.49073996077729976	0.47004460057750275	0.40117754929694494	0.4434857254017425	0.3063358857841664	0.4710646624569269	0.48103388567934535	0.4893876245228588	0.43046740860549926	0.295406589392913	0.43828200949308616	0.3948919399567195	0.34560052632110627	0.4433634472700393	0.4689587327466833	0.3898738605552042	0.34179263482664457	0.41417951725805124	0.2982885585883543	0.28550333071301814	0.4144404311905723	0.41327874774773177	0.47076373797786375	0.3359566896422447	0.4901842600627486	0.33107179724559826	0.3027791765169086	0.45540353366196906	0.3595464601875441	0.4049429538588194	0.44690361095642794	0.296312492067333	0.4947600710612525
0.6986593306542815	0.6094159925028497	0.6975448960914452	0.23187706133839003	0.37974854562924915	0.24845175159573374	0.4016454517933802	0.37922900297447376	0.4675447628425876	0.582134880666199	0.5236435589398574	0.4737314468573805	0.40806373187825357	0.40865724038296586	0.41682317910011596	0.3537500427500345	0.4728332405022645	0.587598428976757	0.5634723418207238	0.3619549339338023	0.5894185079191852	0.41367316142332555	0.3766019682747135	0.6863586458213694	0.6661429124821475	0.5017804621934479	0.597655553126436	0.5517000495112089	0.5029761813131648	0.3021215530608768	0.6157569170712792	0.6344708554773185	0.576313467552899	0.4950590297599093	0.37330732999057675	0.5000309862970589	0.354088259291872	0.3832766056190492	0.3953770949554112	0.33826764237411944	0.41631124027292565	0.48942100620450657	0.41623946393693423	0.38408172317579015	0.31958069389586913	0.31952967644263525	0.42045863539825024	0.5959256904316831	0.3400533699241651	0.293750200632347	0.67361853872492	0.5658156815670498	0.4570225105789466	0.36453052566031785	0.5768572657420893	0.5446941495629122	0.3793648924290498	0.35191060704390764	0.35387659466833465	0.29974237267670484	0.48162058381210104	0.6283014995991398	0.4138838741703768	0.40954474730866297	0.40668531367543526	0.5259063943814292	0.5524673053854249	0.42497599585919665	0.529349651740844	0.46151444129179886	0.41604922624122864	0.6244002176973654	0.4873996006193583	0.3604441140155026	0.40137127962077235	0.6013734339770171	0.30125570151716313	0.22015356352090204	0.2456097769002045	0.5137380840789434	0.5791476780358792	0.46218940166599426	0.2953541152062986	0.5348512406329281	0.5921000509237523	0.6256854640899802	0.28655944932001026	0.4030480199453629	0.38384885093655885	0.25345688091796503	0.32302832585050717	0.3412992074735406	0.3047838024261284	0.3170210510069651	0.5869044952666364	0.6531293449374685	0.657516610605484	0.3376817107309473	0.3895398207532344	0.661421538087553	0.6445412504494062	0.5851365123935343	0.548452377911353	0.3944650015832222	0.322616313372439	0.5487324218873296	0.524898231295425	0.5106019361852832	0.5295304655720176	0.5983091705037077	0.5029409174386941	0.4535925646580225	0.32956733520525244	0.42935206718458496	0.5038475362912794	0.3776120709749819	0.5220699455599493	0.6129968869619323	0.39730869014532516	0.4142912654704367	0.2570852070639673	0.5799036458236776	0.3931995972530107	0.6297194266643255	0.3230965698789629	0.39991686511925983	0.49755152086460563	0.5712912625230552	0.38075497578909717	0.27000226764213575	0.2859318687552223	0.3291784123888418	0.6186199740001902	0.33003909917784097	0.6509922261047862	0.5454288195915674	0.5184011618689719	0.6957062512307391	0.6267237206023047	0.7065101952983234	0.6773635495876528	0.5639187659763266	0.5783059996862029	0.6875761274497402	0.7372987910730725	0.6103043276421781	0.7284061911065506	0.6423555612796256	0.5278773501868037	0.5730882026605557	0.3404723669952559	0.5922016029995699	0.6867606996956149	0.605758724972533	0.524483268183	0.33514707596768606	0.5906687249971604	0.47934898216116417	0.48878127123833937	0.5800564981229761	0.6466125173829814	0.5083462870018742	0.3993970890929236	0.5551746697440828	0.49576887506728035	0.46109278610829707	0.42577625146042425	0.5716030896393428	0.6605527517818777	0.333940486267567	0.6756804951544807	0.4810704420807235	0.3562059222757973	0.3916779376447123	0.5257163865555072	0.5511715983573255	0.6099772181876387	0.3135224296764911	0.6430604423548582
