NIPT-PRL-001-25-BL-Px_S1	NIPT-PRL-001-25-D14-Px_S2	NIPT-PRL-001-25-PD-Px_S3	NIPT-PRL-002-25-BL-Px_S4	NIPT-PRL-002-25-D14-Px_S5	NIPT-PRL-002-25-PD-Px_S6	NIPT-PRL-003-25-BL-Px_S7	NIPT-PRL-003-25-D14-Px_S8	NIPT-PRL-003-25-PD-Px_S9	NIPT-PRL-005-25-BL-Px_S10	NIPT-PRL-005-25-D14-Px_S11	NIPT-PRL-005-25-PD-Px_S12	NIPT-PRL-007-25-BL-Px_S13	NIPT-PRL-007-25-D14-Px_S14	NIPT-PRL-007-25-PD-Px_S15	NIPT-PRL-009-25-BL-Px_S16	NIPT-PRL-009-25-D14-Px_S17	NIPT-PRL-011-17-BL-Px_S91	NIPT-PRL-011-17-D14-Px_S92	NIPT-PRL-011-17-PD-Px_S93	NIPT-PRL-012-25-BL-Px_S18	NIPT-PRL-012-25-D14-Px_S19	NIPT-PRL-012-25-PD-Px_S20	NIPT-PRL-014-47-BL-Px_S94	NIPT-PRL-014-47-PD-Px_S95	NIPT-PRL-017-20-BL-Px_S96	NIPT-PRL-017-20-D14-Px_S97	NIPT-PRL-017-20-PD-Px_S98	NIPT-PRL-019-47-BL-Px_S99	NIPT-PRL-019-47-PD-Px_S100	NIPT-PRL-021-25-BL-Px_S21	NIPT-PRL-021-25-D14-Px_S22	NIPT-PRL-022-52-BL-Px_S101	NIPT-PRL-022-52-D14-Px_S102	NIPT-PRL-022-52-PD-Px_S103	NIPT-PRL-024-52-BL-Px_S104	NIPT-PRL-024-52-D14-Px_S105	NIPT-PRL-024-52-PD-Px_S106	NIPT-PRL-026-47-BL-Px_S107	NIPT-PRL-026-47-D14-Px_S108	NIPT-PRL-026-47-PD-Px_S109	NIPT-PRL-027-25-BL-Px_S23	NIPT-PRL-027-25-D14-Px_S24	NIPT-PRL-027-25-PD-Px_S25	NIPT-PRL-028-25-BL-Px_S26	NIPT-PRL-028-25-D14-Px_S27	NIPT-PRL-028-25-PD-Px_S28	NIPT-PRL-029-25-BL-Px_S29	NIPT-PRL-029-25-D14-Px_S30	NIPT-PRL-029-25-PD-Px_S31	NIPT-PRL-030-25-BL-Px_S32	NIPT-PRL-030-25-D14-Px_S33	NIPT-PRL-030-25-PD-Px_S34	NIPT-PRL-032-47-BL-Px_S110	NIPT-PRL-032-47-D14-Px_S111	NIPT-PRL-032-47-PD-Px_S112	NIPT-PRL-033-25-BL-Px_S35	NIPT-PRL-033-25-D14-Px_S36	NIPT-PRL-033-25-PD-Px_S37	NIPT-PRL-034-25-BL-Px_S38	NIPT-PRL-034-25-D14-Px_S39	NIPT-PRL-034-25-PD-Px_S40	NIPT-PRL-035-25-BL-Px_S41	NIPT-PRL-035-25-D14-Px_S42	NIPT-PRL-035-25-PD-Px_S43	NIPT-PRL-039-25-BL-Px_S44	NIPT-PRL-039-25-D14-Px_S45	NIPT-PRL-039-25-PD-Px_S46	NIPT-PRL-040-47-BL-Px_S113	NIPT-PRL-040-47-D14-Px_S114	NIPT-PRL-040-47-PD-Px_S115	NIPT-PRL-041-52-BL-Px_S116	NIPT-PRL-041-52-D14-Px_S117	NIPT-PRL-042-25-BL-Px_S47	NIPT-PRL-042-25-D14-Px_S48	NIPT-PRL-042-25-PD-Px_S49	NIPT-PRL-044-25-BL-Px_S50	NIPT-PRL-044-25-D14-Px_S51	NIPT-PRL-045-25-BL-Px_S52	NIPT-PRL-045-25-D14-Px_S53	NIPT-PRL-045-25-PD-Px_S54	NIPT-PRL-046-25-BL-Px_S55	NIPT-PRL-046-25-D14-Px_S56	NIPT-PRL-046-25-PD-Px_S57	NIPT-PRL-047-25-BL-Px_S58	NIPT-PRL-047-25-D14-Px_S59	NIPT-PRL-047-25-PD-Px_S60	NIPT-PRL-048-17-BL-Px_S118	NIPT-PRL-048-17-D14-Px_S119	NIPT-PRL-049-25-BL-Px_S61	NIPT-PRL-049-25-D14-Px_S62	NIPT-PRL-050-25-BL-Px_S63	NIPT-PRL-050-25-D14-Px_S64	NIPT-PRL-050-25-PD-Px_S65	NIPT-PRL-051-25-BL-Px_S69	NIPT-PRL-051-25-D14-Px_S70	NIPT-PRL-051-25-PD-Px_S71	NIPT-PRL-052-25-BL-Px_S66	NIPT-PRL-052-25-D14-Px_S67	NIPT-PRL-052-25-PD-Px_S68	NIPT-PRL-053-25-BL-Px_S72	NIPT-PRL-053-25-D14-Px_S73	NIPT-PRL-053-25-PD-Px_S74	NIPT-PRL-054-17-BL-Px_S120	NIPT-PRL-054-17-D14-Px_S121	NIPT-PRL-055-25-BL-Px_S75	NIPT-PRL-055-25-D14-Px_S132	NIPT-PRL-055-25-PD-Px_S76	NIPT-PRL-056-25-BL-Px_S77	NIPT-PRL-056-25-D14-Px_S78	NIPT-PRL-056-25-PD-Px_S79	NIPT-PRL-057-52-BL-Px_S122	NIPT-PRL-057-52-D14-Px_S123	NIPT-PRL-057-52-PD-Px_S124	NIPT-PRL-058-17-BL-Px_S125	NIPT-PRL-058-17-D14-Px_S126	NIPT-PRL-059-25-BL-Px_S80	NIPT-PRL-059-25-D14-Px_S81	NIPT-PRL-060-17-BL-Px_S127	NIPT-PRL-060-17-D14-Px_S128	NIPT-PRL-060-17-PD-Px_S129	NIPT-PRL-061-25-BL-Px_S85	NIPT-PRL-061-25-D14-Px_S86	NIPT-PRL-061-25-PD-Px_S87	NIPT-PRL-062-25-BL-Px_S82	NIPT-PRL-062-25-D14-Px_S83	NIPT-PRL-062-25-PD-Px_S84	NIPT-PRL-063-52-BL-Px_S130	NIPT-PRL-063-52-D14-Px_S131	NIPT-PRL-064-25-BL-Px_S88	NIPT-PRL-064-25-D14-Px_S89	NIPT-PRL-064-25-PD-Px_S90	Genome-IJB-HP-14-xx_S3	Genome-IJB-HP-18-xx_S6	Genome-IJB-HP-19-xx_S7	Genome-IJB-HP-2-xx_S74	Genome-IJB-HP-26-xx_S14	Genome-IJB-HP-30-xx_S18	Genome-IJB-HP-31-xx_S19	Genome-IJB-HP-33-xx_S21	Genome-IJB-HP-36-xx_S24	Genome-IJB-HP-37-xx_S25	Genome-IJB-HP-4-xx_S76	Genome-IJB-HP-42-xx_S29	Genome-IJB-HP-44-xx_S31	Genome-IJB-HP-49-xx_S36	Genome-IJB-HP-50-xx_S37	Genome-IJB-HP-64_S169	Genome-IJB-HP-67_S172	Genome-IJB-HP-7-xx_S79	Genome-IJB-HP-70_S175	Genome-IJB-HP-72_S177	Genome-IJB-HP-74_S179	Genome-IJB-HP-75_S180	Genome-IJB-HP-76_S181	Genome-IJB-HP-77_S182	Genome-IJB-HP-78_S183	Genome-IJB-HP-79_S184	Genome-IJB-HP-8-xx_S80	Genome-IJB-HP-80_S185	Genome-IJB-HP-81_S186	Genome-IJB-HP-82_S187	Genome-IJB-HP-83_S188	Genome-IJB-HP-84_S189	Genome-IJB-HP-85_S190	Genome-IJB-HP-86_S191	Genome-IJB-HP-87_S192	Genome-IJB-HP-88_S193	Genome-IJB-HP-89_S194	Genome-IJB-HP-9-xx_S39	Genome-IJB-HP-90_S195	Genome-IJB-HP-91_S196	Genome-IJB-HP-92_S197	Genome-IJB-HP-93_S198	Genome-IJB-HP-94_S199	Genome-IJB-HP-95_S200	Genome-IJB-HP-96_S201	Genome-IJB-HP-97_S202	Genome-IJB-HP-98_S203
-0.3541403427830563	-0.29864327798272017	-0.3493043422943442	-0.11040896077881646	-0.25366684646851434	-0.11064796644335095	-0.4015625615295291	-0.2863256683511086	-0.3682843008502114	-0.34654821173696543	-0.3581092466907212	-0.38062318377643906	-0.300671512205903	-0.2767917454044933	-0.35027559231261696	-0.3357371392703868	-0.3768579430157215	-0.3569977550076568	-0.3735315908199912	-0.18956566927951343	-0.34834374685144553	-0.3017471652619311	-0.30151558112936316	-0.35757352831637135	-0.3243170367084718	-0.3742815848453726	-0.3526288691393438	-0.3699051099458524	-0.35755231098887524	-0.3153713345704916	-0.35364436054327325	-0.3363015674467188	-0.35899658271637513	-0.3665408591415285	-0.34701127624544875	-0.36848451018496636	-0.3325120617906729	-0.3671871716838883	-0.33648792914202696	-0.20238404652436856	-0.1589835082783538	-0.37534599968017573	-0.3934295663441434	-0.35509988968246947	-0.3187304014282298	-0.3451407786578447	-0.377913780772229	-0.30387953430291736	-0.37288051700146263	-0.37541194954572543	-0.32707837803330303	-0.3485984558009316	-0.39192969938300154	-0.3230733493245972	-0.35375480418421207	-0.3644746836159428	-0.25264500577717064	-0.3201973725456288	-0.21866236981264559	-0.3707737868486833	-0.394649843897312	-0.31561518864962107	-0.12682067445270284	-0.12070156749934399	-0.14134962114811994	-0.37940034951366336	-0.3684378915330321	-0.39143087090206635	-0.36167137320931747	-0.3541665745700659	-0.36382271131250093	-0.2743652902407971	-0.3860176257179505	-0.17324657470979793	-0.13197114011030434	-0.38249606133591857	-0.07533846760805935	-0.0036809266925466877	-0.10258117129638988	-0.3589013069493464	-0.35906859161760113	-0.21540549911801327	-0.32438865149706925	-0.3702056194578203	-0.37124969862447327	-0.30137816717946014	-0.2673698376213079	-0.3962128772997004	-0.35569282781668365	-0.0015969189719437227	-0.23123685409370137	-0.3250721963522248	-0.1875016771031868	-0.11538782580419105	-0.340596525210234	-0.3154663405618179	-0.30484896858411503	-0.3600041076051661	-0.08986589281502894	-0.3144705149064584	-0.31903971695223676	-0.31990765404036314	-0.3478378312217968	-0.38313897323561846	-0.37097074949561587	-0.36473864837743186	-0.36488474714435426	-0.37248567616227884	-0.3863700450655978	-0.3390415667014019	-0.4002688045064295	-0.36037218757305084	-0.09091408027971488	-0.3076640252423187	-0.3653691657945819	-0.32554261288049186	-0.36874081946092135	-0.285840481726845	-0.15563948316495946	-0.1637676423646463	-0.04056861712488363	-0.28866321354896196	-0.30451209503530347	-0.31117014046369734	-0.33789859443562364	-0.40029387371749053	-0.36687575464145356	-0.38619884457592896	-0.31736982551554793	-0.32086262047483755	-0.2574884418253058	-0.13646057348718696	-0.2795754578599706	-0.3731594142641027	-0.3075449557043117	-0.3639955271656164	-0.36769548273188174	-0.34057303155164836	-0.29586310742493893	-0.33911674919261797	-0.35462032001162214	-0.35963285737421025	-0.3669050158427877	-0.3183654019374606	-0.38890844766328186	-0.3062319443348517	-0.3318668392669341	-0.2584306702920534	-0.4196554847759552	-0.3663440285715766	-0.3593687201178883	-0.3170836066896549	-0.3080389761836402	-0.3612300002985765	-0.3988277543647862	-0.37099934804848184	-0.32417617068553234	-0.39032014531748255	-0.37455147390397636	-0.30370011686101683	-0.3086324170264054	-0.339787160057832	-0.37137621797999104	-0.3734192288159652	-0.37323231676800395	-0.38368493891642935	-0.3257765638241261	-0.33402258152451175	-0.2633262252708322	-0.33836399998039673	-0.3328507507228778	-0.38180524396653964	-0.3649764818243824	-0.24984563058765213	-0.3535432263911486	-0.402444846915364	-0.3708548020577347	-0.3600678727971342	-0.3508802697628004
0.41539678842605554	0.4682592321157871	0.42461463804512045	0.5667060190275438	0.5369513668003804	0.5736388427232578	0.48704215314570865	0.5292830022001626	0.497623441106384	0.5076322413133929	0.5212290356137345	0.5170226073794416	0.550065848004456	0.5630776066268198	0.5271184377381525	0.44323361146784146	0.5070411277383412	0.508210921354436	0.5174926320364659	0.6323816875630717	0.4797471273700845	0.5026274800668725	0.5005581696071761	0.4118739487870441	0.4730219431535859	0.5254592853048538	0.499802554634743	0.5058076679293234	0.5075969603383576	0.48603253134223656	0.4920400857809387	0.4938554502651705	0.5138922168923067	0.5094143375355872	0.46400500202830675	0.5150226323722366	0.5204436818870067	0.5055517997673104	0.5142764478285958	0.5503268095377912	0.5880110198274056	0.5064163672496166	0.4971237147498824	0.5693757531520257	0.4969038603305851	0.5089544076071891	0.5204641227501984	0.45694492853512947	0.5188801995523087	0.4905983494354048	0.46118595298959875	0.48339797005054963	0.5278556115918956	0.5229804632754944	0.5038121189208269	0.5068727754467178	0.5024635241475345	0.5045586198469328	0.506259789209313	0.513696775901786	0.5348664824286463	0.45989592194586826	0.6190783882729529	0.658341653195985	0.647637606979002	0.532054816489203	0.5330518633533019	0.535879578410679	0.5380468155258027	0.48692632101659317	0.5485874745549316	0.4338689888981715	0.5276675549422621	0.6632373217094188	0.661730378878944	0.5326304254880517	0.6461468853109156	0.692170300241602	0.5031319297467712	0.5107301733691613	0.509379774101618	0.5148846014827808	0.48827668247768374	0.5392661797601915	0.532733927332166	0.46958832268952844	0.4694326988263512	0.5365850901522632	0.5191961674799718	0.6265593188466775	0.6126274548461745	0.5066697962420089	0.6534220544800007	0.6871544374174334	0.4784258368598494	0.4600047970608	0.4617922041123753	0.5528424931896984	0.6837818125694849	0.43503758295814	0.4561698460987247	0.5047653738323475	0.505809703493441	0.511561252262852	0.5210304519732274	0.5232373861945884	0.5072242286708097	0.5005742054570229	0.5299878438114632	0.4849984729468163	0.5215379917808318	0.49799811577921815	0.6384319804086466	0.4848004342124048	0.5114304302573391	0.5080453035770399	0.5213274474380098	0.456799537932293	0.6678457347492719	0.661702308839209	0.7001888891324293	0.4555761635241674	0.5121637825472141	0.47259328279064816	0.5065455256915165	0.5412520274171203	0.5022602072616642	0.5274157585652033	0.4755193050885581	0.4131643462975687	0.4150968761345972	0.4770620663918207	0.439038050153879	0.526168687742712	0.4623421182720179	0.5008754190267805	0.532728275659398	0.4321357924077335	0.4552504783388124	0.3962587411253896	0.43633672562089265	0.5030150663227286	0.5184588190499654	0.4326357678933308	0.4293751891886157	0.4715632270130693	0.4074054659881743	0.4417090731559846	0.5353686803568158	0.5132668445974445	0.48861957611546647	0.46930994309266527	0.4158745114556357	0.5019867321478033	0.5531386763525229	0.5456361104182338	0.4896266447125841	0.5526966153563834	0.5136240544460157	0.49250259551223086	0.4321321677897315	0.5059637485491422	0.5417190405210589	0.5098238047612962	0.5163278635622545	0.5089897867394761	0.5874393968404114	0.4944823941638308	0.4148238184107651	0.5044006655199684	0.4344761170504411	0.5283392813669257	0.464857083137864	0.5083508669700387	0.5110536079161657	0.5086623343014461	0.5185104746335044	0.5318296517781785	0.455937585689265
-0.5005721975710936	-0.5162175731986844	-0.4762427530107879	-0.5035856306028861	-0.5784461928294101	-0.43001717164608644	-0.5954359079403674	-0.59580139959153	-0.5763440026618749	-0.5483255584391431	-0.5770866276739625	-0.597881997867106	-0.6314493324803027	-0.5983205255102896	-0.6702709976089879	-0.5885329243172809	-0.5855050688235998	-0.5334069952497095	-0.5717381191617834	-0.5758147678488048	-0.5555273236594934	-0.6149417060467799	-0.5860103731411147	-0.4990655713698994	-0.4767700326881579	-0.5867562153664324	-0.5357085308548055	-0.5785350026265427	-0.5841535606951617	-0.5859687392518053	-0.5129443435809539	-0.5001004248614559	-0.537871943123669	-0.5764877525518989	-0.580864716046024	-0.5876897421510101	-0.5991899279397089	-0.5920543717756822	-0.6143080986330102	-0.6146211243553852	-0.5290374660520345	-0.5972280372476587	-0.6005051721211161	-0.6722072214272442	-0.5702907926825035	-0.5616376284958384	-0.5823125670942749	-0.5071501218464883	-0.5721631217495723	-0.5691043945707074	-0.49122838367911426	-0.5353339973775785	-0.5975650225612288	-0.5706731040263034	-0.5611132209513782	-0.5897427884284389	-0.6124296679357275	-0.6334334321674485	-0.5974874900166954	-0.5808041272849979	-0.5944632676255797	-0.5089489537497459	-0.46198552024814576	-0.4671830278875252	-0.4869404215872932	-0.5872991185828966	-0.5615956173493181	-0.5603854492393668	-0.5631102986601487	-0.5884631798524986	-0.551879128925304	-0.48911992739396204	-0.5972145933644225	-0.49836816653883786	-0.4737599671635859	-0.5661061577058745	-0.37931083362079066	-0.3896372692991007	-0.6007575336018217	-0.5768544348372693	-0.5560512382257269	-0.5300260943326686	-0.5417783922445849	-0.5599566214521391	-0.5681991528419995	-0.4978294135575444	-0.7165053952692648	-0.6005668506603734	-0.6107284899894471	-0.4505051849275594	-0.5665319237215213	-0.5889882369059685	-0.4941729358347581	-0.4524465732171873	-0.5532746458296006	-0.49971982560069406	-0.4871563593198497	-0.6009691559392555	-0.5004281250872564	-0.5154686008863805	-0.4893866570065968	-0.5248532946079637	-0.5610077211524634	-0.5966796324167006	-0.575874969158398	-0.5530639121132865	-0.5840881064409397	-0.5982553935763066	-0.5855741480198026	-0.5349147035186236	-0.5762742749219717	-0.571665820714014	-0.4701448179962221	-0.6213089843533136	-0.5912351619498771	-0.6275717412845784	-0.5803081251622109	-0.5023688529696936	-0.46521596568152557	-0.46343474229086257	-0.4071865066855075	-0.5073583035600759	-0.6525836545557204	-0.48036088380174014	-0.5697738679211297	-0.5974819115726281	-0.5908812115931683	-0.5824849089413179	-0.536723595488771	-0.5490090219035385	-0.5817828767235029	-0.6277821881335378	-0.5206673522697003	-0.5852527360902323	-0.4926176320694372	-0.5652408818721002	-0.5733995547527985	-0.498373944485511	-0.5039868556274069	-0.4885491764822746	-0.4961353617885118	-0.561117191602528	-0.5716181579654492	-0.49053331673936185	-0.4937477077548952	-0.5213283926542418	-0.47828619161703023	-0.5319946260706605	-0.5257569969687397	-0.5470324642531933	-0.5894211206299371	-0.5253647824191092	-0.4897339939078432	-0.5160010655310223	-0.5166949417658562	-0.6019955867536557	-0.5404018010778081	-0.539421227970515	-0.5972341992877142	-0.530953667942567	-0.49250689486271415	-0.5635503294124459	-0.6084640575768131	-0.6055252095547036	-0.6114449224778281	-0.608781747912377	-0.6134492016034084	-0.5510704779773664	-0.5100853437203084	-0.5688659973510023	-0.4861024994971507	-0.6007140715119517	-0.637711322232496	-0.6408881548012674	-0.558698071780616	-0.6176387773699871	-0.5876472164514693	-0.580182273174919	-0.49711064765257607
-0.041610476500211074	-0.12329998829234787	-0.055281030275067616	0.05445215114901414	0.06629798247607041	-0.01412289447070647	-0.0349602571092469	0.044987738208805084	-0.051465596021850024	-0.06057014788345064	-0.055651723469869074	-0.03716181118348863	0.008052215932904283	0.037585440575591184	-0.0005722079830711158	-0.08513386925765662	-0.039585334881372655	-0.06834007012770624	-0.06424073411047485	0.05746772587184876	-0.07924485453178673	-0.015706433684000043	-0.03863059179421818	-0.04787412816264454	-0.07821837782869251	-0.05362135768028167	-0.07170176939159145	-0.07079557263708433	-0.06772214904219731	0.02943702009688262	-0.07988829244904178	-0.09680860775465622	-0.07520803708637716	-0.06105862806957019	-0.08211134117147666	-0.051956609126353914	-0.03023119662072929	-0.045349900522540315	-0.020939249525419312	0.0338606186165456	-0.015271576996982034	-0.06577132548701592	-0.035411086481806575	-0.0012876867261056024	-0.07323319338646511	-0.05430498659903844	-0.018701370265237383	-0.1140679182831471	-0.03142415724917583	-0.042314062254784	-0.07965350795038834	-0.0851017059148175	-0.04230008436098037	-0.02786520436940318	-0.06744132308207049	-0.058990312663981664	0.027340873073472133	-0.031655029968563536	0.02174194231029125	-0.04721272920248623	-0.03915281686723843	-0.10315269268519131	-0.03855853512869564	-0.03407680465576393	-0.0040109189537800155	-0.04966654170783935	-0.05844434348120289	-0.029596821978499638	-0.051108083470481055	-0.05760955540689405	-0.01576313459689506	-0.12536294318215543	-0.03925182687688891	0.005546201949242574	-0.07190973791251423	-0.06885954215650261	-0.041576513331820844	0.08195023024968556	0.003277317495935128	-0.06057148610793256	-0.07720383928311167	-0.010870216838850033	-0.04108108746862428	-0.03778558476336902	-0.06880640148656875	-0.1062102642327081	-0.01021482363120757	-0.023784638001026537	-0.03792600426019094	0.07403219419312104	0.08356884862691186	-0.04735968336600482	0.03671362652774596	-0.003132371766900871	-0.08352693353332025	-0.08901653242657168	-0.08928313423552445	-0.02158595133355623	-0.07891244352892235	-0.11077425536704569	-0.07862178059284139	-0.08864490236677647	-0.07057516963353341	-0.027901338188922598	-0.042865202763649995	-0.05286564096985499	-0.05723374435302636	-0.05624937885978787	-0.04667048180429978	-0.08951585715674096	-0.025216343953307324	-0.043442435010910024	-0.046997197271511235	-0.00453158820979449	-0.04879847461799311	-0.03816434266493479	-0.04869424992804586	-0.11507274880416349	-0.0026015704941254325	0.001551902208163855	0.0526856077754688	-0.11420604850246933	0.015732930943354706	-0.0753474855474337	-0.0520095991001539	-0.023747112982052537	-0.0668284081677591	-0.04575525231421726	-0.05980482810610331	-0.0484069697286061	-0.03740484090725063	0.016808283328607176	-0.12757348876495742	-0.0375481368744984	-0.08229600238280294	-0.06636495362917885	-0.04637907995714974	-0.05598677426941032	-0.09906658080965	-0.055960036928379975	-0.06001119181110366	-0.06884120185336584	-0.06466588805445386	-0.08099452808939982	-0.02808523319289047	-0.10297449464838596	-0.05615272492796462	-0.14177991899995732	-0.07959065896644432	-0.07237290577866687	-0.035857583900081674	-0.10272442635091203	-0.0806660563091668	-0.11789443189775888	-0.09895047465856074	-0.03661509829108689	-0.10930075087537316	-0.07566027344776027	-0.04259234088528355	-0.11731788183333966	-0.08159820154760389	-0.07408373508390569	-0.03580760396274593	-0.057448919522625236	-0.040452083875348904	-0.019394389060861605	0.009517993940464403	-0.08099442906732968	-0.13856271986985422	-0.03933748719024008	-0.0659246195964411	-0.03968351230639447	-0.02119795458713561	0.02748842437886409	-0.056097230762425565	-0.06626599341284592	-0.09421673930705338	-0.04877357303870719	-0.05616859830044987
-0.48975424819937624	-0.574428779103939	-0.46925148133746647	-0.3673127821829167	-0.32322167615712694	-0.3495859924827964	-0.38663292698229795	-0.3367051532264957	-0.45980878858921964	-0.5130805646138092	-0.47558287492172385	-0.4162835330896863	-0.33605242875685126	-0.3183593299313093	-0.3507276983038943	-0.5029584078405852	-0.4232828436271957	-0.5039634676941022	-0.4668236928382805	-0.25909768927262844	-0.5304734870044827	-0.407510376422298	-0.4212277854248157	-0.4729315839324758	-0.5621981927803302	-0.4617406739256212	-0.5001341244800827	-0.4834196870640737	-0.4865136521805918	-0.3479301787959648	-0.5080130032056335	-0.5262810878538894	-0.5292479381352249	-0.47758201124757926	-0.4199705413737042	-0.45163324769635943	-0.41565670254605985	-0.4355629430395934	-0.4056171765495851	-0.33174540690809956	-0.30169419703124273	-0.46665522879582993	-0.39032558949193247	-0.34287766301041095	-0.49966301566165133	-0.4629821692481603	-0.40614201728936805	-0.5729981748171684	-0.40981753308026664	-0.4099042016065909	-0.534279319818734	-0.5379523561738675	-0.40210433139731283	-0.4320910361342959	-0.5021605689020515	-0.46640325745180083	-0.41011777095648533	-0.40420939003805023	-0.4001523083016579	-0.432810761903906	-0.4259668733344513	-0.5630077333179161	-0.28846253723692544	-0.254515615561642	-0.2466590306326542	-0.4392228648015713	-0.4830529585633676	-0.3759803815733756	-0.4623715403009245	-0.4765762359212311	-0.4179890911353349	-0.5889548176722847	-0.41661655839056216	-0.2951295958713872	-0.3122324540872187	-0.479365063743669	-0.2355151538675937	-0.22999634413644693	-0.2833370496304076	-0.47694839105211306	-0.522919680405321	-0.4092481271507693	-0.48629162378350044	-0.47212683892048024	-0.47793929369623106	-0.5845686140275342	-0.3404249907580759	-0.38289366190202845	-0.3927252207400815	-0.2150828791976738	-0.29505773994972984	-0.4436831317761303	-0.3044561400935889	-0.25415781891367883	-0.5211334265448255	-0.5701797549979446	-0.5802968344769056	-0.4104130496446326	-0.3908782155943041	-0.5370945724995199	-0.5620824867344293	-0.5451085615545966	-0.498288116988344	-0.40578898905649086	-0.42881651692487444	-0.4718065755453127	-0.46870124121603934	-0.4620766119453429	-0.44503838684935554	-0.53914389940569	-0.386956555818692	-0.4483111342887513	-0.21089829505327456	-0.43162461439414623	-0.45947403956879496	-0.4141845288784777	-0.45639317997564705	-0.5976354379133446	-0.27107817641301774	-0.2838061813072876	-0.15834411545844101	-0.5881901955324853	-0.3526877902353555	-0.5829386601356012	-0.4720848251426486	-0.39144767540290887	-0.4634034518270077	-0.427445055423347	-0.4578378942874789	-0.40997481810845243	-0.44681111285398906	-0.33663134551630425	-0.5855812288220841	-0.4245875262377339	-0.5706524493457242	-0.4903717084151991	-0.46492977802406515	-0.49709550169297634	-0.5777632021124754	-0.4765490301579497	-0.4828713777521403	-0.49733301425924525	-0.4802627964766272	-0.5139431490786077	-0.45764896174576836	-0.5739672512045879	-0.4873597147621916	-0.5960557159622568	-0.471295012418897	-0.5035826078427678	-0.4314483807259902	-0.5686951986649369	-0.5238811687339457	-0.5157878116839063	-0.5049449490857489	-0.42942353127642774	-0.5298295069897855	-0.4608873861409752	-0.44154024019293286	-0.5635579697749277	-0.589301817973415	-0.5064998932892562	-0.4274355183109168	-0.46507526843770997	-0.40099752632298374	-0.4047506886618305	-0.3465914938824278	-0.5387350003685061	-0.5614038170264207	-0.43448571997146196	-0.5247586088146446	-0.42813827310537195	-0.4114853503631394	-0.3557943892839356	-0.4855544604499689	-0.4689602160655378	-0.49836331746906976	-0.4347869355548271	-0.5239577527184912
0.6032182076655194	0.609740715647733	0.61740484176262	0.4888108386012283	0.4870403369177653	0.4365158513176554	0.5548226769999517	0.461036442785149	0.5744815785377065	0.5843552460656588	0.5615802881586356	0.5337847529370069	0.4827329856289663	0.47938724327607973	0.4828096008722892	0.547649780652235	0.5429534231319264	0.6006978065064867	0.5563703993942662	0.492251492989069	0.6132546807872998	0.4784866567708163	0.4735731127222897	0.5954419296250891	0.5984230095479927	0.5779274528392023	0.5917438961479328	0.5687787838530476	0.5612916640958973	0.44461601678448065	0.6013352035169833	0.6013445079352856	0.6064573793399604	0.5678013155744859	0.5305355922070016	0.5459160205458938	0.4969897135012666	0.5300762077835227	0.5053858055511162	0.5051998483157133	0.4811322657142381	0.5664604852321987	0.5189211705233465	0.48798245263430495	0.5837139395325939	0.535387987095219	0.565442541684387	0.616444470715473	0.5292175707204247	0.5359318306247823	0.6001544882736751	0.603324161548608	0.5188022634613639	0.5059657882914481	0.578685020830729	0.5598041539643417	0.508488992411199	0.4915100724574712	0.5278937630358079	0.5416887140793084	0.5567616273915064	0.6124721854291996	0.44185183854579413	0.43314809901291823	0.4560646712251718	0.557111665283405	0.5842019777200678	0.4911890508066187	0.5784649501104316	0.5869197139706084	0.5635412058382107	0.618324945782627	0.5386409591635244	0.44946831061886244	0.4451158863480614	0.5781391828400211	0.5455499889678336	0.5617087634265208	0.5133470040137835	0.589151992435159	0.5830622259014265	0.5163703658852488	0.5807287258724869	0.5939075305033098	0.5856804635575604	0.6213861929292577	0.4777995994812012	0.5354501373738267	0.4959807345728276	0.5259880624025766	0.4689561937243929	0.5375772939988599	0.4275458796563746	0.4483565577556698	0.5788497893804673	0.6057513213156235	0.6165147992329938	0.46268029857309734	0.49090333263634633	0.5999041846751709	0.6033173039654299	0.600557808866292	0.5780434704668231	0.5242011348999847	0.5337747100601897	0.5685745801851342	0.5552243357144481	0.5681065321122385	0.5691778375756811	0.5945813882800098	0.5152281188270093	0.5491372316651328	0.5249677490651931	0.49971882485667324	0.5633167274444048	0.49707518601689565	0.5566296361340046	0.6184163979131946	0.4101029191405465	0.4093636679761432	0.582134533595689	0.6218029388197422	0.47831128309954707	0.6164853980221988	0.5281201730908854	0.5173883150116021	0.565190845145291	0.5511288679784668	0.513365140747186	0.5585476898481824	0.49372167277498313	0.5090558455089879	0.5956414509114277	0.5304381574183382	0.6169275610052799	0.5722158853150271	0.5512849484393126	0.6201848677237777	0.6231635935852629	0.6061762118712756	0.6160313193560722	0.5740195959322073	0.5753017204042393	0.6172477462709551	0.6197857742546307	0.6217144489112402	0.6219585544306548	0.6238409301657467	0.5792719768495834	0.5918221819929623	0.5206048277212652	0.6082322199984876	0.6136852819990302	0.5963908378912233	0.6172259588060628	0.512359926578938	0.5878183518039303	0.5763845541748823	0.5610250630736523	0.5985987987017459	0.6034655040079436	0.5981100171394031	0.5099939859054301	0.5407704438608891	0.49336605443162684	0.5272667924868952	0.4433363553533453	0.574765097927467	0.5938776444797587	0.5213528820810021	0.6084179974520055	0.5248521459790169	0.5403870710291074	0.4804260783718017	0.5766798621261523	0.5413698813072564	0.5296157563858799	0.5193842895012108	0.6192620796538426
-0.24965622896667106	-0.15453246908047585	-0.21535936053613217	0.3292497397316403	0.35810297686581616	0.28002264632390506	0.032182951088637196	0.30221575067878315	-0.007219268432651055	-0.07380750197907154	-0.03439954331660455	0.003209305126512685	0.3003541409700755	0.3025852496729774	0.2997866244668761	0.0959993454848781	0.008822669193680799	-0.07069899235083296	-0.040407207144782575	0.3812014179585034	-0.052335306433947903	0.25525139647668005	0.220394432977812	-0.24234554701604838	-0.2121551883588913	-0.01986033803957321	-0.0848149970072376	-0.046297303344201166	-0.051742917696965166	0.32546184850324633	-0.11889953256668227	-0.1163646582753086	-0.10448552738436079	-0.04566521572895102	0.14588764477962624	-0.01923113800701315	0.1597303176575096	0.028997635055486415	0.20403993692352448	0.28404026232659607	0.2524312786343985	-0.03022837059519347	0.025651602994801667	0.27816154245802294	0.005710575160691039	0.07561688682713674	0.013159865088175127	-0.14525534314127223	0.053538385832134106	0.06059806202729118	-0.21877702115445335	-0.10895542236643647	0.023368038313118122	0.12155011172238939	-0.06209703248905066	-0.025743863709919698	0.22746750155594683	0.22216703343741054	0.24444455572598592	0.044949390687520185	-0.004445153002429078	-0.14675434800028803	0.2194416324463985	0.22028246463717308	0.2635516732027836	-0.013574225552619036	-0.04223945397516771	0.07893611229628034	-0.023111367976450983	-0.02226010043199178	0.009328896779211934	-0.17301488641989365	-0.000906020820137389	0.280263425275334	0.21034051888007546	-0.06881922351414982	0.24035156411001	0.15843558299100471	0.033419124435927386	-0.034327665929836645	-0.08911628418175184	0.16853599697788058	0.04242596080660528	-0.04047761091778165	-0.040426266772681824	-0.17277651727080912	0.15100079592738896	0.0020041249845280384	0.19465189567964622	0.15916531030041306	0.34676795283318584	0.06512336935453475	0.24323547689534328	0.22172531774636647	-0.083604624988412	-0.19606303614923934	-0.20046809336279023	0.22534177457336016	0.1538062216030528	-0.18486247353650265	-0.20821483233251972	-0.11822975685552735	-0.059116713652081584	0.02174919359967295	0.06372669166623032	-0.04486691941870305	-0.030006473887077653	-0.024557168602888466	-0.00997663758546001	-0.09842515232599128	0.06764415269657803	0.02637383358360025	0.27090635441284905	0.2272164156842226	-0.024533467372800002	0.1994556347534173	-0.0282435978427307	-0.1864517050180632	0.28428079845286647	0.29578115862720034	0.1672025527570917	-0.15114449250008033	0.3148129670251085	-0.20181167270056485	0.0816480229731425	0.026439803142965054	-0.005174549553950712	-0.00506818215389368	0.16384062342282676	0.11850339941145194	0.24356461581484026	0.2681039090227234	-0.18206777433865146	0.02149890735287606	-0.2000829456581957	-0.052843852334963165	-0.04867873450215454	-0.24124297289793312	-0.17591511286635902	-0.23989441793591362	-0.22686594835984514	-0.06866933876442853	-0.056440998331500195	-0.22932127240023695	-0.21634361550483042	-0.16016114484866142	-0.24320624781869982	-0.179076181615212	-0.05879357218731231	-0.07900841610921756	0.08582746668632027	-0.14958830261296202	-0.256278577225586	-0.09289366148795503	-0.08270350905811497	0.060184617457230485	-0.09665157590947908	-0.052771936627767004	-0.01924592558078516	-0.12859883849373108	-0.21119636524392182	-0.050180527661227325	0.031073778299660876	-0.016558116930324565	0.052270580861682764	-0.002477276295735617	0.24348732315904634	-0.07636788536392392	-0.1587591796821532	0.10400560901592726	-0.23274209606597202	0.006740768279406131	0.07125896575462512	0.3632315205302349	-0.03991454716380871	-0.00428054154566361	-0.06034947787927292	0.06542605932681295	-0.200262033498423
0.09706408382374156	0.10683906890556465	0.08482617608300795	0.4853312890425812	0.47960333651591475	0.5016508879814036	0.15250984328109463	0.4240163067122746	0.15529879218245973	0.11643430242002252	0.14577489850765846	0.17568605119171232	0.38059061600035965	0.4297952260752957	0.34770804083582546	0.2991689871403201	0.19849449321508322	0.14795903250554854	0.13915066406315374	0.5214572800509869	0.12749982836986257	0.32092363831310816	0.25993758180723775	0.07673086551402024	0.11597778503677396	0.14811604362197112	0.12465686701193525	0.14847556061393175	0.1441944420462259	0.3625424073295638	0.10319980622297874	0.16293394905048436	0.14353573334357395	0.16214630507543726	0.3586782481710226	0.1436266754075316	0.2878545962094597	0.191937128156754	0.38055102330620133	0.47161975496144476	0.5379733593918572	0.13724800975655932	0.1957848643777132	0.37288176613376095	0.290720657021544	0.27217185886359674	0.3017817369079933	0.09569497583796992	0.2338186177640343	0.25107531611122064	0.10220251615915608	0.13086382855378276	0.21116870217537453	0.2427724887296671	0.11010423643020283	0.1492676950373492	0.4094513767894708	0.3115559345429801	0.44382738315092535	0.26406353961507495	0.1824895446741221	0.10330389537547834	0.5032574009653838	0.4870702119337897	0.5268293467999465	0.18650709578589791	0.17863922752387046	0.20415077219914707	0.22083479730935351	0.1910274295549252	0.2623518550776872	0.07502711416000828	0.19382269725176693	0.5112740449311801	0.45895816195818956	0.19095069514271096	0.5664704722426765	0.45604551033225976	0.25615790025263757	0.19915619445797528	0.14213929172139744	0.3849488815553574	0.33160538079129365	0.2174642206646415	0.16569999862968982	0.09403739643257529	0.20256313581259072	0.27023408352230444	0.31396215397780297	0.41332446236820836	0.48398449078598577	0.18483654933598614	0.5027828292321077	0.5178115091374701	0.09127226877951909	0.0883648546850107	0.09824768917535674	0.3016467366267949	0.479593656117483	0.03471645469158817	0.08531197696429214	0.12160829144410863	0.11568722427451884	0.20277352176620617	0.24343700537721574	0.15379028015170854	0.09488045575044123	0.14144233550779767	0.15037726935937823	0.13192306277782728	0.1807958045918624	0.21446227176853633	0.5587950561554231	0.34693072091434113	0.127139161742454	0.3383365542279528	0.17491833675603025	0.08379706261062612	0.4841825479305915	0.48996297539282435	0.4800546089701137	0.08809869506300903	0.3761051536080098	0.11231158570979692	0.22980819945087572	0.23648919268367513	0.2092137758568371	0.1521350319676929	0.287351717690136	0.17564009755166393	0.26295055374825266	0.5019230221699403	0.06240052375157547	0.20593716953297442	0.08674468014879856	0.13665007764910325	0.16156783633403354	0.07953703335585964	0.0589812553264029	0.06104301585891568	0.08825630085920726	0.1421749512184617	0.1780830488022977	0.069855529480133	0.03945728284052648	0.0438228951043647	0.03831657138434093	0.0020066922220055156	0.22023264616140825	0.1475969520458486	0.198459092314975	0.08163571351164399	0.03456154334137955	0.2050859251097224	0.26546699557372505	0.17114919121735944	0.08318009566022343	0.2664626349908125	0.18994076246145203	0.08176742208814435	0.02698349316436717	0.1430325492275239	0.11321138283245559	0.062003021951193546	0.09572764611731911	0.12290741497243184	0.2981328617117439	0.1078844476979857	0.0038929724201613863	0.24745464299979203	0.08577017859278495	0.15385352483227432	0.2548634418750257	0.41328725147118933	0.13963617453793908	0.009212400781836813	0.01853821433297302	0.17374542228791068	0.09103924431180475
-0.9350469636676659	-1.0323109138865962	-0.9731365988883194	-0.9480807935515808	-0.96218725490501	-0.9080317894197678	-0.9863505908594143	-0.9585486694266928	-1.0097379801968955	-1.0387909253248675	-1.0186564804464893	-0.9793697402747913	-0.9877945685303702	-0.9926795259647196	-0.9715084989686478	-0.9475789623028671	-0.9833977540274741	-1.0203279492181672	-1.023670029126901	-1.0379417873526604	-1.0203189558906793	-1.0082657315127417	-0.9892565492335202	-0.9523313603684489	-0.9487397908462871	-1.0239338152831248	-1.0305609292316336	-1.0061044715138479	-1.013870652445619	-0.9602012605611265	-1.0116143262039676	-0.9979998810006352	-1.0202459128515968	-1.0070036742034845	-0.9022964037570759	-1.0097753754779517	-0.9806679943745239	-0.9899510311893025	-1.0064565032946209	-1.0502783277469712	-1.0520010666549882	-1.0113016822782335	-0.9834054870421081	-0.9841741328123038	-0.9938340266120163	-0.9802595857477763	-0.9766359419814294	-1.01447370972436	-0.9952744373321286	-0.9674502211086942	-0.9491212088574538	-1.0052842960385635	-0.9941455363850141	-0.98485088634395	-1.0287680142512876	-1.0070651519977274	-1.0702213238064682	-0.984329938740538	-1.0514189709875326	-0.9726479334555258	-1.0007175117123126	-1.0133690039775416	-1.0119482132808821	-1.023618989785822	-1.03294576003782	-1.0063427515859902	-1.0153510715771419	-1.0002082028022588	-1.0046946430021049	-0.9926080071209371	-1.0288331212812636	-1.030926796652145	-0.995544102016705	-1.0258480614662333	-1.0144280698406272	-1.0139964706541134	-0.930908624755813	-0.8998579036385068	-0.9805978225860392	-0.9985602227468747	-1.0182850443735487	-0.9730264733127547	-0.9470288069949087	-1.0257160004611137	-1.0282725735077591	-1.0259142740640925	-0.9624248732576489	-0.990870360936835	-0.9542409863059194	-0.9376083889117711	-0.9959633489859467	-0.9989262967094301	-0.9748976105108824	-0.9961439537218787	-1.0170217085078768	-0.9958717430092092	-1.0007570557300605	-1.036022476537626	-1.018759546430438	-1.0093708699846464	-0.9750932260070053	-1.0437042960075236	-1.0333500698961242	-0.978317444103326	-0.9875430580092697	-1.0325809391927467	-1.0314579728302684	-0.9950537371781217	-1.0166095584930976	-1.01271113524016	-0.9907355979495998	-1.0029381913990507	-1.018295771271449	-1.0376552583715926	-1.017294737232932	-0.9759062449780032	-1.0094060519731354	-1.0149353960439969	-0.9937791898146119	-0.9950008884905611	-0.9027313230908808	-1.0446763156302632	-1.0014948508048853	-0.9677386904017087	-1.0009124693765983	-0.9892436889761071	-0.9982140223768429	-1.007540404511254	-0.9337621246580248	-0.9238433602632051	-1.0165257819648357	-1.0592885357992605	-1.0446709706875892	-1.0116552263417118	-0.9986128058754014	-1.0162360596914544	-1.0280547111520204	-0.969418247921916	-1.0418672271592961	-0.9517666315319128	-0.9699953401208504	-1.0145105558398615	-1.0177115385845261	-0.9756297570400914	-0.9640348662347787	-1.0635999796636428	-0.9850091359765637	-1.0457281868920394	-0.9275805889663669	-1.022092124001887	-0.9654344347219201	-1.031153748824746	-0.9855719056909403	-0.9794152135512073	-0.9342013055936487	-1.0410346441159741	-1.044236220250185	-0.964931467605189	-0.9901371093272046	-1.0471666250163845	-0.9698664427905646	-1.0282836545912506	-1.0379679712833554	-1.007843938050314	-1.004704917403125	-1.0110086540521663	-1.025561110307898	-1.0177830248511828	-1.0674218508692601	-0.9617976248497427	-0.9465709942147238	-1.019592514643325	-0.910522836120834	-0.997392975237646	-1.0285733410519435	-1.0587723937316884	-1.0777341698614102	-1.0215916627612451	-0.976830734103238
0.23512990118235766	0.23944921689663629	0.24976325522523685	0.0415662177790503	0.04030666860767164	-0.037175504989181415	0.12996165538323573	0.08988720934013907	0.14897581021719414	0.15566535501530077	0.13796227069268108	0.12167108811327744	0.12876304845241565	0.08581399059084836	0.10445545387674611	0.050023232019560035	0.10927294989875373	0.17061293946570266	0.1520613713702864	0.08256256430074764	0.10407622138860763	0.023542935813321467	0.01598625456304735	0.22978330260039798	0.19233111648861134	0.13651799702656525	0.18534981339492845	0.1233654355050041	0.15965269900336992	0.04565013831219135	0.22738448269049066	0.19052567784107133	0.15482025119368664	0.12547346223484301	0.012992297352444018	0.1585188156376507	0.0648432688613071	0.11835378732767991	0.06355201222606356	0.08243394339609901	0.022034474348356883	0.15873611461844733	0.13310624205840477	0.1142783704979095	0.11814914982518289	0.09795268658815175	0.09073721669627523	0.2407192986430181	0.11228585801192743	0.10608540960751368	0.23797835926167993	0.15715534637828688	0.12603136205971505	0.07644757169135362	0.16848372440896758	0.1430546778872922	0.08045108613372313	0.03658788658012663	0.08172946282052367	0.11991179619057389	0.1297196309548348	0.20120940839396378	0.046795156449953176	0.07976616051743902	0.0632065576510039	0.1368401159988054	0.12997311208383067	0.1065035281570434	0.11383694813174029	0.12725142786754562	0.09530343367021839	0.256979715098194	0.1360384280350727	0.05999601715241741	0.05621859474001743	0.129639155058913	0.04139987258038409	0.28989588363759816	0.34471712001201565	0.1273204449913773	0.14230690077572705	0.18862802836190723	0.06812848392152966	0.09904037962509497	0.14814430247350346	0.21367759878045184	0.17621214567479276	0.12033437957538674	0.0638811361420472	0.3179163576661063	0.061919023578688656	0.1087335596716714	0.03422074022444008	0.07903351738661595	0.18404456716732898	0.22719530792569098	0.2169044327452641	0.07036129515967184	0.09827032640890902	0.2688141384261931	0.21456315007453292	0.2100077813012619	0.18257310651143793	0.09760078225407444	0.10242762370265314	0.1425670068731093	0.15718625412102433	0.1429210418498923	0.126554050501767	0.15275198582675592	0.08718942043059234	0.09081813486256167	0.05026590633968987	0.07593405147571007	0.14261436764419566	0.045261103477565665	0.13410322361533233	0.24596201317167748	0.06020331668085223	0.05621034113772015	0.2550287049577635	0.22374480325045348	0.051795905733831346	0.2046523936557202	0.09864335668332312	0.11053489957002187	0.13041600414861548	0.13267353501456602	0.05038927308056347	0.1022082317507209	0.026003304377414327	0.07302781974745089	0.2727162667327971	0.12654119017023419	0.2437320106487903	0.13428936601491126	0.1567181534646256	0.26131657645377904	0.25772922177837726	0.24892020231376955	0.23205062530365272	0.1401648073029918	0.14705294708971223	0.26353837775461275	0.20899952517189685	0.23048418679581267	0.2572845566513938	0.27390064100614214	0.05429853359586796	0.1517803264778912	0.09410474265993445	0.21489981558223553	0.26800246521563403	0.1075154154662692	0.06441096528949307	0.12033798529420085	0.2494721143896364	0.06773300999462882	0.13131300790275913	0.2689370407646116	0.2339833471741813	0.14164278675206277	0.12474504418599384	0.1424787462596005	0.1160598610779869	0.12669177081511612	0.04210574971980072	0.18648432432122736	0.2862687509900707	0.07483140035587364	0.21438700128675497	0.12964506079765337	0.08834352089665555	0.02865766572927854	0.14217844062103174	0.16160184431592917	0.22089747252741943	0.1086538830223875	0.21432381198879635
0.3416664900831894	0.3117213712298106	0.3344164039066574	0.021397536733102462	0.022888163760891755	0.07163808254085346	0.37452647764657654	0.13092839307889734	0.33159109330116937	0.3210451349295382	0.3298769301104041	0.36083782611191106	0.13274176149550346	0.08040895354225033	0.19552614106956645	0.3415666305213808	0.35568044057606657	0.32148470337136215	0.32031871542347584	-0.039488156905580385	0.3250736615483049	0.1741469380102586	0.22940826706630946	0.3391592256207199	0.3429719996026783	0.32659293994934063	0.3257173739414226	0.3351733071514478	0.32952921501664645	0.0632960862451793	0.3212667928472493	0.30920775460944044	0.31987109856115614	0.3394205424679422	0.3391284704785148	0.332198543529356	0.2927489863385094	0.34668742713909045	0.19139533175840293	-0.027982561834191594	-0.03965602098933693	0.33424373667316	0.3562966862393418	0.18682460418773117	0.3325846606787239	0.3217538704547872	0.3615620643691978	0.3153927303558653	0.34144831667191516	0.3513370703059466	0.34646570467142446	0.33722441108126333	0.34725878116791464	0.29057520416021276	0.3290858683143624	0.3348283684993305	0.07251136290944371	0.26313953553986036	0.04497064840526613	0.34758677224097456	0.3364300637930381	0.32402887433083183	0.050810448611979975	0.05572751071291113	0.014095596455492715	0.3282976988528944	0.32548685417512285	0.33649885730233964	0.32478632481297987	0.34403916339921675	0.3307897264925441	0.3097701531160867	0.3464968655866608	0.007582588905487131	0.03223924238231246	0.32944866143411844	0.0064672912842969055	0.16015056556747886	0.24004384082383434	0.3327592134661376	0.3254542195066087	0.20431394729322283	0.33251089729064764	0.329377422138441	0.3059026381721319	0.31704055321620944	0.28137885294175147	0.3520253968693573	0.3047764884614381	0.17472651265579042	0.00849411556150012	0.31294741178509766	0.027948410212767616	0.031823807009152966	0.3277946439128018	0.3277746487093464	0.3307597164451782	0.20697267323151025	0.03226371569365841	0.328931892094367	0.3383776065392363	0.3124289235437071	0.3157697617334491	0.3645763572806441	0.3330091271870785	0.3167089468362917	0.3233543498981925	0.3408714689514324	0.33225276520846087	0.3207286192037876	0.3649323614995863	0.34845468683932346	-0.04446518018661651	0.13335016596208593	0.33665794405767074	0.2678567404251041	0.3292655148744545	0.31413180949969965	0.053843776385801984	0.046220723889066506	0.13932933133286207	0.3147355248371474	0.11998657592644177	0.33704141619824435	0.30656851186671585	0.35236152252367614	0.3365908070283499	0.3411599850595443	0.29324247845722956	0.3854050859141057	0.12212624319296042	-0.09127295537435293	0.3176468568686319	0.3299252171379059	0.33519004799568863	0.3296121287251003	0.3300936900427467	0.33829085901998324	0.32254513606827967	0.33826037233263245	0.33694198119998703	0.3318349267786698	0.32881479226498617	0.3369418007726784	0.2981530615442139	0.31626354945418655	0.31977129983228947	0.2924366370012778	0.36801589853261635	0.32245457970188984	0.33746245680877807	0.3203927272200002	0.34477756087950406	0.3163295034930712	0.35712555423373193	0.2855160103071799	0.30735987143967025	0.34588587167571916	0.34650489117228134	0.2879215428320435	0.34074211771698926	0.3180634845586904	0.2934145029454007	0.320515008071788	0.32678880022459417	0.35090772973576	0.1750952442952024	0.3120471970001262	0.28351366104641246	0.32367266129040106	0.33813241320598064	0.331491091567331	0.3960908406498772	-0.06384195710967006	0.3234683318474907	0.29081534418466193	0.2608885753396381	0.30188467802557056	0.3320383658866685
-1.117156177073174	-1.174610876923405	-1.0928786909931771	-1.12161941850244	-1.1543829597789443	-1.2508962906980006	-1.1121533958492675	-1.1210520089414533	-1.1102701423212569	-1.140808673138521	-1.1193875690065431	-1.134616792298481	-1.1273791723107784	-1.1578769574130834	-1.143322097675128	-1.2477772593801835	-1.1562158220818968	-1.1737668517339286	-1.1354285190767004	-1.1876588309544072	-1.1035526625649996	-1.0997184831445925	-1.062915740909827	-1.101920514053114	-1.154824595551041	-1.1192314104540502	-1.1713696315741478	-1.1411887504019755	-1.138118435475464	-1.0352826141783664	-1.1596579513397605	-1.201368805725341	-1.1950385720074894	-1.1518132806566337	-1.2982835823829202	-1.110201309968236	-1.1624348077737028	-1.1441379954867046	-1.259882601283438	-1.1894808885228245	-1.2579599404715742	-1.118453502157758	-1.1588319575492727	-1.1334362555095885	-1.2640587558562884	-1.2120144695793893	-1.297105306301494	-1.1576078175128164	-1.1905477186196465	-1.220556467474777	-1.1357001613521915	-1.185619565023989	-1.1712825018844384	-1.131260419421735	-1.1216638063995836	-1.1162983368171184	-1.1908448794705608	-1.1422599136518505	-1.2195743167842834	-1.2219716329690273	-1.1429105138226814	-1.1673145145182386	-1.2608169420859288	-1.2377449213735034	-1.2709239570509228	-1.1399036672369867	-1.154397613975172	-1.1249757074952766	-1.1681308991876866	-1.1579207801488633	-1.2052935619119962	-1.1568134169215587	-1.1536083959925898	-1.216136689601721	-1.187351284330633	-1.2120129974766705	-1.3891337601226994	-1.2124469203606492	-1.1141616577417388	-1.1695754101736062	-1.1794578446107198	-1.1724680883781113	-1.2747791911821114	-1.2007740505726112	-1.1502583154300767	-1.1506364279797467	-1.1071611412182802	-1.246278904138024	-1.1984830732592358	-1.1473720856962892	-1.1652849386384847	-1.124074975311109	-1.216274378477865	-1.2328955773851225	-1.1301592790013293	-1.1580658989942512	-1.1607813251473067	-1.0958834432954105	-1.1253985225941854	-1.1135197744060987	-1.14414565415323	-1.1596725880749037	-1.1167968260198748	-1.166036055424273	-1.2155730365453348	-1.147564881810057	-1.0756701301282963	-1.1248823476710188	-1.1149179279771275	-1.171186105415073	-1.097390929350858	-1.1523604852107239	-1.3369908462861086	-1.1710652519928908	-1.1064190896492807	-1.1772864892071286	-1.1510423274253143	-1.154320370409673	-1.2128428222679655	-1.2177002531165568	-1.2694825826650225	-1.1539721968962404	-1.109696933691289	-1.153500633220045	-1.1592843731701539	-1.2092469267841452	-1.1608928677137362	-1.107407666616427	-1.1596064366841639	-1.0815463282508804	-1.1015919682088817	-1.196142282895565	-1.1651810942110308	-1.1763864458877216	-1.1522769491587936	-1.1386664560051623	-1.1526370637730554	-1.1131143228556217	-1.1419113745427352	-1.0751641720381457	-1.1050150187698617	-1.1612940226437973	-1.1818394879157776	-1.1091090813347817	-1.041138404283571	-1.1217014486406238	-1.0663675495933875	-1.0938642091990816	-1.2137898266801146	-1.1843201720327599	-1.1416879344526558	-1.1585365292964933	-1.0918861223744014	-1.216746208811942	-1.2273231348550537	-1.1158875382101627	-1.1081628841908926	-1.2468526285924855	-1.1640679161755776	-1.1265539728000629	-1.0884514075781182	-1.1199042867112123	-1.0653088504556976	-1.0466668903714884	-1.0285929580901483	-1.105967258246759	-1.0393850161774454	-1.1149308829870512	-1.0797280066092918	-1.1701784107069686	-1.1181205559649328	-1.1220919389391926	-1.2193927304723922	-0.9974127233606132	-1.1197428723493708	-0.9730765390542346	-0.9926663049833986	-1.133060733451739	-1.1285456354186059
-0.14795465086772777	-0.15464945200350322	-0.13836106094160536	-0.05363924112300278	-0.16352445826041975	0.07629738322204466	-0.15445679066076298	-0.2660605594484987	-0.1320178251517741	-0.11339565027445156	-0.12837579647575453	-0.1704791467766428	-0.21214031418503768	-0.15894301495551907	-0.22349970929610982	-0.1477717139535856	-0.14498330437837983	-0.11503393589207914	-0.12510391861218245	0.04903396037743168	-0.12943199987722578	-0.21550672403764407	-0.21550845268797467	-0.1298020764421924	-0.1789411162094631	-0.10485373365674727	-0.11698640682573397	-0.13381899893315444	-0.13627563796687814	-0.26276031350908147	-0.1447205621832661	-0.14515344192765292	-0.09177055317996274	-0.12543253731849702	-0.121342714247302	-0.1551359492636434	-0.19552452443712784	-0.18318000279970023	-0.08441618947885038	0.019468515693838354	0.17975456934848386	-0.13876523370189006	-0.16728768340592098	-0.22177644732490356	-0.0981340811106153	-0.139826282113592	-0.030567553541366088	-0.187852147133701	-0.1172712383600136	-0.13610368305386147	-0.1947242866351193	-0.14055584420910586	-0.14816430424054264	-0.18565327327573225	-0.14179174515419174	-0.14363871373831816	-0.0010999239397643523	-0.21739942222784533	0.027195673498894346	-0.13904872224079318	-0.09871320021259769	-0.16750080449897106	0.1524923931443744	0.18250197520763928	0.18700031719589183	-0.10492291883661939	-0.09380528837393418	-0.1517964208916642	-0.07774992706564046	-0.12887258459641154	-0.022974505985517868	-0.19678025723910395	-0.1268493313737253	0.1072614012903098	0.13917220257580787	-0.07476163849251416	0.33933111626157264	0.21663784095244923	-0.09036391022098988	-0.10210919350749961	-0.11000727630617438	-0.1280467927401356	-0.069252564060611	-0.03685458430089099	-0.08447229729985237	-0.1628878897000859	-0.2117593500811393	-0.075241796937042	-0.2007504973014738	0.13038642514468293	-0.06969969535064344	-0.20129796586958335	0.023461298826846083	0.1306894162071926	-0.1606722883554058	-0.15432087029905422	-0.15791993683175287	-0.2161832546011627	0.16363610323802608	-0.19927774725568817	-0.16609067845928543	-0.12225712186221346	-0.12421351533795197	-0.157420196842224	-0.1224761869951915	-0.09632884235398478	-0.14729215169470036	-0.14421455782690454	-0.1062305157787592	-0.1341247959114998	-0.1622659660606419	-0.1352942448550253	0.3570225723137206	-0.1222246761136398	-0.1376117679227575	-0.21532457574825045	-0.11442817290918697	-0.18952727449500226	0.0704790785844149	0.0694700840675712	0.25080508310156846	-0.17011567311669998	-0.19925717019003267	-0.17882785453284697	-0.1676448260848776	-0.11329029238552393	-0.12770955703915118	-0.13388788750943886	-0.17101165572349483	-0.2707510852640229	-0.19061988555866913	0.08855635748610395	-0.15889227939754821	-0.13245875396733525	-0.16428097792822274	-0.13012905432969898	-0.10008102399869803	-0.15257007828101019	-0.1640626907752558	-0.15394229885427296	-0.1474546769618558	-0.12451412478106313	-0.09831506399777754	-0.1679097378071828	-0.11580091420177122	-0.14423588805305462	-0.1344790394494362	-0.2106208434669616	-0.10354710413368648	-0.09891207110435082	-0.20901029032881932	-0.14842329491245165	-0.1650347306921155	-0.1079554152204805	-0.07038105628623895	-0.15639026013943094	-0.16598642526128304	-0.03801989270683241	-0.12010304905328933	-0.13157534174626398	-0.22094592054287795	-0.12052379032216201	-0.19020183328781085	-0.18599292578889157	-0.2587691531131	-0.15825498413433708	-0.2105675073407078	-0.14976425665231263	-0.21451826484172146	-0.17467087275051338	-0.18076440541260566	-0.1398406885503207	-0.17760624799228988	-0.20601233718325787	-0.12107969885563735	-0.21127618606130458	-0.181454539128408	-0.16134243374038004	-0.15224016831287926
0.3555329849563895	0.302248680944064	0.36244937052298365	0.16294603409242137	0.03727550115952728	0.17644054839589604	0.22193993542519555	0.07726099102609417	0.26224180871722025	0.28679930532708375	0.24759876290073876	0.2142569311291613	0.03668174020349203	0.03980522010933206	0.04880022290839171	0.22289740495482355	0.2344966440789739	0.2928395842556031	0.25661948264312084	0.04753848639162543	0.3074311335067311	0.11330245649155504	0.1642783114222637	0.3630837400826724	0.3807559903469171	0.2536055076375925	0.2875300284265627	0.250016651829458	0.22291036922955923	0.05185226611978261	0.31891405757430424	0.3365623276138814	0.2931984153364511	0.2503908203269921	0.21531238863926785	0.22099733198679058	0.160406449254882	0.19641635880473923	0.09952642009753829	0.03994265252641516	0.0759438664114256	0.21243669617912822	0.17319014353598558	0.03399452431639771	0.22523020050129708	0.2151602204648755	0.2280140240499646	0.30481898803920693	0.2104914090460313	0.21159955589611726	0.3482001219209645	0.2738209661870137	0.19088314196417155	0.19273160373881257	0.26092067335913316	0.22695367977839312	0.07647700854731614	0.14159807318760598	0.08372485184680052	0.18966889793846423	0.24487538494810804	0.31636274901063044	0.1255933821577898	0.11742040594186631	0.09844938449180907	0.24661936722642727	0.28467474062790765	0.2273407834294159	0.29600545130749933	0.23946971011903953	0.291466165904292	0.3189048528680023	0.21264062119513133	0.09310141003311867	0.12652621978229864	0.2548693844351665	0.13951154288294113	0.25206373877164345	0.16348464342199337	0.2691680151825261	0.2661865926648701	0.1720408532849498	0.27480447815545084	0.30183900197698865	0.2787033586905898	0.34223276959620097	0.12702898985993397	0.2066229764855945	0.14946157599230347	0.2538771094258552	0.04718214167429524	0.18604553464566995	0.09920955794480316	0.1395778587221212	0.26229379689249765	0.33654506963363784	0.35160037994281046	0.09517822660586639	0.1769869760928358	0.2882651645923918	0.35297986629543554	0.3118499647987307	0.2680280702454315	0.21484967780964423	0.1950702420996473	0.2951252116444456	0.23737014275250143	0.22551609291554545	0.26426899903551615	0.29433581079405347	0.24320424867589904	0.24573008711981245	0.11245957644648233	0.06716080810554376	0.22955256278750383	0.15192013599701634	0.24985423252959268	0.31347581159588345	0.10668901607669815	0.0991112520213355	0.2375947173795898	0.31080096722771233	0.06105353143424219	0.36012167181897836	0.19611427681937715	0.20108299234832078	0.21939947458348072	0.25470958853571013	0.2123947136514794	0.20633205986108527	0.11158707281101807	0.03677977261395077	0.2812821082901912	0.2136862645514531	0.3400962199708115	0.2688275017517886	0.24144489434810665	0.3481617697847794	0.3143251140890151	0.35939430847872644	0.35803289635629976	0.2637166739813096	0.24755336633407374	0.351219465121567	0.40579043847482044	0.31280050096013157	0.3800278101651797	0.2695280276904197	0.30382193461848983	0.28065948796195317	0.18227926611321787	0.2979284142487221	0.34768621178452763	0.3307218077387666	0.32688101814203663	0.14852985266770422	0.2746174574214195	0.28932561838777837	0.22505497537307304	0.2935268720556963	0.34396125301068214	0.2847148225952473	0.16668595582615311	0.22371790320554233	0.1663326388174036	0.20445275460280324	0.10918103635205964	0.27316515679426456	0.245743336025284	0.20827342413143557	0.361653577601991	0.19548512329214704	0.19900152049392697	0.007007704209963911	0.2856101513992173	0.09213894118680879	0.1843455080968291	0.19105342558701008	0.35414019430534205
-0.24862177704754254	-0.3150563588377048	-0.25890549498494597	-0.8377901692658257	-0.8018042562962856	-0.8224111969840748	-0.30705556938152256	-0.7159749000014444	-0.3558352249483123	-0.3225398403810057	-0.3322672801120867	-0.36227398241963527	-0.7262542880224327	-0.7689982217352329	-0.6646974341450771	-0.5502749946813136	-0.3708571558951743	-0.28984304499922176	-0.32156387573268996	-0.8519316137843373	-0.3202134600911739	-0.6313651341450653	-0.5847495064582462	-0.2592162005375296	-0.26097903067477446	-0.3339091225659777	-0.2987883486816878	-0.3157982810698582	-0.3360394097079028	-0.6168521045710541	-0.2802806601497957	-0.2897755912234782	-0.28529154834097203	-0.3150146263497382	-0.6111869567928977	-0.359654488709204	-0.5859714113574868	-0.4175835543422085	-0.6798423209114522	-0.8115874710532377	-0.8235288256732962	-0.3146389563457218	-0.37012141830421474	-0.6896599344172002	-0.4837260423351012	-0.5024611817179983	-0.4050617394830457	-0.2906064217416988	-0.42867017861806367	-0.4429155984001806	-0.2506222134921099	-0.2793543986589645	-0.39145214758727465	-0.5495419383925638	-0.312324499750678	-0.33671490764104905	-0.7063941980515547	-0.6184099079778586	-0.7401818421748397	-0.4444303071856831	-0.34373926643573893	-0.2900732436299296	-0.8387437838573205	-0.8662831971237227	-0.8715783743724246	-0.3485560196193319	-0.31664544797319594	-0.4209382355657245	-0.3510495842388617	-0.3581172130770185	-0.3808950712999516	-0.30454680285867064	-0.3586332852244869	-0.8562425848416105	-0.8303726370237912	-0.30164333221358386	-0.9288899675518564	-0.8799421077165328	-0.7625829033735317	-0.3457428640542354	-0.3046931550114963	-0.7113488231517766	-0.5131594428277445	-0.3376002058783444	-0.32013172495201314	-0.30162753469648296	-0.6574843041930346	-0.3827534102133261	-0.6137225905312866	-0.8630764975288271	-0.8513662376319278	-0.49557396644157703	-0.8569115675074598	-0.8970436380951136	-0.3098437287641327	-0.2795044312875896	-0.2804089534754157	-0.5808871323262845	-0.7991153670933685	-0.28584869829838	-0.26526627530529845	-0.3264622260507516	-0.33871225684384565	-0.39165904887290515	-0.4739578975209261	-0.3218267635895	-0.33989208419511274	-0.34748122874321363	-0.3234494866156349	-0.3072717938466881	-0.35975264875919055	-0.3851446094812647	-0.8891292046070045	-0.6646805958834711	-0.34274886746959554	-0.6453353064723734	-0.3563402065499168	-0.2966921127231291	-0.8524020091135827	-0.8369566402041231	-0.9205670907943625	-0.30968816591173676	-0.6858955098117135	-0.25687121183309936	-0.5001934028108047	-0.41297606198160464	-0.35821091823723217	-0.3162012333326861	-0.576177915154815	-0.4178818853287397	-0.632136955074602	-0.7794597168790629	-0.32346720759971903	-0.4395004865844572	-0.27569691103662686	-0.31413290610225864	-0.3345640299087036	-0.2591045996335969	-0.29862266012779837	-0.25673428384470753	-0.2613050817779303	-0.31019199361818217	-0.3071792009987391	-0.259548707935946	-0.28616200484378473	-0.3175880709732025	-0.27157000852901936	-0.3218250532761866	-0.28590977104844795	-0.29534746523664157	-0.46794221393204727	-0.30095325498626446	-0.2648338592486559	-0.30614521131048067	-0.29435700323979486	-0.5036115756304026	-0.3389328216492825	-0.3323133706158863	-0.35978030312987075	-0.35045902267011364	-0.26564260097456427	-0.3413037042391803	-0.4796110615575955	-0.38203078409057056	-0.41150804547490294	-0.3587900094525056	-0.6454460482620434	-0.33839024917101146	-0.3237367614473774	-0.5161370200797774	-0.24592001438056468	-0.38084892567075324	-0.47802499371714013	-0.7017076790321037	-0.3258348542269167	-0.37832033949552557	-0.436893439358936	-0.48646154618724546	-0.25872102648624995
0.38897157014166184	0.38185425883542456	0.3940683912218116	0.27160292794466356	0.3102086369802285	0.28742440720355755	0.35827153211972884	0.24424999055201152	0.3769288260495858	0.3932522787973637	0.3813007278613786	0.35702177656550715	0.3138733443530223	0.3344697709225438	0.31055511970204175	0.35213605669119363	0.35793083602059406	0.3803512634912437	0.38293564458817253	0.3585057024797771	0.3912983122152941	0.3325585367908507	0.32156088099056146	0.39940182541703684	0.37469067605057704	0.39208318583395374	0.3837178392641518	0.37789206594941505	0.37370089323599387	0.25187032777838736	0.378374322634902	0.38006439937059655	0.393189512214445	0.3725081074283686	0.328231090941252	0.375144998595455	0.3436580489466712	0.3581789252372328	0.3841608074085008	0.42149053067807485	0.4321782312883513	0.3727999729002597	0.3382645603435167	0.3243929490341355	0.38626402708689145	0.3619577226688956	0.36466093775826747	0.3703892513616672	0.36479293422312253	0.3498307109159611	0.36141727015210323	0.3732063438602157	0.35767642692514634	0.3540394710645819	0.38105903846453937	0.3723513419343957	0.3910305258155169	0.33799671603352155	0.3874047867313868	0.3509034041447533	0.38044389769016573	0.3773543008442286	0.3626987077885322	0.36763737625399706	0.3827998659061105	0.37553339935930985	0.38087438415792496	0.3533638826481461	0.37573988890470067	0.3680862424560627	0.3726753589856575	0.36852960421009995	0.3641660298716144	0.3817104671673127	0.38122803246865733	0.3785507340277059	0.41889540244111934	0.21741324564537837	0.28732041120596674	0.37469041514754997	0.3853266548472183	0.27536100322912327	0.3443310255309132	0.38609416337628755	0.39770790287774593	0.3887980218815622	0.33079090221327623	0.3611633848860534	0.33549413089031366	0.20568642028693446	0.3462228543690926	0.38168582008846375	0.3559513488185495	0.34427947240905943	0.3806259271679866	0.3801313735948154	0.37673660225778305	0.33137858520526264	0.3655474703106536	0.36813063918991606	0.3747164938160369	0.3890186897373219	0.3886483913023503	0.3588396614255226	0.3786330590799617	0.3914804731686836	0.39437876794487936	0.3814480121522412	0.3893156828654275	0.38589135696734433	0.3510633702329786	0.35957688192309845	0.4517555274549446	0.365413165641872	0.38689588308913814	0.34012274708222057	0.37987135931377514	0.3761564422555671	0.33157284906145623	0.3279730437100694	0.26778688300616227	0.381040569578044	0.3183847602743183	0.3698706261757406	0.3698734947369611	0.3706051713050956	0.35708251338240515	0.37158154891679873	0.3080982898322935	0.2945503514755662	0.34107504150512336	0.4129216553718684	0.379774594159908	0.38659796224599585	0.3679786106708014	0.3833632189587295	0.3741954827979662	0.3798629017628101	0.37796503916349666	0.39485207880847195	0.3890596503146191	0.37961317260918703	0.37225857454140554	0.3774506921727737	0.4569309763545468	0.40478182605360136	0.41118685812846045	0.3928367614366073	0.36478361485512456	0.3886786582553243	0.34814685633186815	0.38922655941944506	0.3791705977284243	0.4030185453856082	0.36940908287696095	0.40449450086965344	0.381648824510635	0.36882019031067936	0.3719293581092654	0.3956524537200431	0.3616147140442496	0.39125213525198954	0.40874175922223943	0.41116015403374073	0.36917869821950955	0.3799830381581327	0.33131655960549977	0.37928549024753455	0.36296685050307254	0.3522592385722487	0.3826165801344892	0.38571167820335817	0.3285871648401967	0.2854694905778562	0.38657002344262936	0.3916915679940711	0.4113528727383764	0.4008699167604116	0.3782743517871556
-0.6737059708056781	-0.573591438918947	-0.6434619314645568	-0.6376097475678404	-0.5992026600209243	-0.663569018614066	-0.6274916055877203	-0.5872556192289423	-0.6190942560983718	-0.6072949231980043	-0.6082922854949621	-0.6294967610220258	-0.5820330939522658	-0.6109922242052103	-0.5779482229451143	-0.6127264689768772	-0.6359357883535037	-0.6270773571112572	-0.6136424095093821	-0.5851519491367472	-0.5991824925780896	-0.6053804560799587	-0.6287134415656075	-0.6634130310986067	-0.6459647449029318	-0.6129179868693437	-0.6139151280200029	-0.6108905005806208	-0.5961539168946505	-0.5367958737157558	-0.6177009401613642	-0.6302094269582849	-0.6403018200595562	-0.6192269844096975	-0.6371377648238179	-0.6119784648267733	-0.6144667966487959	-0.625427716818224	-0.6109895572079359	-0.6080869015141065	-0.6596015492352847	-0.5941724754601082	-0.6365148529905762	-0.5786682992457001	-0.6263528544295791	-0.6408478012944863	-0.6829890987150885	-0.5703179222271665	-0.6639448343180511	-0.6547960092707878	-0.6352174305353746	-0.6148549654438099	-0.6483201751237454	-0.6131937097687713	-0.5947122670865118	-0.6016053238838165	-0.6475192398731237	-0.6122417245569102	-0.6464479575896951	-0.6530495725350962	-0.6478735841884858	-0.5877021790098171	-0.6666814683381286	-0.6464328058359499	-0.65186422728618	-0.6377199947991702	-0.6423546052321659	-0.6792474359703959	-0.6510189923657402	-0.6028121174523783	-0.6950756146052587	-0.5512796829962594	-0.6427943707277527	-0.6310168926030583	-0.6421049757746756	-0.6476932296716623	-0.6441849930705316	-0.5743686031982573	-0.5001868069818659	-0.6214522783800803	-0.624167446679999	-0.6002862680816874	-0.6625666020480504	-0.666360248965752	-0.6228722034982326	-0.5904821362359828	-0.6001265885453274	-0.6824429298856204	-0.6110465460057454	-0.5304913322235438	-0.5943576507508204	-0.5937916813420826	-0.634924651851616	-0.6516134561459087	-0.580754802169215	-0.6153194707494797	-0.6139191843560415	-0.5853698076547137	-0.6363601913256559	-0.5618877923414937	-0.6237174576552605	-0.6030679723031184	-0.5937458880357059	-0.6455968742798898	-0.6551751712134123	-0.6321852722921523	-0.5884505123234445	-0.5983825320929429	-0.6295644884410362	-0.6107490587565151	-0.6640133632499766	-0.6363098328335699	-0.644075367180078	-0.6045394326634721	-0.5976761686733422	-0.5999050076463671	-0.6287558038756303	-0.5811423882211327	-0.6293431398881757	-0.620454612035557	-0.5879660003966106	-0.5579605499052219	-0.5788218161795765	-0.6343271756802014	-0.6176160656582348	-0.6767983896214181	-0.6159837684926013	-0.6317496251317954	-0.6260451637585854	-0.5943827735021942	-0.5923509810149508	-0.5841207661361234	-0.5423206257975398	-0.6473016573731071	-0.6121889980987355	-0.6111333946258303	-0.6327971473423967	-0.6330387531024999	-0.5682957812737442	-0.6431941571908779	-0.642176523516672	-0.6143261344208429	-0.6218994111907813	-0.6101781061720922	-0.6679186145082181	-0.5623165652750167	-0.6264203924572699	-0.515116757316146	-0.7124836415352016	-0.6322496268997926	-0.6155220744517417	-0.5846425988457844	-0.6030308559093653	-0.6328984884982415	-0.7080544777311245	-0.6180496233390083	-0.559579089097186	-0.7143259262220659	-0.6277428805229521	-0.570167497322474	-0.5999002332639263	-0.591874355989192	-0.6047335615187462	-0.57681529822506	-0.5910235660553441	-0.6187800258346825	-0.6039064962257658	-0.5824518212522801	-0.4831920128072323	-0.6260654510793779	-0.6328448525566968	-0.626290624701281	-0.6417433818154831	-0.4995387270561991	-0.6115850295188715	-0.5200543880474897	-0.5485089252259139	-0.6243810715709396	-0.6415180655861994
0.3292028408674965	0.34846882660601974	0.31154202234641293	0.49118942854264913	0.3732457674200922	0.604699353006247	0.3394287426121625	0.362409402499682	0.3438605538088664	0.3673591777752062	0.3520410431401907	0.33805264203526775	0.39587956741573804	0.3920371943515294	0.3881654661414703	0.4324299989638213	0.3553524299462355	0.367658495048786	0.3410410574395921	0.4364060421432039	0.33636575086512743	0.3601119893414535	0.37579635323616534	0.3156710692307765	0.36435750992009575	0.35719731260006105	0.3691551657944978	0.35214780581300065	0.35347957750688386	0.2930204560128472	0.34893749737636737	0.35699322835954583	0.37487507025781075	0.3629468181376596	0.4149075002736984	0.3197287253865718	0.376993709901173	0.34905839964979357	0.3703772251316979	0.39925002858025704	0.5110019263084228	0.3440629820762984	0.34116650358853995	0.3985489646789372	0.3977420261703817	0.3760054899346177	0.4502831717567227	0.3390015851717961	0.36831330314117305	0.37469570321171575	0.33270497771273655	0.37158451085750765	0.33655576238368945	0.35856267110314277	0.3538905612892963	0.3385251494668343	0.39751796419347774	0.4027026909801168	0.4167445120815846	0.37772435443717034	0.3601335207098161	0.3541569358353096	0.5666253795071804	0.5881453935211809	0.5392585769222715	0.34997396087625354	0.36942289568423226	0.3151157025098099	0.3799959001659987	0.3751920718978603	0.40388366865680725	0.334826484334123	0.35220862243849393	0.4959887973520576	0.5652057178227018	0.3902741283355099	0.5580680898537548	0.6624372663947049	0.5200674462035659	0.38264765458099337	0.3715061700942741	0.44770785760616283	0.43446057476733824	0.40486228340904973	0.3597178940634389	0.3465232862631379	0.4594779007396088	0.3952115602806978	0.37921928632963064	0.6612850508396682	0.41422237589124666	0.350376584237472	0.485349528401656	0.5414447583945372	0.35038522163416486	0.3541439949017303	0.3611092754770402	0.31358922109131426	0.5795507429915102	0.3154657669352352	0.35813051842406185	0.36076387890342454	0.35422120769327614	0.3650906405166553	0.3715887096383115	0.3639157330800157	0.3194194512988636	0.35494887337853687	0.35176755979721197	0.3625065607714105	0.3289255935456187	0.36107944195273667	0.577015291879331	0.34879436727058377	0.34747837919501345	0.4017597868508036	0.3535541670991531	0.3360282228522571	0.5333297895098664	0.5285133810614169	0.6235894578737408	0.3459577347748315	0.3533847605342363	0.3634308007224877	0.35912242253025617	0.37127912389979	0.35765464270273417	0.3353860910774311	0.3907217156107631	0.361865112156303	0.30193007209642053	0.42172313762587466	0.34955227920636944	0.349790785918511	0.35645580970500945	0.355116390891287	0.3637882485328673	0.32479577658144076	0.34586223213932255	0.3052310991508667	0.31996413599156526	0.37087096030944133	0.3802188529262839	0.31267737917985705	0.26879732010150176	0.3398017302240871	0.2884641923681286	0.30042682459736103	0.39362559699945165	0.37212752339610045	0.38171674060717575	0.35076660245393276	0.30970315726870457	0.378568777750656	0.4085728611245474	0.3073506413154137	0.32550721769830415	0.41778900137771846	0.370739625209516	0.33409514720241995	0.32851249169811325	0.3589789445648024	0.2911453031080775	0.3118495006459904	0.2888960593027041	0.3428224404418512	0.32044999116553763	0.3503476678282599	0.29585246822776357	0.38445521563594565	0.3358524544386696	0.3294499167700754	0.5110693925295187	0.32967648812851724	0.3539118520537704	0.24643775761569295	0.2232743001683676	0.3220770090667937	0.3409368141269503
-0.7082636850038089	-0.7438356792542404	-0.7027235319496227	-0.6472135633264162	-0.6447135188050488	-0.5848621093641281	-0.666192178287061	-0.7032599079296693	-0.7182492396126375	-0.7537757829204754	-0.7353675486440381	-0.6935593438343708	-0.6935696077214746	-0.671425003255331	-0.6831835590390212	-0.7221569459869468	-0.6949260027587436	-0.7337260422404454	-0.7070905894076218	-0.6146534206447769	-0.7451351038190158	-0.6963987089835443	-0.7082496513557786	-0.7074277123250098	-0.763585953513949	-0.7439852749877542	-0.7362598846527888	-0.7241723522461809	-0.7169319343166911	-0.5763973633631956	-0.7464589601793771	-0.7405833659536217	-0.7585100333588819	-0.7235770875384906	-0.6937533608081711	-0.7079368667750737	-0.7415346919349627	-0.7012291505404663	-0.7044080081326143	-0.6379026180048681	-0.5472690088061427	-0.7108938444366113	-0.6486369154123358	-0.728592529208308	-0.7670767661480409	-0.729617933346635	-0.7300414970214829	-0.7394425316367207	-0.7112460517117808	-0.6844400161992991	-0.7362106459465454	-0.7451135570332097	-0.6827278270979137	-0.7432733494048896	-0.7352413647362716	-0.711600100180006	-0.6845615965581701	-0.7280698254243572	-0.6816174050249921	-0.7179209322101923	-0.724379710582503	-0.752217923397954	-0.5711223994071486	-0.5584426849875396	-0.5715656062146567	-0.7193661235352558	-0.7472569180680957	-0.6774111042091262	-0.7455164473704299	-0.7234448857425922	-0.7410428203376018	-0.7407794117450577	-0.7047825927316033	-0.5707234521795961	-0.5384224386495436	-0.7372698781715149	-0.6039505878529183	-0.7774031591807675	-0.8548716251424868	-0.7367258100331755	-0.7455890116873334	-0.7791378296020575	-0.7394523116915349	-0.7573608026304111	-0.7373154526228107	-0.7732094450977911	-0.7593750661142993	-0.6962298346972047	-0.7294446014020133	-0.8053221762391496	-0.6377230195297263	-0.7428127046200839	-0.5913580183555427	-0.5823964976157385	-0.7284099909049108	-0.7618149480493273	-0.7736603907541595	-0.6915570189165378	-0.5732861866825268	-0.7301593794668179	-0.7676919456615849	-0.758390325621811	-0.7414916749129127	-0.6924676988196239	-0.7300815670209937	-0.733677627166317	-0.7200933898584991	-0.7229966176334319	-0.7331019311698014	-0.7428482704528933	-0.6865779187165871	-0.7056799818115977	-0.5381737994297078	-0.6838592289891703	-0.7318042130576852	-0.7429341408636272	-0.7180703916070592	-0.7583138952393418	-0.562849947667962	-0.5510332332607953	-0.7991344038789457	-0.7506972891194403	-0.6679586028541444	-0.775234747669661	-0.7289804580488763	-0.7084279218398889	-0.7029420538297542	-0.7090531705029786	-0.70810173289039	-0.6609192048571474	-0.6432721679682805	-0.5813713586683186	-0.7312678692413445	-0.7207748126478164	-0.7704250918893392	-0.7270299671410589	-0.7245363177883457	-0.7316863254140947	-0.7641765647481943	-0.6979600400358151	-0.7310715279859473	-0.7355299565409488	-0.7236930747849966	-0.7248642442443757	-0.7215171340103952	-0.7802744898598171	-0.7111223035359676	-0.7552862205116596	-0.7354571588260674	-0.7411973731361294	-0.6949693663896099	-0.7557960769975737	-0.7266448705142674	-0.7287278045252862	-0.7629592473204492	-0.7348074846703658	-0.729885408689632	-0.7545987627896448	-0.7195893992283804	-0.7544308133683895	-0.7698223194778675	-0.7568463525422882	-0.7309345175664771	-0.726566201521108	-0.669781864912268	-0.6887070266149833	-0.7107295375447598	-0.7425561494922117	-0.6889142611493377	-0.7262646337614899	-0.7322559703181117	-0.7080893650388396	-0.7335461395789644	-0.5972237153740624	-0.7362729500420916	-0.6577074524142401	-0.7168486537217386	-0.7310291431939803	-0.7655471182634201
0.2049545114584468	0.11085696777812681	0.21739372166056825	0.07177032495914776	0.02935588742584125	0.1040132916031204	0.1256353500575913	0.0029350292475634615	0.09857917743819636	0.1228304174658916	0.12206162492427011	0.1098738975785481	0.023704643644927553	0.05013144330658646	0.028239889800154683	0.06949280001565661	0.11473412200867938	0.13158744562932545	0.1258855145951412	0.0741977117654902	0.0755062658777026	0.05791331793113336	0.07543221877609424	0.21437165433517275	0.1570693321427139	0.11252158090458925	0.14023916597570424	0.11658488551648444	0.12075347852295454	-0.0282358613590524	0.14509177788106906	0.13481734568288056	0.13172332837311007	0.12620267942368074	0.07813677832644048	0.11055886713126453	0.09042253721731619	0.10902879291333462	0.08347428660252104	0.06606700959980716	0.10465201089049864	0.113824363771583	0.13588275489375332	-0.0022558398377912903	0.10596738399164968	0.1023383592452827	0.1649545545794097	0.1068115591477124	0.15202270063894668	0.1278263255353932	0.17077441505068386	0.12230408842711896	0.13325998541001416	0.08639296901967664	0.11494761465172909	0.11069842436763064	0.10185200745565196	0.0729013585173087	0.09585586571317509	0.12251384198197054	0.12430299943815493	0.12003771617649728	0.10112153827295536	0.07392425560690424	0.09196184458881784	0.12150878329718778	0.12312815356588713	0.14518791362480027	0.11904086120949364	0.0970224041173337	0.16582454598723095	0.1147773450486444	0.13203004555200637	0.06996662709469392	0.047105529241960625	0.15169053259054954	0.06928157408122185	0.025221729695129175	0.047190420235009536	0.10658195496147435	0.1279665610324805	0.07704641537187312	0.10756491416904232	0.13263412081393203	0.1228608725749008	0.11189340613258458	0.08737968780646194	0.16418930450259941	0.0640556371282108	0.051572347490262294	0.05431523634079882	0.09575210640265985	0.058015269001403635	0.05673347673391582	0.11265575430110786	0.14281456189133054	0.13850210522475936	0.05748680013135182	0.03710405329884048	0.14261975414272193	0.15147186768649357	0.11976232543186427	0.11440131033148271	0.12228625288552991	0.13502895014015015	0.13693709997286047	0.11101714053081166	0.10006199285808653	0.11774305633688625	0.11582890737234633	0.1265198828544839	0.12099794692080032	0.07142357133045107	0.07491078663745981	0.11230098684848752	0.05053006940080909	0.12148567435683649	0.10871073300141157	0.0715350863545682	0.07428619016718616	0.03666001942290931	0.10175708701543074	0.031045235637400442	0.1320398554338898	0.10401072091420191	0.1469831865265807	0.11109009433653483	0.12236783473880752	0.07356229359170394	0.07952489677720753	0.02500292103614321	0.10745143735668886	0.118924423254959	0.12910833320659246	0.14337852539837115	0.1200642755785008	0.14715224805390742	0.1920152102953333	0.12043241482078765	0.21218624222112115	0.19612138806517876	0.12876655147210034	0.13971262267551027	0.1846260022134803	0.17962756193418095	0.10309060678933529	0.2016982215791701	0.08984086637956068	0.16101263986722525	0.1366453902855992	0.09877615369747	0.11433816609589983	0.1903199840731855	0.12065846422320195	0.1601172773714874	0.12522948987636132	0.10364608786917834	0.16429846521041022	0.11781730279528013	0.10734986108508293	0.12476584617786496	0.09513698800606551	0.1053607307092641	0.07718490379526399	0.09772874211443533	0.12857467441165427	0.06483970705139191	0.10473801138172956	0.1446768288950852	0.09192318295006355	0.17251259197369473	0.1361725087990285	0.09035795043661801	-0.034477604178980575	0.11678738808198424	0.10287543615563638	0.09275380672785322	0.12323077938255303	0.16153306137703263
0.2396758611187046	0.09386473779957412	0.24973595440822316	0.21661493332166937	0.1968033937732402	0.24514691347147727	0.1285637162232084	0.13543189572707198	0.08929750517844567	0.1021220015017069	0.100794110098711	0.11279192197028913	0.16755900324373807	0.21320130637349793	0.13826312675158753	0.10053160414659802	0.12722957976437715	0.11825074422978277	0.09842538678137781	0.2718564930231666	0.08058614295771203	0.10057984359416429	0.07043717287728225	0.24219025850082682	0.16912866287737027	0.1038934672983382	0.1268425806933438	0.09919140812744758	0.08608855594656728	0.06581130139821437	0.13916423975419756	0.13632028899389265	0.11738448510430073	0.11250049964629631	0.15557946856489624	0.08329242762052318	0.10363606540952401	0.09478020199629887	0.15001401762905958	0.2585745745687259	0.2965836626382216	0.08074804212532039	0.11976016428731703	0.13543140772217271	0.13123932148848055	0.1070456388225567	0.20050643970947435	0.08474596205103506	0.13778416677290745	0.13462393466252914	0.17637865186708124	0.10019075251866534	0.12387266122338493	0.07993703761062679	0.0832105265421611	0.08894221309837157	0.21789435758869957	0.1115627262486716	0.21974934686120162	0.12622235839244017	0.1203337318901945	0.1052472403531399	0.27914232506109354	0.2834667326477123	0.28818252718163484	0.11466946568217654	0.11936253637941406	0.12329393955644877	0.14403880317332174	0.10907745813336256	0.19111814506170072	0.09459720447973252	0.12090240298011708	0.26886255208432736	0.2506192563350125	0.1381067390460426	0.2970025777162803	0.3481787581290326	0.17589143356103976	0.12362106942961275	0.09947254689275904	0.15632498712422138	0.15625870688367122	0.1613645422029445	0.11269350427953144	0.10521510834637257	0.10784365623255751	0.18001047051608604	0.10825078191420377	0.3314248095092424	0.2505972606805484	0.07499284530976637	0.2704131451652778	0.2829011943638481	0.07902632047149294	0.14247028212038698	0.14204147642343484	0.0865383943583742	0.27123721819141283	0.11710392315540719	0.1589631527185325	0.10539639459805307	0.08665240420575375	0.12749041119918164	0.1283087311567202	0.12363761007900798	0.07213706262578949	0.08714744653805363	0.11326245686649884	0.0965141335382967	0.12411648207495213	0.12703848128545997	0.3046626294670143	0.11560358611366887	0.09240882711057789	0.1135610605562081	0.1137883342828361	0.09285893697141426	0.25290618421581	0.24749951295733602	0.36184898012506533	0.08237450555859907	0.137613764040656	0.1381445001760983	0.08415412918566871	0.1488391651216056	0.10315089699722767	0.11432530943853196	0.07598893850672168	0.08552141190693155	0.037033828920389186	0.2804083398364974	0.09463051471696438	0.12007453187117485	0.14755940182000565	0.09947464647552906	0.11796136272613357	0.2154185637521278	0.10903804598114356	0.24263847745967565	0.21798038879554127	0.10570522618269869	0.12194608283158313	0.19132803442120694	0.22468115384807613	0.08959753785389436	0.23098884258979863	0.051035899850133556	0.17643855698162475	0.11940832678966118	0.08285680593228474	0.09235622057332228	0.1884988738615591	0.13901165094802692	0.18117445806729848	0.08901295588967673	0.06803352299839681	0.1978208687691868	0.12043228500695614	0.07556854121778046	0.10492126463661758	0.09335085363295899	0.060353336421106366	0.03153066737028386	0.048800145130585296	0.10099004513067318	0.12091190352715846	0.06603384285387494	0.11830955609753184	0.09795521520598612	0.18849316987253584	0.09982504664376837	0.13762073596921526	0.14122954877159233	0.10485356380545252	0.05337648406216111	0.03614218405162174	0.08614454274534325	0.17812991757354601
-0.4950906071061534	-0.5493666830366342	-0.5199744623535929	-0.7179849218167756	-0.718565882868241	-0.7365537367987274	-0.6684287758351525	-0.757078790022571	-0.6787617523555113	-0.5829194497120846	-0.5985798400508201	-0.6678802060619587	-0.662178892981704	-0.6449791209793282	-0.6851205511781978	-0.657975334133835	-0.6666462277570325	-0.5764141778944836	-0.6107006032236876	-0.7033282220136657	-0.6429749731828055	-0.7006856553215458	-0.7351935161122242	-0.5106643936999131	-0.552810789982734	-0.6084215241942924	-0.5680819793456892	-0.5907021601316412	-0.5783682769438064	-0.845336228729403	-0.5705897893051508	-0.5900755121618594	-0.5258305155711811	-0.5846292453025173	-0.6935505436896005	-0.6505544912098461	-0.6821352851255463	-0.6648454369256933	-0.6010513306533031	-0.5854283161276821	-0.6207891243621038	-0.5814095362854311	-0.6459846667201382	-0.6748383427470452	-0.5827270812578641	-0.6657698890005056	-0.5609579600974601	-0.565763902305053	-0.6406498992384794	-0.6733207237534097	-0.5271170720183038	-0.5296828728509821	-0.6417264736011087	-0.7108710800153035	-0.5838172378572003	-0.6181364353046249	-0.4990807718990081	-0.6889619979390524	-0.5281089746968636	-0.6267355609579018	-0.6332954206048423	-0.5615143645753979	-0.6685751133413891	-0.6940905862947295	-0.6830773258612443	-0.6369558303839367	-0.5949971686715871	-0.7229980845613038	-0.6364663114012111	-0.6211635993777217	-0.6272965486014658	-0.5665749887955416	-0.6273244112219206	-0.6993964839407357	-0.7121977210576582	-0.516835002281455	-0.6589397261446909	-0.706918022785814	-0.585033561774479	-0.614949591458679	-0.5374071185220196	-0.6225003434003725	-0.6605426339320687	-0.5842117502101706	-0.5882039792687431	-0.5567801637404571	-0.615752783110338	-0.5923649003784309	-0.7211728308939974	-0.6912499703137922	-0.6957649389940764	-0.6777277760611414	-0.7194692159464332	-0.731424468685236	-0.5864375343602861	-0.5254764638267637	-0.5285911671442569	-0.6947890505757884	-0.6596106830245256	-0.5340807768031914	-0.5285833202305549	-0.5727385790493041	-0.6104808924319425	-0.6664543641435969	-0.6283295454637438	-0.6146334925776151	-0.6314403205477626	-0.6225189680820012	-0.6283324630495122	-0.5772709019330223	-0.7060494298922463	-0.6528466292065991	-0.649464282046322	-0.6016862773437957	-0.613460731370823	-0.6884516440317885	-0.6320984511263301	-0.534455125699192	-0.7588865965709605	-0.7618455659122655	-0.6890517154539841	-0.5609644016725005	-0.7179589518111015	-0.5342060484463559	-0.6600867496706895	-0.626945525419589	-0.6107382076093578	-0.6479983686598849	-0.7481135203571208	-0.7754963927969628	-0.7531542193739764	-0.5627220544311211	-0.5271392963219594	-0.6551167300851689	-0.5164318965860153	-0.6002938807964936	-0.5771023117674302	-0.49758502090195345	-0.530949176072301	-0.5141233221057601	-0.523403340183039	-0.5697915667659387	-0.5447731345233141	-0.525758859162615	-0.5622524147853534	-0.5401668845054058	-0.5289214782276306	-0.5276752459982662	-0.5654027767678217	-0.5505524185874444	-0.6978261461527392	-0.5409420132637559	-0.510084889328165	-0.5934363327382447	-0.5238876712055314	-0.6244977791125281	-0.6015494554572367	-0.5322191612233157	-0.6189542696153015	-0.579315175949969	-0.5592857771758094	-0.6161295731272781	-0.6690658901109954	-0.684695504990083	-0.7228509210692058	-0.6558400420353693	-0.7378390344623533	-0.6124207242186612	-0.5299804173789594	-0.7070878022960264	-0.5470143092469785	-0.6190417306800425	-0.6606141617584401	-0.771258149564425	-0.6256960010884646	-0.5931307241939792	-0.6349355657744407	-0.6645585249920971	-0.518992766283074
-0.2668627134224191	-0.15511105636013922	-0.2826236055354648	0.09821235777965426	0.015040936430532989	0.21755011942691005	-0.050374080840254215	-0.008469329318566171	-0.021530811737574818	-0.06197403204112366	-0.024949011846276126	-0.0010224481373759253	0.009885477822355965	0.027081500747547088	0.03720970836517219	0.06073397926288027	0.0026776543263730967	-0.07813751383818499	-0.030180382859320384	0.1062528304900146	-0.05445105694391808	-0.012271231564777219	0.0014689381714673988	-0.2694948596794311	-0.22102544609451175	-0.016619894159964177	-0.10490454466611854	-0.03379862613951533	-0.02228782976453439	-0.01658507001761847	-0.1609295735139134	-0.12924135454551514	-0.058223417742940986	-0.02603300160484831	0.08497357750597104	-0.007876008370257523	0.04770951896012457	0.008635633118783875	0.09091325285846247	0.08359975079192614	0.1684043779765266	-0.02804901219898301	0.007005458839846379	0.018797700463530492	0.07129795352301183	0.07821057215433366	0.0864810427589082	-0.1743396158344148	0.048199232334477704	0.039631973478673505	-0.23887809024622222	-0.0912849853186949	0.038206035661906945	0.044885555543174166	-0.0678585894527394	-0.018968935537517856	0.08902704694446084	0.003195627324110481	0.11065627231422961	0.06072041518176283	0.019465029116865068	-0.1641874420634412	0.19374842468551934	0.1922409131983449	0.18592117930712682	0.019645308731303324	-0.007797495051187986	0.04074425504230793	0.023452774945361632	-0.014046106747497011	0.07388708436229427	-0.21279389814610436	0.022659507439409157	0.15723301219993863	0.20005362368599144	-0.005982700130040791	0.26388268280882876	0.16192092161513033	-0.05909970748002075	-0.0038235303283674915	-0.038048986568121765	0.04116917950279057	0.10342263594907972	0.03774629227367679	-0.017538745273319917	-0.17644298342138767	-0.016561960310000956	0.07445778024126234	0.04325369407651171	0.1032235192792372	0.05110247091893738	-0.006119755960655504	0.17055431950518768	0.20602925150949825	-0.10717907115284539	-0.2002279955566603	-0.19897199803466753	0.040884833414888494	0.22516868173346988	-0.23972363018987894	-0.22116757515183902	-0.10248603279889579	-0.06085300202875567	0.014004084457260646	0.06579588375008405	-0.03393539662003808	-0.04922177724236468	-0.028628139171341216	-0.015306021316841223	-0.08459382297874873	-0.0025535331467034517	0.00794344675028845	0.21871120542511246	0.039983477494842046	-0.03321018671914425	0.007501783387601019	0.0064235323275588785	-0.18582496040447746	0.17142229139441745	0.17227817506980403	0.15360137949357142	-0.1681756821937871	-0.016252120472692727	-0.1951936016728203	0.05011189959061099	0.0657966430596853	0.01559191097507752	-0.023776532600352285	0.059567793845458	-0.0928994708238679	-0.027686671079361902	0.11560694234006316	-0.19540840918480062	0.039796392728077626	-0.20917585428000396	-0.049827799631553704	-0.0002940164733712669	-0.2599387326482564	-0.20153181674062026	-0.3045994401015796	-0.2564939904621823	-0.050070012120990465	-0.016875902412030963	-0.2702982684017956	-0.26626733277243375	-0.17573520737505272	-0.29985603758189494	-0.19077029062802847	-0.03279736205365835	-0.05863401656248056	0.005784369878091583	-0.14905034858317753	-0.2890942591400819	-0.07909151171784662	-0.0048076427026797625	0.038838246984034624	-0.13253823458235392	0.03794710156546019	0.009773862990455393	-0.12164991514740883	-0.2483345485650848	-0.044398272014925716	-0.0016573153739473934	-0.046309691521715005	-0.04349871396780142	-0.02209062914816745	0.0003325588586357009	-0.06814038028316657	-0.2578318650535719	0.0441776937637654	-0.2647339469107275	0.01593479168998571	0.004052663886272595	-0.04857419008881206	-0.04533539594654676	-0.09843863604517639	-0.0881266130393138	0.033207103205499064	-0.21041192103488643
0.1985738353668548	0.34334411175800794	0.19538603721967185	0.49168453890588826	0.5917324683138199	0.4380125305712231	0.4145796329328344	0.5860470170627498	0.4317920229040592	0.431694259641153	0.44794459698486294	0.4469780494884488	0.5350433587221171	0.5401688228766801	0.544209918298187	0.4325580706597623	0.4278811212063776	0.3833210166356588	0.449753663391614	0.5719826574698963	0.4251757026025351	0.5657497835237152	0.5339559684156395	0.21654515593228035	0.2602109113213361	0.4415989924798574	0.3808892444186041	0.4322838124208148	0.4401751754690401	0.6594017771599745	0.330951162670857	0.3255493094070053	0.3776194051731359	0.42938251021837065	0.42193742826128483	0.45370282701399217	0.4914437597226621	0.4288392055452725	0.5260367738431828	0.5471315388628477	0.5451803554776453	0.4395277545167596	0.4145654499538156	0.5705477044187812	0.38559964205746117	0.4237895073077776	0.3701660144464361	0.33601899008532005	0.4073205735697971	0.3916682821375323	0.2419154562653793	0.36509358399315145	0.4265561727210954	0.4940767250768772	0.43288050972810976	0.4465375778727368	0.5031199573275971	0.5208413660684923	0.4894001906631091	0.3897562271223478	0.4389877403355971	0.3353225259200642	0.4914093386297997	0.5213647073710473	0.5350503027160916	0.43363894289816335	0.41734334684605573	0.4302053948923775	0.41728646866684665	0.4165611080006283	0.3981575537922016	0.3169092895060209	0.42854601844465146	0.5341187762759165	0.5144579572279424	0.38722093694661314	0.47393315709598205	0.38557670422498486	0.45002653089666994	0.41539443911436597	0.4121648362549248	0.440996879084285	0.39169775436239124	0.4146381611081637	0.42636961876554147	0.3200530716228792	0.5074377528361578	0.3931899067302553	0.5040368999246019	0.3718637235807074	0.5819147116748591	0.4521728408258284	0.5344752257089487	0.5150457888690227	0.422236034855174	0.29971015611833285	0.28625359777497256	0.5533943617488779	0.4858348881102407	0.3076188035843789	0.2751389711648513	0.3802840568335411	0.43070391505444305	0.4354961961868424	0.4148610742124979	0.43826837456275297	0.4677083300003862	0.44547901052265837	0.4492718767637919	0.3938403865471664	0.43894631862270167	0.4178702809073708	0.5363442801440235	0.5492913354940405	0.45091531634666043	0.5236340438634526	0.44467004107762226	0.3155032858817639	0.5188648692656177	0.5242882603801191	0.3936568923694151	0.34885760649832004	0.6077562691252367	0.27240384889755903	0.4445888043139789	0.4237819262932306	0.4112373690316922	0.4450100175427854	0.46525305880497286	0.3750933696095753	0.5820656657629875	0.552567157620607	0.354542105286554	0.4317483101407584	0.2778434643842419	0.43587262262090115	0.43694733150366843	0.21865571254481558	0.3217700424953719	0.19575528454017155	0.223617062082268	0.4192076403932436	0.41309673492500726	0.23992385300630784	0.21941674853124588	0.3569444882788075	0.22248811556724657	0.3482827525431362	0.31004265301474604	0.39094337988740063	0.43924087864649214	0.36298416524449223	0.24763326751844145	0.33979509889932746	0.27825921296587935	0.47423297420686533	0.3898605338988336	0.3306428168895906	0.4295996923595227	0.38980806973274107	0.2977160606235323	0.4231120876837697	0.495730724025271	0.5074251328016418	0.48778390377252007	0.4697139509758042	0.5924587836198703	0.44195859918599706	0.33029531025302317	0.45113700446630073	0.237885483164809	0.46069948440997727	0.4134149930059822	0.6815426149630968	0.443668440229906	0.4498941580698604	0.4672754028871459	0.46051172751507324	0.2572966445765491
-0.16685998510640457	-0.08568577449375148	-0.2092001571460263	-0.252140708426595	-0.2736055907495852	-0.2960666296481389	-0.31913922346759516	-0.2534016416089523	-0.22975034108082762	-0.1314282735097679	-0.15764360138368902	-0.20827780552475916	-0.23825633616917144	-0.2627594383055316	-0.25667125337390045	-0.22724037658923948	-0.23071046105590204	-0.16386605854894726	-0.18480580834320726	-0.27151937971778434	-0.20924351238744063	-0.25224864392028645	-0.2611259537905486	-0.1928736650018675	-0.06864974053731007	-0.19050514963644402	-0.1484056793492185	-0.1736826434479774	-0.141797716428678	-0.3650931072805881	-0.14911548025388308	-0.13920329573993434	-0.12630293427032432	-0.1704267913148663	-0.2731464910217747	-0.17903899980815752	-0.20103342431663906	-0.2071001112204016	-0.20175601124073794	-0.2613935315883674	-0.29852801972161597	-0.18294547190521745	-0.25011651167628624	-0.1936706627218119	-0.13481467750245402	-0.20146912689694174	-0.19428905675909358	-0.10301304747534591	-0.21970594816800162	-0.2474262418166228	-0.10233135141442581	-0.11922824806096916	-0.22423702351196115	-0.20247802292228853	-0.14974602276243637	-0.1818094576705359	-0.2127701712088721	-0.22267528295682712	-0.21514114407599416	-0.19125700432776815	-0.21499944969849452	-0.10133828647162738	-0.2817106282099916	-0.2798076088004007	-0.2721619373598717	-0.19985116102217454	-0.17590672720586004	-0.28213514565919406	-0.18716113262586698	-0.1918031271201127	-0.22028749505498055	-0.08338636537749183	-0.2040548190619417	-0.24254042355192704	-0.2689215443504791	-0.14660843334084844	-0.18447068457522925	-0.06596888880384161	-0.07830508631489944	-0.180118538061931	-0.1198760828311104	-0.14140414121140496	-0.2004927791939684	-0.1837302698784051	-0.18445295754658425	-0.08323969861289379	-0.1940500427878184	-0.21478753098091347	-0.22418608956632655	-0.12470020198232609	-0.25443451104963904	-0.1580524403712447	-0.26218388178464486	-0.23963623202787973	-0.12966664528810623	-0.07178971792402045	-0.06444541461388038	-0.23833508032248532	-0.1822222127890064	-0.10840859332626757	-0.07042261422029258	-0.1062367497375894	-0.1431228835347578	-0.23009313120942676	-0.19006938780379212	-0.1787139170470047	-0.18157779233463958	-0.181790719227872	-0.22003982939693786	-0.1260622636695677	-0.3168707307753277	-0.25145158515878485	-0.24920443864322755	-0.21793661448880408	-0.1726124863569837	-0.20340089573769474	-0.17833784846428774	-0.06504123480920337	-0.27429404814056535	-0.2756306995881902	-0.09064617609631312	-0.08821779324676098	-0.2714190741731606	-0.06121730750483444	-0.1883153932236108	-0.2139036357677697	-0.21076708035534963	-0.23007399338735357	-0.2574474822067563	-0.3027750137310862	-0.3196844527310647	-0.3258557250055225	-0.052305404324886534	-0.19525238658305083	-0.06851594861267614	-0.1718203401269551	-0.1461152870082205	-0.14574538999708472	-0.0785357576043644	-0.195555100365415	-0.16739581574692297	-0.1411765833392309	-0.15384031659263203	-0.1359110063635012	-0.29638502320993054	-0.08900463812062943	-0.20410835073984543	-0.08159986738554839	-0.18904550487552843	-0.149108751678506	-0.2200395887623265	-0.08979896224472794	-0.11423737796408948	-0.16965030621103233	-0.15653821435200385	-0.1589456694830853	-0.132640516457258	-0.1510271557239096	-0.18287601313325477	-0.09194482557396506	-0.06143269679212925	-0.15973465169044326	-0.16084256091401225	-0.16810196723801796	-0.21592684748973495	-0.21337851748908074	-0.24128486978094246	-0.10905834025201591	-0.1089927205122125	-0.2178154016969878	-0.12086892135614319	-0.19352335930945624	-0.19471365236816085	-0.3288723075383255	-0.17932376037515926	-0.15778292167472385	-0.1197334364484286	-0.17946048388961225	-0.12913927765118072
0.6557918875600136	0.6093872541290426	0.6614964121007718	0.7291714503931964	0.6676644988517165	0.6989567470051355	0.6084713727499172	0.6044685244058812	0.6074650832082484	0.6362928663956763	0.6264638487719574	0.6157979941171979	0.6294831028419383	0.6619510541230701	0.5899273797524643	0.5840832046841999	0.6050060554618512	0.619352859914965	0.6367353129512062	0.7177756273198982	0.6148857026307494	0.634851846725399	0.637565734095612	0.6862842209696258	0.6053602576239432	0.6139291285171347	0.6323351650666814	0.625503454763687	0.6255347988504133	0.5957825549017741	0.6353005781082578	0.6054312917515219	0.6045603322798645	0.6236669318190358	0.6076980629042117	0.6203276013134277	0.5924299340115722	0.5946077222577302	0.6151745032298901	0.6728592903297679	0.6867668091493995	0.620136412647569	0.5964230686477092	0.5890254974171608	0.5583796459489043	0.569999346423365	0.559382884770079	0.6147888756073284	0.5794492649766765	0.5775029009543412	0.6282499783329383	0.6099072800125006	0.593412418695451	0.5959858326584154	0.6337129393031031	0.6206957409556801	0.6301265064756607	0.6145776337514802	0.648101182985035	0.5648370026206304	0.6018244149192316	0.621908909886562	0.7008645006937188	0.7137773476534862	0.7066874486578204	0.5998438498733083	0.605015377405372	0.5899391424380196	0.5949916207094188	0.6017942347347132	0.5720261792019758	0.6233840375910159	0.5973815129195241	0.7150333641114305	0.7109074172483949	0.6022380928415176	0.6889954810947365	0.7138331500874686	0.5784336040531919	0.6026290786125638	0.6186086146236272	0.6618929423190052	0.5902585240930073	0.5914698388531898	0.613911374775572	0.6050434492264232	0.6241880820264489	0.5699982406286274	0.5929181712548348	0.6891387368443286	0.7108688875017872	0.5965363853086779	0.6696885047145955	0.7018885608639984	0.6480980988332015	0.6337153809526344	0.6179980216842891	0.5877129347503572	0.7267465606291058	0.653616546094092	0.632635526108391	0.6121026948860411	0.6344675633895434	0.6026024313738888	0.5774803298742215	0.6349335675893446	0.64037116033813	0.6211393338009981	0.6197212142184971	0.6246380634343965	0.6043626139596792	0.5936084374591186	0.6996814349090065	0.6222604217320583	0.6246302696200174	0.613921466314596	0.6164940644710711	0.6034391441436989	0.697967549725999	0.6919310936595588	0.715251446046299	0.6125738976388121	0.6322423123792803	0.5961107031637407	0.5825033158456755	0.5835312079170287	0.5887202453821351	0.6227166641748666	0.6095328251595578	0.5991048256520268	0.6472452803738209	0.6307961200626694	0.6372892741396072	0.5915041531271517	0.6271662045490836	0.636058450233603	0.6227795733180385	0.6604768256789815	0.6284167723229543	0.6771031110791479	0.6608296044899997	0.6304393459165296	0.6172106715402713	0.6673070656147009	0.6551051941470516	0.6193683627870277	0.6845521281159095	0.5959325114308849	0.5873766058950257	0.6174917722637128	0.5929639943643996	0.6238975901312063	0.6875105972163924	0.5650023960952746	0.5341239366920929	0.6038454280886875	0.6235556981276935	0.5772930454652367	0.6034415266299004	0.6206894979501174	0.6571942849894454	0.6122641714519891	0.6252260428606975	0.6480769104113893	0.627227341500709	0.6290023964607236	0.6416757272088458	0.6427123673131783	0.6501418798588726	0.5863407153350979	0.6422449929632265	0.6134545464396746	0.5858095959006304	0.6441478640312339	0.6335993055015348	0.630653293547192	0.6565350617673421	0.601538648982755	0.6410062592734584
