NIPT-PRL-001-25-BL-Px_S1	NIPT-PRL-001-25-D14-Px_S2	NIPT-PRL-001-25-PD-Px_S3	NIPT-PRL-002-25-BL-Px_S4	NIPT-PRL-002-25-D14-Px_S5	NIPT-PRL-002-25-PD-Px_S6	NIPT-PRL-003-25-BL-Px_S7	NIPT-PRL-003-25-D14-Px_S8	NIPT-PRL-003-25-PD-Px_S9	NIPT-PRL-005-25-BL-Px_S10	NIPT-PRL-005-25-D14-Px_S11	NIPT-PRL-005-25-PD-Px_S12	NIPT-PRL-007-25-BL-Px_S13	NIPT-PRL-007-25-D14-Px_S14	NIPT-PRL-007-25-PD-Px_S15	NIPT-PRL-009-25-BL-Px_S16	NIPT-PRL-009-25-D14-Px_S17	NIPT-PRL-011-17-BL-Px_S91	NIPT-PRL-011-17-D14-Px_S92	NIPT-PRL-011-17-PD-Px_S93	NIPT-PRL-012-25-BL-Px_S18	NIPT-PRL-012-25-D14-Px_S19	NIPT-PRL-012-25-PD-Px_S20	NIPT-PRL-014-47-BL-Px_S94	NIPT-PRL-014-47-PD-Px_S95	NIPT-PRL-017-20-BL-Px_S96	NIPT-PRL-017-20-D14-Px_S97	NIPT-PRL-017-20-PD-Px_S98	NIPT-PRL-019-47-BL-Px_S99	NIPT-PRL-019-47-PD-Px_S100	NIPT-PRL-021-25-BL-Px_S21	NIPT-PRL-021-25-D14-Px_S22	NIPT-PRL-022-52-BL-Px_S101	NIPT-PRL-022-52-D14-Px_S102	NIPT-PRL-022-52-PD-Px_S103	NIPT-PRL-024-52-BL-Px_S104	NIPT-PRL-024-52-D14-Px_S105	NIPT-PRL-024-52-PD-Px_S106	NIPT-PRL-026-47-BL-Px_S107	NIPT-PRL-026-47-D14-Px_S108	NIPT-PRL-026-47-PD-Px_S109	NIPT-PRL-027-25-BL-Px_S23	NIPT-PRL-027-25-D14-Px_S24	NIPT-PRL-027-25-PD-Px_S25	NIPT-PRL-028-25-BL-Px_S26	NIPT-PRL-028-25-D14-Px_S27	NIPT-PRL-028-25-PD-Px_S28	NIPT-PRL-029-25-BL-Px_S29	NIPT-PRL-029-25-D14-Px_S30	NIPT-PRL-029-25-PD-Px_S31	NIPT-PRL-030-25-BL-Px_S32	NIPT-PRL-030-25-D14-Px_S33	NIPT-PRL-030-25-PD-Px_S34	NIPT-PRL-032-47-BL-Px_S110	NIPT-PRL-032-47-D14-Px_S111	NIPT-PRL-032-47-PD-Px_S112	NIPT-PRL-033-25-BL-Px_S35	NIPT-PRL-033-25-D14-Px_S36	NIPT-PRL-033-25-PD-Px_S37	NIPT-PRL-034-25-BL-Px_S38	NIPT-PRL-034-25-D14-Px_S39	NIPT-PRL-034-25-PD-Px_S40	NIPT-PRL-035-25-BL-Px_S41	NIPT-PRL-035-25-D14-Px_S42	NIPT-PRL-035-25-PD-Px_S43	NIPT-PRL-039-25-BL-Px_S44	NIPT-PRL-039-25-D14-Px_S45	NIPT-PRL-039-25-PD-Px_S46	NIPT-PRL-040-47-BL-Px_S113	NIPT-PRL-040-47-D14-Px_S114	NIPT-PRL-040-47-PD-Px_S115	NIPT-PRL-041-52-BL-Px_S116	NIPT-PRL-041-52-D14-Px_S117	NIPT-PRL-042-25-BL-Px_S47	NIPT-PRL-042-25-D14-Px_S48	NIPT-PRL-042-25-PD-Px_S49	NIPT-PRL-044-25-BL-Px_S50	NIPT-PRL-044-25-D14-Px_S51	NIPT-PRL-045-25-BL-Px_S52	NIPT-PRL-045-25-D14-Px_S53	NIPT-PRL-045-25-PD-Px_S54	NIPT-PRL-046-25-BL-Px_S55	NIPT-PRL-046-25-D14-Px_S56	NIPT-PRL-046-25-PD-Px_S57	NIPT-PRL-047-25-BL-Px_S58	NIPT-PRL-047-25-D14-Px_S59	NIPT-PRL-047-25-PD-Px_S60	NIPT-PRL-048-17-BL-Px_S118	NIPT-PRL-048-17-D14-Px_S119	NIPT-PRL-049-25-BL-Px_S61	NIPT-PRL-049-25-D14-Px_S62	NIPT-PRL-050-25-BL-Px_S63	NIPT-PRL-050-25-D14-Px_S64	NIPT-PRL-050-25-PD-Px_S65	NIPT-PRL-051-25-BL-Px_S69	NIPT-PRL-051-25-D14-Px_S70	NIPT-PRL-051-25-PD-Px_S71	NIPT-PRL-052-25-BL-Px_S66	NIPT-PRL-052-25-D14-Px_S67	NIPT-PRL-052-25-PD-Px_S68	NIPT-PRL-053-25-BL-Px_S72	NIPT-PRL-053-25-D14-Px_S73	NIPT-PRL-053-25-PD-Px_S74	NIPT-PRL-054-17-BL-Px_S120	NIPT-PRL-054-17-D14-Px_S121	NIPT-PRL-055-25-BL-Px_S75	NIPT-PRL-055-25-D14-Px_S132	NIPT-PRL-055-25-PD-Px_S76	NIPT-PRL-056-25-BL-Px_S77	NIPT-PRL-056-25-D14-Px_S78	NIPT-PRL-056-25-PD-Px_S79	NIPT-PRL-057-52-BL-Px_S122	NIPT-PRL-057-52-D14-Px_S123	NIPT-PRL-057-52-PD-Px_S124	NIPT-PRL-058-17-BL-Px_S125	NIPT-PRL-058-17-D14-Px_S126	NIPT-PRL-059-25-BL-Px_S80	NIPT-PRL-059-25-D14-Px_S81	NIPT-PRL-060-17-BL-Px_S127	NIPT-PRL-060-17-D14-Px_S128	NIPT-PRL-060-17-PD-Px_S129	NIPT-PRL-061-25-BL-Px_S85	NIPT-PRL-061-25-D14-Px_S86	NIPT-PRL-061-25-PD-Px_S87	NIPT-PRL-062-25-BL-Px_S82	NIPT-PRL-062-25-D14-Px_S83	NIPT-PRL-062-25-PD-Px_S84	NIPT-PRL-063-52-BL-Px_S130	NIPT-PRL-063-52-D14-Px_S131	NIPT-PRL-064-25-BL-Px_S88	NIPT-PRL-064-25-D14-Px_S89	NIPT-PRL-064-25-PD-Px_S90	Genome-IJB-HP-14-xx_S3	Genome-IJB-HP-18-xx_S6	Genome-IJB-HP-19-xx_S7	Genome-IJB-HP-2-xx_S74	Genome-IJB-HP-26-xx_S14	Genome-IJB-HP-30-xx_S18	Genome-IJB-HP-31-xx_S19	Genome-IJB-HP-33-xx_S21	Genome-IJB-HP-36-xx_S24	Genome-IJB-HP-37-xx_S25	Genome-IJB-HP-4-xx_S76	Genome-IJB-HP-42-xx_S29	Genome-IJB-HP-44-xx_S31	Genome-IJB-HP-49-xx_S36	Genome-IJB-HP-50-xx_S37	Genome-IJB-HP-64_S169	Genome-IJB-HP-67_S172	Genome-IJB-HP-7-xx_S79	Genome-IJB-HP-70_S175	Genome-IJB-HP-72_S177	Genome-IJB-HP-74_S179	Genome-IJB-HP-75_S180	Genome-IJB-HP-76_S181	Genome-IJB-HP-77_S182	Genome-IJB-HP-78_S183	Genome-IJB-HP-79_S184	Genome-IJB-HP-8-xx_S80	Genome-IJB-HP-80_S185	Genome-IJB-HP-81_S186	Genome-IJB-HP-82_S187	Genome-IJB-HP-83_S188	Genome-IJB-HP-84_S189	Genome-IJB-HP-85_S190	Genome-IJB-HP-86_S191	Genome-IJB-HP-87_S192	Genome-IJB-HP-88_S193	Genome-IJB-HP-89_S194	Genome-IJB-HP-9-xx_S39	Genome-IJB-HP-90_S195	Genome-IJB-HP-91_S196	Genome-IJB-HP-92_S197	Genome-IJB-HP-93_S198	Genome-IJB-HP-94_S199	Genome-IJB-HP-95_S200	Genome-IJB-HP-96_S201	Genome-IJB-HP-97_S202	Genome-IJB-HP-98_S203
-0.2943240951737544	-0.30573241696250825	-0.30522876882972383	-0.3241299073341881	-0.22063662686962093	-0.4012643435015947	-0.2684717093102267	-0.20678990204857178	-0.2992651246134371	-0.37241955706019453	-0.29202310996507475	-0.27159835526818277	-0.20032350101173835	-0.22584078978819522	-0.179683202769795	-0.19611254245021242	-0.26730367401967653	-0.33905249239240376	-0.3082690150453719	-0.3589046369540881	-0.333069471386331	-0.1781818471722399	-0.11935621878158137	-0.29577139181080164	-0.31273412516539695	-0.32322673674855024	-0.3406487925818235	-0.29188770816525195	-0.2813664774997466	-0.12428471933971486	-0.34969772875011595	-0.2812380947228801	-0.34471031521423334	-0.3152473141328785	-0.1866742681334927	-0.28219748654030563	-0.12090725619998288	-0.2632930904433495	-0.1117571820177169	-0.2922211865683095	-0.4186129439517215	-0.28924707876671363	-0.24619514406457982	-0.1516449272929511	-0.15285148459828685	-0.1388817561305331	-0.2075323520027546	-0.3672173901597573	-0.2475758292779247	-0.208294187250044	-0.3094184377608196	-0.33589844405904373	-0.27064664848276754	-0.1305961114312869	-0.32854201028787433	-0.31207273132490054	-0.22586184003048182	-0.14371251419688713	-0.28489131671206247	-0.1325774921849518	-0.3359177133257788	-0.3283730092697475	-0.4280310176266881	-0.5024912368730178	-0.4500154380855107	-0.30870247437924025	-0.30294552702381894	-0.2790725160514827	-0.2946401294265059	-0.3044523509575737	-0.3024785629895638	-0.32223544439740565	-0.3045646793442855	-0.3622878033283242	-0.4320213881720036	-0.2983775311762094	-0.5750705693399898	-0.5992481813585288	-0.46058089369443944	-0.3195051495115121	-0.3282507566991035	-0.25260565324968964	-0.2271994536491858	-0.35338940762641524	-0.3216809218170251	-0.33723477941313446	-0.1802955809655924	-0.27219906293785745	-0.15982313504305623	-0.5481330662458034	-0.2215040508570552	-0.1542798050976883	-0.4160343890490221	-0.4635655250736165	-0.3544398658312972	-0.3233704117904386	-0.3335477130433156	-0.11293362198747048	-0.4909854096728624	-0.34195585530897754	-0.34913723624946735	-0.3315349378074544	-0.334773207259545	-0.2647872499087248	-0.1734537226770293	-0.31051952468042276	-0.31052317148456654	-0.33786328102494373	-0.27338363170061525	-0.31018678474699424	-0.2709734761562214	-0.2347143723558504	-0.531601679640079	-0.18869135193308223	-0.33155022133934625	-0.1356521773075221	-0.29050536782353736	-0.3399134062162672	-0.40976364904824275	-0.4193249402773353	-0.6264102742728948	-0.3849878259795294	-0.061833680424831616	-0.32128814168207814	-0.20288648452870567	-0.26790165091802165	-0.2887963135821864	-0.2900496678495487	-0.20862788404854804	-0.08971635243239645	-0.13624047491104702	-0.450078160419654	-0.31617217606808307	-0.2405495443252405	-0.30874956343671667	-0.3141091521525865	-0.3198015786959659	-0.29020395029096646	-0.35306020766107404	-0.313632120606895	-0.32272199155163894	-0.34035381334937787	-0.32939477325681954	-0.3047165195840148	-0.28507130294465194	-0.35425328757016844	-0.31244938699958197	-0.33889424777969906	-0.3025028120163872	-0.3458263358889968	-0.1762116837003208	-0.36423596636208033	-0.3586247737007147	-0.2500009452167358	-0.34983110000291107	-0.15188886151177616	-0.31937371620743554	-0.2763005277425043	-0.2801629386071954	-0.35767642961564294	-0.3199572836096806	-0.3398734952505044	-0.17903050989553276	-0.2939615938756674	-0.24540826790204284	-0.2288269429391342	-0.13172080725597074	-0.37056280556274224	-0.3708755211105004	-0.1477649985324902	-0.327561304112002	-0.32457672457615383	-0.12375375516529297	-0.05047515839289596	-0.3138261315951761	-0.36835035958551154	-0.3066942492508702	-0.18977004674825304	-0.34583516430819083
0.006996368467441089	-0.03628217445942064	0.0010330940074855521	0.039123735350477834	-0.05919731918642154	0.05688493362930183	-0.12043415162591925	0.02977681223761322	-0.09745155809121	-0.11352531867445526	-0.09408522795678734	-0.09380883416505825	-0.1645401218462481	-0.14867746921308764	-0.09504232720463476	-0.14740961714185188	-0.08720171526426573	-0.07158124922053438	-0.07816125099443721	0.028636225085880734	-0.07308610270923166	-0.03755990680170332	-0.024181145626283596	0.0008611413227049836	-0.022276116795993645	-0.13060518576175495	-0.0635353994986245	-0.07377345407155503	-0.11843969518922681	0.07785363841945106	-0.032839556311059975	-0.025491325293716977	-0.06253059992082358	-0.07482461356558942	-0.11489411816609826	-0.10051602586975017	-0.14592025568869887	-0.14076927114366194	0.03546611575593345	-0.04220154003770185	0.001836941160225286	-0.10323717782516248	-0.1342826119794768	0.06320183064774271	-0.13001781626436373	-0.145471741081467	-0.08477864768178203	-0.052187577318805495	-0.1938339169202552	-0.18704009765646765	-0.03037720185320328	-0.05258963620626267	-0.11601398911779062	-0.1573000831813668	-0.07046710413716512	-0.08545586503051344	0.06602392486705502	-0.047430588541968605	0.02024013290994084	-0.14761313474317556	-0.1063545149038598	-0.026772038182380442	0.03259109874950886	0.11240020620255603	0.021414074797827698	-0.09257446635716626	-0.06730441920089969	-0.147591853416181	-0.07345540716104362	-0.08940630219407461	-0.16379034678051074	-0.03828696762031	-0.10783996620353631	-0.01722537395210247	0.026725718315393165	-0.07497722757476227	-0.053503500610739246	0.03641967039939048	-0.04300821413454467	-0.09828266244466174	-0.04415700498777855	-0.11273136846620704	-0.1996493925275485	-0.12833187079867775	-0.0623750736169984	-0.03296911817914913	0.06623374628103315	-0.1663581238849195	-0.04764354861081885	0.08581800137384157	0.012928126145112045	-0.19062814130136088	-0.023742362798844202	0.02573270565771904	-0.0569067822087935	-0.032942042497109275	-0.02336990782572329	-0.11438757756989307	0.09034483168650687	-0.04659005398548824	-0.04327373001091106	-0.04469185442635573	-0.10823783324991404	-0.12361136173051543	-0.15226559506062987	-0.08152175703513448	-0.10836222979274171	-0.10256542651048686	-0.07994553753731429	-0.04232847385451463	-0.0954133167123086	-0.11181109758903343	-0.08139432201516614	-0.07628638071771562	-0.11415445107670735	-0.07589936676991291	-0.08765823552987245	-0.040933641114335756	0.06644514283468536	0.037841705491641564	-0.005959961544137499	-0.05987355322428389	0.07269041858805741	-0.0206488408746639	-0.219637589382726	-0.13625693720011883	-0.11026308314125546	-0.07814725956584251	-0.21161618113707123	-0.13671883480062677	-0.049404689820031295	-0.02747246233701653	-0.047581424456326515	-0.1597519457791606	-0.021501382204383385	-0.08445041728425742	-0.11913449141158569	-0.013434064497623688	-0.04467857244961926	-0.0027677015654946346	-0.014180340550329545	-0.06792771657640581	-0.10383743224975703	0.002130684673767508	0.013331817132150287	-0.05064231331781607	-0.012530692926277842	-0.0679780859618215	-0.07559615173841097	-0.0603633965830494	-0.17764617338604577	-0.05705839560162773	-0.04105889815884489	-0.03170923896293512	-0.10801317934609811	-0.17918222847193735	-0.05713372551052734	-0.07749078029845916	-0.1028561141067657	-0.07506280796479334	-0.03956857150476856	-0.11627629152986704	-0.1345979876040268	-0.09871625163279144	-0.09980606007440945	-0.09588257593904359	-0.0752690042880775	-0.10743261952837158	-0.06980095934703764	-0.1792660701592014	-0.02493460444924936	-0.13483416855630703	-0.16764161583341197	0.09295820781864036	-0.10100417881615986	-0.12494657174070117	-0.09668435082373708	-0.14581894886479094	-0.02300397293950046
-0.04499342273757251	-0.01772240026451999	-0.03633855527376975	-0.07270063569768828	0.013053388807453173	0.01426064571844321	-0.055419062604863845	-0.0811753240094775	0.009776746538586206	0.11727079828848538	0.04247282263461358	0.021017268730772393	0.005622087271463266	0.00823228090347733	0.023497939668123358	-0.12587084047655128	-0.006019435905424586	0.020890400434226325	-0.002489491199192728	-0.08394303330638031	0.02496269800897319	-0.1995283607166069	-0.19353095464231196	-0.03810667009891891	-0.007509365184908162	0.06859990699642804	0.039257022772373085	0.016528054662903774	0.1119358847177826	-0.17477901963518633	0.019517294951084563	-0.05321851175066447	0.04482048758696508	0.035268277507445045	-0.09095369397869427	0.05581266527250517	-0.08393944555387245	0.06620655542325868	-0.08219946313836304	-0.0532707442514857	-0.05698394650247085	0.07579312280963982	0.05526919947909037	-0.09470206239698975	0.006521046381656431	-0.04411297333107431	0.06401925867937877	0.04328984682562359	0.008976596203911585	-0.023915681343701062	-0.01898448635339922	0.03169081117190095	0.049668362653614156	-0.10615800050593832	0.029454065500657406	0.01685499103468696	-0.08821530395682042	-0.17763421922059658	-0.054000967701006625	0.06696034852017865	0.08434256116204733	0.00014950866901503046	-0.05559609194459936	-0.049248129107729854	-0.05044100571229845	0.008434724239551133	-0.013630879035013171	0.005294239685746299	-0.005169881550156408	0.01089202299035269	0.04382650515972425	-0.005136139762659864	0.04238474361927605	-0.07542469228761725	-0.07413316887716631	-0.005247089700180563	-0.09099556621352997	-0.09187765617716234	-0.1088768517975705	0.030981971624712334	0.009175073987132132	-0.019760723044890877	0.007260228625575876	0.09633768959943775	0.011670003593903577	0.01047777794551566	-0.11666686510536547	0.07866746667706237	-0.17527544480300888	-0.04703554432292692	-0.04941074818560959	-0.050050411229999425	-0.05816936599759537	-0.04406385729777533	0.041228895256526094	0.007295790009408859	-0.0005259911084269653	-0.1564041704247832	-0.09591529461117751	0.026119420217214417	0.031002307063578816	0.006395405241379409	0.08307109637581536	0.06313211114365763	-0.03885057072669232	0.031185763334316524	0.07756482887323665	0.09421154220093061	0.004605892540819834	-0.0048828502044218625	-0.023218308954669337	0.06530933849027426	-0.06432461998981945	-0.06117411900938213	0.10670365194071468	-0.18132318567251104	0.01695130350160501	0.007784055862537803	-0.05832766821403429	-0.044470656215010756	-0.07722393827122559	0.07289487156076976	-0.18684247092937772	-0.006631592313635304	-0.036849071096852204	0.041972900836365984	0.026635055598769636	-0.007054923837392008	-0.11123477842451757	-0.2085675292667339	-0.18455657910528672	-0.05737761134178854	0.004722542443708455	0.019965002662073156	-0.026115644719521852	0.05270396603962166	0.03744775362616787	-0.03598442013657846	0.03338670485722342	-0.017850431054066473	-0.010247122195791464	0.0343389096060667	0.07709936709262763	-0.03137063268699489	-0.039969434330978715	0.0387493848732362	-0.018939481726033824	0.041206429827537	0.025008743093839686	0.02394256797054245	-0.09133216370167835	0.04363568047545946	0.03769512853120313	-0.08423373137685197	0.08910736987954404	0.1316056615995294	0.013356563878631184	0.004254481890442141	0.02961800195140915	0.05962084373472318	0.019393106056168924	0.13070546874893252	0.11599174629966297	0.06467507657347568	0.03384948023244316	0.029144436636712345	-0.1888800182643227	0.10015555654154154	0.06430168644636441	-0.06332127404671667	0.003208200173092951	0.06423193478817565	-0.07078745432336503	-0.14613904653841983	0.07241061482323036	0.11974845344703772	0.04188052612648813	0.01114481858725877	0.010466710322160344
-0.16576213833367115	-0.17741489167982388	-0.15664524835930402	-0.18340836972757535	-0.26744319099950875	-0.281802229013125	-0.30017170462573856	-0.342525236146159	-0.26128778673973846	-0.16255844924542565	-0.20627431269108615	-0.25848749484734174	-0.21412523013262208	-0.2358701937580801	-0.2985671696451774	-0.38998625717011565	-0.2497232294909179	-0.19460812459497073	-0.2289164909837883	-0.3866819014619863	-0.2213291677799048	-0.4274696768030314	-0.3512378519273362	-0.14636932963735744	-0.1689346334963243	-0.22650862739006045	-0.1855487316701944	-0.2077651669349076	-0.18115353478300733	-0.39179345634595053	-0.19558548102201773	-0.1864754821622715	-0.19998114236299622	-0.2352743438490421	-0.3919150120049608	-0.22757566615765235	-0.3374388551306304	-0.2279995539388267	-0.28050747886143185	-0.2413534548357294	-0.3229746078823703	-0.22256415143412633	-0.22945197263430067	-0.33119764237922183	-0.2695910143959137	-0.2989256293169797	-0.22476679010909972	-0.1834381016789529	-0.26559542126197255	-0.2708771732510975	-0.1660364501888308	-0.19998900310205836	-0.23163680194688213	-0.32333641843337774	-0.20267217510279345	-0.2530002650571134	-0.3991950576352331	-0.38302299440380044	-0.3907225670911778	-0.16166766427153084	-0.23668094445851767	-0.1910548844726139	-0.3198701933285793	-0.35471204262591444	-0.35574861050768386	-0.25884709428982633	-0.2322540891948433	-0.2638950737806733	-0.2521387030545796	-0.2620987368074756	-0.27324241701690016	-0.18817904877726677	-0.2629345804063112	-0.30098212203444885	-0.3832198583825412	-0.20243706734451883	-0.44860764708875894	-0.4930570466000957	-0.35960296138993725	-0.22822821189698234	-0.21727235684991808	-0.32575289946845565	-0.3282813639243455	-0.2420999597796331	-0.21373545198776261	-0.17984159446721554	-0.3621578930496345	-0.19324184325076682	-0.4110916223736247	-0.4381393149402397	-0.22879887492697448	-0.2581846687556273	-0.3010325218515522	-0.31343882135635454	-0.22604327249772221	-0.17124464009767704	-0.18533652898334355	-0.3941294461733715	-0.33525296563485824	-0.16222772869941493	-0.1633174894855449	-0.19377323269925548	-0.2140194063670544	-0.24801162963421325	-0.2767073290523968	-0.20191472266472682	-0.20302421732671228	-0.24184483895961056	-0.20308457111160977	-0.18832589766003602	-0.26207000712378375	-0.2290064785128586	-0.46748412505355624	-0.3320597804307823	-0.24232147897594536	-0.37970972547740656	-0.23035711487538246	-0.1901435206433915	-0.3047402160318225	-0.33049298201877314	-0.49941655755195374	-0.1860310119480552	-0.3030895720927227	-0.17675985764279414	-0.3052236251510193	-0.25031879397727497	-0.23171768114252217	-0.23505229990029025	-0.3866048127348479	-0.37253244063261237	-0.35202449383771023	-0.31298204423680714	-0.16614275195987657	-0.25012365825796495	-0.17548943985918128	-0.20466738105515084	-0.22491956316594547	-0.15636942987696276	-0.1834174831547725	-0.1450152479572159	-0.16490557346085158	-0.22916636530775641	-0.19938457353147446	-0.1706717848712406	-0.1343803053043739	-0.18289513090954393	-0.14245918608364957	-0.1622412759238907	-0.20682242415504448	-0.21597504610877427	-0.3157947001678923	-0.18789457010974073	-0.15291327105361457	-0.1949978620382517	-0.21176288575497826	-0.15965247448377595	-0.1862151623351254	-0.2262137430840141	-0.2365606942133383	-0.1822592593455615	-0.1413246160201256	-0.1848034213135113	-0.1590549440355183	-0.21472145494497175	-0.23886329062557243	-0.21727117636491083	-0.41431898958608465	-0.19149170976066798	-0.15568881617487632	-0.3109902622542863	-0.16106320072610084	-0.27545017428366764	-0.3200863490666698	-0.23671710713418387	-0.19332253538853064	-0.21432565010078958	-0.18762264058807976	-0.21825128950164058	-0.1916801724323678
-0.24096932094638468	-0.20951379499350092	-0.22761782366836908	-0.229116861860389	-0.3498661554120193	-0.24314663040445605	-0.10149153629235057	-0.3929601848380773	-0.10865339862092226	-0.13794649660501623	-0.0952258759918053	-0.08648066176135831	-0.266958785586712	-0.2840415099378008	-0.31432846156132654	-0.30317089273844156	-0.12234306421234288	-0.13591970019445204	-0.12689665174680925	-0.34069586920658684	-0.11047034957744502	-0.37111352375769596	-0.3605603958191314	-0.2503283292504105	-0.20992218962677345	-0.08674182306915197	-0.14263633465012276	-0.12440505451816455	-0.09064833944488716	-0.34771705583715457	-0.1568285374552162	-0.2253386404476213	-0.13194158638949538	-0.09890774494676369	-0.39429835748400166	-0.09646981368607581	-0.3044896237318396	-0.11553221790888911	-0.3396213823353272	-0.22445580201720589	-0.17944518401660037	-0.08125471094923035	-0.10147013448927858	-0.31473320073138666	-0.21505699674049766	-0.23036531604674337	-0.13146908275693203	-0.16673586415264047	-0.13587053140470362	-0.16992338614328117	-0.2491884816884561	-0.13124490265968375	-0.08552508992586395	-0.24548199791699754	-0.12996267216785268	-0.10551916125776514	-0.3408929036784093	-0.38221843641003334	-0.3512801355662758	-0.23845406515654477	-0.0904507987585191	-0.19047415977143412	-0.2182231784572336	-0.2157926226398369	-0.21366196496805673	-0.1066595059592426	-0.1455930744919165	-0.11377761557716477	-0.10906142369611835	-0.10881666641298894	-0.10573049885711767	-0.19375735038812586	-0.098655500949982	-0.2213344709193748	-0.18756123977474126	-0.1535030209434326	-0.13836928240505952	-0.18191622469757424	-0.1811328586698729	-0.11758804145964316	-0.14139660923628422	-0.4820173913208275	-0.30697509221875946	-0.1311282800951339	-0.11784135830307836	-0.18634523019600702	-0.35911468429368737	-0.15997909432251817	-0.3341709520529527	-0.22127497841094546	-0.29903325331886643	-0.24046581220070973	-0.17299100364407	-0.1571345088556938	-0.11629581135929416	-0.19813050722196984	-0.19139941412749523	-0.31574213909695065	-0.20549899667986882	-0.18912424784861043	-0.181391457180962	-0.17298618909851599	-0.08741469838296496	-0.09320993271004045	-0.1945557427580587	-0.12280993993529471	-0.09322247662984946	-0.06811638235642349	-0.12758609198853105	-0.178761531480021	-0.10991838214769566	-0.08627048042886214	-0.19041007011877725	-0.4471317314192234	-0.06238796364463618	-0.3851237572068558	-0.12202953938627596	-0.18484788061744967	-0.19585478154434516	-0.19018079360875972	-0.13536025610286578	-0.14813973685750975	-0.3620228850854344	-0.21405121178220077	-0.2435956260749781	-0.11275025237109011	-0.11003012063921908	-0.08684198032214414	-0.2810030837718535	-0.26277398157033305	-0.34985399144286505	-0.22885341786342744	-0.18997953152624591	-0.13934090099069463	-0.21326845835958858	-0.10800506147214403	-0.13215318084148903	-0.24010821816419275	-0.159461079604084	-0.22599946672973953	-0.22253422313810473	-0.10542876767361971	-0.10275875884638962	-0.23227975249897803	-0.26471369207457424	-0.14309611027100977	-0.2159189722752557	-0.1261580565033537	-0.13370107792730035	-0.12317770280877856	-0.21739965571966918	-0.1621526458841629	-0.19553615959268533	-0.2753109230914791	-0.1384848079136926	-0.1785787171201294	-0.12065700158637313	-0.14641003072810443	-0.11319073756284852	-0.10273553926135885	-0.21195202823841391	-0.08490071691430369	-0.12568307600494372	-0.0842067895434862	-0.07114846978921928	-0.09717619877972625	-0.3183282947612754	-0.10658036053038265	-0.15420232952228746	-0.2548793507469948	-0.20905189476403324	-0.06766072791848331	-0.33655792152725983	-0.31437154957464897	-0.11215100757086235	-0.04314868889814645	-0.09427391120483737	-0.1969847119151948	-0.16605414305755872
-0.25053908185094786	-0.1892578288456635	-0.24289956376168187	-0.25834401628169906	-0.03920314379316543	-0.26702538646089924	-0.005646445094179692	-0.017656324284217623	0.0028192328969178365	-0.08186821868250754	-0.046999915296548955	0.020938713819150634	-0.031287946119334595	-0.058556409713778235	0.04398899227424302	0.07727904313968514	-0.006515351910487965	-0.12295793940311806	-0.06299776400770901	-0.16574188032874132	-0.09183224280603547	0.0823800462435258	0.13811070883598	-0.2532042221179099	-0.2253325124402627	0.005211768126424682	-0.14847226691239426	-0.08192177652069393	-0.024116039433051545	0.09524079967693602	-0.18259698725724144	-0.1920209605035093	-0.14096704462622667	-0.06391115356283078	0.040261756342482524	-0.012061856305651292	0.0689944646745552	0.07113127638233874	-0.04463787710425346	-0.21344924505243024	-0.3224651940869764	-0.016296875934328395	0.04806344529474853	-0.033917319413518957	0.1153052061019588	0.1211442803636872	0.06653648024325798	-0.1685368938750309	0.06369559245702794	0.05393662293542059	-0.2240054331254946	-0.13222181001052077	0.02328155716359334	0.12247767893294255	-0.1158605963010795	-0.034914146959706016	-0.017747608056600056	0.06333734016610912	-0.05649610873065228	0.13278076360084395	-0.012280160835097365	-0.1912761930317794	-0.2968362471866616	-0.318330401923289	-0.2882197199487774	-0.017297587086258254	-0.06596799367711101	0.045245007027217066	-0.04762382107302318	-0.007926182157886236	0.007344833217868732	-0.18713806744141287	0.015064226292637387	-0.2789271870119913	-0.324360946968021	-0.07760115787844582	-0.2765575446390788	-0.273002841987801	-0.2399764911504617	-0.022960523355182283	-0.1154236056403865	0.03861619067099306	0.12630852447333152	-0.009154076073973005	-0.10421399886374141	-0.1867486262837056	-0.02703180289077947	0.0745412365651424	0.08211945097116047	-0.2826002229303465	-0.18448268567640008	0.09800191795644247	-0.3049254310354166	-0.3524570115975699	-0.12852466566828985	-0.213940180501011	-0.20782098199826937	0.013836569644338659	-0.3621458934044151	-0.17527284156404604	-0.20409172727246888	-0.16528124864362098	-0.027423447060866052	0.05413186235604553	0.10884423579642336	-0.08263169640770157	-0.03662319832131067	-0.012293276316109436	-0.06292698428013913	-0.17506928076314854	0.01036430498958621	0.04933714175581569	-0.21480803480005356	0.07148101565067125	-0.006289230918202451	0.059021178298965	-0.02596187658806985	-0.17978780382332527	-0.35468649444886047	-0.31380765164442537	-0.3121797358507147	-0.14310585731194278	0.00304370078867669	-0.20897945286092418	0.11006373536277973	0.07094668376490397	-0.007081551875200598	-0.0684564768219399	0.07307661705827592	0.0879277977083363	-0.05808933410816261	-0.2517759529463605	-0.1762676868506461	0.06779148039986771	-0.202504261471955	-0.08887944081940125	-0.006707919101271373	-0.22238488743818863	-0.17806071270152368	-0.25419751034743027	-0.23470833967484322	-0.09110714650282031	-0.06964023526260435	-0.24034134950056263	-0.24692995557079223	-0.16139892478512965	-0.244750808828394	-0.1305677111408668	-0.10651569263465119	-0.12388530574298043	0.06703377925734481	-0.15591191769856483	-0.21179997469060857	-0.180024853284934	-0.05410694077041084	0.18278185440606962	-0.1483314359136511	-0.031777093920846045	0.0006687095931121739	-0.1295504140465244	-0.20486163232747157	-0.04090595686317357	0.11327095827321147	-0.04243794196321901	0.002692143819616008	0.005848481648071072	0.07865913068943409	-0.07895630987071073	-0.15779109127094632	0.102014523838234	-0.22938020177096569	0.04052664244620052	-0.0068684975379060265	-0.06731764442310512	-0.06106389522504302	-0.02258047718839741	-0.0890374203859286	0.09115767005938061	-0.20443621376383853
-0.2205917679251037	-0.15654314981553963	-0.20933400565520796	0.33702887257665726	0.2571924513566295	0.2992077380338103	-0.05677958400331701	0.11787013063960117	-0.005552828477744048	-0.016760919779531036	-0.03986001170248232	0.0017570881685230466	0.24076158242923423	0.2866576206915847	0.1795459922621219	0.0352844763883082	-0.04442693252598251	-0.09730931409352384	-0.0730199677615539	0.29550120618606907	-0.09277340247057897	0.05397408413401403	0.04174138789516285	-0.22919464914633042	-0.18179512622792562	-0.012552039159562628	-0.08097765986124719	-0.07849395467107187	0.002977002912348037	0.08865619252240248	-0.11115902947130132	-0.17464200976048172	-0.07443543925392443	-0.0510715043840172	0.054361086233752076	-0.02960599236188463	-0.0016468136479794449	0.0354223926999821	0.08074317090943928	0.24183185470855717	0.32577842437526494	0.013986203545689607	0.025334863001132968	0.0934879675646754	0.020891217773473914	0.008303235000284376	0.027052609498977503	-0.10694807756892502	0.046880982751571126	0.006591480618668433	-0.19701117833259246	-0.09058802368885283	-0.010982405398398898	0.0022983043970809802	-0.07150668589609041	-0.04952740489536955	0.12458549273949984	0.020720933702017164	0.14207301949264842	0.01603587525307823	0.0172520163256355	-0.13615095671304045	0.29001671810673146	0.3296793879676029	0.30636523644534464	-0.0404014068103678	-0.0707386097083263	0.01231453800241078	-0.05751826626421469	-0.04264383554815976	0.029945156918400495	-0.15986938574857218	0.017354984884171754	0.3075444290197146	0.320889918211195	-0.07099208636628351	0.32630689936567664	0.27483480717057374	0.26390194656605603	-0.03421382161030473	-0.08245951006211072	0.22284732491828446	0.10077428534194202	0.06301720556807772	-0.08172708932501249	-0.14648041473639561	0.09523366348285842	0.044610096083631756	0.03663538813664141	0.2800369613113556	0.22129456104726652	0.011800758056132232	0.3086175379445195	0.3084550075782624	-0.06620969563916723	-0.16949951532614876	-0.154357258081725	-0.025183907068890732	0.33984110547208307	-0.1506879361066255	-0.15085829417559204	-0.11076443726389193	-0.021883341127165973	0.03673516034987903	0.012028094079908236	-0.06561379739231424	-0.024470317336382497	0.008215889111965219	-0.08637800044728275	-0.12634610096023552	-0.05184011770150837	0.024185482098021682	0.36752350463019834	0.1647611318616621	0.024281450752593497	0.007572470573105727	-0.044771181246249764	-0.13118896308926636	0.3254837771085517	0.31066004494375343	0.2309608640283229	-0.07564978922515628	0.07449305142392909	-0.1658930541567739	0.042017237993890066	0.04024115371236048	-0.04667317525291692	-0.06653701027982928	0.028538693701760043	-0.05651836633251217	0.0765523867187744	0.35868155385814526	-0.15322245234061785	0.025999430497029907	-0.17831688338557958	-0.043967599233141585	-0.014846120192656936	-0.2239680108077794	-0.11565935099495639	-0.21063886381992977	-0.19207293261847358	-0.05803149989973516	-0.03543379347405126	-0.20206459043376251	-0.2616224359612638	-0.11845366792633566	-0.22371606677878542	-0.14068654970148137	-0.06083910096732778	-0.0831374789443664	-0.007561085409145185	-0.10256970218732037	-0.15748909170389344	-0.22016574600848166	-0.011010953494479558	0.10380071160673071	-0.1145809684436806	-0.04844960226571221	-0.029601586936478186	-0.07604034640120713	-0.17049939097268207	0.004861057385556922	0.055856982198092264	-0.006984935232737743	-0.010765436764962333	-0.035939694774673514	0.03454083344941428	-0.018460515246242204	-0.12514829298979896	0.00457457963173899	-0.18319400416067413	0.056890776573352064	-0.028031085205964423	0.11260727405548535	-0.04212195964950305	0.016125978638475258	-0.07832911170996582	0.008718757556844758	-0.1527506834298059
0.3783825670306985	0.3128145347845367	0.3838406475901094	0.22764283931964072	0.2641804681670498	0.2154105593116968	0.2572445578364728	0.3643111321506717	0.26440987023070106	0.31340753885850003	0.3026960513434507	0.2649561513295382	0.2537628615103601	0.23006939761224557	0.35467524655683125	0.342532304086274	0.2791266898606541	0.31751557311827605	0.29507203015036954	0.17008154164197045	0.3224164042143546	0.37018663109940253	0.3960036519250527	0.4001637141405956	0.34375816414928295	0.28745470490925484	0.3162146023334993	0.30244571570545287	0.2875323929830831	0.3628041755092003	0.3093577114463417	0.28129485264164955	0.2925362185035435	0.2871419543712942	0.311589419505914	0.29620263676978975	0.27051647788796396	0.2886754785300143	0.29425598123742436	0.173015156327627	0.1298594708290326	0.28661301060071553	0.26823218727503967	0.3153760463830624	0.2988900454872581	0.3173688158105169	0.2957015638159284	0.3145885232581077	0.2616441092751473	0.2736326526170001	0.35148089666396154	0.3041224178066315	0.2921837335535794	0.31254732480753183	0.3140457518486585	0.27661046313984156	0.34102237738710506	0.3415975156451393	0.33213320075797637	0.3286423700399431	0.2583099602890136	0.30207323914326417	0.15324578059999244	0.1564101576093559	0.14075879023475132	0.2730257106998588	0.27575322414471326	0.28074334861613287	0.27361261337549847	0.27608326478924095	0.2466752546927286	0.3053096287985371	0.25444857781851415	0.1323243086648074	0.21306898653044667	0.29946040597067636	0.11327948360528181	0.21569940167315185	0.166318793300889	0.2882895697942697	0.2829093476668538	0.21639136733382625	0.2996739894143421	0.23002332384931234	0.30666991573831026	0.32081053763155376	0.3351929995290699	0.29615801076284065	0.35217494119574067	0.2067405279517878	0.17341957213653056	0.24515722587922328	0.1494510542624596	0.18353306075379341	0.2744562952653844	0.33412055044654976	0.3262272505791736	0.2450873879581014	0.15059967693428308	0.34685607303986676	0.343609813378281	0.2974744301340917	0.2868733741653758	0.2819933778009517	0.3040137874775731	0.3084145959510079	0.30872308280862276	0.26044014677556515	0.313378297379443	0.30019473155745746	0.2926463322055328	0.29136054714263715	0.10917461977768589	0.30344835403204296	0.27053241116766247	0.31375181718935596	0.28589993150768295	0.30309535452487085	0.15476027227286904	0.15039226084335475	0.2384007552163388	0.29943912389811955	0.31078083364020037	0.32819381063209674	0.28644649124343047	0.28295809695664614	0.29313306267662764	0.2950269101030901	0.32006007619712684	0.33916670701725593	0.25487566842131226	0.13532066798350917	0.3303880275168747	0.2878517655764615	0.34016888534055845	0.2949131646138985	0.273500956262587	0.3787159397631106	0.3200305893882456	0.39607942452134914	0.37037140085693565	0.2938361552146125	0.309526129502379	0.36365718200733865	0.4356048681041974	0.32411642729107226	0.41204921354939017	0.3624964762998636	0.28843395563726204	0.2992005207174781	0.2696752268542201	0.30258650951588734	0.36388476797945046	0.25754563959032306	0.2787110060458694	0.3116913752149435	0.3244618194204806	0.27061444159659803	0.28296705841967834	0.3314992957051279	0.3671561010256339	0.2895522257823866	0.3190599528473462	0.2967626182923986	0.28769739753991364	0.29324134434389293	0.3565349655009816	0.3114087371434878	0.35510028487371814	0.29808661771629613	0.36614932136721734	0.2575476977376463	0.18483637289537938	0.27385878636173994	0.306998464198576	0.3090887791279735	0.3323839767155925	0.2893069235342483	0.33682693154794985
-0.4760375422281021	-0.47576021876075286	-0.4948175200406165	-0.35263957623965553	-0.355444041798817	-0.42551097047574377	-0.3674259054964846	-0.3779535871315702	-0.4071569665121543	-0.4847373236005078	-0.4173706405006124	-0.3739045537747496	-0.3531589327337891	-0.3525840517775619	-0.42926324622050577	-0.3421651604958794	-0.4049056792029454	-0.45659446829126876	-0.4355968323554931	-0.2980903073055858	-0.468631209562915	-0.38383534793495966	-0.3833478686611061	-0.4774126320763844	-0.48358166091208094	-0.41216383907671356	-0.4882087988486304	-0.45038683248973005	-0.438365295527605	-0.3506087804217847	-0.48787588630040696	-0.4446422039753778	-0.46871790316575834	-0.4448972945922068	-0.3872849198869085	-0.42974414995409566	-0.3507096907762293	-0.40659332945828963	-0.36032462754196964	-0.27401121819357105	-0.37852479939642003	-0.4234110601634814	-0.3893964504099625	-0.35249148776502015	-0.39400035173821396	-0.38071647665127667	-0.4302501061215254	-0.49563168693473164	-0.37200578396477074	-0.3788176386769996	-0.4632060927375012	-0.47995984596369967	-0.38954308366290896	-0.3635660726130204	-0.47317199995228976	-0.4193302297396535	-0.3682022144182647	-0.3626416655808149	-0.3395488656134143	-0.41510904071296606	-0.43063808895136424	-0.4809683991198786	-0.37339981656656585	-0.5069439386147231	-0.37454236813431074	-0.4041470038416417	-0.445605267314747	-0.38010118447342783	-0.40548472468567537	-0.4056494240433487	-0.4047885337321089	-0.45888042328051737	-0.4060473240203929	-0.3073166987131548	-0.42176703251994624	-0.4577512092022263	-0.3844882648656965	-0.523995163328548	-0.3290944033632439	-0.4309887842915847	-0.4691679831624465	-0.3589816556775756	-0.4084156545925497	-0.4359040756278915	-0.45064126241847774	-0.48980311094630985	-0.3305695877263305	-0.4228709922274561	-0.3830623226220597	-0.5360156145409727	-0.2626286589418485	-0.3586173562403195	-0.3541903430119823	-0.46111317385122513	-0.4611881223994324	-0.47583011638294576	-0.4797820299428292	-0.3361222108540319	-0.48586648658103915	-0.4902301697619785	-0.49053505656044444	-0.48271554293661895	-0.429663822749075	-0.4155105173598799	-0.38892439049428396	-0.45158801073535454	-0.4349482872600343	-0.4145256329866016	-0.429591640142083	-0.47121814248462096	-0.38479421313896084	-0.38932938303425507	-0.34490212709420615	-0.42674031214390934	-0.42699889940003244	-0.3420460071164868	-0.4238015551893826	-0.4720415446068607	-0.43729504596113505	-0.386201526027125	-0.5232907337352196	-0.5101788788328785	-0.37360482344996554	-0.48852234434517416	-0.3714894382262622	-0.39269485506958746	-0.40759880839495183	-0.4015083084515812	-0.35659317109552835	-0.31983140555319073	-0.34631795169376206	-0.3244437361412377	-0.47789784830512744	-0.39741814333435993	-0.48505991242962315	-0.45354894270798835	-0.4269543447839226	-0.48640477658696474	-0.4865881534036454	-0.4988012601733149	-0.4864444321684392	-0.45668025311985344	-0.4574396089702337	-0.4823936388191173	-0.49496223991758204	-0.4911519595232192	-0.4887060119698818	-0.43937475969534096	-0.4513050940350856	-0.46390911845314675	-0.3676530647434519	-0.4837100580140326	-0.5051794032534045	-0.41191428080151693	-0.48517744611888	-0.39102014582903577	-0.4699014081028999	-0.4355966590677155	-0.41297977490068316	-0.47755235877285557	-0.5158103030367208	-0.44286461363800095	-0.3893865322819965	-0.4299812981327653	-0.3854778079288106	-0.3882990505757524	-0.36774834938084056	-0.47725871758206256	-0.4737477270145236	-0.3673809248879393	-0.4905304255088848	-0.390592436958972	-0.35732229038262137	-0.3520438824444047	-0.45168614332233753	-0.4194344536961547	-0.43930440777209173	-0.39934852180067026	-0.48593246610593305
-0.4705669963166337	-0.44996847846048327	-0.4516621957770294	-0.434840343472904	-0.5849715404996104	-0.47549556706240337	-0.5137034073348512	-0.7077182679884831	-0.4805747653835687	-0.44078313639548283	-0.45584779952253995	-0.48528778719233745	-0.4973233634598231	-0.5115707839855655	-0.6223287773620116	-0.6338153479882058	-0.49001206608505177	-0.4473036051341469	-0.4678239978466905	-0.665043060065859	-0.4680185780661664	-0.7404175202367993	-0.6677852284853777	-0.46824757720515975	-0.4531543971414774	-0.46096756007287476	-0.4475125676941716	-0.45692504934283695	-0.4297937337218425	-0.7183177643656303	-0.4441832987351251	-0.4723072017803758	-0.44565460614008134	-0.4724902892365722	-0.6888508148119521	-0.47328103872287164	-0.6009701691314497	-0.4555669453832535	-0.6401518110803918	-0.45631839925479245	-0.4999390789022473	-0.464764193401888	-0.46069577585196564	-0.6871388156905054	-0.5323598254662538	-0.5589756763625016	-0.48454657827122505	-0.44187172603373237	-0.4910384720064749	-0.5175413744061987	-0.4414436088810627	-0.4591561715128324	-0.47073280438631826	-0.5774811754465475	-0.45478847194565275	-0.48414299751964285	-0.7435908402116082	-0.6929995799383772	-0.7258866776047033	-0.45371321872685044	-0.4609389055124755	-0.4469091726472908	-0.469338692902285	-0.4457579096471742	-0.4983000089401399	-0.4869348825475496	-0.4722517984723976	-0.4869418125886169	-0.48544249157941044	-0.4996176892882688	-0.49888699199183584	-0.44488057967523353	-0.48497075371710197	-0.5004742222373806	-0.5611076198476133	-0.4504682416010256	-0.5526629277513545	-0.5471553125035601	-0.5398774289810447	-0.4664769255423725	-0.4714980267921234	-0.6354594899336695	-0.5895487587608511	-0.4762902886451419	-0.4596922241155873	-0.4421794512121412	-0.7175394082028227	-0.4467386360217728	-0.7034564248710783	-0.4934621485852815	-0.48070041040089373	-0.5033472793464022	-0.45805493774902695	-0.46078956135550064	-0.4591704961263138	-0.44573271682105475	-0.43673456518681886	-0.6621677053363846	-0.4447781640648767	-0.4319702911915676	-0.42869593006578444	-0.45051485217508314	-0.4527649593773527	-0.4683022488867351	-0.5255494958448971	-0.453189182132686	-0.45407083329841136	-0.46383046992440247	-0.46194949327325374	-0.4505491906995842	-0.49923284052874084	-0.46927514407587323	-0.5665578651956449	-0.6797957349775792	-0.45870425613820087	-0.6785375540455085	-0.47578095191479874	-0.4356001146879708	-0.4688018896466484	-0.499325922620828	-0.5556489630800105	-0.4617760367518633	-0.6776662472891745	-0.443755277765024	-0.5462069571820591	-0.4667648157548778	-0.47656072668128413	-0.47418409907936687	-0.6196212272750997	-0.6505419222422386	-0.6628006390969906	-0.5040405846658828	-0.4399493721951351	-0.4834806362520233	-0.43781669813099344	-0.4510562168574781	-0.46436848515642337	-0.44620308748821724	-0.4325606065047328	-0.4552554596074184	-0.44332695035143566	-0.46855605173154813	-0.44700987585408714	-0.45726139671002897	-0.4592278034282228	-0.441253943225948	-0.4415830586962858	-0.414727040965426	-0.4545920135955329	-0.45884471769858237	-0.5519542635295737	-0.4417305215796291	-0.4299261244204283	-0.5059782248107666	-0.46202712931500456	-0.41447130669086385	-0.43860315349653844	-0.4759034150006596	-0.47905549411873094	-0.42668796506052686	-0.44012922237422947	-0.43246130047680065	-0.42791650775896073	-0.4525203354353291	-0.4741678751759426	-0.475091400330941	-0.70334321119961	-0.4470144890877006	-0.41762337722052634	-0.5633694399051987	-0.4373938308064699	-0.4694043501291352	-0.5836374934513294	-0.5937787080929269	-0.4516879381827331	-0.43304142635451737	-0.4347519116341062	-0.4902075102054325	-0.4414537310503045
0.011464214458226013	0.012065082998929083	0.0044942401872151705	0.3186707328866871	0.32195505325824353	0.3182453668452265	-0.07250685927718101	0.22161349563108904	-0.06644436905729753	-0.0346628394854909	-0.0721132505446345	-0.07300325119083423	0.2091979525490222	0.250495884398675	0.05910639841910381	-0.048779154529067226	-0.09481513843271877	-0.018270928510601997	-0.05225783259650488	0.3924193788111564	-0.06303411738257486	-0.060818433785107984	-0.12126392621188337	-0.008249670754483795	0.0017017479595750062	-0.10841689993754938	-0.017852059029646677	-0.07683359799761866	-0.1377371321596045	0.038590272512246726	0.008095629771346785	0.028110132797666776	-0.02082242407525048	-0.0637182219616707	-0.06657739473025936	-0.11242887842303068	-0.11298901311700354	-0.1480930202296945	0.23396579966475498	0.4227904643246382	0.3745964248664697	-0.08650137023823751	-0.12814576884621934	0.24431223715705894	-0.13748034396485093	-0.16292674914981556	-0.11088561231421179	0.0012964401902550438	-0.15520850952724624	-0.15366547998633998	0.021237555644627815	-0.02917280320550869	-0.12009156508463742	-0.1876135147539547	-0.036877954938195845	-0.07031592753126961	0.21718382169369913	-0.05362885510438137	0.3502862244908959	-0.20658521551035647	-0.06798621695991736	0.016000337823586702	0.3388526700789587	0.24145705776977205	0.34699447949781426	-0.0726207702536425	-0.038519594386136585	-0.1298101293450298	-0.04655244189434987	-0.07917369065477892	-0.11864034853841787	0.004600846455076357	-0.0843907247238102	0.3856713212906633	0.3044510764527647	-0.0429718778400216	0.31003412801537933	0.2627486687267636	0.3138259987883123	-0.06299082361680025	-0.011672894310335497	0.09132760896842912	-0.15509678631941987	-0.061341343044658186	-0.03571739593764575	0.0006012119342151401	0.2880168576717702	-0.17168251362449294	-0.07725754289382253	0.19185301927959392	0.43996642637037914	-0.17183104118446346	0.34688287311723914	0.30124156061513274	-0.012319296282835679	-0.0032935708885213077	0.010306842210316497	-0.08580920240282186	0.2683641493632889	-0.013581256147008308	-0.014892335589075018	0.014412014203100232	-0.08461841920909552	-0.12435162058160673	-0.170656861415688	-0.05798497536610686	-0.09561597988480369	-0.07468854588104654	-0.08635550463066352	0.005352299409961958	-0.08889479806860087	-0.1255382669890381	0.34099157724124757	-0.03669436220315386	-0.08343154277563355	-0.06056671297367444	-0.0739209051172168	0.011370871053303727	0.32039939913894494	0.35102255502020685	0.21323676243836942	0.0002504991813089552	0.09699285740567615	0.013420509200021635	-0.1731867326977581	-0.13503672917576293	-0.12335043062230319	-0.04062943204684638	-0.1278679466781517	-0.21649129759835897	0.07363042039126783	0.3703181852060521	-0.015784765967896935	-0.16418320411252824	0.0099157739024055	-0.058988103405103354	-0.08395598448580974	-0.0036554470376990167	-0.008235576536143208	-0.001972170364883813	0.012345672738773072	-0.03660424485716102	-0.07769597593218136	0.017069515970664334	-0.017446082189947976	-0.023524052218161673	-0.016226885744544256	-0.09247200261211944	-0.0213542265553556	-0.01323946625684111	-0.1593801045174739	-0.002568981738394621	-0.006536828723061633	0.06266143270678654	-0.060815367016552324	-0.20934411761807958	-0.04118144574411059	-0.06751777045380233	-0.11317469944776384	-0.06224734013924832	-0.01425756645644527	-0.10536005159917816	-0.19208887028928545	-0.09004170615706841	-0.11370835619349481	-0.12843034523119404	-0.1417305733308632	-0.05183406815950781	-0.0482471495496512	-0.16227171974949275	0.0014629102028317909	-0.08602871450824928	-0.0851866684106824	0.2159660391938682	-0.0798881016258986	-0.09253794796903902	-0.10951598093092893	-0.19390700841765215	0.00019198597771580284
-0.4293070138141054	-0.5235984049714416	-0.46918405863078216	-0.6132976922206025	-0.5579337135731672	-0.6810738613778665	-0.6443980644840711	-0.48668565982898626	-0.6663279648924318	-0.6499263489078334	-0.5951223771770703	-0.6451097812091217	-0.571985456097989	-0.5537264979287767	-0.5284229662475544	-0.5561004971530779	-0.6487645635895941	-0.5659350492584388	-0.625339706486113	-0.5617011733036774	-0.6183125125088117	-0.5227704688046154	-0.5779931925149372	-0.41987062506703254	-0.4878719084868327	-0.6693367147557312	-0.5781868186475884	-0.6114955117174373	-0.6451710361770285	-0.5432363952534623	-0.554125663278095	-0.46542789736009016	-0.580844138643139	-0.6365232296568935	-0.5173973203051537	-0.6496286442183102	-0.5443972080219742	-0.687072489985053	-0.5152493389244442	-0.534420171987165	-0.6497590483590705	-0.630839865487611	-0.6642058005604116	-0.4972219444979178	-0.6318187642159564	-0.6032063436481452	-0.6800531704149313	-0.575036560412068	-0.6691003038824308	-0.6328579864558355	-0.4838928786387604	-0.5851670890683892	-0.6432065578329703	-0.596536771586533	-0.5917800225168683	-0.6542784014864044	-0.5270000457303876	-0.5171244359359645	-0.5527809177435482	-0.6588574611155471	-0.6843339277998376	-0.545476937848312	-0.6400177059136775	-0.7072523053546351	-0.650291371089402	-0.6562386603851865	-0.6410083272653289	-0.6744453986384247	-0.620946704285091	-0.6582440337151366	-0.6832453004944262	-0.509269289391095	-0.6772767424330567	-0.5994665216289431	-0.6738818337362485	-0.6182292242210613	-0.6767285838369282	-0.6790853976532292	-0.5946641149259443	-0.6538644831796754	-0.6090273317438679	-0.5436913131507275	-0.6051531016236708	-0.7121080246464225	-0.5825752714785725	-0.5454135172121097	-0.4699070904661785	-0.6930975443768839	-0.5404825384717239	-0.7003945983929566	-0.5272164452568612	-0.6196016792775182	-0.6508994790679069	-0.6910331452886492	-0.5987455000823291	-0.4977220865448494	-0.519219388824836	-0.5044641049106406	-0.682168852867734	-0.5464289063317159	-0.5263460198967821	-0.5680635106200868	-0.6540027017871909	-0.6838066099044362	-0.6483945280317912	-0.6025100450191361	-0.6236727280411657	-0.6654514384703202	-0.5935447417868168	-0.5337572460215979	-0.6414439993266855	-0.6517839434173576	-0.6960260133231266	-0.5608350116346463	-0.6715580140390003	-0.5159156713910319	-0.6404586863774682	-0.5488402172764981	-0.664806048985934	-0.6557693094468972	-0.6857681043079699	-0.6194976990820211	-0.5328365212600501	-0.5264959061188204	-0.6144056890694587	-0.6885677316814833	-0.6525446025329854	-0.5772007301211667	-0.551464186209936	-0.5002209143627196	-0.4985692586457279	-0.6361336578126934	-0.5303893787655367	-0.682069151906726	-0.5179012226720512	-0.6092858035796256	-0.6808423425714448	-0.4840667159955717	-0.5525413188910707	-0.4620058732312996	-0.4846234692368071	-0.6173972829315487	-0.62720454751113	-0.4670499871895015	-0.45054892946297065	-0.560901213092987	-0.446801785388227	-0.5098771855689247	-0.585612229675335	-0.5879513229574511	-0.6127067630598679	-0.5789424846675805	-0.5298771065344905	-0.4302540770350617	-0.69168031195226	-0.6697507967079064	-0.5400671097225173	-0.6518838805544528	-0.6597219798706935	-0.574986041735459	-0.5370531118541244	-0.6398317604409591	-0.6483199627231379	-0.6175980757265512	-0.6262451637439664	-0.6214182671692644	-0.5218910354650833	-0.6427991781301614	-0.5439558968918937	-0.5786162550232947	-0.4955842072709077	-0.6814160333512905	-0.5707488488613118	-0.5297240171085783	-0.6225817686037047	-0.6165831163415654	-0.5794086386770757	-0.671045598938939	-0.5211671009832081
-0.018070505612523546	-0.004766743784851105	-0.01974931724754038	0.42474207012760495	0.2326414834388243	0.3536747040544006	0.01908628001839332	0.20128479961876367	0.021516611991489937	0.01293605360964395	0.018641795497483064	0.042027127505237655	0.2365287669953282	0.21613484479124417	0.13587546846748397	0.03994602098698631	0.015134577836486085	0.004966159923052563	0.012753938081281432	0.3064042484834652	-0.033366684030443156	0.05344223087290807	0.11670696072298498	-0.021230874818744486	-0.024875416146165646	0.0037441082781050974	-0.011401261442804886	-0.00851242158668633	0.0037895869310850677	0.14830455250232513	-0.033499271895073526	-0.018270369825641078	-0.024965675966098208	-0.028717307455442834	0.058099445596737756	-0.014368362501595164	0.06730350703154951	0.06106088069726276	0.2164762466984156	0.2983442871812858	0.3272618133983282	0.009279937508605958	0.06434841574420161	0.18997949085416543	0.045083592934602804	0.051874150715541203	0.018077666178868218	-0.02762040109752935	0.06526241486716723	0.06478550548060051	-0.0005750008679253071	-0.022085568369978256	0.033787526685137494	0.06712493358968513	0.0002447048687202122	-0.01447444575858979	0.11891928367819106	0.10306857297893277	0.14661789337107392	0.13039042058669803	0.00246628479975073	-0.02260274240191948	0.30980353429266005	0.2610724305909329	0.2843576644763438	-0.0013551986559561732	0.01776472524315327	0.05019964476022648	0.0024286997921581094	-0.008013755597105016	-0.005157685913756649	-0.023661130342912076	0.002877470847650769	0.35971769163780754	0.3159160744137506	0.040833802431249566	0.19962599030514522	0.15957356774198872	0.2831983217767934	0.02773887198802158	-0.013051778522383109	0.1083970917660274	0.03921738148665717	0.0177745738355679	-0.004813279264874695	-0.02487938663545325	0.20063540430103394	0.07868527857944885	0.040342459109592846	0.18569330546486817	0.35495954066799024	0.1284719977196354	0.35013536262049677	0.3284259210491976	-0.036783624987469135	-0.029935500400963794	-0.03014852616015598	0.04159579226338371	0.2807927127712301	-0.01283450553796682	-0.03346937628130092	-0.007569614326357707	-0.0019992284013937156	0.023747449174705046	0.06275204710978215	0.013442450829837069	0.006658236632202649	-0.02116307684662968	0.01230030479069135	-0.00440711899204746	0.027870568364917928	0.04638377923396794	0.1483602390752773	0.11086176567403083	-0.02146267245975171	0.0982047121449042	0.018904388271045652	-0.020429943834002776	0.3460736958058029	0.32629206239112024	0.13043483998804833	-0.029212251937460285	0.20180599442857	-0.017461980960601933	0.07645596309443711	0.06334401882955779	-0.004458048791168713	-0.0005293950132865335	0.00868178900928089	0.04575043985313465	0.14687408883880643	0.30053677402247353	-0.011047275134387288	0.057376045583811236	-0.008766646434142544	-0.001769316405670629	0.036064494912116635	0.0007973247771241448	-0.033488649392024034	-0.024698820701977348	-0.014270101419013803	-0.01951988062011146	0.004165583409907407	-0.02036752275381895	-0.0019694594612870986	-0.03160353773990918	-0.0224727768589066	-0.03605995539225977	0.009469037614784473	-0.015315046622608852	0.06146559907430443	-0.02417954797752926	-0.030137731026104356	0.009381555516208326	0.008510061471943636	0.17248698457748807	-0.020736389854963774	0.027642442036065376	0.007233537853681721	-0.030468177797911583	-0.009018188560874815	-0.005262617026375933	0.1252574390972371	-0.002592111177040654	0.01453023736219864	0.03348649718435358	0.04584258499812627	-0.0021554385298945683	-0.025287544227361763	0.06651205369341513	-0.021159358001607204	0.01594773790395141	0.08199785077143203	0.2751939043079186	0.013865766317728574	-0.014401196295851244	-0.020098969945999447	0.08936260259126223	-0.040941417798953786
-0.1235556985595192	-0.15762580586856834	-0.13219069614880385	0.10054119005792345	-0.1014226480793173	0.16091110167119488	-0.12109339697203048	-0.13236347867870787	-0.14489274369628197	-0.1644789280852658	-0.1399105301860044	-0.12913634302003563	-0.03631888130484123	-0.045838939058906125	-0.14830590085742956	-0.1688905946922936	-0.13940931188723873	-0.16495178068324995	-0.15777288943735307	0.015820876774415904	-0.16686069697134345	-0.14811154131867055	-0.14350043244439653	-0.11808290577994598	-0.14896180347729132	-0.17080686893884267	-0.15342204096870907	-0.14681257346973087	-0.14232409566667292	-0.11466928040040437	-0.15910631269408765	-0.14383056150897855	-0.15656450351439444	-0.1627420490487606	-0.1494696877667195	-0.15582181571179374	-0.12932162798319757	-0.1228157266628107	-0.1003480732423356	0.05126473142709859	0.1440487889453527	-0.14037625114540553	-0.11523603654698608	-0.1152296454253968	-0.1208754267373425	-0.1300619874441267	-0.10998787628600774	-0.169533809911543	-0.07996078383015323	-0.0751757403707509	-0.15665478675009703	-0.15828989993124476	-0.13748920402073225	-0.10788702167454654	-0.15216152916493902	-0.16186966630061894	-0.14516230966590526	-0.13624243893516214	-0.09835317060098289	-0.0876484362454657	-0.16725628019961714	-0.16327197670998483	0.14820596099350752	0.18924739229182408	0.15764191110075834	-0.15677897195944632	-0.15833383181698654	-0.11982400182319276	-0.14596442453935699	-0.1635102511675652	-0.12374400599751609	-0.16330618844700895	-0.1481103644323267	0.1121491221784946	0.1469056196066842	-0.15029127120964558	0.21138265231333025	0.14951371955191967	0.09536324555508649	-0.16861196233061743	-0.16725331138630772	-0.12980740124927537	-0.15514745651439432	-0.15489914794939888	-0.1587604096725737	-0.16633571706053307	-0.11853198039550271	-0.1256581932277932	-0.1523854601466824	0.12138009147317233	-0.005314237002932348	-0.06246235270288163	0.1385994483969431	0.20658388414180068	-0.16528101605455287	-0.1553238829910244	-0.16487229132685394	-0.10875482403673552	0.221916895749819	-0.16655736391413395	-0.16704081530205692	-0.1581532910314109	-0.17154163217514967	-0.1270753548960195	-0.08645898956020147	-0.1546100962309867	-0.15496540597176128	-0.16527021001009248	-0.13879821698007005	-0.15021290556086137	-0.14207553711903514	-0.11476505608251346	0.19444318109258252	-0.12809514942905018	-0.15781268412749183	-0.12510350385847208	-0.15223964933332335	-0.17028688364643782	0.12534118813045125	0.12190775843981164	0.18599816547975645	-0.17415221273573323	-0.08327404604481169	-0.16321962683206134	-0.10015228483872944	-0.1155483696802435	-0.1550655389322228	-0.1322549421727533	-0.14827225914968462	-0.11609856888673162	-0.0599016572317585	0.1505493919424162	-0.15983696598651279	-0.09722751067523354	-0.15750475629193106	-0.14949240899410687	-0.16699523901307284	-0.14008509389390358	-0.16378936985540607	-0.13199991235117914	-0.15285907108211821	-0.16718055908280569	-0.15755079353309154	-0.13852445513754677	-0.11841974839896838	-0.1634903056803162	-0.13150946734928692	-0.15798525487528275	-0.1447842810636979	-0.1657334503082402	-0.07946342688527276	-0.16964537551648218	-0.1652319873088518	-0.1567464739475133	-0.16703930144617649	-0.06033024666090525	-0.14303075349786376	-0.14798303547051342	-0.15078669759169383	-0.15094274998227553	-0.14438967971390965	-0.1509085251129758	-0.08581074517436971	-0.13737904709592513	-0.11928431161535355	-0.12186185562411513	-0.1404257731241809	-0.1647644928066197	-0.17668816066990156	-0.12517145357787804	-0.15720859358628164	-0.13356577532996763	-0.06773577508415841	-0.05105390504548703	-0.15692590759483285	-0.14769428365781512	-0.13999215683819174	-0.08443504261158782	-0.16501352315622136
0.03826887024667558	0.012767181998841887	0.02228648631616663	0.05413613725655947	-0.004043583337953113	0.1754720242510729	-0.05059354783639035	0.037708455108806174	-0.055610775562988365	-0.012833739394083638	-0.042037492658792926	-0.052011692741467365	-0.013536966544720336	-0.029675380136916632	0.034456727482633454	-0.051499668715096356	-0.05942759730775725	-0.03700020989220042	-0.059395480644028456	-0.03281631448702764	-0.06887673664631987	-0.06164556123915027	-0.042183497076703935	0.048905057616490596	0.01566848782311514	-0.05730803813555472	-0.022177247117041596	-0.05019931615326918	-0.021822363773772637	0.015590493316809131	-0.03434001107892874	0.03789293510106348	-0.040210983870652015	-0.07594299853556082	-0.020533056615296294	-0.05195567291168219	-0.00761071464188031	0.0014250143357036754	0.04652221996070534	-0.009138221526166626	0.08500152556280115	-0.03602799188810899	0.010084754928474694	0.06860605598983895	0.018927188016964358	0.002410242850003727	-0.0038285160076006255	-0.0272829081568344	-0.0037952749233988586	-0.0030102020343025504	0.025773603021728958	-0.04692412125509687	-0.037251668804433744	-0.024486090702546384	-0.03243843500316582	-0.08282414264466652	0.013003967300819597	-0.02481472783757778	0.014745033751274353	0.07587923522123982	-0.055132161926058985	-0.020455062321784387	0.11804689263860703	0.22841577115756861	0.10434646297453297	-0.07894781839373965	-0.052629061980204055	-0.03983127272197175	-0.07509714446056301	-0.07917506309977873	-0.022222151344127097	-0.0009942136092789683	-0.055565734226094426	0.01484666495054833	0.1445260658892491	-0.023709999330229534	0.050777538636600436	0.21558493632775083	0.035621695874907	-0.05131782654579245	-0.05768183260892597	-0.09627469821704313	-0.04134083759520932	-0.026419261607832846	-0.05642951435330818	-0.0234270383927258	0.07732477937850159	0.01703879833821101	-0.05414585148034902	0.26668569502084066	0.03340643430796568	0.01717844255075185	0.06887631615907185	0.17441995120663872	-0.06427914358624609	0.011961256211343238	-0.018014923652967182	-0.024839799853621024	0.17696194641866358	-0.017806088219916055	-0.011287838239378789	-0.025236213043042327	-0.05954674674047519	-0.018051833286207332	0.0021998256670583832	-0.036761136019758923	-0.03933910594178536	-0.06961181885629367	-0.04233003807060787	-0.002675617852497675	-0.06274142275551496	-0.02242978785065239	-0.04414691154612209	-0.060188840630202745	-0.05156631887366997	-0.03239842777437339	-0.051256389936217554	-0.02449886986532919	0.16289079648431665	0.12405126239994861	0.30912060115543655	-0.04524041263543602	0.00029516256217418727	-0.009349491182694028	-0.02420817314632777	-0.017077121699655008	-0.06328937673370497	-0.07410319285740201	-0.06791517022800111	-0.053349955515320596	-0.019276191582455984	0.0006610960980799191	0.006304319073661108	0.004106146995645758	-0.012882221001282529	-0.04024620491878529	-0.04359872453804697	0.013968089362401223	-0.025028915901747786	0.034657078791702545	0.004134359614117344	-0.06929637169186693	-0.03629150189930365	0.019500413075351886	0.03503021076289252	-0.04087835840867603	0.026736848567628563	-0.03341228336796967	-0.016527196730624444	-0.0557451890701986	-0.02380271200677342	-0.03168272276235551	-0.0069098315487801515	0.07148036341830695	-0.014782998390136928	0.09249726316071963	-0.04093908751369103	-0.037701506050930395	-0.05552397416637462	-0.052777680468100205	0.022959148267460774	-0.0324766768267356	0.058791535687839375	-0.041299697475243584	-0.04914946104151547	-0.035647355302196884	-0.05156362798078154	-0.03384956757378135	-0.02910774526715859	-0.008841706450448447	0.0014499909099952996	-0.042663670075914775	0.0031822299111387356	0.041042107244683226	-0.028072248893464744	-0.052058516379848166	-0.05666238381582976	0.033380496769013376	-0.03774759909812296
0.7810692507488077	0.8551376169666907	0.8120477551730649	0.663883918449607	0.889209668462396	0.5819780711539786	1.1043536157943996	1.0230532179822456	1.1053183770156547	0.9992816292134674	0.9691456995163961	1.0553927861169612	0.951315607745121	0.9007783318500853	1.0786115729653658	1.1565717908752788	1.0695138041215104	0.8921312835388957	1.001608825405553	0.7231802685126755	0.9263178655618216	1.1210026947083636	1.195812953816286	0.7582334272292417	0.8035876549180532	1.0575203142648721	0.8761679594903016	0.9565010827427851	1.0123609564702338	1.195745250518125	0.8351537557518085	0.8161070361922373	0.8709685541553025	0.9670394676771179	1.1200322090716157	1.0282712812040704	1.160991498765823	1.1280967289865385	1.063062974804877	0.7329941243213878	0.6442380306346754	1.0219349832287203	1.129671816716388	1.0524541946056534	1.1966923920269603	1.1618859920239029	1.1089304625207301	0.8620008861445771	1.1432838294540706	1.1427660605093846	0.8264760783867868	0.8773249392632829	1.0384209146708412	1.1398779549315368	0.9205705505912345	1.0154254051988114	1.0435618890257676	1.1503180842815555	0.9471840898147663	1.2133787738349056	1.0636036463440213	0.8464826455600356	0.6349427816650399	0.5998270701327452	0.6429960474354975	1.042777126602294	1.0428652949358233	1.1015176195354845	0.9872042518252084	1.053778512579672	1.1333358253003756	0.8246580062711739	1.0966688558260809	0.6678568723575566	0.6763888223548622	1.0354948886786213	0.63300076902965	0.7433721435953738	0.7096591191758429	1.0700455284407573	0.9427777925976317	1.0252667317786721	1.1696411923315595	1.1452440830720771	0.9120855614478276	0.8526748086479976	0.9933332598617697	1.1819381635662594	1.1370494419463464	0.6444313026103461	0.7859118329775975	1.2035742104748934	0.6537052354303379	0.6252163868795007	0.8836314048216348	0.8004455339537124	0.8304603453767598	1.089042622733619	0.623989593055028	0.8612866089892066	0.8161868025071234	0.8791936573022114	1.0013605628312108	1.1034774507493785	1.1706743222719123	0.9612452991452041	0.9856942646302709	0.9996681299973682	0.9624304653762692	0.8535444723034512	1.067701492210391	1.0398211466343454	0.6395533283970976	1.0802379625330998	1.0154895122818117	1.1420493142943768	1.0517435072847734	0.8589174665495228	0.6350786523008356	0.6360782100350204	0.6795036976064615	0.8955912489283471	1.092162852245849	0.846677957382249	1.1654657422530867	1.1156308227726677	1.0439161974300144	0.9252777176719809	1.1086889327519347	1.005802831218071	0.9680861647937593	0.6320228366000993	0.8487096521372556	1.1574247879840327	0.8615188964342851	0.9502933198372725	1.1285132876833983	0.8436971802485038	0.8321889965259213	0.787055459384998	0.8188018471169572	0.9359409179479194	0.9677101438876399	0.8064442095116786	0.7970817949913069	0.8430670947477206	0.7851986567757523	0.8030733249779026	0.9589869464432752	0.8936385657760307	1.1530627032494176	0.8691514798913658	0.8224331915756765	0.8289204524850794	1.0828250684720673	1.1534017184291097	0.8295198357206037	1.0907721020707326	1.0737762532228237	0.8507901855071385	0.8348478370780674	0.9645968149448019	1.0917099325413575	0.9789044249208994	0.9924320973064671	1.0096453901848637	1.0843098757686844	0.9751123459869	0.8376635839977113	1.15994674181229	0.814378514494955	1.07315008114552	1.1568631694980254	0.999460360944818	0.9820513985738581	0.9203527009005881	0.8776729236592897	1.182033304007321	0.8205492227557077
-0.4905062848355399	-0.5003307326056862	-0.48863401452302674	-0.7513073152759046	-0.6047274741583891	-0.6942035934356424	-0.48939802966410695	-0.5636129406570218	-0.5005200269988909	-0.5022839189224308	-0.5302600204772362	-0.5086113295939984	-0.602273941991365	-0.5982571279800954	-0.4767714856293227	-0.5175107195944195	-0.5093949850405096	-0.5243682965763663	-0.5260671169697839	-0.6558418480337771	-0.5217811428883491	-0.460760864286545	-0.4678155368254624	-0.4883408783878162	-0.4956217612756474	-0.5365862084663183	-0.49641426462087457	-0.5205612945429562	-0.5304522951320272	-0.44376519542238974	-0.4994021474350699	-0.4807362448437107	-0.4979404334991252	-0.5074804601734686	-0.4725109741919573	-0.5226662210963682	-0.475578760890898	-0.4941135189001333	-0.578431757470502	-0.7258820775839093	-0.6778209881810606	-0.5125281520727255	-0.49784800823717335	-0.5562949161909494	-0.44753628815499547	-0.44483050280649505	-0.486758897801352	-0.48782274932366304	-0.4448529212282793	-0.4447320293132284	-0.48193488312128036	-0.5147370316047579	-0.5260614315880916	-0.42846424826464924	-0.5084289566655843	-0.5131407989403505	-0.519254388970768	-0.49066179190835096	-0.5589192167032844	-0.47501872638775755	-0.504996505966157	-0.4945157260157761	-0.6904728631425737	-0.5843649509411335	-0.6626698601472977	-0.5158826673932031	-0.5151988063950422	-0.4930470982667155	-0.5199924168724619	-0.5134612300872846	-0.46942353703497175	-0.4928902379113213	-0.4975613575794845	-0.6960721318018264	-0.6280151859053004	-0.5242492807412302	-0.5851928757241964	-0.5210462310230266	-0.6580319608396505	-0.5227013488588451	-0.5145563478867973	-0.5270388159074326	-0.43478658500686723	-0.4780117279056891	-0.5295594562039837	-0.49463669814630506	-0.5800483462953635	-0.4985147841977783	-0.45775906444458897	-0.5291881901343848	-0.7226362990705134	-0.429467239912746	-0.7088856028864995	-0.6634650695094185	-0.4965357253445138	-0.4906566572139879	-0.493403021988601	-0.47712760405524457	-0.6173225086441935	-0.49812767118669704	-0.4894927937007984	-0.5036014706063818	-0.5293044273590646	-0.48975235513024307	-0.4377430443957121	-0.5277239573622771	-0.5303516749090709	-0.522019173340794	-0.5344725168631361	-0.4990559555881175	-0.51667130858234	-0.5076080853193681	-0.5574826627065201	-0.4695773184476643	-0.517022199796619	-0.5065987561985967	-0.5179926659199707	-0.49378883980689575	-0.66380829167456	-0.6807945160970607	-0.48633414537386827	-0.49463777631571304	-0.5013432507758343	-0.4891378504166043	-0.4322473322068709	-0.48530320397632565	-0.5311005235962625	-0.5176478588816537	-0.478088427364661	-0.44286873701527474	-0.5450003624085283	-0.6815951316185228	-0.5061840424719162	-0.4670962514752195	-0.5031430505897445	-0.5127478210689546	-0.5183574381664898	-0.5009839514206162	-0.49607760133711554	-0.48239662837386027	-0.4915491083507294	-0.5115606970437899	-0.515731167255166	-0.4858618185362277	-0.4859694448041247	-0.5093501854645153	-0.494166300909401	-0.5417712835731056	-0.4855135090105346	-0.5134658895126891	-0.42457302820331555	-0.49647322269140526	-0.47907378950644636	-0.4837318348940828	-0.4812205785929604	-0.4578561442158466	-0.5388976077183266	-0.5091824488215614	-0.5181695965493319	-0.5287795977442825	-0.49970121251031074	-0.5349632241544457	-0.5063442699122038	-0.5191045665153242	-0.5175559035367726	-0.5259321712653822	-0.44065089057099266	-0.5018686088946703	-0.5072856930798061	-0.44500401924973865	-0.4946590941964907	-0.49286041882299114	-0.4760721205703733	-0.5861223945162756	-0.521613376023192	-0.5550681121473758	-0.5438517520065824	-0.456511483034166	-0.5054400086200582
-1.0333246784238177	-1.0287350620717672	-1.0429353104082844	-1.0011774070353352	-0.9850820292299397	-1.0453882711938123	-0.9078714051075482	-0.9223369758618256	-0.9351790178900322	-1.0153727438719913	-0.9429856950987658	-0.9124864879884621	-0.9280913493600034	-0.9443142191152033	-0.903134978137104	-0.857191039358712	-0.9336179371603274	-1.002717076155606	-0.9719222685865075	-1.0352271331577196	-0.9845468906218442	-0.852394382444602	-0.8592596658288039	-1.0389576591752776	-1.0308117091283877	-0.951968760049323	-1.0083705686845077	-0.9783625015765934	-0.9515811306452917	-0.8393786568527045	-1.019080888538705	-1.0134541319078667	-1.0058099847085116	-0.9757952145238894	-0.8549668497309518	-0.9414815807580323	-0.8377774482242731	-0.9143712979793005	-0.9151907625724458	-0.9432004266468512	-1.0448727426146862	-0.9281815470062679	-0.9065525343991044	-0.9085622760555716	-0.8818907468504834	-0.8591752007854544	-0.895636382396632	-1.0366989579232635	-0.8781576238486904	-0.8594545310141862	-1.0396503191921633	-1.0006055530439009	-0.9223982798251186	-0.8476685167621758	-0.9910912097132416	-0.9596046557588965	-0.9304706869318218	-0.835667308495042	-0.9996459153692107	-0.894709445125071	-0.9669793164809962	-1.0279791807667473	-1.0593358122725614	-1.0016127323946513	-1.0591492630760295	-0.948122039440391	-0.984603897959785	-0.9169428300922272	-0.945254176584567	-0.9502522994644657	-0.9426891391692036	-1.0242737057310247	-0.9368245536668144	-1.0008202571381228	-1.0360328187365122	-0.9845432130722288	-1.0744740969291697	-0.9705816413754054	-1.0075754615855241	-0.9658928672457735	-1.0043906738448516	-0.9331158241308871	-0.8828053537868604	-0.9907818211885852	-0.9795172538794926	-1.0373874000442624	-0.9215368337086551	-0.9381936212046476	-0.8538655650449632	-0.9546257735669517	-0.9510476594274969	-0.8643670092469197	-1.0440803564763168	-1.049549139879122	-0.9985739886493572	-1.0267368579616711	-1.030233074970424	-0.8051158289411168	-1.0089952870020575	-1.041093761509925	-1.0365241093022879	-1.02743351895706	-0.9738669770562532	-0.909399570309748	-0.8688356762418643	-0.9780103925518014	-0.9567515434837335	-0.9644644879562072	-0.9595366043422023	-1.019401689003688	-0.9223247649113601	-0.8951829225201696	-1.0588658272545972	-0.9208896725655039	-0.9497165817648393	-0.8276936472800208	-0.9538052199621008	-1.031641003382506	-1.006790663695755	-1.0477186163828782	-1.0225113534147425	-1.0366586802950102	-0.8730115910161885	-1.0419452235047808	-0.8551117880547328	-0.9073460712877871	-0.9443673758277499	-0.9291543924308838	-0.8337695696717365	-0.7736233056053651	-0.8455340511443609	-1.0789226260932279	-1.0260291805092712	-0.9034297687982632	-1.0413322611602784	-0.973853173209501	-0.9670705668766918	-1.0480440110720164	-1.0221674154505505	-1.0427678656383679	-1.042010022779763	-0.9813701720739408	-0.9727438603151332	-1.0360104356943816	-1.0544855528386228	-1.0188696143308107	-1.0371693699315951	-0.9875250098171691	-0.9868774007868103	-0.9955557468503916	-0.8508368425126299	-1.0337072168197294	-1.0497445407416226	-1.0165242348919197	-1.0092534685967074	-0.8421982289666258	-0.986089514342369	-0.9642031576522202	-0.9385908223435161	-0.9868588079574213	-1.0430279097955073	-0.979812140747521	-0.8793520150717605	-0.9402707196658241	-0.9022036870814917	-0.9170438905545649	-0.8230761960064448	-0.996962810980467	-1.0241822298354204	-0.8500697783977881	-1.0375801365151276	-0.9206547316527054	-0.8424431422246875	-0.8967033291629342	-0.9740986744856572	-0.9593951035326814	-0.9562640018640703	-0.9036828030940939	-1.0185406668035892
-0.10613019522589942	-0.08407804373713743	-0.08651141465062046	-0.0184875912912031	0.19423768036477088	-0.04279332602973068	-0.010481725418403545	0.2535548987866757	-0.03921316752737071	-0.041833866901646366	-0.07602752116128694	-0.05656315375756246	0.04439197184441787	0.12065638533514178	0.14250835315069718	0.1717092796890074	-0.050955063308516416	-0.05188692321879776	-0.04512641135735229	0.22923298178813237	-0.008897151046597523	0.2267943600163702	0.12089619167204119	-0.10131947323057613	-0.09187832739930937	-0.021817337353694594	-0.04484530083238952	-0.04872986377319395	-0.07082976656013124	0.11773002482025587	-0.04077317192397173	-0.08951688213681464	-0.040883549061260294	-0.018620284189226177	0.19269940529848265	-0.046371097182034554	0.03377138991545686	-0.052752502940766166	0.0814004456203733	0.08257614044083361	0.0642420913661568	-0.06953656525954041	-0.05473638198304848	0.13641330161273763	-0.0016257434769873513	0.035320581960683134	-0.03755989743991506	-0.03536420935234738	-0.004963859490666911	0.00522656038862887	-0.08738641974052899	-0.038589197315546	-0.05595389869228726	0.0480323661423534	-0.04660761162165451	-0.017744301218006964	0.2861180928478205	0.14388341201560279	0.3016145368950573	-0.05924865397703058	-0.024756974727084713	-0.06276190538394924	0.007863900726803513	-0.02863505012445787	0.04068421699903417	-0.022466773003829293	-0.04995027917911972	-0.01873663735152059	-0.04794844369025726	-0.019936835859379096	-0.008565325210638602	-0.07029944006512248	-0.03510048241758927	0.08752680008414751	0.07267937009171405	-0.07666616931879164	0.23063959831652606	0.02933995815286175	0.1597477494313336	-0.04576398613278751	-0.03828065737246267	0.2674302285980731	0.09947036211021035	-0.028799191708587732	-0.04509466449890778	-0.06227963799913028	0.1855208240674722	-0.05866565937369479	0.1851093997804666	-0.01111762762096194	0.057564395561457676	-0.07234979040469572	0.06576688381448274	0.020489117886736644	-0.022930683154956916	-0.07838122652661902	-0.06730372600187798	0.09717841505978614	-0.005778198612075236	-0.060363306005129486	-0.06191327198688107	-0.06323273338751093	-0.02469172218525996	-0.043526923261217834	0.016384388480689877	-0.061334654642960895	-0.05672196398116214	-0.014429342788117139	-0.07176658170241379	-0.0767163018472723	-0.037905975642903295	-0.060406921277552	0.2747299111945912	0.2026821891375528	-0.022950823514882118	0.12663323908398957	-0.05916697820620108	-0.05842868329017928	0.004622120197220095	0.04177562981242455	0.07915115006092155	-0.01754335405387214	0.061612098550286015	-0.07752361066784186	0.030663253121205908	-0.04037726702197071	-0.031087309555015277	-0.055151715785835234	0.16191929182765996	0.12263966550115207	0.15108572187306513	0.1411409024017506	-0.0768594649543419	-0.02242869679186374	-0.08444739839715515	-0.05505409218888667	-0.04488566975008525	-0.10428036383256362	-0.04365996040380482	-0.08444251314991635	-0.08432973914443542	-0.020544123474771053	-0.04580615263226738	-0.08899046783869702	-0.09078310113397292	-0.04305688894664078	-0.08619720692245236	-0.04984208380853258	-0.07340314732232059	-0.034449409410338694	0.01871930467859681	-0.03667273196931378	-0.05106972718790176	-0.1264605292735158	-0.026922321951621447	-0.06640088578254122	-0.058378116572387784	-0.07284503898275205	-0.045734572685199607	-0.027763567604575573	-0.07727021163392578	-0.046223482692706444	-0.08434913622936854	-0.06006556471214278	-0.05632475629226792	-0.07646713779717312	0.19697024748520783	-0.022278498787876633	-0.046610064252019884	0.027559923707068557	-0.08020182190324396	-0.027803661332494886	-0.016206642027454823	-0.006989024625748574	-0.061569902124233744	-0.020952816393665225	-0.04053358954556563	-0.037845340314629106	-0.05524098701898594
-0.5583766590217005	-0.6056851413247699	-0.5724865501752391	-0.3418421909423788	-0.39063164867385186	-0.19663680653857057	-0.4346784804619126	-0.43685762591673294	-0.4927773861981147	-0.5751710853593393	-0.5599210313425206	-0.499848728552233	-0.36640362845054525	-0.3549275999230182	-0.45781018796366574	-0.4292921935359701	-0.5038042557255333	-0.6260990306421992	-0.5633466058054853	-0.3515970602461325	-0.5824068223848212	-0.5082546513187989	-0.5253090170039716	-0.5579596309266889	-0.585474134045489	-0.5045513386437869	-0.6149745985586794	-0.5607498663880754	-0.5066676781790198	-0.5162239197985143	-0.6246932318850318	-0.5901289167451048	-0.6219821295664345	-0.5556453022622123	-0.43365930223379956	-0.5123102164304525	-0.3809875313685421	-0.4411403150100958	-0.399058021541231	-0.3277728655851704	-0.24454544294471547	-0.5251979699130019	-0.40449422437180155	-0.4213695826814907	-0.35450040985600073	-0.3746258702668694	-0.43541073669466684	-0.613008029536737	-0.4004221697464366	-0.3773934235436846	-0.5790642001075477	-0.6117482062003545	-0.5008413272775891	-0.40670122099775674	-0.6013960830232326	-0.5365194102683717	-0.4569416215051697	-0.47380635085205863	-0.45291422226523753	-0.3367947148855167	-0.5087877880175524	-0.6156676257191258	-0.17146127457642962	-0.07583715508741992	-0.17290555421547427	-0.52399652840175	-0.5432893190689088	-0.47673139177516993	-0.5493308290632926	-0.5162285291571873	-0.42302461280090903	-0.6052689004668415	-0.48125381800677164	-0.28910457223378777	-0.23657051183681016	-0.558479631129619	-0.18154317641088763	-0.13054503840559115	-0.2658044267108718	-0.5374046317394663	-0.5881078707331175	-0.36564780611008946	-0.3993636197905734	-0.47713611257860805	-0.6016554174008528	-0.599107008104109	-0.41952653921233535	-0.4422117388949781	-0.48814883254044616	-0.08643722067733678	-0.319098197069974	-0.3616841932230504	-0.27861150852044814	-0.18924342488420753	-0.6160632608468108	-0.5935533644659641	-0.6003119561217085	-0.38491081346016603	-0.09722391348731732	-0.5882205809493126	-0.5991703024214701	-0.6213769397497804	-0.5417064285052134	-0.4454780142192152	-0.38172214542882726	-0.5781583617675066	-0.5553419549118428	-0.5167936933680264	-0.5607942012243318	-0.6167676667217221	-0.5112209386585513	-0.487208434691494	-0.20525220275448727	-0.4703721902649545	-0.5019733840745958	-0.4527670641559135	-0.5288544603424754	-0.6159657921342045	-0.20066848232630477	-0.21904847714488407	-0.10535771561416193	-0.6092947450265513	-0.46350710304908044	-0.597423232318057	-0.38259807927365574	-0.45963365173650983	-0.5132835738368922	-0.5781045588270717	-0.40271031615493813	-0.41586853877663993	-0.36879636843799807	-0.2612263219187889	-0.5999620492930204	-0.4143137015986044	-0.592056878049841	-0.5690119698127216	-0.5055815776122621	-0.5713048197122785	-0.6163079294543714	-0.5686196896684412	-0.5788944729033486	-0.5894291108672896	-0.5711227071723424	-0.5699927456530188	-0.5507124156967425	-0.6128645331113716	-0.5571885218149679	-0.6111558211897195	-0.5756353222854418	-0.6186314975516607	-0.3806562770712619	-0.623977862789354	-0.5816695785920061	-0.5760012983649374	-0.5187708105576054	-0.3424205508752687	-0.6193552359500036	-0.5081093901780147	-0.5008967344398084	-0.6211144153251389	-0.5717974923247942	-0.5474559323793826	-0.42025897651210603	-0.542659494555491	-0.5099206002382113	-0.5040291881889769	-0.47212534291041913	-0.5810958369895938	-0.6078596556634861	-0.3791645435835064	-0.5819166954009563	-0.4711007611539226	-0.32111015572737867	-0.41044540790920997	-0.5604953288607839	-0.5691930437701309	-0.5961097286818284	-0.3960641191287999	-0.5938190160444867
0.23790871522337215	0.17266793209436557	0.23347805589389267	0.3426179528966694	0.3730299053237278	0.3788427995663236	0.22128647569604412	0.47955233925038	0.20220342170581732	0.19650181289810353	0.1738786095901245	0.18378018353582745	0.32042605397495993	0.34272631325546055	0.43046830621673327	0.41527908111306755	0.17929005056661804	0.17589346102826428	0.16870528618354438	0.5396799412143782	0.1811866333135907	0.4248817257448013	0.3562275318816772	0.25682352500428884	0.20226775222317378	0.16455450354029014	0.1900531378860732	0.16312681439832377	0.1455413247001458	0.42083819573660874	0.17755898234822184	0.16737304105233838	0.17181041940006853	0.18604431559327747	0.4077279028297224	0.1900159916456953	0.314780348494079	0.1893550885243149	0.34739214600789003	0.3896194577435843	0.4544870835781636	0.20480765094222605	0.19912179405591116	0.41676652289022764	0.3059165895249417	0.3202064809335389	0.216949282614172	0.18678870287527752	0.22358280403945854	0.2645350109548489	0.21857395395475257	0.16529068931892224	0.17416909162505964	0.3122280015586758	0.19857848608332504	0.17382642661980888	0.5101502826336839	0.37006289993238917	0.5500643901910313	0.19958880006408666	0.18563718649919775	0.16671845645928937	0.3972277776419344	0.39366958971884924	0.42665919219892545	0.1723052401045826	0.1646810005585486	0.19308978057041126	0.16245102132753525	0.1855337361306439	0.22389960530019506	0.16471476549448186	0.19546256933972367	0.4310647698076999	0.47259535973608047	0.17122542283747869	0.5384389635061826	0.5218112473381807	0.4788887539660165	0.18628937917520674	0.1568673052333415	0.37610486235120033	0.3686495921428855	0.19176503216508906	0.1686393628858255	0.1732927822773059	0.4629843230025473	0.16547313197628302	0.3996974036612777	0.41890416115543816	0.3061984768716861	0.22574131056060348	0.4218954857006706	0.4433549519270047	0.17166783092163035	0.19392962136828776	0.18254027578450913	0.31207425231074803	0.4030824514126309	0.18643619833651806	0.19937857401111578	0.17346632781382068	0.16133665287266827	0.21157983848102016	0.28096705724105675	0.17708516146397651	0.1891706159972272	0.1701531258618547	0.15805600525675542	0.17690184326896352	0.19533313971512203	0.1815317715187142	0.5550998420462359	0.37160994626794475	0.20115154380579442	0.34416962774402493	0.18096664447711816	0.16876460130870694	0.41310584894958413	0.42250325724494	0.6036189371611931	0.17997861419534542	0.2879924145325733	0.18688838014567835	0.30906512966279553	0.1943672510774844	0.1566991287401183	0.17042213046565277	0.3902129488570736	0.3151633217222717	0.30652017177526736	0.4348650176626627	0.17144503510263367	0.21561393127134684	0.18547689414815824	0.1803232273934612	0.1698097681408914	0.2188841792545486	0.18152640091940728	0.24994658712193368	0.22481437911614435	0.1846027281425546	0.19396854922139176	0.21898051605557858	0.2593640824148692	0.1705849131549472	0.24794863016139707	0.14492539549220004	0.20144428304418546	0.1774535355832202	0.2847721630428305	0.17300019011732495	0.22347488980673894	0.1482128562774343	0.21415093625440276	0.19469358297433423	0.1563722296919095	0.17183376247919865	0.17389926956696286	0.16115360531220094	0.21105425712563772	0.1565491668980136	0.16318265741427698	0.1898435161399971	0.1712969440067735	0.15218149954334256	0.37560352472843417	0.20320660236601926	0.18573854408250362	0.32056794167042724	0.21599043244786173	0.21044823905598609	0.26568051097720835	0.2350476369847201	0.18473007246870543	0.1889268809312463	0.14332482978985106	0.19351013514664067	0.1795247788684878
0.38180049614540845	0.29458539216321844	0.37923357780197375	0.15368683443337494	0.17397049268029882	0.028364489832858025	0.22181743729793754	0.284088378301405	0.20347867677916445	0.2081946683490044	0.24208942369162786	0.1895044770960095	0.16648117351480698	0.1548592708369084	0.2751028731727395	0.3243369723480043	0.2162861546828133	0.25756615755953394	0.23752734355733574	0.1287894645992556	0.2301857045771625	0.3187585466997168	0.3300580674855669	0.38962621157173305	0.32908197410056095	0.16038408880623775	0.2558468928762498	0.24782015751549685	0.19199743769872893	0.32414459983290056	0.26086906083817174	0.2898991587342191	0.2445468581936429	0.22363963333203304	0.3275258024502641	0.20853991489113982	0.3435525988064321	0.1608796935784428	0.3023096306993801	0.17172515127615706	0.03702535811994759	0.22112726267202656	0.19668753115079646	0.2981638747121401	0.29934902397237106	0.3022712567208531	0.2365680627577819	0.267998410553365	0.16838160837687582	0.23233588835889502	0.3679672881501298	0.24050248410131467	0.17854821063851883	0.28217361714075806	0.2605562212058149	0.202644796948828	0.2693753230927613	0.33927583292429375	0.21487179110864488	0.22734179481610256	0.1667034336490573	0.2835617195877349	0.04435714035307553	-0.02312949174940712	0.009677833665852786	0.19537644083547237	0.23556936760444183	0.16548939979333518	0.2246239581218151	0.19389539515849671	0.15692372886941908	0.30330747837099303	0.17131640736352857	0.10014717158237602	-0.03036718471716318	0.2606305137510672	-0.0505708554430081	-0.12810709706429615	0.07052796921168392	0.20937226209663526	0.23307254743831693	0.22007409582047222	0.269911287358628	0.13013782370621862	0.24998759458150185	0.3085192649190933	0.2779106083671268	0.1560033891735191	0.33693396610672943	-0.09402867641091761	0.17911437013427503	0.2406224827430736	0.07104553548277284	0.022598892369569662	0.22943283835835673	0.31731441953486406	0.3215066025406813	0.3423954367209159	0.008943934401570264	0.33211895834044625	0.3218057388252572	0.264242014782357	0.17679408153700263	0.1764044578174903	0.24868207190339955	0.24712809397958344	0.2181374997330405	0.15525358877705758	0.2547632756738203	0.2745291716821895	0.2154295540957464	0.19286500579288401	-0.04554273710575804	0.25402274873418584	0.16447127269839187	0.3346683004740866	0.22329449439073248	0.29333424333521185	0.038585664818768656	0.019018407932452047	-0.17348830922730832	0.22010599231088837	0.2839973960571067	0.32545470524745335	0.24728599603076956	0.15683397693988596	0.19176306229170678	0.26366990737089413	0.29677346233909807	0.2721858488995125	0.23911065538807422	0.05854095506911072	0.3019963389900294	0.18345848863383798	0.347259429289024	0.23825543244660408	0.18153404241036578	0.39574252705624735	0.2786209720403382	0.37817455238610276	0.3726727452129507	0.22768922245608667	0.22544671447263034	0.3665154629963532	0.4448825391859126	0.27554467983045916	0.406809205269666	0.30272482009904567	0.27405919347451924	0.24335085347134702	0.2650265735079338	0.24913125589114699	0.34388889654192456	0.30537763593003353	0.18650065407546187	0.16894352868236548	0.26755418956447097	0.22796756520588293	0.1992771095995927	0.2446158445621477	0.33822398479159377	0.174559666722762	0.19303559883468555	0.22896833138099032	0.20701568273200224	0.20830001654965355	0.30484358311124504	0.20396651622961628	0.30981048927356913	0.3082258736765402	0.35751971649982006	0.13613197717190811	0.33098704045641236	0.27472601440631195	0.22524292355386752	0.17906579445851387	0.2414768599725464	0.19313988924498596	0.3231083012182919
0.0838225643364705	0.04187439949682553	0.08188736262482145	0.345252745084226	0.26182916650971993	0.34760767155551137	0.07653655390053336	0.20694268442708658	0.05388965919002134	0.07277278411897223	0.01420233151758133	0.005464333346400757	0.24914951246360328	0.26499243599152955	0.1847150892949016	0.12602291841057855	0.03118067670412837	0.026873150355388932	0.04959497473073077	0.332620664657369	0.028902340498971155	0.13049441565506187	0.13733004610374278	0.09192847631013186	0.050848130172089355	0.04889791557311489	0.04179186501756871	0.03792383619313612	0.033130534263970376	0.15199286613972074	0.03721382695678449	0.0322242438184905	0.029797520820422134	0.026243980512772574	0.170687808341912	0.02561658228119286	0.13284425769530056	0.055423593133838545	0.18243128124682118	0.30660029769735736	0.3476052476818843	0.014970784233856414	0.0640321072438465	0.16588367943322974	0.11223166975566515	0.10255339522232952	0.07735689318774729	0.04961533596909748	0.0980086997168817	0.11597224316319045	0.06601094557504456	0.033812140801728174	0.007336064633232338	0.09303967625871984	0.04662672368311372	0.032544910889347196	0.18449102596708666	0.14750231850884377	0.23669780984919347	0.11307014118522561	0.051606518466264927	0.04097523376824556	0.33219060580441656	0.3290865739725644	0.3392000543951774	0.03574636132867885	0.07017009939013391	0.05508680637870524	0.024291969820454923	0.027816538799574658	0.09330517388806646	0.035363677024843256	0.04194574788201602	0.337262004527862	0.35485603876401905	0.07739294357525979	0.32880912825301867	0.28537839264974196	0.2848057955541213	0.056503081398826316	0.05306446745212735	0.28138614963440833	0.17766047625657405	0.10152184091492085	0.03331540443099779	0.05377746595667599	0.18279169206446855	0.11165426775156011	0.11597543074024648	0.29104960622585435	0.2970130426894488	0.12946245742710644	0.3288769042178696	0.3325126433647862	0.0258749909480136	0.042388736332185616	0.051035050559629785	0.11867363887207881	0.323279725763213	0.06485839028625744	0.04405901405212241	0.041320575355315706	0.03512176732514943	0.045061034598193966	0.10037579672755963	0.0437195533828131	0.02326144891966321	0.02577805299661043	0.02621731564585661	0.029240597947540747	0.020378882705396714	0.011419891011197808	0.34526457980540726	0.2262401762287874	0.03792444699878955	0.14953534737270946	0.04079467216312366	0.04169430156890546	0.34696200578264624	0.3513560930737193	0.316707441757963	0.052334062679772565	0.1614058667515077	0.054898735613800945	0.14449804059084198	0.04367179421518953	0.032683203150439814	-0.0005553607958978246	0.12673422728645267	0.030146058189799166	0.1749699192400221	0.3603643134835021	0.0457983489321774	0.09040668922615244	0.0606827658145183	0.03993867302137102	0.08249797261443438	0.0759347469052041	0.040223624801730654	0.07953961044108275	0.0677374068190853	0.03453627721684825	0.04160353387136158	0.07860902830315869	0.11285427800947471	0.03744126088057634	0.082592538442154	0.035597610098739726	0.0322359716822332	0.02942066559651374	0.12417754339613886	0.03734285255335998	0.06636703331512123	0.024711557828416563	0.09157787287080921	0.08022621834464541	0.018114960724090072	0.0625529023438211	0.03471191088873426	0.03167871933126057	0.07537252249431559	0.03340075497628332	0.04083748539413792	0.01944255658575178	-0.014706306249664576	-0.011090776352003222	0.08109342413094166	0.05648856709811284	0.04371420364589441	0.12414553696206164	0.05872595761822329	0.028536816858664986	0.20098913207403196	0.15478853675216148	0.03999452811478048	0.017027117035221848	0.016432341058531794	0.09655857190515924	0.04911668038628507
0.2549513217064344	0.22703270488491503	0.2491687334959198	0.15347471314488179	-0.007845883350470484	0.208909298766266	0.1267952543119343	-0.04156658098620365	0.1371001353033302	0.23792030754184343	0.17126514754789632	0.12927494662327751	0.019997234496527475	0.01728940593292938	-0.012124448658505094	0.011820358970372633	0.1339949444219705	0.21489773274159518	0.1768329481949458	-0.015851437228021514	0.18366593394790262	-0.01912202944370109	0.029220923975092572	0.25743053387160963	0.24077062523516998	0.1916085152127048	0.21282825992178916	0.18429405758539574	0.20903450593823636	-0.006880341650195937	0.2247592761617543	0.20852356052537435	0.2194593881946198	0.16487231474250474	-0.0165742287721763	0.1580019032760928	0.01664164770384692	0.13925644195586498	-0.04331326069163911	0.06663459844806158	0.11224319656938633	0.15379014966209048	0.1510868017275842	-0.042569130739934	0.05430978876958854	0.04209391702489988	0.08790065578455482	0.23512428736600552	0.13654517218124496	0.1183483485471152	0.24517269982805992	0.21085069450136365	0.16109383900078725	0.04573823812730771	0.19756888979024545	0.15419995510149315	-0.05231197238246758	0.008958638421327332	-0.04337690987541247	0.1462835788456717	0.1774853095620492	0.22863917434636885	0.16216402324891388	0.18381269651901333	0.12749898525868195	0.1489771231781444	0.17841020517673734	0.14073680240408976	0.14794894577769885	0.1402470605573177	0.1652464656537351	0.24018001975424988	0.1392537243435827	0.05630482261624595	0.017075837738658922	0.19488618113990452	0.030067671991617584	0.07842820523153357	0.05439977107954855	0.17643686124319358	0.2013181167276133	-0.020036010780128136	0.009317898762650406	0.19513191094391816	0.1934227542994496	0.24062250883046307	-0.060223939729440734	0.17685143502358922	-0.01276747828141006	0.13213695530832248	0.05060894274856442	0.12213733533882945	0.1386274708346047	0.17129170939346217	0.20345607273810168	0.24320596100398897	0.24341883368574171	-0.013973967025945985	0.14518306776837353	0.25206190958165087	0.24875147607358858	0.217080085907838	0.2007477329547072	0.12191705698009547	0.07994687210946	0.19553635978365208	0.1889858881104094	0.1851582331746141	0.17766626994591211	0.213091193306882	0.1291109537450469	0.12868152881323616	-0.009056485032298917	-0.020460126837424132	0.1789471937761288	0.010806064964334408	0.15834057185684222	0.2358213781405288	0.1474275140959072	0.1367686510725306	0.03371932100760419	0.230367065587718	-0.04169708352790831	0.23694684975486338	0.0684389164841264	0.1211446212822449	0.16874272687858508	0.14162432146767603	0.010919386364003594	0.018951277669582045	-0.03316978358704005	0.1257954582147164	0.23983292021296373	0.12678330453343403	0.23478625536331624	0.19021987767479973	0.18829192378504916	0.2489483975941487	0.2359682289117118	0.25830670318403304	0.2575388325105866	0.1816885331248872	0.195797890092022	0.25075169539226183	0.279664554527397	0.23643411446441945	0.269052366854977	0.26507086313827943	0.17664053455766054	0.19969171660102855	0.08020422919370873	0.23716014512782094	0.25459016098059595	0.22725273593209785	0.20415873564684492	0.12466092460659678	0.21428890228733383	0.16184178991099094	0.1533851632282556	0.23352955435074588	0.25011543991271945	0.23894490147777356	0.14972149617172412	0.16747216996431993	0.14035859133938952	0.15593031348603711	-0.011838115262675641	0.21905144972278587	0.2642307864351492	0.050141764324934154	0.25400412043341847	0.136099469717371	0.03650729836401259	-0.03372063613653983	0.19773732903774466	0.2338610244406202	0.20865042701092526	0.13130318249472892	0.24930131791338714
-0.20094859687273708	-0.2329008031970391	-0.23318339055413184	-0.05244312065329017	-0.2770884940357771	-0.0361653842163793	-0.2702852928588195	-0.2907905931148473	-0.2764954635025618	-0.3472036809019207	-0.2260624705312077	-0.22877308221314713	-0.28105997596901855	-0.26570226697591065	-0.33375134109763144	-0.28850657722924417	-0.2409253645111728	-0.2433757677470954	-0.2439422379315035	-0.10209355958345885	-0.24346685449930977	-0.2393843748169508	-0.27763735211152657	-0.2027998815976964	-0.22031536856119738	-0.2973728877803747	-0.2551390807954566	-0.2241163769409208	-0.27865964164976936	-0.22576160112502874	-0.236004065546219	-0.18023443209810425	-0.2324587308458178	-0.22540591574871316	-0.3005865012618219	-0.2589602119243178	-0.28863010487589996	-0.31531306736038645	-0.2485065136642876	-0.12261854468064297	-0.057321063621667494	-0.259436090158695	-0.32171666447773073	-0.22976168790296791	-0.33448418435997507	-0.3056782644160911	-0.29354911551569546	-0.26667369739455776	-0.33418242802888765	-0.34633062844938434	-0.23624594527186743	-0.23435404821879002	-0.25062161729725446	-0.27005831346819015	-0.2509933653679433	-0.23406871008475338	-0.2452595018697855	-0.26995400838936245	-0.2513598931919357	-0.4020665393831618	-0.2962809141678054	-0.22972355394782906	-0.0015999514271147347	0.04305105424073144	0.0021366823627867876	-0.240470596063722	-0.2616041237718636	-0.2768936728757639	-0.20168790073281134	-0.24408699832751346	-0.33618570250761776	-0.20841465854038038	-0.27373597024391494	-0.04787762479812255	0.026825539669889292	-0.28080993018988354	0.030202433765366722	0.023228037039165164	-0.018838711189325286	-0.29384843133304533	-0.23977389865616017	-0.32284789957618565	-0.3694913413969445	-0.3680199411251762	-0.21818881930431805	-0.23966360417697857	-0.22034729485046411	-0.3873662585429341	-0.24302998908284895	0.0662316403513233	-0.16481550603567768	-0.3465660345647554	-0.051976272134163164	-0.020443970981381065	-0.2233355366218357	-0.22108965259233082	-0.21799297626455766	-0.21730814823937983	0.06375315875558164	-0.26284314050512964	-0.24317621297122216	-0.24498812843606316	-0.2727878414640506	-0.29215900585923577	-0.32343089644705864	-0.24966736477979906	-0.2641827271541247	-0.253962388885348	-0.21553957593699413	-0.22681348068470553	-0.23802996503552665	-0.24455441892701119	0.009031808542215043	-0.3074241374798398	-0.27973432322052905	-0.26060983617333167	-0.25927406824772703	-0.23109136907040145	-0.03922124042645057	-0.03424600241937485	0.06566196940935369	-0.2984592722749374	-0.1761933754148961	-0.2378104742870203	-0.3494841715846628	-0.2841925274830666	-0.2533035672303507	-0.17271777853962983	-0.2854664687322589	-0.14531549304544167	-0.15547191291725326	-0.03782603017845532	-0.2358348370525526	-0.3301913644205007	-0.2310446988561588	-0.24242747782728757	-0.3337161902970831	-0.24032907088546246	-0.24027220134592409	-0.2419214006218512	-0.23580806281924555	-0.2363220336291359	-0.27485605624508014	-0.21826764067073873	-0.25023502265975744	-0.24245554471217728	-0.23169579247850075	-0.19373055128849798	-0.2391306113252475	-0.23493598221738426	-0.31038069071551083	-0.26199917030127706	-0.2743157317230532	-0.16825343224869532	-0.3581089355111497	-0.3770660624630168	-0.20197982110656287	-0.2764797213507693	-0.2666956456676426	-0.24115749966154548	-0.2871405209329699	-0.28162673259464427	-0.31195050768984417	-0.23525034375106207	-0.2014387890987639	-0.2132850377428948	-0.19838185712820733	-0.31461489602278553	-0.25569753380832017	-0.3150213106773525	-0.23883076405292902	-0.2694811069131739	-0.3187395431683507	-0.13539788590479412	-0.2744841240200711	-0.25894036524134634	-0.20373389538070313	-0.3384538807571224	-0.21273666778874128
-0.053120721639024066	-0.11226724109742212	-0.062201640059096897	-0.07081920685274293	-0.1944952660576708	-0.07159355659295083	-0.1709415203880614	-0.31031412800774916	-0.16881766175731094	-0.09721724863736353	-0.12211899677924667	-0.1495075022818233	-0.14127309151220385	-0.16023404750054362	-0.2274938158915915	-0.27169038151498537	-0.1861026453020202	-0.10928439411487482	-0.15756448795079978	-0.0846387397747368	-0.15084022535472857	-0.36245593024896267	-0.3142680423805265	-0.04463536806250641	-0.07120869175608731	-0.16344536090989498	-0.1064681156745417	-0.15327286256046174	-0.12700194843078758	-0.3411066869295064	-0.09446873152287664	-0.11188431285687434	-0.10504280945342964	-0.1530444720705118	-0.3069032301805936	-0.15841465136995453	-0.2247021471725149	-0.14208881475322985	-0.2617484968137729	-0.05258711889313299	0.045967370735626706	-0.115918270965841	-0.11724892831907448	-0.27565652932131884	-0.14722686670087853	-0.16623575493358994	-0.154262197259275	-0.08471407787414287	-0.147831984923559	-0.15402550512548718	-0.05450747226750302	-0.12496147316047597	-0.14449226879154348	-0.18598593613159736	-0.11576058200038405	-0.17517648894300808	-0.2843743635893255	-0.3529193904688494	-0.21454113492114146	-0.14392945568278806	-0.14873559910508904	-0.10004853289729437	-0.016391930424956014	-0.03927075707424175	-0.004502348510757759	-0.1800227902454446	-0.17497114326502763	-0.157618146913922	-0.16222021355329402	-0.18933203170151977	-0.16220812160485315	-0.08455316861324672	-0.1717456059224999	0.00829205805917834	-0.008683380318395557	-0.14801548498373648	0.09823737859246862	-0.04634033039857721	0.016118556676976932	-0.1568640590818478	-0.15095216987544335	-0.26339928949109925	-0.1964717417662084	-0.1697092994683724	-0.1280980700783718	-0.08765920235058457	-0.3017085400890913	-0.1638799451631593	-0.3186669405225026	-0.08349473476189401	-0.12572017776651775	-0.17076461947429472	0.051743282793682746	0.02313876229048783	-0.11433061491016122	-0.06427455979719568	-0.07290745514916641	-0.2867837973177444	-0.010000843991872968	-0.06767839546258239	-0.054843635648997205	-0.11715251963753065	-0.14317496173451158	-0.14213184706296184	-0.15997080888499698	-0.1290427492358585	-0.1221207097418755	-0.14613785920009997	-0.1535383942290487	-0.11963528319111327	-0.17637325344723798	-0.11999493148219564	0.05709193686576036	-0.28740848493291293	-0.13182001257462067	-0.3432267627979299	-0.1666551246840731	-0.08737833777886357	0.00341030306109108	0.00867427245966123	0.03398396977607884	-0.10847525998166993	-0.3340320986258544	-0.08604879302300009	-0.1713980721936762	-0.14496337676580962	-0.18283018259037873	-0.1299484767215634	-0.23571866667715308	-0.2456848038667931	-0.3048185129755201	0.005512669912827478	-0.09465418726814631	-0.1520173273098448	-0.09305173875583764	-0.1216823695312649	-0.1771185231801572	-0.0698089804116558	-0.07818138485888318	-0.044737601179375835	-0.05090903819689435	-0.1321878628545664	-0.11538650465834946	-0.06033445617564358	-0.03510634048542356	-0.08873144767341669	-0.029961184474006697	-0.04080857741190275	-0.11669625009608504	-0.11724628434962335	-0.184625974236045	-0.0980965952632031	-0.04044586167840207	-0.12965160363089628	-0.15602258142192182	-0.08637486420401361	-0.11064441965801301	-0.18372523452260636	-0.17796161803452912	-0.08967711363944594	-0.07237826808320419	-0.11512928396883304	-0.0849066844631512	-0.11651732087729937	-0.13141508285950093	-0.15056774685706042	-0.29822550037960616	-0.10786765430192632	-0.03627782912520326	-0.1777580610890105	-0.05263668433130109	-0.1378717129051917	-0.24143737359002582	-0.26675752116827234	-0.12560809670627174	-0.08869973768116313	-0.11994239320565982	-0.17714996130617466	-0.06902700007028449
