NIPT-PRL-001-25-BL-Px_S1	NIPT-PRL-001-25-D14-Px_S2	NIPT-PRL-001-25-PD-Px_S3	NIPT-PRL-002-25-BL-Px_S4	NIPT-PRL-002-25-D14-Px_S5	NIPT-PRL-002-25-PD-Px_S6	NIPT-PRL-003-25-BL-Px_S7	NIPT-PRL-003-25-D14-Px_S8	NIPT-PRL-003-25-PD-Px_S9	NIPT-PRL-005-25-BL-Px_S10	NIPT-PRL-005-25-D14-Px_S11	NIPT-PRL-005-25-PD-Px_S12	NIPT-PRL-007-25-BL-Px_S13	NIPT-PRL-007-25-D14-Px_S14	NIPT-PRL-007-25-PD-Px_S15	NIPT-PRL-009-25-BL-Px_S16	NIPT-PRL-009-25-D14-Px_S17	NIPT-PRL-011-17-BL-Px_S91	NIPT-PRL-011-17-D14-Px_S92	NIPT-PRL-011-17-PD-Px_S93	NIPT-PRL-012-25-BL-Px_S18	NIPT-PRL-012-25-D14-Px_S19	NIPT-PRL-012-25-PD-Px_S20	NIPT-PRL-014-47-BL-Px_S94	NIPT-PRL-014-47-PD-Px_S95	NIPT-PRL-017-20-BL-Px_S96	NIPT-PRL-017-20-D14-Px_S97	NIPT-PRL-017-20-PD-Px_S98	NIPT-PRL-019-47-BL-Px_S99	NIPT-PRL-019-47-PD-Px_S100	NIPT-PRL-021-25-BL-Px_S21	NIPT-PRL-021-25-D14-Px_S22	NIPT-PRL-022-52-BL-Px_S101	NIPT-PRL-022-52-D14-Px_S102	NIPT-PRL-022-52-PD-Px_S103	NIPT-PRL-024-52-BL-Px_S104	NIPT-PRL-024-52-D14-Px_S105	NIPT-PRL-024-52-PD-Px_S106	NIPT-PRL-026-47-BL-Px_S107	NIPT-PRL-026-47-D14-Px_S108	NIPT-PRL-026-47-PD-Px_S109	NIPT-PRL-027-25-BL-Px_S23	NIPT-PRL-027-25-D14-Px_S24	NIPT-PRL-027-25-PD-Px_S25	NIPT-PRL-028-25-BL-Px_S26	NIPT-PRL-028-25-D14-Px_S27	NIPT-PRL-028-25-PD-Px_S28	NIPT-PRL-029-25-BL-Px_S29	NIPT-PRL-029-25-D14-Px_S30	NIPT-PRL-029-25-PD-Px_S31	NIPT-PRL-030-25-BL-Px_S32	NIPT-PRL-030-25-D14-Px_S33	NIPT-PRL-030-25-PD-Px_S34	NIPT-PRL-032-47-BL-Px_S110	NIPT-PRL-032-47-D14-Px_S111	NIPT-PRL-032-47-PD-Px_S112	NIPT-PRL-033-25-BL-Px_S35	NIPT-PRL-033-25-D14-Px_S36	NIPT-PRL-033-25-PD-Px_S37	NIPT-PRL-034-25-BL-Px_S38	NIPT-PRL-034-25-D14-Px_S39	NIPT-PRL-034-25-PD-Px_S40	NIPT-PRL-035-25-BL-Px_S41	NIPT-PRL-035-25-D14-Px_S42	NIPT-PRL-035-25-PD-Px_S43	NIPT-PRL-039-25-BL-Px_S44	NIPT-PRL-039-25-D14-Px_S45	NIPT-PRL-039-25-PD-Px_S46	NIPT-PRL-040-47-BL-Px_S113	NIPT-PRL-040-47-D14-Px_S114	NIPT-PRL-040-47-PD-Px_S115	NIPT-PRL-041-52-BL-Px_S116	NIPT-PRL-041-52-D14-Px_S117	NIPT-PRL-042-25-BL-Px_S47	NIPT-PRL-042-25-D14-Px_S48	NIPT-PRL-042-25-PD-Px_S49	NIPT-PRL-044-25-BL-Px_S50	NIPT-PRL-044-25-D14-Px_S51	NIPT-PRL-045-25-BL-Px_S52	NIPT-PRL-045-25-D14-Px_S53	NIPT-PRL-045-25-PD-Px_S54	NIPT-PRL-046-25-BL-Px_S55	NIPT-PRL-046-25-D14-Px_S56	NIPT-PRL-046-25-PD-Px_S57	NIPT-PRL-047-25-BL-Px_S58	NIPT-PRL-047-25-D14-Px_S59	NIPT-PRL-047-25-PD-Px_S60	NIPT-PRL-048-17-BL-Px_S118	NIPT-PRL-048-17-D14-Px_S119	NIPT-PRL-049-25-BL-Px_S61	NIPT-PRL-049-25-D14-Px_S62	NIPT-PRL-050-25-BL-Px_S63	NIPT-PRL-050-25-D14-Px_S64	NIPT-PRL-050-25-PD-Px_S65	NIPT-PRL-051-25-BL-Px_S69	NIPT-PRL-051-25-D14-Px_S70	NIPT-PRL-051-25-PD-Px_S71	NIPT-PRL-052-25-BL-Px_S66	NIPT-PRL-052-25-D14-Px_S67	NIPT-PRL-052-25-PD-Px_S68	NIPT-PRL-053-25-BL-Px_S72	NIPT-PRL-053-25-D14-Px_S73	NIPT-PRL-053-25-PD-Px_S74	NIPT-PRL-054-17-BL-Px_S120	NIPT-PRL-054-17-D14-Px_S121	NIPT-PRL-055-25-BL-Px_S75	NIPT-PRL-055-25-D14-Px_S132	NIPT-PRL-055-25-PD-Px_S76	NIPT-PRL-056-25-BL-Px_S77	NIPT-PRL-056-25-D14-Px_S78	NIPT-PRL-056-25-PD-Px_S79	NIPT-PRL-057-52-BL-Px_S122	NIPT-PRL-057-52-D14-Px_S123	NIPT-PRL-057-52-PD-Px_S124	NIPT-PRL-058-17-BL-Px_S125	NIPT-PRL-058-17-D14-Px_S126	NIPT-PRL-059-25-BL-Px_S80	NIPT-PRL-059-25-D14-Px_S81	NIPT-PRL-060-17-BL-Px_S127	NIPT-PRL-060-17-D14-Px_S128	NIPT-PRL-060-17-PD-Px_S129	NIPT-PRL-061-25-BL-Px_S85	NIPT-PRL-061-25-D14-Px_S86	NIPT-PRL-061-25-PD-Px_S87	NIPT-PRL-062-25-BL-Px_S82	NIPT-PRL-062-25-D14-Px_S83	NIPT-PRL-062-25-PD-Px_S84	NIPT-PRL-063-52-BL-Px_S130	NIPT-PRL-063-52-D14-Px_S131	NIPT-PRL-064-25-BL-Px_S88	NIPT-PRL-064-25-D14-Px_S89	NIPT-PRL-064-25-PD-Px_S90	Genome-IJB-HP-14-xx_S3	Genome-IJB-HP-18-xx_S6	Genome-IJB-HP-19-xx_S7	Genome-IJB-HP-2-xx_S74	Genome-IJB-HP-26-xx_S14	Genome-IJB-HP-30-xx_S18	Genome-IJB-HP-31-xx_S19	Genome-IJB-HP-33-xx_S21	Genome-IJB-HP-36-xx_S24	Genome-IJB-HP-37-xx_S25	Genome-IJB-HP-4-xx_S76	Genome-IJB-HP-42-xx_S29	Genome-IJB-HP-44-xx_S31	Genome-IJB-HP-49-xx_S36	Genome-IJB-HP-50-xx_S37	Genome-IJB-HP-64_S169	Genome-IJB-HP-67_S172	Genome-IJB-HP-7-xx_S79	Genome-IJB-HP-70_S175	Genome-IJB-HP-72_S177	Genome-IJB-HP-74_S179	Genome-IJB-HP-75_S180	Genome-IJB-HP-76_S181	Genome-IJB-HP-77_S182	Genome-IJB-HP-78_S183	Genome-IJB-HP-79_S184	Genome-IJB-HP-8-xx_S80	Genome-IJB-HP-80_S185	Genome-IJB-HP-81_S186	Genome-IJB-HP-82_S187	Genome-IJB-HP-83_S188	Genome-IJB-HP-84_S189	Genome-IJB-HP-85_S190	Genome-IJB-HP-86_S191	Genome-IJB-HP-87_S192	Genome-IJB-HP-88_S193	Genome-IJB-HP-89_S194	Genome-IJB-HP-9-xx_S39	Genome-IJB-HP-90_S195	Genome-IJB-HP-91_S196	Genome-IJB-HP-92_S197	Genome-IJB-HP-93_S198	Genome-IJB-HP-94_S199	Genome-IJB-HP-95_S200	Genome-IJB-HP-96_S201	Genome-IJB-HP-97_S202	Genome-IJB-HP-98_S203
0.11867212382889387	0.11861722140640919	0.08584010938462157	0.061079965939503544	0.06543674311538596	0.05896594040521107	0.07473380627871447	0.07215578032434954	0.09031017413860931	0.10638567167550299	0.09526831094023752	0.09038352699994197	0.03967370923061504	0.045123494867690864	0.06430556864493209	0.062217831467647436	0.08146319533644784	0.05796415730207678	0.0809958119842757	0.037216110239489876	0.08425250223029582	0.07518879294697951	0.06577609286247026	0.08440535213616587	0.10305053187484442	0.052113141715366226	0.08933805526739134	0.09226348353222377	0.07398632868849626	0.06839039272080148	0.07208403919049693	0.09214689157832114	0.09670312344482355	0.10304435943585706	0.06709773421292624	0.08884285708181287	0.08019853587886876	0.09136957609848183	0.048718989987831626	0.057970169571569474	0.06199917462361908	0.07250530052879979	0.08282868711985449	0.06961000401019912	0.04623359176781928	0.0627586382701918	0.06420950276219659	0.09716484751192278	0.0803663500725768	0.08783883396537982	0.0265911471447145	0.09610813338784523	0.07531174036859282	0.07215844708354167	0.10474143228588094	0.09088461491837004	0.07581337168124408	0.07653773060148102	0.07486554799347744	0.07546047135323275	0.09243669489043535	0.09456412728758816	0.015016078104334807	0.040102937591930184	0.05945672251140792	0.09292258315761776	0.10362443167335787	0.0993463858604412	0.10237574937439906	0.09834479497098615	0.08230192122990816	0.11111526911039306	0.09367646577377779	0.04053141164036345	0.047556734257399494	0.10584330336030534	0.04756607858176675	0.03332470822918244	0.08359054752830265	0.09948030487825434	0.09651846360705073	0.07260379400400895	0.08742349820991259	0.09902377396001312	0.08130031678499865	0.11126437969698309	0.10023617087123805	0.07058672210067338	0.08733354682972799	0.04495585005576074	0.06627822687768663	0.05726578836516731	0.035895258911345464	0.07509366012797623	0.09882531918806091	0.11053033467797489	0.09538752186136819	0.07628207648139354	0.06343587844211981	0.14549532681662808	0.0907659020780636	0.10272831494758151	0.08351578409289422	0.08721149604396046	0.0933041614700044	0.07937348111139429	0.0907552155816638	0.09102377628765991	0.0771561046292527	0.08903056946446643	0.07807275265829793	0.07530561642439199	0.016844937906379892	0.05842329394986866	0.0907933651017868	0.07581814157609636	0.08785306512442512	0.100075995792274	0.054594498408388176	0.05301433071862219	0.041788718707493434	0.10502873421466245	0.06525888940118667	0.11883976669837375	0.08663630666406444	0.07386050417698235	0.08209022447382844	0.0833984617251411	0.08229359045513664	0.10169639576325261	0.032330971205239235	0.04656315773594572	0.07260653495196552	0.08096137347717237	-0.022294125659415114	0.0803314164995113	0.08583274657429543	0.07831662097248342	0.08808299975282884	0.09256124010883755	-0.002181609710817198	0.08868242172531018	0.10139034672102754	0.0642375898069858	-0.06615244023936187	-0.05743205900877154	-0.024348091109937478	0.015829821487362318	0.09455384244562992	0.08997490125624673	0.06814609093479589	0.11601045251825522	-0.02208022141244362	-0.05604646192809748	0.05888659045360982	0.060656798227251466	0.11668406664404594	0.09280777059885059	0.08224577712202648	0.027091728228002716	0.12759140807891728	0.07308670615301939	-0.019463600686289922	0.10099896733760626	0.0895301320242551	0.08004562632263391	0.08619431381510322	0.09715316903052428	0.02631908980501249	0.06633250720642041	0.006833429461794511	0.08627941071653175	0.057974269967030936	0.0657829993552298	0.058879620514716416	0.10096834392182445	0.009842668500870663	0.08806215657934467	0.05286515233710498
0.050122896050314586	0.05166582199486536	0.019762951059004774	0.021477739654966604	0.026067445449895615	0.023245477324443736	0.012361090594350865	0.024402262281909254	0.033871819285035576	0.04870229890037964	0.03600296406846629	0.039091643387749425	-0.04986541240675779	-0.04240743455189436	0.020285708047415557	0.014081278294846539	0.033240000094528516	-0.02362481411222256	0.006261272566440629	-0.005228556827928638	0.024697640137975957	0.025387940433776762	0.02207365126623448	0.02173674875895487	0.02883871142585287	-0.024310740577950962	0.01996138332088654	0.04041784042619506	0.015173194345931312	0.029893064457159085	0.005805601066345145	0.018007596575548263	0.039596070553543666	0.029005594185431832	0.012226171830396898	0.04120751036631995	0.02767363389252661	0.0358264515442622	0.01272480981386595	0.0034284015597111084	-0.0017692707678149955	0.005742881637807756	0.03995969604721264	0.03160947811393358	0.01088556818801531	0.0295652894210148	0.03157955267075632	0.03896369984568254	0.03269504886680205	0.034443451844914014	-0.061066091363228645	0.039122449245867275	0.028773465338438747	0.02107101063780939	0.046715840156915434	0.03465059161806719	0.019675383755242665	0.020742617454739515	0.017013854726470462	0.028978935155744817	0.04554876032831934	0.040299573555672014	-0.02486907727535692	-0.003211674670411807	0.004855312407339635	0.0454994008947022	0.04135251287322564	0.04132614243077268	0.04835468805131732	0.032696401789568036	0.035252675736328065	0.04722637650045797	0.04755764177885355	0.0041541133467516145	0.002434091146275824	0.046425874484704144	-0.013515130467941866	-0.06992203010979367	0.017586132432347162	0.040823002831426175	0.04282104090041838	0.042509793102551735	0.05106223591522063	0.04301262591810345	0.027961820022877587	0.03851965901351023	0.02220665071617653	0.016305226737492823	0.032290360988880856	0.00031915673980117965	0.01860038968168412	0.020277192224127466	-0.04312562575841675	0.021106167310479512	0.05032230786676131	0.04811739092894901	0.023560205690101504	0.032368904407422544	0.02349869727778861	0.07097338155537639	0.0169635821487521	0.039513996733321344	0.039820689254466274	0.03633130827935632	0.029731766923455333	0.02579726244359057	0.040121068607350985	0.033226959684697494	0.025539344809316106	0.02950187109664104	0.025857320593803107	0.014037863984061427	-0.020828882619710137	0.011684321092528677	0.04352123146109249	0.027092711914771778	0.030590151192229076	0.041330616742360965	0.01501928518456716	0.018432139388406016	-0.05099041725777645	0.04906539736276655	0.018655358989345033	0.05424433201747614	0.04205607328914043	0.024906406175358414	0.03509764818601355	0.02714959984994178	0.028026871286118166	0.047071021678089325	-0.05272941803861533	0.025891279633630054	0.0034475815771990437	0.029915550542449793	-0.10098155718478047	0.033376540281132655	0.012494917391583843	0.02470539496669938	0.01432226642188364	0.031636479769833636	-0.06867791360426065	0.035295628815034646	0.0406958046049927	-0.0005338540025651151	-0.08415839250963755	-0.06575150239487693	-0.10095181823026342	-0.06515775698134868	0.016450822024769052	0.03813405186965255	-0.03643733833856902	0.055520889877870266	-0.10743980342641926	-0.09270253225406758	-0.006774517060289281	-0.015380055136749976	0.04932355124487692	0.019360211485971945	0.0403001323624865	-0.05802825040622275	0.06378701207039247	0.007487517592948495	-0.08654710439315401	0.04475944008715088	0.017139516192389403	0.020425269411533442	0.03436662824527556	0.030845961789980142	-0.05372457617149569	0.02703834156795268	-0.07147057801036732	0.036301696597486	-0.005484228437517502	0.021258652842385622	-0.019690338924044648	0.028656935733041594	-0.07057204949599921	0.012689522386939794	-0.01638622851943608
0.20677133537955075	0.23482555699580573	0.16201243884997193	0.34199252120868606	0.3260412106703102	0.3587338200298349	0.2547958250316654	0.32770568660596444	0.26605258309183055	0.2647566718448735	0.2980364447329119	0.2961902240471751	0.20798200724488633	0.23626770860448756	0.3118838713434068	0.2960515811311183	0.2809763606708433	0.1956362230120887	0.21336776481052547	0.32293964169380474	0.2600893224972515	0.33002596091528347	0.30772972459908465	0.14650749228203522	0.18831448223862743	0.1960008652220929	0.22623999560858446	0.2769646644607491	0.2062454212870556	0.3034589555391124	0.16271376405938523	0.21428847437867307	0.28199775499653246	0.3008707707105581	0.34868861050911815	0.2717695343580142	0.32829969706420414	0.2986323031547009	0.306374111734952	0.35577488217411346	0.3816535909323009	0.23320150931126196	0.2921758269412925	0.310626564002742	0.31147054975248945	0.31301643315062133	0.3119838639581889	0.24764343946755954	0.3068738521539489	0.31152257180673903	0.10751904185134589	0.26631732045173195	0.2904554872023105	0.26532224269112337	0.24922677298565857	0.30595946020741815	0.3630930309963839	0.3493915865834457	0.3676682820309164	0.28902097466918863	0.2977139479660512	0.2598934915154567	0.281690272918128	0.35366400392949837	0.36609495232561284	0.2753409810662393	0.2755025319116524	0.2918214749382393	0.262518016347014	0.3026979970608652	0.28200755891531415	0.23220456773346884	0.2691484992838973	0.32193565392535195	0.3545613536711121	0.24984987952682267	0.376048017400746	0.43484676925466514	0.31017017156847015	0.2976989291749882	0.27191510863767976	0.28761207640925235	0.2911838438199691	0.23547990228634882	0.2610007987100924	0.2209448789243947	0.29429994240883206	0.24593861290296706	0.3204662151300002	0.35034237243860766	0.34874826535282677	0.3196518169874506	0.2574329971478705	0.3146990085602581	0.2774464570357822	0.2362567216867866	0.21501815848343594	0.26670906659394134	0.3578133738822642	0.23028573974318836	0.1921807348408532	0.22889936524593288	0.2710877581435648	0.2883691038524602	0.30427253978415547	0.26680958302648616	0.2715758449055564	0.3005316683927588	0.27831547120426026	0.27010963425528545	0.28662359446925656	0.26241257758921366	0.32582387224429366	0.3341425890001839	0.26972484660044493	0.34422362175462795	0.2673962985686854	0.2517932577980059	0.35708912281725613	0.3534057310022156	0.3912172388991533	0.24240592044041157	0.32738707847942417	0.23387521266061048	0.29417468539211866	0.283561819643251	0.2938496919464546	0.2571540091887903	0.3349299322299282	0.3006240034334232	0.18852872379106775	0.32084854610038804	0.15942244478978432	0.2691643869359137	0.10694559980001547	0.28720191499602654	0.21990481879375953	0.10342165007774093	0.21003989487591898	0.14990406153519745	0.08243918521952218	0.26377175701556643	0.22972228324242047	0.13583170429858502	0.21436232551447462	0.20044895269611493	0.11276294853489108	0.09089690611298787	0.20445701103658084	0.24867631563728668	0.35356237375649224	0.2146705187149818	0.0976879611347182	0.2162905248271749	0.16756423294470688	0.3510717702823798	0.2168633437258882	0.22065052832045653	0.2931695732973614	0.09693966991456346	0.18977119857729516	0.2053360443131603	0.11976901099541223	0.24871794377283804	0.2225402545059552	0.258523054228332	0.30125173809345185	0.21439303922838746	0.08477866136546039	0.3259421558659761	0.08232381596854535	0.25508191422359583	0.27951253574881163	0.312879281953228	0.18429238471743428	0.2048025195339905	0.09184558053498162	0.20981487612265073	0.10878395787269887
-0.06874818368659151	-0.06981860515659816	-0.07363894034798368	-0.04177172943036461	-0.04128955659776211	-0.04082910536244864	-0.05405646113764237	-0.04148773410067488	-0.05428735054800947	-0.06384494705097758	-0.05791237148960432	-0.0556632201441635	-0.0643951867168783	-0.05984619408328054	-0.051596095572274195	-0.044889003408120715	-0.05006297264426485	-0.06709646092729465	-0.06657507334648514	-0.043774647071027385	-0.06475209448320864	-0.04757345973726494	-0.055258878974355635	-0.07667894492707569	-0.0702121006908885	-0.07287027524647884	-0.06620994885939824	-0.05944686878289843	-0.07488834479870221	-0.05212040953181214	-0.09016425645308322	-0.05767570326019164	-0.061621676655929894	-0.05967386234909322	-0.04641968068024913	-0.056735842761754	-0.04861052775934244	-0.05849318312295945	-0.05374179717916945	-0.03265796522530022	-0.025749295352931433	-0.06770895469388073	-0.05181776543771843	-0.056032556505146464	-0.048375846075301765	-0.05168744211625781	-0.0546088722262479	-0.0650078071585744	-0.05005723446088234	-0.05363035016428162	-0.08273786543770953	-0.06125727366009845	-0.0560110783675213	-0.0632459407146084	-0.0697682756394862	-0.05785564159281191	-0.037494560794790945	-0.041302132333235396	-0.03320349176783824	-0.0532585345167946	-0.06360728634085229	-0.06142226142234734	-0.056709560195457975	-0.05150132228970082	-0.04520926308282336	-0.05961331558125847	-0.0640416463177986	-0.06606981835982637	-0.06570679846027133	-0.05508291632440515	-0.04531957898021357	-0.07114609077873589	-0.05884638378535162	-0.050079736533377855	-0.03426956448576054	-0.06157541553582414	-0.0311947371535339	-0.05797727665176991	-0.045480589324712044	-0.0603848223377525	-0.059612469924365086	-0.06301842232815381	-0.0629613772359973	-0.0680968330240887	-0.06004983613831272	-0.0675639656078331	-0.038622826224792205	-0.06986474480926508	-0.05920912630114346	-0.04411156645638181	-0.03959006254972963	-0.04618087012453711	-0.05119973493649145	-0.043877937683473825	-0.06626368465845661	-0.06636606717555442	-0.06300965011363477	-0.0676739745099971	-0.05150151113658062	-0.07828534432647319	-0.07033517788442459	-0.06663602653806781	-0.06440360509943237	-0.048452870250162206	-0.053118029027007754	-0.058091545651204515	-0.06468169036276254	-0.0594155726977796	-0.05048163802083036	-0.053335880709831654	-0.055067729645829	-0.059382739953892136	-0.05111802538481376	-0.04357777061261308	-0.06550994291404104	-0.0507473143209472	-0.05739388240622671	-0.0646677974397623	-0.042745716051206833	-0.04588005117236319	-0.03488620474582861	-0.0659347965170726	-0.03700731104943627	-0.06492274930090568	-0.05940436775238478	-0.05070753813164566	-0.05149491777601699	-0.058858106602827184	-0.04624382909446851	-0.056265343292024234	-0.07408288480876643	-0.06417515296212065	-0.07755661639715777	-0.059585640890042105	-0.08363177522587802	-0.054823184710915865	-0.06936571854977122	-0.09553422666716835	-0.07700457378986542	-0.08412330074953647	-0.09898221324440683	-0.05974994340375121	-0.06865680748951589	-0.08189649625578613	-0.03983834648264185	-0.049762163203270496	-0.07764653225399282	-0.09438399153554736	-0.06964075532200444	-0.06074111225934095	-0.0624101544520896	-0.08099043091699074	-0.0880249609163624	-0.029052907256367264	-0.0699433141843208	-0.07151145867138234	-0.07542664063121668	-0.06320261564655055	-0.05626149659590815	-0.08935062822222235	-0.09434520980464613	-0.07545776139710521	-0.06937532975951163	-0.07095819131701299	-0.07222546092439236	-0.06252355776230513	-0.048369532309806396	-0.07538606840263225	-0.09438698410044845	-0.047791015371177956	-0.091135557776244	-0.07820056186786929	-0.07573484448282586	-0.04888096721685575	-0.07345361339973745	-0.07571825800315601	-0.09261903283852675	-0.08126154925090677	-0.10136938903408368
-0.39501154344957623	-0.3996936494950487	-0.387886056898897	-0.4201104049812444	-0.4144350857525305	-0.42554821960818223	-0.4023773795227156	-0.4029026235441119	-0.3973852100833739	-0.40418520519389733	-0.4030119765344371	-0.40434656729541996	-0.41914012731385075	-0.42507156054623696	-0.4170452264209752	-0.40679193434459815	-0.4037123691514992	-0.40068000020081596	-0.3988385511949969	-0.41305896327261316	-0.4080066203855105	-0.40878755746392237	-0.41299721914798615	-0.38656363542420535	-0.39621732804954946	-0.4067128420225845	-0.40523368144475147	-0.4063500968488578	-0.39800594015191615	-0.3962057843650706	-0.4091221145263457	-0.39506292857617653	-0.3996881958700994	-0.39439525753513094	-0.3980308810685985	-0.40185269336318596	-0.4058833521527533	-0.4025775910372277	-0.42151598022414993	-0.4192019317050465	-0.42366043242673246	-0.4107285072933107	-0.40732768293772814	-0.42019795691022965	-0.4103615751043491	-0.40657111574866356	-0.4060478757639905	-0.40482305645868133	-0.4040342653021596	-0.40351258307773497	-0.3884305069250875	-0.4028451660916398	-0.4088299930813356	-0.40867085455957	-0.4049107305419982	-0.4050022813325077	-0.41928656121840624	-0.40924695258185373	-0.4219797343023761	-0.4054983226737523	-0.40542208277209857	-0.4034633025025688	-0.42174327372775466	-0.4167208748078933	-0.41429735979590065	-0.40516840527915954	-0.39765459450193064	-0.39990410304012836	-0.4052963403242673	-0.3972810304718629	-0.4036513523704284	-0.4016375712127971	-0.4067768798997038	-0.417082259639007	-0.41605248602067024	-0.4027043332214876	-0.4134339200911721	-0.38792422310184504	-0.3761377467260817	-0.3973336171343054	-0.4048137983462248	-0.41269737345549473	-0.4103515530324924	-0.40066544267739335	-0.40666416840950337	-0.39725274944295264	-0.3644309314391688	-0.4049881792153671	-0.4032541900142108	-0.4028303028279707	-0.4108911610814079	-0.41355900238201815	-0.42355823072621634	-0.41512944927069684	-0.40554186237213086	-0.4008915962311177	-0.4019295699307398	-0.4131521421906237	-0.4209803692243541	-0.3886893929073104	-0.3961348834162831	-0.4012152796740335	-0.4049872169146459	-0.40379607445583865	-0.40275310132904196	-0.4053140822705963	-0.40845694956098544	-0.4027056316164156	-0.4042925037457381	-0.4025533555747962	-0.4139162974660947	-0.4109338450410913	-0.4149141008772623	-0.41326279243583175	-0.4063540513960504	-0.409452299520373	-0.40540888464018643	-0.4048714806787733	-0.42354015359322805	-0.4237361613569046	-0.39149890326295833	-0.4006242523246861	-0.40694018519902553	-0.3927577066787068	-0.4083351962128581	-0.4068598337019831	-0.4086097353353526	-0.4089717818810654	-0.4018391118026624	-0.4050112261197357	-0.41706712603167473	-0.42433092123567984	-0.3952534667310482	-0.40774520333388464	-0.3617079433781074	-0.4075124810144781	-0.40739453431000217	-0.38423866318349764	-0.4031173359086698	-0.39026150889004785	-0.36800522992167073	-0.4025837642189031	-0.40184754616816176	-0.38706432939995206	-0.36706753595770003	-0.37841961702360283	-0.36133924961441577	-0.3838253108514337	-0.37533692719475065	-0.40225980065455647	-0.36672153926306794	-0.4001735172416958	-0.3536853736745029	-0.35942171311470894	-0.37231571991074197	-0.3709071246181309	-0.403902343589559	-0.3733396334296887	-0.4067032757127944	-0.3876903201742852	-0.36928957294679554	-0.40537464395013345	-0.37429810286411325	-0.40542269546912135	-0.40593358607157737	-0.40985398669937734	-0.4087351792605005	-0.4064678274102448	-0.39198759859096055	-0.407920264614405	-0.374504629992785	-0.4157816849499434	-0.3792887161227063	-0.4168264244144583	-0.4030671490281206	-0.4040492405081524	-0.38975148079254696	-0.4111186418639946	-0.3918502151141642
-0.17713522669482076	-0.2029584374225757	-0.12809728581146296	-0.23642303159459732	-0.22431986869624015	-0.2442099064493295	-0.17718940112758003	-0.23272908677847964	-0.200542543374284	-0.20884033676057712	-0.2266495333230889	-0.22323397503076026	-0.1314643444485742	-0.15364496233874178	-0.21146118720000381	-0.19770612458666495	-0.20362800405655246	-0.1317934032949743	-0.1504121535227705	-0.2065915858440257	-0.1870471460535199	-0.2335407018314773	-0.21318964479964075	-0.11631654638894644	-0.15093923950586352	-0.12785481540886737	-0.16408960544320733	-0.20822751141722534	-0.14547269857536377	-0.2190929087274564	-0.12433264942806738	-0.1608163929553742	-0.22044081844894245	-0.23198809239466683	-0.24321481987033705	-0.20274653789942765	-0.23297169719471167	-0.2244015122662006	-0.208755174346057	-0.24113057383525116	-0.2576827330473221	-0.16043116313352346	-0.21242062037445023	-0.2191445577427915	-0.19262000804211976	-0.2090840090804031	-0.2100849117816806	-0.18617705094503087	-0.2229167423066123	-0.23397329080628748	-0.06649195170960029	-0.20607921858118644	-0.20734144175675318	-0.18243157773701565	-0.1971855923823972	-0.2296522462677782	-0.2503023874922012	-0.24495407507838218	-0.2532255994586446	-0.20355180812962922	-0.2230521215189702	-0.19647827509576876	-0.16382177516991225	-0.2253987061344233	-0.24479966899102934	-0.20772174898271398	-0.2205891343834171	-0.23010801703599643	-0.20607353126594263	-0.23588357602750087	-0.1977474974733608	-0.18908619911260988	-0.1985856528076263	-0.20451852755393635	-0.22938139319001155	-0.19435957958950428	-0.23785645521296994	-0.33465311051845137	-0.2261202065086939	-0.22956223243703672	-0.20946067599595913	-0.19411327019937702	-0.21310140491077015	-0.17987776326451266	-0.18025357684071905	-0.1839504538931821	-0.21730053024771906	-0.165537508511036	-0.23674407974628886	-0.25547345001655924	-0.23344780564907508	-0.21534151954706948	-0.15386331433558537	-0.22146909852456143	-0.21510280706846868	-0.18973458003808313	-0.15812879926212875	-0.1872557789449839	-0.24319137581101385	-0.21493299745883737	-0.1438620067207004	-0.1751750383239863	-0.19504305656492482	-0.21300223116573735	-0.2312915171805382	-0.18879689897409818	-0.20287601557507529	-0.22653773998760263	-0.19672310507434038	-0.20201467530799566	-0.20383938443577715	-0.17924786716820587	-0.19686870619090235	-0.2265315122860943	-0.19839347624348536	-0.24383872199122975	-0.19633426275092328	-0.19270578070635333	-0.23941722397201048	-0.23245890328270036	-0.2737562911883849	-0.1915262612985072	-0.22774586622873272	-0.20215571760377848	-0.2170309422240117	-0.1972896121892822	-0.21132953568370855	-0.18217919925139012	-0.23713525823135884	-0.24040495802046014	-0.124707541093036	-0.22609348911890298	-0.11728125085473301	-0.18998271834839922	-0.019238767651469355	-0.20489014973048658	-0.1563515154900311	-0.09306930855146812	-0.154544387201908	-0.12387753421508374	-0.017770069661289425	-0.195353214830739	-0.17411133664772083	-0.10823789712377872	-0.1162439197561297	-0.10382824249391101	-0.022752025500410958	-0.038326508281414665	-0.17243494037076973	-0.1802384662446591	-0.283216278251269	-0.17973049761256127	0.0016527420755990813	-0.11398653576731917	-0.11841890372200647	-0.2766808684522402	-0.17651994977402602	-0.17793287990925105	-0.21303815016863825	-0.05326249535071498	-0.21204085417863067	-0.13613460966230323	-0.03181108063860964	-0.19196929714431749	-0.1612029956286467	-0.18578955344669335	-0.22180812618499351	-0.15778661147948567	-0.04373619144614824	-0.22240692947139468	-0.02571505097667806	-0.18180659858785692	-0.2357366852646951	-0.21024921295293736	-0.12694376758681236	-0.1540610221657567	-0.03220751691646605	-0.1529296479357045	-0.07420979882674511
0.23489325075960815	0.23339999272865863	0.2393515966865737	0.2624309253573547	0.24370893620357748	0.2561752362067331	0.26105744666071085	0.23933633298689766	0.24318820328998464	0.2365726884949495	0.23236050445155854	0.23431636082776103	0.30361889592586583	0.3099002190174813	0.2523084907265566	0.25864957095887015	0.24548660835776698	0.2845088776433348	0.26935579409098415	0.28751164943330215	0.25753177620660733	0.24119106009571545	0.2563495123486435	0.23525422366650373	0.24290456059563464	0.2934194606619105	0.25990745767081797	0.24315211097797945	0.2678852915997549	0.24177010700474733	0.26471822522374916	0.2508709131420926	0.23723439850029887	0.23269354846394558	0.24128754927505586	0.24210038620628987	0.2361615166692863	0.23599786303726084	0.27014588399393474	0.2523267175256854	0.2470167316757368	0.27297376399388806	0.2408029196789579	0.25169345512814006	0.2717026571341417	0.2557383857758865	0.25598167841253106	0.24754491097633968	0.23983667871320724	0.2288640413026784	0.2735678254843887	0.2438576873108277	0.2547829649208599	0.2641590491720992	0.2408757805995575	0.23681646494073033	0.2389012779880474	0.23653968221293414	0.23825955080010452	0.2504254151670253	0.24010310286249648	0.24400605766869188	0.31209550413808795	0.2788611237368889	0.26018713009350175	0.2420698611920149	0.23488991143828813	0.23269309786557846	0.23865256245126126	0.21805579864963154	0.2386201921258157	0.24224984163270513	0.2403273216997906	0.2824440542373358	0.2596147554451046	0.23964586359212292	0.27833796558368057	0.26889393988400523	0.23222318090699717	0.2277395377364364	0.2385911976936695	0.2558574033005682	0.2435650739671374	0.2460855135195371	0.255753443935647	0.24170863159869782	0.22105984807245588	0.2739104329223255	0.23471772907688143	0.26385230054372877	0.2469428191795217	0.25966531738554427	0.30500144018532827	0.24335525423969762	0.24170857027129333	0.23916236915993322	0.2531337637535263	0.2567164545716479	0.24728202174032354	0.2239083311423805	0.25640545295335776	0.2473222616712481	0.25176264203451143	0.23610651435901586	0.23165124497178002	0.25443082938491374	0.24741323573807006	0.24140137686988816	0.25060728072548766	0.2456016202739426	0.25150032531843025	0.26321550515986897	0.31819067041437055	0.2584602321150866	0.2479614976197534	0.2393694947686535	0.2494365134100633	0.2441682621120771	0.2550676470546842	0.2597023623567018	0.25862790927791024	0.23752475462828987	0.2405771266428659	0.23162947043563764	0.2429677334334857	0.2526983390891239	0.24285037505414536	0.25231149022614446	0.22604763173148495	0.2067243504340454	0.3079601859179174	0.27458797347745345	0.2571257882460471	0.25591802526698926	0.274563719799987	0.24994357902500564	0.26810259733007435	0.22666172534407714	0.2698401237953196	0.23464780834905025	0.2608413881226892	0.2478998234914695	0.2474467065015314	0.24994284043946624	0.33984659510112686	0.3364866486140887	0.2797348895770967	0.2637811493799345	0.26171707657552123	0.24755291182993272	0.24460610918663495	0.2436537506269359	0.2742875228487502	0.3247680949888732	0.2693542718782571	0.24382652144307326	0.24157641273669156	0.26430637543439695	0.24464859304613046	0.2673735734012969	0.23943452656988018	0.2756471562471275	0.2814850741011518	0.2486315427763342	0.2679235049650459	0.26020317559101164	0.23780881851543645	0.2584611713441421	0.25954012952703753	0.24929545460500552	0.26066310739199117	0.2650021493358891	0.274553906301184	0.2589671708172586	0.2810213286524793	0.255674139671402	0.2728778051431135	0.2746388270940761	0.25071520057390706
-0.09319595352246912	-0.08737752105159288	-0.10437408459134553	-0.09422175139020067	-0.08404443463197928	-0.08888706060435117	-0.1029152299155296	-0.08443851843408623	-0.09388555595060258	-0.0861248902428251	-0.08161129132448225	-0.08005827753073802	-0.12723231697652512	-0.12017241755471528	-0.08231929735262122	-0.08990372836943106	-0.08471743974114368	-0.11359251296668679	-0.10212462457640664	-0.08499121122126771	-0.09753194666380932	-0.08302033539631265	-0.08647724562561823	-0.10585198063547843	-0.10304817427147894	-0.1081543157185921	-0.09949250102384577	-0.08308005037911428	-0.09291598567559115	-0.07937343611152384	-0.10321335262288092	-0.10788873471404944	-0.08076164751688061	-0.07706488534234965	-0.07791896090327596	-0.0826577470067778	-0.07703063108863509	-0.07890072854050167	-0.07989706205231911	-0.09342224901589016	-0.10154182793648509	-0.0954503938391621	-0.07779311783391274	-0.07311245826666601	-0.08215882549563527	-0.0757387854581289	-0.07805219267819374	-0.08925526057155936	-0.08131166098115825	-0.08067423495144224	-0.14906020622129065	-0.08638413015576737	-0.08046084330147726	-0.08937170887237322	-0.0869834068094675	-0.0815036551738676	-0.09782343283884179	-0.08580712151662856	-0.10422580171041584	-0.0833230352931944	-0.07495466504034223	-0.08769169172485305	-0.08804778700318058	-0.07723698760997905	-0.08252428036891304	-0.08082655744097825	-0.07838119649169911	-0.07608211393502365	-0.08416649443597704	-0.07924788163169189	-0.09300712002730063	-0.09379252451388037	-0.08279898838406546	-0.07961694031612163	-0.08153516904251548	-0.09051932148678318	-0.10152737169150053	-0.05816626205794653	-0.059533120370848236	-0.07252425617448485	-0.08343902004772918	-0.0760941601768759	-0.07556809637585532	-0.09355298187381952	-0.09130912937956351	-0.09631741888513062	-0.060609099310457465	-0.08813805596719024	-0.07933782875769185	-0.06164829728246132	-0.08011379875102498	-0.07878863584809612	-0.11844108398459452	-0.09264526216475949	-0.07825608443140977	-0.09082842348105105	-0.10239653293643125	-0.07914547601313121	-0.06930032088759047	-0.06719207433472194	-0.1035390309064147	-0.09358956803179466	-0.07909621282732576	-0.08629963096890211	-0.08863784901413929	-0.08779440559843432	-0.08209116505407019	-0.08080696856797517	-0.09264867154247003	-0.09564764529970854	-0.09558922759668745	-0.10184573373981323	-0.09904871945215965	-0.09101327177373969	-0.0785622193575766	-0.0756220715865207	-0.09069997526329135	-0.09115050236860997	-0.07549243317755694	-0.07401121000121896	-0.07535186652202158	-0.08639134069431476	-0.08662456979010433	-0.08156305724092391	-0.07623565495031462	-0.08654006268377942	-0.08525800577256179	-0.09283584324006752	-0.07810760080048995	-0.07884744469585991	-0.13176495952829606	-0.06420071404302907	-0.10788825372609301	-0.08702815867930574	-0.1661610318421082	-0.08130217436039858	-0.10236350712042167	-0.10357078207815085	-0.09657611637083927	-0.09851385781139249	-0.1506387712193972	-0.08452899040440137	-0.0907811999182433	-0.10700977331671616	-0.1279203850130467	-0.1257731786617348	-0.17223423576521787	-0.15477196754974085	-0.08284290896759	-0.08767632355645952	-0.06131624781050976	-0.083445064007936	-0.17089007738894235	-0.13180580119437105	-0.09744770454104043	-0.04249908555400986	-0.09272560385440715	-0.07955657064563706	-0.07741136048460318	-0.15175471897921944	-0.05065015668017314	-0.0959534326931292	-0.1698741604988114	-0.08598854072123815	-0.1021494701649503	-0.09497950509099132	-0.08786666550121586	-0.09571115326967963	-0.1496377566126404	-0.07503686503568896	-0.158335872478084	-0.08358664074911865	-0.059124403337403486	-0.08820697627236018	-0.11158192775869158	-0.0975251246687415	-0.1608535967672725	-0.10205678440230789	-0.11764790242176912
-0.5968082947915385	-0.5866031246381842	-0.6052150206914338	-0.5879857240463446	-0.5860511015739251	-0.5878901970468922	-0.596701072608749	-0.5880548876707582	-0.5928001639756845	-0.5897927438121537	-0.5876207455933454	-0.5895103389101691	-0.6037570018071413	-0.6102136459649807	-0.593633105327476	-0.5953032644926501	-0.5934755044092925	-0.6054933406809047	-0.609316533858178	-0.5994948139307894	-0.5938366644970379	-0.5837772451933471	-0.5882188617701223	-0.6078339472854658	-0.5970231740771692	-0.6143777944153969	-0.6000684047415373	-0.5934178691860548	-0.6171274173217619	-0.5911730921810371	-0.6024264368237502	-0.5906196031927327	-0.59237705173832	-0.5967236966095815	-0.5899779066242253	-0.5940959904158766	-0.5891693037291457	-0.5896507184207166	-0.6006583610688697	-0.5767270474451068	-0.5650097342124294	-0.6082978008506209	-0.5962459582981618	-0.5944664075316545	-0.6066014403820981	-0.6004954613637143	-0.5990124664121946	-0.5974631190961986	-0.5906875867337652	-0.5858676848257846	-0.6320008357494249	-0.5903265698331852	-0.5959083943486226	-0.6003078992396675	-0.5902400708627336	-0.5870459569859149	-0.5659507396071789	-0.5814587968765721	-0.5587583955656086	-0.5973937537774776	-0.5946376856990876	-0.5950212671680905	-0.6255052028888349	-0.5991920620781511	-0.5860787769895132	-0.5954680896112894	-0.5954516108740486	-0.594307191276145	-0.5915612413388351	-0.5860683136904377	-0.5906363323763777	-0.5947898614329074	-0.5965545380721734	-0.6048465251398434	-0.5929626952972498	-0.5938755057957608	-0.5825527773328878	-0.6018482609851308	-0.6252543973190049	-0.5975101189661552	-0.5916787785372248	-0.6068595410189025	-0.5950083647068855	-0.5961453787502335	-0.5993708468704759	-0.5925412452328881	-0.6269576497153806	-0.613394735150716	-0.5841780146548848	-0.615001839445627	-0.5912156737175224	-0.5956594748916041	-0.6061990652313674	-0.5779608634314471	-0.5944768284703894	-0.5949924476733783	-0.6012620901369915	-0.603169791603203	-0.5882896050868468	-0.6027540099073453	-0.6064789505868773	-0.5994791452729499	-0.6054204889444992	-0.5865813688781774	-0.5795049920507009	-0.6020688802243206	-0.5935211853683611	-0.592391182956507	-0.5948557905634428	-0.5886183816486037	-0.5858371692692994	-0.5998267869863001	-0.6018942563369674	-0.5837159863771615	-0.6015916074932492	-0.588138780514313	-0.5951586715490056	-0.5949973803826112	-0.5914090410884084	-0.5971575007879099	-0.6029971696526004	-0.5988117117514812	-0.5830614358053984	-0.5946966089159267	-0.594117410080293	-0.595885088850799	-0.5914335708705916	-0.5946069712221249	-0.5858015639116686	-0.5840877031432287	-0.5931776991618943	-0.6045605679195619	-0.6120937503476029	-0.6015037269972879	-0.6646256167690394	-0.5976957046044596	-0.6039827050285487	-0.6234366184006793	-0.609544814000537	-0.6099122927430893	-0.6675592918589706	-0.5995832509682093	-0.6049731251134043	-0.6149080367036875	-0.6141176563339736	-0.6221732285093263	-0.6560529085243925	-0.652251735542509	-0.6143039113147251	-0.6024324230776629	-0.6169354659958212	-0.6049354666417309	-0.6813087555544407	-0.6103953446567205	-0.6321675785547842	-0.6294833012519875	-0.6020178055250772	-0.6163123381702827	-0.595101676098712	-0.643422384373571	-0.6343064088603696	-0.6175289800394571	-0.6449153585476908	-0.6004438104121497	-0.6019855749960121	-0.596975231836928	-0.5824272167321473	-0.6088499281775538	-0.6504488424553894	-0.5962713519126688	-0.6567613316489502	-0.6051466196024321	-0.6223168740697858	-0.5893257127879152	-0.6054231184409741	-0.6103293861003358	-0.6540782223373204	-0.6007658954494474	-0.6336944498291651
0.3150645613384273	0.2967854001211523	0.3389288928406723	0.25276697072469007	0.2814036135625319	0.24430318265013568	0.3153618319185105	0.28783422887015253	0.3025689275991691	0.2852444183577538	0.28765297035892246	0.2971135548372097	0.32942947717391746	0.3155873604999222	0.27240095943022347	0.302738720094237	0.3097911500644457	0.34382044820483204	0.33072183452563414	0.30073405012327226	0.28974146880299684	0.27384607965002405	0.2805432616013101	0.34737440798986996	0.3265121634611651	0.3447995879611029	0.3194778012070071	0.2958883626880458	0.32889005395089577	0.29586301833090456	0.31696141349627815	0.3380597636163719	0.29806072690322494	0.30071702624986496	0.2899874297661764	0.3105171528342893	0.284876570505057	0.29061255450359746	0.2814448908928415	0.2640050278401914	0.2455419188499302	0.326077545594606	0.29882497613941117	0.2892004197205315	0.30412731544306454	0.2941306795802728	0.2944862849384317	0.3046860637955835	0.2925711897015155	0.2922298535704978	0.36961176826852266	0.29755688421318394	0.29710839286209356	0.3033177555811418	0.29366344446098824	0.279796058802654	0.25215918342649135	0.2696560684227125	0.2468613722223043	0.29676194431688646	0.27495791690517946	0.3043443675871803	0.32586948261883986	0.26236034760182647	0.25732008339654744	0.30268374167255463	0.29797794716268133	0.28912284165030927	0.2933996933397213	0.2971354015866188	0.3084487288364069	0.29543199603744097	0.2993906294201139	0.2927004144029154	0.28574793282946437	0.3044904025653147	0.2675543766577435	0.23866335733964594	0.3394147180465482	0.2943325735258352	0.2951204041490627	0.29050927223364215	0.2831411443131218	0.3078239961713237	0.3070815185196181	0.3091338718307156	0.3669408465386761	0.32063220560273686	0.2751331502668187	0.27965096125833677	0.27333140233796394	0.28583254365417454	0.325054855985698	0.28103067025332407	0.2846727066892032	0.30221624512685363	0.32832974146158067	0.29842411422629367	0.2557626142166912	0.30486248710241626	0.3333276944280947	0.31383434119109654	0.3019719772254849	0.299605109693623	0.2832340892808866	0.3074996619527952	0.2909198421239063	0.2861325786707298	0.3061657505219102	0.3038928295647209	0.28837175083937194	0.28813244953805184	0.3008296687175619	0.268278021109871	0.29810657232288784	0.26492072682206974	0.301962228991552	0.29672655574003237	0.2607843068151471	0.26064912262789985	0.30202166615759574	0.30441722091288326	0.288552728235491	0.3136328536221853	0.2826391272351736	0.3074531103660827	0.2863583144811703	0.31196696356591885	0.29101530470642656	0.2852096129294876	0.3328920863500783	0.2696024202004465	0.34752325928229777	0.30170463864416	0.3689986375099313	0.2965692681069947	0.31788967971801885	0.35226352638287073	0.3218525863014804	0.33489649911724995	0.38471443176789505	0.30783750598105963	0.3085953100582527	0.35377133032063857	0.4529260876594893	0.4499989553245731	0.36667901835895755	0.36673465915250275	0.3666223305050866	0.3164052402921485	0.3185812348325534	0.30151748604595974	0.3642802833069352	0.4366622021400731	0.38434410416063214	0.31702050129169096	0.291232554450895	0.3736115636805436	0.2945513090471432	0.3686623140179679	0.3095691060133898	0.33887304906213217	0.3927419674050172	0.2976615066962045	0.30747134052447644	0.3029213118437438	0.2863813505059104	0.3160442633090341	0.3763493315480487	0.2845023033392491	0.38570422037202917	0.28824084685923834	0.3296473882691241	0.28060947850814094	0.339146218746323	0.31314636180072464	0.3782824186778371	0.3078840405592176	0.3584168091972322
0.18187146247041003	0.18466478197766184	0.16819354624625055	0.18940554734262438	0.19410122676965896	0.1802018619591837	0.1902496050960199	0.1931858353781984	0.19235125699754696	0.1828638320405615	0.1803558552814215	0.19037556333587008	0.16380669425866234	0.17690110383449592	0.1877658869044378	0.19892285611268617	0.197315527144717	0.1693229407819833	0.17761491972058058	0.20051564864843674	0.18492043933050645	0.19172508127741406	0.19499296477560618	0.1667411934063328	0.17216490608229545	0.1701796148466072	0.1799065009635301	0.18791796345973932	0.17870783981686128	0.18413657905809028	0.1625061210105765	0.18462818095376093	0.1844857153700471	0.17480013541204775	0.18498812708866214	0.1938807055120244	0.18979782473283607	0.18605566675683388	0.19986345560474078	0.19047762982027328	0.17917617229092087	0.1845000931890911	0.1923907328806902	0.19720111449046035	0.19690663107838802	0.19517853332407592	0.193172789213497	0.18542894940459992	0.19169020944054915	0.1852949512739967	0.1537014604123484	0.18954183796551893	0.19733974157595802	0.1895275024525227	0.18161081850874694	0.18557740300831366	0.19082023391683822	0.18998370348072652	0.19060028651799638	0.19212079477480537	0.18152953543985056	0.1885658223471336	0.20455947901598626	0.17532172875865926	0.17842000498852906	0.19253879709385896	0.18046305809483965	0.1785851934808173	0.18483931195700204	0.1738748531036352	0.19269566980843905	0.18275981270824676	0.19114269596354738	0.19761705823770948	0.19088054766814772	0.1873316447918083	0.17949448419446196	0.13704283652222365	0.17909521238822085	0.17770017980500075	0.18690564720524133	0.1955521979176177	0.19444181100159358	0.1866579718670302	0.18628833511991943	0.1784220832083655	0.18237861669455918	0.18607645373928078	0.18308007863587156	0.18755532952970355	0.18679393405371764	0.20469119400608665	0.184113914188189	0.1838187934846487	0.18915828642982635	0.18424128114879218	0.17887280380733644	0.18979042603766438	0.18319138424450176	0.17941357473199282	0.1731657240089619	0.1843827199035461	0.18681962505785327	0.19343215950385095	0.1836753480291456	0.18724581735877777	0.18838950057073545	0.1831375672812809	0.19394032046292803	0.19154179352984974	0.1923794171953891	0.18234513244177747	0.20505159314170912	0.19422818799585112	0.18814199362918393	0.18924533107489627	0.188946214533059	0.1842259783058876	0.1877424877720606	0.1852385856722868	0.1666784963727903	0.18294243396605042	0.19595995232670876	0.18647423141339914	0.19080413199556062	0.19573981133074547	0.1914710546786919	0.18813144738266474	0.18411867731954829	0.1727811335712292	0.1704449089171104	0.20303936772042958	0.16440951959314687	0.19089742126540765	0.16304477222547603	0.19274712834040192	0.17941347449873052	0.15839313870839428	0.1740605595079932	0.16633798809307326	0.15809554524094466	0.1890575289359418	0.17992730821513697	0.16115336034788313	0.2392671694007263	0.2334161478891239	0.16992456433231856	0.15219703567591653	0.1896418040968566	0.18917084422029562	0.15111264562949056	0.18008621911849004	0.15877860772389707	0.22921863516273538	0.1806814307324054	0.15105456044849475	0.1726048803252732	0.19700340907809305	0.194764027386439	0.15275773151784283	0.18220193020893377	0.17573564999953006	0.17652155605145242	0.18488784353097326	0.17904352593522527	0.18793222003114368	0.19458782711112055	0.1747260888160843	0.1503488580128653	0.19798434613696436	0.15250572061923118	0.1872444833546164	0.17598309715292976	0.19963048059028743	0.16553491881905752	0.16890483047095506	0.15502878280302496	0.17814609848398405	0.1557008646665895
0.0756595356142731	0.07367599466806737	0.07009896344243535	0.0833804832240767	0.0635422187765678	0.08655042585380165	0.06110521177098993	0.06608987314343595	0.06830330498003731	0.07845827008370271	0.07195422516329372	0.0576963455169712	0.040702869798181274	0.05190981393177432	0.06778541204082905	0.05294574585346218	0.050323111509720075	0.04199598579901789	0.05873209428267662	0.04214161603953112	0.07303392695806774	0.07003065498713557	0.06003514867174434	0.06921546148131269	0.07461875824334055	0.02918071820671639	0.06320982723225693	0.0635145769343185	0.05163499824133694	0.0659064010460989	0.051455410449374794	0.062058169254108925	0.0632945484232747	0.07481175136384885	0.06284881302302514	0.05183168414726683	0.06249959480460085	0.06430299717816593	0.051318357090465644	0.07291642383500135	0.09176276971507233	0.045779853744546795	0.054949063657052766	0.042794862796303734	0.043289472149343644	0.05199677632090119	0.05295307808425609	0.06563108381042174	0.06126078060250775	0.0611152255215161	0.03146774520546086	0.06501349496220754	0.05043224347797376	0.05577937105057379	0.07297963108893812	0.07119909459314716	0.08519193816567239	0.07420280793706535	0.09092164698143057	0.05974748538679445	0.07601619210154051	0.062200385486378545	0.019702223054597942	0.0694513805341751	0.08021069019014271	0.05597257739320172	0.0674656115144446	0.06906637785253486	0.06839656645594105	0.07079684044689044	0.06185862415331694	0.07940575902336508	0.06179606063403609	0.04338323894161039	0.053844364420904234	0.06799854446559694	0.08054940319556492	0.09023809581373898	0.04724009315216601	0.07040140037224127	0.06584228861969435	0.05239546847686094	0.06026652538336713	0.06795477261577482	0.06037943000580956	0.07831441635541259	0.04727477295160207	0.04793668781456689	0.07431989125938301	0.05158476358888009	0.07117736056945417	0.04731747718520435	0.04283585823886224	0.0749164704683768	0.0671218781837174	0.07409858119844392	0.06537535425230251	0.04978722022629975	0.07030659331087055	0.08517860245416953	0.06682811507015268	0.06739834578046072	0.05804804208894043	0.060601148023704254	0.07612884380111168	0.057996600078867866	0.06376551374538891	0.07003879788721684	0.05940997481810939	0.06539322957480051	0.06505555889964176	0.07812003169367265	0.03896229409125146	0.07072506861332756	0.06150304603352924	0.07157486320593809	0.06362428148431801	0.07213920243743954	0.06550949987454854	0.06576631696158447	0.05370950197820917	0.06932376990726236	0.06172838881506784	0.06424509279012788	0.06370151883574748	0.050887170488101874	0.06690098451247023	0.05543085679166382	0.061952056644247744	0.06356055424857687	0.02397794716257004	0.04321007189482659	0.054462377727632016	0.05835566595820771	0.015151569117842684	0.057767510512238246	0.0621103971385579	0.06373053177732974	0.06409097456007051	0.07358647081169895	0.02060611539762236	0.058023118559349274	0.07250408752629078	0.05025461093606326	-0.1039323064253072	-0.10685306273358289	0.010450422620662522	0.03343310846230363	0.028634339371869155	0.05610601932329928	0.06109898027799107	0.07409829666172335	0.019657071281565325	-0.06469810336114104	0.032365906499769975	0.04173684157856494	0.09086610357087682	0.028591875904614844	0.055082434554770576	0.03831079440873714	0.0714069704045894	0.04538326893380709	-0.00575913485192979	0.06791861724930964	0.07010249058703882	0.0600747524936287	0.06639571397775454	0.06885847949367538	0.030180284137340863	0.05531131549864121	0.025996161665346587	0.06185442885028844	0.02358356923651954	0.05954787471379397	0.04175093523165829	0.07714954197370966	0.02084640991036195	0.06539481877547454	0.050265066182893614
-0.8498094558444833	-0.8513400929286357	-0.8198790166821432	-0.9008644168302586	-0.8970511785090196	-0.9047597239445051	-0.8810138712638613	-0.8890414966290383	-0.871848937842294	-0.86637273615777	-0.8780463953799891	-0.8840350997746248	-0.8694484072238354	-0.8958085289956763	-0.9005019174322396	-0.8972038911283483	-0.8855815069921292	-0.8636426798396737	-0.8744331070969869	-0.9087304535896898	-0.8794096090190316	-0.8923015928611145	-0.8949414418061566	-0.8102844160669141	-0.8408469445438052	-0.8754845346562949	-0.8740616725643062	-0.8785304650369057	-0.8727657696490485	-0.8832511372611453	-0.8380446779090392	-0.8612500024422597	-0.8737066132565214	-0.8820634979390091	-0.8963597952997056	-0.8810330931330919	-0.8965722208387219	-0.8831182546169678	-0.9099079456024539	-0.8943620541106001	-0.8881411518607372	-0.8895708610354202	-0.8888585917483062	-0.902359089258741	-0.9133663583624207	-0.9034962725323367	-0.9002742591688648	-0.8758642308190594	-0.886735648840686	-0.8855290424619737	-0.782550082144208	-0.8713919751017145	-0.8919829877086647	-0.8926736811417411	-0.8670048007278673	-0.8816169266580134	-0.8886526898835487	-0.8936479140562656	-0.883990803712833	-0.8905300912109426	-0.8808828023617277	-0.8761742726796684	-0.9217248981413326	-0.9079918832615852	-0.9004823144677843	-0.8806654811180092	-0.8710824302162652	-0.8761169091939564	-0.8710012192077043	-0.8760946552783246	-0.8856089846329976	-0.8594740421537782	-0.8845980439634492	-0.9140894186210785	-0.9049236992216939	-0.8686992185835148	-0.8962200793944424	-0.8742028174985952	-0.9041331142648148	-0.8825813560396312	-0.8738490982012596	-0.9075548749028703	-0.8914362360411519	-0.8715903446743141	-0.8879230070297582	-0.8498550924435508	-0.9054894470706432	-0.8943469019770098	-0.8866462286646418	-0.9001099629518675	-0.9038915511052286	-0.9056071030917433	-0.9006818555968211	-0.8833532347736766	-0.876496774216657	-0.8624325277946551	-0.8693220278990094	-0.8984745010470473	-0.908670124408424	-0.8624447063816751	-0.8533765679957143	-0.8689841086745302	-0.8893264541796622	-0.8807677110352756	-0.8750169316980876	-0.8868426684578069	-0.882012154595625	-0.8790534827206131	-0.885743403733222	-0.8726730561421354	-0.886133706806715	-0.8850896092864553	-0.9126300826651871	-0.8953434735626535	-0.8856152010032372	-0.8980662374572992	-0.8790394914268285	-0.871804551207331	-0.9054153109370151	-0.9106973652731428	-0.8939599824780362	-0.8685196809316736	-0.8928270394464333	-0.8554081770551996	-0.8874931151885115	-0.8919846551224617	-0.8865499467176632	-0.8853761181169248	-0.8976944432605016	-0.876285168781577	-0.8510582305603159	-0.9165326675726447	-0.832363680186917	-0.8894667527671829	-0.7370270986095033	-0.8898445425283226	-0.8770594454750187	-0.7825569555495595	-0.8704898854999414	-0.8149411329790892	-0.7437543827170212	-0.8806052224013305	-0.8719821828150642	-0.806913910929992	-0.8802700548010918	-0.8896270419470089	-0.7368490621331253	-0.7591044654141438	-0.8519413265227591	-0.8836920303492213	-0.8795741917358824	-0.860848075322932	-0.7176233948420537	-0.8494660193257699	-0.8344224345605638	-0.8885731137760919	-0.8578785355803845	-0.861840343601429	-0.8900603250873577	-0.7705331139798506	-0.8221728803876172	-0.8827017959004597	-0.7608861350637974	-0.874225291448697	-0.8728941331693176	-0.8832164393367989	-0.8827043953639762	-0.8743530417146073	-0.772743171602924	-0.9045722082900912	-0.7482970316544058	-0.8930599428758236	-0.8602311060918431	-0.9001473678426574	-0.8548114815575698	-0.8671895985522865	-0.7681410347054649	-0.8725931515530473	-0.7863996792485755
0.06417223338664582	0.07156676518583374	0.0608641263166656	0.05525445496108314	0.06296038425524522	0.061766273326293	0.05098796368716288	0.062006118286681455	0.061424506103217646	0.06941808617401016	0.06719622185664831	0.06367851975961844	0.04716985690869027	0.03347323063805269	0.054441332022135386	0.04639124387672594	0.055628275230407864	0.04250781958324243	0.04250824393677993	0.024082292305634245	0.05662941977769123	0.06264672515715136	0.05617482388077069	0.06222824998543486	0.06275050918080474	0.03670749175235449	0.052476326986165056	0.062167895775778	0.04465777268427912	0.06774579840254807	0.061749839216639874	0.06009151402617022	0.06306260860425952	0.05423421011582724	0.05577018749117421	0.05908352090210328	0.058021335850645284	0.06291999049425295	0.03683547173255847	0.0611056418211855	0.0720040805533537	0.039683732664341054	0.057916677250392234	0.05203061128133252	0.03367732883473834	0.047143269800312054	0.050039102532242086	0.058578921015352226	0.06088922400867322	0.06656456011845469	0.06499001502521007	0.06396358076783745	0.050483342680505194	0.04777533519174493	0.068248357618035	0.06486695000626502	0.07290591415496761	0.06211943863714908	0.07896121272173548	0.05331325632177772	0.06487234053819813	0.060779563865193065	0.014138533324471209	0.042385195078423255	0.05575964004375228	0.05987598367628405	0.06058647615461704	0.06220415937306856	0.06757675133634916	0.06706393221308199	0.061882769077480526	0.06527495938165298	0.06021165201868564	0.026512980401657837	0.04492604876078313	0.06364277143295172	0.04777212446671489	0.021204103271262403	0.028713287961463718	0.059561929686089476	0.0654757709321111	0.0454022461323407	0.05999175246466809	0.061612159533107363	0.051024394604333445	0.06540765217297917	0.021902123175404797	0.03666957254338221	0.06734498521014073	0.030172614970659872	0.054027754487254026	0.04382939661157981	0.03331484175186078	0.07169470574468165	0.06307318432142561	0.06434660191272965	0.0546843945288564	0.048155285898221406	0.06025826786592284	0.05734959134304071	0.05190141563636422	0.05719688231377906	0.05212265141402678	0.06462392652768562	0.07166052629231079	0.05007797222955862	0.060806888215731325	0.06111756657968628	0.05519023303357959	0.06302241794051594	0.06198207845093709	0.05220267592496297	0.015329049265583927	0.057225388396685894	0.05520937912083637	0.059780600767740055	0.05717896522944663	0.06272255432372847	0.05376895414342894	0.04921442898371675	0.028360762934783124	0.06286613437575395	0.062373189672883717	0.06284385053616562	0.059650695839046225	0.05050396426788065	0.06050460989934614	0.05506784981110191	0.06116160282273486	0.07194982616037512	0.05482210037093105	0.03130938607072112	0.052777277115583526	0.04933459357018799	0.06974355939822205	0.05308357669090413	0.04682084442967238	0.06867887585539373	0.04603779933660504	0.06201745340854975	0.07145238931434364	0.05490662845658392	0.056142360102487854	0.05813635150707794	-0.005188881667957307	-0.00153323744300779	0.06970312515560978	0.07334051503066283	0.03348423087797242	0.052839472276238	0.02090107008531883	0.05815101446604948	0.07310450493530418	0.011910972251652135	0.024318543720272673	0.019423195182018127	0.06338302503580565	0.030691664647015032	0.0570005046287127	0.0681805112876023	0.04253223932996031	0.037884135330607194	0.06274091820710773	0.058342255170081486	0.04907088357959566	0.05281470705444394	0.06716085900478425	0.051360132733290764	0.07088374446736834	0.04856205852491677	0.0717472121774545	0.04739574685477846	0.030533592577951796	0.051462155262902015	0.04673467983294008	0.05272959703373445	0.07016925930949966	0.0485289718911783	0.06502538303595726
0.4676714494995873	0.45847044278309523	0.4998638166247754	0.45642574639895583	0.4645872170423394	0.4468603140490592	0.485518783296899	0.4614864975029528	0.47011950181191015	0.4570467050783289	0.4482584982384632	0.454181350258432	0.5214972765414971	0.5168538025830657	0.47232388397470493	0.4860698104937502	0.4738445832415069	0.5177041933900975	0.498839203763044	0.4951927896883952	0.47577645796506185	0.45733239767046807	0.4751209784148638	0.5039492049973319	0.48140243094750934	0.5233362787012728	0.4827062147450686	0.4647559710288497	0.5022063067799774	0.4686773378952012	0.5052352924804656	0.47884166361484126	0.45766541137268707	0.44531781039179064	0.4562446392752252	0.46916953822244467	0.4532748981953826	0.4536150914348085	0.48686748355699727	0.461452475749491	0.4417795254308655	0.49440231584734784	0.46733988669835	0.47089133833214286	0.49534889420685757	0.48108244072596085	0.47963997672116254	0.4686968501152589	0.46314876718681464	0.4428521415491694	0.5503774526124716	0.46559028007956715	0.47841570230852315	0.4846687357672379	0.4608772129376856	0.45238527043687876	0.4420752499766038	0.44899827726821556	0.43873112599378844	0.4757859721664721	0.45762212002104474	0.46718894709919123	0.5301052121188459	0.4855808686279386	0.45912335383158887	0.46548060334890307	0.4560388024715669	0.44928550979462745	0.4588762862254513	0.43752158474383196	0.46649630503583694	0.463830084966638	0.4633476832696384	0.49381469222834085	0.4757478391571852	0.4621270012444555	0.468125526955275	0.4477200804894829	0.4626345777102352	0.44629575656579523	0.46131595537444914	0.4770507305264928	0.4626963521593571	0.4683463645619482	0.47898102667957454	0.470296787599771	0.4557873183094107	0.4968092525346366	0.4447393696207061	0.4814576863815696	0.4607372645140601	0.4810117435305543	0.5178684461074836	0.4600103904556594	0.4610664432038205	0.4633249447458085	0.48063516941743123	0.47772862409374217	0.45347914002915096	0.44107985658950966	0.49287868198263696	0.4708565152918739	0.47467433296581496	0.46202202244609114	0.4458638692165725	0.4798754309782385	0.46631345806184793	0.4579783470347223	0.4762107433261106	0.46914403277118955	0.4688455712457995	0.4821385073786013	0.5154253974397294	0.4736573500303949	0.46853351443944197	0.4511989075254969	0.47248113419327087	0.4647160642621532	0.46432648731328957	0.46735305738676347	0.46576844819948604	0.4640879801463076	0.46475240016531416	0.46364629950759506	0.46374866014802535	0.4794943272769182	0.46647908673110683	0.47493122712691127	0.4376920461051649	0.41562528611388905	0.5252693450927681	0.48436003513767256	0.5119817345379971	0.4789024112453948	0.5835950286646936	0.4741607345296974	0.4903749850023513	0.5129184980752631	0.4919361193421393	0.49746550370961673	0.5682138427493715	0.47342481303207884	0.47207320023390753	0.5207564536795944	0.5888978077538021	0.5804723033751733	0.5872850233544359	0.5536897393455653	0.505260603258084	0.47410575215294837	0.45063586909272524	0.468313683152151	0.5849235528693085	0.5877024846562326	0.5346115109856822	0.46440925315570425	0.4649601144522067	0.5035405391025022	0.46816123360903145	0.55031150936556	0.49266852631782687	0.5046471090161121	0.5832424520539885	0.46718626520749307	0.48832368790980696	0.47953251693637267	0.457457448415837	0.4807937578815904	0.546992907873264	0.47155219328035325	0.5620020079200132	0.47720306104925836	0.510833740404464	0.47686539414545825	0.5175374054322308	0.48240075872934196	0.5581274662342275	0.4904024023249689	0.5276935146114179
0.03544144236232172	0.02885473270842387	0.04344274759686079	-0.01682531490826991	0.004742681045813574	-0.011038207760557056	0.013309270745995833	0.01815470955215323	0.015829945570754428	0.027100325408019904	0.022374031028383895	0.016117494075052613	0.0304626758738388	0.0047125887982020775	0.0009709925315359025	0.0019659498082621185	0.010149054597153456	0.027560202705662867	0.020988395851360864	-0.011798185854881932	0.015152673961352142	0.013327803403446498	0.003173770323303099	0.04694877568575628	0.03534088441602612	0.027278905628072975	0.02065301340653361	0.020537438124888424	0.035169952964397844	0.027544623935216478	0.03778815638046251	0.016582470922555242	0.024357099857358816	0.031377337344202144	0.027893576482382693	0.015047068092695931	0.01884804964315026	0.020391188618104433	-0.009157649832742892	-0.004035456187666847	0.0037631764685552016	0.009493248014511818	0.01438223686507542	0.0017703482345030608	0.01136624400331046	0.016105893048848657	0.022406557590145676	0.020142007246943927	0.017173813154365808	0.014217940618495933	0.05729339681081258	0.01933524972433251	0.008954649908144041	0.012934813009235963	0.026173979579261347	0.019850959492662495	0.014760393073680905	0.018519864564789573	0.01260686433543165	0.012378088322359121	0.030990396892976085	0.018467307495504404	0.018785313983846252	0.0199529650354415	0.018829406652440178	0.01951255858272033	0.02659141358840214	0.026243552720431246	0.02386762190836561	0.019320908781441132	0.009748306537340573	0.029200769788849584	0.014627004192001414	-0.0021096258855025363	0.005331529146451214	0.022658942574197788	0.011393593570088761	0.03994043102463188	0.035886857920348764	0.02857030183804224	0.01928209937827413	0.010461855517799629	0.013264411193712772	0.020145315326837554	0.016918889613307286	0.039217092733275394	0.037202876194166845	0.022098038836935202	0.021549247512626407	0.004676884534377174	0.015903177196369217	-0.006198831533534316	0.009239411262204095	0.014837633146214585	0.023654706436779666	0.027337147224068353	0.020255065959387253	0.004452813025001445	0.01553341971446423	0.04064977850024315	0.03315849159017842	0.023307272530314727	0.025843397212252123	0.010531349737598616	0.017109410993992963	0.017084390078287187	0.015722349131010144	0.027466505836449523	0.011294379465843524	0.015403190387419025	0.005607756090441313	0.016309985027522178	0.0013271060899600895	0.000488284970475733	0.021701042770496032	0.019509954567660664	0.016900317476777782	0.021652610653778298	0.004598663237702777	0.005825740865241541	0.033416440613631776	0.027176531440466806	0.004232457656991623	0.03124161938173578	0.01547959477188357	0.007056907438161453	0.010189540130449731	0.009739367746523925	0.01773956933326329	-0.0021501533231983727	0.03730594331541065	-0.010664773528380106	0.04104299160297831	0.01494817894031869	0.1049405077328222	0.0146313240212477	0.016398190537912305	0.057324707702191224	0.031203171681743996	0.04760179100681533	0.09575187485624084	0.01884843656493465	0.026424495354126082	0.05149169247171126	0.00033432709350458834	0.0026460632373632442	0.1017072390067819	0.07933921152263954	0.04611826018286541	0.015745082148913542	0.03900587281973225	0.03813899209506827	0.10703723216503894	0.051444425229481006	0.05891732524244922	0.05602898768011402	0.03551614522212046	0.05030234960135524	0.013864213210020432	0.06998390090984169	0.07785010759968833	0.027264172104781298	0.0988556504611044	0.02655035383285359	0.022042815027390278	0.013318659151037554	0.009525568119525624	0.027518338814413373	0.06163074498408766	0.01061371934704261	0.08562785159647289	0.016477983618682607	0.0520099530797388	0.0014303817656514395	0.033375018210275914	0.02837794130734375	0.07909526053982194	0.01786625240054232	0.06452790928114963
-0.014785564006024349	-0.012745389391127376	-0.03526417383652633	0.10426860806971225	0.06919105387375216	0.11370653057592053	0.033030856254218505	0.07464631763317384	0.02805927675792927	0.010075103384972667	0.028515113570333733	0.02832669696390258	0.03391577432259854	0.04166438565299671	0.05117970646492556	0.04855979555456816	0.02317685946957318	0.0025456843868851	-0.002186351960507843	0.0742279604526668	0.029062533986980138	0.06727237567794966	0.059683651781449715	-0.044706945195384235	-0.027486440882803415	0.0019341351746545998	-0.004486947502090305	0.015432863021020454	0.008202145295595181	0.0793477168159342	-0.030081477799603212	-0.004880820966984195	0.019471802852228187	0.02036604400940681	0.08477399131437843	0.014729067717223515	0.05262778366788404	0.028659963860883347	0.055051099815176224	0.09160483591698829	0.1112814300451605	-0.008833013120301408	0.02578909397326387	0.028399689927315536	0.07274005280517673	0.06181031916996052	0.07139982166790906	-0.003065140548687978	0.04675432674161176	0.04058158132580261	-0.027576977018623744	0.008895713312808279	0.026082190417200973	0.028456795836286825	0.0038307194649727927	0.03818721709501163	0.10092220327458634	0.0804921142503032	0.110104721555639	0.03563245014115654	0.034552112187327594	0.008660012290281766	0.08689457914684681	0.10225555844849446	0.09913059449215333	0.012496740270664691	0.0076524039049804815	0.02542680022910762	0.007048043713953928	0.033593667547566625	0.04059232157536577	-0.0008194024930112398	0.010910878779148286	0.07200841079763651	0.08327548667020743	-0.004585158801130668	0.132412610994521	0.10522021516438718	0.015031595709379592	0.025001586564660255	0.009650530012612873	0.04011111409856935	0.029787286918909	0.006052152880811651	0.02088904333764205	0.0012061358352347396	-0.00048352457236508495	0.01419574782692537	0.05532266466257865	0.06952639561209276	0.07943700587776045	0.05675057147339421	0.061041314560371346	0.06039333854011983	0.013437481805076396	-0.0071348066920866315	-0.011344993584584212	0.009397354375009298	0.0761341297265514	-0.03614680799643685	-0.01927451631069374	-0.01380585575634971	0.02358475656175521	0.029708067802747123	0.0416575156556824	0.01958953178575215	0.01150822035320384	0.03346890609544648	0.03757866495081266	0.02570334219262635	0.04429485309215361	0.043782054183632985	0.13723203002576992	0.08631590185952395	0.006729582483468638	0.07127474236353168	0.016706312738216905	0.005181038982481595	0.07969611693548459	0.08326212030361349	0.0866585947046695	0.0003703195258431269	0.0723987074686763	-0.01722764845708577	0.026701549025598986	0.027981402728621624	0.03739807695988087	0.009695104232417179	0.05628822133999614	0.00604717874369462	0.026644020501216142	0.059294325680659316	-0.033797804888286404	0.01981228186965836	0.024835713180889923	0.0258131202002764	-0.006256470874134806	-0.07784496276929811	-0.01397930481577872	-0.05190208078152733	-0.028118956271725587	0.008246563182754879	-0.008317786685221568	-0.04493998708773253	0.13298844223493794	0.1155413330369886	0.04730255162160349	-0.031641670502563196	-0.03781652361634988	0.0019884030124814045	0.04823860365120694	-0.020052539901954686	0.00819643038914128	0.13364309391422502	-0.033794336317053614	0.06913714380227229	-0.012388933089733017	-0.029520871817158817	0.030140326380260735	-0.03562781151971153	-0.021278015518139598	-0.008828139774443106	0.04664382891671051	-0.0030442150838107807	0.001443778715664007	0.019152027718847137	0.041101713408525836	-0.01193190471455377	-0.05304939347711038	0.06048387295185362	-0.031423635158133484	0.0033048741008910587	0.03124207903465956	0.05672968847707058	-0.007377758863597955	-0.01698112848032865	-0.02346083090767989	-0.015825450625688048	-0.07401563631226252
-0.3808609649766012	-0.3990279678006813	-0.3451455809789878	-0.44065537225756124	-0.42245325187007654	-0.4493503503815126	-0.37422115715297305	-0.42661726183682835	-0.39916748941376096	-0.41058963777037744	-0.42084796900370286	-0.4145132466681626	-0.32186639737198197	-0.33908888833271894	-0.411582386464936	-0.3965236868108086	-0.40018193878493863	-0.32572577541021636	-0.3481080954014447	-0.3835351980098339	-0.3876710641352663	-0.4319583591098267	-0.405828815164999	-0.3402137293083368	-0.3617095378974559	-0.31590970070265506	-0.36441011614322916	-0.4037680881122023	-0.3401174901385107	-0.40634924608547635	-0.33255966352319505	-0.3595318263235416	-0.4081392631061785	-0.4295323679653326	-0.4258260479268838	-0.3962865941709455	-0.43017163289047083	-0.4175670400115398	-0.3883861244035061	-0.44096476463986584	-0.4640844579750183	-0.35086950764712926	-0.40880394560925665	-0.40660325723761376	-0.38464900747288844	-0.4038004196989187	-0.4012171200287085	-0.3872110291059406	-0.4169682434389435	-0.42268208127728146	-0.3065158795996112	-0.40211625567245846	-0.40113937674108596	-0.37808279621770235	-0.39615387386965384	-0.4245509419964159	-0.45390690571978587	-0.4447734178465032	-0.4585482006328045	-0.4011940621190067	-0.4203093432413224	-0.39298911415049176	-0.33150951996809785	-0.4168075630461951	-0.4426080688582759	-0.4018590656191407	-0.41146351231841466	-0.41599813095419197	-0.40197777730590817	-0.424697412343834	-0.40029693927116106	-0.39172613363542047	-0.40151176936906885	-0.3851339663763313	-0.41752003811432875	-0.39602695384727393	-0.4389726790789161	-0.4432979449372499	-0.41982534749992223	-0.4237959715560195	-0.4059619246811454	-0.3941249554438665	-0.4111317509654032	-0.3814555342417892	-0.3811765066200406	-0.38312786625731016	-0.4287425623980538	-0.3581374731662699	-0.42927882174426885	-0.42237398677878607	-0.43901607161578365	-0.41076113679436504	-0.33961530989328953	-0.42069272677265773	-0.41144800616066496	-0.39310033093291946	-0.36328405469927855	-0.3807000783826132	-0.43766973905126677	-0.43625373205131246	-0.3504856447114068	-0.3785243134884147	-0.3901332612327058	-0.41294291096589814	-0.4274698424721609	-0.3845644084411763	-0.40032999847026124	-0.4179021181784666	-0.39410796869167236	-0.3981233424228755	-0.4009445800127784	-0.3853343059049285	-0.3655833509399976	-0.4257095755007748	-0.3970329081709169	-0.440245072346212	-0.39408638041925564	-0.39417060318536734	-0.4314748606548832	-0.42785511732581905	-0.4234638934118105	-0.3908860829046505	-0.42502612360294795	-0.3986046495804663	-0.41566299930273237	-0.3938074948609089	-0.4135428523834181	-0.3794408322407979	-0.4336083020108913	-0.43223206375977785	-0.3114027275420625	-0.3915598922262322	-0.32920695040477876	-0.3887981942797644	-0.31294019244938276	-0.40324411023271095	-0.3574381226654071	-0.3278858881277817	-0.3511258034267861	-0.3465328174957107	-0.30533917864173915	-0.39056225636304975	-0.3808925180322123	-0.3205553220599676	-0.22709812423871928	-0.2232939204158128	-0.30978840761819026	-0.3126010239460562	-0.3376108419313643	-0.3800155500133909	-0.4192648248009444	-0.38120584832825716	-0.32341939375834444	-0.24156811836364778	-0.3053409139305259	-0.4014018671955369	-0.38987961146198785	-0.3540548556026639	-0.4084875558560254	-0.310560443507308	-0.39027196273573933	-0.33273692915878184	-0.28721643819653686	-0.39071257439125956	-0.36450279088556264	-0.37962540128212463	-0.42312947314139265	-0.3632517202822207	-0.30391085137542057	-0.42102589201082957	-0.3052742226713974	-0.3822217095557667	-0.35941743070572485	-0.4108844472549961	-0.3234565058350802	-0.36373177612757923	-0.30188801193347753	-0.3546589507399021	-0.31568782296499603
0.19279224761464275	0.1810148005013415	0.22558970548364013	0.15851108050130777	0.14530761145809484	0.15658249733502322	0.17729483223924947	0.1495000195429202	0.16506135311049708	0.16550011907729228	0.1541374119455326	0.15691664588833634	0.2392043610685887	0.20264409068211406	0.14454179324431224	0.15428310501151488	0.16013413080298827	0.22309654101112325	0.1934308437182286	0.17389435512445608	0.17292108989251248	0.1435154572294658	0.15833804621766034	0.23333413503994713	0.20405265482618612	0.2292579266168482	0.18526328408955828	0.16379515749406554	0.21191394355898055	0.1651661454434805	0.24253952034926257	0.18515537589167683	0.16672115297857654	0.1540165688815599	0.14847680213078107	0.1648599155142264	0.14188098589096573	0.15366126781210193	0.15919731797383332	0.14634303981467311	0.14107544078190062	0.18425006337937613	0.1560027895249836	0.1559167515773381	0.16658069100753004	0.15637523701771486	0.1667793809991745	0.1694555710328342	0.15408942086117317	0.1507014173095954	0.28695379406910215	0.1655362075199649	0.15922999346832922	0.17225684568628027	0.17499922262247908	0.15257259486222335	0.14161431046935685	0.13984518532340529	0.1413824435994933	0.1562644472843821	0.15678483717313552	0.16859154241586133	0.21315970588363467	0.16604018379224733	0.1496350989549187	0.1654220176972006	0.1665058982871977	0.16494035197289006	0.16952410602735007	0.15505322724522425	0.15742052197351536	0.18243060511702003	0.15808270268154667	0.1716542702791125	0.15422862077048083	0.1690078803181707	0.17239494953845252	0.16245132625949135	0.13909439559603165	0.15394060912967011	0.16245215482910635	0.16034298153328003	0.15615782097786804	0.17690125411053642	0.17036799174440045	0.19668607731756696	0.13331567092049879	0.18474632583258993	0.1469793519217916	0.15981751737610883	0.1388997226462581	0.14951036357252284	0.20539474016600878	0.15429573366094812	0.1630599042257149	0.175869282754615	0.18484545944541986	0.16430386049518936	0.13751098750385438	0.16990455732539206	0.20502288002789285	0.17634841966286635	0.17050225209985978	0.15397850646427658	0.15091301927304768	0.16885342295498068	0.16183768246193725	0.15972370879987238	0.16395548336988933	0.16779475131889626	0.16502853691075633	0.17344604971798355	0.22095272946439337	0.1499746366658029	0.16152153505790579	0.139029866032842	0.16696657768182538	0.17023399449254362	0.14678874071378675	0.15114570056087842	0.15774550437248372	0.1755290436692416	0.14321557014582426	0.18168281628310864	0.15275392181122277	0.15946019007434836	0.15229991840043994	0.16992538818412922	0.13570221847077435	0.1411314965391967	0.26586297028470796	0.16543039302678647	0.2351288610758678	0.1664180592849322	0.33949316872263824	0.15764778277307673	0.18857679773999075	0.2573022500614123	0.19802064107878098	0.22836360707448247	0.3209915980419079	0.16654944708939187	0.1753097500235639	0.25482529451279334	0.3369600665374817	0.33289419897208616	0.3478862994786359	0.3045187047977558	0.21288627801941454	0.1679103671599798	0.16876536695495972	0.1902921128111312	0.3483576225807459	0.320731428695616	0.24338606697377546	0.19203438142172632	0.18362867395025628	0.19999088102817994	0.1566345516559626	0.2921704675241893	0.23621533295831867	0.20699349494117142	0.345780875938859	0.17389814406590465	0.1896851962345144	0.17701117985988263	0.15072802027244386	0.1902783842250305	0.29292726761866816	0.14329369179508536	0.3131577000203255	0.17209741848599566	0.23004052313301673	0.15209516020220662	0.23378723494723877	0.19043502753584232	0.31168260377273915	0.1947370859467136	0.26811544613783533
-0.1340365050554971	-0.1131658616035553	-0.18297076804573636	-0.03852980286103802	-0.06441495846803286	-0.03461782834013734	-0.11634642360575545	-0.060106683355235474	-0.09436446564432385	-0.09678158820953986	-0.07975654842857291	-0.07789212214968327	-0.18639724124036	-0.14435213030111005	-0.07490265122583528	-0.08312857291649373	-0.0870129440247292	-0.16781499405250677	-0.1411388307753284	-0.07379713468665514	-0.10866521097401763	-0.05973618204168453	-0.07405986099565837	-0.19251362189444027	-0.16275221682838975	-0.16921267844650378	-0.13579948653980783	-0.09167474985460092	-0.14726842986672808	-0.06537983347469575	-0.19067597322149457	-0.14523795471074624	-0.08416525132464286	-0.07886953032501168	-0.05348721696321089	-0.09129377760067417	-0.0628392860654764	-0.07610913136066327	-0.0763998375004647	-0.05706497207216263	-0.053349556378005605	-0.13163538807174324	-0.07935275538576816	-0.0728687701053681	-0.07829465690256912	-0.0650369616364125	-0.06797355776574034	-0.11190841242801719	-0.07143622368161812	-0.06957778974216328	-0.23227203528564244	-0.0942658130385289	-0.07945516425346749	-0.10254531802161765	-0.10811881821164904	-0.0723121332400474	-0.05982759757521333	-0.05583486306037544	-0.06138959290065919	-0.082200397273998	-0.071958248244051	-0.10244912953155302	-0.12167210822734659	-0.05291962420059729	-0.04508331509328703	-0.08862875760422173	-0.08708865773311708	-0.07586693729250926	-0.09850517080082241	-0.07870536551596105	-0.09513216060876506	-0.11722995736379105	-0.0923256817285164	-0.07363483616107147	-0.06490769367743864	-0.1100615000566538	-0.052307804806294975	-0.020066139513571585	-0.06239608900013266	-0.07293071418947719	-0.0928216456818281	-0.07707957155345996	-0.07176145818525592	-0.11480150139432208	-0.11077861971106653	-0.13214413575837664	-0.07242864430095952	-0.11272828207900454	-0.06232250482708572	-0.029104950405680022	-0.05099273027622506	-0.05956462736783735	-0.14756012680920588	-0.0848105956826404	-0.08100528280602237	-0.11572645421967967	-0.14181929083737807	-0.09828167911928684	-0.046708795007077045	-0.0909069214229481	-0.1573955749248316	-0.1251183222095893	-0.09100686782144607	-0.08362300833571401	-0.07679739521250767	-0.10379370477278435	-0.09142169828083979	-0.07611560749663782	-0.09418497133922754	-0.10032019281237714	-0.09442245585799763	-0.1125366741795869	-0.08223207847798836	-0.05678067013502197	-0.09005244973973964	-0.048718886214164744	-0.10218070749543365	-0.1089972671490918	-0.052579952815172096	-0.05093714010742875	-0.0538492667895631	-0.11083067399346169	-0.062356899685847095	-0.10884918426354287	-0.07251828982113778	-0.09122932664211283	-0.07992281563222137	-0.11619643237324034	-0.06054159936035347	-0.07235346049511213	-0.19981969508929237	-0.05422404504948802	-0.18817521458538614	-0.09874800564201319	-0.2719524398103541	-0.08338924829978861	-0.13874157065589665	-0.21386658403896847	-0.14243685850550192	-0.18368421711049202	-0.2592124070671696	-0.09943042502316768	-0.11983722700417954	-0.20534529011229996	-0.17174589434282997	-0.17654139255729273	-0.27394471603263526	-0.24898972505051653	-0.1348988753065583	-0.11042599822725438	-0.0473299045894285	-0.12158239745915442	-0.2803338934475221	-0.19366003877075808	-0.1798879161390954	-0.03213520045717631	-0.12759226136839794	-0.11510471527017169	-0.07450417520375116	-0.23910147010575628	-0.096630614151923	-0.1507995708197481	-0.2736208382329317	-0.10583391031462802	-0.13379829209263405	-0.11251434460099602	-0.07596949731739958	-0.13541102306956854	-0.24452560201708567	-0.054514448366764334	-0.2573326144984277	-0.10173653498432411	-0.07551204189780439	-0.07421275166037541	-0.18023849392297792	-0.1413190431337747	-0.2525637686317188	-0.14176023821321795	-0.22551707098768475
0.3623173652980512	0.353217659432487	0.3926175845070549	0.4242069068625382	0.397427258615287	0.42348263508794176	0.40312550154990684	0.3879341626948744	0.3775562134461639	0.36465235610131796	0.36852503175346435	0.37193762528365254	0.4807269107518933	0.47028195807029777	0.4082711711731783	0.4040098198662941	0.3775252140720186	0.4297309740859137	0.3990230892256705	0.4270894430957187	0.40149775058927356	0.3926801691743346	0.4065704647802535	0.3942034129981014	0.37929666144491364	0.44344438760886795	0.3913070587950253	0.37212210346710656	0.4138225140157748	0.3802528405253404	0.4356864804366318	0.3799701229555749	0.3634616514707056	0.3647611570356956	0.39057132630019825	0.37022012677053834	0.3854424785032217	0.3715426352459014	0.4289367678095635	0.41193537831507193	0.4161033596917514	0.405483214896125	0.37574396636901186	0.39325831795091126	0.4225967366323837	0.39776434299155655	0.39975383696649386	0.3760164927040848	0.38001828186254766	0.3749639167055007	0.47615057456653426	0.367363232944203	0.38719434953802817	0.4036871760547398	0.3691043530062006	0.37661830905031185	0.4106611229511388	0.397396523420024	0.4138739405821381	0.3883516345967991	0.3715499203092713	0.374038487737046	0.4893729363021959	0.4249685229510665	0.4083026773022665	0.36939580348064177	0.3583897345478095	0.36530095116466715	0.36639801306760683	0.36488426058725115	0.38581300849911404	0.37267840430745686	0.3746144124949494	0.4301006050161846	0.4109830675232107	0.3657910205899409	0.4259519275123422	0.4001107585985021	0.35714073632334664	0.36327451681668693	0.3667003363179026	0.4046768973447979	0.3809255199369768	0.37915655569996615	0.39547825938098813	0.3692817735562112	0.34663135191442357	0.4041557323684763	0.37995838350070477	0.39679309590211137	0.3998676594223859	0.4064521206772434	0.4734306177694519	0.39116697496450725	0.3673239873807499	0.36591409517444046	0.38497147327766973	0.39801631449577024	0.4022540200182777	0.33231339088783457	0.3908090373597005	0.3742009705804224	0.38372711535391263	0.3737594914534699	0.3731658802090449	0.3907732116128008	0.3771721762773879	0.37267021881089785	0.3918670545548803	0.3794113670905845	0.40186106543472394	0.41841756239892186	0.4838637528942848	0.4123026312706577	0.3746819033684624	0.39407729689666277	0.38282975935066876	0.3764258904873632	0.40932540872979845	0.41471525987702956	0.39685555470228023	0.36801641071921737	0.3935251531898773	0.3441495252508709	0.3774022921428265	0.39072112211477744	0.3859808101134105	0.3911338913242931	0.38293274506348474	0.36736463622678583	0.4909169782118108	0.42754843938144466	0.4143766619920994	0.39283400014602315	0.5339853538386974	0.3836911250058333	0.40146368090921974	0.40529289349329206	0.3944417599022081	0.38858397426387664	0.4956104662520167	0.37552532099050684	0.377060507647132	0.4184899716520885	0.567316231098401	0.5700308272658674	0.5509422114563112	0.49119633445498245	0.3481652159388607	0.3800910400630296	0.3687622648201046	0.36698764012233964	0.539892382423472	0.5409415598244162	0.3971438084232021	0.36888983053422003	0.3750610392100847	0.3409416117726508	0.37882383999830155	0.47731868855288545	0.3321190234872121	0.4124336267874764	0.5386306806542024	0.37408709029224246	0.40093355629380445	0.399712602608638	0.38058844193159974	0.39054621927220695	0.4783769115807496	0.396626137471955	0.49111023624568656	0.399888173410241	0.3633976786200505	0.4101300386465156	0.43562877648082887	0.3888458893069571	0.503600790899648	0.40532686831608195	0.4314847744898679
-0.4023593794317392	-0.40046189372328866	-0.3755783994160325	-0.48320697969721854	-0.46626044960397633	-0.4874770540500945	-0.4413604683734	-0.4541262289065564	-0.4297293714042086	-0.41820737210050796	-0.42362847801473286	-0.4312348617700441	-0.4286111892790268	-0.45410215116169206	-0.4638975362513607	-0.46059632351090496	-0.4378835724400358	-0.41599282859216385	-0.42358968862294494	-0.48000976441928817	-0.4386455531194597	-0.45316316012555397	-0.46288399570723965	-0.3664164767005237	-0.390283203697989	-0.4249014620939997	-0.42134931910789636	-0.4297266280471966	-0.4265945881228412	-0.45221240679801594	-0.3901282359874713	-0.40907926976790443	-0.4220545210823692	-0.41775927399108753	-0.4542674138131369	-0.431050558449876	-0.4448479398621321	-0.4279689858884002	-0.47775823579648197	-0.46723636157831033	-0.46570476761868423	-0.4324206633289415	-0.44120014814614855	-0.4556221452558943	-0.48503446941113765	-0.46970581918409166	-0.4701898140592912	-0.4219525866751967	-0.4430556802179611	-0.4324074985577873	-0.3394489998551079	-0.4202905154724466	-0.44574076225357623	-0.44922159640128595	-0.4170050872577942	-0.43169233724114925	-0.46610977862089337	-0.45472294873539304	-0.46805557205086407	-0.44843376606358887	-0.43488100866416096	-0.42634612349086487	-0.49768657167124236	-0.48203982071817747	-0.4689033788619322	-0.4303886210369739	-0.4148466007425941	-0.42429993257231197	-0.42063780250643334	-0.4197591153473759	-0.44732531783900625	-0.412008611733119	-0.43470587756582674	-0.4853759598841772	-0.47572765603487804	-0.41580817804762155	-0.48069100289367966	-0.4215756875492455	-0.419641447984292	-0.42455724978155357	-0.42222502535609124	-0.4693337754712607	-0.4487299476728956	-0.4231533451748131	-0.44236450522158416	-0.40565728157175057	-0.41111875804634773	-0.4443899542324254	-0.4382539065188837	-0.45409651987212424	-0.4659835761166535	-0.4704157266264795	-0.4673871152215063	-0.44869855202741354	-0.42692429448347996	-0.4113639591485418	-0.41575200723167755	-0.44786982326215136	-0.47094774970813186	-0.3915173622008676	-0.40210863106115347	-0.41346444035311	-0.44236656260572904	-0.4328000948260753	-0.4245660672058689	-0.4398499439172039	-0.43190349934926237	-0.4293622867745162	-0.4464139412242434	-0.429684706072282	-0.4504737424908804	-0.4501789063447082	-0.5075781126099699	-0.4718916074367598	-0.43201461627650933	-0.4555615894782442	-0.4322508147173649	-0.4219856651337642	-0.47616407139340006	-0.482629116180133	-0.4331885743500829	-0.41831560362143533	-0.45734524390056613	-0.4020296137731801	-0.4394847006687979	-0.4474863537542496	-0.4452281446035218	-0.4359599914113343	-0.4413743474888264	-0.4091625071079927	-0.4124590546714236	-0.484793213672672	-0.38371713534833224	-0.4439027903857526	-0.3184351505019976	-0.44408893721660786	-0.4252878218407529	-0.3333042538029006	-0.4134192799515328	-0.3670823342234821	-0.304590456647026	-0.4294489201767831	-0.41792920471991996	-0.3605171008255722	-0.4838253661491025	-0.48384623480688965	-0.3300400264913694	-0.31651860006448806	-0.3870067219443874	-0.4313847022538259	-0.40240942852403455	-0.40743130792215043	-0.29900303826427815	-0.4556865779862549	-0.3826053513028352	-0.4278840167046905	-0.40820790596008055	-0.3933929825464062	-0.4441710038620012	-0.3261950490524064	-0.37841744911407277	-0.42834739529832216	-0.3537158118231459	-0.4203303680036808	-0.424927522251543	-0.4380408736873404	-0.43883206714527784	-0.41991278032727747	-0.3237862788927876	-0.46423227957798313	-0.3070652849222256	-0.4410714836585401	-0.4111300061022128	-0.4690215109266532	-0.4068238045111168	-0.41298337474169905	-0.3268403373955366	-0.41822564747425656	-0.3294606639111914
0.011408508243814217	0.028175898194608	-0.001255613410379594	0.016013400348048573	0.0377307901306457	0.02342642827291276	0.02218547745428405	0.041994258565732495	0.02020850237592882	0.022411412701494465	0.04159206210692097	0.048679651706831834	0.013996740389510584	0.023312430346499838	0.029655099010483646	0.033655498905239445	0.042137967297491905	0.027003749716972933	0.024657285587147387	0.06383673913947678	0.014664040521889438	0.039211881788330766	0.03640169451987407	-0.008440685055731909	0.010131373581618627	0.029735264616811266	0.026071515732185677	0.03836740899524911	0.014547176168360779	0.035962417548265374	9.143918499547599e-05	0.022347430370393287	0.04505339871706801	0.052690145095711	0.06031568695442996	0.04123677575091528	0.04989151337967558	0.04568402676451576	0.044636052122856304	0.04766260816890884	0.044017658206651544	0.045040920033602216	0.04343531716934225	0.06472660202330374	0.04316269044160423	0.03929265399144098	0.03994398994127819	0.024771121284529615	0.04337687584511295	0.04976518809121408	-0.015479369873224666	0.03584248564520043	0.0472434896611969	0.030374368685581826	0.025093421971484994	0.040670849234642745	0.03332223382531316	0.042568803208668515	0.0291655492299151	0.032922151571554994	0.03327041127069662	0.030506266341733076	0.04748513261551279	0.05425585089743658	0.051307208580746624	0.042257332017595975	0.04382164883469543	0.04445350849884447	0.031598250294676986	0.04695285690241846	0.02060099583015655	0.012432653136422847	0.025657425203060455	0.0581129813263838	0.06725701455193331	0.02435961110264033	0.04916839069984341	0.14686442212288442	0.07525494052513236	0.04412054944208331	0.03620446425456876	0.024155058928857887	0.03127121703640165	0.013085789868812717	0.02331375345317145	0.020258765649167995	0.06944979423166152	0.03690793165840674	0.040327563908025915	0.08819133042536768	0.04002411603379298	0.04664057267223558	0.035387786231459356	0.03821767752856825	0.03481001206915289	0.01755292838635876	0.01939232336262943	0.03626744249436907	0.053445326494991466	0.029548026805652244	0.015807846193510652	0.01913365364586704	0.03373634646112848	0.036101140763383124	0.03735813411676481	0.03306073259881796	0.03355705398515306	0.044764570331315964	0.02891279647670926	0.03071508753365694	0.028686584459012093	0.004537091528906759	0.0469240564239576	0.031976550479742835	0.03409809452983158	0.04500336618228645	0.03108566451951862	0.020004889534467316	0.058144458278371294	0.050634380324045866	0.12952869415557994	0.02085088023835928	0.041426279245763836	0.03381409034545495	0.03679175142018752	0.039393947457979125	0.027363695238291533	0.032020751524744345	0.04836225124932533	0.0420648364716414	0.01777472855454934	0.060616872937614086	0.005525745215571101	0.029572674540591648	-0.01477429505753701	0.03768796299183208	0.023664725243941545	-0.02597929522508667	0.03022893428199043	-0.0059366703480052685	-0.011428237196453264	0.03595417777466493	0.013773380993576168	-0.0021927744892177997	0.04631018902732789	0.03317132810896303	-0.0343067276924255	-0.01734572232561167	0.07574327472650533	0.02469451957068447	0.12682643079229972	0.01636606743677621	-0.00772037883033265	0.03399515243661606	0.04058668819707041	0.12825316790004326	0.0003832481403048815	0.0793271872908974	0.04150388161554501	-0.019390204486452137	0.03019011534878978	0.0311174923431249	-0.02395461761974675	0.026885250549067152	0.016184280316065447	0.032580902063047104	0.0353946563613598	0.018332647299362806	-0.01847099152089389	0.042385596029300754	-0.01524801842060601	0.026516049798360836	0.12333696209289684	0.033262490772593425	0.02108343297925165	0.009898219407290978	-0.01570954446209015	0.023541022139574527	0.0035883268976753396
-0.03761341940588235	-0.04751220236017943	-0.012114834551177664	-0.10148918868179728	-0.07774557250962603	-0.10154668607580113	-0.04647613259673651	-0.07021708067375486	-0.05726711844745273	-0.055477149663104894	-0.059968102723722064	-0.06559933801004929	-0.012370966007617515	-0.023011817500282347	-0.06833458490138568	-0.0629183107276587	-0.0620289000295806	-0.013865486524754764	-0.022512443960950465	-0.060601628489036094	-0.05104815269827094	-0.0751890918574165	-0.06639747220758462	-0.008804021372612561	-0.024439127136361746	-0.010474916588767272	-0.0344696478695697	-0.054922349867028666	-0.019702184268502523	-0.055810362944415035	-0.020377401599517578	-0.035594200839561344	-0.05211278713711083	-0.043364927297033465	-0.05794197013374837	-0.057312464401113136	-0.07169634338913906	-0.06146437283969418	-0.06778149685116884	-0.08364644491671945	-0.08898065527766398	-0.03269713579453763	-0.0633951259350357	-0.06722114624399587	-0.05367962371103184	-0.060147161254202455	-0.05673956295030448	-0.048911072954300625	-0.06503963406732167	-0.06967769828988461	0.027484602806660083	-0.05412113546502527	-0.059507387180874075	-0.04865593767560951	-0.04963291150307379	-0.06453537646903386	-0.08782022817282532	-0.07906531317943623	-0.09183821196489843	-0.0588418107141641	-0.05600403290936258	-0.05284657897713553	-0.018561735452268482	-0.04892449950875215	-0.06744020869884772	-0.057350471680918017	-0.04684282893359655	-0.052033191921119507	-0.054219232552188676	-0.05993038022709986	-0.06740037620775198	-0.04574631149988197	-0.0636870439519046	-0.05800362603621324	-0.06357741920891842	-0.05271994630114517	-0.06817244294796397	-0.0035765282211283195	-0.03256797193744278	-0.05427795012577881	-0.05661170267529257	-0.06543819065422483	-0.06883979470147635	-0.04991884817620966	-0.04875210311705659	-0.03285512013603663	-0.03192318723904759	-0.03236650399299072	-0.06747598465877346	-0.05564851863230362	-0.07571761042462029	-0.07562923016532307	-0.021850806193193725	-0.06689414994934949	-0.05772033961306029	-0.04774727854047621	-0.03560214866553925	-0.05426080067909035	-0.07334124884468195	-0.0401169765057008	-0.020051311846041767	-0.04226530727192958	-0.048399035818952454	-0.06919874357228813	-0.06812284525324301	-0.04690138897243269	-0.056718732252684215	-0.053364482268374744	-0.05873228245834548	-0.055919255562932466	-0.06611661269969397	-0.050366469333542316	-0.04654482914923268	-0.07524355412475424	-0.05282183217565513	-0.07524420518190848	-0.0521447646681837	-0.051509292778206664	-0.0730326898179962	-0.07273010702716971	-0.01763544711477512	-0.048147439554273155	-0.07800561953542019	-0.042595166607667725	-0.06496081801475621	-0.05883666877402234	-0.06829042690135982	-0.05172887816269843	-0.07593268978773214	-0.07839245539117802	-0.01536051782044455	-0.07075973851881227	-0.007421126849856727	-0.05242757678088318	0.08411169766069886	-0.05871879103724369	-0.03265366909145502	0.005396001343664511	-0.01666997608064981	-0.010580679679015617	0.06883206317682054	-0.04896040236621434	-0.04175819546539035	0.0049770441085948	-0.019276285459416412	-0.02752772065121127	0.07724271705266213	0.04778410661983225	0.005693796087318778	-0.050614538981566246	0.007694327650330471	-0.03532601534637621	0.09832811661543737	0.007613113791276868	0.02538749328520397	0.012719633790630527	-0.03892014630999947	-0.0014264559527126935	-0.06406984571716444	0.03835056792426973	0.01964456232196453	-0.0192224796282892	0.05859686032611543	-0.04676957531885963	-0.03240135202061804	-0.04718505243423181	-0.07585202148465785	-0.03197554309848642	0.028124578070245557	-0.07253602771400268	0.059331032149798915	-0.05007161107498588	0.025531786795164726	-0.0719967883985725	-0.011904009934145601	-0.027051953194050085	0.04548359598773606	-0.030571509961233742	0.020510994920918527
0.40837921694051393	0.41889142816657693	0.371993410820395	0.34888710315066845	0.3736886915342767	0.35320406519870656	0.3720025372829005	0.3825499822965655	0.39386779835936536	0.40924937008066503	0.40422928302984934	0.4011518206178877	0.3065646001203622	0.309547007158254	0.3648823660117571	0.36288148981801105	0.39112918256750495	0.34091928425377777	0.36935347724729645	0.34419309134196113	0.37792952811435093	0.37911074603452144	0.368003761865376	0.3636029801898418	0.3926885474160113	0.3279200510442954	0.38299246386901414	0.4006139633991454	0.35882051210876637	0.3838475481742672	0.34013000087592854	0.3924829504291674	0.40678690816616453	0.3999731807780779	0.37687922329274925	0.39916133165056067	0.3853535412406651	0.3993079790091328	0.3488636165722499	0.3677108211829648	0.37048017543700956	0.3673277214446034	0.3945425598624129	0.3822789137008568	0.34565199539425956	0.36636924774169144	0.3697571152030607	0.39631147848106935	0.39127855398660494	0.3988362284306251	0.26898560100220886	0.4037023853118911	0.38144369737947287	0.3679416018427549	0.40541694083584207	0.397306543171201	0.37540395852093916	0.3795072199159875	0.3752628924233772	0.37917667191391413	0.3990165454105265	0.3990107701630873	0.2945051808139088	0.3476076862897151	0.361363376092919	0.4022692342366967	0.41012942954349124	0.40406295057265734	0.4083904856729646	0.4050636713932031	0.3861090902858178	0.4048755782449531	0.39454144245619804	0.3439924142080553	0.3659887840261818	0.4080620828421359	0.35206855217236205	0.3791909717895319	0.3942050003171891	0.40151745219396684	0.406711654447119	0.36345109899325706	0.38769039885500794	0.39366919841726805	0.3781442224602674	0.4069301850996096	0.39205459134908344	0.3633379118290612	0.38974472475882144	0.37439200688582835	0.36683185600268126	0.3606431298834971	0.312561037959937	0.38753584883727615	0.40418561519653423	0.4073599568579372	0.38638696710117953	0.37397829011162426	0.36736659947590167	0.41514115872030427	0.37875757792074344	0.39877741420714125	0.38622376287129334	0.3977708139324525	0.4010382075182924	0.38230208122292175	0.39317865791631573	0.39968267494910786	0.37978203660659793	0.3954628141852684	0.37852453123548263	0.36121401836146955	0.30365603913861405	0.3588250445345636	0.39310703347775655	0.377256151586286	0.39119650408918966	0.39964131978643286	0.367080005926931	0.3600769438898717	0.38261205089027533	0.405441940077014	0.37647858237903087	0.41963233851565906	0.39174775085643315	0.3786471872535239	0.3863705351713937	0.3844790740929123	0.3863860536172728	0.4162220042056089	0.2998262884827508	0.35048961313141613	0.3494878067465053	0.37878522819406096	0.21174437243199468	0.3847772703156344	0.3713353925475556	0.34140808950764484	0.3782425046391352	0.37052885128564317	0.23296738249847038	0.3943902179777141	0.3933959601189478	0.3416518254885371	0.2360116316668986	0.2251853340477034	0.20211827343914313	0.24814660195254784	0.4113794609943819	0.3891826192079951	0.3897175810019842	0.40476353655285474	0.2046353128045948	0.2534612922922168	0.3626035944154247	0.38303017981364085	0.4004864312971388	0.40635845761987005	0.3891886646565474	0.26273436285600565	0.40810013939586814	0.35549033311880357	0.21753319879803418	0.40026449848834367	0.37336527202199843	0.37927658451421215	0.3927090040686096	0.3820476641781454	0.2589398481955099	0.3675563915328906	0.24080679317564485	0.37341554864534	0.4061024893265025	0.3616069729088223	0.3383413204968893	0.3820304712094422	0.2355277148936844	0.36773870731256675	0.31643294757840107
-0.589871348016601	-0.5924025621534769	-0.5709560891428634	-0.5444470596119542	-0.5662862288340736	-0.541919945416732	-0.5689329669189914	-0.5781523130305002	-0.5893503658256525	-0.5861631524874521	-0.5842450609676734	-0.5877814587756957	-0.4968401972338663	-0.4967587147116945	-0.5567641441206842	-0.5662934600288705	-0.5846781095008237	-0.5352313705378137	-0.5590917291433112	-0.5384576653470593	-0.568734004090523	-0.5708642272665287	-0.5675350176158368	-0.5724397694443056	-0.574813372791256	-0.5243248720775099	-0.5651358956506553	-0.582492280179233	-0.5532184336233675	-0.5857068713051875	-0.5270761631225737	-0.5827295051658703	-0.5893764694519257	-0.5811226658392401	-0.5746190276884166	-0.5917367191435502	-0.5750697492624817	-0.5845486822144156	-0.5373741891318146	-0.5530710493510382	-0.5436370372346903	-0.5527219785310452	-0.5828354924909678	-0.5678825286627945	-0.5552162397977346	-0.5725142376615542	-0.5772187384847562	-0.5789958680445314	-0.5832705279401902	-0.5851987493185405	-0.5270966654778377	-0.5853138322343834	-0.5730529860208078	-0.5628153359556827	-0.5840737780173972	-0.5812687672639187	-0.5605007159723817	-0.5682949900241283	-0.557399721502882	-0.5743451415646778	-0.5808005838970218	-0.5855395930046638	-0.5049724749554647	-0.5392097111811177	-0.5459896637736706	-0.5886089898532704	-0.589924343059963	-0.5861944353070808	-0.5873720175214238	-0.5903533295650891	-0.587075701382736	-0.5846259997545025	-0.5829683463296896	-0.5392839843157694	-0.5544919433496666	-0.5882808309096725	-0.5403750941137127	-0.5065722443416357	-0.5928413998873614	-0.5853062280949484	-0.5870407222351383	-0.5674112717209764	-0.5804619531695002	-0.5853872866763566	-0.5723128010853099	-0.58419813961562	-0.6022489535687703	-0.5601191900098387	-0.5783272753272432	-0.5553224545919121	-0.5589397041954975	-0.5599964137205194	-0.5086290889653544	-0.5666157595969215	-0.5857220313781839	-0.5868046858440163	-0.5701266881843253	-0.5670987684862866	-0.5487409831839613	-0.58920450838786	-0.5653478571820899	-0.5826083463703134	-0.5771046447242634	-0.5885394568503522	-0.5829634382184079	-0.5731283908223702	-0.5763980675656013	-0.5805497282829071	-0.5763011494334155	-0.5837351449399808	-0.56940134655742	-0.5512305706379731	-0.5267667129828189	-0.5590402384787082	-0.5799899259372778	-0.5660713397839537	-0.5771741884413807	-0.5812386683812897	-0.5461074651991252	-0.5441549507455968	-0.5462925066306729	-0.5891597890858715	-0.5740043541467379	-0.5994492176553867	-0.578267492701507	-0.5747076491205337	-0.5773167563871159	-0.573792619540919	-0.5787474886371655	-0.5948426087323782	-0.49503228347560935	-0.5382064890037872	-0.5538349579900722	-0.569911385277447	-0.532951366593042	-0.5743499879263804	-0.5543911372717856	-0.5709185964255789	-0.5576456165824516	-0.5725426532437964	-0.5437377125815607	-0.5820173969301041	-0.576966100191754	-0.556052917496893	-0.5681915047949516	-0.5556581715434398	-0.5366927893772431	-0.5282539340108158	-0.6047650540575817	-0.5824795804593839	-0.5664379642760605	-0.5841926825122712	-0.5437477682912929	-0.556070977107459	-0.5800458970838245	-0.5735642089007175	-0.5736672204648255	-0.6043011193849058	-0.5814445591412862	-0.5282268818424208	-0.59383934713107	-0.5461641355673509	-0.529573466775358	-0.5799017026329801	-0.5566708017809576	-0.5653129316585557	-0.5789216428108301	-0.564275081127699	-0.5263649948359754	-0.5678197820874674	-0.5410742137453608	-0.5592751009814729	-0.5877402000399689	-0.5579808737183425	-0.5305339173583944	-0.5620781091250362	-0.5198447917720628	-0.546093120932451	-0.5430193137418646
